~o
<STREAMINFO> 1 39
<VECSIZE> 39<NULLD><MFCC_D_A_0><DIAGC>
~h "a"
<BEGINHMM>
<NUMSTATES> 5
<STATE> 2
<MEAN> 39
 -4.737034e+00 -9.664407e+00 -6.173852e+00 -8.810143e+00 -5.171978e+00 4.319617e-01 -1.312907e+01 -1.451105e+00 6.481957e-02 -9.280313e+00 -1.761497e+00 -7.554271e+00 6.574163e+01 4.091367e-02 1.064359e-02 8.991396e-03 2.531600e-02 1.937232e-02 -4.274492e-02 1.280601e-02 2.775440e-02 2.279443e-02 -1.651559e-03 -9.899090e-03 7.695923e-03 4.004035e-02 -1.767646e-03 1.540439e-03 6.135515e-05 4.251959e-04 -1.557349e-03 -1.046270e-03 2.973665e-03 -1.311411e-03 -1.019101e-03 9.417458e-04 -9.078390e-05 6.379035e-04 -2.269898e-03
<VARIANCE> 39
 7.994393e+01 6.136353e+01 6.699213e+01 6.598586e+01 4.596598e+01 1.051691e+02 1.163273e+02 6.872271e+01 6.559930e+01 6.605095e+01 5.292226e+01 4.976149e+01 2.984406e+02 3.645408e+00 2.083157e+00 3.086377e+00 3.079408e+00 2.698725e+00 4.545879e+00 3.287284e+00 3.739816e+00 3.748391e+00 3.121941e+00 2.910633e+00 2.789021e+00 5.088816e+00 5.571248e-01 3.498333e-01 4.494619e-01 4.912638e-01 4.819358e-01 7.525519e-01 5.394415e-01 6.317006e-01 6.025788e-01 5.167770e-01 5.016021e-01 4.973302e-01 5.619537e-01
<GCONST> 1.350961e+02
<STATE> 3
<MEAN> 39
 -4.557929e+00 -9.590666e+00 -6.127099e+00 -8.678300e+00 -5.105103e+00 1.983202e-01 -1.301493e+01 -1.329574e+00 1.660259e-01 -9.281849e+00 -1.815184e+00 -7.507597e+00 6.591661e+01 3.107209e-02 1.569208e-02 8.560067e-03 2.571377e-02 1.055052e-02 -4.661202e-02 2.759767e-02 2.074949e-02 1.792206e-02 2.141413e-03 -1.096362e-02 1.100013e-02 3.163494e-02 -1.897388e-03 7.153834e-04 -4.589459e-05 -1.256728e-04 -1.751675e-03 -4.531654e-04 2.754752e-03 -1.411648e-03 -9.727691e-04 7.186244e-04 -1.908598e-04 5.810568e-04 -1.252561e-03
<VARIANCE> 39
 7.998369e+01 6.255983e+01 6.532520e+01 6.656474e+01 4.729330e+01 1.043743e+02 1.149445e+02 6.932764e+01 6.501933e+01 6.673623e+01 5.332581e+01 4.997179e+01 2.900994e+02 3.695038e+00 2.129660e+00 3.097917e+00 3.074473e+00 2.772171e+00 4.658251e+00 3.348256e+00 3.777062e+00 3.728395e+00 3.138564e+00 2.932686e+00 2.829584e+00 5.259126e+00 5.597772e-01 3.581041e-01 4.569930e-01 4.899326e-01 4.944967e-01 7.884735e-01 5.514500e-01 6.368666e-01 6.021458e-01 5.204741e-01 5.040705e-01 5.064050e-01 5.811652e-01
<GCONST> 1.354817e+02
<STATE> 4
<MEAN> 39
 -4.259954e+00 -9.482513e+00 -6.007386e+00 -8.479652e+00 -5.236344e+00 -2.175319e-01 -1.254018e+01 -1.129951e+00 2.308629e-01 -9.255330e+00 -2.000702e+00 -7.383654e+00 6.634093e+01 7.810596e-03 2.214910e-02 7.250749e-03 2.345122e-02 -1.699609e-02 -4.602344e-02 5.008945e-02 5.675586e-03 2.564174e-03 8.454410e-03 -8.214564e-03 1.656733e-02 2.926382e-03 -1.734300e-03 4.767269e-05 1.428847e-05 -4.495764e-04 -1.992513e-03 6.045924e-04 1.445444e-03 -1.299514e-03 -1.223135e-03 6.442694e-04 3.134487e-04 3.183120e-04 -1.537438e-03
<VARIANCE> 39
 7.973918e+01 6.390781e+01 6.249179e+01 6.788213e+01 5.124584e+01 1.017843e+02 1.115491e+02 6.966891e+01 6.241478e+01 6.696918e+01 5.506810e+01 5.006617e+01 2.743076e+02 3.730593e+00 2.122289e+00 3.029970e+00 3.049809e+00 2.902949e+00 4.881915e+00 3.439830e+00 3.797774e+00 3.585231e+00 3.150625e+00 2.979157e+00 2.933786e+00 5.402179e+00 5.545669e-01 3.559854e-01 4.554905e-01 4.846234e-01 5.158526e-01 8.625752e-01 5.691166e-01 6.377319e-01 5.837224e-01 5.245752e-01 5.083414e-01 5.313807e-01 5.843469e-01
<GCONST> 1.357650e+02
<TRANSP> 5
 0.000000e+00 1.000000e+00 0.000000e+00 0.000000e+00 0.000000e+00
 0.000000e+00 8.032998e-01 1.967002e-01 0.000000e+00 0.000000e+00
 0.000000e+00 0.000000e+00 8.032997e-01 1.967003e-01 0.000000e+00
 0.000000e+00 0.000000e+00 0.000000e+00 9.357711e-01 6.422895e-02
 0.000000e+00 0.000000e+00 0.000000e+00 0.000000e+00 0.000000e+00
<ENDHMM>
~h "b"
<BEGINHMM>
<NUMSTATES> 5
<STATE> 2
<MEAN> 39
 -4.441398e+00 -7.789618e+00 -4.046373e-01 -9.368937e+00 -9.621182e+00 1.624790e-01 -1.193047e+01 -6.797298e+00 -1.056089e+00 -1.105497e+01 9.835918e-01 -9.542759e+00 7.003448e+01 -1.021408e-02 -3.315849e-02 9.459212e-02 1.659214e-02 -3.240453e-02 6.980407e-03 -9.372286e-03 5.344083e-03 -2.617875e-02 -4.020618e-02 6.368706e-02 2.094870e-02 7.867409e-02 -1.767500e-03 -2.949179e-04 -7.461958e-03 5.014642e-04 2.845240e-03 9.597691e-04 3.870554e-04 3.932226e-03 -5.723683e-04 3.636257e-03 -1.439286e-03 2.673875e-03 -9.298542e-03
<VARIANCE> 39
 8.034491e+01 4.817304e+01 1.360860e+02 8.490918e+01 6.482410e+01 1.003649e+02 6.941470e+01 5.995710e+01 7.430037e+01 6.837460e+01 7.370896e+01 4.964391e+01 1.885090e+02 4.156755e+00 2.068020e+00 3.788392e+00 4.004680e+00 4.616366e+00 4.210273e+00 3.647649e+00 3.659818e+00 4.393506e+00 3.831435e+00 5.227316e+00 3.118867e+00 7.685137e+00 5.858182e-01 3.392270e-01 5.726948e-01 5.596524e-01 8.665063e-01 6.082897e-01 6.472642e-01 6.254653e-01 6.921945e-01 6.406187e-01 9.033095e-01 5.540683e-01 9.939677e-01
<GCONST> 1.406583e+02
<STATE> 3
<MEAN> 39
 -4.514914e+00 -7.969528e+00 -8.467340e-02 -9.298593e+00 -9.724272e+00 2.354270e-01 -1.196694e+01 -6.698211e+00 -1.187490e+00 -1.118709e+01 1.272668e+00 -9.396141e+00 7.028164e+01 -1.433297e-02 -3.719583e-02 5.271868e-02 1.692290e-02 -1.451874e-02 1.356918e-02 -9.810714e-03 2.698694e-02 -2.438275e-02 -2.227530e-02 5.365608e-02 3.095333e-02 3.882445e-02 -5.195255e-04 -8.320552e-04 -8.418563e-03 6.180169e-05 3.750883e-03 1.298587e-03 -3.788674e-04 4.383040e-03 6.268996e-04 3.442625e-03 -2.202388e-03 1.784586e-03 -7.709646e-03
<VARIANCE> 39
 8.531726e+01 4.923635e+01 1.337177e+02 8.480854e+01 6.571600e+01 1.076378e+02 7.318924e+01 6.272522e+01 7.110207e+01 6.608715e+01 7.217442e+01 4.882737e+01 1.712182e+02 4.418340e+00 2.040972e+00 3.735377e+00 3.961041e+00 4.476665e+00 4.350021e+00 3.703269e+00 3.740080e+00 4.147519e+00 3.702581e+00 4.970906e+00 3.135890e+00 7.242038e+00 6.187644e-01 3.354724e-01 5.560979e-01 5.524969e-01 8.297983e-01 6.179132e-01 6.563829e-01 6.362420e-01 6.537777e-01 6.152822e-01 8.515744e-01 5.603088e-01 9.473765e-01
<GCONST> 1.403684e+02
<STATE> 4
<MEAN> 39
 -4.534698e+00 -8.510059e+00 -3.152208e-01 -9.330475e+00 -9.529901e+00 8.087661e-01 -1.224044e+01 -5.980282e+00 -1.314540e+00 -1.125345e+01 1.695032e+00 -9.048356e+00 7.016659e+01 -9.315577e-05 -5.107628e-02 -4.324111e-02 1.641863e-02 3.438048e-02 2.748795e-02 -2.286450e-02 7.818112e-02 1.483001e-03 5.297748e-03 1.904813e-02 3.303448e-02 -2.095762e-02 1.240455e-03 -6.096328e-04 -7.040428e-03 6.662876e-04 3.956343e-03 2.016437e-04 -1.596692e-03 4.036046e-03 2.271218e-03 1.855165e-03 -3.036444e-03 -1.235452e-05 -5.183423e-03
<VARIANCE> 39
 9.440502e+01 5.210272e+01 1.253611e+02 8.551737e+01 6.529285e+01 1.241306e+02 8.454485e+01 6.789494e+01 6.699797e+01 6.413542e+01 6.934735e+01 4.682017e+01 1.549607e+02 4.914971e+00 1.997573e+00 3.523783e+00 3.915580e+00 4.044384e+00 4.633978e+00 3.780393e+00 3.846633e+00 3.732225e+00 3.431165e+00 4.340672e+00 3.104351e+00 6.230300e+00 6.870416e-01 3.306207e-01 5.104805e-01 5.506836e-01 7.322360e-01 6.339447e-01 6.637670e-01 6.521789e-01 5.876176e-01 5.543615e-01 7.234004e-01 5.616322e-01 8.059316e-01
<GCONST> 1.395104e+02
<TRANSP> 5
 0.000000e+00 1.000000e+00 0.000000e+00 0.000000e+00 0.000000e+00
 0.000000e+00 8.004308e-01 1.995692e-01 0.000000e+00 0.000000e+00
 0.000000e+00 0.000000e+00 8.004309e-01 1.995691e-01 0.000000e+00
 0.000000e+00 0.000000e+00 0.000000e+00 9.320261e-01 6.797391e-02
 0.000000e+00 0.000000e+00 0.000000e+00 0.000000e+00 0.000000e+00
<ENDHMM>
~h "d"
<BEGINHMM>
<NUMSTATES> 5
<STATE> 2
<MEAN> 39
 -5.897426e+00 -6.406853e+00 -7.206053e+00 -9.983416e+00 -9.138406e+00 3.554024e-01 -9.741329e+00 -4.463309e+00 -1.140981e+00 -8.303311e+00 -5.544971e-01 -7.042044e+00 6.282254e+01 5.165094e-02 -3.276899e-02 2.667277e-02 -4.142787e-02 3.047417e-02 4.860561e-02 -6.378057e-03 7.907162e-03 1.780869e-02 -1.882251e-02 2.383160e-02 -1.084186e-02 1.646250e-01 -8.903646e-04 -1.627169e-03 -1.627256e-03 -1.746989e-04 1.626849e-03 1.632713e-03 -7.894762e-04 4.886369e-04 -1.677797e-03 1.323697e-03 -1.201611e-03 -2.435927e-05 -2.719763e-03
<VARIANCE> 39
 7.448325e+01 4.258196e+01 6.323062e+01 8.300790e+01 5.312570e+01 9.645657e+01 6.617040e+01 3.943409e+01 5.998472e+01 7.414604e+01 8.057911e+01 3.324971e+01 3.827549e+02 3.286632e+00 2.050825e+00 2.421724e+00 3.290988e+00 4.225637e+00 4.675827e+00 3.668930e+00 3.122800e+00 3.517661e+00 3.475395e+00 4.056632e+00 2.267010e+00 6.296693e+00 5.060034e-01 3.404088e-01 3.769490e-01 5.062442e-01 8.071401e-01 7.546666e-01 6.726087e-01 5.731247e-01 5.805069e-01 5.393486e-01 6.644759e-01 4.252581e-01 6.896328e-01
<GCONST> 1.352619e+02
<STATE> 3
<MEAN> 39
 -5.653807e+00 -6.581984e+00 -7.101020e+00 -1.018764e+01 -8.950857e+00 6.301748e-01 -9.790576e+00 -4.412819e+00 -1.086284e+00 -8.360387e+00 -4.434808e-01 -7.092060e+00 6.358047e+01 4.649750e-02 -3.590089e-02 2.036759e-02 -3.912930e-02 3.823657e-02 5.432736e-02 -9.996371e-03 1.070938e-02 9.540033e-03 -9.264670e-03 1.992748e-02 -9.120164e-03 1.453633e-01 -9.295528e-04 -4.968884e-04 -1.111064e-03 5.837654e-04 1.497432e-03 1.046406e-03 -7.230974e-04 5.945202e-04 -1.490800e-03 1.840669e-03 -6.697610e-04 3.208088e-04 -3.763923e-03
<VARIANCE> 39
 7.565108e+01 4.439636e+01 6.206248e+01 8.362252e+01 5.427802e+01 1.002260e+02 6.828547e+01 4.046286e+01 5.864094e+01 7.373666e+01 8.175906e+01 3.384819e+01 3.680877e+02 3.431684e+00 2.063497e+00 2.434744e+00 3.316975e+00 4.161132e+00 4.796392e+00 3.715613e+00 3.171127e+00 3.492894e+00 3.451164e+00 4.011083e+00 2.305951e+00 6.277393e+00 5.217965e-01 3.412242e-01 3.769816e-01 5.094084e-01 7.909422e-01 7.715541e-01 6.733867e-01 5.781978e-01 5.798292e-01 5.341568e-01 6.531721e-01 4.315737e-01 6.937182e-01
<GCONST> 1.355232e+02
<STATE> 4
<MEAN> 39
 -5.143488e+00 -6.946415e+00 -6.878369e+00 -1.047781e+01 -8.311684e+00 1.289570e+00 -9.961025e+00 -4.107879e+00 -1.080765e+00 -8.364803e+00 -1.533399e-01 -7.200751e+00 6.504861e+01 3.205328e-02 -2.984466e-02 1.781363e-02 -1.751767e-02 4.739844e-02 4.412987e-02 -8.259355e-03 1.603731e-02 -8.812931e-04 4.856173e-03 7.244798e-03 -4.691788e-03 9.817459e-02 -8.226361e-04 -9.317568e-05 1.854336e-05 1.508607e-03 5.028637e-04 -7.998964e-04 -4.592875e-06 5.268946e-04 -3.755139e-04 5.626548e-04 -9.053743e-04 1.949290e-04 -2.513858e-03
<VARIANCE> 39
 7.923071e+01 5.120595e+01 5.995931e+01 8.469831e+01 5.696830e+01 1.080586e+02 7.515812e+01 4.301428e+01 5.492684e+01 7.283362e+01 8.410904e+01 3.611602e+01 3.318774e+02 3.776829e+00 2.118006e+00 2.510231e+00 3.370923e+00 3.918915e+00 5.160354e+00 3.877652e+00 3.240193e+00 3.371063e+00 3.365347e+00 3.850102e+00 2.462651e+00 6.248595e+00 5.597761e-01 3.490979e-01 3.899774e-01 5.152547e-01 7.327076e-01 8.456317e-01 6.852569e-01 5.823598e-01 5.717256e-01 5.193867e-01 6.182350e-01 4.585370e-01 7.113942e-01
<GCONST> 1.362553e+02
<TRANSP> 5
 0.000000e+00 1.000000e+00 0.000000e+00 0.000000e+00 0.000000e+00
 0.000000e+00 8.048338e-01 1.951662e-01 0.000000e+00 0.000000e+00
 0.000000e+00 0.000000e+00 8.048343e-01 1.951657e-01 0.000000e+00
 0.000000e+00 0.000000e+00 0.000000e+00 9.377785e-01 6.222148e-02
 0.000000e+00 0.000000e+00 0.000000e+00 0.000000e+00 0.000000e+00
<ENDHMM>
~h "f"
<BEGINHMM>
<NUMSTATES> 5
<STATE> 2
<MEAN> 39
 -4.006366e+00 -8.985390e+00 -3.895357e+00 -8.987866e+00 -8.115520e+00 7.902528e-01 -1.176212e+01 -2.550844e+00 -1.298132e-01 -1.086481e+01 -4.423078e-01 -7.750685e+00 6.857926e+01 1.940743e-02 7.321432e-03 -2.190123e-02 3.086234e-02 2.613889e-02 3.911780e-03 -3.610908e-02 5.144025e-02 2.284634e-02 -1.374051e-02 -1.042488e-02 -1.146818e-02 -7.401207e-02 -1.936971e-03 2.056034e-03 -1.437632e-03 1.474547e-03 2.505627e-04 -1.670621e-03 1.329482e-03 -6.374557e-04 -1.026933e-03 1.767691e-03 -1.208256e-03 5.846152e-04 -6.658946e-03
<VARIANCE> 39
 9.634904e+01 5.502612e+01 7.252194e+01 9.045825e+01 6.689227e+01 1.061063e+02 1.073596e+02 6.482590e+01 6.499224e+01 6.724785e+01 6.318508e+01 4.829078e+01 2.070647e+02 4.558157e+00 1.968007e+00 2.931130e+00 3.936901e+00 3.345925e+00 4.573650e+00 3.620483e+00 3.659871e+00 3.467344e+00 3.719237e+00 3.998640e+00 2.932987e+00 3.890876e+00 6.535053e-01 3.270406e-01 4.120963e-01 5.755723e-01 5.657498e-01 7.064667e-01 6.010544e-01 6.102996e-01 5.431683e-01 5.914716e-01 6.572638e-01 4.963848e-01 3.985596e-01
<GCONST> 1.367482e+02
<STATE> 3
<MEAN> 39
 -3.927784e+00 -8.916391e+00 -4.025558e+00 -8.812654e+00 -7.983727e+00 7.929888e-01 -1.193382e+01 -2.299571e+00 -2.657175e-02 -1.091101e+01 -5.113840e-01 -7.800756e+00 6.810252e+01 8.438598e-03 1.835686e-02 -2.852785e-02 3.800034e-02 2.728698e-02 -4.586215e-03 -2.844871e-02 4.715551e-02 1.661124e-02 -3.828637e-03 -1.624152e-02 -8.025430e-03 -1.084556e-01 -2.245798e-03 2.105398e-03 -1.139251e-03 1.410862e-03 1.583504e-04 -1.683555e-03 1.586589e-03 -1.019350e-03 -1.295850e-03 1.975558e-03 -1.082106e-03 7.525553e-04 -6.426129e-03
<VARIANCE> 39
 9.534058e+01 5.550220e+01 6.960719e+01 8.959235e+01 6.555576e+01 1.036221e+02 1.069674e+02 6.519791e+01 6.591293e+01 6.732065e+01 6.264926e+01 4.837429e+01 2.151346e+02 4.481810e+00 1.947260e+00 2.898876e+00 3.851533e+00 3.226166e+00 4.361672e+00 3.539206e+00 3.609514e+00 3.456291e+00 3.677979e+00 3.950238e+00 2.883626e+00 3.697985e+00 6.391838e-01 3.240349e-01 4.079031e-01 5.635539e-01 5.445300e-01 6.650342e-01 5.844523e-01 6.007523e-01 5.393151e-01 5.837865e-01 6.473122e-01 4.862880e-01 3.726569e-01
<GCONST> 1.360967e+02
<STATE> 4
<MEAN> 39
 -3.841331e+00 -8.585011e+00 -4.354390e+00 -8.347665e+00 -7.732370e+00 7.291820e-01 -1.224643e+01 -1.820417e+00 1.230867e-01 -1.088274e+01 -7.617004e-01 -7.800102e+00 6.661571e+01 -1.648117e-02 4.213941e-02 -3.725307e-02 4.992149e-02 2.705353e-02 -2.117663e-02 -7.941349e-03 3.365747e-02 7.874635e-04 1.901175e-02 -2.552953e-02 2.571595e-03 -1.755901e-01 -2.590575e-03 1.789594e-03 -5.669375e-04 1.061001e-03 -7.629150e-05 -1.582329e-03 2.137467e-03 -1.514189e-03 -1.559133e-03 2.093182e-03 -6.911594e-04 1.058441e-03 -4.882494e-03
<VARIANCE> 39
 9.278815e+01 5.708036e+01 6.390011e+01 8.725137e+01 6.216983e+01 9.653724e+01 1.038287e+02 6.585090e+01 6.712022e+01 6.762593e+01 6.112155e+01 4.834450e+01 2.376784e+02 4.242701e+00 1.892519e+00 2.808588e+00 3.629045e+00 2.975825e+00 3.858521e+00 3.357603e+00 3.489393e+00 3.411552e+00 3.553784e+00 3.795741e+00 2.757984e+00 3.319758e+00 5.971159e-01 3.155032e-01 3.978944e-01 5.321377e-01 5.043696e-01 5.741402e-01 5.484347e-01 5.782138e-01 5.308679e-01 5.637744e-01 6.201220e-01 4.619145e-01 3.232564e-01
<GCONST> 1.344453e+02
<TRANSP> 5
 0.000000e+00 1.000000e+00 0.000000e+00 0.000000e+00 0.000000e+00
 0.000000e+00 8.032578e-01 1.967422e-01 0.000000e+00 0.000000e+00
 0.000000e+00 0.000000e+00 8.032585e-01 1.967415e-01 0.000000e+00
 0.000000e+00 0.000000e+00 0.000000e+00 9.354966e-01 6.450340e-02
 0.000000e+00 0.000000e+00 0.000000e+00 0.000000e+00 0.000000e+00
<ENDHMM>
~h "g"
<BEGINHMM>
<NUMSTATES> 5
<STATE> 2
<MEAN> 39
 -1.290589e+01 -3.914429e+00 -1.282395e+01 -4.035351e+00 -9.781108e+00 -3.099387e+00 -9.782440e+00 -3.645534e+00 -4.924436e+00 -4.269303e+00 -4.112460e+00 -4.619845e+00 3.897117e+01 9.516083e-02 -4.913151e-02 5.547396e-02 -7.181783e-02 5.415853e-02 -1.294429e-02 7.038106e-03 4.585551e-03 4.371540e-02 1.046215e-03 5.434374e-03 -9.927778e-03 2.461542e-01 4.268130e-03 -2.186065e-03 2.400029e-03 -3.724259e-03 2.501525e-03 1.972445e-03 1.827538e-03 8.146397e-04 6.641347e-04 -1.323593e-03 3.154911e-03 -9.644798e-04 1.255710e-02
<VARIANCE> 39
 1.501627e+01 1.178459e+01 1.252057e+01 2.324653e+01 1.341742e+01 1.628749e+01 1.617335e+01 1.721316e+01 2.404324e+01 1.977069e+01 1.922368e+01 1.632884e+01 8.821973e+01 7.732849e-01 7.558463e-01 8.853448e-01 1.387743e+00 1.471133e+00 1.291525e+00 1.523378e+00 1.604712e+00 1.973859e+00 1.769667e+00 1.986338e+00 1.356005e+00 1.281953e+00 1.437888e-01 1.422644e-01 1.704266e-01 2.473272e-01 3.163790e-01 2.515723e-01 3.157412e-01 3.285857e-01 3.892762e-01 3.618177e-01 4.097232e-01 2.715090e-01 1.304841e-01
<GCONST> 9.558501e+01
<STATE> 3
<MEAN> 39
 -1.234301e+01 -4.185434e+00 -1.251384e+01 -4.481647e+00 -9.495111e+00 -3.109781e+00 -9.723988e+00 -3.627134e+00 -4.684559e+00 -4.299325e+00 -4.014361e+00 -4.702706e+00 4.046035e+01 1.148972e-01 -5.380948e-02 6.333125e-02 -9.147724e-02 5.685732e-02 2.987885e-04 1.268170e-02 2.135580e-03 4.916828e-02 -6.693971e-03 2.178896e-02 -1.822369e-02 3.064146e-01 3.895690e-03 -7.673108e-04 1.446072e-03 -3.951763e-03 3.022598e-04 2.767907e-03 1.034093e-03 -7.389046e-04 1.203554e-03 -1.561996e-03 3.193903e-03 -1.828819e-03 1.207570e-02
<VARIANCE> 39
 1.996458e+01 1.465326e+01 1.560407e+01 2.954559e+01 1.529343e+01 1.858575e+01 1.807975e+01 1.831120e+01 2.848256e+01 2.301854e+01 2.126410e+01 1.844129e+01 1.229061e+02 1.027104e+00 9.266693e-01 1.073755e+00 1.696447e+00 1.774185e+00 1.467827e+00 1.667526e+00 1.694008e+00 2.221303e+00 1.966953e+00 2.260729e+00 1.419748e+00 1.785056e+00 1.911075e-01 1.729174e-01 2.064357e-01 2.972569e-01 3.852357e-01 2.815875e-01 3.464630e-01 3.473667e-01 4.290279e-01 3.973486e-01 4.648276e-01 2.796811e-01 1.820630e-01
<GCONST> 1.019239e+02
<STATE> 4
<MEAN> 39
 -1.023076e+01 -4.983065e+00 -1.128872e+01 -6.253935e+00 -8.915533e+00 -2.594313e+00 -9.736681e+00 -3.947478e+00 -3.598934e+00 -4.922257e+00 -3.428011e+00 -5.561763e+00 4.677956e+01 1.573699e-01 -5.645296e-02 9.350695e-02 -1.315110e-01 3.817014e-02 4.018491e-02 5.659058e-04 -3.062933e-02 8.300234e-02 -5.029536e-02 4.378822e-02 -6.762972e-02 4.793510e-01 2.935110e-03 -3.283434e-04 2.358598e-03 -2.666255e-03 -1.438048e-03 2.582880e-03 -9.121542e-04 -2.531587e-03 2.516050e-03 -3.226642e-03 1.448781e-03 -3.568251e-03 1.251123e-02
<VARIANCE> 39
 4.066874e+01 2.507877e+01 3.420970e+01 5.696590e+01 2.450987e+01 3.013726e+01 2.798197e+01 2.436018e+01 5.122912e+01 4.137673e+01 3.365842e+01 2.999931e+01 2.833434e+02 1.932154e+00 1.486544e+00 1.831195e+00 2.938260e+00 3.064156e+00 2.192992e+00 2.255700e+00 2.239014e+00 3.329222e+00 2.875491e+00 3.614749e+00 1.804610e+00 3.986795e+00 3.485163e-01 2.674631e-01 3.459649e-01 4.881662e-01 6.675855e-01 3.921771e-01 4.626306e-01 4.525045e-01 5.898439e-01 5.521504e-01 7.126425e-01 3.389339e-01 4.069230e-01
<GCONST> 1.208149e+02
<TRANSP> 5
 0.000000e+00 1.000000e+00 0.000000e+00 0.000000e+00 0.000000e+00
 0.000000e+00 8.019473e-01 1.980527e-01 0.000000e+00 0.000000e+00
 0.000000e+00 0.000000e+00 8.019475e-01 1.980525e-01 0.000000e+00
 0.000000e+00 0.000000e+00 0.000000e+00 9.338770e-01 6.612302e-02
 0.000000e+00 0.000000e+00 0.000000e+00 0.000000e+00 0.000000e+00
<ENDHMM>
~h "i"
<BEGINHMM>
<NUMSTATES> 5
<STATE> 2
<MEAN> 39
 -6.779044e+00 -7.000269e+00 -4.823611e+00 -6.781916e+00 -7.649831e+00 -1.680190e+00 -1.036369e+01 -3.408326e+00 -1.501589e+00 -8.016397e+00 -7.505447e-01 -6.310346e+00 6.097561e+01 -2.492990e-02 4.780305e-02 -3.655928e-02 3.842469e-02 1.439797e-02 4.573994e-02 -3.146712e-02 2.297117e-02 -3.330150e-02 2.438402e-02 9.102616e-04 1.826132e-02 -1.832471e-01 -1.980600e-05 3.084603e-05 -1.637379e-03 2.532414e-04 6.347534e-04 1.092805e-03 -6.540841e-05 5.523105e-04 6.691692e-05 1.606474e-04 -5.487105e-04 -5.977541e-04 -2.493070e-03
<VARIANCE> 39
 9.484789e+01 5.700721e+01 8.916318e+01 9.722688e+01 5.982605e+01 1.308299e+02 9.404681e+01 5.036371e+01 5.343009e+01 5.561022e+01 4.828917e+01 3.372398e+01 3.117344e+02 3.707624e+00 1.673272e+00 2.542594e+00 2.906767e+00 3.563925e+00 3.939402e+00 3.753811e+00 3.041168e+00 2.803577e+00 2.944065e+00 3.195112e+00 2.028057e+00 3.417798e+00 4.953505e-01 2.812426e-01 3.603876e-01 4.474348e-01 6.284171e-01 5.877233e-01 6.346524e-01 5.180339e-01 4.794215e-01 4.939792e-01 5.343511e-01 3.724183e-01 3.869654e-01
<GCONST> 1.321050e+02
<STATE> 3
<MEAN> 39
 -6.895461e+00 -6.758882e+00 -5.039951e+00 -6.570050e+00 -7.562756e+00 -1.447347e+00 -1.053463e+01 -3.279917e+00 -1.660715e+00 -7.894650e+00 -7.589940e-01 -6.224222e+00 6.000206e+01 -2.448492e-02 4.748675e-02 -4.363512e-02 4.020836e-02 1.676304e-02 4.921743e-02 -3.084793e-02 2.524076e-02 -3.214227e-02 2.399841e-02 -2.071993e-03 1.497082e-02 -1.927015e-01 1.259696e-04 -1.857008e-04 -1.289480e-03 4.191916e-04 4.312322e-04 3.266993e-04 1.076745e-04 4.051316e-04 3.830884e-04 -2.081476e-04 -5.839302e-04 -6.211959e-04 -1.414970e-03
<VARIANCE> 39
 9.290988e+01 5.713676e+01 8.594051e+01 9.537990e+01 5.592931e+01 1.273229e+02 9.324774e+01 4.881398e+01 5.279966e+01 5.537818e+01 4.784552e+01 3.302746e+01 3.191024e+02 3.608125e+00 1.619486e+00 2.466899e+00 2.836724e+00 3.323843e+00 3.823611e+00 3.651203e+00 2.958488e+00 2.749386e+00 2.877199e+00 3.065325e+00 1.984966e+00 3.199517e+00 4.855123e-01 2.732116e-01 3.490072e-01 4.397909e-01 5.864846e-01 5.695780e-01 6.176102e-01 5.063136e-01 4.711029e-01 4.819879e-01 5.113931e-01 3.661112e-01 3.580445e-01
<GCONST> 1.310031e+02
<STATE> 4
<MEAN> 39
 -6.974475e+00 -6.407454e+00 -5.538842e+00 -6.111087e+00 -7.276556e+00 -1.017747e+00 -1.097980e+01 -2.891049e+00 -1.827712e+00 -7.772430e+00 -7.817973e-01 -6.113788e+00 5.823312e+01 -2.377499e-02 4.787774e-02 -5.302133e-02 4.955110e-02 1.658337e-02 3.908256e-02 -2.429247e-02 2.741814e-02 -2.554320e-02 1.969910e-02 -1.108363e-02 1.085230e-02 -2.050137e-01 -2.648145e-04 -1.561655e-04 -3.659584e-04 3.344265e-04 -2.571965e-04 -8.932282e-04 9.464411e-04 -8.266741e-05 4.937056e-04 -3.914205e-04 -6.234124e-04 -4.540078e-04 1.074623e-04
<VARIANCE> 39
 8.996259e+01 5.795131e+01 7.802573e+01 9.061262e+01 4.877167e+01 1.214680e+02 9.183035e+01 4.668275e+01 5.290816e+01 5.614477e+01 4.757451e+01 3.267200e+01 3.258775e+02 3.418837e+00 1.543493e+00 2.325165e+00 2.689987e+00 2.867829e+00 3.575152e+00 3.413314e+00 2.818516e+00 2.676538e+00 2.767572e+00 2.837778e+00 1.923523e+00 2.798790e+00 4.640826e-01 2.613045e-01 3.298092e-01 4.221897e-01 5.059591e-01 5.294322e-01 5.764229e-01 4.851600e-01 4.586678e-01 4.616936e-01 4.719038e-01 3.558868e-01 3.016839e-01
<GCONST> 1.288912e+02
<TRANSP> 5
 0.000000e+00 1.000000e+00 0.000000e+00 0.000000e+00 0.000000e+00
 0.000000e+00 8.021744e-01 1.978255e-01 0.000000e+00 0.000000e+00
 0.000000e+00 0.000000e+00 8.021746e-01 1.978254e-01 0.000000e+00
 0.000000e+00 0.000000e+00 0.000000e+00 9.341918e-01 6.580824e-02
 0.000000e+00 0.000000e+00 0.000000e+00 0.000000e+00 0.000000e+00
<ENDHMM>
~h "j"
<BEGINHMM>
<NUMSTATES> 5
<STATE> 2
<MEAN> 39
 -1.096418e+00 -6.706555e+00 -3.527569e+00 -1.019322e+01 -1.163955e+01 2.579306e+00 -1.145918e+01 -5.240013e+00 -1.068813e+00 -1.076073e+01 2.341194e+00 -7.774049e+00 6.903857e+01 -2.857706e-03 -6.201779e-03 -6.348613e-02 -4.338368e-03 -2.590873e-02 6.038413e-02 -1.054814e-02 3.750622e-02 7.896941e-03 -2.268304e-02 -6.671350e-03 4.784627e-02 -1.333680e-01 -2.908431e-03 2.970970e-03 -7.543159e-04 1.850106e-03 9.404729e-04 -2.033560e-03 -2.880968e-04 1.077390e-03 4.416237e-04 1.219577e-03 -1.218164e-03 6.258217e-04 -6.888008e-03
<VARIANCE> 39
 8.457764e+01 4.892565e+01 4.509615e+01 1.396261e+02 6.521893e+01 9.093948e+01 6.614582e+01 5.933819e+01 4.726868e+01 5.345653e+01 8.308326e+01 5.456742e+01 1.536623e+02 4.756873e+00 1.692425e+00 2.088475e+00 6.498066e+00 4.192614e+00 4.572882e+00 4.719851e+00 4.135008e+00 3.661607e+00 3.806677e+00 6.076062e+00 4.398136e+00 4.423476e+00 6.172474e-01 2.316628e-01 3.375139e-01 8.221022e-01 7.182605e-01 6.905543e-01 8.616018e-01 6.447241e-01 6.618757e-01 6.076409e-01 1.059924e+00 7.614063e-01 5.301239e-01
<GCONST> 1.387544e+02
<STATE> 3
<MEAN> 39
 -1.116048e+00 -6.709274e+00 -3.846082e+00 -1.020018e+01 -1.178467e+01 2.875237e+00 -1.153260e+01 -5.033316e+00 -1.012961e+00 -1.087552e+01 2.301943e+00 -7.522024e+00 6.832526e+01 -1.740400e-02 9.482179e-03 -6.677899e-02 4.560319e-03 -2.150134e-02 4.957389e-02 -1.195609e-02 4.281891e-02 9.411501e-03 -1.626280e-02 -1.188273e-02 4.926835e-02 -1.680996e-01 -3.005243e-03 3.385510e-03 -2.453910e-04 2.052137e-03 8.192318e-04 -2.808312e-03 -2.234337e-04 6.347611e-04 2.663455e-05 1.581101e-03 -8.679923e-04 1.381259e-04 -6.845975e-03
<VARIANCE> 39
 8.217503e+01 4.797362e+01 4.653407e+01 1.408343e+02 6.474301e+01 9.426735e+01 6.760697e+01 5.918047e+01 4.656692e+01 5.502929e+01 8.246539e+01 5.568909e+01 1.672352e+02 4.426020e+00 1.613218e+00 2.019258e+00 6.279930e+00 4.109942e+00 4.559108e+00 4.586911e+00 3.989385e+00 3.530336e+00 3.754478e+00 5.923092e+00 4.320913e+00 4.161352e+00 5.768242e-01 2.210587e-01 3.221789e-01 7.841434e-01 7.042504e-01 6.812677e-01 8.221275e-01 6.208172e-01 6.341701e-01 5.875828e-01 1.024905e+00 7.293212e-01 4.898643e-01
<GCONST> 1.379172e+02
<STATE> 4
<MEAN> 39
 -1.053601e+00 -6.203939e+00 -4.175705e+00 -1.011810e+01 -1.214244e+01 3.032431e+00 -1.200372e+01 -4.720419e+00 -6.706576e-01 -1.111935e+01 2.293144e+00 -6.957249e+00 6.709524e+01 -3.388862e-02 3.710899e-02 -6.628066e-02 1.477123e-02 -2.035876e-02 3.123325e-02 -1.283941e-02 5.190746e-02 4.482727e-03 -4.819933e-03 -1.488972e-02 4.015860e-02 -2.163084e-01 -3.083015e-03 3.231602e-03 -2.109306e-05 2.007919e-03 1.165567e-03 -3.298077e-03 6.351162e-04 1.330771e-05 -1.211307e-03 2.283384e-03 -6.813839e-04 -7.537805e-04 -6.743264e-03
<VARIANCE> 39
 7.692614e+01 4.316563e+01 4.441234e+01 1.423139e+02 6.337906e+01 9.480841e+01 6.859602e+01 5.765020e+01 4.763799e+01 6.032905e+01 8.327689e+01 5.909789e+01 1.899832e+02 3.790683e+00 1.486496e+00 1.850842e+00 5.749391e+00 3.893008e+00 4.387712e+00 4.345932e+00 3.598682e+00 3.265036e+00 3.733529e+00 5.725187e+00 4.240654e+00 3.717021e+00 5.020140e-01 2.096885e-01 2.932037e-01 6.967509e-01 6.713380e-01 6.455470e-01 7.496819e-01 5.621896e-01 5.775636e-01 5.562985e-01 9.629682e-01 6.711417e-01 4.231086e-01
<GCONST> 1.359450e+02
<TRANSP> 5
 0.000000e+00 1.000000e+00 0.000000e+00 0.000000e+00 0.000000e+00
 0.000000e+00 8.049098e-01 1.950903e-01 0.000000e+00 0.000000e+00
 0.000000e+00 0.000000e+00 8.049096e-01 1.950903e-01 0.000000e+00
 0.000000e+00 0.000000e+00 0.000000e+00 9.384463e-01 6.155368e-02
 0.000000e+00 0.000000e+00 0.000000e+00 0.000000e+00 0.000000e+00
<ENDHMM>
~h "k"
<BEGINHMM>
<NUMSTATES> 5
<STATE> 2
<MEAN> 39
 -1.091049e+01 -7.258820e+00 -1.072760e+01 -5.972510e+00 -8.166387e+00 -2.456977e+00 -8.267607e+00 -3.331727e+00 -3.927067e+00 -5.178902e+00 -4.773448e+00 -4.556066e+00 5.020949e+01 6.978054e-02 -1.105491e-01 5.558336e-02 -5.521573e-02 4.068808e-02 -2.328331e-02 4.568876e-02 4.094533e-02 4.136572e-02 -3.791051e-02 -1.083810e-03 -1.213814e-02 3.122701e-01 -4.907218e-04 3.215443e-04 2.177807e-03 6.803995e-04 1.010281e-03 -1.961461e-04 1.364687e-03 -1.687655e-04 -7.917268e-04 -8.369894e-04 1.614519e-03 -6.729258e-04 2.862615e-03
<VARIANCE> 39
 3.638395e+01 4.312247e+01 2.392905e+01 3.571227e+01 4.103261e+01 6.164162e+01 4.162506e+01 3.261179e+01 2.711335e+01 2.811241e+01 2.957439e+01 2.492079e+01 3.793085e+02 1.690152e+00 1.482551e+00 1.631140e+00 1.690239e+00 2.372540e+00 4.764266e+00 2.553680e+00 2.598855e+00 2.053079e+00 2.075822e+00 2.094696e+00 2.332989e+00 4.236223e+00 3.039243e-01 2.577438e-01 2.935772e-01 2.949926e-01 4.426269e-01 9.760483e-01 4.755855e-01 4.680431e-01 4.051185e-01 3.994914e-01 3.828316e-01 4.659961e-01 5.248020e-01
<GCONST> 1.192181e+02
<STATE> 3
<MEAN> 39
 -1.056502e+01 -7.795069e+00 -1.039894e+01 -6.240820e+00 -7.940270e+00 -2.590339e+00 -7.992596e+00 -3.138083e+00 -3.734047e+00 -5.399320e+00 -4.744135e+00 -4.620405e+00 5.188199e+01 6.626057e-02 -1.017997e-01 6.503314e-02 -5.076173e-02 4.316518e-02 -2.543291e-02 5.299451e-02 3.702211e-02 3.679638e-02 -4.383150e-02 7.157505e-03 -1.363762e-02 3.237299e-01 -7.210365e-04 1.862239e-03 1.750599e-03 9.032352e-04 3.455768e-04 -4.617728e-04 1.427294e-03 -8.090773e-04 -8.169921e-04 -1.189278e-03 1.529836e-03 -3.059645e-04 2.028700e-03
<VARIANCE> 39
 3.772059e+01 4.355061e+01 2.622727e+01 3.746392e+01 4.433015e+01 6.598276e+01 4.648359e+01 3.434373e+01 2.793470e+01 3.087333e+01 3.190647e+01 2.624886e+01 3.911783e+02 1.782965e+00 1.564576e+00 1.719454e+00 1.792767e+00 2.607089e+00 5.124419e+00 2.706366e+00 2.679870e+00 2.100304e+00 2.187770e+00 2.203754e+00 2.448873e+00 4.476044e+00 3.159081e-01 2.702589e-01 3.046631e-01 3.121476e-01 4.784045e-01 1.050825e+00 4.978115e-01 4.797187e-01 4.131194e-01 4.170003e-01 3.978580e-01 4.907615e-01 5.468690e-01
<GCONST> 1.212932e+02
<STATE> 4
<MEAN> 39
 -9.683551e+00 -8.897339e+00 -9.137100e+00 -7.070882e+00 -7.597349e+00 -3.106791e+00 -6.858802e+00 -2.720682e+00 -3.056708e+00 -6.339534e+00 -4.167150e+00 -4.871478e+00 5.754570e+01 6.219058e-02 -7.200073e-02 8.952780e-02 -5.832931e-02 2.080543e-02 -2.813903e-02 6.664381e-02 2.680754e-02 4.813749e-02 -6.624006e-02 3.735468e-02 -2.465211e-02 3.865563e-01 -2.742218e-04 2.040699e-03 1.572192e-03 -3.108576e-04 -1.594034e-03 -5.265471e-05 4.682989e-04 -6.528904e-04 6.952093e-04 -1.418230e-03 1.927452e-03 -8.550914e-04 3.176530e-03
<VARIANCE> 39
 4.430795e+01 4.613969e+01 3.853666e+01 4.347530e+01 5.909159e+01 7.802207e+01 6.733815e+01 3.806503e+01 3.153653e+01 4.051594e+01 4.309054e+01 2.991804e+01 4.205478e+02 2.174879e+00 1.932524e+00 2.030017e+00 2.122700e+00 3.490557e+00 6.093695e+00 3.309011e+00 2.838687e+00 2.309638e+00 2.497502e+00 2.684624e+00 2.644647e+00 5.393290e+00 3.656315e-01 3.294283e-01 3.333402e-01 3.618100e-01 5.968159e-01 1.244130e+00 5.825592e-01 5.036203e-01 4.509376e-01 4.567830e-01 4.669066e-01 5.273783e-01 6.425841e-01
<GCONST> 1.277771e+02
<TRANSP> 5
 0.000000e+00 1.000000e+00 0.000000e+00 0.000000e+00 0.000000e+00
 0.000000e+00 8.079422e-01 1.920578e-01 0.000000e+00 0.000000e+00
 0.000000e+00 0.000000e+00 8.079418e-01 1.920582e-01 0.000000e+00
 0.000000e+00 0.000000e+00 0.000000e+00 9.412169e-01 5.878307e-02
 0.000000e+00 0.000000e+00 0.000000e+00 0.000000e+00 0.000000e+00
<ENDHMM>
~h "l"
<BEGINHMM>
<NUMSTATES> 5
<STATE> 2
<MEAN> 39
 -2.796984e+00 -7.947213e+00 -2.866563e+00 -8.823534e+00 -1.072330e+01 -6.407049e-01 -1.190982e+01 -4.071703e+00 7.159486e-01 -1.041974e+01 2.421922e+00 -6.963861e+00 6.743579e+01 3.581802e-03 2.434870e-03 -7.474047e-03 2.191740e-02 -6.571808e-05 -2.670925e-02 2.218875e-02 -8.461146e-03 1.203257e-02 1.124274e-02 -3.676761e-02 4.215936e-02 -3.635994e-02 6.501368e-05 -2.560850e-05 -9.574236e-04 2.334902e-03 1.058123e-03 -1.935293e-03 -1.220262e-03 2.126090e-03 7.641043e-04 -5.736702e-04 -1.674132e-03 6.699990e-04 -2.846675e-03
<VARIANCE> 39
 9.796691e+01 3.265073e+01 5.228896e+01 1.293591e+02 7.360327e+01 1.056741e+02 5.432103e+01 4.341520e+01 5.083772e+01 6.870822e+01 1.069925e+02 5.238672e+01 1.712791e+02 4.279984e+00 2.023027e+00 3.578431e+00 4.923922e+00 3.498260e+00 5.933353e+00 4.033971e+00 2.862826e+00 3.215486e+00 4.436122e+00 5.517706e+00 4.310420e+00 4.102776e+00 5.324984e-01 3.530026e-01 5.413795e-01 5.894601e-01 5.785085e-01 9.187136e-01 7.716594e-01 4.917646e-01 5.182911e-01 7.656704e-01 8.578604e-01 7.633844e-01 4.247208e-01
<GCONST> 1.383519e+02
<STATE> 3
<MEAN> 39
 -2.779423e+00 -7.930743e+00 -2.913715e+00 -8.694535e+00 -1.071503e+01 -7.884767e-01 -1.180473e+01 -4.087277e+00 7.804413e-01 -1.036664e+01 2.211116e+00 -6.744400e+00 6.721613e+01 3.829150e-03 3.635381e-03 -1.236943e-02 3.308587e-02 4.466062e-03 -3.547054e-02 1.535890e-02 1.796220e-03 1.563937e-02 8.409552e-03 -4.399700e-02 4.540849e-02 -5.188343e-02 1.970200e-04 5.207844e-04 -1.026493e-03 2.148998e-03 6.963222e-04 -1.450603e-03 -1.627060e-03 1.935764e-03 5.139300e-04 -5.229144e-04 -1.181179e-03 5.691785e-04 -3.493607e-03
<VARIANCE> 39
 1.015425e+02 3.328034e+01 4.983841e+01 1.342441e+02 7.391161e+01 1.086600e+02 5.450500e+01 4.337188e+01 5.037326e+01 6.880254e+01 1.044792e+02 5.194894e+01 1.692135e+02 4.404921e+00 1.994591e+00 3.423437e+00 4.974553e+00 3.414160e+00 5.876513e+00 4.039012e+00 2.925643e+00 3.130457e+00 4.441232e+00 5.479978e+00 4.257227e+00 3.939080e+00 5.494199e-01 3.454552e-01 5.185748e-01 5.915130e-01 5.630281e-01 9.084458e-01 7.685854e-01 5.002369e-01 5.029158e-01 7.657613e-01 8.559282e-01 7.487333e-01 4.092426e-01
<GCONST> 1.381183e+02
<STATE> 4
<MEAN> 39
 -2.403131e+00 -7.675488e+00 -3.061373e+00 -8.453350e+00 -1.096224e+01 -8.408426e-01 -1.166603e+01 -4.116610e+00 9.813335e-01 -1.042025e+01 1.760288e+00 -6.220456e+00 6.672884e+01 2.856619e-03 1.698234e-02 -2.123112e-02 4.290921e-02 7.401663e-03 -3.637340e-02 3.772045e-03 1.857005e-02 1.696787e-02 7.153959e-03 -5.191152e-02 4.911137e-02 -9.297316e-02 1.193290e-04 1.372677e-03 -1.063309e-03 1.413894e-03 1.925930e-04 -2.478609e-04 -1.857997e-03 1.427052e-03 -1.122154e-04 -9.207492e-05 -2.814248e-04 2.220208e-04 -4.539415e-03
<VARIANCE> 39
 1.027562e+02 3.494708e+01 4.554602e+01 1.432110e+02 7.334446e+01 1.120528e+02 5.434796e+01 4.260555e+01 4.987849e+01 6.867492e+01 9.946181e+01 5.089738e+01 1.690363e+02 4.353293e+00 1.932198e+00 3.094579e+00 5.069788e+00 3.256379e+00 5.641599e+00 3.978757e+00 3.006496e+00 3.017402e+00 4.481296e+00 5.391998e+00 4.160141e+00 3.757131e+00 5.528383e-01 3.288617e-01 4.697165e-01 5.945477e-01 5.334453e-01 8.697691e-01 7.437052e-01 5.124541e-01 4.816533e-01 7.657356e-01 8.374370e-01 7.227899e-01 4.007019e-01
<GCONST> 1.373931e+02
<TRANSP> 5
 0.000000e+00 1.000000e+00 0.000000e+00 0.000000e+00 0.000000e+00
 0.000000e+00 8.009225e-01 1.990775e-01 0.000000e+00 0.000000e+00
 0.000000e+00 0.000000e+00 8.009225e-01 1.990775e-01 0.000000e+00
 0.000000e+00 0.000000e+00 0.000000e+00 9.335173e-01 6.648263e-02
 0.000000e+00 0.000000e+00 0.000000e+00 0.000000e+00 0.000000e+00
<ENDHMM>
~h "m"
<BEGINHMM>
<NUMSTATES> 5
<STATE> 2
<MEAN> 39
 -4.949217e+00 -7.507779e+00 -5.768816e+00 -7.877753e+00 -6.727999e+00 1.139363e+00 -1.193776e+01 -1.166186e+00 -1.192882e+00 -9.085093e+00 -1.093795e+00 -7.441313e+00 5.924036e+01 -7.661036e-02 9.008234e-02 -3.262558e-02 7.632348e-02 -1.375066e-02 -6.066525e-02 7.634268e-02 -2.802420e-02 -3.258591e-02 6.557954e-02 -2.385383e-02 6.177918e-02 -2.209060e-01 -6.110403e-04 -4.641377e-04 1.181563e-03 1.903582e-04 -9.447978e-04 -5.297898e-04 -5.045615e-05 -1.206024e-03 -1.563381e-04 4.156887e-04 6.239404e-04 -3.749285e-05 2.478800e-03
<VARIANCE> 39
 8.088670e+01 7.226338e+01 7.676864e+01 7.865481e+01 5.464073e+01 9.841017e+01 9.061541e+01 6.269346e+01 5.912727e+01 5.936020e+01 4.175277e+01 4.567148e+01 2.928983e+02 2.844046e+00 1.736019e+00 2.783283e+00 2.906925e+00 2.733451e+00 3.273594e+00 3.105114e+00 3.189366e+00 3.164662e+00 2.894819e+00 2.668331e+00 2.187907e+00 2.911047e+00 3.914489e-01 2.825927e-01 3.904765e-01 4.524832e-01 4.634575e-01 4.896701e-01 5.131478e-01 5.234157e-01 5.156168e-01 4.953998e-01 4.607927e-01 3.877511e-01 2.734088e-01
<GCONST> 1.297910e+02
<STATE> 3
<MEAN> 39
 -5.349675e+00 -7.054436e+00 -5.925834e+00 -7.489838e+00 -6.809414e+00 8.312733e-01 -1.154092e+01 -1.325325e+00 -1.364402e+00 -8.743360e+00 -1.209685e+00 -7.124317e+00 5.813581e+01 -7.831471e-02 8.630028e-02 -2.658726e-02 7.649533e-02 -1.845587e-02 -6.226323e-02 7.440560e-02 -3.330713e-02 -3.280294e-02 6.663288e-02 -2.026334e-02 6.071568e-02 -2.061608e-01 6.660516e-05 -1.093639e-03 1.118111e-03 -2.037519e-04 -9.284405e-04 7.684779e-06 -6.963538e-04 -8.036194e-04 5.610834e-05 -8.012762e-05 7.742723e-04 -4.341975e-04 3.292005e-03
<VARIANCE> 39
 8.221804e+01 7.170031e+01 7.405111e+01 7.851496e+01 5.355462e+01 9.482149e+01 8.555268e+01 6.027787e+01 5.699583e+01 5.856057e+01 4.031786e+01 4.468890e+01 2.951668e+02 2.856234e+00 1.731329e+00 2.674410e+00 2.835240e+00 2.712189e+00 3.201238e+00 3.075977e+00 3.098940e+00 3.038548e+00 2.830827e+00 2.612057e+00 2.174079e+00 2.829026e+00 3.906329e-01 2.824112e-01 3.809989e-01 4.411675e-01 4.612143e-01 4.831800e-01 5.127642e-01 5.130944e-01 5.006000e-01 4.878516e-01 4.539333e-01 3.870929e-01 2.663279e-01
<GCONST> 1.290781e+02
<STATE> 4
<MEAN> 39
 -6.007234e+00 -6.259301e+00 -6.150903e+00 -6.776533e+00 -7.099313e+00 3.204532e-01 -1.079469e+01 -1.681337e+00 -1.765401e+00 -8.072679e+00 -1.431672e+00 -6.527213e+00 5.611084e+01 -7.505710e-02 7.270102e-02 -2.000536e-02 7.182567e-02 -2.546363e-02 -5.642425e-02 6.529113e-02 -3.765897e-02 -3.127311e-02 6.348767e-02 -1.257792e-02 5.543116e-02 -1.768565e-01 1.042807e-03 -1.877353e-03 7.058061e-04 -6.810393e-04 -6.549117e-04 7.148089e-04 -1.730854e-03 2.902990e-05 4.748760e-04 -9.047222e-04 8.799729e-04 -9.643095e-04 3.888325e-03
<VARIANCE> 39
 8.434967e+01 7.077848e+01 6.942854e+01 7.829847e+01 5.237421e+01 8.890210e+01 7.539085e+01 5.574188e+01 5.242523e+01 5.562848e+01 3.776015e+01 4.256616e+01 2.930937e+02 2.825340e+00 1.695633e+00 2.438240e+00 2.708250e+00 2.687917e+00 3.074624e+00 2.989633e+00 2.947585e+00 2.794434e+00 2.694116e+00 2.508443e+00 2.135268e+00 2.617652e+00 3.830486e-01 2.759186e-01 3.560247e-01 4.192930e-01 4.586548e-01 4.700328e-01 5.052557e-01 4.951682e-01 4.701091e-01 4.698229e-01 4.407452e-01 3.830738e-01 2.487359e-01
<GCONST> 1.274549e+02
<TRANSP> 5
 0.000000e+00 1.000000e+00 0.000000e+00 0.000000e+00 0.000000e+00
 0.000000e+00 8.032251e-01 1.967749e-01 0.000000e+00 0.000000e+00
 0.000000e+00 0.000000e+00 8.032247e-01 1.967753e-01 0.000000e+00
 0.000000e+00 0.000000e+00 0.000000e+00 9.353925e-01 6.460754e-02
 0.000000e+00 0.000000e+00 0.000000e+00 0.000000e+00 0.000000e+00
<ENDHMM>
~h "q"
<BEGINHMM>
<NUMSTATES> 5
<STATE> 2
<MEAN> 39
 -1.032159e+01 -7.097359e+00 -1.578938e+00 -9.033441e+00 -8.972284e+00 -3.532819e+00 -5.426122e+00 -4.275228e+00 -2.552688e+00 -8.211145e+00 -5.690173e-01 -5.919956e+00 6.706171e+01 2.430849e-02 -1.702155e-02 1.021372e-01 -5.681073e-02 -3.760689e-02 2.351397e-02 -2.811640e-03 -1.377202e-02 1.269392e-02 -4.108903e-02 5.300349e-02 -2.499658e-02 2.131362e-01 9.251922e-04 1.659708e-03 -1.828727e-03 1.739200e-03 -1.019316e-04 2.216454e-03 -5.056468e-03 5.750063e-04 -3.341550e-04 -1.420908e-04 -8.974235e-05 -1.462785e-04 -9.031431e-03
<VARIANCE> 39
 1.047706e+02 5.738919e+01 1.119701e+02 6.258154e+01 9.639399e+01 8.511179e+01 7.379135e+01 4.328244e+01 3.855250e+01 5.625895e+01 4.863208e+01 3.283325e+01 2.425871e+02 4.219689e+00 2.505506e+00 3.196867e+00 2.924273e+00 5.605473e+00 4.724348e+00 3.915653e+00 3.166964e+00 2.719822e+00 3.328246e+00 3.116383e+00 2.294287e+00 5.289741e+00 5.573606e-01 4.421467e-01 4.212953e-01 4.616798e-01 8.932489e-01 8.678255e-01 6.835631e-01 5.630454e-01 5.220898e-01 5.383779e-01 5.151116e-01 4.126822e-01 6.191334e-01
<GCONST> 1.355431e+02
<STATE> 3
<MEAN> 39
 -1.019231e+01 -7.142982e+00 -1.072380e+00 -9.295095e+00 -9.167353e+00 -3.361854e+00 -5.545659e+00 -4.345317e+00 -2.501158e+00 -8.417836e+00 -2.966089e-01 -6.052348e+00 6.796629e+01 2.958901e-02 -8.056951e-03 8.879318e-02 -4.464862e-02 -3.445660e-02 3.487726e-02 -3.074213e-02 -1.027086e-02 1.062823e-02 -3.988231e-02 5.050646e-02 -2.477356e-02 1.575016e-01 8.936885e-04 1.947349e-03 -2.804577e-03 2.535261e-03 8.947874e-04 2.045301e-03 -5.310955e-03 7.213928e-04 -4.628811e-04 3.847422e-04 -6.682136e-04 1.921560e-04 -1.126126e-02
<VARIANCE> 39
 1.084977e+02 5.766383e+01 1.150031e+02 6.483675e+01 9.753741e+01 9.127695e+01 7.567874e+01 4.405377e+01 3.939491e+01 5.644864e+01 4.887761e+01 3.304822e+01 2.210123e+02 4.365952e+00 2.430978e+00 3.278572e+00 2.985627e+00 5.641434e+00 4.670589e+00 3.983812e+00 3.205609e+00 2.737972e+00 3.382534e+00 3.153036e+00 2.312166e+00 5.193891e+00 5.765153e-01 4.295019e-01 4.206316e-01 4.665810e-01 8.943365e-01 8.403709e-01 6.978337e-01 5.655003e-01 5.210663e-01 5.445368e-01 5.149693e-01 4.136405e-01 6.011420e-01
<GCONST> 1.358011e+02
<STATE> 4
<MEAN> 39
 -9.789451e+00 -6.924122e+00 -1.396132e-01 -9.702543e+00 -9.449913e+00 -2.600196e+00 -6.534651e+00 -4.537310e+00 -2.465648e+00 -8.844526e+00 2.976351e-01 -6.341403e+00 6.895361e+01 5.291446e-02 -1.489352e-04 3.272033e-02 -4.407663e-03 -7.847179e-03 5.682034e-02 -8.910436e-02 2.961562e-03 9.162694e-03 -3.227353e-02 3.549314e-02 -2.045094e-02 1.940445e-02 1.610100e-03 8.401996e-04 -5.029824e-03 3.396355e-03 2.384575e-03 9.356316e-04 -3.620661e-03 1.303178e-03 -1.352717e-04 8.024748e-04 -1.587532e-03 6.961359e-04 -1.086254e-02
<VARIANCE> 39
 1.167538e+02 5.677811e+01 1.206327e+02 7.133953e+01 9.283714e+01 1.060347e+02 7.970895e+01 4.574134e+01 4.344779e+01 5.822945e+01 5.071906e+01 3.307449e+01 1.852094e+02 4.675129e+00 2.227688e+00 3.397034e+00 3.115996e+00 5.371552e+00 4.407155e+00 3.954967e+00 3.238140e+00 2.790862e+00 3.479396e+00 3.197278e+00 2.333264e+00 4.795918e+00 6.220849e-01 3.963431e-01 4.127449e-01 4.747180e-01 8.475967e-01 7.430982e-01 6.998869e-01 5.645886e-01 5.158869e-01 5.494087e-01 5.076415e-01 4.158971e-01 5.427904e-01
<GCONST> 1.358347e+02
<TRANSP> 5
 0.000000e+00 1.000000e+00 0.000000e+00 0.000000e+00 0.000000e+00
 0.000000e+00 8.043910e-01 1.956091e-01 0.000000e+00 0.000000e+00
 0.000000e+00 0.000000e+00 8.043911e-01 1.956089e-01 0.000000e+00
 0.000000e+00 0.000000e+00 0.000000e+00 9.370298e-01 6.297028e-02
 0.000000e+00 0.000000e+00 0.000000e+00 0.000000e+00 0.000000e+00
<ENDHMM>
~h "s"
<BEGINHMM>
<NUMSTATES> 5
<STATE> 2
<MEAN> 39
 -4.121428e+00 -9.799965e+00 -6.178428e+00 -8.156322e+00 -6.038356e+00 1.504223e-01 -1.094294e+01 5.317473e-02 1.701059e+00 -1.115543e+01 -7.128155e-01 -8.615103e+00 6.688278e+01 -2.943546e-02 -2.124898e-02 -1.225211e-02 6.782703e-03 -1.820446e-02 1.187793e-02 3.629121e-02 -2.360682e-03 -4.317593e-02 6.395782e-02 -1.153783e-02 3.505368e-02 -1.247376e-01 -1.092353e-03 1.901414e-03 -9.525227e-04 2.082016e-03 9.457110e-04 -1.013839e-03 -8.367972e-04 -8.157449e-04 -1.129753e-03 1.180438e-03 -4.680175e-04 1.246697e-03 -5.544274e-03
<VARIANCE> 39
 1.074511e+02 7.685818e+01 6.282165e+01 7.211751e+01 5.710182e+01 1.387807e+02 1.044411e+02 4.293876e+01 6.807323e+01 6.740522e+01 5.639605e+01 5.118176e+01 1.867592e+02 6.375383e+00 2.779822e+00 2.662376e+00 2.928488e+00 3.952259e+00 4.617426e+00 3.820476e+00 2.391315e+00 3.934903e+00 3.643597e+00 3.405556e+00 2.756793e+00 3.256328e+00 8.434983e-01 4.230424e-01 4.025331e-01 4.724663e-01 6.588870e-01 6.317874e-01 5.415474e-01 3.981698e-01 6.589048e-01 5.736276e-01 5.277295e-01 4.709711e-01 3.458907e-01
<GCONST> 1.357301e+02
<STATE> 3
<MEAN> 39
 -4.278967e+00 -9.888973e+00 -6.249044e+00 -8.105460e+00 -6.122658e+00 2.093639e-01 -1.076546e+01 3.209066e-02 1.464910e+00 -1.081845e+01 -7.745964e-01 -8.426141e+00 6.619686e+01 -3.554854e-02 -9.979588e-03 -1.803870e-02 1.916644e-02 -1.221917e-02 5.098987e-03 3.226952e-02 -6.514499e-03 -4.823316e-02 6.979027e-02 -1.441612e-02 4.197269e-02 -1.548762e-01 -1.336231e-03 2.572609e-03 -1.203279e-03 2.757936e-03 1.262306e-03 -1.649614e-03 -7.834881e-04 -8.824587e-04 -8.729371e-04 1.077124e-03 -6.232455e-04 1.445192e-03 -6.276262e-03
<VARIANCE> 39
 1.068279e+02 7.660062e+01 6.312492e+01 7.529814e+01 5.802275e+01 1.463516e+02 1.028717e+02 4.224960e+01 6.673457e+01 6.681377e+01 5.301037e+01 5.078829e+01 1.993857e+02 6.198724e+00 2.709263e+00 2.649229e+00 2.901852e+00 4.007480e+00 4.682828e+00 3.825724e+00 2.386957e+00 3.828143e+00 3.608998e+00 3.359658e+00 2.723788e+00 3.146364e+00 8.147201e-01 4.107340e-01 4.017282e-01 4.656478e-01 6.657984e-01 6.340124e-01 5.449384e-01 3.955227e-01 6.476887e-01 5.768358e-01 5.289956e-01 4.666800e-01 3.388151e-01
<GCONST> 1.355301e+02
<STATE> 4
<MEAN> 39
 -4.576765e+00 -9.894622e+00 -6.422511e+00 -7.929319e+00 -6.247620e+00 3.497916e-01 -1.048865e+01 -3.504515e-02 9.042706e-01 -1.013852e+01 -8.916516e-01 -8.050938e+00 6.455975e+01 -4.956037e-02 1.847225e-02 -3.213042e-02 4.981408e-02 2.270204e-03 -1.424493e-02 2.843087e-02 -1.543269e-02 -5.521569e-02 7.997971e-02 -2.138804e-02 5.763050e-02 -2.174611e-01 -1.669782e-03 3.462675e-03 -1.372362e-03 3.736880e-03 1.526172e-03 -2.814613e-03 -8.059698e-04 -9.766980e-04 -2.468291e-04 7.303973e-04 -7.565367e-04 1.637509e-03 -6.691581e-03
<VARIANCE> 39
 1.043035e+02 7.676463e+01 6.331242e+01 8.165376e+01 5.834901e+01 1.586764e+02 9.887342e+01 4.089521e+01 6.395702e+01 6.464049e+01 4.663339e+01 4.944489e+01 2.254673e+02 5.725617e+00 2.554301e+00 2.624493e+00 2.830936e+00 4.004077e+00 4.723882e+00 3.776313e+00 2.363594e+00 3.570503e+00 3.487478e+00 3.215868e+00 2.601466e+00 2.887827e+00 7.423540e-01 3.859312e-01 4.000992e-01 4.477176e-01 6.616220e-01 6.257370e-01 5.443461e-01 3.888789e-01 6.157438e-01 5.726279e-01 5.230324e-01 4.474897e-01 3.179770e-01
<GCONST> 1.346214e+02
<TRANSP> 5
 0.000000e+00 1.000000e+00 0.000000e+00 0.000000e+00 0.000000e+00
 0.000000e+00 8.013164e-01 1.986836e-01 0.000000e+00 0.000000e+00
 0.000000e+00 0.000000e+00 8.013163e-01 1.986837e-01 0.000000e+00
 0.000000e+00 0.000000e+00 0.000000e+00 9.327738e-01 6.722625e-02
 0.000000e+00 0.000000e+00 0.000000e+00 0.000000e+00 0.000000e+00
<ENDHMM>
~h "u"
<BEGINHMM>
<NUMSTATES> 5
<STATE> 2
<MEAN> 39
 -9.165685e+00 -5.323221e+00 -1.060880e+01 -7.133203e+00 -8.755320e+00 -2.280495e+00 -9.738104e+00 -4.269337e+00 -2.990794e+00 -5.357685e+00 -3.129482e+00 -6.101274e+00 5.018794e+01 1.727248e-01 -6.144002e-02 1.123848e-01 -1.422326e-01 2.754382e-02 5.021470e-02 -7.195773e-03 -4.833598e-02 9.998283e-02 -7.261592e-02 4.974521e-02 -8.915786e-02 5.549409e-01 2.307202e-03 -7.975496e-04 3.000055e-03 -1.541605e-03 -1.869458e-03 1.722263e-03 -1.626744e-03 -2.623072e-03 2.660305e-03 -3.935024e-03 8.653377e-04 -3.494661e-03 1.147946e-02
<VARIANCE> 39
 4.893436e+01 2.948950e+01 4.477083e+01 6.864769e+01 2.976670e+01 3.584455e+01 3.294306e+01 2.744660e+01 6.272215e+01 5.145914e+01 4.024663e+01 3.529099e+01 3.488308e+02 2.352405e+00 1.758099e+00 2.203390e+00 3.539086e+00 3.742163e+00 2.554854e+00 2.556471e+00 2.531720e+00 3.935917e+00 3.330734e+00 4.345544e+00 1.982895e+00 5.095054e+00 4.176609e-01 3.135223e-01 4.115910e-01 5.787830e-01 8.126104e-01 4.429917e-01 5.205386e-01 5.067518e-01 6.772872e-01 6.244172e-01 8.459607e-01 3.645255e-01 5.232489e-01
<GCONST> 1.274020e+02
<STATE> 3
<MEAN> 39
 -8.252959e+00 -5.653068e+00 -9.973196e+00 -7.866148e+00 -8.657835e+00 -2.000084e+00 -9.819536e+00 -4.561765e+00 -2.430967e+00 -5.812481e+00 -2.864951e+00 -6.618825e+00 5.320072e+01 1.817544e-01 -6.698232e-02 1.300078e-01 -1.445408e-01 1.717463e-02 5.514867e-02 -1.760791e-02 -6.041156e-02 1.130552e-01 -9.410734e-02 5.292694e-02 -1.047400e-01 6.053233e-01 1.545236e-03 -1.113870e-03 3.544189e-03 -1.232379e-04 -2.112651e-03 7.871378e-04 -2.111669e-03 -2.264924e-03 2.440577e-03 -4.277581e-03 5.768280e-04 -2.894868e-03 9.200119e-03
<VARIANCE> 39
 5.446176e+01 3.277414e+01 5.409047e+01 7.748586e+01 3.426403e+01 4.092487e+01 3.739973e+01 3.022730e+01 7.220901e+01 6.019136e+01 4.605853e+01 3.950957e+01 3.896389e+02 2.661334e+00 1.935501e+00 2.497840e+00 4.005257e+00 4.280782e+00 2.852307e+00 2.795920e+00 2.787995e+00 4.421730e+00 3.715200e+00 4.946995e+00 2.137103e+00 5.969929e+00 4.655529e-01 3.415634e-01 4.619336e-01 6.471178e-01 9.250992e-01 4.831310e-01 5.649624e-01 5.531548e-01 7.432411e-01 6.844468e-01 9.519012e-01 3.870125e-01 6.156971e-01
<GCONST> 1.318978e+02
<STATE> 4
<MEAN> 39
 -5.998919e+00 -6.587913e+00 -7.799058e+00 -9.395313e+00 -8.730243e+00 -1.293662e+00 -1.043425e+01 -5.420860e+00 -9.095747e-01 -7.529847e+00 -2.041646e+00 -8.088613e+00 6.114622e+01 1.599676e-01 -6.862696e-02 1.660658e-01 -1.061269e-01 -1.000693e-02 4.745128e-02 -3.987866e-02 -6.763501e-02 1.081906e-01 -1.279029e-01 6.071647e-02 -1.046197e-01 5.803403e-01 -2.244316e-03 2.456018e-05 2.258579e-03 3.140484e-03 -1.929295e-03 -6.964871e-04 -1.280156e-03 -1.773997e-04 -1.036571e-03 -1.903125e-03 5.092377e-04 5.899007e-04 -3.927678e-03
<VARIANCE> 39
 6.237518e+01 3.809867e+01 8.171652e+01 9.192213e+01 4.590754e+01 5.674498e+01 4.961518e+01 3.747704e+01 8.972277e+01 7.939845e+01 6.143658e+01 4.678682e+01 4.113011e+02 3.216418e+00 2.166181e+00 3.079116e+00 4.697790e+00 5.255910e+00 3.565309e+00 3.278669e+00 3.326642e+00 5.264383e+00 4.457285e+00 6.053023e+00 2.475435e+00 7.459891e+00 5.307919e-01 3.703244e-01 5.433819e-01 7.344614e-01 1.105888e+00 5.684704e-01 6.420655e-01 6.365423e-01 8.352141e-01 7.846211e-01 1.124641e+00 4.341084e-01 7.897286e-01
<GCONST> 1.391472e+02
<TRANSP> 5
 0.000000e+00 1.000000e+00 0.000000e+00 0.000000e+00 0.000000e+00
 0.000000e+00 8.019484e-01 1.980516e-01 0.000000e+00 0.000000e+00
 0.000000e+00 0.000000e+00 8.019485e-01 1.980515e-01 0.000000e+00
 0.000000e+00 0.000000e+00 0.000000e+00 9.338778e-01 6.612220e-02
 0.000000e+00 0.000000e+00 0.000000e+00 0.000000e+00 0.000000e+00
<ENDHMM>
~h "x"
<BEGINHMM>
<NUMSTATES> 5
<STATE> 2
<MEAN> 39
 -5.562235e+00 -1.001668e+01 -6.425185e+00 -2.201007e+00 -3.269644e+00 -9.434658e+00 -1.267163e+01 -7.737362e-01 2.852378e+00 -7.867590e+00 -9.743192e-01 -4.959815e+00 6.492040e+01 1.853111e-02 5.461227e-02 -6.041095e-02 1.272852e-01 1.595847e-03 -6.381593e-02 -8.041953e-02 3.229473e-02 -1.217061e-02 6.906172e-03 -4.089239e-02 5.062341e-02 -2.890524e-01 -2.784800e-03 4.661572e-03 1.300806e-04 -3.599829e-03 -2.661590e-03 6.883400e-03 3.556664e-03 -1.669924e-03 -4.259367e-03 1.632591e-03 -2.540956e-04 -6.703137e-04 -7.864782e-03
<VARIANCE> 39
 1.534526e+02 5.779846e+01 4.611410e+01 9.412712e+01 5.757175e+01 1.484552e+02 1.346764e+02 5.953514e+01 4.709629e+01 5.274615e+01 4.139841e+01 3.662340e+01 1.876432e+02 6.274378e+00 2.119978e+00 2.024218e+00 2.692514e+00 3.781368e+00 4.110693e+00 4.926127e+00 3.335571e+00 2.229828e+00 2.884316e+00 3.083090e+00 2.539776e+00 2.093811e+00 6.937564e-01 3.411506e-01 3.564467e-01 4.050674e-01 6.495046e-01 5.378140e-01 7.439077e-01 5.246335e-01 3.934630e-01 5.052543e-01 5.123767e-01 4.515877e-01 2.309033e-01
<GCONST> 1.321330e+02
<STATE> 3
<MEAN> 39
 -5.487916e+00 -9.703125e+00 -6.727487e+00 -1.583424e+00 -3.282401e+00 -9.704099e+00 -1.305329e+01 -6.226442e-01 2.761354e+00 -7.822150e+00 -1.180455e+00 -4.708688e+00 6.339641e+01 3.406222e-03 7.813081e-02 -5.913924e-02 1.080994e-01 -1.209802e-02 -2.792248e-02 -6.044015e-02 2.299639e-02 -3.424515e-02 1.588290e-02 -4.206751e-02 4.685076e-02 -3.276077e-01 -3.418251e-03 4.332788e-03 4.913905e-04 -3.986116e-03 -2.645526e-03 7.301710e-03 4.702409e-03 -2.085839e-03 -4.382154e-03 2.060483e-03 -1.650741e-04 -8.497757e-04 -6.858186e-03
<VARIANCE> 39
 1.471579e+02 5.781043e+01 4.279953e+01 8.579591e+01 5.386440e+01 1.415215e+02 1.352076e+02 5.781014e+01 4.775752e+01 5.178106e+01 4.096706e+01 3.417334e+01 2.062498e+02 5.847666e+00 2.034297e+00 1.904856e+00 2.535429e+00 3.532013e+00 3.881135e+00 4.889295e+00 3.232291e+00 2.149864e+00 2.808625e+00 3.050930e+00 2.400137e+00 1.972520e+00 6.431195e-01 3.297760e-01 3.372191e-01 3.862458e-01 6.104686e-01 5.138230e-01 7.364467e-01 5.031962e-01 3.785008e-01 4.925744e-01 5.050135e-01 4.284103e-01 2.142970e-01
<GCONST> 1.306293e+02
<STATE> 4
<MEAN> 39
 -5.477853e+00 -9.041456e+00 -7.189850e+00 -7.886586e-01 -3.410933e+00 -9.807496e+00 -1.346658e+01 -4.307292e-01 2.426016e+00 -7.601178e+00 -1.488207e+00 -4.346960e+00 6.071026e+01 -2.366681e-02 1.119904e-01 -5.262967e-02 7.700782e-02 -3.264306e-02 2.888642e-02 -2.112203e-02 4.856118e-03 -6.707209e-02 3.172188e-02 -4.208082e-02 3.976748e-02 -3.761642e-01 -3.923867e-03 3.462648e-03 8.923138e-04 -4.112436e-03 -2.364876e-03 7.066395e-03 5.650166e-03 -2.437260e-03 -4.106145e-03 2.299442e-03 1.583622e-05 -9.841981e-04 -4.655197e-03
<VARIANCE> 39
 1.356936e+02 5.902074e+01 3.792928e+01 7.192911e+01 4.808180e+01 1.309940e+02 1.330004e+02 5.483123e+01 4.923181e+01 5.021699e+01 3.981609e+01 3.008728e+01 2.308982e+02 5.119141e+00 1.888142e+00 1.725407e+00 2.284739e+00 3.117419e+00 3.501584e+00 4.751812e+00 3.051274e+00 2.035249e+00 2.663985e+00 2.962747e+00 2.189425e+00 1.784201e+00 5.584458e-01 3.091034e-01 3.072233e-01 3.566079e-01 5.448894e-01 4.738154e-01 7.137174e-01 4.680943e-01 3.572423e-01 4.689202e-01 4.884240e-01 3.945784e-01 1.893609e-01
<GCONST> 1.278909e+02
<TRANSP> 5
 0.000000e+00 1.000000e+00 0.000000e+00 0.000000e+00 0.000000e+00
 0.000000e+00 8.020991e-01 1.979009e-01 0.000000e+00 0.000000e+00
 0.000000e+00 0.000000e+00 8.020994e-01 1.979006e-01 0.000000e+00
 0.000000e+00 0.000000e+00 0.000000e+00 9.342347e-01 6.576537e-02
 0.000000e+00 0.000000e+00 0.000000e+00 0.000000e+00 0.000000e+00
<ENDHMM>
~h "ai"
<BEGINHMM>
<NUMSTATES> 5
<STATE> 2
<MEAN> 39
 -9.192303e+00 -9.362059e+00 -8.402040e+00 -7.546169e+00 -7.509099e+00 -3.207766e+00 -6.518801e+00 -2.555044e+00 -2.656259e+00 -6.878996e+00 -3.892164e+00 -5.171709e+00 6.047096e+01 6.087348e-02 -5.725222e-02 1.004839e-01 -5.880075e-02 6.750815e-03 -2.503035e-02 6.111851e-02 2.278802e-02 5.246983e-02 -7.537510e-02 5.026659e-02 -3.278682e-02 3.939995e-01 -2.039442e-04 2.220439e-03 1.616208e-03 -5.293707e-04 -2.110183e-03 3.699113e-04 -3.992261e-04 -7.785422e-04 7.774332e-04 -1.319167e-03 2.014197e-03 -8.622507e-04 2.099548e-03
<VARIANCE> 39
 4.965451e+01 4.742194e+01 4.512540e+01 4.632869e+01 6.558501e+01 8.487602e+01 7.597185e+01 4.128031e+01 3.327178e+01 4.481527e+01 4.771090e+01 3.152839e+01 4.130296e+02 2.480268e+00 2.066020e+00 2.195907e+00 2.296762e+00 3.934661e+00 6.480966e+00 3.603157e+00 3.003515e+00 2.395905e+00 2.662105e+00 2.921671e+00 2.745226e+00 5.791875e+00 4.056544e-01 3.497650e-01 3.473120e-01 3.874261e-01 6.634369e-01 1.314551e+00 6.287393e-01 5.279307e-01 4.636631e-01 4.763985e-01 5.007073e-01 5.449033e-01 6.798868e-01
<GCONST> 1.305795e+02
<STATE> 3
<MEAN> 39
 -8.875447e+00 -9.616526e+00 -7.838451e+00 -7.876753e+00 -7.528309e+00 -3.317245e+00 -6.221609e+00 -2.452033e+00 -2.363181e+00 -7.302378e+00 -3.582990e+00 -5.361711e+00 6.258040e+01 6.024012e-02 -4.532831e-02 1.098609e-01 -6.246059e-02 -5.921842e-03 -1.987604e-02 5.423091e-02 1.832375e-02 5.589890e-02 -8.212117e-02 6.100601e-02 -3.761813e-02 4.002171e-01 -1.587503e-04 2.381344e-03 1.783515e-03 -6.543394e-04 -2.424914e-03 1.082251e-03 -1.493946e-03 -9.464218e-04 5.494033e-04 -1.213637e-03 2.001409e-03 -8.788179e-04 7.059274e-04
<VARIANCE> 39
 5.326939e+01 4.803502e+01 5.039448e+01 4.833236e+01 7.085553e+01 8.851343e+01 8.285201e+01 4.293981e+01 3.462598e+01 4.778343e+01 5.190897e+01 3.259801e+01 3.981600e+02 2.687404e+00 2.168052e+00 2.315907e+00 2.420568e+00 4.235993e+00 6.646739e+00 3.808393e+00 3.066241e+00 2.464000e+00 2.775216e+00 3.113804e+00 2.783372e+00 6.048830e+00 4.314363e-01 3.660244e-01 3.553267e-01 4.042877e-01 7.040392e-01 1.339869e+00 6.593204e-01 5.360906e-01 4.731928e-01 4.888245e-01 5.268589e-01 5.494105e-01 7.044088e-01
<GCONST> 1.323000e+02
<STATE> 4
<MEAN> 39
 -8.060419e+00 -9.700740e+00 -6.053082e+00 -8.871783e+00 -7.989389e+00 -3.063845e+00 -6.163744e+00 -2.392682e+00 -1.615553e+00 -8.511897e+00 -2.330014e+00 -6.001825e+00 6.752209e+01 5.567750e-02 6.896178e-04 1.224477e-01 -5.793809e-02 -2.694160e-02 2.194462e-02 -1.072967e-02 -2.099762e-04 4.531895e-02 -7.929116e-02 7.609324e-02 -4.866083e-02 3.031709e-01 -4.904797e-04 3.188143e-03 5.182261e-04 8.619198e-04 -1.061854e-03 2.471232e-03 -4.195853e-03 -1.365042e-03 -1.016317e-03 5.093932e-04 5.370914e-04 -4.969315e-04 -7.927888e-03
<VARIANCE> 39
 6.621077e+01 4.972483e+01 6.810992e+01 5.501813e+01 8.074075e+01 9.484065e+01 9.963738e+01 4.783650e+01 4.026454e+01 5.447506e+01 6.554453e+01 3.539493e+01 3.237915e+02 3.284615e+00 2.269243e+00 2.654870e+00 2.746512e+00 4.637515e+00 6.233038e+00 4.191409e+00 3.169872e+00 2.711855e+00 3.062082e+00 3.582764e+00 2.811080e+00 6.212778e+00 4.990767e-01 3.837369e-01 3.714222e-01 4.378512e-01 7.490488e-01 1.213880e+00 7.163557e-01 5.472460e-01 5.027353e-01 5.122448e-01 5.789340e-01 5.429609e-01 7.021465e-01
<GCONST> 1.354718e+02
<TRANSP> 5
 0.000000e+00 1.000000e+00 0.000000e+00 0.000000e+00 0.000000e+00
 0.000000e+00 8.079429e-01 1.920571e-01 0.000000e+00 0.000000e+00
 0.000000e+00 0.000000e+00 8.079429e-01 1.920570e-01 0.000000e+00
 0.000000e+00 0.000000e+00 0.000000e+00 9.412163e-01 5.878369e-02
 0.000000e+00 0.000000e+00 0.000000e+00 0.000000e+00 0.000000e+00
<ENDHMM>
~h "an"
<BEGINHMM>
<NUMSTATES> 5
<STATE> 2
<MEAN> 39
 -5.335282e+00 -7.275613e+00 -6.121490e+00 -8.499928e+00 -7.973206e+00 -7.313445e-01 -1.022363e+01 -4.295671e+00 -2.796718e-01 -8.684040e+00 -1.711071e+00 -8.102020e+00 6.363907e+01 6.409259e-02 -1.517632e-02 9.333184e-02 -4.469112e-02 -2.363772e-02 2.721633e-02 -2.577675e-02 -4.728880e-02 3.574270e-02 -5.574373e-02 4.618391e-02 -3.251430e-02 2.254653e-01 -2.275448e-03 4.628378e-04 3.073832e-04 2.723169e-03 -9.920006e-04 -6.624653e-04 -2.894712e-04 5.175559e-04 -1.809678e-03 -1.764623e-04 2.043467e-04 1.446663e-03 -6.214248e-03
<VARIANCE> 39
 8.286911e+01 5.585384e+01 8.411714e+01 9.257035e+01 5.601428e+01 8.357348e+01 6.404417e+01 5.276404e+01 7.861539e+01 7.363150e+01 5.977983e+01 4.722958e+01 3.274348e+02 4.098355e+00 2.292386e+00 2.985139e+00 4.205932e+00 4.626675e+00 3.838982e+00 3.517428e+00 3.427722e+00 4.492805e+00 4.012464e+00 5.052479e+00 2.602259e+00 5.847992e+00 5.963174e-01 3.779636e-01 4.834936e-01 6.399468e-01 9.049316e-01 5.758388e-01 6.268451e-01 6.075234e-01 7.244067e-01 6.843580e-01 9.102456e-01 4.463561e-01 6.218704e-01
<GCONST> 1.390683e+02
<STATE> 3
<MEAN> 39
 -5.063272e+00 -7.336795e+00 -5.651480e+00 -8.674351e+00 -8.110024e+00 -6.048495e-01 -1.035540e+01 -4.520781e+00 -1.441820e-01 -8.956722e+00 -1.470996e+00 -8.231932e+00 6.462902e+01 5.012858e-02 -1.173958e-02 9.135497e-02 -3.068049e-02 -2.711746e-02 2.444508e-02 -2.553149e-02 -4.253741e-02 2.380300e-02 -5.321447e-02 4.686856e-02 -2.281250e-02 1.849293e-01 -2.812386e-03 7.032229e-04 -6.200967e-04 2.694719e-03 -5.412922e-04 -4.167991e-04 1.394282e-04 1.089560e-03 -2.512905e-03 6.446618e-04 4.864738e-05 1.968046e-03 -8.356242e-03
<VARIANCE> 39
 8.309174e+01 5.561357e+01 8.810853e+01 9.479040e+01 5.832330e+01 8.810384e+01 6.602530e+01 5.404271e+01 7.852304e+01 7.436259e+01 6.163253e+01 4.737087e+01 3.155944e+02 4.068593e+00 2.256588e+00 3.040490e+00 4.193904e+00 4.698681e+00 3.947716e+00 3.575658e+00 3.496516e+00 4.512482e+00 4.048302e+00 5.098040e+00 2.624376e+00 5.884031e+00 5.860670e-01 3.700995e-01 4.856647e-01 6.322665e-01 9.126738e-01 5.868307e-01 6.350725e-01 6.141459e-01 7.217219e-01 6.836812e-01 9.123327e-01 4.490753e-01 6.365536e-01
<GCONST> 1.394311e+02
<STATE> 4
<MEAN> 39
 -4.696536e+00 -7.383979e+00 -4.751250e+00 -8.898210e+00 -8.391146e+00 -1.983560e-01 -1.068923e+01 -4.778703e+00 -1.565146e-01 -9.445733e+00 -8.554143e-01 -8.327962e+00 6.592603e+01 1.449750e-02 -2.180346e-03 5.821202e-02 -1.025854e-02 -2.050642e-02 2.898130e-02 -1.924542e-02 -1.880827e-02 -8.870250e-03 -2.856112e-02 4.432380e-02 3.693827e-03 6.449159e-02 -2.601104e-03 5.202127e-04 -2.936590e-03 1.485523e-03 8.410598e-04 5.072145e-04 4.633741e-04 2.076151e-03 -2.332063e-03 1.849359e-03 -5.418928e-04 1.899388e-03 -9.172401e-03
<VARIANCE> 39
 8.421822e+01 5.578909e+01 9.366159e+01 9.764266e+01 6.166268e+01 9.903558e+01 7.179163e+01 5.606868e+01 7.454646e+01 7.295860e+01 6.446626e+01 4.635295e+01 2.905775e+02 4.022521e+00 2.128713e+00 3.052297e+00 4.031874e+00 4.569426e+00 4.139452e+00 3.664360e+00 3.524503e+00 4.244567e+00 3.911752e+00 4.841135e+00 2.614702e+00 5.526332e+00 5.676515e-01 3.462217e-01 4.689828e-01 5.982372e-01 8.686177e-01 6.041443e-01 6.427397e-01 6.048911e-01 6.714193e-01 6.451211e-01 8.470142e-01 4.483062e-01 6.253950e-01
<GCONST> 1.389979e+02
<TRANSP> 5
 0.000000e+00 1.000000e+00 0.000000e+00 0.000000e+00 0.000000e+00
 0.000000e+00 8.021058e-01 1.978941e-01 0.000000e+00 0.000000e+00
 0.000000e+00 0.000000e+00 8.021062e-01 1.978938e-01 0.000000e+00
 0.000000e+00 0.000000e+00 0.000000e+00 9.339529e-01 6.604710e-02
 0.000000e+00 0.000000e+00 0.000000e+00 0.000000e+00 0.000000e+00
<ENDHMM>
~h "ao"
<BEGINHMM>
<NUMSTATES> 5
<STATE> 2
<MEAN> 39
 -8.168307e+00 -4.372872e+00 -8.268579e+00 -4.056904e+00 -6.879449e+00 -1.090220e+00 -1.056200e+01 -2.615814e+00 -2.612558e+00 -5.901166e+00 -1.934707e+00 -5.023204e+00 4.979639e+01 -7.339662e-02 6.466907e-02 -1.543515e-02 3.874804e-02 -2.321549e-02 4.269307e-02 1.651909e-02 -7.318919e-03 -5.530486e-02 2.115574e-02 -1.077220e-03 3.867743e-03 -2.051296e-01 4.792710e-04 -1.734333e-03 -3.447387e-05 -8.484264e-05 -3.465894e-04 -1.701409e-03 -1.332011e-04 1.153904e-04 1.265004e-03 -1.258441e-03 -5.524600e-04 -6.375752e-04 3.607325e-03
<VARIANCE> 39
 6.748621e+01 4.948392e+01 3.519833e+01 7.572226e+01 3.132024e+01 8.737466e+01 7.341022e+01 3.300259e+01 4.387688e+01 4.282519e+01 3.558873e+01 2.536255e+01 3.053948e+02 2.042634e+00 1.199655e+00 1.570185e+00 2.073161e+00 1.996760e+00 2.746793e+00 2.797992e+00 2.266778e+00 2.255765e+00 2.280945e+00 2.322558e+00 1.519802e+00 1.802021e+00 2.775556e-01 2.039081e-01 2.510659e-01 3.526339e-01 3.742988e-01 4.409676e-01 4.783566e-01 4.088225e-01 4.015899e-01 4.029001e-01 4.097015e-01 2.922342e-01 1.870851e-01
<GCONST> 1.182158e+02
<STATE> 3
<MEAN> 39
 -8.539687e+00 -4.054000e+00 -8.345242e+00 -3.857457e+00 -7.004929e+00 -8.988308e-01 -1.047074e+01 -2.655153e+00 -2.880937e+00 -5.803822e+00 -1.950908e+00 -5.006245e+00 4.878153e+01 -7.091753e-02 5.584213e-02 -1.579209e-02 3.776526e-02 -2.483426e-02 3.390696e-02 1.629666e-02 -6.800038e-03 -4.885494e-02 1.530017e-02 -4.258081e-03 8.536793e-04 -1.861946e-01 7.080119e-04 -1.644264e-03 -5.504291e-05 -1.916007e-04 -1.719671e-04 -1.954618e-03 -1.630428e-04 1.581988e-04 1.401828e-03 -1.140734e-03 -7.260557e-04 -5.617883e-04 3.770819e-03
<VARIANCE> 39
 6.520530e+01 4.787767e+01 3.455933e+01 7.050380e+01 2.975468e+01 7.862771e+01 6.868259e+01 3.160878e+01 4.251838e+01 4.209961e+01 3.483899e+01 2.534122e+01 2.963831e+02 1.918097e+00 1.159730e+00 1.511847e+00 1.997697e+00 1.874611e+00 2.593518e+00 2.620212e+00 2.189980e+00 2.212173e+00 2.221616e+00 2.224500e+00 1.500464e+00 1.679532e+00 2.624306e-01 1.978047e-01 2.424118e-01 3.428412e-01 3.519389e-01 4.220788e-01 4.526578e-01 3.990350e-01 3.953384e-01 3.946949e-01 3.957719e-01 2.892026e-01 1.732605e-01
<GCONST> 1.166344e+02
<STATE> 4
<MEAN> 39
 -9.121478e+00 -3.578519e+00 -8.463043e+00 -3.400850e+00 -7.161500e+00 -8.454122e-01 -1.035933e+01 -2.627702e+00 -3.217205e+00 -5.702609e+00 -2.042221e+00 -4.945504e+00 4.714684e+01 -6.908043e-02 4.527610e-02 -1.751713e-02 3.308519e-02 -2.823601e-02 1.887827e-02 2.187487e-02 -8.683503e-03 -4.025091e-02 1.093318e-02 -1.216259e-02 -1.028626e-03 -1.591976e-01 1.003550e-03 -1.597300e-03 -3.004441e-04 -8.341678e-04 1.428038e-05 -1.893124e-03 -7.033418e-05 -9.900851e-05 1.339298e-03 -7.197328e-04 -5.312631e-04 -3.380566e-04 4.075565e-03
<VARIANCE> 39
 6.220052e+01 4.574597e+01 3.401110e+01 6.006744e+01 2.802821e+01 6.536805e+01 6.149567e+01 3.014152e+01 4.098542e+01 4.106860e+01 3.306821e+01 2.553759e+01 2.736964e+02 1.744216e+00 1.111985e+00 1.409422e+00 1.839795e+00 1.707378e+00 2.307328e+00 2.352001e+00 2.083240e+00 2.132715e+00 2.118063e+00 2.081733e+00 1.487200e+00 1.469733e+00 2.391949e-01 1.907102e-01 2.278975e-01 3.199719e-01 3.207369e-01 3.853159e-01 4.134365e-01 3.850490e-01 3.835262e-01 3.807681e-01 3.769603e-01 2.869346e-01 1.489662e-01
<GCONST> 1.139824e+02
<TRANSP> 5
 0.000000e+00 1.000000e+00 0.000000e+00 0.000000e+00 0.000000e+00
 0.000000e+00 8.016466e-01 1.983534e-01 0.000000e+00 0.000000e+00
 0.000000e+00 0.000000e+00 8.016473e-01 1.983527e-01 0.000000e+00
 0.000000e+00 0.000000e+00 0.000000e+00 9.334368e-01 6.656317e-02
 0.000000e+00 0.000000e+00 0.000000e+00 0.000000e+00 0.000000e+00
<ENDHMM>
~h "en"
<BEGINHMM>
<NUMSTATES> 5
<STATE> 2
<MEAN> 39
 -4.550032e+00 -5.531619e+00 -5.139702e+00 -7.623533e+00 -9.025545e+00 -7.693899e-02 -1.127672e+01 -2.145432e+00 -5.815065e-01 -9.462700e+00 -1.860079e-01 -6.276703e+00 5.912479e+01 -8.383344e-02 2.293593e-02 -3.749517e-02 4.603219e-02 -3.188727e-03 -2.771688e-02 6.849885e-02 -2.076882e-02 -5.012665e-02 7.667149e-02 -2.571230e-02 2.749303e-02 -1.894609e-01 -3.362215e-04 -1.546958e-03 -3.258494e-04 1.473913e-03 9.253381e-04 -2.081890e-04 -1.483919e-03 3.380260e-05 1.115109e-04 -2.137916e-04 -2.776208e-04 -1.012061e-05 4.951808e-04
<VARIANCE> 39
 9.928960e+01 5.739200e+01 5.538688e+01 9.155145e+01 6.377727e+01 8.168230e+01 6.804558e+01 5.532814e+01 5.593255e+01 7.152582e+01 5.340737e+01 4.631130e+01 2.744444e+02 3.253945e+00 1.808164e+00 2.158192e+00 3.047839e+00 2.953393e+00 3.162522e+00 3.070440e+00 3.015307e+00 2.858254e+00 3.319798e+00 3.335090e+00 2.653092e+00 3.012755e+00 4.239089e-01 2.931094e-01 3.392321e-01 4.274330e-01 5.027431e-01 4.775980e-01 5.143912e-01 5.130446e-01 4.607797e-01 5.291988e-01 5.477161e-01 4.446159e-01 2.835793e-01
<GCONST> 1.301600e+02
<STATE> 3
<MEAN> 39
 -4.980159e+00 -5.431807e+00 -5.335070e+00 -7.378024e+00 -9.030980e+00 -2.144100e-01 -1.094343e+01 -2.249992e+00 -8.365396e-01 -9.073628e+00 -3.179765e-01 -6.138695e+00 5.816359e+01 -8.479269e-02 1.516394e-02 -3.943912e-02 5.353599e-02 1.407853e-03 -2.860614e-02 6.006399e-02 -1.994377e-02 -4.876744e-02 7.474615e-02 -2.693987e-02 2.746271e-02 -1.867583e-01 8.730315e-05 -1.431616e-03 -4.269740e-04 1.313177e-03 7.563041e-04 -4.522846e-05 -1.759190e-03 2.921465e-04 5.389288e-04 -5.757550e-04 -2.243442e-04 1.872130e-05 6.450372e-04
<VARIANCE> 39
 1.001953e+02 5.769777e+01 5.522897e+01 9.066507e+01 6.253460e+01 8.208873e+01 6.521844e+01 5.319387e+01 5.426290e+01 6.908437e+01 5.140739e+01 4.497500e+01 2.790172e+02 3.227654e+00 1.768896e+00 2.074020e+00 2.960474e+00 2.935401e+00 3.124923e+00 3.018971e+00 2.946627e+00 2.745769e+00 3.208001e+00 3.229430e+00 2.601453e+00 2.844489e+00 4.173896e-01 2.858806e-01 3.283588e-01 4.182252e-01 4.993916e-01 4.710000e-01 5.063272e-01 5.022187e-01 4.473266e-01 5.159802e-01 5.330220e-01 4.395383e-01 2.695292e-01
<GCONST> 1.293117e+02
<STATE> 4
<MEAN> 39
 -5.735843e+00 -5.199807e+00 -5.770932e+00 -6.816369e+00 -9.098827e+00 -3.761876e-01 -1.037825e+01 -2.433766e+00 -1.347829e+00 -8.325958e+00 -6.225710e-01 -5.781090e+00 5.604522e+01 -8.444726e-02 4.434656e-03 -4.560330e-02 6.366809e-02 8.482061e-03 -2.664359e-02 4.318271e-02 -1.537960e-02 -4.282478e-02 6.846818e-02 -2.797721e-02 2.723091e-02 -1.854042e-01 4.315716e-04 -8.937460e-04 -6.485906e-04 9.025600e-04 4.956041e-04 1.600032e-04 -1.832457e-03 5.269453e-04 9.953822e-04 -9.212554e-04 -2.776132e-04 1.082542e-05 4.343223e-04
<VARIANCE> 39
 9.941708e+01 5.814094e+01 5.392156e+01 8.828437e+01 5.924879e+01 8.258643e+01 5.988528e+01 4.864112e+01 5.068069e+01 6.399223e+01 4.751952e+01 4.259975e+01 2.844153e+02 3.017499e+00 1.637125e+00 1.888668e+00 2.756126e+00 2.837311e+00 3.010917e+00 2.866698e+00 2.790330e+00 2.531891e+00 2.981676e+00 3.012703e+00 2.469059e+00 2.454548e+00 3.870768e-01 2.627306e-01 3.019269e-01 3.939842e-01 4.827990e-01 4.526587e-01 4.822439e-01 4.775580e-01 4.217062e-01 4.877781e-01 5.036953e-01 4.235892e-01 2.360435e-01
<GCONST> 1.270515e+02
<TRANSP> 5
 0.000000e+00 1.000000e+00 0.000000e+00 0.000000e+00 0.000000e+00
 0.000000e+00 8.034765e-01 1.965235e-01 0.000000e+00 0.000000e+00
 0.000000e+00 0.000000e+00 8.034768e-01 1.965233e-01 0.000000e+00
 0.000000e+00 0.000000e+00 0.000000e+00 9.358444e-01 6.415559e-02
 0.000000e+00 0.000000e+00 0.000000e+00 0.000000e+00 0.000000e+00
<ENDHMM>
~h "er"
<BEGINHMM>
<NUMSTATES> 5
<STATE> 2
<MEAN> 39
 -3.484333e+00 -1.113767e+01 -7.204795e+00 -7.114439e+00 -5.757536e+00 -1.377109e+00 -1.251474e+01 8.720672e-01 -4.754400e-02 -8.710284e+00 6.982093e-01 -6.977532e+00 6.593907e+01 1.930757e-03 4.624742e-02 1.118747e-02 8.446746e-02 -8.223007e-03 -6.381813e-02 2.362169e-04 -1.819240e-02 2.479658e-02 1.455961e-02 -3.144800e-02 5.896862e-02 -1.382766e-01 -1.923431e-03 2.327122e-03 -1.520782e-03 1.602354e-04 -1.805637e-04 7.321672e-04 6.285103e-04 -3.050061e-04 -5.476176e-04 8.740405e-04 -1.059695e-03 4.098998e-04 -6.555640e-03
<VARIANCE> 39
 1.222934e+02 7.197640e+01 6.094165e+01 1.058142e+02 7.774785e+01 1.799040e+02 1.015561e+02 6.316156e+01 5.620111e+01 6.436009e+01 5.562200e+01 4.989309e+01 2.170744e+02 5.896666e+00 2.314012e+00 2.350799e+00 2.915798e+00 4.089573e+00 4.671544e+00 5.653468e+00 4.468015e+00 2.684676e+00 3.156778e+00 3.323151e+00 3.334387e+00 4.326956e+00 7.349470e-01 3.674932e-01 3.656289e-01 4.211834e-01 6.716924e-01 6.276003e-01 9.191271e-01 7.351581e-01 4.288203e-01 5.444483e-01 5.506502e-01 6.168758e-01 4.453773e-01
<GCONST> 1.382916e+02
<STATE> 3
<MEAN> 39
 -3.490776e+00 -1.088132e+01 -7.159954e+00 -6.671374e+00 -5.796449e+00 -1.708736e+00 -1.251000e+01 7.776582e-01 8.113694e-02 -8.625774e+00 5.213990e-01 -6.666808e+00 6.516639e+01 -9.270049e-03 5.870375e-02 2.903371e-03 8.531193e-02 -9.174244e-03 -5.957866e-02 4.573092e-03 -2.019134e-02 2.110460e-02 1.995080e-02 -3.679868e-02 6.104729e-02 -1.730366e-01 -2.570991e-03 2.412440e-03 -1.616915e-03 1.260784e-04 -1.727349e-04 9.415841e-04 1.133629e-03 -5.296428e-04 -1.075304e-03 1.345843e-03 -1.028931e-03 3.279357e-04 -6.862829e-03
<VARIANCE> 39
 1.226133e+02 7.356801e+01 5.968734e+01 1.083131e+02 7.739799e+01 1.856861e+02 1.025215e+02 6.152948e+01 5.533528e+01 6.340462e+01 5.370072e+01 4.923822e+01 2.225781e+02 5.715734e+00 2.224624e+00 2.292198e+00 2.851412e+00 3.976121e+00 4.573298e+00 5.489670e+00 4.331151e+00 2.613786e+00 3.161082e+00 3.269720e+00 3.201646e+00 3.992263e+00 7.061066e-01 3.533704e-01 3.569423e-01 4.107651e-01 6.523441e-01 6.085308e-01 8.862375e-01 7.077519e-01 4.206011e-01 5.469797e-01 5.418935e-01 5.897367e-01 4.136616e-01
<GCONST> 1.374720e+02
<STATE> 4
<MEAN> 39
 -3.683605e+00 -1.038241e+01 -7.198436e+00 -5.845468e+00 -5.755181e+00 -2.417363e+00 -1.247626e+01 6.343181e-01 2.999806e-01 -8.286734e+00 1.335278e-01 -6.053585e+00 6.352056e+01 -3.370001e-02 8.022909e-02 -1.049333e-02 9.110583e-02 -8.922396e-03 -5.416988e-02 1.525439e-02 -2.602410e-02 1.078115e-02 3.358829e-02 -4.538190e-02 6.378967e-02 -2.338023e-01 -3.139686e-03 2.371614e-03 -1.412241e-03 2.144081e-04 -2.073103e-04 1.156373e-03 1.542918e-03 -8.555854e-04 -1.889843e-03 1.706373e-03 -7.141917e-04 1.276741e-06 -6.536559e-03
<VARIANCE> 39
 1.236097e+02 7.486517e+01 5.630750e+01 1.103963e+02 7.567422e+01 1.931857e+02 1.046890e+02 5.863929e+01 5.390576e+01 6.138021e+01 4.975036e+01 4.704284e+01 2.334357e+02 5.383277e+00 2.064785e+00 2.169588e+00 2.674369e+00 3.750953e+00 4.360605e+00 5.191611e+00 4.058801e+00 2.495600e+00 3.113217e+00 3.129349e+00 2.949831e+00 3.366886e+00 6.505527e-01 3.273148e-01 3.406239e-01 3.844339e-01 6.170595e-01 5.694785e-01 8.233403e-01 6.566460e-01 4.078041e-01 5.427628e-01 5.202538e-01 5.381491e-01 3.538019e-01
<GCONST> 1.356079e+02
<TRANSP> 5
 0.000000e+00 1.000000e+00 0.000000e+00 0.000000e+00 0.000000e+00
 0.000000e+00 8.060585e-01 1.939416e-01 0.000000e+00 0.000000e+00
 0.000000e+00 0.000000e+00 8.060585e-01 1.939415e-01 0.000000e+00
 0.000000e+00 0.000000e+00 0.000000e+00 9.387502e-01 6.124980e-02
 0.000000e+00 0.000000e+00 0.000000e+00 0.000000e+00 0.000000e+00
<ENDHMM>
~h "iu"
<BEGINHMM>
<NUMSTATES> 5
<STATE> 2
<MEAN> 39
 -2.349101e+00 -6.915224e+00 -4.107160e+00 -8.690960e+00 -1.125248e+01 5.604312e-01 -1.175388e+01 -3.803645e+00 2.893043e-01 -1.053083e+01 1.507634e+00 -6.134902e+00 6.472022e+01 -3.024676e-02 4.947075e-02 -4.779525e-02 5.511913e-02 6.900596e-03 -3.174582e-02 -1.155165e-02 3.583684e-02 1.601622e-03 1.685105e-02 -4.058386e-02 4.313698e-02 -2.110652e-01 -1.126804e-03 2.331731e-03 -3.280403e-04 1.370438e-03 2.769441e-04 -8.760082e-04 -4.933688e-04 8.058592e-06 -1.572018e-03 1.614839e-03 -1.595573e-04 -4.598185e-04 -5.323408e-03
<VARIANCE> 39
 9.655224e+01 4.011772e+01 4.355827e+01 1.417684e+02 7.003455e+01 1.187926e+02 6.267566e+01 4.876823e+01 4.880305e+01 6.765343e+01 8.767636e+01 5.279781e+01 2.067393e+02 3.801826e+00 1.660292e+00 2.299080e+00 4.819588e+00 3.261879e+00 4.849966e+00 3.957442e+00 3.173170e+00 2.842684e+00 4.069198e+00 5.139313e+00 3.857824e+00 3.272397e+00 4.869758e-01 2.642035e-01 3.550856e-01 5.701400e-01 5.477770e-01 7.222850e-01 7.004734e-01 5.151447e-01 4.687225e-01 6.537547e-01 8.250050e-01 6.275232e-01 3.443006e-01
<GCONST> 1.352508e+02
<STATE> 3
<MEAN> 39
 -2.511759e+00 -6.640519e+00 -4.353179e+00 -8.412104e+00 -1.121796e+01 4.062052e-01 -1.181064e+01 -3.615742e+00 2.793887e-01 -1.042987e+01 1.301413e+00 -5.927153e+00 6.359764e+01 -3.646920e-02 6.097649e-02 -4.958655e-02 6.143811e-02 8.798633e-03 -3.524008e-02 -1.283827e-02 3.522898e-02 -7.274751e-03 2.594140e-02 -4.167807e-02 4.052454e-02 -2.381134e-01 -1.236045e-03 2.157026e-03 -3.103287e-04 9.705083e-04 2.992285e-04 -2.242670e-04 2.942217e-05 -2.784044e-04 -1.906220e-03 1.886118e-03 -2.284006e-04 -5.780236e-04 -4.987353e-03
<VARIANCE> 39
 9.677214e+01 4.027673e+01 4.188892e+01 1.399420e+02 6.934677e+01 1.198794e+02 6.317693e+01 4.803064e+01 4.881588e+01 6.867445e+01 8.563614e+01 5.186053e+01 2.201568e+02 3.577360e+00 1.615670e+00 2.151460e+00 4.567490e+00 3.123028e+00 4.633029e+00 3.865875e+00 3.094714e+00 2.736944e+00 4.023057e+00 4.973914e+00 3.711065e+00 3.086496e+00 4.584637e-01 2.569323e-01 3.343152e-01 5.403154e-01 5.253895e-01 6.866918e-01 6.772263e-01 5.023302e-01 4.496176e-01 6.408373e-01 7.930718e-01 5.967037e-01 3.218050e-01
<GCONST> 1.341361e+02
<STATE> 4
<MEAN> 39
 -2.590054e+00 -5.736803e+00 -4.726418e+00 -8.115546e+00 -1.140168e+01 4.261053e-01 -1.188263e+01 -3.373783e+00 1.951616e-01 -1.023206e+01 9.648001e-01 -5.567399e+00 6.147045e+01 -5.224821e-02 7.785457e-02 -5.287603e-02 6.546244e-02 1.450565e-02 -3.186635e-02 -2.782867e-03 3.148390e-02 -2.795096e-02 4.721730e-02 -4.645657e-02 3.371455e-02 -2.855268e-01 -1.643450e-03 1.566123e-03 -2.377040e-04 7.269691e-04 5.524056e-04 3.411881e-04 9.718038e-04 -8.297430e-04 -2.126393e-03 2.194115e-03 -5.067950e-04 -5.086217e-04 -4.189163e-03
<VARIANCE> 39
 9.307848e+01 4.055326e+01 3.764493e+01 1.348249e+02 6.646242e+01 1.155912e+02 6.112764e+01 4.584521e+01 4.988998e+01 7.103539e+01 8.245202e+01 5.070259e+01 2.404148e+02 3.039913e+00 1.540984e+00 1.883698e+00 4.101060e+00 2.881621e+00 4.162591e+00 3.619173e+00 2.915414e+00 2.583416e+00 3.918653e+00 4.726326e+00 3.483310e+00 2.791613e+00 3.904957e-01 2.449553e-01 3.003904e-01 4.845265e-01 4.850529e-01 6.119463e-01 6.220096e-01 4.754201e-01 4.228294e-01 6.124309e-01 7.416639e-01 5.480357e-01 2.872770e-01
<GCONST> 1.316901e+02
<TRANSP> 5
 0.000000e+00 1.000000e+00 0.000000e+00 0.000000e+00 0.000000e+00
 0.000000e+00 8.025311e-01 1.974690e-01 0.000000e+00 0.000000e+00
 0.000000e+00 0.000000e+00 8.025313e-01 1.974687e-01 0.000000e+00
 0.000000e+00 0.000000e+00 0.000000e+00 9.355664e-01 6.443354e-02
 0.000000e+00 0.000000e+00 0.000000e+00 0.000000e+00 0.000000e+00
<ENDHMM>
~h "sh"
<BEGINHMM>
<NUMSTATES> 5
<STATE> 2
<MEAN> 39
 -5.510698e+00 -8.473384e+00 -4.869442e+00 -5.597828e+00 -6.387737e+00 -1.125901e+00 -9.116983e+00 -2.307380e+00 4.765105e-02 -9.727288e+00 -3.088186e+00 -8.121202e+00 6.535791e+01 -1.273329e-02 6.851126e-02 -1.297998e-02 -2.242401e-02 7.166093e-04 2.759439e-02 -1.869773e-02 -1.634945e-02 -5.589301e-03 2.503632e-02 2.273482e-02 2.486493e-02 -1.273979e-01 -4.240913e-04 7.334261e-05 9.963571e-04 -1.486283e-03 -1.974629e-03 2.044727e-04 3.880197e-04 -7.840754e-04 -1.011734e-03 3.575666e-04 1.489118e-03 6.193840e-04 9.322591e-04
<VARIANCE> 39
 1.111608e+02 7.079002e+01 6.467930e+01 7.469795e+01 5.621191e+01 7.850368e+01 6.940106e+01 6.931132e+01 6.541834e+01 5.653885e+01 5.379090e+01 4.476110e+01 2.253822e+02 6.108829e+00 2.592693e+00 2.682785e+00 3.932870e+00 3.244341e+00 3.650707e+00 3.677006e+00 3.667850e+00 2.919464e+00 3.153649e+00 3.725712e+00 2.733140e+00 3.038694e+00 8.398300e-01 4.348665e-01 3.968185e-01 5.943118e-01 5.544286e-01 5.398929e-01 6.018054e-01 5.942183e-01 4.884271e-01 5.424454e-01 6.323085e-01 4.642136e-01 3.187067e-01
<GCONST> 1.348819e+02
<STATE> 3
<MEAN> 39
 -5.580480e+00 -8.115686e+00 -4.920412e+00 -5.730154e+00 -6.414859e+00 -9.878109e-01 -9.203661e+00 -2.406034e+00 -2.752542e-03 -9.589025e+00 -2.947746e+00 -7.982725e+00 6.471190e+01 -1.399132e-02 6.785291e-02 -7.494804e-03 -2.912647e-02 -1.012988e-02 2.858040e-02 -1.698269e-02 -2.058524e-02 -1.090669e-02 2.627290e-02 3.035761e-02 2.740372e-02 -1.215768e-01 -1.452602e-04 -2.909858e-04 9.961894e-04 -1.149777e-03 -2.080580e-03 2.114236e-04 3.086987e-04 -7.613783e-04 -9.582272e-04 1.234332e-04 1.384424e-03 4.346956e-04 1.159074e-03
<VARIANCE> 39
 1.105564e+02 7.308416e+01 6.642568e+01 7.546666e+01 5.629105e+01 7.822587e+01 6.901291e+01 6.885410e+01 6.441213e+01 5.717416e+01 5.377598e+01 4.530692e+01 2.330389e+02 5.845269e+00 2.581831e+00 2.665387e+00 3.863829e+00 3.199035e+00 3.573696e+00 3.632774e+00 3.653292e+00 2.968617e+00 3.133685e+00 3.645416e+00 2.727769e+00 3.058175e+00 8.022597e-01 4.309846e-01 3.926616e-01 5.803876e-01 5.488654e-01 5.294758e-01 5.938523e-01 5.933103e-01 5.002381e-01 5.367892e-01 6.216365e-01 4.616289e-01 3.233747e-01
<GCONST> 1.347127e+02
<STATE> 4
<MEAN> 39
 -5.651198e+00 -7.344823e+00 -4.966504e+00 -6.022020e+00 -6.655828e+00 -6.768488e-01 -9.406994e+00 -2.638917e+00 -2.069676e-01 -9.292983e+00 -2.586847e+00 -7.640603e+00 6.326118e+01 -1.154593e-02 6.346932e-02 2.844792e-03 -3.490620e-02 -3.414036e-02 2.879033e-02 -1.467137e-02 -3.011730e-02 -2.497038e-02 2.801282e-02 4.441225e-02 3.048071e-02 -1.131672e-01 2.640000e-04 -1.095767e-03 6.793358e-04 -2.927834e-04 -1.801529e-03 2.386001e-04 1.350623e-04 -4.210096e-04 -6.964750e-04 -3.193445e-04 7.890936e-04 6.877662e-05 1.325060e-03
<VARIANCE> 39
 1.081034e+02 7.667374e+01 7.095676e+01 7.719002e+01 5.740574e+01 7.829965e+01 6.784213e+01 6.712591e+01 6.157041e+01 5.758516e+01 5.328587e+01 4.569389e+01 2.479668e+02 5.237468e+00 2.505504e+00 2.610571e+00 3.707716e+00 3.108387e+00 3.433276e+00 3.520697e+00 3.581298e+00 3.016429e+00 3.062917e+00 3.467286e+00 2.682420e+00 3.054075e+00 7.156019e-01 4.125295e-01 3.790944e-01 5.523112e-01 5.343100e-01 5.125899e-01 5.777880e-01 5.842289e-01 5.154261e-01 5.204989e-01 5.963238e-01 4.516385e-01 3.274582e-01
<GCONST> 1.340346e+02
<TRANSP> 5
 0.000000e+00 1.000000e+00 0.000000e+00 0.000000e+00 0.000000e+00
 0.000000e+00 8.027244e-01 1.972756e-01 0.000000e+00 0.000000e+00
 0.000000e+00 0.000000e+00 8.027245e-01 1.972755e-01 0.000000e+00
 0.000000e+00 0.000000e+00 0.000000e+00 9.345908e-01 6.540922e-02
 0.000000e+00 0.000000e+00 0.000000e+00 0.000000e+00 0.000000e+00
<ENDHMM>
~h "si"
<BEGINHMM>
<NUMSTATES> 5
<STATE> 2
<MEAN> 39
 -4.927289e+00 -7.106429e+00 -5.347731e+00 -9.630548e+00 -6.756840e+00 3.060981e-01 -1.161771e+01 -4.347368e+00 -5.604926e-01 -8.730150e+00 1.143229e-01 -7.426438e+00 6.416822e+01 2.522802e-02 -3.024806e-02 -2.826777e-02 2.540867e-03 -7.468586e-02 3.498703e-02 9.284647e-03 4.389179e-02 -1.911954e-02 -2.434671e-02 -8.151309e-03 2.949766e-02 -1.656759e-01 -2.359754e-03 2.558757e-03 -2.333278e-03 3.774898e-03 1.579450e-03 -3.197406e-03 7.893728e-04 2.094523e-03 1.284077e-04 1.848913e-04 -1.434592e-03 9.585984e-04 -7.208507e-03
<VARIANCE> 39
 1.216898e+02 5.192495e+01 6.825033e+01 9.987489e+01 7.010110e+01 1.299053e+02 9.499469e+01 8.627428e+01 4.619093e+01 5.717128e+01 4.656271e+01 5.686675e+01 1.691589e+02 4.563543e+00 2.215468e+00 2.376409e+00 4.039191e+00 2.877789e+00 3.706502e+00 4.858351e+00 4.865728e+00 3.030557e+00 2.562368e+00 2.914540e+00 2.768135e+00 2.513164e+00 5.397348e-01 3.765284e-01 3.481191e-01 5.172402e-01 4.764237e-01 4.964423e-01 7.468442e-01 7.239289e-01 4.881966e-01 4.112028e-01 4.789097e-01 4.307225e-01 2.878770e-01
<GCONST> 1.336451e+02
<STATE> 3
<MEAN> 39
 -4.824541e+00 -7.238192e+00 -5.520862e+00 -9.578809e+00 -7.119376e+00 4.507651e-01 -1.155850e+01 -4.103615e+00 -6.533048e-01 -8.852299e+00 5.591798e-02 -7.270010e+00 6.325793e+01 1.146308e-02 -1.553380e-02 -4.000357e-02 2.270164e-02 -6.551749e-02 1.729840e-02 1.363324e-02 5.274508e-02 -1.914558e-02 -2.151553e-02 -1.513574e-02 3.466671e-02 -2.028295e-01 -3.025908e-03 3.180664e-03 -2.083094e-03 4.044143e-03 1.968448e-03 -3.599090e-03 8.201060e-04 1.310706e-03 -2.157680e-04 1.086152e-03 -1.265750e-03 9.703209e-04 -7.234886e-03
<VARIANCE> 39
 1.173116e+02 5.023138e+01 6.791493e+01 1.022460e+02 6.993625e+01 1.362755e+02 9.222101e+01 8.112312e+01 4.582614e+01 5.965044e+01 4.771420e+01 5.579671e+01 1.866967e+02 4.242969e+00 2.114802e+00 2.312765e+00 3.911958e+00 2.884264e+00 3.707226e+00 4.664402e+00 4.653148e+00 2.935287e+00 2.604645e+00 2.985759e+00 2.739041e+00 2.410408e+00 5.033278e-01 3.571702e-01 3.390824e-01 4.948798e-01 4.802963e-01 4.867743e-01 7.202286e-01 6.938539e-01 4.736123e-01 4.132772e-01 4.852110e-01 4.252993e-01 2.765149e-01
<GCONST> 1.330330e+02
<STATE> 4
<MEAN> 39
 -4.894340e+00 -7.369930e+00 -6.047628e+00 -9.339020e+00 -7.614499e+00 4.974643e-01 -1.134669e+01 -3.646796e+00 -8.849548e-01 -8.933044e+00 -1.555173e-01 -6.982343e+00 6.119341e+01 -2.047358e-02 1.458672e-02 -5.961838e-02 6.216179e-02 -4.644478e-02 -1.801697e-02 2.250959e-02 5.821275e-02 -2.269460e-02 -6.684838e-03 -2.579765e-02 4.342658e-02 -2.673603e-01 -3.740325e-03 3.744273e-03 -1.317056e-03 4.162913e-03 2.365344e-03 -3.617604e-03 7.185884e-04 4.280209e-05 -7.920753e-04 2.365857e-03 -8.974939e-04 8.465652e-04 -6.488618e-03
<VARIANCE> 39
 1.101985e+02 4.769224e+01 6.632972e+01 1.046425e+02 6.838065e+01 1.461546e+02 8.751414e+01 7.166715e+01 4.570241e+01 6.257741e+01 4.900789e+01 5.307790e+01 2.179171e+02 3.679022e+00 1.930373e+00 2.157488e+00 3.602801e+00 2.806636e+00 3.635754e+00 4.255624e+00 4.238831e+00 2.721373e+00 2.602140e+00 3.042711e+00 2.627231e+00 2.170921e+00 4.357278e-01 3.232123e-01 3.172313e-01 4.504136e-01 4.695574e-01 4.628422e-01 6.608812e-01 6.366622e-01 4.392271e-01 4.062969e-01 4.871698e-01 4.101319e-01 2.489952e-01
<GCONST> 1.312650e+02
<TRANSP> 5
 0.000000e+00 1.000000e+00 0.000000e+00 0.000000e+00 0.000000e+00
 0.000000e+00 8.013325e-01 1.986675e-01 0.000000e+00 0.000000e+00
 0.000000e+00 0.000000e+00 8.013322e-01 1.986677e-01 0.000000e+00
 0.000000e+00 0.000000e+00 0.000000e+00 9.328365e-01 6.716342e-02
 0.000000e+00 0.000000e+00 0.000000e+00 0.000000e+00 0.000000e+00
<ENDHMM>
~h "wu"
<BEGINHMM>
<NUMSTATES> 5
<STATE> 2
<MEAN> 39
 -4.974384e-01 -5.565745e+00 -4.185620e+00 -8.374632e+00 -1.078945e+01 4.328943e-01 -1.237806e+01 -3.716038e+00 3.915367e-01 -1.076168e+01 3.982971e-01 -6.783403e+00 6.522417e+01 -3.248979e-03 -2.677170e-02 -5.480747e-03 2.315622e-02 -1.987628e-02 3.282246e-02 -8.299074e-05 8.964902e-03 -1.402332e-02 1.065305e-02 -1.612790e-02 2.444705e-02 -5.109365e-02 -2.418738e-03 3.990230e-04 -1.630429e-03 -1.099911e-03 1.836745e-03 1.109962e-03 3.789862e-04 1.448607e-03 -2.590735e-04 2.819163e-04 1.728575e-04 1.030800e-04 -3.941298e-03
<VARIANCE> 39
 1.034295e+02 7.309611e+01 4.722379e+01 1.299169e+02 8.374181e+01 1.112924e+02 7.568918e+01 5.794713e+01 5.602929e+01 6.878374e+01 6.534134e+01 4.232625e+01 1.897804e+02 4.477963e+00 2.233386e+00 2.415553e+00 4.502522e+00 4.116057e+00 3.949571e+00 3.744990e+00 3.653152e+00 3.480847e+00 3.915852e+00 4.014347e+00 2.649280e+00 3.698956e+00 5.646320e-01 3.400661e-01 3.948181e-01 6.025345e-01 7.381766e-01 6.004601e-01 6.304528e-01 5.815825e-01 5.563184e-01 6.086155e-01 6.394340e-01 4.439275e-01 3.468658e-01
<GCONST> 1.363576e+02
<STATE> 3
<MEAN> 39
 -5.414591e-01 -5.712158e+00 -4.230208e+00 -8.267748e+00 -1.086609e+01 6.142458e-01 -1.237922e+01 -3.651256e+00 3.207371e-01 -1.070498e+01 3.195922e-01 -6.656744e+00 6.493604e+01 -1.645322e-02 -2.302238e-02 -1.444628e-02 1.767616e-02 -1.019244e-02 3.780349e-02 2.356745e-03 1.636316e-02 -1.577185e-02 1.255121e-02 -1.516205e-02 2.512067e-02 -7.463747e-02 -2.795750e-03 1.150257e-03 -1.759147e-03 -7.589678e-04 1.826327e-03 5.605645e-04 7.320257e-04 1.257860e-03 -5.869614e-04 6.627652e-04 5.076161e-05 1.911165e-04 -5.374780e-03
<VARIANCE> 39
 1.025963e+02 7.181224e+01 4.730150e+01 1.336386e+02 8.390849e+01 1.142794e+02 7.598540e+01 5.861399e+01 5.574110e+01 6.806467e+01 6.366946e+01 4.288694e+01 1.940501e+02 4.330174e+00 2.191182e+00 2.389888e+00 4.451533e+00 4.048676e+00 3.980397e+00 3.801712e+00 3.707647e+00 3.435547e+00 3.903482e+00 4.045669e+00 2.676239e+00 3.591841e+00 5.464876e-01 3.329244e-01 3.902705e-01 5.849031e-01 7.202849e-01 6.051462e-01 6.388100e-01 5.888805e-01 5.483776e-01 6.063583e-01 6.447051e-01 4.456838e-01 3.388610e-01
<GCONST> 1.362024e+02
<STATE> 4
<MEAN> 39
 -7.799859e-01 -5.950377e+00 -4.432867e+00 -8.194298e+00 -1.089157e+01 1.079828e+00 -1.240804e+01 -3.376195e+00 1.071293e-01 -1.056548e+01 2.238851e-01 -6.433805e+00 6.410789e+01 -4.576527e-02 -1.020491e-02 -3.261305e-02 1.410001e-02 9.973326e-03 3.721838e-02 1.045858e-02 2.823970e-02 -2.118817e-02 2.060899e-02 -1.440715e-02 2.773037e-02 -1.326743e-01 -3.309987e-03 2.334137e-03 -1.843388e-03 2.463735e-04 1.638524e-03 -7.796302e-04 1.410740e-03 6.910717e-04 -1.128036e-03 1.382875e-03 -3.345803e-04 3.569791e-04 -7.550247e-03
<VARIANCE> 39
 1.007963e+02 6.891544e+01 4.731584e+01 1.391635e+02 8.335437e+01 1.207913e+02 7.735601e+01 5.918181e+01 5.445933e+01 6.749743e+01 6.120731e+01 4.388303e+01 2.070121e+02 3.963022e+00 2.075610e+00 2.303707e+00 4.290045e+00 3.862543e+00 3.988148e+00 3.868398e+00 3.729343e+00 3.303383e+00 3.853194e+00 4.057055e+00 2.701721e+00 3.310213e+00 4.984447e-01 3.141795e-01 3.741861e-01 5.444023e-01 6.767361e-01 6.027584e-01 6.467404e-01 5.920008e-01 5.288299e-01 5.958674e-01 6.473050e-01 4.452174e-01 3.163455e-01
<GCONST> 1.354853e+02
<TRANSP> 5
 0.000000e+00 1.000000e+00 0.000000e+00 0.000000e+00 0.000000e+00
 0.000000e+00 8.056765e-01 1.943235e-01 0.000000e+00 0.000000e+00
 0.000000e+00 0.000000e+00 8.056763e-01 1.943237e-01 0.000000e+00
 0.000000e+00 0.000000e+00 0.000000e+00 9.378406e-01 6.215942e-02
 0.000000e+00 0.000000e+00 0.000000e+00 0.000000e+00 0.000000e+00
<ENDHMM>
~h "yi"
<BEGINHMM>
<NUMSTATES> 5
<STATE> 2
<MEAN> 39
 -7.818969e+00 -4.954541e+00 1.295410e+00 -7.643618e+00 -9.094312e+00 -1.204437e+00 -8.200118e+00 -5.803862e+00 -7.147119e-01 -1.122458e+01 1.025423e+00 -7.475319e+00 6.516357e+01 1.520196e-02 -3.748014e-02 -6.580152e-02 1.875770e-02 2.818903e-02 -2.834663e-02 -6.439347e-03 -3.187288e-02 2.843998e-02 5.869749e-02 -1.631945e-03 4.107485e-02 2.497836e-02 3.718569e-03 -3.884444e-03 -5.385382e-03 2.005299e-03 1.786141e-03 -9.048987e-04 -4.950956e-03 3.988780e-03 2.917624e-03 -1.095155e-03 -1.131912e-03 3.744350e-04 -9.165456e-04
<VARIANCE> 39
 1.005894e+02 9.363130e+01 1.660506e+02 8.471769e+01 7.870157e+01 1.030282e+02 5.540334e+01 7.595988e+01 5.286325e+01 6.855693e+01 5.242587e+01 3.944453e+01 1.842114e+02 4.276657e+00 2.294475e+00 4.643182e+00 3.382807e+00 4.327852e+00 3.341548e+00 2.464896e+00 3.735295e+00 2.340489e+00 3.736089e+00 3.387285e+00 2.397831e+00 3.956430e+00 5.862146e-01 3.429023e-01 6.212814e-01 4.913981e-01 7.145267e-01 4.851779e-01 4.332945e-01 6.135851e-01 4.038702e-01 5.843185e-01 5.598672e-01 3.625360e-01 4.135882e-01
<GCONST> 1.352415e+02
<STATE> 3
<MEAN> 39
 -7.699608e+00 -5.200012e+00 8.924370e-01 -7.524764e+00 -8.923656e+00 -1.353999e+00 -8.286697e+00 -5.918427e+00 -5.360777e-01 -1.093090e+01 9.993484e-01 -7.263320e+00 6.528341e+01 3.353588e-02 -5.517553e-02 -9.312381e-02 2.959539e-02 3.700560e-02 -3.305209e-02 -3.168316e-02 -1.055700e-02 4.279142e-02 5.246957e-02 -7.763927e-03 4.328603e-02 1.535389e-02 3.185010e-03 -2.589055e-03 -4.928912e-03 2.046653e-03 1.398112e-03 -9.536382e-04 -4.671369e-03 4.126956e-03 2.273791e-03 -1.230985e-03 -1.267092e-03 3.934792e-04 -3.177486e-03
<VARIANCE> 39
 1.056342e+02 9.243632e+01 1.603854e+02 9.174986e+01 8.115321e+01 1.112385e+02 5.739325e+01 7.261429e+01 5.206093e+01 6.759065e+01 5.067297e+01 4.000021e+01 1.830194e+02 4.439275e+00 2.267959e+00 4.408347e+00 3.469907e+00 4.312198e+00 3.503766e+00 2.537215e+00 3.741904e+00 2.321761e+00 3.675851e+00 3.424969e+00 2.416283e+00 3.790063e+00 6.016370e-01 3.391496e-01 5.950959e-01 4.947802e-01 7.073594e-01 5.031635e-01 4.429800e-01 6.175312e-01 4.025759e-01 5.754262e-01 5.711536e-01 3.658580e-01 4.031532e-01
<GCONST> 1.354080e+02
<STATE> 4
<MEAN> 39
 -7.220006e+00 -5.839968e+00 -2.335696e-01 -7.289228e+00 -8.611276e+00 -1.404579e+00 -8.710495e+00 -5.853854e+00 -2.501836e-01 -1.038631e+01 8.301096e-01 -6.908146e+00 6.501893e+01 5.408407e-02 -6.895403e-02 -1.362120e-01 5.015182e-02 5.054056e-02 -3.918436e-02 -6.870975e-02 2.857747e-02 5.772894e-02 4.367235e-02 -2.117651e-02 4.799524e-02 -3.525889e-02 1.360591e-03 3.472078e-04 -3.373035e-03 1.877745e-03 4.288409e-04 -1.021246e-03 -3.345560e-03 3.584512e-03 4.972229e-04 -1.045048e-03 -1.334626e-03 3.595801e-04 -7.008816e-03
<VARIANCE> 39
 1.113107e+02 8.891559e+01 1.472987e+02 1.053072e+02 8.487994e+01 1.299657e+02 6.262723e+01 6.772751e+01 5.041413e+01 6.565775e+01 4.807774e+01 4.070776e+01 1.901939e+02 4.545761e+00 2.195268e+00 3.920313e+00 3.567620e+00 4.153769e+00 3.740122e+00 2.666894e+00 3.681228e+00 2.255088e+00 3.528283e+00 3.462461e+00 2.415030e+00 3.435815e+00 6.046492e-01 3.292036e-01 5.423649e-01 4.908641e-01 6.728811e-01 5.228469e-01 4.569299e-01 6.047347e-01 3.945097e-01 5.543531e-01 5.835356e-01 3.698871e-01 3.729820e-01
<GCONST> 1.352097e+02
<TRANSP> 5
 0.000000e+00 1.000000e+00 0.000000e+00 0.000000e+00 0.000000e+00
 0.000000e+00 8.046736e-01 1.953265e-01 0.000000e+00 0.000000e+00
 0.000000e+00 0.000000e+00 8.046734e-01 1.953265e-01 0.000000e+00
 0.000000e+00 0.000000e+00 0.000000e+00 9.365084e-01 6.349162e-02
 0.000000e+00 0.000000e+00 0.000000e+00 0.000000e+00 0.000000e+00
<ENDHMM>
~h "zh"
<BEGINHMM>
<NUMSTATES> 5
<STATE> 2
<MEAN> 39
 -9.227555e+00 -2.058113e+00 -8.399493e+00 -4.894465e+00 -1.016529e+01 2.096889e-01 -8.906821e+00 -3.264014e+00 -3.806684e+00 -6.282064e+00 -1.843303e+00 -4.386693e+00 4.368814e+01 -1.743267e-01 2.315054e-02 -7.252844e-02 1.304092e-01 5.184511e-02 -6.824528e-02 3.956051e-02 -2.079687e-02 -8.012114e-02 1.067936e-01 -6.808414e-02 3.379131e-02 -3.144336e-01 3.269958e-03 -8.504671e-04 9.556388e-04 -1.911110e-03 -2.169833e-03 1.783864e-03 -2.225261e-03 -1.660551e-04 2.078881e-03 -2.761364e-03 1.647338e-03 -2.379316e-04 7.271712e-03
<VARIANCE> 39
 5.731216e+01 1.708236e+01 2.009449e+01 6.263778e+01 2.747894e+01 4.073248e+01 2.292588e+01 2.255521e+01 3.240677e+01 4.918105e+01 3.819749e+01 2.647009e+01 1.568848e+02 6.876916e-01 7.980799e-01 8.114762e-01 1.449173e+00 1.382068e+00 1.674864e+00 1.568851e+00 1.808343e+00 1.804601e+00 2.185667e+00 2.344290e+00 1.778165e+00 8.011340e-01 8.393358e-02 1.332909e-01 1.513564e-01 2.161397e-01 2.548238e-01 2.855292e-01 2.915092e-01 3.500252e-01 3.277764e-01 3.668580e-01 3.999274e-01 3.195502e-01 6.207536e-02
<GCONST> 1.025699e+02
<STATE> 3
<MEAN> 39
 -1.009296e+01 -1.953822e+00 -8.760511e+00 -4.244015e+00 -9.919264e+00 -1.252073e-01 -8.722513e+00 -3.372663e+00 -4.197739e+00 -5.760381e+00 -2.176643e+00 -4.217238e+00 4.214766e+01 -1.567467e-01 1.908547e-02 -6.778903e-02 1.191244e-01 4.021147e-02 -5.858685e-02 2.816275e-02 -2.121386e-02 -6.917950e-02 9.219381e-02 -5.940111e-02 3.200166e-02 -2.767013e-01 3.727630e-03 -5.924976e-04 8.720455e-04 -2.751885e-03 -2.363502e-03 1.999114e-03 -2.184347e-03 1.075148e-04 2.194338e-03 -2.899193e-03 1.765791e-03 -6.547459e-04 7.414538e-03
<VARIANCE> 39
 4.911003e+01 1.545073e+01 1.855359e+01 5.342970e+01 2.411476e+01 3.524314e+01 2.038950e+01 2.073675e+01 2.880830e+01 4.235248e+01 3.313923e+01 2.387033e+01 1.287366e+02 5.862981e-01 7.104879e-01 7.481493e-01 1.281727e+00 1.269990e+00 1.532498e+00 1.483835e+00 1.719490e+00 1.709469e+00 2.006916e+00 2.117357e+00 1.663732e+00 6.447986e-01 7.211851e-02 1.201394e-01 1.410736e-01 2.011957e-01 2.388334e-01 2.691275e-01 2.811104e-01 3.369114e-01 3.170174e-01 3.477087e-01 3.707025e-01 3.076184e-01 4.887981e-02
<GCONST> 9.856905e+01
<STATE> 4
<MEAN> 39
 -1.126076e+01 -1.849662e+00 -9.264634e+00 -3.374358e+00 -9.695135e+00 -4.878913e-01 -8.532178e+00 -3.541744e+00 -4.642473e+00 -5.048307e+00 -2.611347e+00 -3.925925e+00 4.009351e+01 -1.287308e-01 1.129196e-02 -6.166804e-02 9.462396e-02 2.007952e-02 -4.353932e-02 1.188663e-02 -2.019710e-02 -5.209332e-02 6.838702e-02 -4.555750e-02 2.519786e-02 -2.180974e-01 3.895402e-03 -3.131999e-04 7.297281e-04 -3.462437e-03 -2.292786e-03 1.895395e-03 -1.838538e-03 3.742876e-04 2.014072e-03 -2.761203e-03 1.689058e-03 -1.084407e-03 6.967080e-03
<VARIANCE> 39
 3.648559e+01 1.321424e+01 1.671986e+01 3.968685e+01 1.965152e+01 2.813079e+01 1.718153e+01 1.851267e+01 2.361980e+01 3.286743e+01 2.614450e+01 2.034714e+01 8.717513e+01 4.517029e-01 5.879850e-01 6.678101e-01 1.069486e+00 1.129178e+00 1.355568e+00 1.376460e+00 1.601074e+00 1.581433e+00 1.780792e+00 1.826957e+00 1.507374e+00 4.391403e-01 5.746764e-02 1.018129e-01 1.277302e-01 1.820409e-01 2.185882e-01 2.487822e-01 2.681198e-01 3.192167e-01 3.025797e-01 3.240477e-01 3.352087e-01 2.899578e-01 3.264307e-02
<GCONST> 9.226057e+01
<TRANSP> 5
 0.000000e+00 1.000000e+00 0.000000e+00 0.000000e+00 0.000000e+00
 0.000000e+00 8.037422e-01 1.962577e-01 0.000000e+00 0.000000e+00
 0.000000e+00 0.000000e+00 8.037426e-01 1.962574e-01 0.000000e+00
 0.000000e+00 0.000000e+00 0.000000e+00 9.360524e-01 6.394763e-02
 0.000000e+00 0.000000e+00 0.000000e+00 0.000000e+00 0.000000e+00
<ENDHMM>
~h "eng"
<BEGINHMM>
<NUMSTATES> 5
<STATE> 2
<MEAN> 39
 -5.069282e+00 -7.337972e+00 -4.751262e+00 -7.826034e+00 -7.882425e+00 3.904819e-02 -9.671971e+00 -3.068935e+00 -6.455960e-01 -1.006153e+01 -1.027993e-01 -7.898842e+00 6.664590e+01 1.191547e-03 1.256103e-02 -6.723930e-03 3.331612e-02 1.977922e-02 -4.571026e-04 -7.468831e-03 2.144028e-03 9.213775e-03 7.284706e-03 -2.759691e-02 5.375582e-03 -6.709541e-02 -9.603577e-04 -5.523306e-04 -2.829423e-04 -8.045755e-04 -2.795302e-04 -2.409938e-04 4.055649e-04 -2.439650e-04 -4.242155e-04 1.237368e-03 -8.049160e-04 8.614869e-04 -1.070208e-03
<VARIANCE> 39
 1.074389e+02 6.132952e+01 6.642028e+01 8.378365e+01 6.224896e+01 9.606618e+01 7.384258e+01 5.589828e+01 6.017604e+01 6.864085e+01 8.338017e+01 4.116630e+01 2.314710e+02 5.515620e+00 2.326416e+00 2.598857e+00 3.731952e+00 3.621421e+00 4.196705e+00 3.872726e+00 3.267388e+00 2.907700e+00 3.359987e+00 3.951379e+00 2.737210e+00 4.254953e+00 7.371413e-01 3.875458e-01 3.932588e-01 5.620244e-01 6.247410e-01 6.464286e-01 6.614396e-01 5.561738e-01 4.931813e-01 5.279705e-01 6.233703e-01 4.920387e-01 4.527028e-01
<GCONST> 1.362303e+02
<STATE> 3
<MEAN> 39
 -5.081265e+00 -7.274302e+00 -4.786448e+00 -7.659880e+00 -7.781696e+00 2.681732e-02 -9.702403e+00 -3.062708e+00 -6.085480e-01 -9.999797e+00 -2.634577e-01 -7.854149e+00 6.627487e+01 -3.448250e-03 9.212634e-03 -7.821271e-03 2.892722e-02 1.752044e-02 -2.281982e-03 -5.328619e-03 1.340887e-03 7.422458e-03 1.299875e-02 -3.067888e-02 1.001882e-02 -7.053259e-02 -8.922175e-04 -6.901986e-04 -3.645655e-04 -9.529906e-04 -5.651601e-04 -3.823473e-04 2.720713e-04 -1.468074e-04 -3.535859e-04 1.002773e-03 -3.703069e-04 9.311431e-04 -7.055856e-04
<VARIANCE> 39
 1.090589e+02 6.352388e+01 6.624823e+01 8.465193e+01 6.247712e+01 9.554297e+01 7.303374e+01 5.684432e+01 6.005584e+01 6.778231e+01 8.109736e+01 4.183253e+01 2.336942e+02 5.522627e+00 2.330284e+00 2.606776e+00 3.733935e+00 3.588620e+00 4.098074e+00 3.849032e+00 3.302481e+00 2.913020e+00 3.334730e+00 3.908256e+00 2.747729e+00 4.097410e+00 7.341384e-01 3.862228e-01 3.959817e-01 5.603957e-01 6.203558e-01 6.244829e-01 6.522750e-01 5.602862e-01 4.932042e-01 5.279397e-01 6.211902e-01 4.906837e-01 4.355338e-01
<GCONST> 1.361064e+02
<STATE> 4
<MEAN> 39
 -5.193098e+00 -7.018149e+00 -4.915504e+00 -7.355052e+00 -7.653193e+00 -4.888165e-02 -9.822387e+00 -3.035891e+00 -5.956385e-01 -9.704490e+00 -5.744880e-01 -7.605982e+00 6.511263e+01 -1.019746e-02 4.001368e-03 -8.094313e-03 2.247430e-02 7.318018e-03 -1.003152e-02 -3.818870e-03 8.373195e-05 3.973407e-03 2.200648e-02 -3.021135e-02 2.121440e-02 -7.437836e-02 -3.443085e-04 -6.001578e-04 -3.519975e-04 -9.487353e-04 -1.062085e-03 -3.748623e-04 -1.770851e-04 -1.300282e-04 -2.205890e-04 3.802537e-04 6.584190e-04 8.140909e-04 -2.126005e-04
<VARIANCE> 39
 1.108308e+02 6.720765e+01 6.647108e+01 8.671289e+01 6.291584e+01 9.528810e+01 7.167315e+01 5.750781e+01 5.848225e+01 6.564837e+01 7.508139e+01 4.286744e+01 2.461190e+02 5.333571e+00 2.274234e+00 2.588295e+00 3.665309e+00 3.507792e+00 3.914937e+00 3.809065e+00 3.320782e+00 2.899799e+00 3.242218e+00 3.778828e+00 2.752390e+00 3.767322e+00 7.007258e-01 3.719920e-01 3.949838e-01 5.434269e-01 6.085694e-01 5.889156e-01 6.368948e-01 5.629481e-01 4.911412e-01 5.202671e-01 6.103008e-01 4.842410e-01 4.007824e-01
<GCONST> 1.354899e+02
<TRANSP> 5
 0.000000e+00 1.000000e+00 0.000000e+00 0.000000e+00 0.000000e+00
 0.000000e+00 8.057318e-01 1.942682e-01 0.000000e+00 0.000000e+00
 0.000000e+00 0.000000e+00 8.057315e-01 1.942684e-01 0.000000e+00
 0.000000e+00 0.000000e+00 0.000000e+00 9.385989e-01 6.140115e-02
 0.000000e+00 0.000000e+00 0.000000e+00 0.000000e+00 0.000000e+00
<ENDHMM>
~h "ong"
<BEGINHMM>
<NUMSTATES> 5
<STATE> 2
<MEAN> 39
 -1.278214e+01 -1.724188e+00 -1.004012e+01 -2.275194e+00 -9.487345e+00 -1.040943e+00 -8.455791e+00 -3.789880e+00 -5.290454e+00 -4.327016e+00 -3.130481e+00 -3.695425e+00 3.758961e+01 -7.716848e-02 1.222449e-02 -5.249923e-02 4.925575e-02 -6.822040e-03 -1.982871e-02 -9.971947e-03 -1.400961e-02 -2.769850e-02 3.525366e-02 -2.484743e-02 1.051020e-02 -1.331766e-01 3.238617e-03 -6.945261e-05 7.384142e-04 -3.169332e-03 -1.191989e-03 1.230535e-03 -6.264414e-04 6.165862e-04 1.389267e-03 -1.712374e-03 1.256168e-03 -1.281253e-03 5.207602e-03
<VARIANCE> 39
 1.843905e+01 1.036502e+01 1.326670e+01 2.248129e+01 1.483743e+01 1.895092e+01 1.411567e+01 1.598779e+01 1.741698e+01 2.075825e+01 1.800267e+01 1.566419e+01 3.687891e+01 2.921292e-01 4.326157e-01 5.637143e-01 8.215117e-01 9.580986e-01 1.145123e+00 1.297474e+00 1.485785e+00 1.446402e+00 1.526220e+00 1.508840e+00 1.318633e+00 2.118098e-01 4.160123e-02 7.792641e-02 1.094097e-01 1.544004e-01 1.915513e-01 2.215592e-01 2.638713e-01 3.011643e-01 2.880527e-01 2.985820e-01 2.955808e-01 2.666380e-01 1.722532e-02
<GCONST> 8.210474e+01
<STATE> 3
<MEAN> 39
 -1.315322e+01 -1.669199e+00 -1.030284e+01 -2.050753e+00 -9.535956e+00 -1.134668e+00 -8.513534e+00 -3.858454e+00 -5.421412e+00 -4.163617e+00 -3.248260e+00 -3.652090e+00 3.695384e+01 -6.133055e-02 1.189765e-02 -4.845341e-02 3.400753e-02 -1.196172e-02 -1.408626e-02 -1.246980e-02 -1.102314e-02 -2.105176e-02 2.725570e-02 -1.885524e-02 4.394474e-03 -1.078306e-01 2.658718e-03 -1.670112e-04 1.170181e-03 -2.206066e-03 -3.373062e-04 7.315021e-04 -2.568233e-05 4.549960e-04 1.248010e-03 -1.325110e-03 9.951913e-04 -8.058552e-04 4.467173e-03
<VARIANCE> 39
 1.427757e+01 9.708223e+00 1.222674e+01 1.833755e+01 1.398443e+01 1.700943e+01 1.357235e+01 1.550425e+01 1.610491e+01 1.811451e+01 1.628709e+01 1.450170e+01 2.606146e+01 2.537097e-01 3.920961e-01 5.370734e-01 7.677245e-01 9.220257e-01 1.093927e+00 1.271758e+00 1.451453e+00 1.421023e+00 1.474297e+00 1.449196e+00 1.260830e+00 1.616403e-01 3.819015e-02 7.158922e-02 1.045481e-01 1.475000e-01 1.851726e-01 2.135801e-01 2.606407e-01 2.947279e-01 2.865316e-01 2.950439e-01 2.884383e-01 2.567250e-01 1.420428e-02
<GCONST> 7.899268e+01
<STATE> 4
<MEAN> 39
 -1.361313e+01 -1.707627e+00 -1.064808e+01 -1.886293e+00 -9.733151e+00 -1.192124e+00 -8.610112e+00 -3.960768e+00 -5.506637e+00 -3.972244e+00 -3.382922e+00 -3.595168e+00 3.623248e+01 -4.396302e-02 8.530356e-03 -3.976041e-02 1.838466e-02 -1.461269e-02 -1.054210e-02 -1.289488e-02 -8.805819e-03 -1.300485e-02 1.785233e-02 -1.253423e-02 -1.562408e-03 -7.621778e-02 1.970876e-03 3.139603e-05 1.845550e-03 -9.599796e-04 8.052454e-04 -3.838848e-05 7.834027e-04 2.378052e-04 1.262872e-03 -1.216521e-03 8.379064e-04 -3.827686e-04 3.695952e-03
<VARIANCE> 39
 9.702469e+00 8.942177e+00 1.114206e+01 1.369434e+01 1.332805e+01 1.521074e+01 1.281940e+01 1.521386e+01 1.473526e+01 1.535205e+01 1.448833e+01 1.339182e+01 1.431128e+01 2.107233e-01 3.463813e-01 5.070868e-01 7.126290e-01 8.886099e-01 1.035784e+00 1.226873e+00 1.413393e+00 1.391238e+00 1.427857e+00 1.395335e+00 1.193061e+00 1.077037e-01 3.437964e-02 6.453138e-02 9.887528e-02 1.404946e-01 1.788161e-01 2.041579e-01 2.538648e-01 2.883060e-01 2.836210e-01 2.935723e-01 2.830798e-01 2.433842e-01 1.112952e-02
<GCONST> 7.493216e+01
<TRANSP> 5
 0.000000e+00 1.000000e+00 0.000000e+00 0.000000e+00 0.000000e+00
 0.000000e+00 8.037232e-01 1.962769e-01 0.000000e+00 0.000000e+00
 0.000000e+00 0.000000e+00 8.037232e-01 1.962769e-01 0.000000e+00
 0.000000e+00 0.000000e+00 0.000000e+00 9.359875e-01 6.401250e-02
 0.000000e+00 0.000000e+00 0.000000e+00 0.000000e+00 0.000000e+00
<ENDHMM>
~h "shi"
<BEGINHMM>
<NUMSTATES> 5
<STATE> 2
<MEAN> 39
 -1.148264e+01 -1.289425e+00 -9.323305e+00 -4.242148e-01 -7.337079e+00 -2.098609e+00 -8.833530e+00 -2.887737e+00 -4.536034e+00 -3.881323e+00 -3.197677e+00 -3.292963e+00 3.891742e+01 -7.938094e-02 4.481791e-02 -3.891358e-02 -2.739244e-03 -5.690594e-02 7.327810e-02 3.673720e-02 -3.593416e-02 -5.907795e-02 2.525342e-02 -1.823790e-03 -7.298340e-03 -1.595256e-01 2.260038e-03 -2.721449e-03 -3.010310e-04 5.039072e-04 7.845269e-04 -3.494650e-03 -2.889804e-03 9.190711e-04 2.579587e-03 -2.023581e-03 -5.362725e-05 -1.193829e-03 5.461873e-03
<VARIANCE> 39
