~o
<STREAMINFO> 1 39
<VECSIZE> 39<NULLD><MFCC_D_A_0><DIAGC>
~h "a"
<BEGINHMM>
<NUMSTATES> 5
<STATE> 2
<MEAN> 39
 -3.061770e+00 -1.717870e+01 -1.209297e+01 -1.861694e+01 -9.414402e-01 1.691948e+01 -1.556752e+01 -7.805305e+00 1.075700e+00 -8.335199e+00 -4.271117e+00 -5.232490e+00 8.366085e+01 5.080971e-01 -1.817680e-01 8.473020e-01 4.140652e-01 8.441079e-02 -2.571349e-01 -1.238007e+00 6.512528e-01 -7.173370e-01 1.313289e-01 7.740575e-01 -6.910374e-01 -5.881142e-01 1.131325e-01 1.562015e-02 2.491409e-01 1.136084e-01 -7.706562e-02 -2.915971e-01 -2.608389e-02 1.398607e-01 -1.131731e-01 1.268571e-01 6.540278e-02 -1.528921e-01 -1.675414e-01
<VARIANCE> 39
 3.058040e+01 1.225914e+01 4.288664e+01 1.776229e+01 1.521360e+01 3.922204e+01 1.236189e+02 9.555627e+01 3.315766e+01 2.059837e+01 6.951122e+01 5.663900e+01 2.602128e+01 1.413558e+00 7.810934e-01 2.601150e+00 1.741652e+00 1.634854e+00 3.528916e+00 3.447921e+00 7.520888e+00 2.526909e+00 1.824273e+00 2.312348e+00 3.604753e+00 1.051732e+00 2.182906e-01 1.721321e-01 2.677271e-01 3.097527e-01 2.771026e-01 3.960445e-01 5.787332e-01 1.074350e+00 4.568394e-01 2.824697e-01 4.349219e-01 4.977314e-01 1.325249e-01
<GCONST> 1.143335e+02
<STATE> 3
<MEAN> 39
 4.260550e+00 -1.780513e+01 7.220436e+00 -9.182178e+00 -8.731715e-01 4.586917e+00 -3.175418e+01 -1.000409e+00 -7.751200e+00 -8.035475e+00 7.264667e+00 -1.585541e+01 7.310126e+01 -2.315174e-01 5.055100e-01 -3.186325e-01 -1.510446e-02 -3.124950e-01 -1.011338e+00 2.869518e-01 6.999025e-01 1.470181e+00 -1.118394e+00 1.402468e-01 -4.375692e-01 2.641759e-01 -1.634911e-01 9.688693e-02 -4.565493e-01 -1.859032e-01 -3.889036e-02 1.332421e-01 2.010283e-01 1.646190e-01 4.500416e-01 -2.538785e-01 -2.138419e-01 1.439403e-01 2.123014e-01
<VARIANCE> 39
 4.616519e+00 9.384509e+00 8.490521e+01 3.469035e+01 2.137176e+01 3.164777e+01 3.266397e+01 3.678308e+01 1.145275e+02 7.794815e+01 2.780716e+01 1.370938e+01 1.842582e+01 8.312381e-01 9.895279e-01 1.335966e+01 5.064266e+00 2.821769e+00 3.018865e+00 2.337958e+00 5.987609e+00 1.742434e+01 1.033641e+01 1.938818e+00 1.584871e+00 2.916445e+00 7.338949e-02 1.871762e-01 1.263417e+00 7.078330e-01 5.425370e-01 3.604280e-01 3.545658e-01 9.857284e-01 2.060553e+00 1.422776e+00 5.326787e-01 4.389544e-01 2.591996e-01
<GCONST> 1.223724e+02
<STATE> 4
<MEAN> 39
 3.711863e-01 -1.313087e+01 -4.409923e+00 -1.285562e+01 -5.480680e+00 2.133091e+00 -1.473489e+01 3.146874e+00 9.531629e-02 -6.092300e+00 -1.491835e+00 -1.265829e+01 7.301779e+01 -3.346525e-01 7.216980e-01 -2.337175e-01 1.014869e+00 1.994640e-01 -1.865386e-01 7.357345e-01 -8.255586e-01 5.153798e-01 -2.595380e-01 -5.622037e-01 5.887148e-01 -1.559422e+00 -2.224095e-01 -1.629585e-01 -3.143074e-02 1.629128e-01 1.749353e-01 3.650201e-01 8.654709e-02 -4.894412e-01 -2.722254e-01 4.423732e-02 -1.081890e-01 1.687816e-01 -2.124758e-01
<VARIANCE> 39
 7.212810e+01 2.934609e+01 2.485953e+01 2.676536e+01 4.824035e+01 6.625988e+01 1.027618e+02 7.895738e+01 7.136407e+01 1.320646e+02 5.127333e+01 4.568053e+01 5.163153e+01 4.834330e+00 2.596416e+00 2.637750e+00 3.024065e+00 2.864599e+00 8.766324e+00 4.736362e+00 7.261184e+00 2.481330e+00 3.660833e+00 3.361016e+00 3.671819e+00 5.917151e+00 7.313211e-01 4.761822e-01 9.268994e-01 5.836020e-01 6.249025e-01 1.420627e+00 8.783519e-01 1.441265e+00 1.098313e+00 1.119175e+00 4.863414e-01 7.845474e-01 4.905106e-01
<GCONST> 1.386032e+02
<TRANSP> 5
 0.000000e+00 1.000000e+00 0.000000e+00 0.000000e+00 0.000000e+00
 0.000000e+00 9.214705e-01 7.852949e-02 0.000000e+00 0.000000e+00
 0.000000e+00 0.000000e+00 8.620929e-01 1.379071e-01 0.000000e+00
 0.000000e+00 0.000000e+00 0.000000e+00 7.477429e-01 2.522571e-01
 0.000000e+00 0.000000e+00 0.000000e+00 0.000000e+00 0.000000e+00
<ENDHMM>
~h "b"
<BEGINHMM>
<NUMSTATES> 5
<STATE> 2
<MEAN> 39
 2.821587e+00 -8.369305e+00 3.223497e+00 -4.424303e-01 -9.337653e+00 -4.850408e+00 -1.616758e+01 -5.093034e+00 -2.037958e+00 -1.301131e+01 -1.336626e+00 -1.602510e+01 6.558266e+01 -1.004630e-01 2.447552e-01 8.053628e-01 -7.608680e-02 -3.673201e-01 -1.455814e-01 7.903839e-01 -6.092325e-01 -1.143578e+00 8.083545e-01 2.711294e-01 5.836183e-01 4.072669e-01 -1.686652e-01 2.257747e-02 3.166244e-02 -2.766467e-01 -1.763243e-01 1.052655e-01 -2.174791e-02 -1.772547e-01 1.059816e-01 -1.616348e-01 8.055274e-02 9.774442e-02 3.213045e-01
<VARIANCE> 39
 2.740403e+01 2.825736e+01 4.352769e+01 4.451905e+01 3.226712e+01 2.716440e+01 5.840947e+01 1.834237e+01 8.436385e+01 5.345467e+01 5.051293e+01 5.199574e+01 1.228853e+02 2.736245e+00 2.471507e+00 7.221907e+00 6.622854e+00 6.984110e+00 4.898601e+00 3.101742e+00 3.619251e+00 9.863650e+00 4.809533e+00 8.294989e+00 3.510116e+00 2.002215e+01 2.599658e-01 4.263728e-01 1.169012e+00 6.147819e-01 1.111507e+00 7.713288e-01 8.199127e-01 5.848009e-01 1.318503e+00 1.126552e+00 1.446818e+00 5.966110e-01 2.493778e+00
<GCONST> 1.404507e+02
<STATE> 3
<MEAN> 39
 -5.830061e+00 -5.670944e+00 1.277821e+01 -1.239291e+01 -2.042024e+01 -5.336409e+00 -1.228018e+01 -1.684404e+01 -3.375686e+00 -1.512129e+01 1.072103e+01 -7.621889e+00 7.891087e+01 -1.067466e+00 1.051603e+00 1.881914e+00 -1.207526e+00 -1.064381e+00 4.737946e-01 -1.007792e+00 -1.817182e+00 -1.708368e-01 -1.483021e+00 8.200116e-01 -2.362370e-01 2.113172e-01 -1.290856e-01 2.352021e-01 -9.606030e-01 6.889037e-01 1.274063e+00 1.749255e-01 4.175916e-01 8.059326e-01 -7.613562e-02 4.680344e-01 -1.182624e+00 -9.667512e-03 -9.558315e-01
<VARIANCE> 39
 1.301872e+01 1.718886e+01 9.925824e+01 2.072915e+01 3.846765e+01 7.089903e+01 2.394027e+01 1.733624e+01 2.257052e+01 2.737206e+01 3.027962e+01 1.815422e+01 5.503759e+00 1.104351e+00 2.111411e+00 7.076404e+00 2.126404e+00 6.763107e+00 3.881795e+00 5.347847e+00 3.625840e+00 1.724113e+00 2.793996e+00 4.562086e+00 1.824708e+00 7.056321e+00 2.720477e-01 3.006619e-01 5.230056e-01 3.228613e-01 7.705721e-01 5.279769e-01 7.792122e-01 3.287485e-01 3.576033e-01 3.335871e-01 4.259000e-01 5.750489e-01 1.888355e+00
<GCONST> 1.190924e+02
<STATE> 4
<MEAN> 39
 -8.783663e+00 -1.662678e+00 1.712815e+01 -1.084229e+01 -1.938072e+01 -3.515525e+00 -1.113797e+01 -1.630598e+01 -6.122208e+00 -1.609889e+01 7.723553e+00 -1.054965e+01 7.633914e+01 4.128310e-02 -1.300207e-01 -3.394123e-01 4.555615e-01 4.199188e-01 -3.397549e-02 6.848660e-01 7.529618e-01 -3.397587e-01 4.941683e-01 -6.035784e-01 2.348917e-01 -5.619412e-01 -8.140863e-02 -2.669216e-02 -1.827555e-01 1.334399e-01 1.553252e-01 -7.944323e-02 8.163740e-02 1.825035e-01 5.055784e-02 6.032497e-02 -1.095210e-01 1.791200e-01 -1.766740e-01
<VARIANCE> 39
 1.026517e+01 1.510802e+01 3.414622e+01 1.237267e+01 1.417356e+01 2.343392e+01 1.861902e+01 1.444695e+01 1.275979e+01 1.790579e+01 1.262157e+01 1.013079e+01 9.475139e+00 1.036545e+00 9.182068e-01 1.579529e+00 9.884480e-01 2.328999e+00 1.708597e+00 1.566167e+00 1.943973e+00 8.457991e-01 1.191734e+00 1.286356e+00 2.037862e+00 7.668338e-01 3.096166e-01 1.647433e-01 1.901961e-01 1.827108e-01 3.713275e-01 2.933407e-01 2.342482e-01 2.652183e-01 2.188657e-01 2.207109e-01 2.244309e-01 2.615333e-01 1.460904e-01
<GCONST> 9.117524e+01
<TRANSP> 5
 0.000000e+00 1.000000e+00 0.000000e+00 0.000000e+00 0.000000e+00
 0.000000e+00 9.241550e-01 7.584498e-02 0.000000e+00 0.000000e+00
 0.000000e+00 0.000000e+00 6.653707e-01 3.346293e-01 0.000000e+00
 0.000000e+00 0.000000e+00 0.000000e+00 9.167404e-01 8.325958e-02
 0.000000e+00 0.000000e+00 0.000000e+00 0.000000e+00 0.000000e+00
<ENDHMM>
~h "d"
<BEGINHMM>
<NUMSTATES> 5
<STATE> 2
<MEAN> 39
 -8.372533e+00 -3.410456e+00 -6.796784e+00 -5.880428e+00 -8.338862e+00 -4.166815e+00 -6.129485e+00 -3.179971e+00 -1.266550e+00 -3.291322e+00 -4.431993e+00 -5.433847e+00 5.471410e+01 -4.278928e-01 -1.681230e-01 -5.242637e-01 -5.788610e-01 9.332646e-01 5.335206e-01 6.631420e-01 -4.468036e-01 -3.673496e-01 6.683309e-01 -1.836066e-01 1.144886e-01 6.321004e-01 -2.099570e-02 -5.802505e-02 2.261905e-01 -1.552578e-01 -6.321070e-02 -1.612550e-01 -2.251247e-02 2.349988e-04 -9.720108e-03 -1.482112e-01 2.642371e-01 1.369674e-01 6.397384e-01
<VARIANCE> 39
 4.019130e+01 7.316731e+01 5.353116e+01 9.805563e+01 3.935759e+01 5.055180e+01 4.108325e+01 2.936448e+01 5.900919e+01 3.488478e+01 2.638973e+01 2.819333e+01 3.980130e+02 4.873853e+00 4.736698e+00 4.405347e+00 3.928628e+00 5.281622e+00 8.134044e+00 4.573034e+00 3.796756e+00 3.347141e+00 3.054358e+00 2.373113e+00 2.084943e+00 5.979321e+00 8.731435e-01 9.267237e-01 9.094307e-01 8.021766e-01 1.104468e+00 1.131491e+00 9.331971e-01 6.531938e-01 7.842095e-01 5.814916e-01 6.556977e-01 3.873603e-01 2.024760e+00
<GCONST> 1.392161e+02
<STATE> 3
<MEAN> 39
 -7.343393e+00 -8.218874e+00 -8.969264e+00 -1.779224e+01 -6.179207e+00 5.668936e-01 -6.623753e+00 -5.276743e+00 1.832157e+00 -2.088692e+00 -2.319020e+00 -6.939241e+00 7.694454e+01 8.298015e-01 -2.709268e-01 -3.926310e-02 -1.457810e+00 -4.371417e-02 9.022470e-01 -6.986716e-01 2.906239e-01 4.862465e-01 -4.493135e-01 9.223958e-01 -2.021316e-01 2.381788e+00 3.210903e-01 -3.385631e-02 4.669064e-02 2.697118e-02 -2.593106e-01 3.493519e-01 -4.193362e-01 1.372130e-01 1.298373e-01 -3.003908e-01 1.203930e-01 -2.152609e-01 -2.696415e-01
<VARIANCE> 39
 3.508424e+01 2.521249e+01 2.999960e+01 7.378658e+01 2.948775e+01 9.563147e+01 1.212025e+02 2.110183e+01 7.518436e+01 2.324860e+01 3.180039e+01 3.304675e+01 2.635802e+02 3.728790e+00 2.073987e+00 2.357306e+00 3.153837e+00 3.996931e+00 7.069057e+00 7.185652e+00 2.783731e+00 7.853201e+00 3.721073e+00 2.634299e+00 3.774547e+00 1.944948e+01 7.367492e-01 2.842328e-01 4.320613e-01 4.885336e-01 9.253380e-01 1.312911e+00 1.241257e+00 5.545644e-01 1.112467e+00 5.407529e-01 4.519511e-01 7.815878e-01 1.805376e+00
<GCONST> 1.367266e+02
<STATE> 4
<MEAN> 39
 4.951284e-01 -8.359121e+00 -9.207991e+00 -2.183781e+01 -8.750441e+00 1.318891e+01 -1.811108e+01 -2.463254e+00 3.448276e+00 -1.261554e+01 8.453381e+00 -1.058620e+01 7.749362e+01 4.903471e-01 1.654224e-01 -9.312497e-02 4.104166e-01 1.169302e-02 6.145753e-01 -4.143266e-01 8.966974e-02 -1.999716e-02 -1.066107e+00 6.182512e-01 -2.182190e-01 -3.364357e-01 -2.801689e-01 8.372815e-02 -3.550833e-02 2.772247e-01 1.266942e-01 -2.826521e-01 3.778485e-01 -1.835390e-01 -1.432369e-01 1.603034e-01 -1.703988e-01 1.226019e-01 -2.146707e-01
<VARIANCE> 39
 2.515676e+01 1.889552e+01 1.669373e+01 4.164136e+01 1.864100e+01 8.771770e+01 6.790245e+01 2.123444e+01 4.186496e+01 1.059523e+02 1.134785e+02 1.883675e+01 7.023776e+01 2.703080e+00 1.556402e+00 1.928720e+00 3.349302e+00 2.111457e+00 7.558142e+00 4.708999e+00 1.912737e+00 2.337650e+00 4.682378e+00 3.593883e+00 1.911489e+00 5.923878e+00 5.284570e-01 2.219000e-01 2.695054e-01 3.809257e-01 3.758869e-01 9.711547e-01 7.062207e-01 4.261368e-01 4.561899e-01 6.213384e-01 3.250722e-01 3.749576e-01 7.067798e-01
<GCONST> 1.234042e+02
<TRANSP> 5
 0.000000e+00 1.000000e+00 0.000000e+00 0.000000e+00 0.000000e+00
 0.000000e+00 7.881175e-01 2.118826e-01 0.000000e+00 0.000000e+00
 0.000000e+00 0.000000e+00 8.528309e-01 1.471691e-01 0.000000e+00
 0.000000e+00 0.000000e+00 0.000000e+00 8.871518e-01 1.128481e-01
 0.000000e+00 0.000000e+00 0.000000e+00 0.000000e+00 0.000000e+00
<ENDHMM>
~h "f"
<BEGINHMM>
<NUMSTATES> 5
<STATE> 2
<MEAN> 39
 -5.474207e+00 -1.000509e+01 -5.088065e+00 -8.838123e+00 -5.658172e+00 -1.304673e+00 -9.152554e+00 -5.507204e+00 -3.967141e-01 -9.169578e+00 9.162152e-02 -5.228200e+00 7.010362e+01 2.355439e+00 -5.114623e-01 -3.928789e-01 -2.004873e+00 -5.437968e-01 2.060490e+00 -1.158780e+00 -1.123924e-01 1.892933e-01 1.300269e-01 7.946513e-01 -6.425407e-01 1.987450e+00 -3.548540e-02 9.336814e-03 2.278194e-02 -1.320781e-02 -2.006418e-01 2.629564e-01 -6.008327e-02 -1.166684e-01 -1.324870e-01 -2.466884e-02 -6.318910e-02 -1.913986e-02 3.621486e-02
<VARIANCE> 39
 1.533673e+02 2.711101e+01 3.771124e+01 1.178706e+02 4.442110e+01 7.802857e+01 9.152039e+01 3.053050e+01 3.354847e+01 5.882903e+01 5.417345e+01 3.761151e+01 6.815953e+01 1.319799e+01 2.748555e+00 2.801183e+00 7.604469e+00 4.409478e+00 8.573545e+00 5.118987e+00 4.083450e+00 3.666394e+00 5.081134e+00 6.321098e+00 3.676361e+00 5.792659e+00 2.708678e+00 4.952078e-01 4.967461e-01 1.859761e+00 8.143168e-01 1.410375e+00 1.067843e+00 7.136100e-01 5.469217e-01 8.678557e-01 1.066668e+00 7.379960e-01 1.020326e+00
<GCONST> 1.441908e+02
<STATE> 3
<MEAN> 39
 4.030200e+00 -1.060604e+01 -6.359784e+00 -1.961778e+01 -1.396270e+01 1.271269e+01 -1.419244e+01 -7.668122e+00 -3.160479e+00 -7.175670e+00 5.953711e+00 -7.690208e+00 7.744835e+01 3.222273e-02 7.023205e-02 4.193593e-01 8.192955e-01 -1.120641e+00 1.302022e+00 6.924545e-01 -9.631521e-01 2.792561e-01 -4.063028e-01 -1.585680e+00 9.279649e-01 -5.204563e-01 -2.223020e-01 6.619726e-02 2.168536e-01 5.774673e-01 2.391350e-01 -7.146193e-01 1.113846e-01 1.451482e-02 3.295216e-01 -2.737007e-01 -3.153718e-01 3.299533e-01 -4.139396e-01
<VARIANCE> 39
 1.911986e+01 3.153710e+01 2.166322e+01 6.616794e+01 4.233670e+01 4.755566e+01 4.999749e+01 4.710052e+01 5.373256e+01 5.546555e+01 8.421998e+01 4.569431e+01 3.175724e+01 1.168491e+00 1.229095e+00 2.483933e+00 1.032469e+01 2.553790e+00 5.650311e+00 3.125306e+00 5.147631e+00 3.689339e+00 8.150927e+00 3.090519e+00 3.304682e+00 1.438787e+00 3.452411e-01 2.208456e-01 3.249726e-01 1.050471e+00 3.205501e-01 5.389222e-01 7.943887e-01 9.471290e-01 5.926186e-01 1.312141e+00 1.123417e+00 7.309833e-01 2.983319e-01
<GCONST> 1.282298e+02
<STATE> 4
<MEAN> 39
 4.019778e+00 -1.516420e+01 -5.703160e+00 -1.739663e+01 -1.176760e+01 1.717237e+01 -1.667300e+01 -7.411787e+00 1.010438e+00 -1.152447e+01 1.095514e+00 -7.869283e+00 7.651959e+01 -7.684954e-02 4.911177e-02 1.002653e-01 7.103035e-01 1.614710e-01 -5.531162e-03 -4.565862e-01 1.832455e-01 1.884646e-01 -5.310302e-01 -3.318952e-01 2.621110e-01 -2.572936e-01 -5.809335e-03 9.141251e-02 -8.261007e-02 2.039840e-02 9.288996e-02 -2.604316e-01 -2.611834e-02 2.072746e-01 -1.458356e-01 1.256908e-01 1.657094e-01 -1.446450e-01 -4.288504e-02
<VARIANCE> 39
 2.761147e+01 5.098648e+01 4.881438e+01 9.836967e+01 7.039633e+01 1.037780e+02 6.065715e+01 6.346538e+01 4.378555e+01 5.776349e+01 4.771021e+01 4.511352e+01 4.592176e+01 5.809498e-01 7.732211e-01 1.004512e+00 1.145263e+00 1.221799e+00 1.736034e+00 1.573428e+00 2.505847e+00 1.535521e+00 2.677734e+00 2.297319e+00 1.820830e+00 6.905841e-01 9.915944e-02 9.839781e-02 2.042993e-01 2.208430e-01 1.702967e-01 2.358761e-01 1.973661e-01 2.100952e-01 2.048813e-01 2.970578e-01 4.000359e-01 2.491283e-01 9.904511e-02
<GCONST> 1.062880e+02
<TRANSP> 5
 0.000000e+00 1.000000e+00 0.000000e+00 0.000000e+00 0.000000e+00
 0.000000e+00 8.602569e-01 1.397431e-01 0.000000e+00 0.000000e+00
 0.000000e+00 0.000000e+00 6.394807e-01 3.605193e-01 0.000000e+00
 0.000000e+00 0.000000e+00 0.000000e+00 6.829771e-01 3.170229e-01
 0.000000e+00 0.000000e+00 0.000000e+00 0.000000e+00 0.000000e+00
<ENDHMM>
~h "g"
<BEGINHMM>
<NUMSTATES> 5
<STATE> 2
<MEAN> 39
 -1.399672e+01 -3.686892e+00 -1.204047e+01 -3.587473e+00 -9.600036e+00 -3.082658e+00 -7.952151e+00 -3.992701e+00 -6.804633e+00 -4.272197e+00 -4.367682e+00 -4.549578e+00 3.750712e+01 -7.677823e-02 -2.457454e-02 -1.606531e-05 1.465298e-01 4.676179e-02 1.021171e-01 -1.030290e-01 -3.052002e-02 -2.250558e-02 -2.136180e-01 1.443438e-01 -1.077401e-01 1.903518e-02 7.678323e-02 1.847573e-01 1.526277e-01 5.997325e-02 1.602552e-01 1.082919e-01 -2.461962e-02 1.104405e-01 3.178684e-01 5.969110e-02 2.229439e-01 1.418086e-01 1.375941e-01
<VARIANCE> 39
 2.897825e+00 7.627769e+00 9.239412e+00 9.012516e+00 6.376059e+00 9.099646e+00 1.143796e+01 1.184364e+01 1.994360e+01 1.411826e+01 1.954064e+01 1.465372e+01 3.809659e+00 2.405642e-01 2.730744e-01 6.129977e-01 7.409950e-01 1.044641e+00 1.318438e+00 2.276070e+00 2.910909e+00 2.137151e+00 1.454606e+00 2.974016e+00 1.506063e+00 1.198726e-01 9.917631e-02 1.554304e-01 1.612906e-01 1.868419e-01 1.881622e-01 2.485391e-01 4.057537e-01 2.758341e-01 4.656935e-01 2.387207e-01 3.068504e-01 2.996765e-01 4.542044e-02
<GCONST> 7.940910e+01
<STATE> 3
<MEAN> 39
 -1.399331e+01 -2.923216e+00 -1.134388e+01 -3.108067e+00 -9.224906e+00 -2.090585e+00 -8.028505e+00 -3.931881e+00 -5.415729e+00 -5.312510e+00 -3.950933e+00 -3.803447e+00 3.764682e+01 2.009475e-02 2.456924e-01 1.083192e-01 1.409722e-01 3.293599e-01 2.107171e-01 1.062668e-02 1.561513e-01 1.986785e-01 -4.899529e-02 3.682370e-01 4.753574e-02 1.650946e-01 3.071691e-01 2.586830e-01 -1.428332e-02 -1.949972e-01 2.610154e-01 -2.335931e-02 1.537613e-01 1.634518e-01 -3.721997e-02 2.937596e-01 1.888758e-02 9.407332e-02 2.978904e-01
<VARIANCE> 39
 6.946016e+00 9.656046e+00 9.691686e+00 9.081564e+00 9.953370e+00 1.194412e+01 1.439067e+01 2.571709e+01 3.236190e+01 1.316029e+01 2.241431e+01 1.247416e+01 5.540802e+00 1.034493e+00 1.139706e+00 1.269153e+00 1.106723e+00 1.330187e+00 1.977951e+00 2.261200e+00 2.760617e+00 3.932425e+00 1.664989e+00 2.111517e+00 1.513735e+00 4.658736e-01 3.299725e-01 3.456405e-01 3.479612e-01 4.801970e-01 3.986709e-01 3.448263e-01 5.479650e-01 5.754222e-01 9.144637e-01 3.430105e-01 4.484666e-01 3.510613e-01 1.987709e-01
<GCONST> 9.830987e+01
<STATE> 4
<MEAN> 39
 -1.275694e+01 -5.529952e+00 -1.193004e+01 -4.170451e+00 -7.028318e+00 -1.211580e+00 -9.324125e+00 -1.786517e+00 -4.028975e+00 -4.414696e+00 -1.582292e+00 -3.659583e+00 4.084267e+01 9.916141e-02 2.881480e-01 2.542775e-01 2.190993e-01 7.615957e-02 -7.932794e-02 -1.060065e-01 -4.382525e-02 2.189935e-01 2.670980e-01 -5.491537e-02 1.424795e-01 -9.849386e-03 2.991106e-01 1.388225e-01 -1.164973e-01 -3.524986e-01 1.882935e-01 -6.607819e-02 1.893794e-01 1.316811e-01 -1.513984e-01 2.093574e-01 -1.819787e-01 8.478982e-03 3.117793e-01
<VARIANCE> 39
 1.148681e+01 5.042510e+01 2.583792e+01 2.130934e+01 1.806829e+01 3.051151e+01 3.421962e+01 5.011416e+01 4.017572e+01 2.593328e+01 3.939157e+01 1.262495e+01 2.362218e+01 1.260731e+00 1.851364e+00 2.291417e+00 1.617412e+00 2.393103e+00 3.438325e+00 2.424808e+00 2.442216e+00 2.245787e+00 1.817649e+00 2.853168e+00 1.482350e+00 8.749520e-01 4.880858e-01 4.105649e-01 6.602746e-01 8.544075e-01 7.220201e-01 6.919785e-01 6.664316e-01 6.810943e-01 5.921229e-01 6.210068e-01 5.752797e-01 2.976035e-01 5.745305e-01
<GCONST> 1.162051e+02
<TRANSP> 5
 0.000000e+00 1.000000e+00 0.000000e+00 0.000000e+00 0.000000e+00
 0.000000e+00 2.459256e-01 7.540744e-01 0.000000e+00 0.000000e+00
 0.000000e+00 0.000000e+00 4.069930e-01 5.930070e-01 0.000000e+00
 0.000000e+00 0.000000e+00 0.000000e+00 6.893146e-01 3.106854e-01
 0.000000e+00 0.000000e+00 0.000000e+00 0.000000e+00 0.000000e+00
<ENDHMM>
~h "i"
<BEGINHMM>
<NUMSTATES> 5
<STATE> 2
<MEAN> 39
 -1.776742e+00 -9.058022e+00 -6.493183e+00 -1.069184e+01 -6.194752e+00 3.576072e+00 -6.901451e+00 -3.289313e-01 -7.195895e-01 -9.064941e+00 -1.747688e+00 -6.747997e+00 6.429144e+01 -1.484000e+00 4.686459e-01 -9.364150e-01 9.014686e-01 1.304834e+00 1.987539e-01 1.046960e+00 -5.538359e-01 -2.007894e-02 4.206456e-01 -1.180639e+00 5.470387e-01 -2.028737e+00 -1.045001e-01 -2.334450e-01 -7.132715e-02 -2.101723e-01 -4.339495e-01 1.006449e-01 -5.753635e-01 -3.150389e-01 -1.533593e-01 -8.868603e-02 3.269033e-01 -2.220445e-01 7.584894e-02
<VARIANCE> 39
 5.429484e+01 5.452463e+01 1.104593e+02 1.496036e+02 5.789972e+01 1.826714e+02 6.430024e+01 7.147304e+01 4.803443e+01 3.424155e+01 3.503288e+01 4.581332e+01 1.297640e+02 5.043565e+00 2.153160e+00 3.416660e+00 4.990273e+00 3.269140e+00 7.472907e+00 6.211615e+00 3.901879e+00 2.780513e+00 3.330711e+00 4.784549e+00 3.297823e+00 2.801156e+00 4.429297e-01 4.321361e-01 4.645303e-01 9.162117e-01 4.873904e-01 1.082403e+00 1.062391e+00 7.298393e-01 4.535776e-01 6.098576e-01 6.849034e-01 5.900597e-01 4.211942e-01
<GCONST> 1.378963e+02
<STATE> 3
<MEAN> 39
 -5.869366e+00 -7.081507e+00 -7.577128e+00 -6.374593e+00 -4.457331e+00 2.515767e+00 -6.310849e+00 -2.274077e+00 -2.352804e+00 -8.492058e+00 -2.664893e+00 -4.943054e+00 5.831355e+01 -1.521012e+00 -2.313415e-01 -1.210515e+00 5.415630e-01 -3.015101e-02 -2.065821e-01 -1.867601e-01 -1.138126e+00 -5.420548e-01 4.374624e-01 -8.182247e-01 1.554540e-02 -1.706841e+00 1.891217e-01 -3.078025e-01 -3.045358e-02 -4.639944e-01 -4.554637e-01 -2.129339e-01 -3.526493e-01 -2.985770e-02 -1.028718e-01 -9.781541e-03 3.262536e-01 -2.151493e-01 2.676221e-01
<VARIANCE> 39
 8.155497e+01 3.632264e+01 1.139428e+02 9.799152e+01 5.262274e+01 1.532301e+02 5.874261e+01 5.324635e+01 3.844298e+01 2.112728e+01 2.453200e+01 3.059100e+01 9.468568e+01 2.547683e+00 1.417249e+00 2.024324e+00 4.316308e+00 2.305784e+00 3.440227e+00 3.778435e+00 2.611889e+00 1.924042e+00 2.708018e+00 2.151673e+00 2.033299e+00 1.158783e+00 3.861035e-01 3.361066e-01 4.553064e-01 6.650834e-01 6.591945e-01 8.432366e-01 9.258720e-01 5.345110e-01 4.221503e-01 4.162236e-01 4.733677e-01 4.367645e-01 3.083261e-01
<GCONST> 1.259725e+02
<STATE> 4
<MEAN> 39
 -1.178313e+01 -7.043406e+00 -4.361858e+00 -4.294535e+00 -6.608017e+00 -1.948660e+00 -7.375362e+00 -5.757990e+00 -5.550813e+00 -8.028596e+00 -3.952895e+00 -5.187716e+00 5.653562e+01 -1.073246e+00 -6.062304e-01 -1.196077e+00 -1.523527e-01 2.168803e-01 -4.200306e-01 4.427524e-02 -3.134363e-01 -7.212602e-02 4.226691e-01 -3.403826e-01 1.734153e-02 -9.947623e-01 2.768535e-01 -6.152996e-02 6.855536e-02 -2.020028e-01 4.048204e-02 -3.933058e-02 9.072903e-02 2.835076e-01 2.083945e-01 4.069125e-02 1.908423e-01 5.543835e-03 3.772120e-01
<VARIANCE> 39
 1.331868e+02 2.755826e+01 9.125375e+01 5.010302e+01 4.126520e+01 1.186727e+02 4.568159e+01 3.380004e+01 2.783197e+01 2.070189e+01 2.001605e+01 2.508405e+01 6.867287e+01 1.089442e+00 2.010306e+00 2.243320e+00 2.306258e+00 2.668151e+00 2.869150e+00 2.750682e+00 2.676014e+00 1.926996e+00 1.922007e+00 2.020276e+00 1.586292e+00 1.164575e+00 4.713804e-01 2.727318e-01 3.058833e-01 3.516722e-01 5.224311e-01 5.116441e-01 6.062610e-01 3.513088e-01 3.472733e-01 4.098020e-01 4.324645e-01 3.603483e-01 1.701526e-01
<GCONST> 1.173149e+02
<TRANSP> 5
 0.000000e+00 1.000000e+00 0.000000e+00 0.000000e+00 0.000000e+00
 0.000000e+00 6.395921e-01 3.604079e-01 0.000000e+00 0.000000e+00
 0.000000e+00 0.000000e+00 3.114584e-01 6.885416e-01 0.000000e+00
 0.000000e+00 0.000000e+00 0.000000e+00 6.100477e-01 3.899522e-01
 0.000000e+00 0.000000e+00 0.000000e+00 0.000000e+00 0.000000e+00
<ENDHMM>
~h "j"
<BEGINHMM>
<NUMSTATES> 5
<STATE> 2
<MEAN> 39
 -1.168351e+00 -3.267277e+00 -7.225360e-01 -1.556074e+01 -1.202941e+01 -8.733406e-01 -8.221711e+00 -9.066765e+00 -2.713296e+00 -1.083402e+01 7.703672e+00 -9.663477e+00 7.281972e+01 3.038140e-01 -3.369576e-02 -1.565839e-01 2.792313e-01 -2.204053e-01 -5.439569e-02 -5.540922e-03 4.201016e-02 5.326260e-02 -1.423068e-01 7.168382e-02 -5.733679e-02 3.177009e-01 -3.109547e-02 -3.960134e-02 -8.156523e-02 6.313024e-02 2.766318e-02 1.228134e-02 2.609366e-02 4.280740e-02 -1.453906e-02 1.820664e-02 -1.048633e-01 -6.511196e-03 -1.281276e-01
<VARIANCE> 39
 1.320361e+02 3.707420e+01 1.873964e+01 1.382973e+02 5.942510e+01 5.465795e+01 5.014428e+01 5.139844e+01 3.762180e+01 3.393403e+01 8.035590e+01 5.443789e+01 3.978037e+01 8.622555e+00 1.697347e+00 1.888987e+00 1.119009e+01 3.959766e+00 4.960958e+00 7.145660e+00 5.910441e+00 4.987794e+00 4.135965e+00 9.735931e+00 7.573624e+00 4.414562e+00 1.033358e+00 1.900603e-01 3.347194e-01 1.484639e+00 6.254917e-01 8.011216e-01 1.612524e+00 9.132720e-01 9.514505e-01 7.976953e-01 1.795027e+00 1.514526e+00 4.145781e-01
<GCONST> 1.416732e+02
<STATE> 3
<MEAN> 39
 -8.126399e+00 -1.036377e+01 -6.592918e+00 -8.440865e+00 -1.036831e+01 -2.431358e-01 -1.131376e+01 -3.172817e+00 -5.553498e-01 -6.336007e+00 4.669415e-01 -8.982523e+00 7.367625e+01 9.941769e-01 -8.053372e-01 -1.063096e-01 -6.508782e-01 -3.056396e-01 9.277724e-01 -1.315288e+00 2.523310e-01 1.112050e+00 -1.193906e-02 -8.885010e-02 -8.789543e-01 1.079306e+00 2.440960e-01 1.069704e-01 1.010320e-01 9.200279e-02 -3.872181e-02 1.295866e-01 -7.880097e-02 7.876456e-04 -1.028477e-02 -1.643026e-01 6.490850e-02 3.363724e-02 -3.345179e-02
<VARIANCE> 39
 7.164369e+01 3.646971e+01 2.541848e+01 2.400777e+01 6.202141e+01 3.881357e+01 6.288904e+01 3.930876e+01 3.828654e+01 2.690256e+01 3.558111e+01 4.085382e+01 7.093999e+01 5.941073e+00 1.242722e+00 2.250217e+00 3.635587e+00 4.913378e+00 6.119678e+00 6.060479e+00 1.886351e+00 3.324491e+00 2.540478e+00 5.329290e+00 3.813278e+00 2.206065e+00 1.137981e+00 2.401822e-01 3.945758e-01 7.792081e-01 6.227021e-01 1.079740e+00 1.131435e+00 3.653097e-01 7.602702e-01 4.171935e-01 1.029362e+00 9.061376e-01 3.728651e-01
<GCONST> 1.299553e+02
<STATE> 4
<MEAN> 39
 3.550938e+00 -9.143025e+00 9.000705e-01 -4.292579e-01 -1.384221e+01 -1.379351e+00 -1.701710e+01 -7.324139e+00 4.934879e-01 -1.322617e+01 -3.667755e-01 -2.299752e+00 7.330369e+01 1.590554e-01 1.305039e-01 2.814684e-02 -4.174036e-01 -1.657304e-02 2.443991e-01 4.354872e-03 -1.764329e-01 -2.551027e-01 -5.392009e-02 5.396710e-01 2.178568e-01 -8.521094e-02 4.679677e-02 1.992846e-02 -2.859198e-02 -1.871940e-01 -2.199560e-02 1.833512e-01 9.817518e-03 -8.412319e-02 -1.191536e-02 8.332610e-02 7.215240e-02 -3.473904e-02 -2.233496e-02
<VARIANCE> 39
 1.850715e+01 2.512084e+01 3.095938e+01 1.186646e+02 6.542092e+01 4.429955e+01 5.729467e+01 6.368257e+01 4.687083e+01 6.211727e+01 7.377654e+01 5.798215e+01 7.204239e+01 1.963725e+00 1.597574e+00 2.395695e+00 4.890754e+00 7.071543e+00 5.476491e+00 6.054475e+00 5.450953e+00 4.378036e+00 6.405885e+00 6.770875e+00 4.378180e+00 4.521128e+00 3.505648e-01 2.479959e-01 3.341626e-01 3.449222e-01 1.337440e+00 7.425035e-01 8.892694e-01 8.064742e-01 7.462885e-01 7.847185e-01 1.053954e+00 5.834871e-01 5.620967e-01
<GCONST> 1.352663e+02
<TRANSP> 5
 0.000000e+00 1.000000e+00 0.000000e+00 0.000000e+00 0.000000e+00
 0.000000e+00 9.644753e-01 3.552475e-02 0.000000e+00 0.000000e+00
 0.000000e+00 0.000000e+00 9.017464e-01 9.825365e-02 0.000000e+00
 0.000000e+00 0.000000e+00 0.000000e+00 9.503717e-01 4.962828e-02
 0.000000e+00 0.000000e+00 0.000000e+00 0.000000e+00 0.000000e+00
<ENDHMM>
~h "k"
<BEGINHMM>
<NUMSTATES> 5
<STATE> 2
<MEAN> 39
 -1.117986e+01 -5.300574e+00 -1.044829e+01 -3.871110e+00 -6.057695e+00 3.569683e-02 -9.498895e+00 -4.003502e+00 -4.500652e+00 -2.945106e+00 -5.847610e+00 -5.447312e+00 4.130353e+01 -4.678757e-01 -1.657676e-01 -5.636346e-01 -7.616676e-02 -2.246926e-01 7.092164e-01 -8.228246e-03 -4.424398e-01 1.681249e-01 -1.674043e-01 2.940628e-02 -4.014702e-01 -6.201957e-01 4.223351e-02 -3.856514e-01 4.462583e-02 -9.979168e-02 3.936594e-01 -9.410951e-01 2.616987e-01 3.971467e-01 3.595036e-03 2.380539e-01 -5.861668e-02 2.174551e-01 8.058641e-01
<VARIANCE> 39
 3.318761e+01 3.328126e+01 1.194567e+01 1.884545e+01 2.646392e+01 6.506806e+01 1.446060e+01 1.853454e+01 1.943997e+01 2.106889e+01 2.066518e+01 3.747868e+01 5.575114e+01 1.458214e+00 9.699742e-01 2.250150e+00 1.663321e+00 2.165520e+00 3.685490e+00 1.438844e+00 1.832596e+00 1.711093e+00 3.003644e+00 1.463540e+00 1.745602e+00 1.619380e+00 2.242410e-01 3.660117e-01 3.016140e-01 4.207020e-01 8.123279e-01 1.774381e+00 4.179521e-01 5.185373e-01 4.820012e-01 5.611168e-01 3.949348e-01 5.502440e-01 6.569139e-01
<GCONST> 1.126193e+02
<STATE> 3
<MEAN> 39
 -1.075488e+01 -7.523269e+00 -9.039581e+00 -2.858919e+00 -5.719765e+00 -1.744263e+00 -1.141586e+01 -2.531200e+00 -2.390411e+00 -4.108986e+00 -4.833741e+00 -5.358840e+00 4.329842e+01 -1.648722e-01 -2.252027e-01 -1.774721e-01 1.350326e-01 4.667692e-01 -4.569705e-01 2.765429e-01 2.873671e-02 9.717889e-02 2.125750e-02 -1.118552e-01 1.970169e-01 1.387828e-01 3.935175e-02 -3.180141e-01 -1.469947e-02 -1.053064e-01 4.268385e-01 -1.013246e+00 3.270551e-01 2.277136e-01 5.703310e-02 1.230997e-01 -1.192180e-01 3.097473e-01 8.113886e-01
<VARIANCE> 39
 2.112373e+01 4.311378e+01 2.290919e+01 3.699653e+01 3.250978e+01 5.100720e+01 2.762066e+01 3.514093e+01 2.666616e+01 3.560175e+01 2.181400e+01 2.442452e+01 3.322494e+01 1.532936e+00 2.576092e+00 3.026629e+00 2.935003e+00 5.391984e+00 3.764890e+00 2.885253e+00 2.925704e+00 2.948227e+00 2.666077e+00 2.061273e+00 2.133305e+00 2.004867e+00 2.348405e-01 6.646140e-01 4.276182e-01 4.936463e-01 1.346710e+00 2.522996e+00 7.219894e-01 6.927410e-01 6.221125e-01 6.149976e-01 4.207039e-01 6.040925e-01 1.419862e+00
<GCONST> 1.242396e+02
<STATE> 4
<MEAN> 39
 -9.362495e+00 -4.420296e+00 -1.019103e+01 -3.528266e+00 -5.173867e+00 -6.827546e-01 -1.046163e+01 -5.475315e+00 -4.102564e+00 -2.922145e+00 -6.278382e+00 -6.390279e+00 4.306182e+01 -3.858610e-01 -2.291847e+00 -4.194232e-01 -4.731234e-01 2.678656e+00 -4.800194e+00 2.326283e+00 5.461792e-01 5.876803e-01 4.099210e-01 -3.940776e-01 1.756837e+00 3.785017e+00 6.683169e-02 -4.826819e-01 2.154673e-01 -1.346141e-01 6.284767e-01 -1.317140e+00 7.155257e-01 2.549523e-01 2.190529e-01 3.426605e-02 -1.197191e-02 4.015591e-01 1.483838e+00
<VARIANCE> 39
 4.449041e+01 6.385540e+01 2.894676e+01 3.121418e+01 2.987783e+01 5.117733e+01 2.283585e+01 2.950456e+01 2.047662e+01 2.041307e+01 2.487412e+01 3.191138e+01 3.946706e+01 5.590112e+00 8.791042e+00 3.325650e+00 3.584792e+00 8.187943e+00 1.747204e+01 5.350074e+00 3.930428e+00 3.134899e+00 2.278646e+00 3.516295e+00 3.876133e+00 1.198571e+01 6.696236e-01 8.864986e-01 6.478148e-01 4.349189e-01 1.135276e+00 1.805543e+00 6.082745e-01 6.494750e-01 6.298695e-01 5.529446e-01 6.693301e-01 4.763843e-01 1.640986e+00
<GCONST> 1.344111e+02
<TRANSP> 5
 0.000000e+00 1.000000e+00 0.000000e+00 0.000000e+00 0.000000e+00
 0.000000e+00 4.203691e-01 5.796309e-01 0.000000e+00 0.000000e+00
 0.000000e+00 0.000000e+00 6.441216e-01 3.558784e-01 0.000000e+00
 0.000000e+00 0.000000e+00 0.000000e+00 5.718697e-01 4.281302e-01
 0.000000e+00 0.000000e+00 0.000000e+00 0.000000e+00 0.000000e+00
<ENDHMM>
~h "l"
<BEGINHMM>
<NUMSTATES> 5
<STATE> 2
<MEAN> 39
 -6.041913e-01 -9.022470e+00 9.751630e+00 -3.816156e-01 -1.939804e+01 -4.951863e+00 -1.660934e+01 -3.719871e+00 1.128818e-01 -1.484802e+01 1.952652e+00 -5.651503e+00 6.586781e+01 4.302033e-01 -4.534938e-01 2.227032e-01 -6.418732e-02 -1.557181e+00 -1.406197e+00 -5.201751e-01 -3.085022e-01 5.750629e-01 -8.305377e-01 1.561738e+00 -6.536492e-01 3.066969e+00 -1.638809e-01 8.141305e-03 -5.393211e-01 -1.001676e-01 2.430122e-01 -1.434331e-02 1.882797e-01 -8.366691e-02 7.232260e-04 2.143924e-01 6.659845e-02 -1.228481e-01 -9.772579e-02
<VARIANCE> 39
 2.938886e+01 4.658330e+01 9.805975e+01 1.079777e+01 7.829038e+01 5.906981e+01 4.495864e+01 2.638822e+01 4.821001e+01 5.916136e+01 1.013148e+02 2.274719e+01 1.564745e+02 4.150636e+00 4.929223e+00 2.104968e+01 1.083509e+00 5.715933e+00 5.168530e+00 9.394875e+00 2.337605e+00 4.392329e+00 1.026929e+01 8.891123e+00 2.712403e+00 5.268865e+00 6.207265e-01 1.156708e+00 2.798110e+00 2.487933e-01 9.441895e-01 1.265219e+00 1.663392e+00 5.510279e-01 6.987307e-01 2.352979e+00 1.720644e+00 5.062569e-01 8.486517e-01
<GCONST> 1.429999e+02
<STATE> 3
<MEAN> 39
 5.595493e-02 -5.570885e+00 -5.322758e+00 -1.548228e+01 -1.682571e+01 -9.185740e-01 -1.262315e+01 -1.066689e+01 1.199371e+00 -1.013179e+01 1.430106e+01 -1.095504e+01 7.875346e+01 -1.203172e-01 4.603842e-01 -1.033812e-01 -9.395345e-01 9.370064e-01 1.094472e+00 4.546584e-01 1.035039e-01 -2.682635e-01 2.854683e-01 -8.050864e-01 4.279405e-01 -6.097872e-01 -1.766156e-01 -4.702842e-02 1.993545e-01 1.444944e-01 -8.846633e-04 -5.202702e-02 1.092849e-01 1.181497e-01 -1.290012e-01 4.862085e-03 -2.023900e-01 1.804618e-01 -1.673185e-01
<VARIANCE> 39
 1.662740e+01 1.294084e+01 1.583000e+01 1.227263e+02 4.928603e+01 1.072153e+02 3.207962e+01 4.219973e+01 3.975524e+01 4.899312e+01 6.105112e+01 5.108752e+01 2.118037e+01 2.580330e+00 5.469168e-01 2.440124e+00 9.216825e+00 3.135175e+00 8.445638e+00 3.770489e+00 5.511006e+00 4.068744e+00 6.718092e+00 7.073688e+00 7.443061e+00 9.974343e-01 3.027392e-01 8.119434e-02 3.117348e-01 1.121467e+00 5.753587e-01 1.424994e+00 9.009033e-01 8.262799e-01 7.446628e-01 1.211856e+00 1.234966e+00 1.581962e+00 5.052572e-02
<GCONST> 1.284446e+02
<STATE> 4
<MEAN> 39
 -2.236659e+00 -8.239539e+00 -1.368373e+00 -4.315498e+00 -9.694425e+00 -3.223976e+00 -1.275100e+01 -4.300827e+00 -4.989372e-01 -8.888182e+00 -2.788328e+00 -4.543977e+00 6.847563e+01 2.596535e-01 -3.526986e-01 -1.970033e-02 -1.000182e-02 -4.349912e-02 1.876378e-02 -4.489799e-01 2.206101e-02 -6.670140e-02 2.903115e-01 2.310964e-01 -2.252304e-01 2.501861e-01 9.700592e-02 -7.150727e-03 -1.032066e-02 -1.833530e-01 -8.837643e-02 1.912685e-01 2.489438e-02 -9.932001e-02 -2.690600e-02 7.007111e-03 8.107773e-02 -7.331429e-02 6.775550e-02
<VARIANCE> 39
 1.183869e+02 2.357970e+01 3.481035e+01 9.101947e+01 4.565149e+01 3.396080e+01 6.269888e+01 4.219947e+01 3.304346e+01 4.740365e+01 6.400156e+01 6.152285e+01 5.942231e+01 5.793612e+00 2.160816e+00 2.114794e+00 5.851672e+00 4.125848e+00 5.724205e+00 4.430765e+00 4.016801e+00 3.105694e+00 3.862536e+00 6.270670e+00 5.727202e+00 5.558645e+00 7.815985e-01 3.758802e-01 3.127339e-01 6.579343e-01 7.489032e-01 9.265434e-01 9.249445e-01 6.653351e-01 4.383605e-01 5.534585e-01 1.000332e+00 8.668699e-01 7.760909e-01
<GCONST> 1.360148e+02
<TRANSP> 5
 0.000000e+00 1.000000e+00 0.000000e+00 0.000000e+00 0.000000e+00
 0.000000e+00 9.059429e-01 9.405708e-02 0.000000e+00 0.000000e+00
 0.000000e+00 0.000000e+00 9.343987e-01 6.560139e-02 0.000000e+00
 0.000000e+00 0.000000e+00 0.000000e+00 9.681026e-01 3.189741e-02
 0.000000e+00 0.000000e+00 0.000000e+00 0.000000e+00 0.000000e+00
<ENDHMM>
~h "m"
<BEGINHMM>
<NUMSTATES> 5
<STATE> 2
<MEAN> 39
 2.776661e-01 -1.183245e+01 -4.790258e+00 -1.078864e+01 -4.398149e+00 -1.572515e+00 -2.395364e+01 8.663130e+00 1.063968e+01 -2.042978e+01 6.410975e-01 -1.412622e+01 7.782614e+01 1.458750e-01 1.249934e-01 5.358538e-02 2.131028e-01 1.325646e-01 -3.106927e-01 3.452584e-01 -5.862279e-02 -1.797158e-01 1.695868e-01 -7.616758e-02 1.921149e-01 -4.231194e-01 6.526077e-02 1.829934e-02 4.905006e-02 4.752632e-03 2.185557e-02 4.921168e-03 4.016612e-02 -4.704117e-02 -7.152755e-02 1.221828e-02 1.031197e-01 -3.308415e-02 -1.248533e-01
<VARIANCE> 39
 4.706305e+00 9.843448e+00 8.153475e+00 1.509642e+01 9.525197e+00 4.166900e+01 1.399997e+01 1.556370e+01 2.313219e+01 1.971865e+01 1.712950e+01 8.919626e+00 1.493051e+01 2.999840e-01 3.069103e-01 3.027931e-01 4.070620e-01 4.430573e-01 7.330537e-01 5.415531e-01 4.859971e-01 5.186155e-01 4.829820e-01 1.196937e+00 6.756487e-01 3.190077e-01 6.722142e-02 6.923151e-02 7.222091e-02 6.406739e-02 6.088633e-02 9.758870e-02 9.409932e-02 7.915556e-02 1.316430e-01 1.006346e-01 1.430600e-01 8.963212e-02 5.399725e-02
<GCONST> 6.350072e+01
<STATE> 3
<MEAN> 39
 3.233376e+00 -1.573758e+01 -7.953888e+00 -1.959341e+01 -4.121386e+00 1.466875e+01 -1.569309e+01 1.815549e+00 4.982669e-01 -1.255415e+01 8.447098e-01 -1.053059e+01 6.796901e+01 2.284153e-01 8.026441e-01 -4.373945e-01 1.392966e-01 4.500832e-01 -1.079263e-01 1.236526e+00 -3.840912e-01 -4.456156e-01 -2.024150e-01 -3.755214e-02 9.182724e-01 -1.703242e+00 -1.218609e-01 2.016610e-01 1.424793e-02 3.572207e-01 -1.094980e-01 -1.747600e-01 1.274404e-01 4.379635e-02 -1.648998e-02 1.248675e-01 -3.969855e-01 2.123377e-02 -2.224238e-01
<VARIANCE> 39
 8.481849e+00 2.865942e+01 2.999008e+01 8.951740e+01 1.932866e+01 2.435732e+02 3.961468e+01 3.321774e+01 5.121629e+01 4.755349e+01 2.212066e+01 2.664853e+01 3.258633e+01 9.455001e-01 1.183917e+00 1.341675e+00 1.802568e+00 1.046010e+00 1.584005e+00 1.527602e+00 1.378101e+00 1.084405e+00 1.598021e+00 1.854413e+00 1.055529e+00 1.166411e+00 1.432915e-01 3.088472e-01 1.734846e-01 2.915552e-01 1.691207e-01 3.243962e-01 3.223144e-01 2.472881e-01 2.224871e-01 2.689306e-01 2.363934e-01 1.950335e-01 2.036880e-01
<GCONST> 1.029683e+02
<STATE> 4
<MEAN> 39
 9.583256e-01 -1.021473e+01 -9.481541e+00 -1.288182e+01 -3.066652e+00 7.195090e+00 -1.162468e+01 1.625730e+00 1.659487e+00 -1.285761e+01 -9.884768e-01 -8.714652e+00 6.025608e+01 -3.917605e-03 1.076153e+00 -1.900212e-01 6.925327e-01 1.683981e-01 -2.183911e-01 1.358832e+00 -2.946558e-01 -5.857998e-01 4.440073e-01 -8.305502e-01 7.096212e-01 -1.959145e+00 -8.288916e-02 2.170656e-01 4.968318e-02 2.944205e-01 -9.902240e-02 -4.136721e-02 2.176804e-02 3.515786e-02 -1.495122e-01 1.994245e-01 -3.329949e-01 1.084599e-01 -1.736563e-01
<VARIANCE> 39
 3.404758e+01 2.295565e+01 6.867014e+01 8.466916e+01 2.361238e+01 2.115526e+02 5.613792e+01 4.384422e+01 5.486666e+01 4.931348e+01 3.046160e+01 3.166412e+01 1.011688e+02 1.991056e+00 1.831692e+00 2.135468e+00 2.467427e+00 1.315761e+00 2.280660e+00 1.747796e+00 2.185222e+00 1.905218e+00 1.882190e+00 1.756691e+00 9.569965e-01 1.893888e+00 2.652524e-01 4.426054e-01 3.664497e-01 5.366415e-01 2.682150e-01 4.342925e-01 3.787324e-01 4.126611e-01 3.517378e-01 3.962954e-01 3.555542e-01 2.494858e-01 2.631505e-01
<GCONST> 1.170502e+02
<TRANSP> 5
 0.000000e+00 1.000000e+00 0.000000e+00 0.000000e+00 0.000000e+00
 0.000000e+00 9.130657e-01 8.693427e-02 0.000000e+00 0.000000e+00
 0.000000e+00 0.000000e+00 5.663835e-01 4.336165e-01 0.000000e+00
 0.000000e+00 0.000000e+00 0.000000e+00 3.499874e-01 6.500126e-01
 0.000000e+00 0.000000e+00 0.000000e+00 0.000000e+00 0.000000e+00
<ENDHMM>
~h "q"
<BEGINHMM>
<NUMSTATES> 5
<STATE> 2
<MEAN> 39
 -8.095613e+00 -3.966480e+00 2.466994e+00 -7.844230e+00 -1.166564e+01 -6.698549e+00 -4.040202e+00 -5.981186e+00 -4.185843e+00 -8.204349e+00 7.951708e-01 -7.080395e+00 6.181237e+01 -1.855295e+00 -7.259217e-02 -2.121941e-01 -5.608059e-01 1.669848e+00 -1.410032e-01 6.805673e-01 1.618391e-01 -2.061188e-01 4.814431e-01 -6.326083e-01 4.599499e-01 -5.519915e-01 -3.871183e-01 5.461809e-02 -2.342822e-01 -1.789374e-01 1.216093e-01 6.868552e-02 1.725073e-01 2.032105e-01 1.817207e-01 2.432417e-01 -5.990296e-02 1.015461e-01 4.107984e-01
<VARIANCE> 39
 6.908312e+01 4.130144e+01 5.281197e+01 3.415787e+01 1.050665e+02 2.360220e+01 4.223544e+01 3.092538e+01 2.262032e+01 5.035966e+01 4.330400e+01 2.050905e+01 1.608824e+02 7.289009e+00 5.689595e+00 3.731295e+00 6.147891e+00 7.347723e+00 3.213639e+00 5.200144e+00 4.268002e+00 3.908848e+00 3.127207e+00 3.171911e+00 1.915006e+00 1.358223e+01 7.313958e-01 1.285181e+00 5.981987e-01 1.085956e+00 1.599511e+00 7.022895e-01 1.400464e+00 9.936273e-01 8.181990e-01 6.007743e-01 6.402475e-01 4.212027e-01 1.462434e+00
<GCONST> 1.393782e+02
<STATE> 3
<MEAN> 39
 -2.689984e+01 -2.508783e+00 -9.513550e-01 -1.735962e+01 -9.216728e-01 -3.615869e+00 -1.683290e+00 -3.618702e+00 -1.243917e+00 -5.283279e-01 -2.705356e-01 -2.854250e+00 7.067941e+01 -1.262332e-01 3.209270e-01 4.666171e-01 -3.124716e-01 8.039290e-02 5.365392e-01 -1.644344e-01 -1.752778e-01 2.753337e-02 1.027569e-01 1.415949e-01 1.234288e-01 7.315536e-01 5.437444e-01 1.139336e-02 2.947868e-01 2.605462e-01 -3.176849e-01 -3.555944e-02 -1.475842e-01 -1.664208e-01 -1.849430e-01 -3.081972e-01 3.981083e-02 -1.236663e-01 -1.728516e-01
<VARIANCE> 39
 3.235146e+01 1.195720e+01 1.491334e+01 2.305685e+01 2.392762e+01 2.777177e+01 1.851997e+01 1.710650e+01 1.986577e+01 2.017631e+01 1.793455e+01 1.511508e+01 2.854383e+01 4.732919e+00 2.082789e+00 2.648909e+00 2.609306e+00 3.036896e+00 2.275496e+00 2.077216e+00 2.645014e+00 2.887376e+00 2.711556e+00 2.095339e+00 1.839313e+00 2.388342e+00 4.901117e-01 4.439636e-01 4.197518e-01 4.056293e-01 5.570170e-01 4.855504e-01 4.300287e-01 5.099638e-01 5.301060e-01 4.058650e-01 4.166598e-01 3.506601e-01 3.053139e-01
<GCONST> 1.120492e+02
<STATE> 4
<MEAN> 39
 -9.224248e+00 -1.908112e+00 1.410089e+01 -9.808345e+00 -1.558123e+01 -3.227602e+00 -9.216401e+00 -9.077768e+00 -7.232305e+00 -1.220155e+01 4.444824e+00 -7.353395e+00 7.306599e+01 7.280588e-01 -2.968350e-01 1.208394e-01 4.639069e-01 -6.642522e-01 -2.133509e-01 -1.301987e-01 3.229498e-01 -9.597400e-03 -3.049661e-01 -1.411755e-02 -1.983555e-01 2.690047e-02 -1.809812e-01 -8.895670e-02 -2.743663e-01 -5.378849e-02 2.006208e-01 4.370216e-02 8.239692e-02 1.186289e-01 1.468940e-01 1.354863e-01 -1.260061e-01 2.541431e-02 -6.540537e-02
<VARIANCE> 39
 7.582699e+01 3.903014e+01 5.834041e+01 2.806402e+01 7.541252e+01 1.707772e+01 2.356369e+01 3.826181e+01 2.235453e+01 3.830914e+01 2.549207e+01 2.146760e+01 2.394884e+01 4.421196e+00 1.711583e+00 4.779846e+00 2.606111e+00 5.932470e+00 1.969110e+00 3.072831e+00 2.808676e+00 2.247131e+00 4.186066e+00 2.417515e+00 1.633675e+00 2.061559e+00 5.312494e-01 3.018002e-01 4.340024e-01 4.014653e-01 8.590367e-01 3.941366e-01 4.891365e-01 4.010498e-01 3.377752e-01 5.303254e-01 3.730193e-01 2.790805e-01 2.533243e-01
<GCONST> 1.191224e+02
<TRANSP> 5
 0.000000e+00 1.000000e+00 0.000000e+00 0.000000e+00 0.000000e+00
 0.000000e+00 8.716146e-01 1.283854e-01 0.000000e+00 0.000000e+00
 0.000000e+00 0.000000e+00 9.202804e-01 7.971957e-02 0.000000e+00
 0.000000e+00 0.000000e+00 0.000000e+00 9.536493e-01 4.635065e-02
 0.000000e+00 0.000000e+00 0.000000e+00 0.000000e+00 0.000000e+00
<ENDHMM>
~h "s"
<BEGINHMM>
<NUMSTATES> 5
<STATE> 2
<MEAN> 39
 -7.791295e+00 -9.143335e+00 -8.362844e+00 -8.681133e+00 -5.772915e+00 -2.059626e+00 -8.538019e+00 -3.078626e+00 5.607457e+00 -1.309947e+01 -1.870932e+00 -6.490976e+00 7.307819e+01 4.352115e-01 -9.298993e-01 1.810559e-01 -3.133501e-01 -1.803236e-01 5.404667e-01 -7.830356e-01 2.452486e-01 8.278770e-01 -8.329303e-01 3.165380e-01 -5.909026e-01 1.166943e+00 -2.925423e-02 2.148631e-02 6.783477e-02 9.472867e-02 1.562563e-02 2.414658e-02 -2.013877e-02 5.727535e-02 -3.751928e-02 -3.647016e-03 3.406044e-02 -3.413654e-02 -1.407293e-01
<VARIANCE> 39
 1.309294e+02 9.502897e+01 2.257158e+01 3.354830e+01 2.041490e+01 7.347230e+01 9.835655e+01 2.430602e+01 8.651385e+01 6.684400e+01 3.517164e+01 4.544709e+01 9.449213e+01 1.348725e+01 4.264814e+00 1.844312e+00 3.115475e+00 2.038832e+00 4.380080e+00 4.529151e+00 2.029626e+00 4.329388e+00 3.102536e+00 3.740871e+00 3.775130e+00 3.294923e+00 1.846554e+00 8.304299e-01 3.644628e-01 5.807533e-01 3.881204e-01 8.628874e-01 6.743355e-01 3.316339e-01 8.955133e-01 4.900606e-01 5.324334e-01 6.889995e-01 4.365904e-01
<GCONST> 1.336904e+02
<STATE> 3
<MEAN> 39
 -5.376934e-01 -1.514062e+01 2.635480e+00 -9.733674e+00 -1.241218e+01 -1.473806e+00 -1.644349e+01 5.171679e+00 1.728186e+00 -1.552062e+01 4.463732e+00 -1.484270e+01 7.612482e+01 -4.921874e-03 1.487764e-01 -6.316222e-03 -2.676737e-01 4.112464e-02 2.653519e-01 2.943433e-01 1.155390e-01 -5.938227e-01 7.699087e-01 -2.876824e-01 -9.619170e-02 -2.474569e-01 -5.825229e-03 5.141154e-02 -1.081236e-01 -8.872072e-02 1.640655e-01 1.931251e-01 2.089293e-02 -1.242563e-01 -3.728770e-02 1.449141e-01 -7.354218e-02 7.027224e-02 -7.939702e-02
<VARIANCE> 39
 5.674645e+01 4.700848e+01 4.465066e+01 2.755643e+01 7.062901e+01 4.860439e+01 1.085855e+02 3.515530e+01 6.504403e+01 7.494971e+01 2.989885e+01 3.978538e+01 3.115645e+01 3.888906e+00 2.595299e+00 3.813627e+00 2.139434e+00 7.067378e+00 4.789523e+00 4.776003e+00 2.786284e+00 5.370562e+00 5.715716e+00 3.357827e+00 2.371516e+00 3.073328e+00 5.017649e-01 3.362595e-01 3.901395e-01 3.564394e-01 9.596784e-01 4.626203e-01 6.800678e-01 4.574485e-01 8.431559e-01 8.699514e-01 5.713483e-01 4.049055e-01 3.877552e-01
<GCONST> 1.307717e+02
<STATE> 4
<MEAN> 39
 3.647614e-01 -1.292340e+01 -6.511428e+00 -1.952370e+01 -5.761833e+00 1.631418e+01 -1.106356e+01 -9.166602e-01 -2.322463e+00 -6.517711e+00 5.154387e-01 -1.112023e+01 6.913980e+01 -1.452235e-01 2.157596e-01 -5.528005e-01 -4.344075e-01 1.225018e-01 9.998524e-01 7.941490e-01 -7.605488e-01 -5.476284e-01 1.244373e-01 6.232323e-01 1.040584e+00 -1.506733e+00 -8.099125e-02 -1.057925e-01 1.409428e-02 4.428496e-01 -5.067074e-01 -6.763217e-01 1.552347e-01 2.264068e-01 1.836961e-01 -3.137016e-01 -3.682232e-02 3.717650e-02 1.297427e-01
<VARIANCE> 39
 1.272962e+02 9.547468e+01 2.835313e+01 3.918439e+01 3.812932e+01 2.077507e+02 8.585323e+01 1.932731e+01 9.178957e+00 3.620724e+01 2.605545e+01 3.509577e+01 2.397841e+01 3.287143e+00 2.181835e+00 1.590802e+00 3.688895e+00 3.287161e+00 5.121104e+00 2.070344e+00 1.709602e+00 1.637142e+00 3.516055e+00 3.281969e+00 1.162197e+00 2.025979e+00 6.298501e-01 4.531157e-01 3.725421e-01 5.080349e-01 5.339829e-01 6.795138e-01 5.010274e-01 2.749229e-01 2.605157e-01 7.546518e-01 7.440982e-01 3.274749e-01 3.370637e-01
<GCONST> 1.218703e+02
<TRANSP> 5
 0.000000e+00 1.000000e+00 0.000000e+00 0.000000e+00 0.000000e+00
 0.000000e+00 9.412485e-01 5.875150e-02 0.000000e+00 0.000000e+00
 0.000000e+00 0.000000e+00 9.505000e-01 4.950001e-02 0.000000e+00
 0.000000e+00 0.000000e+00 0.000000e+00 8.369356e-01 1.630643e-01
 0.000000e+00 0.000000e+00 0.000000e+00 0.000000e+00 0.000000e+00
<ENDHMM>
~h "u"
<BEGINHMM>
<NUMSTATES> 5
<STATE> 2
<MEAN> 39
 -1.314308e+01 -1.256446e+00 -9.890823e+00 -1.415263e+00 -6.435290e+00 -1.629623e+00 -6.758804e+00 -3.561575e+00 -4.812090e+00 -4.031116e+00 -3.348938e+00 -3.345880e+00 3.837037e+01 1.448148e+00 6.970317e-01 -4.512080e-01 -1.403823e+00 8.610325e-01 -2.731891e-01 6.959050e-01 8.439826e-01 -4.449286e-01 1.011467e+00 -3.095573e-01 2.459339e-01 1.457896e+00 8.306516e-01 2.613328e-01 -5.083673e-01 -1.260079e+00 4.352341e-01 -1.731339e-01 3.696033e-01 2.360121e-01 -6.483008e-01 4.298012e-01 -2.334149e-01 8.626258e-02 1.181015e+00
<VARIANCE> 39
 1.002705e+01 1.834950e+01 1.936509e+01 1.350057e+01 2.887610e+01 3.233591e+01 3.437814e+01 2.200478e+01 1.821623e+01 1.980864e+01 1.390951e+01 1.533371e+01 4.237683e+00 4.562301e+00 4.364237e+00 4.552992e+00 6.639877e+00 5.959968e+00 3.520169e+00 5.673497e+00 4.398734e+00 3.419564e+00 4.295835e+00 1.725330e+00 1.724190e+00 4.002033e+00 8.811240e-01 5.340985e-01 6.043236e-01 1.057422e+00 1.373975e+00 7.950041e-01 1.215056e+00 8.477257e-01 6.856343e-01 6.288626e-01 4.548468e-01 3.272355e-01 1.296828e+00
<GCONST> 1.228764e+02
<STATE> 3
<MEAN> 39
 -8.310790e+00 4.363875e-01 -8.147021e+00 -2.075561e+00 -7.214928e+00 -2.340491e+00 -7.417469e+00 -2.634036e+00 -3.717894e+00 -2.371449e+00 -3.677410e+00 -3.319771e+00 4.132682e+01 1.228696e+00 3.663657e-01 -1.809592e+00 -3.214314e+00 1.869649e+00 -4.077595e-01 1.228850e+00 9.220178e-01 -1.441206e+00 1.449431e+00 -5.551460e-01 3.048864e-01 2.544301e+00 3.610126e-01 -1.398451e-01 -2.143159e-01 -7.479817e-01 -5.640537e-02 1.059008e-01 -8.956715e-04 -2.136429e-01 -3.317063e-01 -5.282493e-02 2.464999e-01 -1.437453e-01 1.002797e+00
<VARIANCE> 39
 5.772516e+01 4.184242e+01 2.522252e+01 1.845753e+01 2.272801e+01 1.673494e+01 1.843200e+01 1.671868e+01 1.793117e+01 1.433756e+01 1.404766e+01 1.393406e+01 2.115379e+01 1.125122e+01 6.131140e+00 6.607063e+00 1.438052e+01 7.894337e+00 3.232403e+00 4.306282e+00 3.599025e+00 5.888593e+00 5.307124e+00 2.760473e+00 2.048575e+00 1.369797e+01 2.132315e+00 1.073419e+00 6.477969e-01 7.807943e-01 1.070856e+00 5.017201e-01 5.109254e-01 5.918333e-01 5.285040e-01 5.858675e-01 6.169003e-01 3.706865e-01 2.035794e+00
<GCONST> 1.301118e+02
<STATE> 4
<MEAN> 39
 1.791375e+00 -3.715757e+00 -1.486530e+01 -2.465486e+01 -7.286352e+00 -2.910094e-01 -4.417688e+00 -4.172050e+00 -9.380071e+00 1.276893e+00 3.463192e+00 -5.971427e+00 7.301653e+01 8.805122e-01 -1.814385e+00 9.442624e-01 -1.171841e+00 -1.694363e+00 1.589217e+00 -3.746384e-01 -1.395965e+00 1.824464e+00 -4.821933e-01 1.852208e+00 -1.508014e+00 5.415165e+00 -8.347153e-01 -3.908570e-01 2.509767e-01 9.496351e-01 -1.521231e-02 2.561045e-01 -2.461383e-01 -1.224910e-01 8.315954e-01 -2.562262e-01 -5.146376e-01 -2.486313e-01 -8.802637e-01
<VARIANCE> 39
 1.998676e+01 4.912056e+01 5.890544e+01 3.286557e+01 1.167747e+02 5.952749e+01 5.344053e+01 6.502950e+01 7.112971e+01 5.764814e+01 1.195774e+02 4.390085e+01 1.269521e+02 9.456194e+00 4.544285e+00 5.388398e+00 1.044158e+01 1.398433e+01 5.097778e+00 6.955986e+00 6.500894e+00 1.048298e+01 7.876281e+00 1.808066e+01 4.017424e+00 7.827622e+00 8.841385e-01 1.181571e+00 1.882841e+00 1.714076e+00 4.943123e+00 1.219209e+00 1.825219e+00 1.926175e+00 1.965052e+00 2.218239e+00 4.885271e+00 9.336174e-01 6.770751e-01
<GCONST> 1.583578e+02
<TRANSP> 5
 0.000000e+00 1.000000e+00 0.000000e+00 0.000000e+00 0.000000e+00
 0.000000e+00 4.608016e-01 5.391983e-01 0.000000e+00 0.000000e+00
 0.000000e+00 0.000000e+00 6.917939e-01 3.082061e-01 0.000000e+00
 0.000000e+00 0.000000e+00 0.000000e+00 8.478245e-01 1.521755e-01
 0.000000e+00 0.000000e+00 0.000000e+00 0.000000e+00 0.000000e+00
<ENDHMM>
~h "x"
<BEGINHMM>
<NUMSTATES> 5
<STATE> 2
<MEAN> 39
 -1.152564e+01 -1.627506e+01 -6.456413e+00 2.405779e+00 2.930197e+00 -9.024747e+00 -1.684548e+00 -2.243544e+00 5.366684e+00 -2.660846e+00 -1.991190e+00 -5.926196e+00 7.134925e+01 -4.313066e+00 -1.172165e+00 8.305188e-01 1.133786e+00 2.430916e+00 -2.750810e+00 2.986795e-02 1.090481e+00 1.360760e+00 -3.560775e-01 -6.000137e-01 4.709462e-01 4.975093e-01 2.227760e-01 1.745861e-02 -1.514227e-01 -3.442200e-01 -6.524057e-01 5.457202e-01 -1.837087e-01 -1.773256e-01 -1.460407e-01 -6.978518e-02 1.032538e-01 -1.474402e-01 -8.604615e-02
<VARIANCE> 39
 1.288648e+02 1.646146e+01 1.524790e+01 1.880362e+01 4.959997e+01 4.923963e+01 1.638594e+01 1.807419e+01 2.724118e+01 1.810846e+01 1.500004e+01 1.404407e+01 8.147216e+00 5.955038e+00 1.043711e+00 2.134763e+00 2.758480e+00 8.354149e+00 4.973323e+00 2.263417e+00 1.997562e+00 2.775676e+00 2.277506e+00 1.849706e+00 1.872935e+00 7.001191e-01 1.603266e+00 2.555262e-01 4.178276e-01 4.686104e-01 1.133320e+00 6.467846e-01 3.980537e-01 3.710876e-01 6.423227e-01 4.481755e-01 3.259124e-01 4.241970e-01 1.500690e-01
<GCONST> 1.138351e+02
<STATE> 3
<MEAN> 39
 -1.931304e+01 -1.665718e+01 -2.178238e+00 7.011302e+00 4.600593e+00 -1.883935e+01 -6.038945e+00 -5.732557e-01 6.955978e+00 -6.021284e+00 -3.058228e+00 -2.982388e+00 7.101539e+01 1.662849e+00 7.591467e-01 1.245905e-01 -1.306872e-01 -3.414720e-01 -8.557044e-01 -1.176119e+00 -4.330851e-01 -2.123020e-01 -6.473238e-01 -1.088169e-01 3.171334e-01 9.130564e-02 3.011289e-01 4.410979e-02 -6.884602e-02 -8.886371e-02 -1.114890e-02 3.542192e-02 -1.107698e-01 -5.909099e-02 -1.069525e-02 -6.807829e-02 -1.064567e-02 -5.512386e-03 4.467177e-02
<VARIANCE> 39
 9.546545e+01 3.081275e+01 1.477939e+01 1.556084e+01 1.901017e+01 2.678714e+01 4.684332e+01 2.551010e+01 1.393172e+01 1.935888e+01 1.377551e+01 9.920248e+00 1.165382e+01 8.287731e+00 2.344119e+00 1.707588e+00 1.951976e+00 1.729337e+00 1.630730e+00 3.311358e+00 2.020144e+00 1.508988e+00 2.116502e+00 1.418027e+00 1.035683e+00 1.082894e+00 1.152222e+00 5.064765e-01 2.814735e-01 3.124910e-01 3.524587e-01 3.255740e-01 4.899548e-01 3.486137e-01 3.132382e-01 3.718551e-01 2.744543e-01 2.089820e-01 2.054065e-01
<GCONST> 1.066312e+02
<STATE> 4
<MEAN> 39
 6.579803e+00 -1.249939e+01 -7.919996e+00 2.902562e+00 -2.646058e+00 -2.101018e+01 -2.820415e+01 2.705256e+00 8.512410e+00 -1.595621e+01 1.913756e+00 -2.901815e+00 7.180344e+01 3.114446e-01 5.231658e-02 -4.473275e-01 4.325523e-02 -1.099881e-01 5.986499e-01 -1.803443e-01 8.992634e-01 1.440478e-01 3.575243e-02 2.728472e-01 -2.708225e-01 -7.053829e-01 -2.052204e-01 9.394384e-02 8.021493e-02 6.790820e-02 6.367124e-02 6.714799e-02 2.869882e-01 -5.826044e-02 -5.709013e-02 1.674888e-01 -1.437974e-01 4.816653e-02 -2.023094e-01
<VARIANCE> 39
 1.511096e+01 1.193699e+01 2.597202e+01 9.101353e+00 2.441208e+01 4.662578e+01 8.727825e+01 8.652805e+01 2.088923e+01 2.894249e+01 6.115689e+01 2.687341e+01 1.712291e+01 7.942177e-01 1.267712e+00 8.504271e-01 7.560879e-01 1.991014e+00 1.961547e+00 7.630436e+00 2.313825e+00 1.358814e+00 3.339740e+00 4.642706e+00 1.929898e+00 1.763523e+00 1.953655e-01 1.616123e-01 1.597016e-01 1.577804e-01 3.059400e-01 3.322219e-01 8.347294e-01 3.890783e-01 2.492632e-01 5.402799e-01 6.484216e-01 3.598661e-01 1.174300e-01
<GCONST> 1.068758e+02
<TRANSP> 5
 0.000000e+00 1.000000e+00 0.000000e+00 0.000000e+00 0.000000e+00
 0.000000e+00 8.449428e-01 1.550572e-01 0.000000e+00 0.000000e+00
 0.000000e+00 0.000000e+00 9.270059e-01 7.299407e-02 0.000000e+00
 0.000000e+00 0.000000e+00 0.000000e+00 9.526103e-01 4.738965e-02
 0.000000e+00 0.000000e+00 0.000000e+00 0.000000e+00 0.000000e+00
<ENDHMM>
~h "ai"
<BEGINHMM>
<NUMSTATES> 5
<STATE> 2
<MEAN> 39
 -1.114821e+01 -1.859786e+01 -1.163019e+01 -7.164963e+00 8.185766e+00 -2.365384e+01 1.965064e+00 -2.193036e+00 -6.342884e-01 -3.171606e-01 -7.788152e+00 1.394344e+00 6.511523e+01 2.375157e-01 -1.221314e+00 1.023975e+00 -1.577939e-01 2.147812e+00 -3.481555e+00 2.903088e+00 7.153816e-01 1.067822e+00 -4.485019e-01 5.073631e-02 7.327427e-01 5.474265e+00 4.278221e-01 8.668624e-01 4.777383e-01 2.615495e-01 -1.379080e+00 2.967564e+00 -6.319292e-01 -2.264562e-01 -3.794743e-01 -6.446737e-01 5.365437e-01 -1.110245e+00 -9.815731e-01
<VARIANCE> 39
 9.435744e+00 2.586808e+01 2.557162e+01 3.665546e+01 2.644795e+01 6.198363e+01 2.418372e+01 2.777418e+01 2.137630e+01 2.850962e+01 2.214072e+01 1.794332e+01 4.192520e+01 2.536123e+00 4.845226e+00 3.030329e+00 2.618709e+00 7.735275e+00 3.020670e+01 3.344187e+00 2.281312e+00 3.057989e+00 3.345663e+00 2.863366e+00 5.739964e+00 8.064543e+00 7.277670e-01 6.213473e-01 6.391094e-01 5.874639e-01 6.205852e-01 2.528228e+00 7.101837e-01 5.891479e-01 6.098585e-01 5.613608e-01 5.547403e-01 7.039028e-01 1.160730e+00
<GCONST> 1.292835e+02
<STATE> 3
<MEAN> 39
 -7.330932e+00 -1.593080e+01 -1.064991e+01 -8.833429e+00 -2.730112e+00 -6.470576e+00 4.421533e+00 -4.196529e-01 -1.335718e+00 -1.045859e+01 -7.670236e+00 -2.828358e+00 8.144775e+01 1.448216e-01 2.169251e-01 -9.033656e-02 -4.443228e-01 -1.614550e+00 1.108526e+00 1.337515e-01 4.724585e-01 6.869905e-02 -9.327280e-01 -1.597624e-01 -1.347651e-01 1.538959e+00 -4.778945e-02 3.610568e-02 2.224923e-02 -3.888772e-02 -1.825984e-01 -1.250437e-01 -1.742888e-01 1.243698e-02 3.713002e-02 8.260475e-02 6.291628e-02 -2.568641e-02 -2.583445e-01
<VARIANCE> 39
 1.461094e+01 1.144809e+01 1.684623e+01 1.782301e+01 5.134092e+01 4.127905e+01 2.624323e+01 2.483303e+01 1.487978e+01 2.566009e+01 2.932624e+01 2.222087e+01 6.645042e+01 2.226304e+00 1.205445e+00 2.203956e+00 1.598955e+00 2.115936e+00 6.882205e+00 2.702347e+00 2.644525e+00 1.546307e+00 2.064826e+00 3.231454e+00 3.369326e+00 2.535190e+00 4.515582e-01 2.391120e-01 4.320114e-01 3.304775e-01 5.436596e-01 1.547435e+00 6.510084e-01 5.019107e-01 3.261285e-01 3.718370e-01 6.379324e-01 7.350025e-01 4.495232e-01
<GCONST> 1.155009e+02
<STATE> 4
<MEAN> 39
 -8.697217e+00 -1.067410e+01 -2.395125e+00 -8.996454e+00 -1.584922e+01 -7.443843e+00 -1.595174e+00 1.029626e+00 1.297311e+00 -1.161354e+01 -1.139152e-01 -7.361875e+00 7.806110e+01 -2.583838e-01 3.516207e-01 6.654652e-01 3.042968e-01 -9.058914e-02 -1.050667e-01 -6.834837e-01 -5.582529e-01 -4.465379e-02 2.913588e-01 7.349848e-01 -2.962288e-01 -1.113648e+00 4.225782e-02 3.338569e-03 -6.812678e-02 -1.309794e-02 2.419531e-01 3.709793e-02 -2.825823e-02 -1.138550e-01 -8.484859e-02 2.217936e-02 -1.020282e-01 8.297939e-02 -1.548255e-02
<VARIANCE> 39
 4.119002e+01 3.242056e+01 3.332156e+01 2.731854e+01 7.226418e+01 2.320026e+01 3.869794e+01 3.024285e+01 1.601242e+01 2.570224e+01 4.974313e+01 2.618387e+01 1.112223e+02 2.370476e+00 2.126467e+00 2.146759e+00 1.832816e+00 4.722021e+00 1.950306e+00 4.058721e+00 2.143124e+00 1.402065e+00 1.964099e+00 4.754240e+00 2.862670e+00 2.523849e+00 4.540764e-01 3.592713e-01 2.039399e-01 3.252126e-01 6.690785e-01 4.120396e-01 6.999454e-01 3.276023e-01 2.763493e-01 3.967054e-01 6.838295e-01 4.744708e-01 3.430119e-01
<GCONST> 1.183075e+02
<TRANSP> 5
 0.000000e+00 1.000000e+00 0.000000e+00 0.000000e+00 0.000000e+00
 0.000000e+00 6.410348e-01 3.589652e-01 0.000000e+00 0.000000e+00
 0.000000e+00 0.000000e+00 9.197901e-01 8.020992e-02 0.000000e+00
 0.000000e+00 0.000000e+00 0.000000e+00 9.352770e-01 6.472302e-02
 0.000000e+00 0.000000e+00 0.000000e+00 0.000000e+00 0.000000e+00
<ENDHMM>
~h "an"
<BEGINHMM>
<NUMSTATES> 5
<STATE> 2
<MEAN> 39
 -3.875802e+00 -1.335147e+01 -1.148482e+01 -1.762443e+01 -4.535917e+00 5.919676e+00 -1.167961e+01 -6.704441e+00 9.622339e+00 -7.612412e+00 -6.090830e+00 -1.341963e+01 8.331023e+01 -9.830347e-02 -1.097935e-01 9.779266e-02 9.336836e-01 4.525092e-01 -5.713525e-01 -1.053607e+00 5.235288e-01 1.329860e+00 -1.754148e+00 -1.057718e+00 -1.820183e-01 5.810214e-02 1.660108e-01 1.707534e-01 1.180483e-01 1.027682e-01 -2.798024e-01 -2.922606e-01 -4.307382e-02 8.233058e-02 -1.719719e-01 -2.914114e-01 4.609354e-01 1.271387e-01 -1.707948e-01
<VARIANCE> 39
 2.580783e+01 1.320411e+01 6.812469e+00 3.402448e+01 1.874194e+01 3.999718e+01 3.892076e+01 1.936643e+01 4.416633e+01 7.864601e+01 7.500893e+01 2.788875e+01 8.133746e+01 1.796274e+00 9.324642e-01 7.070626e-01 1.386952e+00 3.308401e+00 3.550933e+00 1.742911e+00 1.915603e+00 2.187726e+00 3.195380e+00 6.867548e+00 2.052872e+00 9.602129e-01 2.507062e-01 1.475878e-01 1.264749e-01 1.776182e-01 4.279198e-01 4.226228e-01 3.990770e-01 3.614868e-01 3.750440e-01 5.077342e-01 7.661920e-01 4.034266e-01 1.931978e-01
<GCONST> 1.098963e+02
<STATE> 3
<MEAN> 39
 -2.474505e+00 -1.046418e+01 -8.439893e+00 -9.090818e+00 -7.450359e+00 -2.330245e+00 -1.378094e+01 -2.202751e+00 1.113799e+01 -1.862761e+01 -2.555758e+00 -1.197118e+01 7.554093e+01 5.950944e-01 4.768680e-01 9.636241e-01 1.015809e+00 -6.698624e-01 -1.077931e+00 2.924146e-01 -5.261567e-01 -4.964756e-01 -8.756158e-01 1.062641e+00 3.474813e-01 -1.052520e+00 1.068329e-01 -3.559637e-02 3.694692e-01 -2.355157e-02 1.256786e-01 1.860591e-01 1.369165e-01 -4.680011e-01 -5.860822e-01 6.405104e-01 -1.283227e-01 1.023737e-02 -1.477916e-01
<VARIANCE> 39
 3.798854e+01 2.779088e+01 1.409782e+01 3.694296e+01 2.283712e+01 6.775863e+01 4.490020e+01 1.808591e+01 1.044314e+02 1.087131e+02 4.485595e+01 6.686455e+01 1.699325e+02 3.518529e+00 2.253634e+00 2.284619e+00 3.430683e+00 2.506691e+00 4.078421e+00 2.675282e+00 2.682727e+00 5.750737e+00 8.169451e+00 5.922379e+00 4.667631e+00 4.209886e+00 4.404217e-01 3.609236e-01 3.509203e-01 4.629672e-01 4.969780e-01 5.290726e-01 3.904531e-01 4.528489e-01 9.892812e-01 1.272403e+00 8.027382e-01 6.665481e-01 6.946228e-01
<GCONST> 1.309644e+02
<STATE> 4
<MEAN> 39
 7.477378e-01 -6.542776e+00 1.005491e+00 -4.924897e+00 -1.446533e+01 -6.556762e+00 -1.129870e+01 -8.351183e+00 8.027692e-01 -1.390223e+01 -1.192536e+00 -7.228338e+00 7.047245e+01 -1.357519e-01 4.411298e-02 1.225536e-02 -3.667931e-01 4.818611e-03 5.072650e-02 2.592400e-01 1.376618e-01 -1.923980e-01 8.265662e-01 -6.455504e-02 -6.017457e-02 2.007765e-01 -1.194619e-01 -4.590346e-02 -1.629613e-01 -1.613319e-01 1.835545e-01 1.180147e-01 2.734439e-02 3.548905e-02 1.037088e-01 1.168207e-01 -1.317341e-01 -7.855120e-02 1.743358e-01
<VARIANCE> 39
 5.292003e+01 3.203087e+01 3.729327e+01 5.621810e+01 7.717274e+01 5.598972e+01 3.240960e+01 6.259400e+01 6.165572e+01 4.142881e+01 5.424233e+01 2.865659e+01 1.301669e+02 4.499507e+00 2.931967e+00 4.493178e+00 4.225245e+00 1.115586e+01 4.576689e+00 2.641279e+00 5.478713e+00 5.546970e+00 2.891015e+00 7.338942e+00 2.264012e+00 9.228936e+00 6.617854e-01 3.841420e-01 5.036629e-01 7.336271e-01 2.079267e+00 7.032423e-01 5.221023e-01 9.667870e-01 7.472627e-01 5.755804e-01 1.151246e+00 3.830836e-01 1.168480e+00
<GCONST> 1.385707e+02
<TRANSP> 5
 0.000000e+00 1.000000e+00 0.000000e+00 0.000000e+00 0.000000e+00
 0.000000e+00 8.455250e-01 1.544749e-01 0.000000e+00 0.000000e+00
 0.000000e+00 0.000000e+00 6.138579e-01 3.861421e-01 0.000000e+00
 0.000000e+00 0.000000e+00 0.000000e+00 8.600533e-01 1.399467e-01
 0.000000e+00 0.000000e+00 0.000000e+00 0.000000e+00 0.000000e+00
<ENDHMM>
~h "ao"
<BEGINHMM>
<NUMSTATES> 5
<STATE> 2
<MEAN> 39
 -7.011053e+00 -8.308695e+00 -1.799462e+01 -8.819511e+00 -3.757510e+00 1.942191e+00 -5.972191e+00 -1.511455e+00 -2.892758e+00 -7.257176e+00 -5.940598e+00 -4.131362e+00 4.721929e+01 -1.283021e+00 1.599573e-01 4.508084e-01 2.307830e-01 -8.734769e-01 -1.201459e+00 -2.356690e-01 -2.835579e-01 -3.021046e-01 2.298003e-01 -2.752698e-01 -2.843599e-01 -1.081681e+00 1.201145e-01 1.369466e-01 4.500136e-01 2.605328e-01 1.464656e-01 4.382329e-02 -8.767101e-02 1.094662e-01 9.729633e-02 2.770257e-02 1.420896e-01 1.411133e-03 1.401781e-01
<VARIANCE> 39
 1.650665e+01 1.295331e+01 3.814405e+01 6.943715e+01 1.399971e+01 1.939284e+02 1.184969e+02 1.865761e+01 3.710743e+01 2.071285e+01 1.484156e+01 1.216646e+01 2.216651e+01 8.379651e-01 1.567185e+00 3.192605e+00 2.474620e+00 1.426784e+00 3.020939e+00 3.225587e+00 2.179732e+00 1.702087e+00 1.596300e+00 1.894444e+00 1.229030e+00 2.363136e-01 1.038864e-01 1.468913e-01 2.435974e-01 2.313654e-01 3.247252e-01 5.561410e-01 6.955056e-01 3.375074e-01 3.621061e-01 4.258612e-01 4.131459e-01 2.442696e-01 5.323035e-02
<GCONST> 1.043085e+02
<STATE> 3
<MEAN> 39
 -1.104444e+01 -7.268878e+00 -1.374247e+01 -5.203852e+00 -5.318834e+00 -4.043721e+00 -9.275031e+00 -1.959559e+00 -2.612094e+00 -5.929876e+00 -7.099318e+00 -4.998362e+00 4.467492e+01 -9.272436e-01 2.826293e-01 8.063738e-01 6.163287e-01 -1.176841e-01 -4.128058e-01 -1.028755e-01 -2.123210e-01 -1.263796e-01 5.402771e-01 1.879063e-01 -4.667317e-02 -7.764314e-01 2.240623e-01 1.069489e-01 8.056608e-02 4.542999e-02 1.626504e-01 2.601524e-01 2.088969e-01 2.761633e-02 -6.314932e-02 -1.168672e-02 2.072029e-01 1.386998e-01 1.784357e-01
<VARIANCE> 39
 1.503339e+01 1.242462e+01 1.951049e+01 3.719433e+01 1.407122e+01 8.570721e+01 7.106531e+01 1.821863e+01 3.242691e+01 1.781539e+01 1.979442e+01 1.395279e+01 3.195656e+01 5.383866e-01 1.214589e+00 2.200296e+00 2.055457e+00 1.590335e+00 4.221504e+00 3.114490e+00 1.744259e+00 2.549822e+00 2.135993e+00 1.849286e+00 1.137551e+00 1.725035e-01 7.201382e-02 1.429007e-01 2.683300e-01 2.757024e-01 3.017768e-01 3.811973e-01 3.811088e-01 3.472629e-01 3.944848e-01 3.906597e-01 3.683462e-01 2.364152e-01 3.894714e-02
<GCONST> 9.964017e+01
<STATE> 4
<MEAN> 39
 -8.363825e+00 2.219425e+00 -5.327652e+00 1.369869e-01 -5.723624e+00 -1.710494e+00 -7.740086e+00 -3.276330e+00 -4.424299e+00 -3.166250e+00 -3.337501e+00 -3.401176e+00 4.148240e+01 -7.518288e-02 1.342100e-01 1.385964e-01 1.612552e-01 1.930144e-02 1.807593e-02 6.081598e-02 8.179294e-04 -1.930283e-02 9.895694e-02 1.058760e-01 3.387011e-02 -1.157601e-01 1.440896e-02 -3.803112e-02 -5.542569e-02 -5.360408e-02 -1.183503e-02 2.250368e-02 2.171096e-02 2.825701e-03 -2.289069e-02 -4.128171e-02 -2.008733e-02 3.943392e-03 2.547731e-02
<VARIANCE> 39
 2.864485e+01 4.073690e+01 2.682711e+01 2.460274e+01 1.827054e+01 2.069920e+01 1.898303e+01 1.689194e+01 1.654070e+01 1.339586e+01 1.362701e+01 1.152399e+01 1.185087e+01 1.268920e+00 1.686396e+00 1.754832e+00 1.732859e+00 1.741019e+00 2.036227e+00 1.755120e+00 1.935073e+00 1.811864e+00 1.462906e+00 1.426167e+00 1.201705e+00 3.427097e-01 2.039740e-01 2.842358e-01 3.267048e-01 3.382802e-01 3.519599e-01 3.915689e-01 3.299819e-01 4.054182e-01 3.624421e-01 2.989752e-01 2.807043e-01 2.481868e-01 6.846346e-02
<GCONST> 9.805936e+01
<TRANSP> 5
 0.000000e+00 1.000000e+00 0.000000e+00 0.000000e+00 0.000000e+00
 0.000000e+00 6.555561e-01 3.444439e-01 0.000000e+00 0.000000e+00
 0.000000e+00 0.000000e+00 5.920752e-01 4.079248e-01 0.000000e+00
 0.000000e+00 0.000000e+00 0.000000e+00 9.121010e-01 8.789903e-02
 0.000000e+00 0.000000e+00 0.000000e+00 0.000000e+00 0.000000e+00
<ENDHMM>
~h "en"
<BEGINHMM>
<NUMSTATES> 5
<STATE> 2
<MEAN> 39
 6.165670e+00 -3.128881e+00 -5.347970e+00 -1.893503e+01 -1.689573e+01 9.306261e+00 -1.356100e+01 3.755747e+00 8.221475e+00 -2.212474e+01 9.054860e+00 -1.109982e+01 6.912202e+01 1.602295e-01 9.966644e-01 2.268789e-01 1.105868e+00 7.169945e-01 -7.753550e-01 5.705964e-01 2.100173e-02 -8.532981e-01 1.053001e+00 -6.226839e-01 -3.519838e-01 -1.862094e+00 -1.889264e-01 7.433970e-02 1.171573e-02 1.938730e-01 1.147618e-01 2.828822e-02 8.119283e-02 -1.415124e-01 -1.796056e-01 2.765360e-01 -3.291386e-01 2.236520e-01 -1.905246e-01
<VARIANCE> 39
 5.202106e+00 1.424556e+01 9.802319e+00 6.547276e+01 7.680247e+01 8.884354e+01 1.752249e+01 2.470641e+01 2.025509e+01 4.151344e+01 4.740835e+01 4.823568e+01 4.195950e+01 5.361856e-01 1.778973e+00 4.901968e-01 1.237794e+00 9.830450e-01 9.405116e-01 1.213221e+00 1.223452e+00 1.962172e+00 2.470454e+00 5.671427e+00 3.460196e+00 1.892531e+00 1.454660e-01 2.256023e-01 1.052966e-01 2.308419e-01 1.294644e-01 1.625270e-01 1.810911e-01 2.175926e-01 2.205090e-01 2.299485e-01 5.478147e-01 2.519999e-01 6.474105e-02
<GCONST> 9.858630e+01
<STATE> 3
<MEAN> 39
 1.888206e+00 2.190081e+00 -2.720948e+00 -1.399997e+00 -3.087878e+00 -1.145454e+00 -9.550050e+00 2.746140e+00 5.700247e-01 -9.880691e+00 -6.171556e+00 -7.176423e+00 5.191512e+01 -2.019295e+00 -5.653381e-02 -7.324016e-01 1.285963e+00 2.839858e-01 -1.450071e-01 9.960961e-01 -7.431326e-01 -8.018627e-01 1.341785e+00 -1.572512e+00 1.190621e+00 -2.450054e+00 -3.534788e-01 -7.394990e-01 -4.552769e-01 -7.033776e-01 -4.001375e-01 -1.277352e-01 -2.303333e-01 -4.596556e-02 2.829213e-01 -2.876966e-01 6.167945e-01 -2.786385e-01 3.892801e-01
<VARIANCE> 39
 2.514273e+01 2.600225e+01 1.614294e+01 7.523640e+01 3.395641e+01 4.994451e+01 2.773609e+01 2.785497e+01 2.074189e+01 2.588006e+01 3.114804e+01 2.856805e+01 2.186100e+01 1.728249e+00 3.206424e+00 2.223586e+00 4.893081e+00 2.591218e+00 1.984814e+00 2.316830e+00 2.453249e+00 2.706100e+00 2.110982e+00 4.330877e+00 2.356116e+00 1.568058e+00 3.326681e-01 4.242263e-01 3.051172e-01 6.809186e-01 4.241406e-01 2.968592e-01 4.312260e-01 3.884346e-01 5.229459e-01 3.593891e-01 5.030427e-01 4.069219e-01 1.306213e-01
<GCONST> 1.148172e+02
<STATE> 4
<MEAN> 39
 -6.547052e+00 -1.043064e+00 -7.110796e+00 -2.106861e+00 -6.674366e+00 -3.260344e+00 -7.999923e+00 -2.150652e+00 -3.380185e+00 -5.518358e+00 -6.171012e+00 -3.750251e+00 4.465238e+01 -4.875439e-01 -7.231952e-02 -2.284571e-01 -4.140958e-01 -4.219049e-01 -9.284935e-03 2.502673e-01 -3.103234e-01 -4.523074e-01 2.197389e-01 3.465180e-01 1.416726e-01 -3.757016e-01 2.265771e-01 9.532920e-02 1.241866e-01 1.037639e-02 4.779086e-02 7.300059e-03 -3.151866e-02 5.702791e-02 4.400124e-02 -7.526895e-02 7.566729e-02 -5.113136e-02 2.198052e-01
<VARIANCE> 39
 5.486995e+01 3.347502e+01 1.924942e+01 2.051510e+01 1.980718e+01 1.695578e+01 2.027806e+01 2.070712e+01 2.304634e+01 1.502149e+01 2.188138e+01 1.608883e+01 2.064322e+01 1.832696e+00 1.435638e+00 1.595551e+00 1.476061e+00 1.522532e+00 1.845620e+00 1.595322e+00 1.868185e+00 2.347633e+00 1.574745e+00 1.953857e+00 1.556666e+00 6.682404e-01 2.060550e-01 1.843068e-01 2.813260e-01 2.495666e-01 3.080947e-01 3.250117e-01 3.189017e-01 3.518146e-01 4.953746e-01 3.447674e-01 3.739268e-01 3.159088e-01 1.069738e-01
<GCONST> 1.011781e+02
<TRANSP> 5
 0.000000e+00 1.000000e+00 0.000000e+00 0.000000e+00 0.000000e+00
 0.000000e+00 8.296888e-01 1.703112e-01 0.000000e+00 0.000000e+00
 0.000000e+00 0.000000e+00 7.666159e-01 2.333840e-01 0.000000e+00
 0.000000e+00 0.000000e+00 0.000000e+00 8.874573e-01 1.125427e-01
 0.000000e+00 0.000000e+00 0.000000e+00 0.000000e+00 0.000000e+00
<ENDHMM>
~h "er"
<BEGINHMM>
<NUMSTATES> 5
<STATE> 2
<MEAN> 39
 -5.346304e+00 -1.468801e+01 -9.623135e+00 -1.228549e+01 -3.679393e+00 4.812111e-01 -1.166207e+01 4.348743e+00 -2.756039e+00 -7.280804e+00 1.399976e+00 -8.497846e+00 7.408289e+01 3.508447e-01 -3.473852e-01 2.049645e-01 -2.026533e-01 -1.750257e-01 1.091092e-01 -2.093444e-01 3.227641e-01 2.600969e-01 -6.559797e-02 7.104801e-02 -3.445390e-01 9.200400e-01 -3.303364e-02 -1.588538e-04 -3.676489e-03 -2.668980e-02 -4.756182e-02 4.480556e-02 -3.373841e-03 -1.297710e-02 5.713265e-03 5.945356e-03 4.766037e-03 -8.392155e-03 -6.216700e-02
<VARIANCE> 39
 1.286339e+02 5.079547e+01 7.895080e+01 3.760892e+01 6.189970e+01 7.183832e+01 1.096437e+02 9.004854e+01 5.607924e+01 3.841392e+01 3.909480e+01 5.514149e+01 1.474688e+02 1.019169e+01 4.305696e+00 3.616804e+00 2.955575e+00 6.223375e+00 6.026656e+00 1.079400e+01 8.072560e+00 3.355922e+00 3.278158e+00 4.150490e+00 6.145907e+00 9.450806e+00 1.395166e+00 6.636876e-01 5.453821e-01 4.759418e-01 1.085294e+00 1.115338e+00 1.837330e+00 1.365389e+00 5.479569e-01 6.068979e-01 7.758502e-01 1.101818e+00 9.204724e-01
<GCONST> 1.468706e+02
<STATE> 3
<MEAN> 39
 3.765440e+00 -2.017122e+01 -4.687763e+00 -1.666777e+01 -1.503317e+01 1.406175e+01 -1.602565e+01 4.638859e+00 -1.564963e+00 -7.446151e+00 3.138195e+00 -1.637558e+01 7.576789e+01 6.473321e-01 2.150603e-01 -5.517841e-01 -5.117061e-01 6.588577e-02 2.205134e+00 5.804068e-01 -1.050797e+00 -1.095961e+00 1.409250e-02 6.992429e-01 8.753002e-01 -1.064629e+00 -1.778319e-02 3.509214e-01 8.148715e-02 2.911313e-01 1.480462e-01 -6.055269e-01 2.245924e-01 -1.651386e-01 6.698713e-02 -7.148175e-02 -1.716450e-01 4.909568e-01 -2.746627e-01
<VARIANCE> 39
 1.063100e+01 1.819046e+01 4.004203e+01 6.024262e+01 4.212899e+01 1.038345e+02 2.348697e+01 7.291172e+01 2.323734e+01 5.925883e+01 2.456791e+01 3.085641e+01 3.014592e+01 7.688616e-01 1.227596e+00 1.117984e+00 2.706522e+00 1.870744e+00 6.465979e+00 2.233512e+00 3.618061e+00 1.796274e+00 1.919526e+00 2.665102e+00 2.381279e+00 1.347751e+00 1.620566e-01 2.758863e-01 1.308228e-01 3.466807e-01 4.148160e-01 7.483411e-01 5.002276e-01 7.876374e-01 3.280674e-01 3.743688e-01 4.209281e-01 7.510377e-01 3.001220e-01
<GCONST> 1.140856e+02
<STATE> 4
<MEAN> 39
 8.623051e+00 -1.399812e+01 -7.147446e+00 -9.405593e+00 -1.534358e+01 1.270756e+01 -1.003661e+01 -4.634620e+00 -5.220417e+00 -6.065898e+00 2.052269e+00 -8.441020e+00 6.754778e+01 -1.305341e-01 6.845548e-01 -3.291601e-01 1.882075e+00 9.441222e-01 -1.933936e+00 1.062208e+00 -6.099899e-01 3.530667e-01 1.342146e-01 -8.542191e-01 1.165178e+00 -9.600175e-01 -4.890411e-01 -8.524477e-02 1.615100e-01 6.660206e-02 4.839937e-01 -4.864782e-01 7.577982e-03 3.185212e-01 2.808475e-01 -8.407694e-02 -1.304129e-01 -5.055058e-02 1.887401e-01
<VARIANCE> 39
 8.470488e+00 1.771942e+01 9.246157e+01 1.296696e+02 2.718838e+01 1.096766e+02 2.272489e+01 1.878629e+01 1.098560e+01 8.459034e+01 1.907104e+01 3.141365e+01 1.375227e+01 1.599125e+00 1.191241e+00 1.508862e+00 3.340656e+00 4.664824e+00 5.516572e+00 1.408488e+00 3.372615e+00 1.425308e+00 1.876300e+00 1.241844e+00 1.264841e+00 6.870064e-01 4.473691e-01 2.123561e-01 2.947522e-01 6.319128e-01 5.540736e-01 3.534497e-01 2.131709e-01 4.130806e-01 1.737586e-01 3.749444e-01 2.105413e-01 2.839504e-01 1.896021e-01
<GCONST> 1.088103e+02
<TRANSP> 5
 0.000000e+00 1.000000e+00 0.000000e+00 0.000000e+00 0.000000e+00
 0.000000e+00 9.751205e-01 2.487942e-02 0.000000e+00 0.000000e+00
 0.000000e+00 0.000000e+00 8.510615e-01 1.489385e-01 0.000000e+00
 0.000000e+00 0.000000e+00 0.000000e+00 8.561133e-01 1.438867e-01
 0.000000e+00 0.000000e+00 0.000000e+00 0.000000e+00 0.000000e+00
<ENDHMM>
~h "iu"
<BEGINHMM>
<NUMSTATES> 5
<STATE> 2
<MEAN> 39
 4.708118e+00 -1.250234e+01 -3.414454e+00 -2.357535e+01 -1.355880e+01 1.299342e+01 -1.758495e+01 -7.675251e+00 -2.243506e+00 -2.525804e+00 9.262148e+00 -9.178968e+00 7.849131e+01 4.947118e-01 7.292230e-01 -3.492608e-01 -3.329533e+00 -9.638758e-01 3.584728e+00 1.551884e+00 -2.844291e-01 3.294244e-01 -1.405826e+00 -1.123158e+00 2.098593e+00 -4.744995e-01 -8.989161e-02 3.744254e-01 -5.835130e-02 6.746218e-01 5.179067e-02 -1.024341e+00 -8.300515e-02 8.016298e-01 4.813501e-01 -1.148869e+00 -5.424126e-01 6.534901e-01 -2.752198e-01
<VARIANCE> 39
 3.541423e+00 1.565998e+01 7.802569e+00 2.524327e+01 4.566754e+01 4.693580e+01 3.557896e+01 3.085567e+01 1.927065e+01 3.619291e+01 4.322808e+01 6.015814e+01 3.634416e+00 1.455715e-01 3.922908e-01 2.751248e-01 2.777284e+00 9.456590e-01 3.101821e+00 1.813904e+00 4.866451e+00 2.167610e+00 4.766011e+00 3.486945e+00 3.307377e+00 3.967285e-01 5.531459e-02 8.396491e-02 8.707125e-02 1.647821e-01 1.687895e-01 3.179324e-01 4.166438e-01 5.680440e-01 3.344392e-01 1.058815e+00 5.385285e-01 8.728589e-01 6.013236e-02
<GCONST> 9.673974e+01
<STATE> 3
<MEAN> 39
 6.172691e+00 -8.285558e+00 -4.470825e+00 -2.912328e+01 -1.723139e+01 1.825534e+01 -1.330707e+01 -3.526570e+00 2.014574e+00 -1.220452e+01 3.148493e+00 -1.981139e+00 7.554430e+01 1.844072e-01 9.663088e-01 -2.780153e-01 3.956458e-01 -1.144455e+00 5.059181e-01 2.996373e-01 1.120265e+00 1.360528e+00 -2.291935e+00 -7.854177e-01 6.164635e-01 -7.925498e-01 -7.983917e-02 -2.142648e-01 3.693360e-02 6.632122e-01 1.256068e-01 -4.851886e-01 -1.624212e-01 -6.251095e-02 -8.904749e-02 3.140496e-01 4.474543e-01 -6.086932e-01 5.402803e-02
<VARIANCE> 39
 3.916931e+00 1.760065e+01 6.438663e+00 2.110758e+01 5.667449e+01 3.177380e+01 3.424021e+01 1.708569e+01 4.851718e+01 7.510011e+01 1.187910e+01 6.134503e+01 5.570597e+00 2.220815e-01 5.327858e-01 3.055614e-01 2.295906e+00 5.485973e-01 5.539143e-01 8.433465e-01 1.038344e+00 2.296555e+00 4.994743e+00 1.243587e+00 2.200895e+00 1.973620e-01 5.674880e-02 1.152392e-01 4.139222e-02 1.176113e-01 2.156349e-01 3.369853e-01 2.764427e-01 1.568190e-01 2.210388e-01 3.049476e-01 2.533997e-01 2.259105e-01 1.764335e-02
<GCONST> 8.350076e+01
<STATE> 4
<MEAN> 39
 6.353477e+00 -3.206861e+00 -5.252047e+00 -2.384172e+01 -2.399868e+01 1.690940e+01 -1.501460e+01 2.758744e+00 9.712936e+00 -2.397976e+01 1.108679e+01 -9.347046e+00 7.231800e+01 8.722199e-02 2.630267e-01 -4.256134e-02 7.234181e-01 2.934394e-01 -8.104072e-01 2.335915e-01 1.673788e-01 8.597866e-02 2.028098e-01 9.174423e-01 -1.497195e+00 -8.175262e-01 -5.127199e-03 5.340167e-02 3.844193e-02 -3.302400e-02 2.305664e-01 -1.259056e-01 4.654815e-02 -1.031311e-01 -1.061269e-01 2.752880e-01 -8.338272e-02 8.965359e-02 -1.361952e-01
<VARIANCE> 39
 3.314012e+00 8.912466e+00 4.048411e+00 2.646059e+01 1.373917e+01 2.078926e+01 2.066041e+01 1.217699e+01 2.407714e+01 2.907438e+01 3.395483e+01 6.859795e+01 1.238598e+01 2.436240e-01 2.851128e-01 2.858621e-01 6.000151e-01 8.870407e-01 6.892799e-01 4.685987e-01 6.669764e-01 7.018840e-01 1.104217e+00 6.864321e-01 1.119367e+00 4.174874e-01 5.490595e-02 6.667633e-02 4.913015e-02 7.777076e-02 1.416018e-01 1.990984e-01 1.179633e-01 9.543398e-02 1.707233e-01 1.634241e-01 2.180806e-01 2.057658e-01 4.500030e-02
<GCONST> 7.124655e+01
<TRANSP> 5
 0.000000e+00 1.000000e+00 0.000000e+00 0.000000e+00 0.000000e+00
 0.000000e+00 7.107486e-01 2.892514e-01 0.000000e+00 0.000000e+00
 0.000000e+00 0.000000e+00 7.134488e-01 2.865512e-01 0.000000e+00
 0.000000e+00 0.000000e+00 0.000000e+00 8.867494e-01 1.132505e-01
 0.000000e+00 0.000000e+00 0.000000e+00 0.000000e+00 0.000000e+00
<ENDHMM>
~h "sh"
<BEGINHMM>
<NUMSTATES> 5
<STATE> 2
<MEAN> 39
 -9.909422e+00 -1.099142e+01 3.650770e-01 1.486567e+00 -8.657481e+00 -1.179972e+01 -2.905815e+00 3.140340e+00 -4.910466e+00 -1.118945e+01 -3.600966e+00 -7.447816e+00 7.473616e+01 -6.960201e-01 -1.861981e-01 -5.148948e-01 -1.137398e+00 6.445411e-01 1.015163e-01 -7.381553e-02 8.201541e-01 7.088127e-01 -2.922200e-01 -6.767813e-02 -1.467912e-01 9.700387e-01 3.016054e-02 -4.520935e-02 -1.339571e-03 -1.706891e-01 9.139495e-02 3.351182e-01 -1.427454e-01 -3.355535e-01 9.661873e-02 1.521089e-01 -8.216301e-02 1.742276e-02 8.427592e-03
<VARIANCE> 39
 1.623209e+02 3.320382e+01 3.692151e+01 7.008382e+01 3.698571e+01 3.067043e+01 4.713139e+01 3.771032e+01 3.613089e+01 2.961694e+01 3.755829e+01 2.359330e+01 3.204032e+01 1.771057e+01 4.064867e+00 4.001914e+00 3.829437e+00 4.690676e+00 5.691591e+00 6.125222e+00 5.700650e+00 3.817926e+00 5.000555e+00 4.653789e+00 2.248770e+00 1.384276e+00 2.502284e+00 7.030218e-01 6.257921e-01 5.416831e-01 8.619053e-01 4.992735e-01 1.000169e+00 7.539999e-01 6.123102e-01 8.719122e-01 7.580700e-01 4.385927e-01 2.345893e-01
<GCONST> 1.345190e+02
<STATE> 3
<MEAN> 39
 -2.151543e+00 -1.600762e+01 -9.278027e+00 -9.046172e+00 -2.220154e+00 6.230483e+00 -1.641184e+01 2.291916e+00 1.061571e+01 -1.747078e+01 -6.747200e+00 -1.372720e+01 7.503337e+01 1.847375e-01 2.250519e-01 -1.676642e-01 7.251316e-01 3.585888e-01 2.186081e-01 1.048720e-01 1.284568e-01 1.517770e-02 -9.977815e-02 -1.155519e-01 2.593847e-01 -1.393628e+00 4.342856e-02 5.564138e-02 2.690859e-02 6.263980e-02 -7.380846e-02 -2.005726e-01 9.514935e-02 7.311574e-02 -1.577461e-01 5.483368e-02 6.509915e-02 3.102201e-02 -9.826057e-02
<VARIANCE> 39
 1.730734e+01 2.042458e+01 1.683999e+01 5.153909e+01 1.969486e+01 2.605940e+01 4.312910e+01 2.604115e+01 2.045256e+01 3.712554e+01 4.726634e+01 5.447212e+01 1.321070e+02 1.188570e+00 1.643723e+00 1.435371e+00 1.670382e+00 1.843210e+00 2.627362e+00 3.405564e+00 2.253764e+00 2.023811e+00 2.830468e+00 4.247891e+00 4.901697e+00 1.645233e+00 2.143159e-01 3.281091e-01 2.333326e-01 3.195482e-01 3.272623e-01 3.489895e-01 4.089905e-01 3.717771e-01 3.347170e-01 3.955932e-01 7.928450e-01 6.816260e-01 1.988906e-01
<GCONST> 1.138280e+02
<STATE> 4
<MEAN> 39
 -6.696537e+00 -3.798763e+00 -8.822427e+00 -1.506758e+00 -2.000442e+00 -1.489772e+00 -5.769379e+00 -7.911748e-02 -2.068912e-01 -6.787806e+00 -6.992714e+00 -4.367802e+00 5.042877e+01 -6.540005e-01 6.436725e-01 3.957113e-01 -1.629118e-01 -4.886984e-01 -3.761369e-01 2.072313e-01 -5.160986e-01 -6.479275e-01 6.280748e-01 5.689735e-01 1.020871e-01 -4.580088e-01 1.846624e-02 -4.894271e-02 6.467304e-02 -3.980360e-02 -5.345429e-02 2.424836e-02 -7.562561e-02 2.229076e-02 7.263491e-02 -7.899392e-02 5.268670e-02 -6.785199e-02 1.104457e-01
<VARIANCE> 39
 8.707161e+01 5.107206e+01 3.845335e+01 2.388877e+01 3.521695e+01 4.160593e+01 3.330938e+01 3.232972e+01 3.183990e+01 2.589704e+01 3.664537e+01 1.511671e+01 7.251129e+01 3.316800e+00 3.065718e+00 2.367032e+00 2.150374e+00 2.326671e+00 2.934802e+00 2.929108e+00 2.449771e+00 2.259654e+00 1.597649e+00 2.003305e+00 1.601931e+00 1.062750e+00 4.865841e-01 4.535996e-01 4.531724e-01 4.427732e-01 4.562007e-01 5.315976e-01 5.874143e-01 4.416468e-01 4.003712e-01 2.662298e-01 3.680343e-01 3.187148e-01 1.443828e-01
<GCONST> 1.166361e+02
<TRANSP> 5
 0.000000e+00 1.000000e+00 0.000000e+00 0.000000e+00 0.000000e+00
 0.000000e+00 9.432180e-01 5.678205e-02 0.000000e+00 0.000000e+00
 0.000000e+00 0.000000e+00 9.517975e-01 4.820248e-02 0.000000e+00
 0.000000e+00 0.000000e+00 0.000000e+00 9.279821e-01 7.201791e-02
 0.000000e+00 0.000000e+00 0.000000e+00 0.000000e+00 0.000000e+00
<ENDHMM>
~h "si"
<BEGINHMM>
<NUMSTATES> 5
<STATE> 2
<MEAN> 39
 -1.245553e+01 -1.671738e+00 -5.784009e+00 -8.699944e+00 -1.155926e+00 -6.010617e+00 -9.341597e+00 -9.454129e+00 -7.433587e-02 -4.966382e+00 7.508618e-01 -5.402731e+00 6.789129e+01 1.724417e-01 -3.508668e-01 2.800512e-01 -1.802559e-01 -2.524732e-01 2.562192e-01 -4.882589e-01 3.764512e-02 4.792348e-02 1.155999e-02 1.860921e-01 -4.091151e-01 4.074916e-01 5.718678e-02 -6.939191e-02 -9.963753e-03 1.483703e-02 -6.529171e-02 5.352680e-02 -4.543111e-02 5.515508e-02 1.070623e-02 -2.248274e-02 -2.469236e-02 -5.031497e-02 -1.963739e-02
<VARIANCE> 39
 1.588187e+02 3.151424e+01 4.491504e+01 7.003880e+01 2.622239e+01 3.427518e+01 1.521398e+02 8.780132e+01 4.149444e+01 1.678302e+01 2.347058e+01 3.865530e+01 4.284725e+01 9.563388e+00 3.078135e+00 2.248839e+00 5.035384e+00 2.562357e+00 2.644611e+00 7.672932e+00 6.306665e+00 3.870018e+00 1.848963e+00 2.047303e+00 2.508213e+00 2.621728e+00 9.729928e-01 5.397573e-01 3.788152e-01 7.251585e-01 4.259033e-01 5.390691e-01 1.075061e+00 9.861596e-01 6.270127e-01 3.742951e-01 3.765958e-01 4.431826e-01 3.258146e-01
<GCONST> 1.301236e+02
<STATE> 3
<MEAN> 39
 1.825081e+00 -1.493061e+01 2.973307e+00 -9.207369e+00 -1.643298e+01 1.367514e+00 -1.731099e+01 3.617339e+00 -1.104132e+00 -1.129432e+01 2.521911e+00 -1.751924e+01 7.343715e+01 2.266863e-02 -4.009261e-01 -5.369148e-01 -3.277321e-01 2.448879e-01 1.093183e+00 6.061317e-01 -9.294084e-02 1.774507e-01 -3.834233e-01 -3.243091e-01 2.876337e-01 -1.182655e-01 -9.375960e-03 1.695709e-01 -5.210653e-03 -6.219436e-02 1.749668e-01 9.815475e-02 7.211530e-02 -2.560879e-01 -1.294586e-01 4.501291e-02 3.981623e-02 3.042836e-01 -1.857926e-01
<VARIANCE> 39
 1.572760e+01 1.683048e+01 5.447451e+01 5.471596e+01 4.896464e+01 6.578153e+01 2.542946e+01 1.050682e+02 7.483260e+01 4.119956e+01 3.265921e+01 3.613492e+01 3.220294e+01 1.419564e+00 1.232411e+00 2.684247e+00 4.280605e+00 4.351073e+00 4.649071e+00 1.431530e+00 8.479334e+00 3.852431e+00 2.608384e+00 2.417964e+00 4.316723e+00 2.346789e+00 2.501709e-01 3.411199e-01 2.922802e-01 6.125099e-01 5.901985e-01 5.433736e-01 4.987197e-01 9.240016e-01 5.420963e-01 3.841802e-01 4.325489e-01 6.400717e-01 3.477130e-01
<GCONST> 1.238100e+02
<STATE> 4
<MEAN> 39
 4.823810e+00 -1.298417e+01 -3.819280e+00 -1.381226e+01 -8.403093e+00 1.211405e+01 -1.390504e+01 -5.565745e+00 -1.620585e+00 -1.264088e+01 -6.662676e-01 -8.008383e+00 6.845696e+01 2.153055e-01 9.029741e-01 -4.282902e-01 6.198323e-01 7.316589e-02 -2.065214e-01 5.048600e-01 -4.322509e-01 -4.528562e-01 -3.255826e-01 -2.380168e-01 9.602649e-01 -1.229352e+00 -2.130807e-01 -4.678737e-03 -9.657606e-02 2.195855e-01 1.093192e-01 -4.997560e-01 -4.317187e-03 3.429524e-01 1.997330e-01 -1.227018e-02 -1.384719e-01 -1.074135e-01 4.326687e-02
<VARIANCE> 39
 9.789721e+00 2.343941e+01 8.296207e+01 1.529508e+02 3.561669e+01 1.339239e+02 3.675560e+01 3.674542e+01 2.231749e+01 3.969265e+01 2.687238e+01 6.174301e+01 4.408442e+01 5.729701e-01 8.428451e-01 1.042439e+00 3.336939e+00 1.464447e+00 3.036152e+00 1.755768e+00 3.435286e+00 1.729964e+00 1.050165e+00 1.196834e+00 1.451973e+00 6.654534e-01 1.389967e-01 1.609946e-01 1.550305e-01 2.642155e-01 4.374401e-01 3.539094e-01 3.607457e-01 6.280124e-01 2.473301e-01 2.037531e-01 1.792459e-01 2.119064e-01 1.319931e-01
<GCONST> 1.061481e+02
<TRANSP> 5
 0.000000e+00 1.000000e+00 0.000000e+00 0.000000e+00 0.000000e+00
 0.000000e+00 9.733728e-01 2.662718e-02 0.000000e+00 0.000000e+00
 0.000000e+00 0.000000e+00 9.193028e-01 8.069711e-02 0.000000e+00
 0.000000e+00 0.000000e+00 0.000000e+00 8.675491e-01 1.324509e-01
 0.000000e+00 0.000000e+00 0.000000e+00 0.000000e+00 0.000000e+00
<ENDHMM>
~h "wu"
<BEGINHMM>
<NUMSTATES> 5
<STATE> 2
<MEAN> 39
 1.261544e+00 3.403013e+00 -2.159388e+00 -1.080864e+01 -1.332623e+01 -3.255970e+00 -1.016331e+01 -5.370053e+00 -4.178650e-01 -1.011078e+01 -9.662341e-01 -4.652434e+00 6.172884e+01 1.672348e-01 -3.548179e-01 -2.154940e-02 -2.707521e-01 -2.562154e-01 -1.213405e-01 -1.123586e-01 -2.487224e-01 2.343488e-01 -1.625270e-01 1.845893e-01 -1.569443e-01 9.239939e-01 -2.105584e-02 -1.393779e-01 -2.834554e-02 6.740915e-03 7.103201e-03 9.635313e-02 -5.682157e-02 -1.089106e-02 4.175066e-02 -5.439596e-03 4.439726e-02 -9.192728e-02 5.394233e-02
<VARIANCE> 39
 1.815361e+02 5.835601e+01 3.580944e+01 8.289793e+01 7.327879e+01 3.701090e+01 3.926250e+01 2.478990e+01 2.882001e+01 4.435032e+01 2.679129e+01 1.651433e+01 6.207420e+01 1.004234e+01 3.625477e+00 3.521232e+00 7.140172e+00 6.717569e+00 3.493902e+00 3.246674e+00 2.341597e+00 3.322392e+00 4.459989e+00 3.162965e+00 1.878399e+00 4.144464e+00 1.067033e+00 5.537087e-01 6.788341e-01 1.199344e+00 1.224009e+00 6.241153e-01 6.285576e-01 4.459259e-01 5.347421e-01 8.335954e-01 5.744650e-01 3.826782e-01 4.274502e-01
<GCONST> 1.335583e+02
<STATE> 3
<MEAN> 39
 3.494352e+00 -9.683509e+00 5.092007e-01 -1.394894e+00 -1.513461e+01 -1.719397e+00 -1.501661e+01 -7.786482e+00 8.194004e-01 -1.262157e+01 -1.585432e-01 -7.761205e+00 7.315198e+01 6.441445e-02 -2.826463e-01 8.762027e-02 -6.185099e-02 -7.944579e-02 2.237347e-01 -5.103355e-01 3.069028e-01 -7.267225e-02 8.640451e-02 2.960987e-01 -1.890996e-01 5.432294e-01 -1.476433e-01 4.640253e-02 -5.746952e-02 -1.156614e-01 8.337338e-03 5.838472e-02 1.859163e-01 -7.645089e-02 -1.270365e-01 1.150263e-01 -4.647946e-02 5.479753e-02 -1.019612e-01
<VARIANCE> 39
 4.195856e+01 2.027082e+01 4.051757e+01 9.319478e+01 7.005927e+01 4.337742e+01 5.883535e+01 8.105657e+01 7.325960e+01 4.885905e+01 6.922277e+01 6.025113e+01 6.426920e+01 3.172238e+00 1.445174e+00 3.286704e+00 5.494099e+00 6.605966e+00 4.970573e+00 5.591804e+00 7.266840e+00 5.450415e+00 4.593354e+00 7.447248e+00 4.433890e+00 4.578983e+00 5.713678e-01 2.330391e-01 4.546039e-01 6.427606e-01 1.131445e+00 8.525921e-01 1.038872e+00 1.137724e+00 8.140132e-01 5.995707e-01 1.204059e+00 6.049817e-01 5.413256e-01
<GCONST> 1.389185e+02
<STATE> 4
<MEAN> 39
 2.417043e+00 -1.176589e+01 -1.951905e+00 -1.373440e+01 -1.477435e+01 6.265852e+00 -1.324844e+01 -5.763706e+00 -1.061756e+00 -8.184759e+00 3.107319e+00 -1.002792e+01 7.685929e+01 1.912489e-01 1.331570e-01 -1.174834e-01 -5.062061e-01 3.260310e-01 9.842660e-01 6.858657e-01 -2.038309e-01 -6.623955e-02 -3.591467e-01 -7.302445e-01 6.509479e-01 -4.309282e-01 -3.183374e-02 5.069546e-02 -1.926561e-02 2.121419e-01 1.557062e-01 -2.004543e-01 -1.600757e-01 2.082645e-01 1.780844e-01 -2.880270e-01 -8.647904e-02 1.499300e-01 -1.427746e-01
<VARIANCE> 39
 2.352065e+01 2.932594e+01 4.386252e+01 1.394076e+02 5.289057e+01 5.740117e+01 8.354659e+01 1.001388e+02 4.557247e+01 5.911961e+01 5.844670e+01 8.240192e+01 5.388805e+01 1.029058e+00 1.373728e+00 1.269192e+00 5.999674e+00 3.721575e+00 5.955989e+00 5.032474e+00 5.969510e+00 4.265427e+00 5.934330e+00 3.599057e+00 3.622526e+00 1.457655e+00 2.741627e-01 1.933784e-01 1.858552e-01 3.632505e-01 6.087171e-01 7.025743e-01 7.916963e-01 9.132187e-01 7.306430e-01 1.035697e+00 7.700843e-01 8.096318e-01 2.264239e-01
<GCONST> 1.303582e+02
<TRANSP> 5
 0.000000e+00 1.000000e+00 0.000000e+00 0.000000e+00 0.000000e+00
 0.000000e+00 9.587839e-01 4.121617e-02 0.000000e+00 0.000000e+00
 0.000000e+00 0.000000e+00 9.433972e-01 5.660272e-02 0.000000e+00
 0.000000e+00 0.000000e+00 0.000000e+00 9.151028e-01 8.489721e-02
 0.000000e+00 0.000000e+00 0.000000e+00 0.000000e+00 0.000000e+00
<ENDHMM>
~h "yi"
<BEGINHMM>
<NUMSTATES> 5
<STATE> 2
<MEAN> 39
 -1.222135e+01 7.586839e+00 2.014735e+01 -8.409803e+00 -1.645368e+01 -3.613407e+00 -5.747836e+00 -1.452921e+01 -5.399246e+00 -1.686509e+01 5.476623e+00 -8.277359e+00 6.700977e+01 -6.609105e-02 8.272132e-02 9.807694e-01 -3.740694e-01 -4.844313e-01 -2.024685e-01 2.187838e-01 -6.816704e-01 -1.375723e-01 -3.191065e-01 1.369132e-01 -3.499585e-02 1.422685e+00 -3.226750e-02 -1.651715e-01 -3.731311e-01 4.952583e-02 1.881590e-01 -2.477314e-02 8.531414e-02 1.615080e-01 -9.158472e-03 2.914478e-01 -1.230358e-01 9.087168e-02 -1.922845e-01
<VARIANCE> 39
 1.177938e+01 1.183964e+01 5.114777e+01 1.154559e+01 3.110289e+01 1.631530e+01 1.185208e+01 3.012995e+01 1.610962e+01 2.357373e+01 2.542906e+01 1.034119e+01 6.613238e+01 1.284212e+00 2.026142e+00 7.452824e+00 1.361228e+00 4.916190e+00 9.259520e-01 9.224445e-01 4.130077e+00 1.627600e+00 4.411561e+00 2.270371e+00 8.570762e-01 5.251215e+00 2.139047e-01 2.478216e-01 1.053968e+00 2.682368e-01 6.388981e-01 1.766503e-01 1.841167e-01 6.258836e-01 3.111196e-01 5.436553e-01 2.958751e-01 1.363365e-01 6.651022e-01
<GCONST> 1.072904e+02
<STATE> 3
<MEAN> 39
 -1.294946e+01 -1.920664e+00 8.368407e+00 -8.111564e+00 -1.053369e+01 -5.928941e+00 -4.319856e+00 -9.613378e+00 -5.588128e+00 -7.531930e+00 2.920302e+00 -7.102695e+00 6.936519e+01 -4.888128e-01 -1.047457e+00 -1.554426e+00 -9.343460e-03 7.298672e-02 3.645084e-02 -1.331613e-01 1.366535e+00 4.480856e-01 4.568266e-01 -4.470944e-02 1.007665e-01 6.639589e-02 1.405325e-01 -5.501890e-02 5.863921e-02 -4.624462e-02 -1.313177e-01 4.265609e-02 -1.345987e-01 3.999773e-02 1.448892e-01 -1.746544e-01 -1.865245e-02 -1.009386e-01 1.226025e-01
<VARIANCE> 39
 1.844644e+02 6.794870e+01 3.940073e+01 7.044136e+01 1.550470e+02 1.601141e+01 3.527940e+01 7.442329e+01 1.310423e+01 3.570530e+01 3.075423e+01 3.563998e+01 3.341574e+01 5.934029e+00 1.579611e+00 3.272393e+00 4.424414e+00 7.149841e+00 1.537886e+00 3.082597e+00 3.657794e+00 1.530982e+00 2.904015e+00 2.330204e+00 1.609132e+00 2.797938e+00 8.696740e-01 3.242083e-01 5.375493e-01 5.756362e-01 1.256889e+00 2.848783e-01 6.488211e-01 5.740783e-01 3.899812e-01 3.943214e-01 4.661798e-01 2.331340e-01 3.712853e-01
<GCONST> 1.254261e+02
<STATE> 4
<MEAN> 39
 -1.704542e+00 -1.247277e+01 -6.714845e+00 -1.613357e+01 -1.340625e+01 4.293128e+00 -5.665866e+00 -4.647800e+00 2.963938e+00 -7.344946e+00 2.022967e+00 -1.314098e+01 7.696384e+01 1.422939e+00 -4.694629e-01 -8.750166e-01 3.614289e-01 5.563455e-01 7.063466e-01 -2.021261e-01 -3.396444e-01 2.970530e-01 5.554520e-02 -2.643085e-01 -3.927030e-01 -1.337297e-01 -1.710933e-01 1.163616e-01 1.374831e-01 1.040823e-01 2.780747e-01 -9.339240e-02 -2.987629e-02 1.285259e-03 -5.479275e-02 1.668651e-01 1.589470e-02 7.582778e-02 -7.403462e-02
<VARIANCE> 39
 1.089487e+02 3.265650e+01 4.145291e+01 5.264212e+01 3.796054e+01 9.509581e+01 4.054645e+01 7.910538e+01 1.706285e+01 3.390715e+01 6.017727e+01 5.007112e+01 3.914193e+01 5.668151e+00 1.780401e+00 3.255441e+00 8.699182e+00 7.209099e+00 9.908486e+00 2.654633e+00 4.182022e+00 2.399329e+00 4.432325e+00 7.603396e+00 3.591646e+00 3.831453e+00 1.272380e+00 3.138334e-01 5.608203e-01 1.197101e+00 1.103819e+00 1.351531e+00 5.637273e-01 9.798355e-01 5.334825e-01 7.802567e-01 1.443034e+00 5.168637e-01 5.577316e-01
<GCONST> 1.379274e+02
<TRANSP> 5
 0.000000e+00 1.000000e+00 0.000000e+00 0.000000e+00 0.000000e+00
 0.000000e+00 9.449129e-01 5.508708e-02 0.000000e+00 0.000000e+00
 0.000000e+00 0.000000e+00 9.139054e-01 8.609460e-02 0.000000e+00
 0.000000e+00 0.000000e+00 0.000000e+00 8.962775e-01 1.037224e-01
 0.000000e+00 0.000000e+00 0.000000e+00 0.000000e+00 0.000000e+00
<ENDHMM>
~h "zh"
<BEGINHMM>
<NUMSTATES> 5
<STATE> 2
<MEAN> 39
 -6.355043e+00 -1.722317e+00 -8.210526e+00 -6.983638e+00 -1.020603e+01 -4.149273e-01 -5.858305e+00 -1.767603e+00 -4.648744e+00 -6.544581e+00 -3.128074e+00 -2.799057e+00 4.477446e+01 -7.437306e-01 -6.420185e-01 -4.874340e-01 1.774234e-01 -8.968583e-02 -5.178413e-01 5.087351e-02 -8.430859e-02 -1.437298e-01 2.980824e-01 -1.976621e-01 1.107813e-01 -4.778150e-01 1.970835e-01 2.086696e-01 3.036361e-01 1.939331e-01 2.036613e-01 2.096681e-01 -1.483195e-01 -9.231617e-02 4.608278e-02 4.287707e-03 9.251830e-02 -1.322279e-01 1.143140e-01
<VARIANCE> 39
 3.104543e+01 3.566849e+01 1.974291e+01 3.721599e+01 1.421764e+01 2.082363e+01 1.716146e+01 2.364916e+01 2.655796e+01 1.821835e+01 2.858195e+01 3.394437e+01 4.913363e+00 1.557199e+00 1.819679e+00 1.876954e+00 1.513675e+00 1.219782e+00 2.458097e+00 1.541330e+00 2.343832e+00 2.825820e+00 1.374819e+00 2.766203e+00 2.236542e+00 4.828257e-01 9.758946e-02 2.248089e-01 3.897356e-01 3.692452e-01 3.040975e-01 4.855345e-01 2.771380e-01 4.690927e-01 5.976222e-01 2.969557e-01 6.544690e-01 5.215517e-01 3.831719e-02
<GCONST> 1.027770e+02
<STATE> 3
<MEAN> 39
 -6.146399e+00 3.622148e-01 -7.002953e+00 -6.694975e+00 -1.180925e+01 -1.335260e+00 -6.375462e+00 -2.432183e+00 -2.647629e+00 -4.382588e+00 -5.561250e+00 -3.731627e+00 4.394545e+01 -5.283267e-01 -3.007459e-01 1.247980e-01 5.575926e-01 2.177782e-01 -7.627748e-02 -2.722929e-01 -3.970147e-01 -1.851514e-01 2.550832e-01 4.292400e-02 1.010131e-01 -3.711158e-01 1.138532e-01 1.281852e-01 1.620715e-01 1.407501e-01 1.506185e-01 6.527562e-02 -1.694956e-01 -1.979116e-01 -8.977003e-02 -7.582633e-02 1.323052e-01 4.540571e-02 6.829356e-02
<VARIANCE> 39
 2.831358e+01 2.327618e+01 3.374094e+01 1.936064e+01 1.510276e+01 1.531595e+01 1.979945e+01 2.417405e+01 1.906410e+01 2.053408e+01 1.726385e+01 2.301231e+01 6.790737e+00 9.068150e-01 7.143416e-01 7.176724e-01 1.164010e+00 1.286708e+00 1.266827e+00 1.222576e+00 1.871353e+00 2.018761e+00 2.051115e+00 1.706952e+00 1.190229e+00 2.944836e-01 1.118887e-01 1.256693e-01 1.661897e-01 1.787719e-01 2.136253e-01 2.390920e-01 2.790093e-01 3.736281e-01 4.269361e-01 4.099019e-01 2.977676e-01 2.613947e-01 3.047924e-02
<GCONST> 9.094118e+01
<STATE> 4
<MEAN> 39
 -1.073740e+01 -1.673838e+00 -7.536025e+00 -3.143070e+00 -7.754770e+00 -3.189720e-01 -7.705906e+00 -4.797816e+00 -5.133961e+00 -4.158193e+00 -3.872885e+00 -4.497532e+00 4.100197e+01 -3.914811e-01 -1.018849e-01 1.554154e-01 7.434683e-01 4.801849e-01 -1.417426e-01 -4.004038e-01 -7.272740e-01 -3.222611e-01 6.059347e-02 1.212038e-01 2.147509e-01 -2.736599e-01 1.107826e-01 6.650106e-02 -1.663108e-02 -1.237031e-01 -1.100979e-01 -6.491067e-02 5.453807e-02 1.419732e-01 9.977489e-02 1.929456e-02 -2.577679e-02 1.918470e-02 5.127333e-02
<VARIANCE> 39
 8.581882e+00 1.311330e+01 2.023490e+01 2.208673e+01 1.977720e+01 1.265204e+01 1.441545e+01 1.774997e+01 1.219427e+01 2.131796e+01 1.662867e+01 1.671070e+01 3.634416e+00 4.462881e-01 7.001128e-01 1.067098e+00 1.710722e+00 1.085269e+00 1.008876e+00 1.730867e+00 1.613951e+00 1.705311e+00 1.941777e+00 1.418723e+00 1.320038e+00 1.584353e-01 8.651436e-02 1.450399e-01 1.999063e-01 2.365226e-01 2.300019e-01 1.811193e-01 2.398270e-01 2.804626e-01 3.371663e-01 3.305278e-01 2.971796e-01 2.367638e-01 2.990571e-02
<GCONST> 8.492162e+01
<TRANSP> 5
 0.000000e+00 1.000000e+00 0.000000e+00 0.000000e+00 0.000000e+00
 0.000000e+00 7.581208e-01 2.418792e-01 0.000000e+00 0.000000e+00
 0.000000e+00 0.000000e+00 7.416593e-01 2.583407e-01 0.000000e+00
 0.000000e+00 0.000000e+00 0.000000e+00 7.234623e-01 2.765377e-01
 0.000000e+00 0.000000e+00 0.000000e+00 0.000000e+00 0.000000e+00
<ENDHMM>
~h "eng"
<BEGINHMM>
<NUMSTATES> 5
<STATE> 2
<MEAN> 39
 3.385799e+00 -5.355931e+00 -9.551210e+00 -1.300803e+01 -1.245984e+01 1.232039e+01 -1.670219e+01 -3.247086e+00 9.379783e-01 -2.350898e+01 1.746777e+01 -1.540424e+01 7.296169e+01 3.650714e-01 -5.019382e-03 5.687692e-01 7.741287e-01 3.907296e-02 -6.106629e-01 7.874041e-01 -2.556433e-01 -5.600638e-01 8.211982e-01 -1.196081e+00 -6.382380e-02 -1.260972e+00 -3.085306e-02 6.802493e-02 7.033522e-02 -5.402527e-02 1.520022e-01 -2.550883e-02 1.842606e-02 1.790769e-02 -5.914298e-02 1.954584e-01 -3.115878e-01 2.082214e-01 -1.522182e-01
<VARIANCE> 39
 1.431561e+01 1.455793e+01 2.547500e+01 3.401318e+01 1.954558e+01 2.903129e+01 3.377018e+01 4.561381e+01 2.555377e+01 6.903239e+01 7.420891e+01 1.698482e+01 3.098497e+01 5.050932e-01 1.054750e+00 1.093748e+00 1.068733e+00 1.259913e+00 1.043850e+00 1.226916e+00 1.203800e+00 1.162317e+00 1.335948e+00 2.656324e+00 1.409822e+00 1.036671e+00 1.084894e-01 1.608483e-01 1.315484e-01 1.645824e-01 1.835472e-01 1.866243e-01 2.211198e-01 2.229434e-01 2.106088e-01 2.306349e-01 3.004126e-01 1.811108e-01 8.447009e-02
<GCONST> 9.482470e+01
<STATE> 3
<MEAN> 39
 3.865510e+00 -6.228013e+00 -3.116806e+00 -7.594240e+00 -9.516684e+00 5.343041e+00 -1.105070e+01 -7.090540e+00 -4.001460e+00 -1.079832e+01 1.752841e+00 -1.094525e+01 6.420702e+01 -2.447892e-01 5.076354e-01 5.722501e-01 1.004756e+00 6.510048e-01 -9.363273e-01 7.921448e-01 -3.685301e-01 -7.909043e-01 1.503987e+00 -2.358197e+00 1.243601e+00 -1.523674e+00 -2.765383e-01 -9.672187e-03 -2.962188e-01 1.061727e-01 6.682289e-02 -1.676559e-01 4.717060e-02 7.465775e-02 1.239932e-01 -9.900200e-02 2.504140e-01 -1.133116e-02 7.558219e-02
<VARIANCE> 39
 7.516330e+01 5.340466e+01 3.068267e+01 5.970319e+01 5.748658e+01 4.794983e+01 2.714286e+01 5.876754e+01 2.957474e+01 6.307361e+01 5.085999e+01 3.275747e+01 5.700017e+01 3.930861e+00 3.055895e+00 2.865012e+00 3.575792e+00 3.988317e+00 3.103031e+00 2.267928e+00 3.890784e+00 3.162889e+00 3.790831e+00 5.330012e+00 3.185575e+00 3.302428e+00 5.953525e-01 5.085438e-01 3.281891e-01 6.069180e-01 5.806734e-01 4.791104e-01 4.255528e-01 6.925243e-01 5.457078e-01 5.401722e-01 7.000538e-01 5.131093e-01 2.476085e-01
<GCONST> 1.288426e+02
<STATE> 4
<MEAN> 39
 -3.095643e+00 -3.756920e+00 -5.820727e+00 -3.916425e+00 -6.959816e+00 5.765566e-01 -7.183108e+00 -7.076156e+00 -6.791439e+00 -4.871305e+00 -3.570853e+00 -5.787048e+00 5.235104e+01 -5.469620e-01 2.779974e-02 -1.958323e-01 4.710918e-01 7.121012e-03 -7.599034e-01 2.611183e-01 2.083744e-01 7.306853e-02 2.221644e-01 -4.070897e-01 2.824929e-01 -3.965422e-01 2.268347e-02 -1.892005e-02 -2.414982e-02 -7.838845e-02 -6.548598e-02 -8.289826e-03 -5.166981e-02 1.870148e-01 6.257506e-02 -2.504179e-01 2.128901e-01 -1.151642e-01 2.519811e-01
<VARIANCE> 39
 9.494846e+01 4.700729e+01 4.507335e+01 3.026943e+01 5.024830e+01 3.754833e+01 2.093613e+01 4.464898e+01 2.086964e+01 2.676338e+01 2.101794e+01 1.935888e+01 1.407148e+02 3.672653e+00 2.623267e+00 2.308799e+00 2.363122e+00 2.900458e+00 3.065614e+00 2.192698e+00 3.035315e+00 2.013285e+00 2.926322e+00 2.244040e+00 1.652263e+00 2.538743e+00 5.309432e-01 4.616264e-01 4.492441e-01 4.127844e-01 5.754263e-01 5.966687e-01 4.390244e-01 6.132032e-01 4.329048e-01 4.580692e-01 4.265004e-01 3.539919e-01 3.308966e-01
<GCONST> 1.209340e+02
<TRANSP> 5
 0.000000e+00 1.000000e+00 0.000000e+00 0.000000e+00 0.000000e+00
 0.000000e+00 8.235692e-01 1.764307e-01 0.000000e+00 0.000000e+00
 0.000000e+00 0.000000e+00 5.126278e-01 4.873722e-01 0.000000e+00
 0.000000e+00 0.000000e+00 0.000000e+00 8.977180e-01 1.022820e-01
 0.000000e+00 0.000000e+00 0.000000e+00 0.000000e+00 0.000000e+00
<ENDHMM>
~h "ong"
<BEGINHMM>
<NUMSTATES> 5
<STATE> 2
<MEAN> 39
 -1.217141e+01 -4.391283e+00 -8.672885e+00 -2.513299e+00 -7.867490e+00 -2.643394e+00 -7.580480e+00 -4.295030e+00 -6.163503e+00 -5.275341e+00 -4.332803e+00 -3.150311e+00 4.069746e+01 -8.709428e-02 1.089901e-01 6.559347e-02 2.350821e-01 8.921368e-02 -1.009807e-01 -1.738690e-01 -1.347745e-01 1.376001e-02 3.049880e-01 1.438895e-01 2.412746e-01 -1.714354e-01 8.628595e-02 7.120924e-02 -1.772381e-02 -1.174906e-01 -9.196530e-02 3.236528e-02 9.347732e-02 1.586165e-01 4.384892e-02 1.106841e-02 3.558798e-02 -5.236342e-02 4.306110e-02
<VARIANCE> 39
 3.529598e+00 6.670139e+00 7.884702e+00 1.332786e+01 9.606981e+00 1.367609e+01 1.152974e+01 1.102480e+01 1.053534e+01 1.498432e+01 1.535515e+01 1.837476e+01 3.634416e+00 3.276096e-01 5.691500e-01 7.069546e-01 8.726345e-01 9.936790e-01 1.349374e+00 1.240431e+00 1.537341e+00 1.220624e+00 1.470321e+00 1.215065e+00 1.464467e+00 8.541834e-02 5.483207e-02 1.008975e-01 1.381301e-01 1.952871e-01 1.866862e-01 2.064233e-01 2.415540e-01 3.059164e-01 2.366245e-01 2.771589e-01 2.289453e-01 2.920625e-01 1.240133e-02
<GCONST> 7.419514e+01
<STATE> 3
<MEAN> 39
 -1.093658e+01 4.428830e-01 -6.942166e+00 -4.434466e-01 -6.772615e+00 -1.620920e+00 -7.684714e+00 -3.705666e+00 -5.206930e+00 -2.921570e+00 -3.004916e+00 -3.234640e+00 3.909727e+01 -5.563414e-02 3.636728e-02 -2.563638e-02 7.208693e-02 -4.286318e-02 1.015554e-02 1.354631e-03 8.148237e-02 6.496740e-02 1.681290e-02 7.203129e-02 2.091517e-02 -1.291481e-01 -1.530084e-02 -2.530868e-02 -3.480934e-02 -2.198762e-02 4.257851e-04 2.192803e-02 2.036497e-02 4.736014e-03 8.762861e-03 -3.717712e-02 -2.131723e-02 -2.100835e-02 -3.239687e-03
<VARIANCE> 39
 4.290185e+00 1.090210e+01 6.551975e+00 1.078706e+01 1.036534e+01 1.123104e+01 1.184900e+01 1.266252e+01 1.091555e+01 1.239066e+01 1.202383e+01 1.122706e+01 3.634416e+00 2.482100e-01 4.452076e-01 4.847731e-01 7.930185e-01 1.147724e+00 1.262611e+00 1.323433e+00 1.437707e+00 1.315736e+00 1.296332e+00 1.105107e+00 1.086884e+00 5.972763e-02 4.290093e-02 7.517382e-02 8.953626e-02 1.604754e-01 2.390955e-01 2.749853e-01 2.536271e-01 2.950666e-01 2.795823e-01 2.487225e-01 2.075314e-01 2.489898e-01 1.049656e-02
<GCONST> 7.092694e+01
<STATE> 4
<MEAN> 39
 -1.362259e+01 -2.224520e+00 -9.834463e+00 -1.399215e+00 -8.661482e+00 -4.025218e-01 -7.727744e+00 -3.754847e+00 -5.267658e+00 -3.403677e+00 -3.031544e+00 -3.124873e+00 3.677398e+01 -3.817203e-02 1.805214e-02 -6.369032e-02 1.936392e-02 -3.145431e-02 3.445465e-02 -2.112850e-02 -6.577037e-04 -1.176307e-02 2.529285e-02 3.473739e-02 -6.942075e-03 -8.721829e-02 2.212274e-03 3.131446e-04 2.472303e-03 -3.815301e-03 -3.225371e-03 -8.038958e-03 -1.726664e-02 -1.058040e-02 -7.300982e-03 -6.885864e-03 -9.955389e-03 6.028234e-03 2.740583e-03
<VARIANCE> 39
 2.227588e+00 7.560072e+00 7.455966e+00 1.134495e+01 1.206984e+01 1.540342e+01 1.119694e+01 1.560465e+01 1.356919e+01 1.387996e+01 1.296637e+01 1.294299e+01 3.634416e+00 1.347511e-01 2.916701e-01 4.593188e-01 6.550024e-01 8.503042e-01 1.021099e+00 1.216541e+00 1.341723e+00 1.257819e+00 1.494864e+00 1.299761e+00 1.230008e+00 4.110258e-02 2.593550e-02 5.729903e-02 8.906510e-02 1.293956e-01 1.781064e-01 2.180739e-01 2.585039e-01 2.687275e-01 2.465978e-01 3.159640e-01 2.812223e-01 2.584504e-01 7.285042e-03
<GCONST> 6.781316e+01
<TRANSP> 5
 0.000000e+00 1.000000e+00 0.000000e+00 0.000000e+00 0.000000e+00
 0.000000e+00 8.097324e-01 1.902676e-01 0.000000e+00 0.000000e+00
 0.000000e+00 0.000000e+00 9.168253e-01 8.317471e-02 0.000000e+00
 0.000000e+00 0.000000e+00 0.000000e+00 9.643733e-01 3.562669e-02
 0.000000e+00 0.000000e+00 0.000000e+00 0.000000e+00 0.000000e+00
<ENDHMM>
~h "shi"
<BEGINHMM>
<NUMSTATES> 5
<STATE> 2
<MEAN> 39
 -8.275969e+00 7.751382e-01 -5.640254e+00 -1.023560e-01 -6.478408e+00 -2.464525e+00 -7.880280e+00 -2.102119e+00 -4.415030e+00 -3.652831e+00 -3.893542e+00 -2.670233e+00 4.173185e+01 3.843962e-02 3.037659e-01 2.406981e-01 1.061959e-02 -7.217792e-02 3.271281e-01 2.065715e-01 -1.655816e-01 -2.840393e-01 -2.224767e-02 3.268454e-02 2.864433e-02 -1.062206e-01 3.080866e-02 -1.147925e-02 -3.889004e-02 -3.186715e-02 -3.724279e-02 -4.320298e-02 -4.850174e-02 -3.186441e-03 2.883351e-02 1.850178e-02 3.626281e-02 2.248411e-03 2.449307e-02
<VARIANCE> 39
