~o
<STREAMINFO> 1 39
<VECSIZE> 39<NULLD><MFCC_D_A_0><DIAGC>
~s "silst"
<MEAN> 39
 -1.288898e+01 -3.085627e+00 -1.059092e+01 -1.803656e+00 -8.090166e+00 -1.911977e+00 -8.014050e+00 -2.653028e+00 -4.451293e+00 -3.481393e+00 -3.854346e+00 -3.660711e+00 3.799374e+01 -3.878077e-02 8.056875e-03 8.354813e-03 4.295019e-03 -3.368573e-02 -2.063477e-02 1.856031e-02 2.260592e-02 2.690482e-02 5.860749e-02 7.587867e-02 4.831121e-02 -3.489816e-02 1.935461e-02 1.531662e-02 1.361612e-02 -2.669486e-03 8.111669e-03 -4.370549e-03 -2.557821e-02 -2.695383e-02 -3.865049e-02 -4.305110e-02 -1.771574e-02 -1.318186e-02 1.773564e-02
<VARIANCE> 39
 2.663641e+00 1.307800e+01 9.702014e+00 1.202280e+01 1.076446e+01 1.444044e+01 1.305448e+01 1.440161e+01 1.477582e+01 1.461001e+01 1.262189e+01 1.131848e+01 5.674077e+00 2.000939e-01 4.061181e-01 6.204539e-01 8.235961e-01 1.010541e+00 1.116034e+00 1.207638e+00 1.349524e+00 1.534163e+00 1.493800e+00 1.354954e+00 1.257963e+00 9.952381e-02 3.987534e-02 7.434415e-02 1.202089e-01 1.665535e-01 2.029405e-01 2.257297e-01 2.422075e-01 2.759163e-01 3.168122e-01 3.156032e-01 2.844245e-01 2.604399e-01 1.721731e-02
<GCONST> 7.433652e+01
~h "a"
<BEGINHMM>
<NUMSTATES> 5
<STATE> 2
<MEAN> 39
 -4.568618e+00 -1.688154e+01 -1.417564e+01 -1.931451e+01 -5.480895e-01 1.762061e+01 -1.303297e+01 -9.435563e+00 2.293813e+00 -8.352354e+00 -6.053340e+00 -3.687665e+00 8.528304e+01 4.983981e-01 -1.804897e-01 4.642581e-01 1.014836e-01 -6.913881e-02 2.377917e-02 -1.386749e+00 1.141132e+00 -3.117888e-01 -1.752537e-01 8.735810e-01 -7.807023e-01 -4.225396e-01 2.142574e-01 1.198786e-02 3.013644e-01 9.906432e-02 -1.534930e-01 -3.338120e-01 -7.651955e-02 2.294094e-01 -1.242124e-01 1.348748e-01 1.453485e-01 -2.365391e-01 -2.367586e-01
<VARIANCE> 39
 2.041194e+01 1.197826e+01 9.139505e+00 9.053745e+00 1.254633e+01 3.345951e+01 9.908498e+01 8.034995e+01 1.711915e+01 2.053894e+01 5.703880e+01 4.946107e+01 1.046971e+01 1.465203e+00 7.602004e-01 1.147892e+00 6.229811e-01 1.442792e+00 2.384319e+00 3.320650e+00 5.717623e+00 1.325082e+00 1.515644e+00 2.407527e+00 3.866812e+00 6.980171e-01 1.614322e-01 1.476246e-01 1.856704e-01 2.078582e-01 1.981657e-01 3.515247e-01 5.389792e-01 8.067192e-01 2.935989e-01 2.717655e-01 4.514807e-01 4.374967e-01 8.303863e-02
<GCONST> 1.021637e+02
<STATE> 3
<MEAN> 39
 4.849821e+00 -1.824382e+01 7.424159e+00 -9.392044e+00 -1.093217e+00 5.689096e+00 -3.216090e+01 -1.205125e+00 -9.048672e+00 -7.001588e+00 7.224375e+00 -1.535767e+01 7.259804e+01 -5.069587e-02 3.753363e-01 6.183368e-01 5.927382e-01 -2.699238e-02 -1.407973e+00 1.671227e-01 -9.626897e-02 4.385821e-01 -5.295757e-01 2.426897e-01 -3.635819e-01 -2.056029e-01 -2.345209e-01 9.573290e-02 -5.358852e-01 -2.386787e-01 -3.692610e-03 1.933231e-01 2.194897e-01 1.499804e-01 5.329344e-01 -3.520150e-01 -1.819303e-01 1.112572e-01 3.077570e-01
<VARIANCE> 39
 3.416314e+00 7.265878e+00 7.669674e+01 3.998443e+01 2.262879e+01 4.002449e+01 2.642477e+01 4.267111e+01 8.307458e+01 5.134494e+01 2.170251e+01 1.164534e+01 1.446070e+01 8.404874e-01 1.006812e+00 1.412355e+01 6.249887e+00 3.135169e+00 3.516001e+00 2.459116e+00 7.526093e+00 1.895532e+01 1.032648e+01 1.575070e+00 1.480304e+00 3.348893e+00 7.767815e-02 1.621540e-01 9.868073e-01 7.043920e-01 5.913614e-01 3.474803e-01 4.249440e-01 1.281838e+00 1.678936e+00 9.956512e-01 4.655934e-01 3.959865e-01 1.865225e-01
<GCONST> 1.204953e+02
<STATE> 4
<MEAN> 39
 -2.832870e-01 -1.294982e+01 -4.663581e+00 -1.363566e+01 -5.402822e+00 1.713753e+00 -1.580313e+01 3.772235e+00 1.725592e+00 -8.372134e+00 3.454159e-01 -1.329707e+01 7.472966e+01 -2.518988e-01 7.122909e-01 -4.191220e-01 7.199475e-01 1.182415e-01 -3.669824e-01 6.862012e-01 -2.767323e-01 8.049957e-01 -2.815858e-01 -6.798878e-01 5.511833e-01 -1.011924e+00 -1.395104e-01 -1.671168e-01 1.644656e-01 3.079633e-01 2.223633e-01 2.806084e-01 5.258856e-02 -5.824423e-01 -4.401803e-01 2.299909e-01 -2.102377e-01 2.581892e-01 -3.042069e-01
<VARIANCE> 39
 7.949693e+01 2.966491e+01 2.256453e+01 2.133612e+01 4.585897e+01 5.885286e+01 1.233306e+02 6.999666e+01 8.340892e+01 1.517248e+02 6.271233e+01 5.245217e+01 3.817688e+01 4.919118e+00 2.476183e+00 3.413424e+00 3.129805e+00 2.943253e+00 7.168315e+00 4.531066e+00 7.092957e+00 3.815380e+00 3.930755e+00 3.230342e+00 3.842040e+00 5.901615e+00 7.420880e-01 4.563472e-01 1.070379e+00 5.537494e-01 6.280612e-01 1.244323e+00 8.694457e-01 1.225438e+00 1.411160e+00 1.326477e+00 5.535133e-01 8.576812e-01 4.207952e-01
<GCONST> 1.393869e+02
<TRANSP> 5
 0.000000e+00 1.000000e+00 0.000000e+00 0.000000e+00 0.000000e+00
 0.000000e+00 9.140923e-01 8.590777e-02 0.000000e+00 0.000000e+00
 0.000000e+00 0.000000e+00 8.757583e-01 1.242417e-01 0.000000e+00
 0.000000e+00 0.000000e+00 0.000000e+00 7.926674e-01 2.073326e-01
 0.000000e+00 0.000000e+00 0.000000e+00 0.000000e+00 0.000000e+00
<ENDHMM>
~h "b"
<BEGINHMM>
<NUMSTATES> 5
<STATE> 2
<MEAN> 39
 2.408165e+00 -7.090366e+00 2.925495e+00 4.732330e-01 -8.715774e+00 -4.552405e+00 -1.456262e+01 -4.964994e+00 -4.786004e+00 -1.082721e+01 -3.039422e+00 -1.466078e+01 6.219760e+01 -3.095405e-01 1.472430e-01 -1.080296e-01 -7.457005e-01 -5.690126e-02 3.758476e-01 1.067360e+00 -3.580753e-01 -1.883946e-01 3.663098e-01 1.491894e-01 9.160559e-01 1.306341e+00 -1.559572e-01 -6.231530e-02 2.274487e-02 -3.809203e-01 -2.345105e-01 1.491172e-01 -8.251320e-02 -2.245484e-01 3.350012e-01 -3.084814e-01 3.237050e-01 7.285471e-02 5.171138e-01
<VARIANCE> 39
 3.753007e+01 2.627841e+01 5.224075e+01 4.735815e+01 3.468337e+01 3.854338e+01 5.733487e+01 1.700181e+01 3.286375e+01 3.942178e+01 4.099286e+01 5.991083e+01 1.251079e+02 2.707019e+00 3.102310e+00 4.513512e+00 5.464016e+00 6.614836e+00 5.693193e+00 2.677401e+00 3.389733e+00 6.412199e+00 3.064882e+00 7.968726e+00 2.855674e+00 2.251018e+01 3.696362e-01 4.190177e-01 1.228669e+00 6.244815e-01 1.200051e+00 9.389380e-01 7.399132e-01 5.968428e-01 9.521632e-01 7.688753e-01 1.206962e+00 6.300945e-01 2.916553e+00
<GCONST> 1.383083e+02
<STATE> 3
<MEAN> 39
 -5.192903e+00 -6.975824e+00 1.127208e+01 -1.146475e+01 -1.986709e+01 -5.308201e+00 -1.108760e+01 -1.621216e+01 -3.548700e+00 -1.440645e+01 9.705613e+00 -7.431999e+00 7.962616e+01 -1.229289e+00 1.085034e+00 3.066838e+00 -1.422071e+00 -2.377619e+00 -1.022443e-01 -1.613576e+00 -2.577355e+00 -2.875984e-01 -2.066962e+00 1.723794e+00 -5.970636e-02 6.078930e-01 -1.245265e-01 5.118865e-01 -7.754052e-01 7.517442e-01 1.387338e+00 1.530662e-01 1.895521e-01 7.805420e-01 -1.304862e-02 3.749607e-01 -1.222265e+00 -8.003953e-02 -1.421198e+00
<VARIANCE> 39
 8.319284e+00 1.712819e+01 1.016620e+02 2.404143e+01 4.411120e+01 6.887245e+01 3.358571e+01 1.775457e+01 2.244617e+01 2.587407e+01 4.457441e+01 1.296678e+01 1.054205e+01 8.423301e-01 1.523032e+00 6.980273e+00 2.089806e+00 8.335922e+00 2.715172e+00 5.054771e+00 3.403800e+00 1.531271e+00 2.508514e+00 7.431143e+00 2.326113e+00 8.521913e+00 1.476764e-01 3.686428e-01 9.133700e-01 3.557703e-01 6.560550e-01 7.164353e-01 1.245692e+00 4.081019e-01 3.428966e-01 4.818952e-01 5.438596e-01 4.985652e-01 1.851928e+00
<GCONST> 1.212037e+02
<STATE> 4
<MEAN> 39
 -9.503362e+00 -1.023728e+00 1.752418e+01 -1.160768e+01 -1.938426e+01 -3.124876e+00 -1.229867e+01 -1.740999e+01 -5.339347e+00 -1.719851e+01 8.023653e+00 -1.044529e+01 7.720194e+01 1.210206e-01 -9.839341e-02 5.084982e-02 1.970837e-01 3.192016e-02 2.486922e-01 4.102593e-01 3.196405e-01 -3.416733e-01 3.735876e-01 -3.675074e-01 -1.569201e-01 -3.109470e-01 1.020792e-01 -1.140749e-01 -1.709499e-01 1.710659e-01 8.539832e-02 -1.669171e-01 1.625658e-01 2.232117e-01 -5.791081e-02 1.799211e-01 -6.135467e-02 1.200072e-01 -1.185072e-01
<VARIANCE> 39
 5.072387e+00 1.102715e+01 3.051707e+01 6.464519e+00 1.324878e+01 2.121374e+01 9.243100e+00 5.533394e+00 7.942614e+00 9.976285e+00 1.309774e+01 9.088848e+00 6.044396e+00 6.556996e-01 8.563398e-01 5.398408e-01 5.013043e-01 8.521146e-01 9.428091e-01 9.515942e-01 7.362772e-01 6.995544e-01 1.054881e+00 7.852087e-01 9.825457e-01 2.329929e-01 9.061416e-02 9.818029e-02 1.895507e-01 1.236467e-01 2.877886e-01 1.848535e-01 1.752995e-01 1.748902e-01 1.169284e-01 1.400742e-01 1.811107e-01 1.864755e-01 1.040384e-01
<GCONST> 7.237441e+01
<TRANSP> 5
 0.000000e+00 1.000000e+00 0.000000e+00 0.000000e+00 0.000000e+00
 0.000000e+00 9.123721e-01 8.762800e-02 0.000000e+00 0.000000e+00
 0.000000e+00 0.000000e+00 6.364866e-01 3.635134e-01 0.000000e+00
 0.000000e+00 0.000000e+00 0.000000e+00 9.086163e-01 9.138369e-02
 0.000000e+00 0.000000e+00 0.000000e+00 0.000000e+00 0.000000e+00
<ENDHMM>
~h "d"
<BEGINHMM>
<NUMSTATES> 5
<STATE> 2
<MEAN> 39
 -9.306848e+00 -2.040983e+00 -5.090501e+00 -3.037659e+00 -7.626388e+00 -5.995022e+00 -5.791814e+00 -3.214230e+00 -3.245914e+00 -5.217318e+00 -3.215045e+00 -3.620245e+00 4.895658e+01 -5.081634e-01 -2.237023e-01 -7.449006e-02 -5.429316e-01 1.103892e+00 -7.409177e-01 4.637092e-01 3.143447e-01 4.391949e-01 6.085251e-01 -4.256285e-01 2.981253e-01 1.697437e+00 2.101634e-01 -1.945023e-01 1.045993e-01 -4.157573e-01 -1.756429e-01 3.057963e-02 -3.142218e-01 -1.621621e-02 2.774927e-01 1.717379e-02 1.330903e-01 -8.823157e-02 1.048611e+00
<VARIANCE> 39
 6.169050e+01 6.143335e+01 6.748143e+01 5.379414e+01 6.079628e+01 5.557531e+01 3.896435e+01 3.121975e+01 3.933905e+01 3.066232e+01 2.133074e+01 1.856794e+01 1.660970e+02 6.089804e+00 4.956756e+00 5.639063e+00 4.917542e+00 6.515787e+00 8.035303e+00 4.979180e+00 3.323413e+00 3.004846e+00 2.914763e+00 3.131014e+00 2.221030e+00 1.596018e+01 1.407463e+00 9.683107e-01 9.979493e-01 8.700748e-01 1.422919e+00 1.466290e+00 1.192284e+00 7.563699e-01 8.887151e-01 4.954569e-01 5.644091e-01 4.913444e-01 2.178956e+00
<GCONST> 1.413828e+02
<STATE> 3
<MEAN> 39
 -6.495408e+00 -1.063390e+01 -9.467520e+00 -1.894597e+01 -7.522848e+00 -6.556685e-01 -4.828384e+00 -3.388619e+00 3.741807e+00 -1.826680e+00 -5.216213e+00 -7.737507e+00 8.393642e+01 1.402727e+00 -6.777623e-01 -4.941103e-01 -1.922116e+00 -3.812958e-01 2.184039e+00 -1.168243e+00 -1.524545e-01 7.472230e-01 -2.746961e-02 4.435202e-01 -8.636725e-01 2.356099e+00 9.900026e-02 3.699293e-02 2.600474e-02 1.753087e-01 -2.357256e-01 5.731381e-01 -1.729360e-01 -1.560777e-01 -2.575513e-01 -2.631287e-01 2.950885e-01 -1.443000e-01 -9.371743e-01
<VARIANCE> 39
 1.778852e+01 1.481583e+01 2.886897e+01 3.559984e+01 2.038113e+01 9.302437e+01 1.141419e+02 2.935851e+01 6.465695e+01 2.559030e+01 2.598939e+01 3.099920e+01 4.958983e+01 3.874542e+00 2.504790e+00 2.374830e+00 2.645515e+00 4.260899e+00 5.978826e+00 8.490887e+00 3.834512e+00 8.939326e+00 3.685476e+00 3.746734e+00 4.205236e+00 1.624026e+01 7.218748e-01 2.829320e-01 5.023040e-01 4.325794e-01 8.269943e-01 1.426993e+00 1.292076e+00 8.343434e-01 1.089646e+00 5.281242e-01 6.495311e-01 9.017091e-01 9.066363e-01
<GCONST> 1.336687e+02
<STATE> 4
<MEAN> 39
 -1.431073e-01 -9.897592e+00 -8.681721e+00 -2.479719e+01 -8.829762e+00 1.207602e+01 -1.800073e+01 -3.582965e+00 5.510619e+00 -6.963103e+00 5.458875e+00 -1.146182e+01 8.207022e+01 5.584049e-01 2.840711e-01 -2.818615e-01 -1.501659e-01 1.332109e-01 1.990579e+00 -7.532739e-01 -1.411223e-01 -6.549643e-01 -1.186572e+00 1.412791e+00 -4.062317e-03 -6.740861e-01 -2.533551e-01 2.112385e-01 3.282228e-02 4.510274e-01 1.842381e-01 -5.569375e-01 3.376841e-01 -5.089858e-02 -1.906779e-01 -8.779205e-02 -8.803773e-02 3.147155e-01 -1.902898e-01
<VARIANCE> 39
 1.437398e+01 1.589517e+01 8.920260e+00 1.915196e+01 1.252019e+01 6.278611e+01 4.999828e+01 1.678899e+01 5.157181e+01 5.545572e+01 5.320573e+01 1.475175e+01 1.977051e+01 1.088497e+00 5.529585e-01 1.335830e+00 1.659945e+00 1.268322e+00 3.544033e+00 3.751657e+00 2.425348e+00 2.556465e+00 6.543344e+00 3.034737e+00 1.726990e+00 1.315180e+00 2.750122e-01 1.749013e-01 1.108624e-01 2.016359e-01 3.035637e-01 3.521166e-01 7.697538e-01 3.757988e-01 5.943664e-01 8.006119e-01 3.937711e-01 4.338222e-01 2.017153e-01
<GCONST> 1.075826e+02
<TRANSP> 5
 0.000000e+00 1.000000e+00 0.000000e+00 0.000000e+00 0.000000e+00
 0.000000e+00 8.232726e-01 1.767274e-01 0.000000e+00 0.000000e+00
 0.000000e+00 0.000000e+00 8.277743e-01 1.722256e-01 0.000000e+00
 0.000000e+00 0.000000e+00 0.000000e+00 8.242427e-01 1.757573e-01
 0.000000e+00 0.000000e+00 0.000000e+00 0.000000e+00 0.000000e+00
<ENDHMM>
~h "f"
<BEGINHMM>
<NUMSTATES> 5
<STATE> 2
<MEAN> 39
 -7.691992e+00 -9.435949e+00 -4.908819e+00 -6.742762e+00 -5.170131e+00 -3.392882e+00 -7.757158e+00 -5.313830e+00 -5.019035e-01 -9.017977e+00 -8.747879e-01 -4.647473e+00 6.875145e+01 2.146971e+00 -5.798016e-01 -3.627043e-01 -1.917059e+00 -3.750943e-01 1.706386e+00 -1.061896e+00 -1.609896e-01 2.495546e-01 1.553823e-01 8.433903e-01 -5.604249e-01 1.835026e+00 2.173239e-01 -1.498919e-02 1.443587e-02 -2.331307e-01 -2.265881e-01 4.114002e-01 -1.614864e-01 -8.650970e-02 -9.930348e-02 -5.869785e-02 2.298158e-02 -1.335568e-01 1.965106e-01
<VARIANCE> 39
 1.575810e+02 2.730074e+01 3.594144e+01 9.177685e+01 4.466471e+01 5.742101e+01 8.263663e+01 2.885935e+01 3.241398e+01 5.418242e+01 3.962132e+01 3.369926e+01 5.875093e+01 1.382151e+01 2.786291e+00 2.862495e+00 7.174659e+00 4.460107e+00 8.485840e+00 4.811164e+00 3.589311e+00 3.466529e+00 4.409782e+00 5.494766e+00 3.656361e+00 5.944363e+00 2.517029e+00 5.184128e-01 4.767960e-01 1.350412e+00 7.958327e-01 1.141832e+00 8.799673e-01 6.431472e-01 5.260186e-01 7.374537e-01 8.296453e-01 6.329637e-01 8.608597e-01
<GCONST> 1.405982e+02
<STATE> 3
<MEAN> 39
 4.551888e+00 -1.059761e+01 -5.835537e+00 -1.836800e+01 -1.370357e+01 1.081428e+01 -1.497379e+01 -7.803796e+00 -4.423668e+00 -6.143799e+00 7.388165e+00 -9.131029e+00 7.690220e+01 2.048705e-01 -1.514167e-01 5.463308e-01 5.848894e-01 -1.334473e+00 1.494129e+00 8.226773e-01 -1.191538e+00 -7.915689e-02 2.032335e-01 -1.461091e+00 6.964735e-01 -3.304561e-01 -4.519826e-01 7.689177e-02 2.162007e-01 6.984850e-01 3.076613e-01 -7.268022e-01 2.985241e-01 -3.007482e-02 3.791579e-01 -3.288426e-01 -5.653575e-01 5.139245e-01 -5.148664e-01
<VARIANCE> 39
 1.405363e+01 2.394438e+01 1.971274e+01 7.453465e+01 3.675363e+01 4.492218e+01 4.890182e+01 4.689818e+01 4.761319e+01 5.208442e+01 7.401295e+01 3.755524e+01 2.597071e+01 1.265528e+00 1.245623e+00 2.861474e+00 1.196414e+01 2.417699e+00 6.791089e+00 3.872852e+00 4.908416e+00 3.771165e+00 8.017762e+00 4.614706e+00 3.419895e+00 1.857063e+00 6.609492e-01 2.516817e-01 3.832887e-01 1.644408e+00 4.038661e-01 7.151972e-01 9.616149e-01 1.050374e+00 5.976967e-01 1.496872e+00 1.158490e+00 7.039340e-01 3.915425e-01
<GCONST> 1.307169e+02
<STATE> 4
<MEAN> 39
 5.031268e+00 -1.504906e+01 -4.405506e+00 -1.794972e+01 -1.332737e+01 1.713901e+01 -1.557917e+01 -8.170007e+00 7.391010e-02 -1.024005e+01 4.015775e-01 -6.318361e+00 7.587774e+01 -3.780266e-02 3.643427e-02 5.651265e-04 4.132692e-01 1.131461e-01 2.841555e-01 -4.108940e-01 2.854788e-01 5.141503e-01 -9.314324e-01 -4.107907e-01 3.402238e-01 -2.002203e-01 -6.379589e-02 1.506520e-01 -1.449287e-01 9.290345e-02 1.541272e-01 -2.916934e-01 -1.014056e-01 2.441902e-01 -1.561786e-01 8.230706e-02 3.018121e-01 -2.320708e-01 -5.839916e-02
<VARIANCE> 39
 2.290047e+01 4.928602e+01 4.983764e+01 1.176506e+02 6.838469e+01 1.067855e+02 6.027963e+01 6.671439e+01 3.856264e+01 6.152179e+01 4.426522e+01 3.847725e+01 4.291005e+01 6.273212e-01 7.814146e-01 8.517330e-01 6.217462e-01 1.277819e+00 1.937093e+00 1.322874e+00 2.765711e+00 1.449710e+00 3.148390e+00 1.617946e+00 1.816521e+00 4.666821e-01 7.353918e-02 8.894110e-02 2.244994e-01 2.687106e-01 1.476531e-01 3.296191e-01 1.982933e-01 1.891753e-01 1.973252e-01 3.466863e-01 3.195226e-01 2.649183e-01 1.683037e-01
<GCONST> 1.051609e+02
<TRANSP> 5
 0.000000e+00 1.000000e+00 0.000000e+00 0.000000e+00 0.000000e+00
 0.000000e+00 8.701816e-01 1.298185e-01 0.000000e+00 0.000000e+00
 0.000000e+00 0.000000e+00 7.105435e-01 2.894565e-01 0.000000e+00
 0.000000e+00 0.000000e+00 0.000000e+00 6.983234e-01 3.016766e-01
 0.000000e+00 0.000000e+00 0.000000e+00 0.000000e+00 0.000000e+00
<ENDHMM>
~h "g"
<BEGINHMM>
<NUMSTATES> 5
<STATE> 2
<MEAN> 39
 -1.397615e+01 -3.754735e+00 -1.210682e+01 -3.707275e+00 -9.472368e+00 -3.420245e+00 -8.310587e+00 -4.589015e+00 -7.062641e+00 -4.270112e+00 -4.261885e+00 -4.498641e+00 3.744544e+01 -1.192917e-01 -9.060182e-02 -1.175947e-01 5.078639e-02 -1.629621e-01 -5.861034e-02 -1.705381e-01 -2.541774e-01 -1.118691e-01 -6.428693e-02 -5.084769e-02 -9.712886e-02 -5.952599e-02 7.001791e-02 1.060628e-01 9.900279e-02 7.031430e-02 1.563023e-01 1.338679e-01 9.616080e-03 1.338508e-01 2.340644e-01 4.908173e-02 1.529421e-01 9.836532e-02 8.030705e-02
<VARIANCE> 39
 2.284985e+00 4.662475e+00 6.866724e+00 6.055171e+00 7.090808e+00 1.148705e+01 1.042617e+01 8.669905e+00 1.533216e+01 1.301669e+01 1.303658e+01 1.508961e+01 3.634416e+00 1.982177e-01 3.041063e-01 6.868147e-01 6.529250e-01 9.713545e-01 1.424160e+00 1.893804e+00 1.816124e+00 2.240477e+00 1.236715e+00 2.184493e+00 1.470418e+00 1.033423e-01 5.677471e-02 9.292840e-02 1.477258e-01 1.318272e-01 1.679887e-01 2.757996e-01 4.327502e-01 2.794951e-01 3.451433e-01 2.280606e-01 3.162138e-01 2.926541e-01 2.558632e-02
<GCONST> 7.345345e+01
<STATE> 3
<MEAN> 39
 -1.407534e+01 -2.982513e+00 -1.137754e+01 -3.249124e+00 -9.259374e+00 -2.279032e+00 -8.473394e+00 -4.222185e+00 -5.644641e+00 -5.144183e+00 -4.240798e+00 -3.565428e+00 3.762267e+01 7.167448e-02 3.569659e-01 1.675118e-01 2.139642e-01 5.664219e-01 3.267117e-01 3.178803e-01 1.982516e-01 2.893431e-01 -1.394477e-01 4.535128e-01 9.177187e-02 2.343076e-01 3.036267e-01 2.891609e-01 1.810512e-02 -1.469667e-01 2.813182e-01 9.798683e-03 2.232133e-01 1.971519e-01 -4.623169e-03 2.436170e-01 6.228518e-02 6.446792e-02 3.135300e-01
<VARIANCE> 39
 5.375068e+00 9.406375e+00 1.028780e+01 1.070028e+01 9.267007e+00 1.196652e+01 1.449328e+01 2.058170e+01 3.148106e+01 1.480936e+01 1.771452e+01 1.201733e+01 4.823880e+00 1.176341e+00 1.202018e+00 1.298831e+00 1.246995e+00 1.681179e+00 2.349174e+00 3.074825e+00 3.364815e+00 4.178818e+00 1.772640e+00 2.650908e+00 1.557166e+00 4.718379e-01 3.282122e-01 3.337637e-01 3.570298e-01 4.781802e-01 4.045083e-01 3.426922e-01 5.611870e-01 5.272939e-01 9.577013e-01 3.681894e-01 3.828994e-01 3.381572e-01 1.870580e-01
<GCONST> 9.905936e+01
<STATE> 4
<MEAN> 39
 -1.213314e+01 -4.038895e+00 -1.092606e+01 -3.037438e+00 -6.010221e+00 -6.498128e-01 -7.991173e+00 -1.939040e+00 -3.907518e+00 -4.447258e+00 -1.686325e+00 -3.478092e+00 4.091984e+01 7.772350e-02 1.160862e-01 2.405673e-01 1.688738e-01 -6.800425e-02 -9.479141e-02 -7.723437e-02 7.175595e-02 1.350382e-01 2.547023e-01 -6.751186e-02 1.271664e-01 -8.327133e-02 1.796623e-01 2.139601e-02 -1.954617e-01 -3.870055e-01 5.059045e-02 -1.548112e-01 2.843387e-02 8.525287e-02 -1.718299e-01 1.869415e-01 -1.807837e-01 -1.257588e-02 2.281128e-01
<VARIANCE> 39
 1.572899e+01 5.658786e+01 3.238808e+01 2.561297e+01 2.405200e+01 3.494046e+01 4.203273e+01 5.047093e+01 3.928167e+01 2.455455e+01 3.750338e+01 1.466698e+01 2.038102e+01 1.631477e+00 2.478440e+00 2.817610e+00 1.816508e+00 2.885633e+00 3.649405e+00 3.257651e+00 3.410922e+00 2.069299e+00 1.959563e+00 2.832356e+00 1.450253e+00 8.483632e-01 5.871760e-01 5.500845e-01 7.292502e-01 7.941334e-01 8.854554e-01 7.983038e-01 8.482780e-01 8.716660e-01 5.913204e-01 6.134036e-01 5.987443e-01 3.036382e-01 5.637563e-01
<GCONST> 1.206027e+02
<TRANSP> 5
 0.000000e+00 1.000000e+00 0.000000e+00 0.000000e+00 0.000000e+00
 0.000000e+00 6.364496e-01 3.635504e-01 0.000000e+00 0.000000e+00
 0.000000e+00 0.000000e+00 4.592032e-01 5.407968e-01 0.000000e+00
 0.000000e+00 0.000000e+00 0.000000e+00 7.510018e-01 2.489982e-01
 0.000000e+00 0.000000e+00 0.000000e+00 0.000000e+00 0.000000e+00
<ENDHMM>
~h "i"
<BEGINHMM>
<NUMSTATES> 5
<STATE> 2
<MEAN> 39
 5.416844e-01 -9.410200e+00 -4.337366e+00 -1.150557e+01 -9.044844e+00 9.228086e-01 -9.864342e+00 -4.594168e-01 -1.284247e+00 -8.288240e+00 7.543389e-01 -7.907897e+00 6.740851e+01 -1.248214e+00 8.939292e-01 -7.195827e-01 1.440091e+00 1.851441e+00 -5.243303e-01 1.909087e+00 -1.008729e-01 3.985031e-02 7.519397e-01 -1.747697e+00 9.247128e-01 -2.084001e+00 -4.123626e-01 -7.138941e-02 -1.216990e-01 2.724525e-02 -1.938847e-02 3.148659e-01 -2.187258e-01 -2.927884e-01 5.229193e-02 -2.254744e-01 7.930031e-02 -2.804813e-02 -8.938098e-02
<VARIANCE> 39
 4.523247e+01 4.661489e+01 1.494772e+02 1.304391e+02 8.286943e+01 1.820150e+02 1.027597e+02 9.850240e+01 6.546505e+01 4.523676e+01 4.331824e+01 3.865679e+01 1.018793e+02 4.124591e+00 2.697430e+00 4.054492e+00 5.523316e+00 3.711518e+00 8.087457e+00 6.616177e+00 5.092257e+00 2.666484e+00 3.636681e+00 5.099760e+00 3.486539e+00 3.652829e+00 5.895116e-01 4.478059e-01 4.286395e-01 8.191720e-01 7.037389e-01 1.191313e+00 1.223436e+00 7.128760e-01 5.102503e-01 6.970624e-01 7.223970e-01 5.995316e-01 4.159493e-01
<GCONST> 1.415366e+02
<STATE> 3
<MEAN> 39
 -5.785691e+00 -5.133632e+00 -5.007907e+00 -2.903960e+00 -2.148288e+00 -1.350390e+00 -5.677225e+00 7.077240e-01 -1.299277e+00 -7.786299e+00 -2.819915e+00 -3.748354e+00 5.835128e+01 -2.332319e+00 -2.215593e-01 -1.433540e+00 6.695364e-01 4.457723e-01 2.104997e-01 9.306681e-02 -1.015235e+00 -1.673417e-01 4.372037e-01 -1.034304e+00 1.070654e-01 -2.217751e+00 2.432905e-01 -5.406891e-01 -2.460960e-01 -8.169450e-01 -7.963001e-01 -5.984509e-02 -9.174552e-01 -3.148453e-01 -1.526518e-01 -1.464440e-01 4.472118e-01 -4.942458e-01 3.308388e-01
<VARIANCE> 39
 6.970110e+01 3.066733e+01 9.635468e+01 8.619175e+01 4.299660e+01 1.259999e+02 6.001241e+01 5.523983e+01 4.692999e+01 1.784114e+01 1.972870e+01 2.907871e+01 7.356711e+01 2.661544e+00 1.271615e+00 1.900697e+00 3.624240e+00 2.781622e+00 3.974642e+00 4.042767e+00 3.048865e+00 2.254996e+00 3.071923e+00 2.242485e+00 2.295541e+00 1.394805e+00 3.555780e-01 3.406071e-01 4.440542e-01 4.308213e-01 6.465439e-01 8.030896e-01 7.312919e-01 6.318448e-01 4.382018e-01 3.510683e-01 4.839444e-01 4.176348e-01 2.648367e-01
<GCONST> 1.244320e+02
<STATE> 4
<MEAN> 39
 -1.438636e+01 -6.533013e+00 -4.401122e+00 -4.588355e+00 -6.349944e+00 -3.437753e+00 -7.459678e+00 -5.463965e+00 -5.298128e+00 -7.824305e+00 -4.045422e+00 -5.630885e+00 5.571154e+01 -1.116809e+00 -8.613498e-01 -1.631573e+00 -3.680539e-01 1.051407e-01 -2.477991e-01 -2.102522e-01 -4.622000e-01 -4.744833e-02 2.980994e-01 -3.359019e-01 -1.828219e-01 -1.027456e+00 3.404964e-01 -8.680058e-02 1.136978e-01 -2.622935e-01 4.102811e-02 -1.684020e-02 1.924949e-01 2.674378e-01 1.183987e-01 6.798677e-02 2.074137e-01 8.838780e-02 4.773148e-01
<VARIANCE> 39
 8.581838e+01 2.177279e+01 8.590135e+01 4.468254e+01 3.207301e+01 1.031125e+02 4.357527e+01 3.112579e+01 3.023669e+01 1.931652e+01 1.803492e+01 2.287654e+01 6.602646e+01 9.500336e-01 1.175737e+00 1.651122e+00 2.029969e+00 2.792010e+00 2.818354e+00 3.002175e+00 2.692864e+00 1.929942e+00 2.039406e+00 1.901222e+00 1.515403e+00 1.220410e+00 4.298487e-01 2.062922e-01 2.869603e-01 3.318183e-01 5.373576e-01 5.754811e-01 5.672403e-01 3.675220e-01 4.064842e-01 4.448229e-01 4.104221e-01 3.659783e-01 2.053924e-01
<GCONST> 1.147574e+02
<TRANSP> 5
 0.000000e+00 1.000000e+00 0.000000e+00 0.000000e+00 0.000000e+00
 0.000000e+00 7.158680e-01 2.841320e-01 0.000000e+00 0.000000e+00
 0.000000e+00 0.000000e+00 3.865781e-01 6.134219e-01 0.000000e+00
 0.000000e+00 0.000000e+00 0.000000e+00 6.187776e-01 3.812224e-01
 0.000000e+00 0.000000e+00 0.000000e+00 0.000000e+00 0.000000e+00
<ENDHMM>
~h "j"
<BEGINHMM>
<NUMSTATES> 5
<STATE> 2
<MEAN> 39
 -2.510049e+00 -3.345945e+00 -6.795341e-01 -1.650963e+01 -1.188319e+01 -9.332221e-01 -8.206813e+00 -8.110822e+00 -2.243410e+00 -1.085311e+01 7.589903e+00 -9.261279e+00 7.312187e+01 2.420211e-01 7.851127e-02 -3.167206e-02 2.363944e-01 -2.667426e-01 -3.365555e-02 8.105616e-02 -1.090683e-01 1.014293e-01 -1.169294e-01 1.744409e-01 -2.368828e-02 5.977100e-01 3.093347e-02 -2.726460e-02 -8.111555e-02 2.020319e-01 5.209028e-02 -3.399903e-02 1.331486e-02 -3.069131e-02 -3.252202e-02 6.215311e-02 -1.316372e-01 -1.664398e-02 -2.345848e-01
<VARIANCE> 39
 1.519647e+02 3.709964e+01 1.783488e+01 1.212294e+02 6.820781e+01 5.277030e+01 4.731690e+01 5.762076e+01 3.342109e+01 3.577442e+01 7.905138e+01 5.447371e+01 3.883923e+01 9.394093e+00 1.518137e+00 2.056134e+00 1.116486e+01 3.825673e+00 4.861548e+00 6.841145e+00 5.496013e+00 4.591146e+00 4.037589e+00 9.554273e+00 7.473557e+00 5.834900e+00 1.128743e+00 2.001927e-01 3.469859e-01 1.452433e+00 6.941329e-01 7.892736e-01 1.557338e+00 9.767635e-01 9.328395e-01 7.858434e-01 1.705694e+00 1.533906e+00 4.818634e-01
<GCONST> 1.420658e+02
<STATE> 3
<MEAN> 39
 -9.493057e+00 -8.373785e+00 -7.563903e+00 -7.832734e+00 -7.904767e+00 -5.005243e-01 -1.062895e+01 -5.033173e+00 -1.284478e+00 -4.822071e+00 -2.124997e-01 -7.970576e+00 7.134297e+01 1.034316e+00 -9.366533e-01 -8.065438e-02 -5.412039e-01 -4.080471e-01 7.552219e-01 -1.588743e+00 2.244926e-01 1.038129e+00 1.073524e-01 7.123492e-02 -9.989731e-01 1.039030e+00 3.145941e-01 9.844368e-02 1.163098e-01 -2.713934e-02 -2.314892e-01 1.055888e-01 -5.367782e-03 8.896566e-02 8.203536e-02 -3.269434e-01 8.456547e-02 6.115078e-02 5.786959e-02
<VARIANCE> 39
 7.675451e+01 3.186154e+01 1.589894e+01 2.847645e+01 2.996693e+01 3.922604e+01 6.470242e+01 2.034134e+01 4.091253e+01 1.455689e+01 2.562930e+01 4.192747e+01 5.852362e+01 6.399200e+00 1.558262e+00 2.115736e+00 3.861408e+00 3.936670e+00 5.462995e+00 5.193902e+00 1.648257e+00 3.670914e+00 2.636615e+00 4.411571e+00 3.457764e+00 2.411951e+00 1.290080e+00 2.784929e-01 3.467214e-01 1.026238e+00 2.889451e-01 1.020230e+00 1.123697e+00 2.213117e-01 7.560531e-01 3.649613e-01 8.350772e-01 9.329534e-01 3.564999e-01
<GCONST> 1.255373e+02
<STATE> 4
<MEAN> 39
 3.465230e+00 -9.676122e+00 1.032325e+00 -5.019185e-01 -1.427070e+01 -1.232390e+00 -1.623326e+01 -7.030686e+00 4.031789e-02 -1.327244e+01 -4.879575e-01 -3.055593e+00 7.357360e+01 5.835950e-02 5.301204e-02 9.292057e-03 -2.710129e-01 8.726469e-02 1.007332e-01 -6.505412e-02 -5.303260e-02 -1.952497e-01 -1.649697e-01 4.012019e-01 2.274651e-01 -4.041485e-02 6.405785e-02 1.895034e-02 -2.048817e-02 -1.944724e-01 -5.493794e-02 1.929424e-01 -2.633118e-02 -7.161804e-02 -2.411214e-02 1.064449e-01 1.499058e-01 -8.787714e-02 -1.315812e-02
<VARIANCE> 39
 2.072287e+01 2.769488e+01 3.066529e+01 1.124348e+02 6.610999e+01 4.151557e+01 6.017260e+01 7.708778e+01 5.412067e+01 5.740210e+01 6.746056e+01 6.222687e+01 7.247778e+01 1.961594e+00 1.655613e+00 2.501136e+00 4.438566e+00 7.264173e+00 4.943110e+00 6.254133e+00 6.438439e+00 4.760726e+00 6.031594e+00 7.348476e+00 4.363347e+00 4.412813e+00 3.393390e-01 2.395377e-01 3.504694e-01 3.491589e-01 1.327598e+00 7.671076e-01 9.485484e-01 9.553688e-01 8.031864e-01 7.676215e-01 1.086614e+00 4.791250e-01 5.428695e-01
<GCONST> 1.359348e+02
<TRANSP> 5
 0.000000e+00 1.000000e+00 0.000000e+00 0.000000e+00 0.000000e+00
 0.000000e+00 9.646140e-01 3.538600e-02 0.000000e+00 0.000000e+00
 0.000000e+00 0.000000e+00 8.966222e-01 1.033778e-01 0.000000e+00
 0.000000e+00 0.000000e+00 0.000000e+00 9.538039e-01 4.619611e-02
 0.000000e+00 0.000000e+00 0.000000e+00 0.000000e+00 0.000000e+00
<ENDHMM>
~h "k"
<BEGINHMM>
<NUMSTATES> 5
<STATE> 2
<MEAN> 39
 -6.913898e+00 -8.819594e+00 -9.160486e+00 -5.341887e+00 -4.831035e+00 4.143882e+00 -1.124368e+01 -5.847159e+00 -4.562946e+00 -2.040896e+00 -6.089503e+00 -8.587232e+00 4.675065e+01 -1.170325e+00 -1.477542e-01 -1.242426e+00 2.937840e-02 -5.703771e-02 1.427544e+00 4.088007e-01 -1.331887e+00 3.024472e-01 -8.244953e-01 -1.162935e-01 -4.761998e-01 -1.545043e+00 3.746986e-02 -5.300371e-01 4.557582e-02 -1.878044e-01 5.153633e-01 -1.499520e+00 3.093229e-01 7.824568e-01 -3.593079e-02 4.136471e-01 -1.733921e-01 3.205332e-01 1.267815e+00
<VARIANCE> 39
 5.085281e+01 2.641421e+01 1.508579e+01 9.577232e+00 2.832710e+01 5.993282e+01 1.055066e+01 1.522289e+01 2.072939e+01 1.855466e+01 2.190070e+01 3.587942e+01 8.205572e+01 1.505878e+00 4.459395e-01 2.226262e+00 8.218687e-01 1.091731e+00 4.478601e+00 1.805235e+00 3.484309e+00 1.976063e+00 3.763520e+00 1.092858e+00 1.037469e+00 3.007570e+00 1.973887e-01 2.186475e-01 2.805277e-01 3.603176e-01 5.517665e-01 1.543112e+00 4.192267e-01 5.314901e-01 5.722538e-01 5.799421e-01 3.300152e-01 3.867270e-01 2.831792e-01
<GCONST> 1.087404e+02
<STATE> 3
<MEAN> 39
 -1.121281e+01 -6.896664e+00 -9.226929e+00 -2.204128e+00 -5.147111e+00 -2.555493e+00 -1.140416e+01 -2.928343e+00 -2.513756e+00 -4.238860e+00 -5.179136e+00 -4.992844e+00 4.307327e+01 -1.105134e-01 -5.930170e-02 -5.170916e-02 1.243494e-01 3.253776e-01 -2.965191e-01 1.778970e-01 -2.968665e-02 6.377062e-02 5.135074e-02 -8.270516e-02 9.873389e-02 6.604168e-02 4.871876e-02 -2.902939e-01 -6.967142e-03 -1.419213e-01 3.191764e-01 -8.455136e-01 3.129965e-01 2.147114e-01 3.668634e-02 1.027637e-01 -8.095208e-02 2.726288e-01 6.879303e-01
<VARIANCE> 39
 2.419491e+01 4.972010e+01 2.631919e+01 4.089317e+01 3.768004e+01 4.915100e+01 3.117407e+01 3.690410e+01 2.910107e+01 3.533727e+01 2.312761e+01 2.411353e+01 3.011718e+01 2.184198e+00 3.607508e+00 3.486669e+00 3.614198e+00 5.771270e+00 3.663287e+00 3.397498e+00 3.004344e+00 3.513471e+00 2.682413e+00 2.031715e+00 2.096529e+00 1.655010e+00 3.587214e-01 9.180211e-01 5.537572e-01 5.325156e-01 1.468276e+00 2.373548e+00 7.875035e-01 7.274594e-01 7.282615e-01 6.251687e-01 4.491230e-01 6.057020e-01 1.392218e+00
<GCONST> 1.277580e+02
<STATE> 4
<MEAN> 39
 -9.032388e+00 -4.633187e+00 -1.010270e+01 -4.411562e+00 -5.893866e+00 -2.990830e-02 -9.954921e+00 -5.016063e+00 -4.468688e+00 -2.157807e+00 -5.772009e+00 -6.633822e+00 4.292888e+01 -3.788990e-01 -2.850999e+00 -5.176762e-01 -5.905442e-01 3.289925e+00 -5.757154e+00 2.758043e+00 8.431994e-01 7.623817e-01 4.069189e-01 -4.750412e-01 2.135079e+00 4.626467e+00 5.573847e-02 -5.338519e-01 2.385295e-01 -9.379644e-02 8.224459e-01 -1.472955e+00 7.953897e-01 2.312587e-01 3.219410e-01 -2.138146e-02 -4.722531e-02 4.500501e-01 1.715555e+00
<VARIANCE> 39
 3.822566e+01 5.610239e+01 2.541996e+01 2.043370e+01 2.415142e+01 4.647845e+01 2.052941e+01 2.893491e+01 1.640654e+01 1.917280e+01 2.414504e+01 3.151003e+01 4.253135e+01 4.968407e+00 6.101454e+00 2.456094e+00 2.737531e+00 6.007770e+00 1.427162e+01 3.869740e+00 3.594760e+00 2.126086e+00 2.246957e+00 3.657712e+00 3.177325e+00 1.044257e+01 5.587277e-01 5.614874e-01 5.204729e-01 3.702186e-01 8.197771e-01 1.542956e+00 4.773543e-01 5.752416e-01 4.422247e-01 5.067381e-01 6.638486e-01 4.520301e-01 1.289969e+00
<GCONST> 1.276023e+02
<TRANSP> 5
 0.000000e+00 1.000000e+00 0.000000e+00 0.000000e+00 0.000000e+00
 0.000000e+00 2.483826e-01 7.516174e-01 0.000000e+00 0.000000e+00
 0.000000e+00 0.000000e+00 6.799310e-01 3.200689e-01 0.000000e+00
 0.000000e+00 0.000000e+00 0.000000e+00 5.327492e-01 4.672509e-01
 0.000000e+00 0.000000e+00 0.000000e+00 0.000000e+00 0.000000e+00
<ENDHMM>
~h "l"
<BEGINHMM>
<NUMSTATES> 5
<STATE> 2
<MEAN> 39
 -1.226167e+00 -8.517918e+00 9.942258e+00 -3.211941e-01 -1.836455e+01 -3.874729e+00 -1.606860e+01 -3.313761e+00 -4.574664e-01 -1.427808e+01 5.784386e-01 -5.171762e+00 6.356630e+01 5.663514e-01 -5.143478e-01 6.710302e-01 2.122848e-02 -2.038850e+00 -1.422727e+00 -4.560634e-01 -3.169406e-01 3.110375e-01 -9.599260e-01 1.720102e+00 -5.147157e-01 3.291161e+00 -1.408332e-01 -7.391067e-02 -4.945578e-01 -6.167859e-02 1.557627e-01 -1.655340e-01 1.380929e-01 -5.338324e-02 6.113942e-02 7.629142e-02 6.306139e-02 -1.062267e-01 3.682740e-03
<VARIANCE> 39
 3.568188e+01 5.044003e+01 1.013596e+02 1.135350e+01 9.123648e+01 4.684890e+01 5.475869e+01 2.849969e+01 4.957036e+01 6.069395e+01 9.439498e+01 2.098596e+01 1.708543e+02 4.630014e+00 5.766540e+00 2.186055e+01 1.152124e+00 4.409760e+00 5.324296e+00 9.786339e+00 2.455992e+00 3.592856e+00 9.931752e+00 8.675023e+00 2.444953e+00 4.938398e+00 6.790848e-01 1.292152e+00 3.077628e+00 2.457607e-01 1.159289e+00 1.040846e+00 1.878317e+00 5.289627e-01 6.911950e-01 2.283899e+00 1.800352e+00 4.853133e-01 1.097057e+00
<GCONST> 1.439338e+02
<STATE> 3
<MEAN> 39
 9.118643e-01 -5.761696e+00 -5.582012e+00 -1.654237e+01 -1.874337e+01 -7.084307e-01 -1.271679e+01 -1.094329e+01 1.630716e+00 -1.141718e+01 1.517055e+01 -1.087997e+01 7.913757e+01 2.417860e-01 5.156975e-01 -4.514976e-01 -9.219289e-01 1.057676e+00 1.140989e+00 1.288555e-01 -1.295880e-01 -1.811892e-01 2.090873e-01 -4.825602e-01 -3.121451e-02 -5.854899e-01 -1.882928e-01 -6.057721e-02 2.396246e-01 2.811563e-01 1.081065e-01 -8.660400e-02 6.106102e-02 1.456151e-01 -1.796156e-01 1.539238e-01 -2.963521e-01 1.724756e-01 -1.595785e-01
<VARIANCE> 39
 1.039071e+01 1.427282e+01 1.196497e+01 1.253872e+02 2.282987e+01 1.216216e+02 2.735825e+01 3.685685e+01 3.770144e+01 4.893400e+01 4.224651e+01 4.971796e+01 1.839442e+01 1.026641e+00 5.018143e-01 1.810858e+00 9.345979e+00 3.420611e+00 8.370296e+00 3.267943e+00 4.865619e+00 4.587242e+00 6.832602e+00 5.099272e+00 7.039649e+00 1.090217e+00 2.942039e-01 9.531730e-02 1.893886e-01 1.063649e+00 5.883295e-01 1.568235e+00 6.988707e-01 7.727975e-01 7.287788e-01 1.366691e+00 9.804628e-01 1.550723e+00 5.052555e-02
<GCONST> 1.238723e+02
<STATE> 4
<MEAN> 39
 -2.739817e+00 -8.136938e+00 -1.194896e+00 -3.556582e+00 -9.018395e+00 -3.741864e+00 -1.260109e+01 -4.131061e+00 -5.556964e-01 -8.625698e+00 -3.146860e+00 -4.601527e+00 6.836437e+01 8.804955e-02 -3.760187e-01 7.698517e-02 4.058735e-02 5.573433e-03 -9.123281e-02 -4.061366e-01 1.626585e-01 1.565519e-02 2.877653e-01 6.577455e-02 -4.766340e-02 2.413593e-01 1.085540e-01 -5.289908e-03 -1.888531e-02 -2.690727e-01 -1.479098e-01 2.495039e-01 2.029783e-02 -1.365416e-01 -2.460073e-02 -9.135534e-03 1.720140e-01 -1.025021e-01 7.329509e-02
<VARIANCE> 39
 1.174913e+02 2.300981e+01 3.547468e+01 7.511328e+01 4.682193e+01 3.076546e+01 6.246800e+01 4.255427e+01 3.339055e+01 4.611683e+01 5.814993e+01 6.234077e+01 5.744502e+01 6.545998e+00 2.123184e+00 2.486208e+00 5.368617e+00 4.014246e+00 5.099431e+00 4.718429e+00 4.090380e+00 3.152237e+00 3.592727e+00 7.434376e+00 6.141799e+00 5.490692e+00 7.710198e-01 3.604553e-01 3.561746e-01 6.318865e-01 7.189621e-01 9.021021e-01 1.003500e+00 6.892661e-01 4.381654e-01 5.141378e-01 1.015257e+00 8.587220e-01 7.630048e-01
<GCONST> 1.358934e+02
<TRANSP> 5
 0.000000e+00 1.000000e+00 0.000000e+00 0.000000e+00 0.000000e+00
 0.000000e+00 9.027328e-01 9.726720e-02 0.000000e+00 0.000000e+00
 0.000000e+00 0.000000e+00 9.349280e-01 6.507201e-02 0.000000e+00
 0.000000e+00 0.000000e+00 0.000000e+00 9.682817e-01 3.171828e-02
 0.000000e+00 0.000000e+00 0.000000e+00 0.000000e+00 0.000000e+00
<ENDHMM>
~h "m"
<BEGINHMM>
<NUMSTATES> 5
<STATE> 2
<MEAN> 39
 2.486397e-01 -1.178964e+01 -4.730527e+00 -1.070240e+01 -4.407273e+00 -1.740548e+00 -2.406732e+01 8.718949e+00 1.076944e+01 -2.051673e+01 6.072546e-01 -1.412838e+01 7.808561e+01 1.345339e-01 9.437311e-02 8.010554e-02 2.076361e-01 6.944647e-02 -3.071606e-01 2.982701e-01 -5.474341e-02 -1.595199e-01 1.443251e-01 -2.848279e-02 1.632938e-01 -3.756938e-01 6.245600e-02 -9.532007e-04 4.397849e-02 -1.395689e-02 2.191865e-02 1.760897e-02 2.166059e-02 -3.967043e-02 -5.678547e-02 -2.107536e-03 1.194855e-01 -4.916630e-02 -1.061940e-01
<VARIANCE> 39
 4.479611e+00 9.009282e+00 7.533499e+00 1.331854e+01 8.997073e+00 3.703011e+01 1.261522e+01 1.555983e+01 2.140285e+01 1.855013e+01 1.728277e+01 7.797640e+00 1.028490e+01 2.709270e-01 2.458806e-01 2.445694e-01 3.940591e-01 3.686615e-01 6.816810e-01 4.764197e-01 4.635920e-01 4.902751e-01 4.722292e-01 1.194369e+00 6.467846e-01 2.268906e-01 5.959312e-02 5.053257e-02 6.220591e-02 4.721551e-02 6.201556e-02 7.960298e-02 8.131324e-02 7.448102e-02 1.203209e-01 8.775411e-02 1.233046e-01 7.967541e-02 4.473150e-02
<GCONST> 5.881165e+01
<STATE> 3
<MEAN> 39
 3.642757e+00 -1.726092e+01 -8.163665e+00 -2.106961e+01 -5.326170e+00 1.819266e+01 -1.633202e+01 1.044739e+00 5.183944e-01 -1.303444e+01 1.955213e+00 -1.062067e+01 6.862921e+01 3.283443e-01 6.398925e-01 -5.084743e-01 -2.960617e-01 3.534690e-01 2.292246e-01 9.705748e-01 -1.357148e-01 -4.022545e-01 -4.520278e-01 1.845953e-01 9.651779e-01 -1.531394e+00 -1.718305e-01 2.518547e-01 -3.742848e-02 3.740829e-01 2.564342e-02 -4.204413e-01 2.190993e-01 1.052751e-01 1.861494e-03 1.702031e-01 -4.375255e-01 1.751743e-02 -2.986968e-01
<VARIANCE> 39
 6.726388e+00 2.869496e+01 1.983163e+01 7.392226e+01 1.950511e+01 2.022980e+02 3.404517e+01 2.888775e+01 4.641443e+01 4.298685e+01 1.858061e+01 2.602161e+01 2.397797e+01 8.237256e-01 8.641586e-01 8.828189e-01 1.560476e+00 9.748433e-01 2.060184e+00 2.126545e+00 1.409970e+00 9.935274e-01 1.468920e+00 1.478363e+00 1.018051e+00 8.543229e-01 1.800335e-01 2.271602e-01 1.542150e-01 3.010685e-01 1.665427e-01 4.264483e-01 3.757810e-01 2.261669e-01 1.986826e-01 3.064343e-01 2.817987e-01 1.847447e-01 2.037032e-01
<GCONST> 1.000419e+02
<STATE> 4
<MEAN> 39
 3.689821e+00 -1.192966e+01 -7.305483e+00 -1.381427e+01 -3.235180e+00 6.569496e+00 -1.400978e+01 2.415380e+00 3.084660e+00 -1.581987e+01 9.745505e-01 -9.873932e+00 6.541920e+01 8.560950e-02 1.312663e+00 -1.251237e-01 1.103460e+00 4.451345e-01 -8.153096e-01 1.428556e+00 -2.711588e-01 -1.049400e+00 8.092848e-01 -1.279150e+00 9.254540e-01 -2.483925e+00 -2.230196e-01 4.317178e-01 2.260130e-03 5.295016e-01 -8.591492e-02 -1.062976e-01 3.593383e-02 1.903011e-02 -2.443461e-01 3.620592e-01 -4.953038e-01 1.454100e-01 -3.653259e-01
<VARIANCE> 39
 7.874122e+00 1.813993e+01 5.689545e+01 1.217967e+02 2.717353e+01 2.818976e+02 4.437645e+01 4.154014e+01 5.752127e+01 4.823937e+01 2.041015e+01 2.994308e+01 3.334450e+01 2.047799e+00 1.296201e+00 1.961205e+00 1.839569e+00 1.399783e+00 2.177686e+00 1.817497e+00 2.166032e+00 1.617104e+00 1.462434e+00 1.438165e+00 9.545567e-01 1.476871e+00 2.719372e-01 3.274672e-01 2.560109e-01 4.229035e-01 2.717847e-01 4.339987e-01 4.411800e-01 3.818653e-01 2.930418e-01 3.021895e-01 3.547359e-01 2.901481e-01 2.553384e-01
<GCONST> 1.114847e+02
<TRANSP> 5
 0.000000e+00 1.000000e+00 0.000000e+00 0.000000e+00 0.000000e+00
 0.000000e+00 9.093554e-01 9.064464e-02 0.000000e+00 0.000000e+00
 0.000000e+00 0.000000e+00 6.484569e-01 3.515431e-01 0.000000e+00
 0.000000e+00 0.000000e+00 0.000000e+00 5.341390e-01 4.658610e-01
 0.000000e+00 0.000000e+00 0.000000e+00 0.000000e+00 0.000000e+00
<ENDHMM>
~h "q"
<BEGINHMM>
<NUMSTATES> 5
<STATE> 2
<MEAN> 39
 -8.191576e+00 -3.560633e+00 2.265983e+00 -7.192496e+00 -1.098771e+01 -6.979319e+00 -3.511979e+00 -5.782882e+00 -4.844392e+00 -8.087687e+00 -4.731947e-02 -6.820256e+00 6.122976e+01 -2.012834e+00 -4.296591e-02 -5.296142e-01 -7.563137e-01 1.857120e+00 -2.863407e-01 8.266953e-01 2.915398e-01 -1.049861e-01 8.618476e-01 -7.983705e-01 5.721469e-01 -5.021981e-01 -4.126886e-01 2.061486e-02 -1.939120e-01 -2.971236e-01 5.799260e-02 8.152495e-02 3.362667e-02 1.404372e-01 2.594317e-01 2.185861e-01 8.039774e-02 4.329171e-02 5.270146e-01
<VARIANCE> 39
 6.704975e+01 3.813527e+01 4.792278e+01 2.974093e+01 8.410892e+01 2.723230e+01 4.175453e+01 3.093422e+01 2.237687e+01 4.632483e+01 3.762430e+01 1.979751e+01 1.342467e+02 7.514400e+00 5.479311e+00 3.415189e+00 6.182444e+00 7.690191e+00 3.405113e+00 4.931553e+00 4.181192e+00 3.634401e+00 3.381572e+00 3.012188e+00 2.222643e+00 1.319289e+01 6.978276e-01 1.218416e+00 6.314200e-01 8.983882e-01 1.641782e+00 7.741184e-01 1.302297e+00 1.017385e+00 8.732792e-01 6.093995e-01 5.844159e-01 4.652930e-01 1.316215e+00
<GCONST> 1.383255e+02
<STATE> 3
<MEAN> 39
 -2.727911e+01 -2.296431e+00 -7.424564e-01 -1.801629e+01 -2.466635e-01 -2.743004e+00 -1.989116e+00 -3.783228e+00 -1.072579e+00 -2.203885e-01 -2.307913e-01 -2.743475e+00 7.140311e+01 3.097458e-01 3.404984e-01 8.755611e-01 -3.472512e-02 -2.934794e-01 5.339584e-01 -2.812079e-01 -3.754061e-01 -1.324958e-01 -2.506312e-01 2.974577e-01 -3.592930e-02 7.168422e-01 5.947844e-01 1.792376e-02 3.179257e-01 3.348776e-01 -3.693575e-01 -7.817993e-02 -1.602565e-01 -1.778833e-01 -2.359148e-01 -3.516477e-01 3.298928e-02 -1.268797e-01 -2.124909e-01
<VARIANCE> 39
 2.270021e+01 1.286713e+01 1.660513e+01 1.627576e+01 1.515883e+01 2.329240e+01 1.736610e+01 1.686061e+01 1.744823e+01 1.553201e+01 1.700978e+01 1.353825e+01 2.783547e+01 4.314596e+00 1.976678e+00 2.838092e+00 2.693398e+00 2.029269e+00 2.179038e+00 1.884712e+00 2.572408e+00 3.072608e+00 2.503413e+00 1.875478e+00 1.560503e+00 1.980190e+00 4.275897e-01 4.163825e-01 4.019616e-01 4.192172e-01 4.832535e-01 4.363351e-01 3.550385e-01 4.571285e-01 4.147622e-01 3.916865e-01 3.992836e-01 3.039674e-01 2.452032e-01
<GCONST> 1.076941e+02
<STATE> 4
<MEAN> 39
 -8.661346e+00 -1.628643e+00 1.545913e+01 -9.635557e+00 -1.640881e+01 -3.154921e+00 -9.858378e+00 -1.016618e+01 -7.785680e+00 -1.317816e+01 5.124580e+00 -7.505660e+00 7.293137e+01 7.438581e-01 -3.962175e-01 1.917499e-01 3.905415e-01 -9.107734e-01 -1.926264e-01 -1.345300e-01 3.391967e-01 -3.924807e-02 -2.873136e-01 2.089549e-01 -2.261958e-01 1.183728e-01 -2.142431e-01 -8.150953e-02 -3.384751e-01 -7.201134e-02 2.390930e-01 3.876576e-03 1.744729e-01 2.079830e-01 1.640347e-01 2.224274e-01 -1.628138e-01 6.938000e-02 -5.071682e-02
<VARIANCE> 39
 7.346958e+01 3.369946e+01 4.651165e+01 2.382273e+01 6.241183e+01 1.337342e+01 1.830463e+01 2.827507e+01 1.703559e+01 3.440448e+01 2.223801e+01 1.914328e+01 1.822731e+01 4.213496e+00 1.419270e+00 3.984022e+00 2.267722e+00 5.285190e+00 1.896441e+00 2.782881e+00 2.418951e+00 1.947531e+00 4.286391e+00 1.796000e+00 1.258236e+00 1.541220e+00 4.948123e-01 2.969900e-01 4.094124e-01 3.666575e-01 7.753543e-01 3.318653e-01 3.640137e-01 3.253070e-01 3.441632e-01 4.935827e-01 3.457888e-01 2.339516e-01 2.117685e-01
<GCONST> 1.132348e+02
<TRANSP> 5
 0.000000e+00 1.000000e+00 0.000000e+00 0.000000e+00 0.000000e+00
 0.000000e+00 8.815858e-01 1.184142e-01 0.000000e+00 0.000000e+00
 0.000000e+00 0.000000e+00 9.235753e-01 7.642464e-02 0.000000e+00
 0.000000e+00 0.000000e+00 0.000000e+00 9.452126e-01 5.478739e-02
 0.000000e+00 0.000000e+00 0.000000e+00 0.000000e+00 0.000000e+00
<ENDHMM>
~h "s"
<BEGINHMM>
<NUMSTATES> 5
<STATE> 2
<MEAN> 39
 -1.150012e+01 -4.612221e+00 -9.408147e+00 -6.714305e+00 -4.761804e+00 -4.874319e+00 -4.532478e+00 -4.306342e+00 2.161479e+00 -9.297605e+00 -3.270774e+00 -4.043201e+00 6.839462e+01 -1.088279e-01 -9.703927e-01 -2.804783e-02 -4.242093e-01 -2.371424e-01 6.628869e-01 -5.672417e-01 1.827396e-01 8.133795e-01 -5.543119e-01 1.661935e-01 -4.457076e-01 1.315072e+00 2.943789e-02 -1.140402e-01 4.475334e-02 6.935759e-02 3.836300e-02 1.645223e-01 -1.253008e-01 1.051056e-01 7.589535e-02 -1.051874e-01 3.750312e-02 -9.743010e-02 -8.373708e-02
<VARIANCE> 39
 1.703625e+02 7.679242e+01 1.457688e+01 3.737857e+01 2.312801e+01 5.607800e+01 7.177881e+01 2.195589e+01 7.459106e+01 3.061156e+01 4.332702e+01 2.878239e+01 1.059547e+02 1.630689e+01 4.303138e+00 1.677095e+00 3.298731e+00 2.321688e+00 4.709306e+00 5.163676e+00 2.400461e+00 4.248485e+00 2.859464e+00 3.901759e+00 3.644622e+00 3.651722e+00 2.160153e+00 8.339155e-01 3.506683e-01 6.164992e-01 4.857281e-01 9.046332e-01 7.221537e-01 4.082164e-01 8.627596e-01 4.205907e-01 5.931020e-01 7.350809e-01 5.624123e-01
<GCONST> 1.334236e+02
<STATE> 3
<MEAN> 39
 -1.946025e+00 -1.413221e+01 1.286893e+00 -1.023048e+01 -1.083819e+01 -1.603395e+00 -1.499058e+01 3.600086e+00 3.266846e+00 -1.581936e+01 3.608261e+00 -1.340568e+01 7.666750e+01 1.983523e-02 -8.370243e-03 1.115947e-01 -1.099857e-01 -1.234441e-01 3.654454e-02 1.120345e-01 1.888470e-01 -3.892422e-01 4.541947e-01 -1.753436e-02 -2.445078e-01 -1.437667e-01 2.738241e-02 5.495275e-02 -9.781606e-02 -6.887217e-02 1.213598e-01 1.098822e-01 2.352266e-02 -9.823789e-02 -5.251716e-02 1.740756e-01 -9.759283e-02 2.551253e-02 -7.661956e-02
<VARIANCE> 39
 7.226051e+01 6.458762e+01 4.712149e+01 2.560919e+01 7.056317e+01 5.214056e+01 1.186008e+02 3.585093e+01 7.654551e+01 8.313217e+01 2.844070e+01 4.346923e+01 3.184109e+01 4.723599e+00 2.741196e+00 3.527897e+00 2.286738e+00 6.343163e+00 3.658690e+00 4.075917e+00 2.339970e+00 4.913254e+00 5.557317e+00 3.696774e+00 2.665193e+00 2.667045e+00 6.043674e-01 4.132147e-01 4.053885e-01 4.135794e-01 9.067416e-01 5.149398e-01 6.067955e-01 4.461058e-01 8.106609e-01 8.705299e-01 5.396255e-01 3.680857e-01 3.836740e-01
<GCONST> 1.315856e+02
<STATE> 4
<MEAN> 39
 4.854015e+00 -1.554261e+01 -8.570582e+00 -1.894140e+01 -9.209069e+00 1.524429e+01 -1.266104e+01 1.117945e-01 -5.132807e-01 -3.207223e+00 -9.219464e-01 -1.687445e+01 7.205287e+01 9.028730e-01 6.322237e-01 -5.454174e-01 -4.902733e-01 5.958525e-01 2.909981e+00 3.886384e-01 -1.240655e+00 -1.530881e+00 5.481653e-01 7.182693e-01 1.329736e+00 -2.062891e+00 -1.807059e-01 3.080496e-02 2.581554e-01 3.881283e-01 -6.378375e-01 -5.056320e-01 1.455994e-01 1.967343e-01 4.795479e-02 -5.567062e-01 2.761387e-01 4.515756e-01 1.776747e-01
<VARIANCE> 39
 1.701791e+01 3.283329e+01 1.205891e+01 2.022619e+01 2.363025e+01 4.503662e+01 5.065802e+01 3.611440e+01 2.491265e+01 2.542824e+01 3.813387e+01 2.290889e+01 3.197494e+01 5.770378e-01 1.654043e+00 1.659897e+00 3.752700e+00 3.199539e+00 4.468536e+00 2.779942e+00 2.261313e+00 2.465878e+00 4.305360e+00 3.839980e+00 2.576767e+00 1.401751e+00 6.226963e-02 3.611961e-01 3.911906e-01 3.608580e-01 4.429625e-01 6.188642e-01 5.743573e-01 2.888448e-01 7.106994e-01 6.910002e-01 1.063383e+00 1.042560e+00 2.816125e-01
<GCONST> 1.152253e+02
<TRANSP> 5
 0.000000e+00 1.000000e+00 0.000000e+00 0.000000e+00 0.000000e+00
 0.000000e+00 9.532343e-01 4.676570e-02 0.000000e+00 0.000000e+00
 0.000000e+00 0.000000e+00 9.625378e-01 3.746212e-02 0.000000e+00
 0.000000e+00 0.000000e+00 0.000000e+00 7.512822e-01 2.487178e-01
 0.000000e+00 0.000000e+00 0.000000e+00 0.000000e+00 0.000000e+00
<ENDHMM>
~h "u"
<BEGINHMM>
<NUMSTATES> 5
<STATE> 2
<MEAN> 39
 -1.410302e+01 -3.246972e+00 -1.120932e+01 -2.599467e+00 -8.384152e+00 -2.978302e+00 -8.817758e+00 -3.759518e+00 -5.187964e+00 -3.506483e+00 -3.719337e+00 -4.028109e+00 3.745902e+01 2.017251e+00 1.012472e+00 -1.306633e+00 -2.806660e+00 1.728824e+00 -5.398762e-01 1.041875e+00 1.185487e+00 -9.938934e-01 1.600889e+00 -4.979793e-01 3.507768e-01 2.613058e+00 1.347449e+00 5.548775e-01 -5.850627e-01 -1.734770e+00 8.255495e-01 -3.307236e-02 7.581543e-01 3.762833e-01 -8.503719e-01 6.059834e-01 -1.967009e-01 1.736185e-01 1.922516e+00
<VARIANCE> 39
 2.159668e+00 6.435721e+00 8.951121e+00 9.180207e+00 1.505098e+01 1.446731e+01 1.381583e+01 1.127989e+01 1.262432e+01 1.742115e+01 1.565932e+01 1.227650e+01 3.634416e+00 3.709150e+00 3.251648e+00 4.226755e+00 7.229196e+00 5.359745e+00 2.533314e+00 4.116611e+00 2.680419e+00 4.108809e+00 3.966485e+00 1.863226e+00 1.658393e+00 4.198872e+00 2.138221e-01 1.599558e-01 4.488556e-01 7.889665e-01 6.541208e-01 5.007932e-01 4.907498e-01 3.421758e-01 6.545083e-01 5.027570e-01 4.956157e-01 3.162366e-01 5.486161e-01
<GCONST> 1.064866e+02
<STATE> 3
<MEAN> 39
 -7.714870e+00 8.014909e-01 -8.260899e+00 -2.529631e+00 -7.137269e+00 -2.518956e+00 -7.187377e+00 -2.308506e+00 -3.836113e+00 -2.076111e+00 -3.676744e+00 -3.141135e+00 4.185550e+01 1.388504e+00 4.539004e-01 -1.816991e+00 -3.299289e+00 1.951409e+00 -3.687454e-01 1.279305e+00 9.627745e-01 -1.528231e+00 1.494981e+00 -5.866972e-01 3.115321e-01 2.742479e+00 3.087042e-01 -1.974700e-01 -9.489940e-02 -6.259190e-01 -1.740318e-01 1.578749e-01 -7.832876e-02 -3.307836e-01 -2.611364e-01 -1.369307e-01 3.075705e-01 -1.927394e-01 9.393420e-01
<VARIANCE> 39
 6.175055e+01 4.371128e+01 2.655469e+01 1.950616e+01 2.705067e+01 1.558926e+01 1.957329e+01 1.656538e+01 1.930041e+01 1.540529e+01 1.313710e+01 1.454494e+01 2.342125e+01 1.243303e+01 6.507751e+00 6.841923e+00 1.533641e+01 8.037172e+00 3.133754e+00 4.283870e+00 3.605503e+00 6.430570e+00 5.656378e+00 2.777719e+00 2.300162e+00 1.493553e+01 2.232413e+00 1.089846e+00 6.498539e-01 6.413823e-01 1.273932e+00 4.533465e-01 4.717629e-01 6.083458e-01 5.136176e-01 5.846983e-01 6.369560e-01 4.030781e-01 2.040406e+00
<GCONST> 1.312845e+02
<STATE> 4
<MEAN> 39
 2.103510e+00 -3.522648e+00 -1.490004e+01 -2.490214e+01 -7.446506e+00 -2.361747e-01 -4.727234e+00 -4.175566e+00 -9.614370e+00 1.057899e+00 3.789377e+00 -6.030497e+00 7.279496e+01 8.656110e-01 -1.884508e+00 1.008717e+00 -1.140344e+00 -1.865898e+00 1.526951e+00 -3.768441e-01 -1.378395e+00 1.839249e+00 -4.694934e-01 2.083540e+00 -1.484474e+00 5.547457e+00 -8.897129e-01 -4.014764e-01 2.279819e-01 9.758742e-01 2.454351e-02 2.453501e-01 -1.819366e-01 -8.968967e-02 8.365786e-01 -2.001815e-01 -5.715643e-01 -2.404217e-01 -9.168724e-01
<VARIANCE> 39
 1.849046e+01 4.839337e+01 6.085838e+01 3.146508e+01 1.188403e+02 6.249985e+01 5.472849e+01 6.603078e+01 7.148612e+01 5.940568e+01 1.242979e+02 4.565224e+01 1.179893e+02 9.689250e+00 4.518716e+00 5.359935e+00 1.047602e+01 1.356192e+01 5.013635e+00 7.048449e+00 6.552811e+00 1.032439e+01 8.083954e+00 1.710877e+01 3.973652e+00 7.161752e+00 8.278310e-01 1.212471e+00 1.941282e+00 1.746178e+00 5.078235e+00 1.258801e+00 1.837432e+00 1.936240e+00 2.042531e+00 2.248177e+00 5.052217e+00 9.582799e-01 6.484597e-01
<GCONST> 1.583939e+02
<TRANSP> 5
 0.000000e+00 1.000000e+00 0.000000e+00 0.000000e+00 0.000000e+00
 0.000000e+00 3.415269e-01 6.584731e-01 0.000000e+00 0.000000e+00
 0.000000e+00 0.000000e+00 6.436177e-01 3.563823e-01 0.000000e+00
 0.000000e+00 0.000000e+00 0.000000e+00 8.424485e-01 1.575515e-01
 0.000000e+00 0.000000e+00 0.000000e+00 0.000000e+00 0.000000e+00
<ENDHMM>
~h "x"
<BEGINHMM>
<NUMSTATES> 5
<STATE> 2
<MEAN> 39
 -5.060946e+00 -1.443291e+01 -7.535988e+00 1.270461e+00 -1.844889e-01 -4.906598e+00 -1.609124e+00 -3.574670e+00 3.432451e+00 -1.937084e+00 -1.220251e+00 -6.425349e+00 7.050835e+01 -5.019339e+00 -1.311291e+00 1.048985e+00 1.572002e+00 3.504421e+00 -3.661638e+00 2.983830e-01 1.342901e+00 1.713101e+00 -2.896642e-01 -8.043454e-01 4.932451e-01 7.207514e-01 -2.577634e-01 -1.575915e-01 -1.151934e-01 -5.541012e-01 -5.644722e-01 4.789539e-01 -2.808193e-01 -1.257712e-01 -1.706042e-02 -1.445744e-01 1.170441e-01 -2.352436e-01 1.340612e-02
<VARIANCE> 39
 1.230052e+02 1.074670e+01 2.182076e+01 2.449142e+01 7.998800e+01 6.247221e+01 1.864800e+01 1.899463e+01 3.119734e+01 2.101694e+01 1.506298e+01 1.658003e+01 1.402504e+01 4.372434e+00 8.649696e-01 2.239144e+00 3.562192e+00 7.412835e+00 4.675694e+00 2.654668e+00 2.069507e+00 2.433994e+00 2.376057e+00 1.741558e+00 2.388492e+00 7.146469e-01 1.999606e+00 1.619412e-01 5.743855e-01 5.426039e-01 1.758944e+00 8.613621e-01 3.918083e-01 4.300506e-01 7.270645e-01 4.943718e-01 3.290261e-01 4.438799e-01 2.292970e-01
<GCONST> 1.176005e+02
<STATE> 3
<MEAN> 39
 -2.068414e+01 -1.743794e+01 -2.536981e+00 6.925397e+00 4.816046e+00 -1.798392e+01 -5.008251e+00 -2.042166e-01 7.212570e+00 -5.420155e+00 -3.053058e+00 -3.398690e+00 7.102023e+01 1.304064e+00 6.522139e-01 1.534289e-01 -4.363850e-02 -3.398258e-01 -8.687960e-01 -1.089729e+00 -3.337318e-01 -1.656511e-01 -6.093400e-01 -1.033269e-01 3.753195e-01 5.638535e-02 4.360236e-01 1.072304e-01 -6.925644e-02 -9.772725e-02 -3.131331e-02 5.707807e-02 -1.193656e-01 -7.982403e-02 -4.984979e-02 -9.744528e-02 -5.586050e-03 1.222934e-02 4.082492e-02
<VARIANCE> 39
 6.876978e+01 2.794565e+01 1.603133e+01 1.521911e+01 1.892442e+01 2.377757e+01 3.772643e+01 2.242240e+01 1.364551e+01 1.787626e+01 1.355019e+01 1.043568e+01 1.104853e+01 8.883326e+00 2.427494e+00 1.659385e+00 1.950301e+00 1.735054e+00 1.735056e+00 3.213218e+00 2.098614e+00 1.570029e+00 2.113221e+00 1.460713e+00 1.100352e+00 1.028048e+00 1.007032e+00 5.003070e-01 2.751031e-01 2.945638e-01 3.624576e-01 3.549989e-01 4.481352e-01 3.420189e-01 3.306791e-01 3.703187e-01 2.855487e-01 2.144205e-01 1.932429e-01
<GCONST> 1.057320e+02
<STATE> 4
<MEAN> 39
 6.150891e+00 -1.257208e+01 -7.184447e+00 2.917731e+00 -2.453822e+00 -2.167451e+01 -2.800051e+01 1.361036e+00 8.295367e+00 -1.602414e+01 1.493081e+00 -2.462814e+00 7.263197e+01 4.998294e-01 -1.632114e-01 -5.626518e-01 -3.629730e-02 -2.148802e-01 5.446134e-01 -6.116977e-01 1.022012e+00 2.130010e-01 -2.020910e-01 6.170367e-01 -3.850869e-01 -4.056493e-01 -2.001818e-01 8.866806e-02 7.130324e-02 6.295096e-02 8.475044e-02 5.436106e-02 3.339890e-01 1.376303e-02 -2.876956e-02 2.004944e-01 -1.281678e-01 1.500122e-02 -2.042858e-01
<VARIANCE> 39
 1.511069e+01 1.064967e+01 2.205052e+01 8.746155e+00 2.630023e+01 4.630950e+01 8.903500e+01 7.834594e+01 2.087323e+01 2.832525e+01 6.134291e+01 2.450808e+01 8.251987e+00 4.160596e-01 6.960391e-01 6.385920e-01 6.391954e-01 1.815227e+00 2.059951e+00 5.481526e+00 2.050640e+00 1.268906e+00 2.835073e+00 2.988942e+00 1.679280e+00 7.812970e-01 2.185976e-01 1.456305e-01 1.556414e-01 1.581358e-01 3.039490e-01 3.186924e-01 8.201187e-01 3.439547e-01 2.382537e-01 5.282199e-01 6.178669e-01 3.295969e-01 1.087743e-01
<GCONST> 1.013990e+02
<TRANSP> 5
 0.000000e+00 1.000000e+00 0.000000e+00 0.000000e+00 0.000000e+00
 0.000000e+00 8.130295e-01 1.869705e-01 0.000000e+00 0.000000e+00
 0.000000e+00 0.000000e+00 9.325739e-01 6.742615e-02 0.000000e+00
 0.000000e+00 0.000000e+00 0.000000e+00 9.503758e-01 4.962423e-02
 0.000000e+00 0.000000e+00 0.000000e+00 0.000000e+00 0.000000e+00
<ENDHMM>
~h "ai"
<BEGINHMM>
<NUMSTATES> 5
<STATE> 2
<MEAN> 39
 -1.113354e+01 -1.792104e+01 -1.047515e+01 -6.977400e+00 8.128788e+00 -2.262048e+01 3.053102e+00 -2.051839e+00 -6.433822e-02 -1.112357e+00 -7.016002e+00 6.587747e-01 6.631882e+01 5.780842e-01 -6.373256e-01 1.305801e+00 1.336315e-01 8.294623e-01 -5.483932e-01 2.137681e+00 5.179504e-01 5.951339e-01 -9.959295e-01 6.994792e-01 -1.482295e-01 4.181201e+00 4.768362e-01 6.248429e-01 2.061671e-01 2.137755e-01 -1.333131e+00 2.797781e+00 -7.468565e-01 -2.370335e-01 -4.782836e-01 -5.429221e-01 4.123952e-01 -1.002098e+00 -9.581132e-01
<VARIANCE> 39
 8.843476e+00 2.288849e+01 2.701115e+01 2.937061e+01 2.284920e+01 5.286148e+01 2.632344e+01 2.560745e+01 1.999766e+01 2.741612e+01 2.553833e+01 1.681580e+01 2.632622e+01 2.812042e+00 4.500504e+00 2.545480e+00 2.529238e+00 9.148078e+00 3.747306e+01 4.067573e+00 2.705731e+00 3.167497e+00 3.677172e+00 3.221585e+00 6.122269e+00 8.688269e+00 6.101429e-01 6.696009e-01 7.288858e-01 5.367290e-01 5.863273e-01 2.476800e+00 6.585273e-01 5.516825e-01 5.500535e-01 6.040032e-01 6.133299e-01 7.161517e-01 1.016445e+00
<GCONST> 1.287669e+02
<STATE> 3
<MEAN> 39
 -7.062490e+00 -1.571079e+01 -1.075975e+01 -9.575565e+00 -5.457641e+00 -5.042478e+00 4.423227e+00 3.162823e-01 -1.206235e+00 -1.189359e+01 -7.875427e+00 -3.074253e+00 8.371892e+01 3.587042e-02 1.869222e-01 -5.516503e-02 -5.320930e-01 -1.699893e+00 5.365207e-01 -4.288357e-02 5.070671e-01 1.776759e-01 -7.048961e-01 -9.947951e-02 -1.331591e-01 1.308678e+00 -8.497930e-02 1.443723e-02 8.486407e-02 -4.868170e-02 -5.163326e-02 -3.485013e-01 -1.259291e-01 1.748466e-02 1.009480e-01 1.508601e-01 1.019686e-01 1.666434e-02 -1.918131e-01
<VARIANCE> 39
 1.313843e+01 1.123374e+01 1.421321e+01 1.706308e+01 5.019686e+01 2.036817e+01 2.685651e+01 2.540490e+01 1.518368e+01 1.835214e+01 2.692565e+01 2.193161e+01 4.397266e+01 1.803809e+00 1.005557e+00 2.105279e+00 1.265795e+00 1.947759e+00 4.491147e+00 2.606226e+00 2.355997e+00 1.389472e+00 1.820172e+00 3.198300e+00 3.067697e+00 2.640908e+00 3.764564e-01 2.052677e-01 3.664870e-01 2.858255e-01 3.863584e-01 6.469606e-01 5.559328e-01 4.594037e-01 2.402143e-01 3.007198e-01 5.881950e-01 6.317883e-01 3.190927e-01
<GCONST> 1.088265e+02
<STATE> 4
<MEAN> 39
 -7.791175e+00 -1.090851e+01 -9.927129e-01 -9.494845e+00 -1.769525e+01 -7.633811e+00 -2.789118e+00 1.129929e+00 1.822529e+00 -1.172625e+01 1.550143e+00 -8.905171e+00 7.931488e+01 -3.420717e-01 6.392219e-01 7.716464e-01 5.158546e-01 2.237382e-01 -2.102269e-01 -8.554272e-01 -8.428279e-01 -2.025161e-01 2.956777e-01 6.525422e-01 -1.766612e-01 -1.415929e+00 -7.938683e-02 4.307486e-02 -1.292904e-01 8.223196e-02 3.474694e-01 3.844547e-03 1.132650e-01 -1.122890e-01 -1.306058e-01 -7.693338e-03 -2.292009e-01 2.129877e-01 -1.312880e-01
<VARIANCE> 39
 3.277811e+01 2.929855e+01 2.516328e+01 2.525839e+01 7.496022e+01 2.177602e+01 3.577193e+01 3.198478e+01 1.360199e+01 2.425692e+01 5.151152e+01 2.219629e+01 8.807580e+01 2.233795e+00 2.014675e+00 2.110085e+00 1.706477e+00 4.790728e+00 1.807863e+00 4.553220e+00 2.063975e+00 1.499215e+00 1.996087e+00 5.482193e+00 2.991218e+00 1.897339e+00 2.953480e-01 3.502491e-01 1.641268e-01 2.883480e-01 6.865731e-01 3.256680e-01 7.773104e-01 3.338953e-01 2.710160e-01 3.816475e-01 7.492908e-01 4.499355e-01 2.831759e-01
<GCONST> 1.156925e+02
<TRANSP> 5
 0.000000e+00 1.000000e+00 0.000000e+00 0.000000e+00 0.000000e+00
 0.000000e+00 7.518039e-01 2.481961e-01 0.000000e+00 0.000000e+00
 0.000000e+00 0.000000e+00 9.230673e-01 7.693264e-02 0.000000e+00
 0.000000e+00 0.000000e+00 0.000000e+00 9.143206e-01 8.567941e-02
 0.000000e+00 0.000000e+00 0.000000e+00 0.000000e+00 0.000000e+00
<ENDHMM>
~h "an"
<BEGINHMM>
<NUMSTATES> 5
<STATE> 2
<MEAN> 39
 -3.843324e+00 -1.363895e+01 -1.169672e+01 -1.785711e+01 -4.221545e+00 6.569870e+00 -1.197460e+01 -6.623953e+00 9.412432e+00 -7.250585e+00 -6.545242e+00 -1.366083e+01 8.406929e+01 -1.982417e-01 -7.803293e-02 9.056992e-02 9.319642e-01 4.815561e-01 -4.426217e-01 -1.118308e+00 4.517888e-01 1.368150e+00 -1.785057e+00 -9.982016e-01 -2.279523e-01 -1.893125e-02 1.951633e-01 1.661627e-01 1.231612e-01 1.103927e-01 -3.199913e-01 -3.070977e-01 -6.726658e-02 8.547138e-02 -1.241650e-01 -3.515826e-01 5.256708e-01 1.126071e-01 -1.953701e-01
<VARIANCE> 39
 1.521351e+01 1.030502e+01 4.365446e+00 3.062723e+01 1.838064e+01 3.835300e+01 4.349300e+01 2.037358e+01 3.896214e+01 6.879080e+01 7.272446e+01 2.171374e+01 7.158375e+01 6.225873e-01 7.910255e-01 5.290807e-01 1.129156e+00 3.314225e+00 3.683383e+00 1.436730e+00 2.131470e+00 1.979710e+00 3.301094e+00 7.180510e+00 1.908013e+00 3.414787e-01 8.801761e-02 1.041366e-01 7.887322e-02 1.503958e-01 3.165466e-01 3.860487e-01 3.681337e-01 3.429953e-01 3.010168e-01 4.161185e-01 6.303324e-01 3.691171e-01 8.489674e-02
<GCONST> 1.010198e+02
<STATE> 3
<MEAN> 39
 -1.115584e+00 -1.194155e+01 -7.960547e+00 -9.106178e+00 -8.380847e+00 -2.382553e+00 -1.706705e+01 -1.745881e+00 1.450547e+01 -2.341076e+01 8.996247e-02 -1.486447e+01 7.758603e+01 1.095401e+00 5.104328e-01 1.642496e+00 1.487868e+00 -7.916716e-01 -1.401486e+00 3.388388e-01 -8.708974e-01 -1.602732e+00 -9.988144e-02 1.076656e+00 2.114879e-01 -1.881552e+00 1.189988e-01 3.321862e-02 4.267269e-01 1.620947e-01 1.796609e-01 5.644740e-02 2.283896e-01 -4.356111e-01 -9.714012e-01 1.043834e+00 -5.583498e-01 1.534022e-01 -3.003182e-01
<VARIANCE> 39
 1.729879e+01 1.842419e+01 1.003068e+01 2.238871e+01 1.376297e+01 6.529660e+01 3.866426e+01 1.866015e+01 7.054781e+01 6.105122e+01 4.497036e+01 6.352621e+01 1.009594e+02 7.566314e-01 1.067477e+00 2.333183e+00 2.209040e+00 1.256283e+00 2.102058e+00 2.130682e+00 2.436579e+00 7.113564e+00 8.166164e+00 5.081527e+00 3.635556e+00 1.427203e+00 1.701059e-01 1.926348e-01 2.688746e-01 3.160934e-01 2.051351e-01 4.990658e-01 3.099783e-01 3.711978e-01 8.980625e-01 9.148878e-01 5.694247e-01 4.664797e-01 1.794434e-01
<GCONST> 1.149916e+02
<STATE> 4
<MEAN> 39
 1.682116e+00 -5.772353e+00 2.152576e+00 -3.857549e+00 -1.411614e+01 -6.299609e+00 -1.127516e+01 -8.853119e+00 -1.488954e+00 -1.290537e+01 -1.359535e+00 -6.703082e+00 6.771596e+01 -2.276350e-01 2.050915e-01 1.347140e-01 -2.934204e-01 -1.617926e-01 -9.473202e-02 3.282421e-01 2.064435e-01 -3.544369e-01 8.559504e-01 -3.624701e-02 6.394090e-02 8.921420e-02 -2.125660e-01 -3.140465e-02 -2.945152e-01 -1.671156e-01 2.139139e-01 2.091379e-02 6.807576e-02 1.591659e-01 3.067746e-01 -4.455259e-02 -1.577740e-01 -7.372244e-02 2.498481e-01
<VARIANCE> 39
 5.191996e+01 3.346778e+01 2.730160e+01 4.747276e+01 8.470683e+01 5.281821e+01 2.906874e+01 6.152798e+01 2.959478e+01 2.974303e+01 5.539384e+01 2.799864e+01 1.285406e+02 4.254707e+00 3.195453e+00 4.611073e+00 4.207555e+00 1.035323e+01 3.879392e+00 2.495891e+00 5.412770e+00 6.088649e+00 2.888858e+00 6.612333e+00 2.548367e+00 8.713477e+00 6.464005e-01 4.455418e-01 4.676299e-01 6.867328e-01 2.152599e+00 6.367987e-01 5.189283e-01 9.016297e-01 4.441935e-01 4.707495e-01 1.095993e+00 3.808238e-01 1.139794e+00
<GCONST> 1.357782e+02
<TRANSP> 5
 0.000000e+00 1.000000e+00 0.000000e+00 0.000000e+00 0.000000e+00
 0.000000e+00 8.485187e-01 1.514813e-01 0.000000e+00 0.000000e+00
 0.000000e+00 0.000000e+00 7.082872e-01 2.917128e-01 0.000000e+00
 0.000000e+00 0.000000e+00 0.000000e+00 8.526725e-01 1.473275e-01
 0.000000e+00 0.000000e+00 0.000000e+00 0.000000e+00 0.000000e+00
<ENDHMM>
~h "ao"
<BEGINHMM>
<NUMSTATES> 5
<STATE> 2
<MEAN> 39
 -6.226151e+00 -9.210251e+00 -2.007684e+01 -1.270168e+01 -3.196447e+00 8.481632e+00 -2.704508e+00 -2.225376e+00 -4.641674e+00 -8.252440e+00 -5.387875e+00 -4.350091e+00 4.765908e+01 -1.003958e+00 4.529374e-01 4.121261e-01 4.591105e-01 -7.955484e-01 -1.323186e+00 8.322518e-02 -4.615739e-02 -3.356683e-01 5.892004e-02 -3.735510e-01 -1.198567e-01 -1.058946e+00 2.077957e-02 1.422745e-01 5.607040e-01 2.801474e-01 -1.004235e-02 -2.276160e-01 -2.584540e-01 7.404505e-02 1.326551e-01 7.908134e-02 8.742537e-02 -1.699381e-02 1.063793e-01
<VARIANCE> 39
 1.545799e+01 1.189886e+01 3.091520e+01 5.416082e+01 1.498043e+01 1.435093e+02 8.024909e+01 2.149383e+01 2.783505e+01 2.044897e+01 1.560612e+01 1.267447e+01 1.783378e+01 9.906996e-01 1.449675e+00 3.581044e+00 2.379798e+00 1.721146e+00 2.970062e+00 3.551966e+00 2.087790e+00 1.894162e+00 1.791923e+00 1.945405e+00 1.388852e+00 3.610608e-01 1.541203e-01 1.549541e-01 2.368949e-01 2.548716e-01 3.238472e-01 5.314004e-01 6.754240e-01 3.502902e-01 3.934111e-01 4.791726e-01 4.089326e-01 2.581949e-01 9.372783e-02
<GCONST> 1.052636e+02
<STATE> 3
<MEAN> 39
 -1.121651e+01 -7.484391e+00 -1.308400e+01 -2.969983e+00 -5.647053e+00 -7.030064e+00 -1.190477e+01 -1.927451e+00 -1.676218e+00 -5.395423e+00 -7.168897e+00 -4.411000e+00 4.317022e+01 -8.152451e-01 3.460059e-01 6.755114e-01 1.605446e-01 -2.510042e-01 2.053134e-01 3.258867e-01 -3.572045e-01 -4.595492e-01 3.929172e-01 2.368901e-01 -8.032289e-02 -7.053456e-01 2.338741e-01 1.252988e-01 6.260003e-02 4.139060e-02 1.586660e-01 2.574343e-01 2.350345e-01 8.128347e-02 -4.199185e-02 5.268874e-04 1.888483e-01 1.278602e-01 1.702441e-01
<VARIANCE> 39
 1.015767e+01 8.543695e+00 1.067508e+01 2.856669e+01 1.285850e+01 6.138806e+01 5.594646e+01 1.609782e+01 2.734730e+01 1.634479e+01 1.861036e+01 1.279972e+01 1.767600e+01 5.505043e-01 8.854969e-01 1.576277e+00 2.015907e+00 1.491552e+00 3.679451e+00 2.876994e+00 1.606870e+00 2.372204e+00 2.087224e+00 1.784202e+00 1.077280e+00 1.725932e-01 6.136982e-02 1.140896e-01 2.010341e-01 2.679028e-01 3.342400e-01 3.969145e-01 3.687951e-01 3.115961e-01 3.893084e-01 3.977446e-01 3.542733e-01 2.053844e-01 3.510128e-02
<GCONST> 9.404854e+01
<STATE> 4
<MEAN> 39
 -7.202106e+00 3.762196e+00 -4.415100e+00 3.684332e-01 -5.944186e+00 -1.752043e+00 -7.873121e+00 -3.426561e+00 -4.776197e+00 -3.313079e+00 -3.312107e+00 -3.080219e+00 4.196459e+01 -5.400985e-03 1.958630e-01 1.850800e-01 1.973709e-01 4.602518e-02 2.504607e-02 5.269822e-02 -2.290576e-02 -2.264794e-02 1.130133e-01 1.248414e-01 6.594683e-02 -6.511967e-02 -1.288439e-02 -6.930660e-02 -6.993351e-02 -5.263161e-02 -4.479463e-03 4.211582e-03 6.355060e-03 2.688938e-03 -1.578869e-02 -3.121485e-02 -8.769558e-03 -4.852167e-03 2.819329e-02
<VARIANCE> 39
 3.054706e+01 3.930679e+01 2.633245e+01 2.641209e+01 2.004882e+01 2.148305e+01 1.893719e+01 1.643739e+01 1.636799e+01 1.321268e+01 1.317898e+01 1.196453e+01 1.272038e+01 1.599827e+00 2.068088e+00 2.030334e+00 1.805134e+00 1.889386e+00 2.127358e+00 1.836564e+00 1.771464e+00 1.701911e+00 1.450561e+00 1.387085e+00 1.270826e+00 4.110975e-01 2.485569e-01 3.415322e-01 4.049695e-01 3.671902e-01 4.032172e-01 4.320588e-01 3.535250e-01 3.614227e-01 3.416000e-01 2.799066e-01 2.767740e-01 2.638430e-01 9.638597e-02
<GCONST> 1.002658e+02
<TRANSP> 5
 0.000000e+00 1.000000e+00 0.000000e+00 0.000000e+00 0.000000e+00
 0.000000e+00 6.820087e-01 3.179912e-01 0.000000e+00 0.000000e+00
 0.000000e+00 0.000000e+00 7.543817e-01 2.456184e-01 0.000000e+00
 0.000000e+00 0.000000e+00 0.000000e+00 8.935062e-01 1.064938e-01
 0.000000e+00 0.000000e+00 0.000000e+00 0.000000e+00 0.000000e+00
<ENDHMM>
~h "en"
<BEGINHMM>
<NUMSTATES> 5
<STATE> 2
<MEAN> 39
 6.395501e+00 -3.036004e+00 -5.791906e+00 -2.041695e+01 -1.853365e+01 1.107543e+01 -1.369537e+01 3.771055e+00 8.400743e+00 -2.258154e+01 1.024999e+01 -1.110965e+01 6.996221e+01 1.654000e-01 8.994734e-01 1.803766e-01 9.653593e-01 7.427393e-01 -8.929393e-01 4.441739e-01 1.109549e-01 -6.386076e-01 9.355966e-01 -3.265375e-01 -6.441060e-01 -1.683030e+00 -1.695845e-01 1.080062e-01 4.486117e-02 1.791797e-01 1.569451e-01 1.108017e-03 1.188196e-01 -1.399622e-01 -1.979719e-01 2.721376e-01 -3.656266e-01 2.213482e-01 -1.995541e-01
<VARIANCE> 39
 3.978377e+00 9.014408e+00 7.523716e+00 4.530913e+01 6.092458e+01 7.301450e+01 1.640232e+01 2.265772e+01 1.875587e+01 3.916782e+01 4.055214e+01 4.808573e+01 3.342242e+01 3.487665e-01 1.748709e+00 3.944215e-01 9.247910e-01 9.032782e-01 8.298990e-01 1.033176e+00 1.013104e+00 1.600920e+00 2.374892e+00 5.037436e+00 2.904505e+00 1.687748e+00 1.243255e-01 1.233428e-01 7.697374e-02 2.231151e-01 1.122532e-01 1.687587e-01 1.665631e-01 1.924360e-01 2.125415e-01 2.156982e-01 5.316146e-01 2.395096e-01 4.825743e-02
<GCONST> 9.206406e+01
<STATE> 3
<MEAN> 39
 3.188171e+00 2.792219e+00 -2.237051e+00 -2.669397e+00 -3.502370e+00 -3.826442e-01 -1.025958e+01 3.525041e+00 9.627990e-01 -1.071366e+01 -5.354340e+00 -8.176090e+00 5.270017e+01 -1.941427e+00 2.773318e-01 -5.898760e-01 1.804129e+00 5.661709e-01 -1.810106e-01 1.152271e+00 -7.352643e-01 -1.025021e+00 1.643178e+00 -2.112761e+00 1.460670e+00 -2.877143e+00 -4.681611e-01 -8.941703e-01 -5.330707e-01 -6.920976e-01 -4.338514e-01 -1.418628e-01 -2.128730e-01 -8.627747e-02 3.552385e-01 -2.786679e-01 6.548594e-01 -2.602254e-01 4.196212e-01
<VARIANCE> 39
 1.281860e+01 2.230051e+01 1.354601e+01 8.959254e+01 3.848853e+01 4.986802e+01 2.684966e+01 2.569357e+01 2.010663e+01 2.699820e+01 3.571804e+01 3.055883e+01 1.722101e+01 1.215674e+00 3.366361e+00 2.363593e+00 3.913500e+00 2.403425e+00 1.938623e+00 2.237456e+00 2.320836e+00 2.859490e+00 1.665124e+00 4.252042e+00 2.070875e+00 9.509536e-01 2.073774e-01 2.137169e-01 2.430479e-01 6.633641e-01 3.662078e-01 2.839821e-01 4.022878e-01 3.771362e-01 4.345013e-01 2.945046e-01 4.112416e-01 3.874027e-01 7.163503e-02
<GCONST> 1.095546e+02
<STATE> 4
<MEAN> 39
 -4.331224e+00 9.872404e-02 -6.410436e+00 -1.657428e+00 -6.171179e+00 -3.244000e+00 -8.267265e+00 -1.260386e+00 -2.551553e+00 -5.751524e+00 -6.529141e+00 -3.994937e+00 4.579429e+01 -5.863795e-01 -1.028173e-01 -2.757363e-01 -4.675763e-01 -4.820576e-01 -4.198682e-04 2.883555e-01 -4.091433e-01 -4.264339e-01 2.245366e-01 2.964252e-01 1.073015e-01 -4.633861e-01 2.207406e-01 1.062981e-01 1.392653e-01 4.428355e-04 7.460380e-03 1.100398e-02 -2.067019e-02 2.674519e-02 -1.546628e-02 -7.977220e-02 1.089058e-01 -3.268990e-02 1.964368e-01
<VARIANCE> 39
 5.202035e+01 3.807876e+01 1.972926e+01 2.209228e+01 2.294614e+01 2.085303e+01 2.252422e+01 2.107230e+01 2.631975e+01 1.709392e+01 2.487604e+01 1.788192e+01 1.586428e+01 2.250184e+00 1.771646e+00 1.907373e+00 1.925803e+00 1.646874e+00 1.999943e+00 1.680778e+00 1.895211e+00 2.416932e+00 1.708291e+00 2.275034e+00 1.636610e+00 7.649795e-01 2.176031e-01 2.254855e-01 3.179544e-01 3.172688e-01 2.965560e-01 3.433428e-01 3.341753e-01 3.754123e-01 5.389000e-01 3.854713e-01 4.532787e-01 3.332859e-01 1.014139e-01
<GCONST> 1.047303e+02
<TRANSP> 5
 0.000000e+00 1.000000e+00 0.000000e+00 0.000000e+00 0.000000e+00
 0.000000e+00 8.151385e-01 1.848615e-01 0.000000e+00 0.000000e+00
 0.000000e+00 0.000000e+00 7.591155e-01 2.408845e-01 0.000000e+00
 0.000000e+00 0.000000e+00 0.000000e+00 8.729361e-01 1.270638e-01
 0.000000e+00 0.000000e+00 0.000000e+00 0.000000e+00 0.000000e+00
<ENDHMM>
~h "er"
<BEGINHMM>
<NUMSTATES> 5
<STATE> 2
<MEAN> 39
 -5.691184e+00 -1.422720e+01 -9.953449e+00 -1.208167e+01 -3.391395e+00 2.195894e-01 -1.142918e+01 3.877928e+00 -2.976584e+00 -6.960732e+00 1.251820e+00 -8.075165e+00 7.300346e+01 3.910978e-01 -3.400495e-01 2.384216e-01 -1.724208e-01 -1.680421e-01 8.797437e-02 -2.177965e-01 3.299340e-01 2.276848e-01 -7.884061e-02 9.614580e-02 -3.373772e-01 9.492276e-01 1.981846e-03 -3.217747e-02 -1.229344e-02 -3.438247e-02 -5.009715e-02 6.432980e-02 -7.729915e-03 2.198230e-02 2.130399e-03 -9.870898e-03 1.537334e-02 -4.331645e-02 6.185312e-03
<VARIANCE> 39
 1.291422e+02 5.232506e+01 7.437986e+01 3.915545e+01 5.326010e+01 7.118016e+01 1.071635e+02 8.891661e+01 5.634476e+01 3.624774e+01 3.860272e+01 5.234069e+01 1.777200e+02 1.025772e+01 4.296149e+00 3.505239e+00 2.959269e+00 6.088847e+00 5.750728e+00 1.066958e+01 7.875819e+00 3.371897e+00 3.242936e+00 4.020648e+00 6.074364e+00 9.478350e+00 1.437546e+00 6.840878e-01 5.430292e-01 4.723814e-01 1.057816e+00 1.111204e+00 1.804911e+00 1.347922e+00 5.483912e-01 6.083422e-01 7.584971e-01 1.100144e+00 1.018780e+00
<GCONST> 1.466496e+02
<STATE> 3
<MEAN> 39
 3.239755e+00 -2.018991e+01 -3.193775e+00 -1.543751e+01 -1.738963e+01 1.157624e+01 -1.677739e+01 6.648136e+00 -1.243594e+00 -8.658251e+00 3.234455e+00 -1.767302e+01 7.770987e+01 5.830415e-01 1.190203e-01 -7.903522e-01 -4.062972e-01 1.393541e-01 2.308709e+00 5.793595e-01 -1.094550e+00 -9.961447e-01 1.906949e-01 3.764331e-01 5.511209e-01 -8.997445e-01 1.604581e-02 3.312119e-01 9.673520e-02 2.475761e-01 2.270868e-01 -4.929892e-01 2.195754e-01 -2.994135e-01 7.943710e-03 1.953966e-02 -8.591895e-02 5.426342e-01 -3.758827e-01
<VARIANCE> 39
 1.236495e+01 1.455799e+01 4.364300e+01 4.817019e+01 3.821825e+01 8.754367e+01 2.324189e+01 7.992977e+01 2.562167e+01 7.009749e+01 3.084649e+01 2.349778e+01 6.947263e+00 9.091952e-01 1.141751e+00 1.327357e+00 2.508596e+00 2.612503e+00 6.953679e+00 2.402184e+00 4.242813e+00 2.233551e+00 2.000801e+00 2.751925e+00 3.192627e+00 1.012495e+00 1.722620e-01 2.681805e-01 1.555436e-01 3.024436e-01 5.617622e-01 9.154199e-01 5.829244e-01 8.889013e-01 4.020418e-01 3.735533e-01 4.960045e-01 8.078375e-01 1.845569e-01
<GCONST> 1.143710e+02
<STATE> 4
<MEAN> 39
 9.142425e+00 -1.287289e+01 -5.154883e+00 -7.795741e+00 -1.630431e+01 1.059375e+01 -1.072610e+01 -5.219949e+00 -5.883800e+00 -6.843091e+00 1.436415e+00 -8.075721e+00 6.774751e+01 2.241742e-01 7.110634e-01 -4.783840e-01 1.974092e+00 6.483862e-01 -1.627098e+00 9.760350e-01 -9.687254e-01 3.300911e-01 2.230017e-01 -8.207323e-01 1.058066e+00 -1.046174e+00 -4.071164e-01 -1.072926e-01 9.947848e-02 1.534820e-01 4.776509e-01 -5.486766e-01 1.191113e-02 4.363326e-01 2.838103e-01 -5.965816e-02 -1.167571e-01 -4.497811e-02 1.808748e-01
<VARIANCE> 39
 5.643188e+00 1.665769e+01 1.081850e+02 1.038961e+02 1.987219e+01 8.554762e+01 1.810631e+01 1.751977e+01 8.876966e+00 1.002797e+02 2.175310e+01 4.631306e+01 1.204619e+01 4.765187e-01 1.284891e+00 1.096514e+00 3.767994e+00 3.077839e+00 5.221648e+00 1.472171e+00 3.359930e+00 1.280485e+00 1.906666e+00 1.921122e+00 1.186042e+00 4.941812e-01 2.775840e-01 1.763490e-01 2.714908e-01 4.916085e-01 5.839880e-01 2.371769e-01 2.062737e-01 4.009602e-01 1.515842e-01 3.858722e-01 2.228517e-01 3.719011e-01 1.050027e-01
<GCONST> 1.041731e+02
<TRANSP> 5
 0.000000e+00 1.000000e+00 0.000000e+00 0.000000e+00 0.000000e+00
 0.000000e+00 9.751793e-01 2.482068e-02 0.000000e+00 0.000000e+00
 0.000000e+00 0.000000e+00 8.541281e-01 1.458719e-01 0.000000e+00
 0.000000e+00 0.000000e+00 0.000000e+00 8.304257e-01 1.695743e-01
 0.000000e+00 0.000000e+00 0.000000e+00 0.000000e+00 0.000000e+00
<ENDHMM>
~h "iu"
<BEGINHMM>
<NUMSTATES> 5
<STATE> 2
<MEAN> 39
 4.488489e+00 -1.282604e+01 -3.439307e+00 -2.165347e+01 -1.286871e+01 1.100165e+01 -1.840476e+01 -7.479268e+00 -2.309992e+00 -2.327748e+00 1.033435e+01 -1.067823e+01 7.866212e+01 5.384421e-01 5.490296e-01 -2.506338e-01 -3.497040e+00 -1.054431e+00 3.962024e+00 1.624177e+00 -7.566695e-01 -4.193932e-02 -4.603814e-01 -7.934540e-01 1.711961e+00 -3.511243e-01 -1.328078e-01 4.070228e-01 -1.199285e-01 5.183172e-01 1.293712e-01 -8.153733e-01 8.329485e-02 7.003917e-01 4.562626e-01 -1.088704e+00 -7.776496e-01 8.429925e-01 -3.218169e-01
<VARIANCE> 39
 3.378097e+00 1.541051e+01 6.814771e+00 4.111769e+01 4.064301e+01 6.382291e+01 3.986263e+01 2.913634e+01 1.847353e+01 3.261601e+01 4.935398e+01 4.974207e+01 3.634416e+00 1.964222e-01 4.504615e-01 3.162298e-01 2.990653e+00 1.143831e+00 3.436400e+00 1.969668e+00 5.298489e+00 1.928945e+00 6.904859e+00 3.644019e+00 4.011830e+00 5.922595e-01 6.916817e-02 7.580084e-02 1.020238e-01 2.468001e-01 2.651608e-01 5.859889e-01 5.203092e-01 5.785589e-01 3.224456e-01 1.040302e+00 6.493979e-01 7.282884e-01 6.959972e-02
<GCONST> 1.011609e+02
<STATE> 3
<MEAN> 39
 6.266131e+00 -7.555147e+00 -4.222399e+00 -3.000039e+01 -1.849176e+01 1.827907e+01 -1.267748e+01 -3.638352e+00 3.930299e+00 -1.458683e+01 3.465602e+00 -5.703494e-02 7.576913e+01 1.147217e-01 1.067073e+00 -4.352134e-01 2.460616e-01 -1.119142e+00 4.762263e-01 3.975906e-01 1.109173e+00 1.516461e+00 -2.511575e+00 -7.556359e-01 4.541076e-01 -6.985530e-01 -4.949134e-02 -2.047558e-01 3.597014e-02 6.515267e-01 6.339922e-02 -3.723862e-01 -2.632892e-01 -2.836036e-02 -1.115918e-01 3.418470e-01 4.507186e-01 -6.671392e-01 2.648313e-02
<VARIANCE> 39
 3.461161e+00 1.629499e+01 6.610931e+00 1.555337e+01 4.738357e+01 2.768198e+01 3.718388e+01 1.511489e+01 5.436614e+01 7.996363e+01 9.463231e+00 4.626354e+01 4.504621e+00 1.600306e-01 2.781594e-01 2.311291e-01 2.230973e+00 4.933951e-01 4.866448e-01 8.711707e-01 9.934515e-01 2.127029e+00 4.417518e+00 1.365490e+00 2.376520e+00 1.892806e-01 5.561154e-02 9.576958e-02 4.456248e-02 1.353170e-01 1.182390e-01 2.407487e-01 2.150132e-01 1.837744e-01 2.260988e-01 2.940448e-01 1.960556e-01 1.751751e-01 1.971466e-02
<GCONST> 7.908010e+01
<STATE> 4
<MEAN> 39
 6.176398e+00 -3.358517e+00 -5.327282e+00 -2.390322e+01 -2.446240e+01 1.796610e+01 -1.587628e+01 3.143042e+00 9.200885e+00 -2.403923e+01 1.047473e+01 -8.582051e+00 7.295297e+01 1.769024e-02 1.619992e-01 1.104795e-02 8.350860e-01 5.651639e-02 -7.696251e-01 1.696560e-01 2.558249e-01 4.239383e-02 8.653285e-02 1.099267e+00 -1.673823e+00 -6.395109e-01 2.701377e-02 -1.792584e-02 4.131377e-02 -5.975441e-02 2.101976e-01 -1.463914e-01 8.671661e-02 -1.561470e-01 -8.126570e-02 2.415427e-01 1.043809e-02 8.896612e-03 -1.050880e-01
<VARIANCE> 39
 3.484000e+00 8.548251e+00 4.635341e+00 2.200838e+01 1.482070e+01 1.772947e+01 1.652532e+01 9.721886e+00 2.688198e+01 3.371133e+01 3.043187e+01 5.536052e+01 8.761342e+00 2.134522e-01 1.957945e-01 2.387423e-01 5.731300e-01 5.950886e-01 6.813182e-01 5.495963e-01 6.064380e-01 6.147998e-01 8.250243e-01 5.184931e-01 9.503074e-01 2.205039e-01 3.131596e-02 4.413802e-02 4.856843e-02 6.669142e-02 1.202180e-01 1.565777e-01 8.700214e-02 6.858568e-02 1.479466e-01 1.541879e-01 1.429077e-01 1.252798e-01 3.083363e-02
<GCONST> 6.399871e+01
<TRANSP> 5
 0.000000e+00 1.000000e+00 0.000000e+00 0.000000e+00 0.000000e+00
 0.000000e+00 7.463727e-01 2.536274e-01 0.000000e+00 0.000000e+00
 0.000000e+00 0.000000e+00 7.393705e-01 2.606295e-01 0.000000e+00
 0.000000e+00 0.000000e+00 0.000000e+00 8.564065e-01 1.435935e-01
 0.000000e+00 0.000000e+00 0.000000e+00 0.000000e+00 0.000000e+00
<ENDHMM>
~h "sh"
<BEGINHMM>
<NUMSTATES> 5
<STATE> 2
<MEAN> 39
 -1.078234e+01 -1.037512e+01 1.177644e+00 2.443038e+00 -8.685803e+00 -1.274972e+01 -2.262568e+00 3.646156e+00 -5.659757e+00 -1.153681e+01 -2.817223e+00 -7.125717e+00 7.415226e+01 -7.098339e-01 -1.815291e-01 -4.268147e-01 -1.219259e+00 5.474728e-01 -1.808066e-02 -3.241167e-02 9.145561e-01 6.381637e-01 -2.152156e-01 5.159511e-02 -2.126758e-01 9.948389e-01 4.581609e-02 -9.215066e-02 -5.582496e-02 -2.014634e-01 1.054227e-01 4.017483e-01 -1.476095e-01 -3.881131e-01 1.600408e-01 2.254115e-01 -1.854905e-01 8.377224e-03 4.402614e-02
<VARIANCE> 39
 1.601732e+02 3.359377e+01 3.033209e+01 5.383834e+01 3.421292e+01 2.070243e+01 4.423088e+01 3.087736e+01 2.879420e+01 2.877556e+01 3.180424e+01 2.377975e+01 2.472752e+01 1.920892e+01 4.385410e+00 4.221059e+00 3.643691e+00 4.665962e+00 5.067181e+00 6.337370e+00 4.720622e+00 3.999895e+00 4.777553e+00 4.451091e+00 2.240508e+00 1.454967e+00 2.638548e+00 7.321340e-01 6.189454e-01 5.231765e-01 8.771340e-01 4.654337e-01 1.003676e+00 7.153822e-01 6.022196e-01 8.492571e-01 6.456242e-01 4.429813e-01 2.243476e-01
<GCONST> 1.322445e+02
<STATE> 3
<MEAN> 39
 -2.218969e+00 -1.629983e+01 -9.180228e+00 -1.005974e+01 -2.423785e+00 6.401671e+00 -1.674299e+01 1.949677e+00 1.082776e+01 -1.745037e+01 -6.390272e+00 -1.424783e+01 7.640447e+01 9.842466e-02 1.967137e-01 -1.730591e-01 6.960651e-01 4.700033e-01 4.881554e-01 5.626801e-03 1.037936e-02 2.615182e-01 -1.565012e-01 -1.872773e-01 2.597868e-01 -1.326160e+00 4.196256e-02 1.948874e-02 3.300964e-02 1.259695e-01 -6.941902e-02 -2.083219e-01 9.423540e-02 1.084341e-01 -1.792252e-01 2.612670e-02 8.339906e-02 6.147099e-02 -1.394504e-01
<VARIANCE> 39
 1.625406e+01 1.962527e+01 1.418701e+01 4.635706e+01 1.535610e+01 2.405101e+01 3.952074e+01 2.314735e+01 1.751342e+01 3.928483e+01 4.692886e+01 4.986856e+01 1.130855e+02 1.212230e+00 1.678146e+00 1.381392e+00 1.699243e+00 2.004677e+00 2.814342e+00 3.376221e+00 2.583184e+00 1.576230e+00 2.777149e+00 4.667252e+00 4.835896e+00 1.880369e+00 2.324351e-01 3.263631e-01 2.467303e-01 2.940372e-01 3.321209e-01 3.087338e-01 4.308816e-01 3.422890e-01 2.999461e-01 4.100151e-01 8.719015e-01 6.646685e-01 2.100769e-01
<GCONST> 1.127699e+02
<STATE> 4
<MEAN> 39
 -4.600325e+00 -6.237058e+00 -9.912930e+00 -2.869953e-01 -4.966236e-01 9.966645e-01 -6.736971e+00 2.298241e+00 2.328890e+00 -8.023437e+00 -9.382629e+00 -4.626764e+00 4.900145e+01 -3.811118e-01 7.345284e-01 3.202951e-01 -3.152548e-01 -3.703594e-01 -4.431372e-01 1.805048e-01 -5.661024e-01 -9.833670e-01 7.633249e-01 3.058691e-01 1.412581e-01 -7.524569e-01 1.157132e-02 4.219009e-02 1.483790e-01 -1.005259e-01 -1.625200e-01 -2.302757e-02 -1.484355e-01 -7.415436e-02 -1.199402e-02 -8.280256e-02 1.887235e-01 -1.167472e-01 1.028805e-01
<VARIANCE> 39
 3.448530e+01 5.783588e+01 4.725709e+01 2.600898e+01 4.182532e+01 3.606016e+01 2.676423e+01 3.221854e+01 4.270658e+01 3.285550e+01 3.266700e+01 1.487241e+01 5.124876e+01 1.633099e+00 2.387689e+00 2.699023e+00 2.134670e+00 2.497367e+00 2.572362e+00 2.997084e+00 2.106749e+00 2.423727e+00 1.597041e+00 2.254238e+00 1.641948e+00 8.885296e-01 2.349349e-01 4.165280e-01 4.850966e-01 4.642555e-01 4.170636e-01 5.262864e-01 6.146939e-01 4.313753e-01 4.049499e-01 2.773121e-01 4.088418e-01 3.191974e-01 1.000373e-01
<GCONST> 1.140116e+02
<TRANSP> 5
 0.000000e+00 1.000000e+00 0.000000e+00 0.000000e+00 0.000000e+00
 0.000000e+00 9.387870e-01 6.121299e-02 0.000000e+00 0.000000e+00
 0.000000e+00 0.000000e+00 9.467050e-01 5.329497e-02 0.000000e+00
 0.000000e+00 0.000000e+00 0.000000e+00 8.984690e-01 1.015310e-01
 0.000000e+00 0.000000e+00 0.000000e+00 0.000000e+00 0.000000e+00
<ENDHMM>
~h "si"
<BEGINHMM>
<NUMSTATES> 5
<STATE> 2
<MEAN> 39
 -1.381065e+01 -9.426544e-01 -6.784096e+00 -7.955877e+00 -5.051666e-01 -6.621502e+00 -7.399155e+00 -9.179740e+00 -1.756757e-01 -5.035725e+00 9.447523e-02 -4.373459e+00 6.708767e+01 -5.810830e-02 -2.785710e-01 1.626304e-01 -3.000174e-01 -1.217569e-01 2.026358e-01 -4.341083e-01 4.265958e-03 2.269952e-01 -6.550678e-03 2.338265e-01 -2.692558e-01 5.650725e-01 6.063621e-02 -7.915508e-02 -1.830483e-02 1.707166e-02 -6.934923e-02 9.223121e-02 -8.131371e-02 8.872314e-02 2.738140e-02 -3.243824e-02 -1.498367e-02 -4.845270e-02 -1.329297e-02
<VARIANCE> 39
 1.549549e+02 2.953671e+01 3.580288e+01 7.025562e+01 2.186440e+01 3.333475e+01 1.321654e+02 8.772341e+01 3.618965e+01 1.740910e+01 2.211970e+01 2.666374e+01 4.690996e+01 1.026237e+01 3.295904e+00 2.024333e+00 4.333106e+00 2.548940e+00 2.843316e+00 7.880594e+00 6.248637e+00 3.052149e+00 1.861806e+00 2.112300e+00 2.228564e+00 2.378065e+00 1.046372e+00 5.907227e-01 3.632108e-01 6.946825e-01 4.260774e-01 5.473757e-01 1.065818e+00 9.307261e-01 5.566379e-01 3.864743e-01 3.863074e-01 4.407741e-01 3.033844e-01
<GCONST> 1.284610e+02
<STATE> 3
<MEAN> 39
 1.947681e+00 -1.349848e+01 3.336998e+00 -8.939760e+00 -1.530735e+01 3.955266e-02 -1.942756e+01 2.106295e+00 -9.830964e-01 -1.058490e+01 3.158934e+00 -1.701600e+01 7.344809e+01 1.697803e-01 -5.633496e-01 -8.232497e-02 3.150966e-01 -1.905986e-01 7.416710e-01 5.137195e-01 1.416543e-01 -2.441569e-01 -3.551041e-01 -2.832896e-01 -1.982099e-01 -2.734165e-01 -1.620843e-02 1.397400e-01 1.442549e-02 -7.551198e-02 2.292890e-01 9.959725e-02 1.754415e-01 -3.766017e-01 -1.356902e-01 1.022053e-01 3.015950e-03 2.253184e-01 -2.005768e-01
<VARIANCE> 39
 1.467798e+01 1.855026e+01 4.553846e+01 4.627306e+01 4.665122e+01 4.445345e+01 3.026905e+01 1.093524e+02 7.885017e+01 4.279663e+01 2.947634e+01 3.748914e+01 3.414296e+01 1.449721e+00 1.106675e+00 3.672630e+00 5.296185e+00 3.976228e+00 4.334170e+00 1.531390e+00 7.700201e+00 5.186986e+00 2.367398e+00 2.163780e+00 4.537325e+00 2.629773e+00 2.620880e-01 2.963036e-01 3.553287e-01 6.511578e-01 4.817665e-01 5.079907e-01 4.924788e-01 9.847150e-01 6.677394e-01 3.385753e-01 3.934051e-01 5.834451e-01 3.920823e-01
<GCONST> 1.238098e+02
<STATE> 4
<MEAN> 39
 5.538926e+00 -1.268687e+01 -1.585140e+00 -1.115585e+01 -9.662859e+00 1.016846e+01 -1.264339e+01 -7.844651e+00 -2.288548e+00 -1.133380e+01 -1.324112e+00 -8.929874e+00 6.845226e+01 4.621105e-01 1.132670e+00 -5.190780e-01 4.929768e-01 2.764484e-01 2.894573e-01 5.737376e-01 -9.904044e-01 -6.221520e-01 -1.810645e-01 -2.753928e-01 1.073357e+00 -1.321254e+00 -2.552245e-01 7.192449e-02 -1.711054e-01 2.735724e-01 7.155808e-03 -6.654959e-01 -1.041875e-01 6.359718e-01 2.436736e-01 -1.333316e-01 -1.326370e-01 -7.368127e-02 1.283227e-01
<VARIANCE> 39
 8.879554e+00 3.027275e+01 9.287276e+01 1.656937e+02 2.912920e+01 1.063433e+02 3.317859e+01 2.286159e+01 2.409809e+01 4.441795e+01 4.192292e+01 9.042113e+01 3.417776e+01 3.884576e-01 6.926505e-01 8.068815e-01 4.034415e+00 1.950773e+00 3.502194e+00 1.403957e+00 3.742078e+00 2.238647e+00 1.057773e+00 1.642531e+00 1.897169e+00 4.136930e-01 9.752721e-02 1.668542e-01 1.591534e-01 3.786427e-01 6.919010e-01 2.689632e-01 3.639958e-01 4.546617e-01 3.197908e-01 2.183106e-01 2.618676e-01 3.305938e-01 1.019670e-01
<GCONST> 1.070946e+02
<TRANSP> 5
 0.000000e+00 1.000000e+00 0.000000e+00 0.000000e+00 0.000000e+00
 0.000000e+00 9.735677e-01 2.643229e-02 0.000000e+00 0.000000e+00
 0.000000e+00 0.000000e+00 9.338414e-01 6.615857e-02 0.000000e+00
 0.000000e+00 0.000000e+00 0.000000e+00 8.354012e-01 1.645989e-01
 0.000000e+00 0.000000e+00 0.000000e+00 0.000000e+00 0.000000e+00
<ENDHMM>
~h "sp"
<BEGINHMM>
<NUMSTATES> 3
<STATE> 2
~s "silst"
<TRANSP> 3
 0.000000e+00 2.115178e-01 7.884821e-01
 0.000000e+00 8.983235e-01 1.016764e-01
 0.000000e+00 0.000000e+00 0.000000e+00
<ENDHMM>
~h "wu"
<BEGINHMM>
<NUMSTATES> 5
<STATE> 2
<MEAN> 39
 3.301009e-01 2.459355e+00 -2.565350e+00 -9.827723e+00 -1.253471e+01 -3.548624e+00 -9.534727e+00 -5.596863e+00 -7.526357e-01 -9.341613e+00 -1.115903e+00 -4.688172e+00 6.171307e+01 2.450083e-01 -2.285240e-01 9.436661e-02 -1.749983e-01 -2.635644e-01 -8.293742e-02 -5.236213e-02 -2.053516e-01 1.910570e-01 -2.044969e-02 2.166882e-01 -1.379274e-01 8.946157e-01 5.525266e-02 -8.860333e-02 4.731146e-03 -3.778360e-02 -6.497667e-02 1.074382e-01 -8.445309e-02 -2.480240e-02 4.966052e-02 -3.933933e-02 6.601025e-02 -9.282822e-02 9.247582e-02
<VARIANCE> 39
 1.747160e+02 5.622656e+01 3.579705e+01 8.338678e+01 7.753871e+01 3.907939e+01 3.796914e+01 2.615561e+01 2.749191e+01 4.561391e+01 2.568384e+01 1.481438e+01 9.507263e+01 9.492937e+00 3.800249e+00 3.427266e+00 6.596956e+00 6.280128e+00 3.580881e+00 3.016884e+00 2.533518e+00 3.195556e+00 4.248713e+00 3.015652e+00 1.636564e+00 4.451987e+00 1.061041e+00 5.670642e-01 6.256823e-01 1.126716e+00 1.204659e+00 6.444749e-01 5.972678e-01 4.752334e-01 5.196796e-01 7.795138e-01 5.693136e-01 3.601163e-01 4.772116e-01
<GCONST> 1.333693e+02
<STATE> 3
<MEAN> 39
 3.856472e+00 -1.051348e+01 1.804121e+00 -2.998086e-01 -1.588865e+01 -2.593086e-01 -1.555338e+01 -8.209225e+00 5.627937e-01 -1.298937e+01 6.704251e-01 -8.460896e+00 7.300520e+01 2.475316e-02 -2.661100e-01 1.306288e-01 1.757641e-01 -7.120742e-02 -3.985505e-02 -6.150846e-01 6.003486e-01 7.752149e-03 -2.902828e-01 1.221325e-01 -2.619341e-02 4.686859e-01 -1.672477e-01 1.769282e-02 -1.224711e-01 -1.187823e-01 4.866440e-02 -6.441798e-02 1.596253e-01 1.023122e-02 -1.179850e-01 1.429753e-01 -8.629316e-02 4.264637e-02 -8.174351e-02
<VARIANCE> 39
 3.456348e+01 1.560375e+01 3.802165e+01 7.580975e+01 6.466307e+01 3.322316e+01 5.621285e+01 8.584721e+01 8.226331e+01 4.767825e+01 6.124471e+01 6.455547e+01 5.739366e+01 2.861806e+00 1.442681e+00 2.937616e+00 4.910278e+00 5.653656e+00 3.522325e+00 5.411427e+00 6.806841e+00 5.748975e+00 3.903358e+00 7.201788e+00 4.364269e+00 4.601551e+00 5.455602e-01 1.889025e-01 4.243496e-01 6.293204e-01 9.847143e-01 6.642300e-01 1.009091e+00 1.031240e+00 9.203187e-01 6.272199e-01 1.137206e+00 5.738801e-01 4.948127e-01
<GCONST> 1.358072e+02
<STATE> 4
<MEAN> 39
 4.598464e-01 -1.255221e+01 -4.735122e+00 -1.683633e+01 -1.206199e+01 6.173430e+00 -1.244940e+01 -2.702773e+00 -2.748584e-01 -7.832763e+00 8.113613e-01 -1.080417e+01 7.895615e+01 3.487317e-01 1.617214e-01 -3.976254e-01 -7.321243e-01 5.808030e-01 1.262301e+00 8.188763e-01 -8.118768e-01 -3.780088e-01 2.380523e-01 -6.146446e-01 4.883909e-01 -5.465057e-01 7.411102e-03 7.064395e-02 8.975393e-02 2.135919e-01 7.614874e-02 -3.263493e-02 -1.225209e-01 6.314428e-02 8.073147e-02 -1.916965e-01 5.574659e-03 1.822185e-01 -1.966919e-01
<VARIANCE> 39
 2.175744e+01 3.164546e+01 2.743968e+01 1.088707e+02 4.356293e+01 7.676427e+01 1.054220e+02 1.005906e+02 3.309583e+01 4.799880e+01 7.178696e+01 9.449104e+01 4.777083e+01 7.272352e-01 1.424518e+00 1.484399e+00 5.392901e+00 4.090499e+00 6.700858e+00 4.861264e+00 5.541102e+00 3.163386e+00 6.072601e+00 4.032248e+00 4.647423e+00 1.456608e+00 2.615324e-01 2.721574e-01 1.712788e-01 3.657038e-01 6.202908e-01 9.582065e-01 8.896614e-01 1.166801e+00 5.827798e-01 8.578618e-01 8.174056e-01 9.351044e-01 2.653728e-01
<GCONST> 1.304546e+02
<TRANSP> 5
 0.000000e+00 1.000000e+00 0.000000e+00 0.000000e+00 0.000000e+00
 0.000000e+00 9.653625e-01 3.463754e-02 0.000000e+00 0.000000e+00
 0.000000e+00 0.000000e+00 9.458597e-01 5.414037e-02 0.000000e+00
 0.000000e+00 0.000000e+00 0.000000e+00 8.786318e-01 1.213682e-01
 0.000000e+00 0.000000e+00 0.000000e+00 0.000000e+00 0.000000e+00
<ENDHMM>
~h "yi"
<BEGINHMM>
<NUMSTATES> 5
<STATE> 2
<MEAN> 39
 -1.226693e+01 7.446443e+00 1.983877e+01 -8.420711e+00 -1.642677e+01 -3.637750e+00 -5.773536e+00 -1.443809e+01 -5.455914e+00 -1.676129e+01 5.453417e+00 -8.270204e+00 6.678564e+01 -7.397617e-02 9.188998e-02 9.651250e-01 -3.647749e-01 -4.496877e-01 -2.008178e-01 2.231193e-01 -6.761217e-01 -1.357375e-01 -3.030577e-01 1.296227e-01 -2.016178e-02 1.392948e+00 -2.416312e-02 -1.468432e-01 -3.412509e-01 5.462772e-02 1.823190e-01 -3.335864e-02 7.649479e-02 1.580849e-01 8.375568e-04 2.813984e-01 -1.280847e-01 9.260421e-02 -1.816835e-01
<VARIANCE> 39
 1.166838e+01 1.344827e+01 6.210835e+01 1.097546e+01 3.044916e+01 1.628566e+01 1.181226e+01 3.086704e+01 1.622204e+01 2.502273e+01 2.526205e+01 1.019942e+01 7.244099e+01 1.236962e+00 2.017421e+00 7.250269e+00 1.353668e+00 4.845335e+00 9.396847e-01 9.170036e-01 4.060656e+00 1.634025e+00 4.280808e+00 2.216749e+00 8.204084e-01 5.144152e+00 2.130029e-01 2.609796e-01 1.143176e+00 2.560143e-01 6.381357e-01 1.698983e-01 1.787954e-01 6.176058e-01 3.089962e-01 5.517163e-01 2.855419e-01 1.328642e-01 6.728396e-01
<GCONST> 1.074324e+02
<STATE> 3
<MEAN> 39
 -1.380712e+01 -2.112653e+00 7.777243e+00 -8.958332e+00 -1.002991e+01 -5.771814e+00 -3.787775e+00 -9.538309e+00 -5.295408e+00 -6.957441e+00 2.885395e+00 -6.364157e+00 6.968515e+01 1.204256e-01 -1.047587e+00 -1.390764e+00 2.832804e-01 -3.794975e-01 -1.565184e-01 -2.367304e-01 1.337141e+00 4.558436e-01 2.643313e-01 7.136621e-02 -1.171138e-03 2.734702e-01 1.976478e-01 -6.354873e-02 -5.163573e-03 -5.479841e-03 -1.420418e-01 1.977764e-03 -1.754409e-01 1.013482e-01 1.701414e-01 -1.380862e-01 -5.532788e-02 -1.645434e-01 1.664873e-01
<VARIANCE> 39
 1.806713e+02 5.979945e+01 3.953834e+01 7.670122e+01 1.382605e+02 1.798985e+01 3.441885e+01 6.261386e+01 1.339755e+01 3.399311e+01 2.824695e+01 3.466081e+01 3.091650e+01 9.304624e+00 1.591185e+00 3.430995e+00 5.185404e+00 8.083698e+00 1.926585e+00 3.214143e+00 3.563317e+00 1.507735e+00 3.044440e+00 2.128762e+00 1.680318e+00 3.096443e+00 1.087920e+00 3.205752e-01 6.185122e-01 7.168406e-01 1.217550e+00 3.562594e-01 6.574814e-01 5.443200e-01 3.882363e-01 4.037649e-01 4.939558e-01 2.484469e-01 3.613772e-01
<GCONST> 1.269037e+02
<STATE> 4
<MEAN> 39
 1.184706e+00 -1.392114e+01 -7.768889e+00 -1.643790e+01 -1.437918e+01 5.908148e+00 -7.225356e+00 -3.749419e+00 3.513291e+00 -8.103312e+00 1.319549e+00 -1.522695e+01 7.746368e+01 8.634650e-01 -3.234862e-01 -1.023015e+00 -1.867376e-01 1.300304e+00 1.237922e+00 -3.356747e-02 -6.772355e-01 2.374094e-01 2.511749e-01 -3.921086e-01 -3.276573e-01 -5.523538e-01 -2.940611e-01 1.500621e-01 2.333116e-01 8.261843e-02 3.023464e-01 -7.593302e-02 7.481729e-02 -1.082800e-01 -1.209667e-01 1.154255e-01 1.196412e-01 2.404658e-01 -1.449490e-01
<VARIANCE> 39
 4.751789e+01 3.051164e+01 3.244563e+01 4.504128e+01 4.030105e+01 9.416663e+01 4.233715e+01 9.479649e+01 1.512135e+01 3.470938e+01 7.283516e+01 2.996504e+01 4.210536e+01 2.404650e+00 1.875655e+00 3.135494e+00 7.695383e+00 4.077907e+00 8.989465e+00 2.386436e+00 3.940840e+00 2.632422e+00 4.406183e+00 8.434388e+00 3.743340e+00 3.386252e+00 8.565218e-01 3.085169e-01 4.012820e-01 1.026668e+00 1.093547e+00 1.394018e+00 5.259134e-01 1.029711e+00 5.065975e-01 8.696756e-01 1.524593e+00 4.658010e-01 5.675739e-01
<GCONST> 1.339918e+02
<TRANSP> 5
 0.000000e+00 1.000000e+00 0.000000e+00 0.000000e+00 0.000000e+00
 0.000000e+00 9.453297e-01 5.467027e-02 0.000000e+00 0.000000e+00
 0.000000e+00 0.000000e+00 9.217368e-01 7.826325e-02 0.000000e+00
 0.000000e+00 0.000000e+00 0.000000e+00 8.839827e-01 1.160173e-01
 0.000000e+00 0.000000e+00 0.000000e+00 0.000000e+00 0.000000e+00
<ENDHMM>
~h "zh"
<BEGINHMM>
<NUMSTATES> 5
<STATE> 2
<MEAN> 39
 -8.653617e+00 -3.902465e+00 -9.066319e+00 -8.592525e+00 -1.108149e+01 4.181318e-01 -4.377551e+00 -7.596841e-01 -4.058674e+00 -7.373522e+00 -3.813011e+00 -3.407985e+00 4.405444e+01 -1.242022e+00 -1.077465e+00 -7.510354e-01 1.258435e-01 -1.985252e-01 -7.458239e-01 2.294241e-02 -1.665827e-01 -2.982263e-01 3.058383e-01 -3.803085e-01 1.707001e-01 -7.571580e-01 2.798322e-01 2.969500e-01 4.284498e-01 3.033734e-01 2.908714e-01 2.672307e-01 -2.117477e-01 -1.343096e-01 5.029576e-02 4.315071e-03 1.533960e-01 -1.922023e-01 1.651895e-01
<VARIANCE> 39
 1.022876e+01 2.107045e+01 1.976604e+01 4.028671e+01 1.376192e+01 1.807754e+01 1.836613e+01 2.835963e+01 3.151888e+01 2.131860e+01 3.461878e+01 4.132460e+01 3.634416e+00 1.123606e+00 1.211403e+00 1.359024e+00 1.329161e+00 1.094166e+00 2.211755e+00 2.186829e+00 2.783661e+00 3.452147e+00 1.560809e+00 2.773347e+00 2.830634e+00 3.421432e-01 7.091142e-02 1.212161e-01 2.342093e-01 3.046519e-01 2.853960e-01 4.511892e-01 3.606113e-01 5.166141e-01 6.737842e-01 3.148719e-01 6.644539e-01 5.968617e-01 2.486881e-02
<GCONST> 9.953444e+01
<STATE> 3
<MEAN> 39
 -6.503994e+00 4.083679e-01 -5.751690e+00 -5.614270e+00 -1.188273e+01 -1.278268e+00 -6.825871e+00 -3.061749e+00 -2.712160e+00 -4.132716e+00 -5.322585e+00 -3.275022e+00 4.366462e+01 -4.992523e-01 -2.873917e-01 8.135860e-02 5.414234e-01 2.596608e-01 3.009722e-02 -2.164939e-01 -3.579491e-01 -1.282073e-01 2.122687e-01 2.647583e-02 2.499536e-02 -3.492853e-01 6.999739e-02 8.005131e-02 1.059355e-01 9.711204e-02 1.510241e-01 9.724669e-02 -1.462130e-01 -1.873875e-01 -9.278890e-02 -7.059608e-02 1.250999e-01 8.648986e-02 4.404280e-02
<VARIANCE> 39
 2.067612e+01 1.988849e+01 3.201639e+01 1.908101e+01 1.384321e+01 1.434854e+01 1.953533e+01 2.545030e+01 1.943367e+01 1.913916e+01 1.572647e+01 2.334270e+01 5.724782e+00 8.773707e-01 7.155222e-01 7.713901e-01 1.001135e+00 1.136258e+00 1.390301e+00 1.109623e+00 1.682541e+00 2.072385e+00 2.221686e+00 1.432370e+00 1.066489e+00 2.769946e-01 1.095714e-01 1.279294e-01 1.539481e-01 1.553951e-01 1.824064e-01 2.390898e-01 2.742855e-01 3.824064e-01 4.520636e-01 4.282656e-01 2.338733e-01 2.326849e-01 2.757689e-02
<GCONST> 8.867390e+01
<STATE> 4
<MEAN> 39
 -1.143337e+01 -3.692215e+00 -8.462609e+00 -4.790469e+00 -8.676715e+00 -1.736937e-02 -6.254509e+00 -3.851166e+00 -5.278903e+00 -5.868005e+00 -5.364214e+00 -4.808776e+00 4.112397e+01 -6.530121e-01 -2.442400e-01 2.924127e-01 1.048218e+00 7.771569e-01 -2.936305e-01 -9.971841e-01 -1.397077e+00 -6.452015e-01 4.591607e-02 2.711297e-01 6.475976e-01 -4.353895e-01 1.873098e-01 1.524581e-01 -3.247740e-02 -2.133794e-01 -2.548290e-01 -1.876715e-01 6.452803e-02 2.955972e-01 1.399583e-01 3.902744e-02 4.349458e-02 4.914385e-02 9.591382e-02
<VARIANCE> 39
 3.146086e+00 6.850102e+00 1.358693e+01 1.291001e+01 1.013627e+01 1.426841e+01 1.318416e+01 1.490597e+01 9.812294e+00 1.568999e+01 1.948190e+01 1.872265e+01 3.634416e+00 2.579840e-01 4.224605e-01 8.352063e-01 1.803200e+00 1.037495e+00 1.187423e+00 1.640718e+00 1.416666e+00 1.372706e+00 1.632597e+00 1.328001e+00 1.189838e+00 1.196641e-01 6.959307e-02 8.453947e-02 1.641209e-01 2.066487e-01 2.781340e-01 2.013934e-01 2.109878e-01 2.553647e-01 2.954810e-01 2.690746e-01 2.716138e-01 2.082201e-01 2.770605e-02
<GCONST> 7.746915e+01
<TRANSP> 5
 0.000000e+00 1.000000e+00 0.000000e+00 0.000000e+00 0.000000e+00
 0.000000e+00 7.120047e-01 2.879953e-01 0.000000e+00 0.000000e+00
 0.000000e+00 0.000000e+00 7.409130e-01 2.590871e-01 0.000000e+00
 0.000000e+00 0.000000e+00 0.000000e+00 5.718018e-01 4.281982e-01
 0.000000e+00 0.000000e+00 0.000000e+00 0.000000e+00 0.000000e+00
<ENDHMM>
~h "eng"
<BEGINHMM>
<NUMSTATES> 5
<STATE> 2
<MEAN> 39
 2.613674e+00 -5.413393e+00 -1.029013e+01 -1.622115e+01 -1.185586e+01 1.490481e+01 -1.929854e+01 -3.035255e+00 2.911284e+00 -2.426976e+01 1.882216e+01 -1.385417e+01 7.612161e+01 3.208135e-01 3.820004e-02 1.954744e-01 7.883604e-01 -1.183776e-01 -5.090152e-01 6.429112e-01 2.656788e-03 -4.589822e-01 -1.662848e-01 -1.676714e-01 -3.339475e-01 -8.780826e-01 2.352050e-03 5.571216e-03 7.488107e-02 -7.328650e-03 6.369548e-02 -9.940124e-02 6.118811e-02 1.128356e-02 -7.614067e-02 3.035102e-01 -3.190423e-01 6.396861e-02 -9.853378e-02
<VARIANCE> 39
 7.500876e+00 9.773211e+00 2.045212e+01 3.949809e+01 1.385764e+01 2.918827e+01 3.631792e+01 3.552636e+01 2.417020e+01 5.048001e+01 5.454662e+01 1.735824e+01 1.933806e+01 2.267053e-01 5.275505e-01 6.305699e-01 5.596225e-01 6.577527e-01 7.703983e-01 8.342304e-01 6.559758e-01 6.774651e-01 2.171908e+00 1.768131e+00 6.672727e-01 4.619114e-01 4.014780e-02 8.600543e-02 9.329431e-02 7.922560e-02 1.018149e-01 1.649842e-01 1.674896e-01 1.336515e-01 1.412817e-01 1.900477e-01 1.910472e-01 1.416885e-01 4.389670e-02
<GCONST> 7.927000e+01
<STATE> 3
<MEAN> 39
 7.183928e+00 -6.044913e+00 -2.137540e+00 -7.331812e+00 -1.132237e+01 7.666341e+00 -1.197193e+01 -7.639289e+00 -4.769775e+00 -1.191655e+01 2.349814e+00 -1.148509e+01 6.303849e+01 -3.237633e-01 9.633471e-01 1.932294e-01 1.106270e+00 1.172607e+00 -1.032991e+00 7.682164e-01 -2.751859e-02 -7.910593e-01 1.488614e+00 -2.602046e+00 1.060530e+00 -1.832375e+00 -3.622011e-01 8.150145e-02 -2.987676e-01 1.898300e-01 4.494851e-02 -2.036669e-01 9.638667e-02 1.933711e-01 1.235709e-01 -1.721956e-01 1.652249e-01 5.864131e-02 4.592073e-02
<VARIANCE> 39
 1.027848e+01 6.204444e+01 3.321305e+01 4.540190e+01 4.586723e+01 2.531012e+01 2.035614e+01 6.109192e+01 2.145475e+01 6.153273e+01 6.841675e+01 2.508540e+01 4.207275e+01 1.325823e+00 2.770890e+00 1.994760e+00 1.577887e+00 2.492802e+00 1.825475e+00 1.723314e+00 2.438903e+00 2.177424e+00 2.889458e+00 3.111953e+00 1.936129e+00 2.346457e+00 1.504732e-01 4.851966e-01 2.890907e-01 3.201224e-01 4.715763e-01 3.778301e-01 3.516991e-01 5.729105e-01 3.557583e-01 4.659421e-01 5.947725e-01 3.777908e-01 1.287642e-01
<GCONST> 1.142319e+02
<STATE> 4
<MEAN> 39
 -2.312803e+00 -2.605575e+00 -6.592596e+00 -3.429844e+00 -5.590161e+00 1.972199e+00 -7.293148e+00 -6.369551e+00 -7.134367e+00 -5.219485e+00 -4.535146e+00 -6.165282e+00 4.965256e+01 -9.526368e-01 -2.451606e-01 -5.671976e-01 3.683643e-01 -1.546374e-01 -1.011451e+00 3.400978e-01 5.819333e-01 8.948576e-02 -5.896081e-02 -2.458875e-01 4.306366e-01 -4.970179e-01 -3.235730e-02 1.268389e-03 1.389208e-01 -1.480665e-01 -9.022961e-02 -8.832581e-02 9.687338e-04 1.795992e-01 1.676197e-02 -2.741933e-01 2.441799e-01 -5.391166e-02 2.960756e-01
<VARIANCE> 39
 6.421596e+01 5.253384e+01 4.264811e+01 3.724046e+01 4.567805e+01 2.725957e+01 1.928773e+01 3.700854e+01 2.171687e+01 2.493048e+01 2.381301e+01 1.834282e+01 7.916764e+01 3.283440e+00 2.793435e+00 2.740954e+00 3.008672e+00 2.618910e+00 3.520227e+00 2.357952e+00 4.592793e+00 2.194985e+00 3.840965e+00 2.100499e+00 1.829942e+00 2.388468e+00 5.333458e-01 5.333608e-01 4.609562e-01 4.674492e-01 5.965841e-01 5.979272e-01 4.813865e-01 7.301215e-01 4.719548e-01 5.298809e-01 5.076283e-01 3.529364e-01 3.447016e-01
<GCONST> 1.218536e+02
<TRANSP> 5
 0.000000e+00 1.000000e+00 0.000000e+00 0.000000e+00 0.000000e+00
 0.000000e+00 8.769833e-01 1.230167e-01 0.000000e+00 0.000000e+00
 0.000000e+00 0.000000e+00 7.485359e-01 2.514641e-01 0.000000e+00
 0.000000e+00 0.000000e+00 0.000000e+00 8.339555e-01 1.660445e-01
 0.000000e+00 0.000000e+00 0.000000e+00 0.000000e+00 0.000000e+00
<ENDHMM>
~h "ong"
<BEGINHMM>
<NUMSTATES> 5
<STATE> 2
<MEAN> 39
 -1.305104e+01 -4.540214e+00 -1.007988e+01 -4.166476e+00 -8.412861e+00 -3.345514e+00 -8.011682e+00 -4.300242e+00 -6.392821e+00 -4.841950e+00 -4.627071e+00 -4.448209e+00 3.986069e+01 -4.055579e-02 1.085605e-01 7.176687e-02 2.372577e-01 7.215329e-02 -2.290173e-02 -2.115281e-02 3.371418e-02 2.444084e-02 1.737594e-01 1.274918e-01 1.814846e-01 -1.225318e-01 7.869253e-02 8.480094e-02 4.376081e-02 -1.746306e-02 -3.992938e-03 6.678605e-02 7.898794e-02 8.815881e-02 6.078271e-02 6.596719e-03 -3.994126e-04 -1.567792e-02 3.792402e-02
<VARIANCE> 39
 2.055898e+00 3.808098e+00 6.004881e+00 7.837023e+00 8.470418e+00 1.068519e+01 1.048399e+01 9.905279e+00 1.042036e+01 1.312349e+01 1.132031e+01 1.352874e+01 3.634416e+00 2.134674e-01 4.059877e-01 6.314084e-01 7.192752e-01 1.085648e+00 1.189149e+00 1.201593e+00 1.207805e+00 1.083957e+00 1.455683e+00 1.203937e+00 1.286175e+00 5.703225e-02 3.585586e-02 6.985266e-02 1.275370e-01 1.630703e-01 2.164775e-01 2.246632e-01 2.495181e-01 2.710565e-01 1.871770e-01 2.768703e-01 2.483460e-01 2.802406e-01 8.692040e-03
<GCONST> 6.744704e+01
<STATE> 3
<MEAN> 39
 -1.068461e+01 1.243030e+00 -6.528080e+00 8.643463e-01 -6.273745e+00 -1.070462e+00 -7.657600e+00 -3.706494e+00 -5.171364e+00 -2.717951e+00 -2.717268e+00 -2.816699e+00 3.870698e+01 -3.065179e-02 6.318661e-02 -3.574660e-02 5.237728e-02 -4.082957e-02 4.342284e-03 -2.466431e-03 4.929432e-02 6.032987e-02 2.578365e-02 6.401208e-02 2.005868e-02 -1.099195e-01 -3.410535e-02 -5.690473e-02 -6.383573e-02 -5.593887e-02 -3.537340e-02 -7.117254e-03 -6.291674e-03 -1.664151e-02 -1.309444e-02 -2.806815e-02 -9.297912e-03 -1.802452e-02 -1.195284e-02
<VARIANCE> 39
 4.097156e+00 8.993809e+00 5.537515e+00 8.665781e+00 1.037211e+01 1.045815e+01 1.248274e+01 1.363083e+01 1.126838e+01 1.354610e+01 1.060707e+01 1.176168e+01 3.795125e+00 2.883480e-01 5.147773e-01 5.863347e-01 7.984144e-01 1.016113e+00 1.083012e+00 1.339281e+00 1.397157e+00 1.279676e+00 1.270091e+00 1.055268e+00 1.241708e+00 6.654950e-02 4.887259e-02 8.784850e-02 1.122539e-01 1.578527e-01 2.100701e-01 2.270692e-01 2.735698e-01 2.807798e-01 2.764761e-01 2.425797e-01 1.956258e-01 2.775312e-01 1.058570e-02
<GCONST> 7.101156e+01
<STATE> 4
<MEAN> 39
 -1.376865e+01 -2.247925e+00 -9.907078e+00 -1.231655e+00 -8.949369e+00 2.401733e-01 -7.727533e+00 -3.648322e+00 -4.899743e+00 -3.202415e+00 -2.615845e+00 -2.590060e+00 3.642533e+01 -5.330801e-02 -3.423605e-03 -9.026921e-02 -2.642109e-02 -6.872446e-02 1.507998e-02 -3.731907e-02 -1.550622e-02 -1.913629e-02 3.257567e-02 2.889904e-02 -1.171733e-02 -8.708355e-02 4.261892e-03 -6.057107e-05 5.668293e-03 -3.113165e-04 -1.229571e-03 -1.383217e-02 -1.778273e-02 -1.364140e-02 -1.310106e-02 -1.306762e-02 -2.547633e-02 -1.009224e-02 3.434934e-03
<VARIANCE> 39
 2.272652e+00 6.490469e+00 7.765038e+00 9.738111e+00 1.352672e+01 1.496134e+01 1.114086e+01 1.719088e+01 1.428176e+01 1.414436e+01 1.352262e+01 1.225878e+01 3.634416e+00 1.403771e-01 2.773409e-01 4.556653e-01 6.794193e-01 8.496563e-01 1.097459e+00 1.242206e+00 1.426289e+00 1.355543e+00 1.579417e+00 1.388634e+00 1.152003e+00 3.980333e-02 2.719872e-02 5.507277e-02 8.775542e-02 1.342131e-01 1.752819e-01 2.305204e-01 2.649297e-01 2.872616e-01 2.674052e-01 3.382709e-01 3.035133e-01 2.403103e-01 6.779924e-03
<GCONST> 6.831503e+01
<TRANSP> 5
