~o
<STREAMINFO> 1 39
<VECSIZE> 39<NULLD><MFCC_D_A_0><DIAGC>
~s "silst"
<MEAN> 39
 -1.270775e+01 -3.283018e+00 -1.042828e+01 -1.797748e+00 -8.090653e+00 -2.087604e+00 -8.015634e+00 -2.671880e+00 -4.557889e+00 -3.746201e+00 -4.000669e+00 -3.714794e+00 3.833795e+01 -4.226445e-02 1.457611e-02 3.166022e-04 1.422728e-02 -3.134116e-02 -8.801987e-03 2.374669e-02 1.034521e-02 1.827992e-02 6.323229e-02 7.690975e-02 5.412553e-02 -4.998398e-02 1.402269e-02 1.366092e-02 5.185382e-03 -5.552227e-03 5.516921e-03 -6.044801e-03 -2.767337e-02 -2.245249e-02 -2.895070e-02 -2.886939e-02 -5.970113e-03 -5.407847e-03 1.238928e-02
<VARIANCE> 39
 2.677313e+00 1.444799e+01 9.938479e+00 1.199741e+01 1.128888e+01 1.550091e+01 1.320686e+01 1.479841e+01 1.514006e+01 1.531763e+01 1.313588e+01 1.129492e+01 5.370577e+00 1.805603e-01 3.742135e-01 5.790467e-01 7.620063e-01 9.420949e-01 1.101706e+00 1.169744e+00 1.342356e+00 1.554661e+00 1.511255e+00 1.372566e+00 1.210696e+00 9.089302e-02 3.566658e-02 6.811915e-02 1.116860e-01 1.528933e-01 1.889691e-01 2.225514e-01 2.357058e-01 2.773793e-01 3.221892e-01 3.176424e-01 2.893421e-01 2.515449e-01 1.559191e-02
<GCONST> 7.357315e+01
~h "a"
<BEGINHMM>
<NUMSTATES> 5
<STATE> 2
<MEAN> 39
 -4.679648e+00 -1.690841e+01 -1.427130e+01 -1.932570e+01 -5.531284e-01 1.783191e+01 -1.279964e+01 -9.819784e+00 2.317136e+00 -8.337607e+00 -6.103281e+00 -3.432388e+00 8.537518e+01 4.614139e-01 -2.000342e-01 4.207222e-01 7.734714e-02 -5.178709e-02 1.036738e-01 -1.419364e+00 1.155885e+00 -2.894110e-01 -2.296860e-01 8.624880e-01 -7.675846e-01 -3.762134e-01 2.329346e-01 3.212743e-03 2.799678e-01 6.798150e-02 -1.703261e-01 -3.105603e-01 -1.084810e-01 2.899849e-01 -9.935609e-02 1.124342e-01 1.577052e-01 -2.675803e-01 -2.306459e-01
<VARIANCE> 39
 1.944253e+01 1.208978e+01 8.395974e+00 8.840626e+00 1.261729e+01 3.427162e+01 9.478964e+01 7.335176e+01 1.605918e+01 1.955094e+01 5.570088e+01 4.631101e+01 9.841639e+00 1.420116e+00 7.392678e-01 1.022809e+00 5.755525e-01 1.341652e+00 2.174109e+00 3.167244e+00 5.479825e+00 1.253736e+00 1.439133e+00 2.307170e+00 3.829721e+00 6.187803e-01 1.502195e-01 1.412100e-01 1.710731e-01 1.836591e-01 1.806220e-01 3.309489e-01 5.028988e-01 6.495368e-01 2.622496e-01 2.518918e-01 4.380328e-01 4.055354e-01 8.177703e-02
<GCONST> 9.978548e+01
<STATE> 3
<MEAN> 39
 4.895112e+00 -1.848765e+01 7.332512e+00 -9.532381e+00 -9.981847e-01 6.277920e+00 -3.223993e+01 -1.183135e+00 -9.544570e+00 -6.526196e+00 6.909710e+00 -1.511594e+01 7.261175e+01 6.478272e-02 3.313125e-01 8.973591e-01 7.263485e-01 -4.122923e-02 -1.495713e+00 7.334260e-02 -1.824011e-01 1.551384e-01 -3.298656e-01 3.260382e-01 -3.891575e-01 -3.736662e-01 -2.466828e-01 1.186239e-01 -5.584585e-01 -2.503166e-01 -1.426128e-02 1.743333e-01 2.708700e-01 9.914305e-02 5.795118e-01 -3.904125e-01 -1.524371e-01 9.643521e-02 3.195434e-01
<VARIANCE> 39
 3.320652e+00 6.248154e+00 8.169172e+01 4.369677e+01 2.227078e+01 4.831200e+01 2.660277e+01 4.436929e+01 7.027434e+01 4.094341e+01 1.962040e+01 1.044985e+01 1.518389e+01 8.856970e-01 9.809039e-01 1.299582e+01 6.031678e+00 3.233634e+00 3.441080e+00 2.576606e+00 7.295257e+00 1.768254e+01 9.732025e+00 1.692097e+00 1.498779e+00 3.190413e+00 7.706730e-02 1.524044e-01 9.496520e-01 7.005046e-01 5.893195e-01 3.980505e-01 4.449992e-01 1.481970e+00 1.544096e+00 8.967261e-01 4.275273e-01 3.844810e-01 1.772485e-01
<GCONST> 1.198267e+02
<STATE> 4
<MEAN> 39
 -2.431043e-01 -1.316810e+01 -4.568343e+00 -1.406634e+01 -5.429129e+00 1.841307e+00 -1.703856e+01 4.409635e+00 2.308626e+00 -9.612444e+00 1.382300e+00 -1.403529e+01 7.552551e+01 -2.499627e-01 7.908939e-01 -6.416490e-01 4.792812e-01 1.696173e-02 -5.109292e-01 6.858912e-01 8.475408e-02 1.124175e+00 -4.728144e-01 -6.682146e-01 4.514953e-01 -6.808100e-01 -1.026936e-01 -1.565502e-01 2.568744e-01 4.008808e-01 2.560926e-01 2.320556e-01 3.125817e-02 -6.258367e-01 -5.287561e-01 3.370681e-01 -2.874423e-01 3.333077e-01 -3.582053e-01
<VARIANCE> 39
 7.521017e+01 2.907811e+01 2.095222e+01 1.813440e+01 4.166950e+01 5.725607e+01 1.278181e+02 5.950972e+01 8.700524e+01 1.592943e+02 7.008064e+01 5.268834e+01 3.045743e+01 4.648202e+00 2.352044e+00 4.575936e+00 3.286423e+00 2.829345e+00 6.177203e+00 4.321323e+00 7.063801e+00 5.518939e+00 4.869825e+00 3.159460e+00 3.797441e+00 5.833978e+00 6.925650e-01 4.314227e-01 1.061059e+00 5.154226e-01 5.605013e-01 1.208094e+00 8.379291e-01 1.081415e+00 1.487570e+00 1.386551e+00 6.084138e-01 8.364814e-01 3.558004e-01
<GCONST> 1.388253e+02
<TRANSP> 5
 0.000000e+00 1.000000e+00 0.000000e+00 0.000000e+00 0.000000e+00
 0.000000e+00 9.131907e-01 8.680932e-02 0.000000e+00 0.000000e+00
 0.000000e+00 0.000000e+00 8.744634e-01 1.255367e-01 0.000000e+00
 0.000000e+00 0.000000e+00 0.000000e+00 8.022822e-01 1.977178e-01
 0.000000e+00 0.000000e+00 0.000000e+00 0.000000e+00 0.000000e+00
<ENDHMM>
~h "b"
<BEGINHMM>
<NUMSTATES> 5
<STATE> 2
<MEAN> 39
 2.420791e+00 -7.003702e+00 2.845737e+00 5.637272e-01 -8.683440e+00 -4.368464e+00 -1.469387e+01 -4.877165e+00 -4.698050e+00 -1.084879e+01 -3.154314e+00 -1.473463e+01 6.166767e+01 -3.121879e-01 1.547583e-01 -2.276487e-01 -7.279564e-01 7.791086e-02 4.360957e-01 1.091738e+00 -3.052138e-01 -1.329810e-01 3.870830e-01 6.556661e-02 9.269153e-01 1.250325e+00 -1.620329e-01 -8.268203e-02 1.493166e-02 -3.940748e-01 -2.278566e-01 1.349467e-01 -4.338132e-02 -2.307960e-01 3.218445e-01 -2.827354e-01 3.360141e-01 9.741910e-02 5.756782e-01
<VARIANCE> 39
 3.865913e+01 2.612508e+01 5.412283e+01 4.780286e+01 3.488212e+01 4.039254e+01 5.442083e+01 1.652870e+01 3.339598e+01 4.021398e+01 4.118882e+01 5.802045e+01 1.200676e+02 2.731224e+00 3.138799e+00 4.103396e+00 5.303596e+00 5.909663e+00 5.744278e+00 2.611251e+00 3.266721e+00 6.211343e+00 2.923697e+00 7.562437e+00 2.838106e+00 2.226851e+01 3.855113e-01 3.920144e-01 1.201920e+00 6.078860e-01 1.217242e+00 9.525330e-01 6.538886e-01 5.989428e-01 9.628727e-01 7.627190e-01 1.219753e+00 6.131327e-01 2.786541e+00
<GCONST> 1.376740e+02
<STATE> 3
<MEAN> 39
 -5.041829e+00 -7.271429e+00 1.025617e+01 -1.146046e+01 -1.912779e+01 -5.475250e+00 -1.036672e+01 -1.556507e+01 -3.817764e+00 -1.369171e+01 9.108349e+00 -7.139454e+00 8.002333e+01 -1.212201e+00 9.626119e-01 3.200136e+00 -1.532400e+00 -2.708115e+00 -2.427192e-01 -1.541059e+00 -2.664084e+00 -3.412739e-01 -2.078433e+00 1.977180e+00 2.553215e-02 9.764613e-01 -8.642182e-02 5.658327e-01 -5.989766e-01 7.801512e-01 1.262850e+00 1.616131e-01 1.053502e-02 6.952257e-01 7.280323e-03 2.625352e-01 -1.144802e+00 -1.702566e-01 -1.524049e+00
<VARIANCE> 39
 7.917192e+00 1.730246e+01 1.084074e+02 2.317975e+01 5.034074e+01 6.608810e+01 3.902389e+01 2.268880e+01 2.385555e+01 3.055026e+01 4.668244e+01 1.319276e+01 1.344288e+01 8.585913e-01 1.668536e+00 6.639778e+00 2.427635e+00 8.977894e+00 2.411435e+00 5.140690e+00 3.232942e+00 1.487885e+00 2.490424e+00 8.019162e+00 2.608983e+00 1.042170e+01 1.298703e-01 3.993792e-01 1.228922e+00 3.412909e-01 8.640745e-01 7.203805e-01 1.589849e+00 5.024909e-01 3.641216e-01 6.091055e-01 5.944253e-01 5.310767e-01 1.872869e+00
<GCONST> 1.240964e+02
<STATE> 4
<MEAN> 39
 -9.667808e+00 -8.803025e-01 1.749539e+01 -1.170353e+01 -1.925187e+01 -3.129804e+00 -1.237546e+01 -1.755364e+01 -5.212814e+00 -1.734871e+01 7.999617e+00 -1.033374e+01 7.733625e+01 9.214541e-02 -5.620605e-02 1.094544e-01 1.458237e-01 1.683862e-02 3.285402e-01 3.498309e-01 2.426544e-01 -3.026377e-01 3.089381e-01 -3.626524e-01 -1.839974e-01 -2.867714e-01 1.348701e-01 -1.399161e-01 -1.577466e-01 1.605932e-01 4.578746e-02 -1.537613e-01 1.525822e-01 2.166907e-01 -7.066539e-02 1.935597e-01 -4.118687e-02 8.497980e-02 -1.059713e-01
<VARIANCE> 39
 4.067873e+00 1.022981e+01 3.180077e+01 5.994770e+00 1.298425e+01 2.155774e+01 9.018548e+00 4.815283e+00 7.389781e+00 9.194051e+00 1.351443e+01 8.996068e+00 5.811197e+00 6.264649e-01 7.922803e-01 3.948688e-01 3.773963e-01 8.300454e-01 7.451826e-01 8.344097e-01 5.786786e-01 6.482142e-01 9.603142e-01 7.645791e-01 9.369715e-01 2.123281e-01 6.102323e-02 7.706508e-02 1.868488e-01 1.181410e-01 2.381819e-01 1.761662e-01 1.715706e-01 1.659284e-01 1.104848e-01 1.260464e-01 1.743325e-01 1.562260e-01 9.963807e-02
<GCONST> 6.858438e+01
<TRANSP> 5
 0.000000e+00 1.000000e+00 0.000000e+00 0.000000e+00 0.000000e+00
 0.000000e+00 9.107718e-01 8.922814e-02 0.000000e+00 0.000000e+00
 0.000000e+00 0.000000e+00 6.579851e-01 3.420148e-01 0.000000e+00
 0.000000e+00 0.000000e+00 0.000000e+00 9.059946e-01 9.400538e-02
 0.000000e+00 0.000000e+00 0.000000e+00 0.000000e+00 0.000000e+00
<ENDHMM>
~h "d"
<BEGINHMM>
<NUMSTATES> 5
<STATE> 2
<MEAN> 39
 -9.506015e+00 -2.356025e+00 -4.533856e+00 -3.204194e+00 -7.508521e+00 -6.564170e+00 -5.603296e+00 -3.114983e+00 -3.148988e+00 -5.257532e+00 -2.771970e+00 -3.368863e+00 5.031340e+01 -2.762539e-01 -2.455315e-01 -8.528672e-03 -6.547256e-01 1.049074e+00 -7.702738e-01 3.146305e-01 4.377130e-01 7.147287e-01 5.860759e-01 -4.652155e-01 2.724203e-01 2.152728e+00 2.833719e-01 -2.066612e-01 3.000071e-02 -4.431756e-01 -2.177922e-01 1.559262e-01 -3.938501e-01 -1.090906e-02 3.209680e-01 9.073586e-03 6.918367e-02 -1.599294e-01 9.683612e-01
<VARIANCE> 39
 6.100323e+01 5.913060e+01 6.859632e+01 5.204333e+01 6.895702e+01 5.550006e+01 3.986287e+01 3.150224e+01 3.555879e+01 3.185459e+01 2.114696e+01 1.883019e+01 1.752577e+02 6.765543e+00 4.974589e+00 5.649539e+00 5.250907e+00 6.584692e+00 7.464575e+00 5.444862e+00 3.158551e+00 3.780153e+00 2.823294e+00 3.429326e+00 2.189518e+00 1.942896e+01 1.428777e+00 9.247033e-01 9.873040e-01 8.490636e-01 1.498045e+00 1.627215e+00 1.229809e+00 7.616615e-01 8.139172e-01 5.150781e-01 5.461243e-01 5.737378e-01 2.176430e+00
<GCONST> 1.422911e+02
<STATE> 3
<MEAN> 39
 -5.744823e+00 -1.102960e+01 -9.703374e+00 -1.941386e+01 -8.400712e+00 -2.137743e-01 -5.549519e+00 -2.965840e+00 4.763412e+00 -2.151486e+00 -5.460983e+00 -8.461443e+00 8.506376e+01 1.196579e+00 -6.755580e-01 -7.364842e-01 -1.837829e+00 -1.666667e-01 2.481859e+00 -9.929494e-01 -3.345195e-01 5.364727e-01 8.575841e-02 2.538961e-01 -9.030305e-01 1.796587e+00 -3.962447e-02 9.425159e-02 8.681840e-02 2.217163e-01 -1.383481e-01 4.704764e-01 -1.416028e-02 -2.624390e-01 -4.041031e-01 -2.197775e-01 3.669477e-01 -3.460697e-02 -9.620144e-01
<VARIANCE> 39
 1.350451e+01 1.414455e+01 2.536872e+01 2.746609e+01 1.637114e+01 8.689120e+01 1.169654e+02 3.111128e+01 6.561536e+01 2.685527e+01 2.699067e+01 2.725838e+01 2.859064e+01 3.517743e+00 2.223130e+00 2.270905e+00 2.404901e+00 4.938371e+00 5.336524e+00 8.313291e+00 3.996168e+00 8.113302e+00 3.854086e+00 4.707009e+00 4.215766e+00 1.215416e+01 6.344919e-01 2.827427e-01 4.493584e-01 3.683722e-01 7.319571e-01 1.299736e+00 1.231952e+00 9.122138e-01 1.079622e+00 5.390899e-01 6.216948e-01 8.681965e-01 8.652419e-01
<GCONST> 1.310687e+02
<STATE> 4
<MEAN> 39
 -5.252606e-01 -9.975716e+00 -8.841022e+00 -2.482412e+01 -8.592955e+00 1.166777e+01 -1.739908e+01 -4.007852e+00 5.549601e+00 -6.463941e+00 5.055439e+00 -1.142122e+01 8.248624e+01 5.503010e-01 3.078764e-01 -2.893544e-01 -2.311133e-01 1.360942e-01 2.076403e+00 -7.639076e-01 -1.566156e-01 -7.137112e-01 -1.214925e+00 1.463704e+00 3.313545e-02 -6.655176e-01 -1.954682e-01 1.932060e-01 4.231812e-02 4.347617e-01 1.310380e-01 -5.253184e-01 2.285370e-01 2.795018e-02 -1.738222e-01 -1.148244e-01 -7.810622e-02 2.942894e-01 -1.719910e-01
<VARIANCE> 39
 1.440968e+01 1.611003e+01 9.103492e+00 1.913448e+01 1.288564e+01 6.005485e+01 5.606301e+01 1.457734e+01 5.057391e+01 5.084470e+01 5.123858e+01 1.535498e+01 1.847525e+01 1.168636e+00 4.734267e-01 1.313617e+00 1.461597e+00 1.217116e+00 3.095904e+00 3.976902e+00 2.603654e+00 2.676856e+00 6.436739e+00 2.925341e+00 1.774351e+00 1.230648e+00 2.239402e-01 1.565586e-01 1.033382e-01 1.804761e-01 2.646619e-01 3.293577e-01 6.906652e-01 2.702730e-01 5.834824e-01 8.032038e-01 4.182053e-01 4.114995e-01 1.619370e-01
<GCONST> 1.057149e+02
<TRANSP> 5
 0.000000e+00 1.000000e+00 0.000000e+00 0.000000e+00 0.000000e+00
 0.000000e+00 8.345038e-01 1.654962e-01 0.000000e+00 0.000000e+00
 0.000000e+00 0.000000e+00 8.285988e-01 1.714012e-01 0.000000e+00
 0.000000e+00 0.000000e+00 0.000000e+00 8.061239e-01 1.938761e-01
 0.000000e+00 0.000000e+00 0.000000e+00 0.000000e+00 0.000000e+00
<ENDHMM>
~h "f"
<BEGINHMM>
<NUMSTATES> 5
<STATE> 2
<MEAN> 39
 -8.720783e+00 -9.022633e+00 -4.724678e+00 -5.948858e+00 -4.922155e+00 -4.157941e+00 -7.039353e+00 -5.106884e+00 -7.257916e-01 -8.926410e+00 -1.431594e+00 -4.385174e+00 6.794202e+01 1.878270e+00 -5.601633e-01 -4.079119e-01 -1.766530e+00 -2.882768e-01 1.470050e+00 -9.728382e-01 -1.240111e-01 2.527507e-01 1.871742e-01 8.500363e-01 -4.653214e-01 1.624063e+00 3.178013e-01 -6.193720e-02 1.288220e-02 -3.180408e-01 -2.650372e-01 4.347727e-01 -2.111392e-01 -6.625969e-02 -7.447281e-02 -5.017631e-02 8.122118e-02 -1.902670e-01 2.761958e-01
<VARIANCE> 39
 1.542471e+02 2.644692e+01 3.513966e+01 8.243936e+01 4.239874e+01 4.945572e+01 7.972424e+01 2.961553e+01 3.063790e+01 5.123933e+01 3.487983e+01 3.029828e+01 5.352798e+01 1.443487e+01 2.770329e+00 2.785073e+00 7.101152e+00 4.366845e+00 8.012045e+00 4.720943e+00 3.499514e+00 3.297620e+00 4.058317e+00 5.283942e+00 3.632660e+00 6.231569e+00 2.267565e+00 5.211021e-01 4.652209e-01 1.171807e+00 7.962505e-01 1.044299e+00 8.091953e-01 6.359046e-01 5.205285e-01 6.995800e-01 7.774194e-01 5.637583e-01 7.701010e-01
<GCONST> 1.387053e+02
<STATE> 3
<MEAN> 39
 4.537238e+00 -1.097725e+01 -5.919371e+00 -1.818778e+01 -1.329115e+01 1.032457e+01 -1.528319e+01 -7.451871e+00 -4.383386e+00 -6.010013e+00 7.443786e+00 -9.511673e+00 7.706641e+01 3.014894e-01 -2.581220e-01 4.721524e-01 2.808606e-01 -1.394030e+00 1.754567e+00 6.911939e-01 -1.240867e+00 -1.950361e-01 3.947960e-01 -1.277142e+00 4.990340e-01 -7.586253e-02 -5.603393e-01 1.141675e-01 1.944827e-01 7.470884e-01 3.331400e-01 -7.048170e-01 3.915777e-01 -9.183295e-02 3.546543e-01 -3.226932e-01 -6.352300e-01 5.772821e-01 -5.725074e-01
<VARIANCE> 39
 1.364832e+01 2.448209e+01 1.986049e+01 7.325722e+01 3.575903e+01 4.889017e+01 5.429385e+01 4.750385e+01 4.504036e+01 5.041027e+01 7.533006e+01 3.394216e+01 2.472555e+01 1.455000e+00 1.309054e+00 2.945682e+00 1.266697e+01 2.477544e+00 7.464808e+00 4.363453e+00 4.817289e+00 3.664478e+00 7.887808e+00 5.399453e+00 3.653904e+00 2.650784e+00 8.596625e-01 2.842052e-01 3.927942e-01 1.712287e+00 4.287705e-01 8.261076e-01 9.809949e-01 1.061074e+00 5.991651e-01 1.489118e+00 1.141711e+00 6.800167e-01 4.004286e-01
<GCONST> 1.323367e+02
<STATE> 4
<MEAN> 39
 5.132859e+00 -1.474749e+01 -4.158755e+00 -1.826991e+01 -1.363318e+01 1.685462e+01 -1.518944e+01 -8.360247e+00 6.314858e-02 -1.007212e+01 4.637831e-01 -6.046542e+00 7.583836e+01 -1.610160e-02 4.344848e-02 -5.013089e-03 3.787077e-01 8.259891e-02 3.557464e-01 -3.498611e-01 2.629364e-01 6.344786e-01 -1.071326e+00 -5.226092e-01 4.313416e-01 -2.174006e-01 -8.179831e-02 1.585585e-01 -1.583415e-01 1.282940e-01 1.619925e-01 -3.015551e-01 -1.295514e-01 2.610668e-01 -1.538734e-01 6.618538e-02 3.481929e-01 -2.543768e-01 -6.076709e-02
<VARIANCE> 39
 2.255133e+01 4.904902e+01 4.826009e+01 1.206266e+02 6.828683e+01 1.024958e+02 6.046592e+01 6.426201e+01 4.071218e+01 6.182224e+01 4.629504e+01 4.062008e+01 4.162005e+01 6.862702e-01 7.999951e-01 9.261993e-01 7.255954e-01 1.454553e+00 2.110563e+00 1.384794e+00 2.964981e+00 1.580845e+00 3.566756e+00 1.658435e+00 1.858901e+00 4.573261e-01 6.758144e-02 9.195982e-02 2.248207e-01 3.053744e-01 1.524625e-01 3.652096e-01 2.168863e-01 1.940840e-01 2.085936e-01 3.589691e-01 2.996775e-01 2.877168e-01 1.862655e-01
<GCONST> 1.066438e+02
<TRANSP> 5
 0.000000e+00 1.000000e+00 0.000000e+00 0.000000e+00 0.000000e+00
 0.000000e+00 8.746102e-01 1.253898e-01 0.000000e+00 0.000000e+00
 0.000000e+00 0.000000e+00 7.254282e-01 2.745718e-01 0.000000e+00
 0.000000e+00 0.000000e+00 0.000000e+00 6.754302e-01 3.245698e-01
 0.000000e+00 0.000000e+00 0.000000e+00 0.000000e+00 0.000000e+00
<ENDHMM>
~h "g"
<BEGINHMM>
<NUMSTATES> 5
<STATE> 2
<MEAN> 39
 -1.392517e+01 -3.838556e+00 -1.216685e+01 -3.722145e+00 -9.530999e+00 -3.542038e+00 -8.421207e+00 -4.338530e+00 -6.889256e+00 -4.414379e+00 -4.371168e+00 -4.442034e+00 3.752828e+01 -1.261110e-01 -6.091875e-02 -8.995189e-02 3.437784e-02 -1.558444e-01 -7.618582e-02 -1.499160e-01 -2.402197e-01 -1.707669e-01 -9.030925e-02 -1.329486e-01 -1.667285e-01 -7.207755e-02 5.162063e-02 7.635481e-02 6.138828e-02 4.464121e-02 1.300344e-01 1.232893e-01 2.307323e-02 9.534644e-02 1.774290e-01 5.134668e-02 1.252614e-01 8.395218e-02 6.222983e-02
<VARIANCE> 39
 2.104133e+00 4.439802e+00 6.485483e+00 5.880576e+00 6.836078e+00 1.150532e+01 1.046168e+01 9.172537e+00 1.470853e+01 1.306359e+01 1.288083e+01 1.476746e+01 3.634416e+00 1.830546e-01 3.111762e-01 6.482069e-01 6.525735e-01 8.525097e-01 1.341219e+00 1.723282e+00 1.676331e+00 2.065843e+00 1.168374e+00 1.970422e+00 1.489509e+00 9.015002e-02 4.971976e-02 7.991683e-02 1.312430e-01 1.294031e-01 1.637794e-01 2.712425e-01 3.749551e-01 2.772531e-01 3.335303e-01 2.349848e-01 3.136787e-01 3.140031e-01 2.160951e-02
<GCONST> 7.161942e+01
<STATE> 3
<MEAN> 39
 -1.414047e+01 -3.402564e+00 -1.148260e+01 -3.546497e+00 -9.271493e+00 -2.461569e+00 -8.808328e+00 -4.683077e+00 -5.859573e+00 -5.187465e+00 -4.374342e+00 -3.611358e+00 3.789257e+01 1.206518e-01 4.801280e-01 2.352233e-01 3.025197e-01 6.561624e-01 3.612069e-01 3.318322e-01 1.751914e-01 3.224543e-01 -1.314725e-01 5.193254e-01 1.730060e-01 2.990641e-01 3.637799e-01 3.713441e-01 8.371808e-02 -1.047795e-01 3.033282e-01 2.614123e-02 2.524368e-01 2.462824e-01 2.247776e-02 2.301636e-01 8.006307e-02 7.605199e-02 3.420090e-01
<VARIANCE> 39
 4.623972e+00 7.091467e+00 9.546151e+00 9.605966e+00 8.846403e+00 1.023646e+01 1.336530e+01 2.045311e+01 3.239862e+01 1.434373e+01 1.807821e+01 1.228295e+01 4.234876e+00 1.189812e+00 9.533862e-01 1.291922e+00 1.404060e+00 1.822233e+00 2.439683e+00 3.163324e+00 3.526530e+00 4.298967e+00 1.930038e+00 2.618870e+00 1.505528e+00 4.809769e-01 3.116485e-01 2.855183e-01 3.681624e-01 5.088602e-01 3.775545e-01 3.449406e-01 5.312006e-01 5.499677e-01 1.011622e+00 3.682128e-01 3.806446e-01 3.340750e-01 1.696647e-01
<GCONST> 9.798483e+01
<STATE> 4
<MEAN> 39
 -1.154774e+01 -3.411600e+00 -1.015933e+01 -2.613069e+00 -6.015462e+00 -8.509464e-01 -8.138543e+00 -1.914498e+00 -3.605256e+00 -4.124823e+00 -2.069814e+00 -3.497071e+00 4.117480e+01 2.002348e-02 1.835899e-02 1.868344e-01 5.055244e-02 -1.408092e-01 -1.219543e-01 -4.305394e-02 6.231774e-02 1.634397e-01 2.401352e-01 -4.240494e-02 8.654204e-02 -1.122656e-01 1.058272e-01 -4.582906e-02 -2.325541e-01 -3.838377e-01 3.867754e-02 -1.443520e-01 1.880135e-02 5.546108e-02 -1.699355e-01 1.451046e-01 -1.607113e-01 -1.964840e-02 1.819187e-01
<VARIANCE> 39
 2.149171e+01 5.859344e+01 3.481908e+01 2.608612e+01 2.403165e+01 3.470422e+01 4.059539e+01 4.649258e+01 3.829303e+01 2.404438e+01 3.526358e+01 1.474187e+01 1.952764e+01 2.555207e+00 3.345472e+00 3.006541e+00 1.830038e+00 2.833661e+00 3.505895e+00 3.188048e+00 3.348103e+00 2.073025e+00 2.049396e+00 2.632070e+00 1.444713e+00 9.723502e-01 7.239111e-01 6.691321e-01 7.328112e-01 7.947261e-01 8.300063e-01 7.884014e-01 8.006518e-01 8.113124e-01 5.939281e-01 6.207965e-01 5.552003e-01 2.947287e-01 5.528637e-01
<GCONST> 1.216942e+02
<TRANSP> 5
 0.000000e+00 1.000000e+00 0.000000e+00 0.000000e+00 0.000000e+00
 0.000000e+00 7.250678e-01 2.749321e-01 0.000000e+00 0.000000e+00
 0.000000e+00 0.000000e+00 4.408571e-01 5.591429e-01 0.000000e+00
 0.000000e+00 0.000000e+00 0.000000e+00 7.792416e-01 2.207584e-01
 0.000000e+00 0.000000e+00 0.000000e+00 0.000000e+00 0.000000e+00
<ENDHMM>
~h "i"
<BEGINHMM>
<NUMSTATES> 5
<STATE> 2
<MEAN> 39
 1.470332e+00 -1.012412e+01 -3.955856e+00 -1.202944e+01 -1.023671e+01 1.174993e+00 -1.146259e+01 -1.424800e-01 -1.122564e+00 -8.743680e+00 2.348646e+00 -8.798405e+00 6.879466e+01 -9.819760e-01 9.214550e-01 -6.290777e-01 1.377328e+00 1.728475e+00 -7.262671e-01 2.031378e+00 5.835805e-02 -6.431531e-02 9.180651e-01 -1.766679e+00 8.896189e-01 -1.986069e+00 -4.887654e-01 5.036289e-02 -1.119916e-01 1.426423e-01 1.617549e-01 2.283605e-01 6.000608e-03 -2.899292e-01 6.476966e-02 -1.757887e-01 -1.129840e-01 9.458836e-02 -1.810900e-01
<VARIANCE> 39
 4.254676e+01 4.210667e+01 1.544465e+02 1.253983e+02 9.036106e+01 1.881401e+02 1.182357e+02 1.057424e+02 6.814827e+01 4.920842e+01 4.475621e+01 3.586867e+01 8.967843e+01 3.895477e+00 2.756505e+00 3.794218e+00 5.320458e+00 3.835605e+00 7.606688e+00 6.617836e+00 5.091784e+00 2.508103e+00 3.711309e+00 4.907430e+00 3.290362e+00 3.783556e+00 6.007013e-01 4.175612e-01 4.336847e-01 7.440327e-01 7.678561e-01 1.195775e+00 1.237761e+00 7.265885e-01 5.024205e-01 7.285966e-01 7.558398e-01 5.795598e-01 4.205809e-01
<GCONST> 1.414200e+02
<STATE> 3
<MEAN> 39
 -5.242845e+00 -4.584058e+00 -3.874336e+00 -2.182266e+00 -2.499349e+00 -2.837073e+00 -5.995678e+00 1.076963e+00 -1.343756e+00 -7.819963e+00 -3.064380e+00 -3.546528e+00 5.881509e+01 -2.463853e+00 -8.056566e-02 -1.379265e+00 7.950517e-01 7.158690e-01 2.869054e-01 3.615241e-01 -8.684271e-01 -5.339706e-02 4.714375e-01 -1.268879e+00 3.447313e-01 -2.358443e+00 1.750058e-01 -5.982624e-01 -2.736108e-01 -8.122113e-01 -8.155329e-01 3.199519e-02 -1.021604e+00 -3.638081e-01 -1.159009e-01 -2.056285e-01 5.113750e-01 -5.483307e-01 3.298278e-01
<VARIANCE> 39
 7.022261e+01 3.026037e+01 1.027148e+02 8.300162e+01 4.496504e+01 1.158027e+02 6.179271e+01 5.797815e+01 4.998831e+01 1.903625e+01 2.051343e+01 2.591550e+01 6.982967e+01 2.590222e+00 1.558052e+00 2.475054e+00 3.547268e+00 3.333271e+00 4.258521e+00 4.703113e+00 3.512729e+00 2.677653e+00 3.075775e+00 2.580886e+00 2.560125e+00 1.629314e+00 3.502564e-01 3.273110e-01 4.305559e-01 4.333889e-01 5.588480e-01 8.513092e-01 6.805180e-01 6.433963e-01 4.004500e-01 3.644856e-01 4.799312e-01 4.051678e-01 2.670486e-01
<GCONST> 1.257254e+02
<STATE> 4
<MEAN> 39
 -1.436328e+01 -6.472524e+00 -3.961668e+00 -4.498799e+00 -6.487434e+00 -3.630789e+00 -7.680042e+00 -5.479434e+00 -5.285561e+00 -7.936865e+00 -4.078874e+00 -5.651310e+00 5.596096e+01 -1.155864e+00 -8.844397e-01 -1.675309e+00 -3.886593e-01 6.928766e-02 -2.644498e-01 -3.239365e-01 -5.057102e-01 -4.192204e-02 2.436623e-01 -3.595289e-01 -2.142347e-01 -1.062031e+00 3.398709e-01 -8.619969e-02 1.165047e-01 -2.577593e-01 5.735994e-02 -4.968121e-03 2.013608e-01 2.606318e-01 1.161166e-01 8.633399e-02 2.238178e-01 9.192842e-02 4.862654e-01
<VARIANCE> 39
 8.484187e+01 2.206710e+01 8.047771e+01 4.480844e+01 3.203477e+01 1.029269e+02 4.289284e+01 3.254483e+01 3.139498e+01 1.889700e+01 1.835891e+01 2.314537e+01 6.632178e+01 8.836243e-01 1.155044e+00 1.636406e+00 2.197706e+00 2.746319e+00 2.750578e+00 3.044434e+00 2.570477e+00 1.900071e+00 1.927440e+00 1.927456e+00 1.546977e+00 1.172669e+00 3.853632e-01 2.037941e-01 2.957068e-01 3.394665e-01 5.460272e-01 6.100872e-01 5.598931e-01 3.830099e-01 4.087424e-01 4.271162e-01 4.183541e-01 3.699379e-01 2.205392e-01
<GCONST> 1.147016e+02
<TRANSP> 5
 0.000000e+00 1.000000e+00 0.000000e+00 0.000000e+00 0.000000e+00
 0.000000e+00 7.228028e-01 2.771972e-01 0.000000e+00 0.000000e+00
 0.000000e+00 0.000000e+00 4.749514e-01 5.250486e-01 0.000000e+00
 0.000000e+00 0.000000e+00 0.000000e+00 6.136256e-01 3.863744e-01
 0.000000e+00 0.000000e+00 0.000000e+00 0.000000e+00 0.000000e+00
<ENDHMM>
~h "j"
<BEGINHMM>
<NUMSTATES> 5
<STATE> 2
<MEAN> 39
 -3.117016e+00 -2.365582e+00 -9.973105e-01 -1.806291e+01 -1.133672e+01 -1.087279e+00 -8.126412e+00 -8.075309e+00 -1.659650e+00 -1.104823e+01 7.686943e+00 -8.863597e+00 7.307248e+01 3.846247e-01 1.913323e-01 -5.378010e-02 2.118974e-01 -3.197926e-01 -7.064003e-03 1.048368e-01 -1.847547e-01 1.110130e-01 -1.267284e-01 2.279076e-01 -5.087912e-02 6.096097e-01 1.813494e-02 -3.786687e-02 -5.756173e-02 2.788928e-01 7.735685e-02 -5.018453e-02 2.804459e-02 -4.677012e-02 -5.908956e-02 9.389898e-02 -1.351723e-01 -6.621129e-03 -2.633081e-01
<VARIANCE> 39
 1.572699e+02 2.703595e+01 1.682811e+01 1.037163e+02 6.558806e+01 5.528891e+01 4.672924e+01 4.583931e+01 2.734116e+01 3.627633e+01 8.177231e+01 5.570658e+01 3.820356e+01 9.877991e+00 1.392871e+00 2.049711e+00 1.176250e+01 3.339579e+00 5.042627e+00 6.608397e+00 4.073171e+00 4.074598e+00 3.940398e+00 9.556597e+00 8.027070e+00 6.235067e+00 1.190666e+00 2.042981e-01 3.408622e-01 1.445343e+00 5.972478e-01 7.873644e-01 1.543710e+00 8.251734e-01 8.989008e-01 7.638580e-01 1.696331e+00 1.639007e+00 4.906315e-01
<GCONST> 1.404966e+02
<STATE> 3
<MEAN> 39
 -1.006675e+01 -7.073563e+00 -7.663001e+00 -7.230054e+00 -7.165037e+00 -8.852428e-01 -1.004529e+01 -5.941091e+00 -2.115211e+00 -4.171669e+00 2.232711e-01 -7.171493e+00 6.985342e+01 9.351653e-01 -1.028992e+00 6.795369e-02 -3.910568e-01 -5.289910e-01 5.735906e-01 -1.586127e+00 2.708054e-01 9.501885e-01 2.034106e-01 1.615677e-01 -9.897033e-01 1.064544e+00 3.679767e-01 7.979043e-02 6.258668e-02 -7.759212e-02 -2.786366e-01 5.625473e-02 -7.943952e-03 7.661953e-02 1.569355e-01 -4.028291e-01 -2.479074e-02 1.415065e-02 1.040699e-01
<VARIANCE> 39
 8.191641e+01 2.241938e+01 1.563765e+01 3.278616e+01 2.794788e+01 3.811145e+01 6.238073e+01 1.108192e+01 3.566378e+01 8.918821e+00 2.116056e+01 4.066925e+01 4.341650e+01 7.700314e+00 1.681830e+00 1.886844e+00 4.009008e+00 3.488686e+00 4.155077e+00 5.602706e+00 1.359198e+00 4.245425e+00 2.868774e+00 3.468307e+00 3.424506e+00 2.486844e+00 1.391465e+00 2.968470e-01 3.394212e-01 1.285288e+00 2.932174e-01 9.090739e-01 1.127610e+00 1.915881e-01 7.103688e-01 3.477810e-01 6.103811e-01 9.301324e-01 3.375280e-01
<GCONST> 1.227881e+02
<STATE> 4
<MEAN> 39
 3.405078e+00 -1.041760e+01 1.071267e+00 -8.596269e-01 -1.473149e+01 -1.011421e+00 -1.554399e+01 -6.822488e+00 -5.503007e-01 -1.291495e+01 9.658888e-02 -4.409454e+00 7.404165e+01 -3.579713e-02 -5.018820e-02 -3.077045e-02 -2.383408e-01 1.334531e-01 1.029366e-01 -1.021996e-01 9.365093e-03 -1.027583e-01 -1.878770e-01 2.701481e-01 1.924321e-01 4.632510e-02 5.972647e-02 3.227144e-02 -2.703533e-02 -2.098720e-01 -5.415856e-02 2.113259e-01 -4.282804e-02 -4.717260e-02 -1.855615e-02 9.621760e-02 1.675295e-01 -8.095519e-02 -2.271561e-02
<VARIANCE> 39
 2.269063e+01 2.942912e+01 3.005104e+01 1.038062e+02 6.461919e+01 3.767823e+01 6.371145e+01 9.115443e+01 6.188456e+01 5.450731e+01 7.150050e+01 6.895101e+01 7.111049e+01 1.925355e+00 1.660865e+00 2.545385e+00 4.487458e+00 7.447680e+00 5.144451e+00 6.442284e+00 7.836362e+00 5.129196e+00 5.755107e+00 7.899622e+00 4.143827e+00 4.165623e+00 3.302544e-01 2.265027e-01 3.675352e-01 3.454321e-01 1.331672e+00 8.005735e-01 1.023501e+00 1.115084e+00 8.645726e-01 7.723313e-01 1.236398e+00 4.741275e-01 5.180538e-01
<GCONST> 1.369916e+02
<TRANSP> 5
 0.000000e+00 1.000000e+00 0.000000e+00 0.000000e+00 0.000000e+00
 0.000000e+00 9.610494e-01 3.895064e-02 0.000000e+00 0.000000e+00
 0.000000e+00 0.000000e+00 8.909072e-01 1.090928e-01 0.000000e+00
 0.000000e+00 0.000000e+00 0.000000e+00 9.594120e-01 4.058801e-02
 0.000000e+00 0.000000e+00 0.000000e+00 0.000000e+00 0.000000e+00
<ENDHMM>
~h "k"
<BEGINHMM>
<NUMSTATES> 5
<STATE> 2
<MEAN> 39
 -5.583681e+00 -9.205984e+00 -8.443143e+00 -5.467111e+00 -4.323049e+00 4.338897e+00 -1.147593e+01 -5.884093e+00 -4.285294e+00 -1.495537e+00 -6.332847e+00 -8.748879e+00 4.837827e+01 -1.295857e+00 -7.309828e-02 -1.361862e+00 1.345073e-01 5.053601e-02 1.837540e+00 5.768528e-01 -1.653140e+00 5.437986e-01 -1.029552e+00 -1.626726e-01 -4.036564e-01 -1.970577e+00 -4.102634e-02 -5.652440e-01 -4.769348e-02 -2.562931e-01 4.003918e-01 -1.342523e+00 2.735197e-01 7.576876e-01 -7.187533e-02 3.295130e-01 -1.378873e-01 2.254479e-01 1.248121e+00
<VARIANCE> 39
 5.663794e+01 2.452344e+01 1.718309e+01 9.823206e+00 2.820261e+01 5.565989e+01 1.146979e+01 1.696011e+01 2.095827e+01 1.918761e+01 2.177006e+01 3.359934e+01 8.891144e+01 1.414204e+00 5.575959e-01 2.125770e+00 9.088604e-01 1.174878e+00 5.460307e+00 1.932322e+00 4.112561e+00 2.540268e+00 3.900002e+00 1.209696e+00 1.064634e+00 3.948694e+00 2.251514e-01 2.061536e-01 3.206674e-01 3.660668e-01 6.064634e-01 1.755167e+00 4.301071e-01 5.567928e-01 5.532101e-01 5.986842e-01 3.253696e-01 4.304501e-01 2.842079e-01
<GCONST> 1.111149e+02
<STATE> 3
<MEAN> 39
 -1.029059e+01 -5.503762e+00 -8.621426e+00 -1.896719e+00 -5.030044e+00 -2.882159e+00 -1.135421e+01 -2.593616e+00 -2.412340e+00 -3.751334e+00 -5.458487e+00 -4.938087e+00 4.328595e+01 -7.056385e-02 -2.450418e-03 2.037098e-02 1.340942e-01 2.951596e-01 -3.227073e-01 2.304862e-01 -5.933029e-02 3.899012e-02 3.354920e-02 -3.413330e-02 1.283352e-01 1.030839e-01 -2.921768e-02 -3.520591e-01 -6.610918e-02 -1.562659e-01 2.747252e-01 -7.726679e-01 2.983365e-01 1.606929e-01 1.996377e-02 7.520901e-02 -3.175830e-02 2.721496e-01 5.959914e-01
<VARIANCE> 39
 3.488660e+01 6.761711e+01 3.032580e+01 3.931451e+01 3.732724e+01 4.786353e+01 3.069457e+01 3.838292e+01 2.716661e+01 3.576330e+01 2.549418e+01 2.479974e+01 2.984267e+01 3.434012e+00 4.322764e+00 3.779975e+00 3.463914e+00 5.707837e+00 4.012849e+00 3.436568e+00 3.383968e+00 3.319281e+00 2.539428e+00 2.717331e+00 2.104914e+00 2.202984e+00 5.601086e-01 9.649957e-01 5.958979e-01 5.006509e-01 1.434234e+00 2.352223e+00 7.958699e-01 7.899486e-01 6.818475e-01 6.001734e-01 6.054811e-01 5.847416e-01 1.505384e+00
<GCONST> 1.307350e+02
<STATE> 4
<MEAN> 39
 -1.046990e+01 -6.801619e+00 -1.143361e+01 -5.368914e+00 -6.236043e+00 9.337578e-01 -9.756297e+00 -5.907777e+00 -5.004251e+00 -2.720263e+00 -5.391476e+00 -6.971372e+00 4.240805e+01 -4.880573e-01 -3.517689e+00 -7.342593e-01 -7.532636e-01 3.938857e+00 -6.818528e+00 3.165262e+00 1.097549e+00 9.443282e-01 5.156224e-01 -6.485350e-01 2.486082e+00 5.491747e+00 2.083520e-01 -4.496681e-01 3.968172e-01 -5.851780e-02 9.939126e-01 -1.689622e+00 9.136744e-01 3.123868e-01 4.097238e-01 -2.712302e-03 -1.275661e-01 4.806176e-01 2.070941e+00
<VARIANCE> 39
 2.319053e+01 2.547219e+01 1.316323e+01 1.524755e+01 2.234412e+01 4.281342e+01 1.966294e+01 2.043199e+01 1.612942e+01 1.813639e+01 1.987475e+01 3.049591e+01 4.417500e+01 3.049650e+00 2.663973e+00 1.472354e+00 2.749807e+00 3.767902e+00 9.013340e+00 2.993010e+00 2.639220e+00 2.059370e+00 2.406380e+00 2.550459e+00 2.677353e+00 6.674577e+00 1.784006e-01 4.468485e-01 3.405657e-01 4.009146e-01 6.168746e-01 1.100614e+00 3.223442e-01 3.962507e-01 4.365828e-01 5.436336e-01 3.951664e-01 4.654427e-01 3.759207e-01
<GCONST> 1.155232e+02
<TRANSP> 5
 0.000000e+00 1.000000e+00 0.000000e+00 0.000000e+00 0.000000e+00
 0.000000e+00 3.464904e-01 6.535096e-01 0.000000e+00 0.000000e+00
 0.000000e+00 0.000000e+00 7.098548e-01 2.901452e-01 0.000000e+00
 0.000000e+00 0.000000e+00 0.000000e+00 4.400944e-01 5.599056e-01
 0.000000e+00 0.000000e+00 0.000000e+00 0.000000e+00 0.000000e+00
<ENDHMM>
~h "l"
<BEGINHMM>
<NUMSTATES> 5
<STATE> 2
<MEAN> 39
 -1.433097e+00 -8.421485e+00 9.786298e+00 -3.692360e-01 -1.808838e+01 -3.691765e+00 -1.605208e+01 -3.304442e+00 -5.981355e-01 -1.410302e+01 2.296886e-01 -5.134701e+00 6.293818e+01 5.650808e-01 -4.962295e-01 7.266743e-01 4.623803e-02 -2.041910e+00 -1.390521e+00 -4.478621e-01 -2.967388e-01 3.290819e-01 -9.247788e-01 1.736726e+00 -4.956177e-01 3.276759e+00 -1.255876e-01 -6.720580e-02 -4.823477e-01 -5.526288e-02 1.313875e-01 -1.805880e-01 1.467190e-01 -5.270305e-02 6.386366e-02 3.652911e-02 8.571035e-02 -9.592937e-02 3.643964e-02
<VARIANCE> 39
 3.823926e+01 5.059960e+01 1.041355e+02 1.145355e+01 9.144637e+01 4.458478e+01 5.459862e+01 2.825665e+01 5.066362e+01 6.188394e+01 9.246332e+01 2.063785e+01 1.756495e+02 4.624210e+00 5.795555e+00 2.165460e+01 1.205341e+00 4.335696e+00 5.338861e+00 9.760099e+00 2.500629e+00 3.687656e+00 1.003935e+01 8.576368e+00 2.450421e+00 4.991683e+00 7.035931e-01 1.303743e+00 3.101791e+00 2.518815e-01 1.161290e+00 1.000193e+00 1.845856e+00 5.255143e-01 6.891256e-01 2.309767e+00 1.757159e+00 4.801719e-01 1.111333e+00
<GCONST> 1.440947e+02
<STATE> 3
<MEAN> 39
 8.374833e-01 -5.844807e+00 -5.508543e+00 -1.635533e+01 -1.893882e+01 -9.245650e-01 -1.267360e+01 -1.094160e+01 1.662174e+00 -1.143683e+01 1.526762e+01 -1.085406e+01 7.925582e+01 2.810344e-01 5.229371e-01 -4.897052e-01 -9.869971e-01 1.044834e+00 1.163935e+00 1.155879e-01 -1.672957e-01 -1.589504e-01 1.715418e-01 -4.217223e-01 -7.417187e-02 -5.653232e-01 -1.685018e-01 -6.152113e-02 2.433738e-01 2.780697e-01 1.231186e-01 -7.174130e-02 3.607234e-02 1.514532e-01 -1.720845e-01 1.561934e-01 -3.135838e-01 1.618286e-01 -1.688063e-01
<VARIANCE> 39
 1.026289e+01 1.430268e+01 1.261026e+01 1.274043e+02 2.203246e+01 1.234586e+02 2.743795e+01 3.699651e+01 3.752665e+01 4.888895e+01 4.103704e+01 4.963012e+01 1.709914e+01 9.162051e-01 4.968819e-01 1.804706e+00 8.870705e+00 3.398259e+00 8.258859e+00 3.242015e+00 4.701305e+00 4.637601e+00 6.712135e+00 4.753271e+00 6.956328e+00 1.087224e+00 2.794544e-01 9.601882e-02 1.869925e-01 1.057054e+00 5.888810e-01 1.597697e+00 7.107450e-01 7.731493e-01 7.422180e-01 1.371403e+00 9.927951e-01 1.552130e+00 5.296044e-02
<GCONST> 1.235299e+02
<STATE> 4
<MEAN> 39
 -2.759659e+00 -8.052891e+00 -1.227594e+00 -3.588652e+00 -9.004430e+00 -3.691479e+00 -1.247365e+01 -4.192864e+00 -5.224618e-01 -8.714239e+00 -3.226314e+00 -4.624809e+00 6.830191e+01 6.566253e-02 -3.724443e-01 7.713974e-02 1.125070e-01 4.837814e-02 -1.552609e-01 -4.344933e-01 2.252400e-01 2.619694e-02 2.645490e-01 1.327114e-02 -8.844513e-03 2.216638e-01 1.003087e-01 -1.369037e-02 -1.122318e-02 -2.642810e-01 -1.543443e-01 2.381222e-01 1.166797e-02 -1.301051e-01 -3.018113e-02 2.717918e-03 1.907500e-01 -1.033648e-01 8.342754e-02
<VARIANCE> 39
 1.176871e+02 2.298421e+01 3.568833e+01 7.670132e+01 4.713529e+01 3.139960e+01 6.070757e+01 4.255149e+01 3.315719e+01 4.582702e+01 5.668188e+01 6.275332e+01 5.704754e+01 6.607899e+00 2.127657e+00 2.505988e+00 5.378493e+00 3.992347e+00 4.922209e+00 4.560924e+00 3.937516e+00 3.146955e+00 3.471093e+00 7.624568e+00 6.157325e+00 5.513175e+00 7.861364e-01 3.552806e-01 3.586931e-01 6.395051e-01 7.216056e-01 8.923085e-01 9.970227e-01 6.840480e-01 4.331196e-01 5.068280e-01 9.757424e-01 8.624605e-01 7.533812e-01
<GCONST> 1.357130e+02
<TRANSP> 5
 0.000000e+00 1.000000e+00 0.000000e+00 0.000000e+00 0.000000e+00
 0.000000e+00 9.029820e-01 9.701802e-02 0.000000e+00 0.000000e+00
 0.000000e+00 0.000000e+00 9.347425e-01 6.525760e-02 0.000000e+00
 0.000000e+00 0.000000e+00 0.000000e+00 9.682060e-01 3.179401e-02
 0.000000e+00 0.000000e+00 0.000000e+00 0.000000e+00 0.000000e+00
<ENDHMM>
~h "m"
<BEGINHMM>
<NUMSTATES> 5
<STATE> 2
<MEAN> 39
 2.259831e-01 -1.183671e+01 -4.714388e+00 -1.069365e+01 -4.451231e+00 -1.757095e+00 -2.411763e+01 8.785595e+00 1.080170e+01 -2.052040e+01 5.579491e-01 -1.416484e+01 7.817763e+01 1.356431e-01 8.906175e-02 6.958507e-02 2.064034e-01 7.138202e-02 -2.837857e-01 2.771353e-01 -6.567925e-02 -1.565650e-01 1.548332e-01 -2.755996e-02 1.510474e-01 -3.678549e-01 6.185852e-02 1.116144e-03 4.226370e-02 -1.844318e-02 2.032582e-02 1.881048e-02 2.499411e-02 -4.383723e-02 -5.724389e-02 -6.767981e-03 1.291339e-01 -4.670113e-02 -1.049439e-01
<VARIANCE> 39
 4.412863e+00 9.424687e+00 7.377564e+00 1.295013e+01 9.130352e+00 3.506486e+01 1.212382e+01 1.504883e+01 2.057931e+01 1.821874e+01 1.727182e+01 7.733665e+00 9.309590e+00 2.756721e-01 2.501688e-01 2.577670e-01 3.926512e-01 3.941072e-01 7.937366e-01 4.827366e-01 4.903921e-01 4.781675e-01 4.964477e-01 1.185411e+00 6.333323e-01 2.229216e-01 5.888167e-02 4.906347e-02 5.983238e-02 4.667292e-02 6.406174e-02 7.573955e-02 8.518376e-02 7.247984e-02 1.178824e-01 9.239262e-02 1.242975e-01 8.273096e-02 4.235991e-02
<GCONST> 5.879701e+01
<STATE> 3
<MEAN> 39
 3.513792e+00 -1.759331e+01 -8.393851e+00 -2.149121e+01 -5.397739e+00 1.935580e+01 -1.655132e+01 9.659768e-01 2.595246e-02 -1.239701e+01 1.511926e+00 -1.083985e+01 6.878596e+01 3.582669e-01 5.866058e-01 -5.311833e-01 -4.519762e-01 3.664071e-01 3.905819e-01 9.252999e-01 -2.661958e-01 -4.640558e-01 -4.678604e-01 3.775484e-01 1.002528e+00 -1.503361e+00 -1.734669e-01 2.267798e-01 -1.664440e-02 3.358589e-01 -1.063260e-02 -4.697463e-01 2.558550e-01 1.216579e-01 2.751023e-02 9.846330e-02 -3.728506e-01 2.848954e-02 -2.527106e-01
<VARIANCE> 39
 7.259635e+00 2.836131e+01 1.891207e+01 6.685384e+01 1.935198e+01 1.782573e+02 3.458027e+01 2.659575e+01 4.164387e+01 4.044632e+01 2.048348e+01 2.717658e+01 2.660344e+01 7.699854e-01 9.163578e-01 8.434073e-01 1.638592e+00 9.857038e-01 2.647517e+00 2.244553e+00 1.566074e+00 1.037503e+00 1.588279e+00 1.551551e+00 1.051102e+00 8.180289e-01 1.822947e-01 2.087247e-01 1.629600e-01 3.258685e-01 1.945830e-01 4.822097e-01 4.247682e-01 2.482771e-01 1.917114e-01 3.642271e-01 3.225822e-01 1.921353e-01 2.208788e-01
<GCONST> 1.013550e+02
<STATE> 4
<MEAN> 39
 3.756850e+00 -1.180921e+01 -6.066572e+00 -1.252373e+01 -3.294006e+00 4.014551e+00 -1.490797e+01 3.168822e+00 4.230583e+00 -1.681174e+01 1.520484e+00 -1.086367e+01 6.676485e+01 1.727594e-01 1.291290e+00 -6.319545e-02 1.125633e+00 4.221089e-01 -7.640580e-01 1.504462e+00 -2.826025e-01 -1.094975e+00 9.393668e-01 -1.330516e+00 1.002627e+00 -2.613988e+00 -2.031874e-01 5.131897e-01 1.090516e-02 6.026173e-01 -6.822269e-02 -1.169399e-01 3.548238e-02 1.320646e-02 -2.612828e-01 4.180976e-01 -5.753504e-01 1.996215e-01 -4.423331e-01
<VARIANCE> 39
 6.138171e+00 1.821109e+01 4.819875e+01 1.143061e+02 2.708036e+01 2.673339e+02 4.261829e+01 4.266603e+01 6.004298e+01 4.725937e+01 2.149879e+01 2.811347e+01 2.651620e+01 1.883494e+00 1.182402e+00 1.788351e+00 1.615237e+00 1.329018e+00 2.073176e+00 1.634105e+00 2.160852e+00 1.679465e+00 1.137378e+00 1.326671e+00 9.618469e-01 1.036848e+00 1.847554e-01 2.960901e-01 2.160783e-01 2.991405e-01 2.636393e-01 3.884016e-01 3.725443e-01 3.578932e-01 2.926784e-01 2.312502e-01 3.213497e-01 2.824527e-01 1.485282e-01
<GCONST> 1.071594e+02
<TRANSP> 5
 0.000000e+00 1.000000e+00 0.000000e+00 0.000000e+00 0.000000e+00
 0.000000e+00 9.084706e-01 9.152933e-02 0.000000e+00 0.000000e+00
 0.000000e+00 0.000000e+00 6.674199e-01 3.325801e-01 0.000000e+00
 0.000000e+00 0.000000e+00 0.000000e+00 5.279305e-01 4.720695e-01
 0.000000e+00 0.000000e+00 0.000000e+00 0.000000e+00 0.000000e+00
<ENDHMM>
~h "q"
<BEGINHMM>
<NUMSTATES> 5
<STATE> 2
<MEAN> 39
 -8.416019e+00 -3.472028e+00 2.047038e+00 -7.170689e+00 -1.052319e+01 -6.931632e+00 -3.306811e+00 -5.599968e+00 -4.875154e+00 -7.872008e+00 -3.530960e-01 -6.660575e+00 6.076871e+01 -2.088282e+00 -6.783281e-02 -5.631863e-01 -8.177046e-01 1.826625e+00 -3.017499e-01 8.550146e-01 3.404565e-01 -2.685028e-02 9.306769e-01 -7.824127e-01 5.615155e-01 -3.947130e-01 -4.007936e-01 1.675321e-02 -1.748476e-01 -2.959496e-01 2.728903e-02 8.911436e-02 -1.677588e-02 1.105627e-01 2.600988e-01 2.066832e-01 1.192808e-01 2.720782e-02 5.445099e-01
<VARIANCE> 39
 7.072017e+01 3.856548e+01 4.854997e+01 3.035464e+01 8.129375e+01 2.719526e+01 4.040246e+01 3.045522e+01 2.243038e+01 4.534998e+01 3.511395e+01 1.942662e+01 1.261927e+02 7.580268e+00 5.442031e+00 3.365521e+00 6.134254e+00 7.712612e+00 3.432061e+00 4.925229e+00 4.085167e+00 3.419452e+00 3.210173e+00 3.036378e+00 2.218066e+00 1.342944e+01 7.263058e-01 1.246467e+00 6.392496e-01 9.257950e-01 1.650460e+00 7.874065e-01 1.199049e+00 9.908329e-01 8.780644e-01 5.953686e-01 5.322396e-01 4.645704e-01 1.307191e+00
<GCONST> 1.379457e+02
<STATE> 3
<MEAN> 39
 -2.729714e+01 -2.287628e+00 -7.005406e-01 -1.801954e+01 -2.445049e-01 -2.683092e+00 -1.995126e+00 -3.800653e+00 -1.061170e+00 -1.978553e-01 -1.990381e-01 -2.734147e+00 7.146980e+01 3.575685e-01 3.329731e-01 8.826516e-01 -1.695520e-02 -3.165971e-01 5.368173e-01 -2.850590e-01 -3.845250e-01 -1.425578e-01 -2.689666e-01 2.954542e-01 -4.386610e-02 6.901433e-01 5.915899e-01 1.917183e-02 3.170870e-01 3.276622e-01 -3.658405e-01 -8.735485e-02 -1.596376e-01 -1.784051e-01 -2.394061e-01 -3.541097e-01 3.061620e-02 -1.271692e-01 -2.091647e-01
<VARIANCE> 39
 2.279127e+01 1.269760e+01 1.667707e+01 1.635313e+01 1.505680e+01 2.301578e+01 1.743247e+01 1.696516e+01 1.746553e+01 1.543208e+01 1.693337e+01 1.347579e+01 2.734213e+01 4.146685e+00 1.979875e+00 2.856239e+00 2.684664e+00 1.997862e+00 2.191666e+00 1.875998e+00 2.585311e+00 3.104206e+00 2.494453e+00 1.876584e+00 1.557569e+00 1.890180e+00 4.280205e-01 4.051146e-01 4.014178e-01 4.101158e-01 4.784505e-01 4.272895e-01 3.567311e-01 4.599695e-01 4.126583e-01 3.914425e-01 3.985134e-01 3.034176e-01 2.409594e-01
<GCONST> 1.074705e+02
<STATE> 4
<MEAN> 39
 -8.872051e+00 -1.312973e+00 1.556764e+01 -9.716901e+00 -1.608369e+01 -3.180941e+00 -9.791046e+00 -1.052381e+01 -7.870533e+00 -1.320522e+01 4.977972e+00 -7.344351e+00 7.284232e+01 7.960580e-01 -4.011498e-01 2.573210e-01 4.111329e-01 -9.475735e-01 -1.808209e-01 -1.909513e-01 2.729447e-01 -6.552999e-02 -3.276955e-01 2.831597e-01 -2.611341e-01 1.027478e-01 -2.145259e-01 -8.969402e-02 -3.314308e-01 -7.672223e-02 2.004382e-01 2.737056e-03 1.730589e-01 2.229305e-01 1.650433e-01 2.220476e-01 -1.365798e-01 7.150882e-02 -3.078467e-02
<VARIANCE> 39
 7.394731e+01 2.948390e+01 4.610817e+01 2.382681e+01 5.942012e+01 1.309763e+01 1.732462e+01 2.290858e+01 1.622304e+01 3.509606e+01 2.144234e+01 1.782562e+01 1.737315e+01 4.183788e+00 1.372065e+00 3.880464e+00 2.148371e+00 5.128417e+00 1.757663e+00 2.573493e+00 2.241951e+00 1.889773e+00 4.275190e+00 1.595340e+00 1.158761e+00 1.402447e+00 4.842029e-01 2.973474e-01 4.096713e-01 3.575120e-01 7.182673e-01 3.256038e-01 3.474976e-01 2.992399e-01 3.446804e-01 4.869552e-01 3.252741e-01 2.276307e-01 1.937383e-01
<GCONST> 1.114092e+02
<TRANSP> 5
 0.000000e+00 1.000000e+00 0.000000e+00 0.000000e+00 0.000000e+00
 0.000000e+00 8.808897e-01 1.191104e-01 0.000000e+00 0.000000e+00
 0.000000e+00 0.000000e+00 9.230500e-01 7.694997e-02 0.000000e+00
 0.000000e+00 0.000000e+00 0.000000e+00 9.431900e-01 5.680995e-02
 0.000000e+00 0.000000e+00 0.000000e+00 0.000000e+00 0.000000e+00
<ENDHMM>
~h "s"
<BEGINHMM>
<NUMSTATES> 5
<STATE> 2
<MEAN> 39
 -1.230873e+01 -2.652171e+00 -9.008616e+00 -5.450592e+00 -4.467352e+00 -6.421777e+00 -3.024191e+00 -4.977338e+00 2.155088e-01 -8.303028e+00 -2.120096e+00 -3.776500e+00 6.555821e+01 -9.727151e-02 -9.449191e-01 -6.499638e-02 -5.744132e-01 -3.472750e-01 5.537199e-01 -4.782123e-01 1.170580e-01 8.546183e-01 -3.503095e-01 8.699205e-02 -5.130349e-01 1.465260e+00 2.913218e-02 -1.861065e-01 -8.481193e-03 2.300282e-02 6.667134e-02 2.341986e-01 -1.372092e-01 1.456239e-01 1.366325e-01 -1.180604e-01 -5.926665e-02 -7.161522e-02 -1.190998e-03
<VARIANCE> 39
 1.887871e+02 6.201435e+01 1.465218e+01 3.033072e+01 2.627801e+01 4.650550e+01 6.023356e+01 2.021666e+01 5.938235e+01 2.561110e+01 3.264619e+01 2.740886e+01 7.444740e+01 1.844272e+01 4.910145e+00 1.702599e+00 3.600517e+00 2.342631e+00 5.448268e+00 5.722913e+00 2.573802e+00 4.715555e+00 2.917467e+00 3.472921e+00 3.205690e+00 3.852924e+00 2.363140e+00 8.690938e-01 3.758087e-01 6.503165e-01 5.219973e-01 9.506879e-01 7.560486e-01 3.963076e-01 8.734917e-01 4.470327e-01 5.698622e-01 7.045463e-01 5.697317e-01
<GCONST> 1.327140e+02
<STATE> 3
<MEAN> 39
 -2.799757e+00 -1.356894e+01 2.679422e-01 -1.090373e+01 -9.762232e+00 -1.547093e+00 -1.373366e+01 3.171925e+00 3.864149e+00 -1.585536e+01 2.721488e+00 -1.230750e+01 7.688673e+01 -3.797860e-02 -5.291760e-02 1.177518e-01 -5.700036e-02 -1.428455e-01 -1.614291e-03 7.071360e-02 2.257834e-01 -3.003187e-01 2.883684e-01 7.644042e-03 -1.198045e-01 -1.104148e-02 -2.050662e-02 9.912971e-02 -8.579497e-02 -2.441863e-02 1.108437e-01 3.503103e-02 4.901437e-02 -1.052866e-01 -5.637639e-02 1.648707e-01 -5.244945e-02 8.027162e-04 -1.092693e-01
<VARIANCE> 39
 7.724266e+01 7.552724e+01 4.858626e+01 2.267209e+01 6.624860e+01 5.699947e+01 1.231438e+02 3.191757e+01 7.706378e+01 8.679536e+01 2.989980e+01 4.443706e+01 3.110467e+01 5.093156e+00 3.324367e+00 3.267951e+00 2.010811e+00 5.597381e+00 3.055566e+00 3.909617e+00 1.896234e+00 4.322966e+00 5.202046e+00 3.499212e+00 2.557183e+00 2.232045e+00 7.568547e-01 5.056091e-01 4.136699e-01 4.308105e-01 8.249094e-01 4.628844e-01 5.984656e-01 3.994961e-01 7.365025e-01 7.431304e-01 4.896666e-01 3.486983e-01 3.693810e-01
<GCONST> 1.305201e+02
<STATE> 4
<MEAN> 39
 4.460120e+00 -1.476038e+01 -9.329115e+00 -1.824190e+01 -9.808190e+00 1.251453e+01 -1.150381e+01 -4.517147e-01 1.399597e+00 -3.176787e+00 -1.872328e+00 -1.620272e+01 7.344754e+01 7.869628e-01 7.291894e-01 -6.214868e-01 -3.246524e-01 8.459054e-01 2.619121e+00 6.512269e-01 -1.185408e+00 -1.383151e+00 6.995330e-01 3.219144e-01 1.067313e+00 -2.037711e+00 -1.773606e-01 9.500409e-02 3.747838e-01 3.901984e-01 -5.301034e-01 -3.891875e-01 3.935431e-02 1.111059e-01 -1.329223e-01 -4.277478e-01 3.182279e-01 4.529624e-01 3.265670e-02
<VARIANCE> 39
 2.086839e+01 2.543442e+01 1.386169e+01 1.831124e+01 2.249423e+01 5.389614e+01 3.770813e+01 3.494301e+01 4.427398e+01 2.920316e+01 5.433696e+01 3.658989e+01 4.385275e+01 9.070457e-01 1.549493e+00 1.803645e+00 3.390986e+00 3.721302e+00 4.151156e+00 2.351455e+00 2.162749e+00 3.076837e+00 4.271167e+00 4.428460e+00 5.230228e+00 1.716925e+00 8.311497e-02 4.468488e-01 4.217065e-01 3.173927e-01 4.714300e-01 5.671577e-01 4.410545e-01 3.783972e-01 9.425233e-01 6.579053e-01 1.147237e+00 1.228455e+00 4.601852e-01
<GCONST> 1.197621e+02
<TRANSP> 5
 0.000000e+00 1.000000e+00 0.000000e+00 0.000000e+00 0.000000e+00
 0.000000e+00 9.472319e-01 5.276802e-02 0.000000e+00 0.000000e+00
 0.000000e+00 0.000000e+00 9.547628e-01 4.523725e-02 0.000000e+00
 0.000000e+00 0.000000e+00 0.000000e+00 7.472190e-01 2.527810e-01
 0.000000e+00 0.000000e+00 0.000000e+00 0.000000e+00 0.000000e+00
<ENDHMM>
~h "u"
<BEGINHMM>
<NUMSTATES> 5
<STATE> 2
<MEAN> 39
 -1.414022e+01 -3.487712e+00 -1.125568e+01 -3.113799e+00 -9.002941e+00 -3.401844e+00 -8.819968e+00 -3.860378e+00 -5.148829e+00 -3.657229e+00 -3.719687e+00 -4.267979e+00 3.742653e+01 2.028550e+00 9.789065e-01 -1.486161e+00 -2.953094e+00 2.068647e+00 -4.853985e-01 1.154489e+00 1.243975e+00 -1.151518e+00 1.668827e+00 -4.894838e-01 4.043727e-01 2.788543e+00 1.405037e+00 5.942482e-01 -6.201830e-01 -1.754305e+00 9.446100e-01 -1.079921e-02 7.666230e-01 3.793282e-01 -8.955353e-01 6.936241e-01 -1.726461e-01 1.943733e-01 2.070886e+00
<VARIANCE> 39
 1.462593e+00 4.861450e+00 7.724920e+00 6.220523e+00 1.173621e+01 1.249583e+01 1.135526e+01 1.182393e+01 1.281526e+01 1.714970e+01 1.561440e+01 1.274290e+01 3.634416e+00 3.156405e+00 2.353092e+00 3.685107e+00 7.224368e+00 5.218947e+00 2.391670e+00 3.481610e+00 2.535358e+00 4.351337e+00 4.077041e+00 1.912529e+00 1.905954e+00 4.493026e+00 1.453846e-01 1.430821e-01 3.229216e-01 5.597203e-01 6.416919e-01 4.123686e-01 4.547666e-01 3.631952e-01 5.846598e-01 4.646461e-01 5.091624e-01 3.380472e-01 3.505545e-01
<GCONST> 1.022113e+02
<STATE> 3
<MEAN> 39
 -7.429878e+00 1.127032e+00 -9.143901e+00 -3.183997e+00 -6.850728e+00 -2.383512e+00 -6.490536e+00 -2.130554e+00 -4.485809e+00 -1.799670e+00 -3.295570e+00 -2.787881e+00 4.190593e+01 1.820995e+00 6.990151e-01 -2.174112e+00 -3.982602e+00 2.341846e+00 -4.297471e-01 1.476208e+00 1.164997e+00 -1.950609e+00 1.841338e+00 -7.842327e-01 4.158279e-01 3.412292e+00 3.863882e-01 -2.117723e-01 3.450650e-02 -6.382451e-01 -3.414057e-01 2.370731e-01 -1.377780e-01 -4.289829e-01 -2.225143e-01 -2.402228e-01 4.004255e-01 -2.693880e-01 1.069914e+00
<VARIANCE> 39
 6.678239e+01 4.251615e+01 2.680455e+01 2.321820e+01 3.062099e+01 1.406019e+01 1.743051e+01 1.536148e+01 1.701117e+01 1.659604e+01 1.375917e+01 1.383841e+01 2.714841e+01 1.309009e+01 6.224968e+00 6.968973e+00 1.672665e+01 8.030557e+00 3.378950e+00 4.776274e+00 3.722600e+00 6.515790e+00 5.885163e+00 3.046418e+00 2.330728e+00 1.591905e+01 2.255877e+00 9.448119e-01 6.463465e-01 6.657840e-01 1.354064e+00 4.733449e-01 4.853792e-01 6.370711e-01 4.978013e-01 5.337551e-01 7.641380e-01 4.117306e-01 2.071056e+00
<GCONST> 1.321641e+02
<STATE> 4
<MEAN> 39
 2.074141e+00 -3.670222e+00 -1.484587e+01 -2.491236e+01 -7.565419e+00 -1.171340e-01 -4.712059e+00 -4.260602e+00 -9.436642e+00 1.037660e+00 3.901101e+00 -6.115209e+00 7.309267e+01 8.146704e-01 -1.901848e+00 1.008812e+00 -1.088774e+00 -1.835106e+00 1.555048e+00 -3.749861e-01 -1.383403e+00 1.881256e+00 -4.838223e-01 2.007807e+00 -1.506989e+00 5.467378e+00 -8.743799e-01 -3.829986e-01 2.211706e-01 9.633371e-01 4.935068e-02 2.416455e-01 -1.888169e-01 -8.615592e-02 8.154364e-01 -2.027727e-01 -5.956023e-01 -2.335707e-01 -9.260459e-01
<VARIANCE> 39
 1.857672e+01 4.873117e+01 6.040628e+01 3.108995e+01 1.175162e+02 6.218304e+01 5.457207e+01 6.542772e+01 7.242245e+01 5.882992e+01 1.227704e+02 4.565758e+01 1.164331e+02 9.539750e+00 4.389940e+00 5.272665e+00 1.015013e+01 1.348302e+01 4.957445e+00 7.001916e+00 6.438322e+00 1.004854e+01 7.881440e+00 1.743357e+01 3.926973e+00 7.401537e+00 8.424082e-01 1.216779e+00 1.919327e+00 1.741462e+00 5.012023e+00 1.241300e+00 1.830887e+00 1.910116e+00 2.049621e+00 2.225874e+00 4.982394e+00 9.522551e-01 6.251076e-01
<GCONST> 1.580884e+02
<TRANSP> 5
 0.000000e+00 1.000000e+00 0.000000e+00 0.000000e+00 0.000000e+00
 0.000000e+00 3.757843e-01 6.242157e-01 0.000000e+00 0.000000e+00
 0.000000e+00 0.000000e+00 5.452904e-01 4.547097e-01 0.000000e+00
 0.000000e+00 0.000000e+00 0.000000e+00 8.441157e-01 1.558842e-01
 0.000000e+00 0.000000e+00 0.000000e+00 0.000000e+00 0.000000e+00
<ENDHMM>
~h "x"
<BEGINHMM>
<NUMSTATES> 5
<STATE> 2
<MEAN> 39
 -2.823247e+00 -1.376575e+01 -7.866556e+00 7.100412e-01 -1.750260e+00 -3.330834e+00 -1.607115e+00 -4.342097e+00 2.632246e+00 -1.947742e+00 -8.132709e-01 -6.631088e+00 7.022783e+01 -5.010813e+00 -1.240590e+00 1.177942e+00 1.857617e+00 3.873219e+00 -3.888560e+00 4.424997e-01 1.393895e+00 1.732154e+00 -2.449205e-01 -8.875790e-01 6.270107e-01 7.354461e-01 -5.116547e-01 -2.189883e-01 -6.518754e-02 -6.052802e-01 -3.751414e-01 4.042022e-01 -2.865020e-01 -5.707715e-02 9.141000e-02 -1.542588e-01 1.034228e-01 -2.707955e-01 7.922097e-02
<VARIANCE> 39
 1.101732e+02 9.280993e+00 2.373546e+01 2.919323e+01 9.053143e+01 7.125488e+01 1.976328e+01 2.209528e+01 3.008771e+01 2.181844e+01 1.532692e+01 1.832351e+01 1.528937e+01 4.843664e+00 9.286963e-01 2.075101e+00 4.175712e+00 6.421986e+00 4.625941e+00 2.615332e+00 2.153184e+00 2.511570e+00 2.503193e+00 1.787187e+00 2.637403e+00 8.001449e-01 1.866925e+00 1.370507e-01 6.166232e-01 5.320599e-01 2.157976e+00 1.027009e+00 4.046183e-01 4.960003e-01 7.078988e-01 5.189086e-01 3.172771e-01 4.733897e-01 2.243698e-01
<GCONST> 1.191203e+02
<STATE> 3
<MEAN> 39
 -2.082455e+01 -1.756362e+01 -2.659747e+00 6.828680e+00 4.914179e+00 -1.770766e+01 -4.773948e+00 -1.568730e-01 7.293181e+00 -5.255604e+00 -3.055234e+00 -3.512312e+00 7.103790e+01 1.146479e+00 5.862935e-01 1.375721e-01 -2.591463e-02 -3.364200e-01 -9.135344e-01 -1.072260e+00 -2.869217e-01 -1.433058e-01 -5.769774e-01 -1.174331e-01 3.716557e-01 5.253510e-02 4.868664e-01 1.240548e-01 -7.784917e-02 -1.021650e-01 -6.666040e-02 6.347465e-02 -1.297916e-01 -9.156758e-02 -7.634389e-02 -1.072205e-01 -1.456062e-03 2.007342e-02 3.019528e-02
<VARIANCE> 39
 6.364477e+01 2.680299e+01 1.630881e+01 1.529654e+01 1.858045e+01 2.422291e+01 3.605083e+01 2.185988e+01 1.394088e+01 1.798216e+01 1.330607e+01 1.073319e+01 1.079523e+01 9.325068e+00 2.527887e+00 1.638556e+00 1.920821e+00 1.699805e+00 1.783277e+00 3.158288e+00 2.140943e+00 1.593013e+00 2.115833e+00 1.476624e+00 1.114844e+00 1.003552e+00 9.750462e-01 4.836074e-01 2.746903e-01 2.932064e-01 3.869156e-01 3.571901e-01 4.364095e-01 3.398064e-01 3.498333e-01 3.674784e-01 2.893223e-01 2.135679e-01 1.942040e-01
<GCONST> 1.056937e+02
<STATE> 4
<MEAN> 39
 5.965140e+00 -1.250744e+01 -6.889380e+00 2.945270e+00 -2.392946e+00 -2.196379e+01 -2.777524e+01 8.183425e-01 8.206483e+00 -1.595379e+01 1.141888e+00 -2.213456e+00 7.281741e+01 5.445140e-01 -2.410465e-01 -5.900650e-01 -3.949140e-02 -2.753027e-01 5.650445e-01 -8.056889e-01 1.038885e+00 2.430654e-01 -3.084094e-01 7.422768e-01 -4.146227e-01 -3.011314e-01 -1.937366e-01 6.116703e-02 5.423875e-02 5.160940e-02 8.517222e-02 5.146946e-02 3.176762e-01 4.917550e-02 -2.117872e-02 1.948106e-01 -8.595134e-02 -1.144643e-02 -1.849674e-01
<VARIANCE> 39
 1.505696e+01 1.058217e+01 2.036735e+01 8.729183e+00 2.684484e+01 4.506931e+01 9.029147e+01 7.361908e+01 2.099025e+01 2.846082e+01 5.985825e+01 2.279606e+01 7.296042e+00 3.857742e-01 5.103289e-01 6.264493e-01 6.232625e-01 1.740370e+00 2.044683e+00 4.566030e+00 2.056108e+00 1.247383e+00 2.578194e+00 2.498188e+00 1.639744e+00 4.994952e-01 2.298390e-01 1.341075e-01 1.466377e-01 1.540516e-01 3.040929e-01 3.199215e-01 8.112942e-01 3.236346e-01 2.390802e-01 5.244596e-01 5.658814e-01 3.078447e-01 9.411980e-02
<GCONST> 9.913056e+01
<TRANSP> 5
 0.000000e+00 1.000000e+00 0.000000e+00 0.000000e+00 0.000000e+00
 0.000000e+00 8.049102e-01 1.950898e-01 0.000000e+00 0.000000e+00
 0.000000e+00 0.000000e+00 9.343243e-01 6.567561e-02 0.000000e+00
 0.000000e+00 0.000000e+00 0.000000e+00 9.489500e-01 5.104998e-02
 0.000000e+00 0.000000e+00 0.000000e+00 0.000000e+00 0.000000e+00
<ENDHMM>
~h "ai"
<BEGINHMM>
<NUMSTATES> 5
<STATE> 2
<MEAN> 39
 -1.087072e+01 -1.784403e+01 -9.960504e+00 -6.851327e+00 7.882428e+00 -2.131316e+01 3.478506e+00 -2.181864e+00 -1.530608e-01 -1.666402e+00 -6.458142e+00 2.287314e-01 6.676163e+01 6.577214e-01 -6.781475e-01 1.149655e+00 1.584255e-01 6.472778e-01 7.085437e-02 2.051591e+00 3.995753e-01 4.519004e-01 -1.063741e+00 6.811317e-01 -3.224034e-01 3.910279e+00 4.403088e-01 5.470946e-01 9.611922e-02 1.595903e-01 -1.259342e+00 2.448096e+00 -7.533463e-01 -2.105431e-01 -4.589322e-01 -4.815173e-01 2.977514e-01 -8.831995e-01 -8.423493e-01
<VARIANCE> 39
 1.038312e+01 2.485146e+01 2.983510e+01 2.805334e+01 2.368960e+01 6.509635e+01 2.775842e+01 2.512609e+01 2.002768e+01 2.890047e+01 2.763419e+01 1.815609e+01 2.602363e+01 2.796127e+00 4.247543e+00 2.832881e+00 2.475688e+00 8.716801e+00 3.712585e+01 4.271462e+00 2.887240e+00 3.239959e+00 3.600263e+00 3.186506e+00 6.034063e+00 8.470940e+00 6.137698e-01 7.397150e-01 8.315449e-01 5.578114e-01 6.069794e-01 3.434914e+00 6.452737e-01 5.405372e-01 5.308876e-01 6.356784e-01 7.121891e-01 7.979263e-01 1.083975e+00
<GCONST> 1.305031e+02
<STATE> 3
<MEAN> 39
 -7.050579e+00 -1.557168e+01 -1.082551e+01 -9.825734e+00 -6.291190e+00 -4.951587e+00 4.323138e+00 6.207798e-01 -1.125544e+00 -1.214543e+01 -8.016796e+00 -3.122387e+00 8.434061e+01 1.589358e-03 2.310616e-01 1.523276e-02 -5.502749e-01 -1.751624e+00 3.499819e-01 -1.378509e-01 5.392219e-01 2.233667e-01 -6.376891e-01 -3.605263e-02 -1.183857e-01 1.245416e+00 -8.299030e-02 1.621658e-02 1.196237e-01 -3.498665e-02 -2.288177e-02 -3.239228e-01 -1.145767e-01 4.051551e-03 1.112579e-01 1.549468e-01 1.418171e-01 4.832105e-03 -2.034990e-01
<VARIANCE> 39
 1.276679e+01 1.027813e+01 1.263646e+01 1.643397e+01 4.966740e+01 1.947925e+01 2.680312e+01 2.543650e+01 1.521873e+01 1.694466e+01 2.543991e+01 2.190265e+01 3.771648e+01 1.683866e+00 8.997310e-01 2.139553e+00 1.191609e+00 1.915347e+00 3.554269e+00 2.443005e+00 2.228680e+00 1.314413e+00 1.767264e+00 3.323111e+00 2.975729e+00 2.696212e+00 3.603385e-01 1.775854e-01 3.115889e-01 2.694815e-01 3.695805e-01 6.034768e-01 5.349322e-01 4.558169e-01 2.266742e-01 2.849953e-01 5.555298e-01 6.268405e-01 2.959459e-01
<GCONST> 1.067350e+02
<STATE> 4
<MEAN> 39
 -7.016065e+00 -1.132193e+01 -5.394517e-01 -1.013446e+01 -1.898983e+01 -7.669185e+00 -3.376432e+00 1.132876e+00 2.169014e+00 -1.213801e+01 2.549953e+00 -9.481327e+00 8.067015e+01 -2.436951e-01 7.702935e-01 9.250800e-01 5.945300e-01 3.908739e-01 -2.740713e-01 -9.581718e-01 -9.674854e-01 -2.821878e-01 2.714653e-01 6.399321e-01 -1.758188e-01 -1.479209e+00 -1.355310e-01 9.478974e-02 -1.482226e-01 1.404170e-01 4.168819e-01 1.069572e-02 2.001215e-01 -1.032202e-01 -1.589885e-01 -8.693444e-03 -3.275099e-01 2.761259e-01 -2.117402e-01
<VARIANCE> 39
 2.717669e+01 2.861879e+01 2.263752e+01 2.118354e+01 6.817697e+01 2.272686e+01 3.577208e+01 3.398009e+01 1.123288e+01 2.349525e+01 5.073064e+01 2.182601e+01 6.792758e+01 2.092932e+00 1.975372e+00 1.865971e+00 1.658177e+00 4.889102e+00 1.752756e+00 4.703538e+00 2.065355e+00 1.575810e+00 2.153111e+00 5.883904e+00 3.048057e+00 1.850208e+00 2.686905e-01 3.311052e-01 1.637670e-01 2.628820e-01 6.495667e-01 3.262486e-01 8.279893e-01 3.679679e-01 2.633733e-01 4.090770e-01 7.798608e-01 4.348775e-01 2.602609e-01
<GCONST> 1.144928e+02
<TRANSP> 5
 0.000000e+00 1.000000e+00 0.000000e+00 0.000000e+00 0.000000e+00
 0.000000e+00 7.775754e-01 2.224246e-01 0.000000e+00 0.000000e+00
 0.000000e+00 0.000000e+00 9.229821e-01 7.701792e-02 0.000000e+00
 0.000000e+00 0.000000e+00 0.000000e+00 9.018642e-01 9.813584e-02
 0.000000e+00 0.000000e+00 0.000000e+00 0.000000e+00 0.000000e+00
<ENDHMM>
~h "an"
<BEGINHMM>
<NUMSTATES> 5
<STATE> 2
<MEAN> 39
 -3.961119e+00 -1.367016e+01 -1.177608e+01 -1.775682e+01 -4.089745e+00 6.496269e+00 -1.194919e+01 -6.547253e+00 9.527367e+00 -7.314597e+00 -7.067060e+00 -1.323845e+01 8.418462e+01 -2.056766e-01 -8.501910e-02 1.124170e-01 9.254538e-01 4.688384e-01 -4.342507e-01 -1.167122e+00 4.542112e-01 1.336714e+00 -1.790278e+00 -9.536611e-01 -2.308514e-01 -4.027001e-03 2.035639e-01 1.518484e-01 1.289257e-01 1.108496e-01 -3.438204e-01 -3.042944e-01 -7.946412e-02 1.037467e-01 -1.061914e-01 -3.609962e-01 5.658438e-01 7.977134e-02 -1.887931e-01
<VARIANCE> 39
 1.455994e+01 9.786726e+00 4.211260e+00 3.060969e+01 1.787587e+01 3.616283e+01 4.218688e+01 2.076609e+01 3.656189e+01 6.530657e+01 7.155301e+01 2.560318e+01 7.153422e+01 5.958877e-01 7.330429e-01 5.302933e-01 1.078185e+00 3.267010e+00 3.505820e+00 1.328638e+00 2.100148e+00 1.957656e+00 3.124704e+00 7.145160e+00 1.888726e+00 2.902826e-01 8.503361e-02 1.031892e-01 7.531104e-02 1.482373e-01 2.982405e-01 3.757566e-01 3.596403e-01 3.418504e-01 3.003704e-01 3.911802e-01 5.864983e-01 3.993293e-01 7.804828e-02
<GCONST> 9.989866e+01
<STATE> 3
<MEAN> 39
 -1.144277e+00 -1.219320e+01 -7.896324e+00 -9.199761e+00 -8.441958e+00 -2.194037e+00 -1.758003e+01 -1.643974e+00 1.501787e+01 -2.365684e+01 2.057611e-01 -1.499709e+01 7.804472e+01 1.117202e+00 4.438881e-01 1.691023e+00 1.481301e+00 -8.501858e-01 -1.429124e+00 2.082482e-01 -8.183975e-01 -1.544737e+00 -1.380746e-01 1.224339e+00 -9.975106e-03 -1.864382e+00 1.262694e-01 3.569645e-02 4.191256e-01 1.728793e-01 1.943919e-01 3.602608e-02 2.374149e-01 -4.367299e-01 -9.853452e-01 1.058524e+00 -5.588521e-01 1.692539e-01 -3.123959e-01
<VARIANCE> 39
 1.590353e+01 1.901810e+01 1.090318e+01 2.030289e+01 1.306458e+01 5.802875e+01 3.712112e+01 1.866914e+01 6.279279e+01 5.677500e+01 4.521455e+01 6.155152e+01 9.704604e+01 7.158818e-01 9.421656e-01 2.272441e+00 2.110696e+00 1.137720e+00 1.929486e+00 1.992607e+00 2.485325e+00 7.509426e+00 8.609744e+00 4.946376e+00 3.692498e+00 1.405354e+00 1.364612e-01 1.781990e-01 2.531822e-01 3.138606e-01 1.800414e-01 4.796641e-01 2.808580e-01 3.630475e-01 8.568478e-01 8.736006e-01 5.413624e-01 4.510958e-01 1.589856e-01
<GCONST> 1.131011e+02
<STATE> 4
<MEAN> 39
 1.591890e+00 -6.475864e+00 2.665112e+00 -3.832069e+00 -1.400471e+01 -5.922147e+00 -1.198467e+01 -8.011663e+00 -1.873311e+00 -1.306041e+01 -8.480737e-01 -7.410791e+00 6.741231e+01 -2.053636e-01 1.922819e-01 2.141615e-01 -2.761537e-01 -2.700059e-01 -5.419476e-02 3.146789e-01 2.358458e-01 -4.407720e-01 7.673078e-01 2.142692e-02 9.764844e-02 8.778611e-02 -1.835624e-01 -2.875446e-02 -3.076275e-01 -1.637931e-01 2.075705e-01 3.008297e-02 5.750956e-02 1.801575e-01 3.311681e-01 -5.826942e-02 -1.565357e-01 -5.046366e-02 2.443796e-01
<VARIANCE> 39
 5.592410e+01 3.895714e+01 2.705720e+01 4.441708e+01 8.439796e+01 4.804381e+01 3.495968e+01 7.340374e+01 2.506602e+01 2.969905e+01 5.766441e+01 3.676219e+01 1.261167e+02 4.091098e+00 3.115974e+00 4.290850e+00 4.130858e+00 9.870854e+00 4.043972e+00 2.747591e+00 5.288573e+00 5.971537e+00 3.087692e+00 5.707816e+00 2.601688e+00 8.437329e+00 6.405585e-01 4.306188e-01 4.728608e-01 6.867331e-01 2.134963e+00 6.451414e-01 5.475528e-01 8.204820e-01 4.412142e-01 5.140085e-01 1.071030e+00 3.885697e-01 1.119728e+00
<GCONST> 1.361105e+02
<TRANSP> 5
 0.000000e+00 1.000000e+00 0.000000e+00 0.000000e+00 0.000000e+00
 0.000000e+00 8.487909e-01 1.512091e-01 0.000000e+00 0.000000e+00
 0.000000e+00 0.000000e+00 7.260063e-01 2.739937e-01 0.000000e+00
 0.000000e+00 0.000000e+00 0.000000e+00 8.612756e-01 1.387244e-01
 0.000000e+00 0.000000e+00 0.000000e+00 0.000000e+00 0.000000e+00
<ENDHMM>
~h "ao"
<BEGINHMM>
<NUMSTATES> 5
<STATE> 2
<MEAN> 39
 -6.024204e+00 -9.449164e+00 -2.014069e+01 -1.381296e+01 -3.148734e+00 9.936754e+00 -2.413490e+00 -2.400338e+00 -4.773581e+00 -8.425998e+00 -5.141400e+00 -4.405613e+00 4.791861e+01 -8.814478e-01 5.109684e-01 3.209816e-01 5.583740e-01 -6.048846e-01 -1.237669e+00 1.583165e-01 1.143423e-02 -2.761368e-01 1.034420e-01 -3.417518e-01 -1.072210e-01 -1.025853e+00 2.500011e-02 1.290867e-01 5.061464e-01 2.616248e-01 -3.549990e-02 -2.283902e-01 -2.399722e-01 5.898093e-02 1.022150e-01 7.880984e-02 8.696939e-02 -9.719020e-03 9.638730e-02
<VARIANCE> 39
 1.743302e+01 1.321626e+01 2.945366e+01 5.198162e+01 1.637494e+01 1.201768e+02 6.841067e+01 2.101621e+01 2.582551e+01 2.123403e+01 1.716122e+01 1.253818e+01 2.069543e+01 1.100961e+00 1.373232e+00 3.716093e+00 2.585965e+00 1.850100e+00 3.202083e+00 3.597600e+00 2.031987e+00 1.913960e+00 1.984163e+00 1.940248e+00 1.345267e+00 5.000715e-01 1.761127e-01 1.645607e-01 2.729899e-01 3.166768e-01 2.978294e-01 4.996372e-01 6.524171e-01 3.623897e-01 4.059789e-01 4.950438e-01 4.059696e-01 2.534995e-01 1.163885e-01
<GCONST> 1.066941e+02
<STATE> 3
<MEAN> 39
 -1.134246e+01 -7.273226e+00 -1.285372e+01 -2.815483e+00 -5.752669e+00 -7.254408e+00 -1.205329e+01 -1.975110e+00 -1.819715e+00 -5.290719e+00 -7.034666e+00 -4.237257e+00 4.286878e+01 -7.409476e-01 3.161665e-01 5.954478e-01 6.321286e-02 -2.654616e-01 2.932698e-01 4.099844e-01 -3.027527e-01 -4.392336e-01 3.557466e-01 2.380761e-01 -7.865024e-02 -6.529263e-01 2.210913e-01 1.245099e-01 8.109087e-02 6.894431e-02 1.660497e-01 2.506157e-01 2.406752e-01 9.332699e-02 -2.821281e-02 -6.401904e-03 1.698465e-01 1.103025e-01 1.635713e-01
<VARIANCE> 39
 1.012397e+01 8.792775e+00 1.038399e+01 2.501295e+01 1.227621e+01 5.482121e+01 5.043360e+01 1.625237e+01 2.668627e+01 1.545233e+01 1.876581e+01 1.278671e+01 1.732955e+01 5.981745e-01 8.385002e-01 1.414273e+00 1.853461e+00 1.461557e+00 3.192151e+00 2.579021e+00 1.614775e+00 2.272644e+00 1.995913e+00 1.761115e+00 1.087999e+00 1.954044e-01 6.026866e-02 1.162660e-01 2.094499e-01 2.728080e-01 3.331276e-01 3.890557e-01 3.583767e-01 3.048401e-01 3.804764e-01 3.879901e-01 3.668307e-01 2.095364e-01 3.406024e-02
<GCONST> 9.313229e+01
<STATE> 4
<MEAN> 39
 -7.168263e+00 3.941587e+00 -4.207163e+00 6.366944e-01 -5.808233e+00 -1.582467e+00 -7.827927e+00 -3.411670e+00 -4.776053e+00 -3.292229e+00 -3.262105e+00 -3.046291e+00 4.194342e+01 -1.665064e-03 2.087383e-01 1.954152e-01 2.118852e-01 6.109423e-02 2.665798e-02 4.757824e-02 -2.580718e-02 -3.489165e-02 1.183307e-01 1.259924e-01 7.330345e-02 -5.762234e-02 -1.492903e-02 -7.407781e-02 -7.602723e-02 -6.306165e-02 -1.113073e-02 -5.628977e-03 6.043864e-04 -3.933597e-03 -1.946832e-02 -3.117496e-02 -1.036769e-02 -1.254008e-03 2.858486e-02
<VARIANCE> 39
 2.812509e+01 3.761013e+01 2.590413e+01 2.611049e+01 2.038954e+01 2.165251e+01 1.892264e+01 1.628835e+01 1.631277e+01 1.325890e+01 1.306440e+01 1.203853e+01 1.234683e+01 1.672361e+00 2.162995e+00 2.079948e+00 1.834402e+00 1.949051e+00 2.196918e+00 1.875861e+00 1.788845e+00 1.684167e+00 1.479118e+00 1.370596e+00 1.262421e+00 4.279081e-01 2.584471e-01 3.533525e-01 4.109992e-01 3.700686e-01 4.146756e-01 4.477286e-01 3.561514e-01 3.646117e-01 3.405269e-01 2.794316e-01 2.664217e-01 2.630345e-01 1.042227e-01
<GCONST> 1.005555e+02
<TRANSP> 5
 0.000000e+00 1.000000e+00 0.000000e+00 0.000000e+00 0.000000e+00
 0.000000e+00 7.161977e-01 2.838023e-01 0.000000e+00 0.000000e+00
 0.000000e+00 0.000000e+00 7.772365e-01 2.227635e-01 0.000000e+00
 0.000000e+00 0.000000e+00 0.000000e+00 8.873501e-01 1.126498e-01
 0.000000e+00 0.000000e+00 0.000000e+00 0.000000e+00 0.000000e+00
<ENDHMM>
~h "en"
<BEGINHMM>
<NUMSTATES> 5
<STATE> 2
<MEAN> 39
 6.376297e+00 -3.086476e+00 -5.838101e+00 -2.061705e+01 -1.871743e+01 1.136702e+01 -1.376755e+01 3.736394e+00 8.451121e+00 -2.270491e+01 1.024879e+01 -1.093202e+01 7.016026e+01 1.749977e-01 8.758326e-01 1.642389e-01 9.323690e-01 7.183067e-01 -8.781887e-01 4.251175e-01 1.243032e-01 -5.977612e-01 8.701534e-01 -2.600949e-01 -6.730824e-01 -1.650719e+00 -1.657310e-01 1.131446e-01 4.675103e-02 1.768382e-01 1.642369e-01 -1.497836e-02 1.192130e-01 -1.431839e-01 -2.100622e-01 2.933826e-01 -3.640824e-01 2.149082e-01 -1.980652e-01
<VARIANCE> 39
 3.975668e+00 8.394182e+00 7.375627e+00 4.550638e+01 5.968281e+01 7.415459e+01 1.628909e+01 2.247948e+01 1.826621e+01 3.734890e+01 4.095039e+01 5.078610e+01 3.267390e+01 3.218824e-01 1.690064e+00 3.742497e-01 8.843617e-01 9.153641e-01 8.253404e-01 1.022969e+00 1.020996e+00 1.601082e+00 2.442344e+00 4.777308e+00 2.818916e+00 1.658483e+00 1.205220e-01 1.187180e-01 7.680096e-02 2.206186e-01 1.102091e-01 1.761445e-01 1.653751e-01 1.908178e-01 2.125361e-01 2.131017e-01 5.372750e-01 2.397244e-01 4.962897e-02
<GCONST> 9.159965e+01
<STATE> 3
<MEAN> 39
 3.526466e+00 2.925938e+00 -2.122840e+00 -3.155068e+00 -3.767150e+00 -1.972938e-01 -1.037613e+01 3.491619e+00 9.810419e-01 -1.090680e+01 -4.949706e+00 -8.419328e+00 5.302974e+01 -1.892287e+00 4.137664e-01 -4.793568e-01 1.966805e+00 6.905660e-01 -1.563179e-01 1.189707e+00 -7.307606e-01 -1.079987e+00 1.719616e+00 -2.238846e+00 1.523635e+00 -2.944340e+00 -5.001650e-01 -9.224728e-01 -5.477514e-01 -6.523941e-01 -4.243019e-01 -1.400543e-01 -2.024122e-01 -8.576966e-02 3.654863e-01 -2.724049e-01 6.459306e-01 -2.413739e-01 4.088071e-01
<VARIANCE> 39
 1.214438e+01 2.234551e+01 1.333609e+01 9.374709e+01 4.000304e+01 5.084274e+01 2.615170e+01 2.606279e+01 2.001721e+01 2.679163e+01 3.939169e+01 3.118552e+01 1.720620e+01 1.234758e+00 3.359296e+00 2.303919e+00 3.539261e+00 2.293615e+00 1.863005e+00 2.201250e+00 2.348614e+00 2.880845e+00 1.614699e+00 4.192662e+00 2.007870e+00 8.996756e-01 1.950306e-01 1.945510e-01 2.369171e-01 6.994729e-01 3.737744e-01 2.872636e-01 4.056792e-01 3.717557e-01 4.224768e-01 2.881090e-01 4.224761e-01 3.906644e-01 7.620800e-02
<GCONST> 1.093014e+02
<STATE> 4
<MEAN> 39
 -3.912995e+00 2.605931e-01 -6.281563e+00 -1.451458e+00 -5.951733e+00 -3.298529e+00 -8.341094e+00 -1.016808e+00 -2.312454e+00 -5.810287e+00 -6.645284e+00 -4.028980e+00 4.609153e+01 -6.475608e-01 -1.339375e-01 -3.178083e-01 -4.931917e-01 -5.058258e-01 -5.164594e-03 2.958919e-01 -4.200759e-01 -4.214707e-01 2.180948e-01 2.596497e-01 1.084137e-01 -5.068266e-01 2.189396e-01 9.741190e-02 1.306627e-01 -2.898082e-02 -1.506462e-02 1.283986e-02 -2.072172e-02 2.350870e-02 -2.864582e-02 -9.709354e-02 1.209965e-01 -4.319644e-02 2.003963e-01
<VARIANCE> 39
 5.096406e+01 3.872954e+01 1.992363e+01 2.305941e+01 2.407462e+01 2.167181e+01 2.292535e+01 2.180183e+01 2.644941e+01 1.681893e+01 2.486139e+01 1.786967e+01 1.533475e+01 2.396844e+00 1.847847e+00 2.008465e+00 1.973665e+00 1.668631e+00 2.074113e+00 1.724957e+00 1.923902e+00 2.291003e+00 1.700803e+00 2.305550e+00 1.669017e+00 8.256366e-01 2.197859e-01 2.341667e-01 3.186197e-01 3.542714e-01 3.049464e-01 3.481871e-01 3.453751e-01 3.867120e-01 5.208170e-01 3.864807e-01 4.625834e-01 3.445928e-01 9.544905e-02
<GCONST> 1.054205e+02
<TRANSP> 5
 0.000000e+00 1.000000e+00 0.000000e+00 0.000000e+00 0.000000e+00
 0.000000e+00 8.188348e-01 1.811652e-01 0.000000e+00 0.000000e+00
 0.000000e+00 0.000000e+00 7.504508e-01 2.495492e-01 0.000000e+00
 0.000000e+00 0.000000e+00 0.000000e+00 8.692697e-01 1.307303e-01
 0.000000e+00 0.000000e+00 0.000000e+00 0.000000e+00 0.000000e+00
<ENDHMM>
~h "er"
<BEGINHMM>
<NUMSTATES> 5
<STATE> 2
<MEAN> 39
 -5.731432e+00 -1.419596e+01 -9.988674e+00 -1.208057e+01 -3.351867e+00 2.183610e-01 -1.140175e+01 3.830491e+00 -2.993605e+00 -6.947442e+00 1.238713e+00 -8.027167e+00 7.291992e+01 3.935613e-01 -3.384153e-01 2.394636e-01 -1.725048e-01 -1.580432e-01 8.112659e-02 -2.186334e-01 3.235660e-01 2.225501e-01 -7.570586e-02 9.554861e-02 -3.312885e-01 9.475754e-01 6.449585e-03 -3.574976e-02 -1.142667e-02 -3.358902e-02 -5.287716e-02 6.690260e-02 -8.982636e-03 2.532350e-02 4.198729e-03 -1.081124e-02 1.628361e-02 -4.751301e-02 1.198914e-02
<VARIANCE> 39
 1.292477e+02 5.238106e+01 7.395463e+01 3.917737e+01 5.251552e+01 7.125370e+01 1.070478e+02 8.883554e+01 5.631971e+01 3.618395e+01 3.866260e+01 5.205433e+01 1.797979e+02 1.026736e+01 4.299598e+00 3.495745e+00 2.958194e+00 6.089247e+00 5.728692e+00 1.068215e+01 7.867819e+00 3.392262e+00 3.236280e+00 4.024777e+00 6.046884e+00 9.490812e+00 1.436742e+00 6.819193e-01 5.429844e-01 4.717292e-01 1.054008e+00 1.114845e+00 1.804039e+00 1.344815e+00 5.476658e-01 6.084295e-01 7.594142e-01 1.093990e+00 1.016402e+00
<GCONST> 1.466174e+02
<STATE> 3
<MEAN> 39
 3.117073e+00 -2.021798e+01 -2.994565e+00 -1.520918e+01 -1.739300e+01 1.114843e+01 -1.690655e+01 6.977492e+00 -1.096719e+00 -8.763038e+00 3.102572e+00 -1.776233e+01 7.783732e+01 5.625200e-01 8.139814e-02 -7.946230e-01 -4.174246e-01 1.098822e-01 2.360672e+00 5.622079e-01 -1.068520e+00 -9.672177e-01 1.584289e-01 3.901891e-01 4.702395e-01 -8.548585e-01 3.106878e-03 3.464412e-01 8.900890e-02 2.270508e-01 2.553485e-01 -4.772281e-01 2.439534e-01 -3.291812e-01 -1.361429e-02 2.988392e-02 -8.195282e-02 5.730641e-01 -4.026982e-01
<VARIANCE> 39
 1.190657e+01 1.456495e+01 4.409376e+01 4.815919e+01 3.851330e+01 8.755570e+01 2.320225e+01 7.892125e+01 2.545963e+01 6.963437e+01 3.034052e+01 2.354238e+01 6.598091e+00 9.443531e-01 1.143850e+00 1.409800e+00 2.479879e+00 2.730715e+00 6.918593e+00 2.395080e+00 4.466562e+00 2.258605e+00 2.072313e+00 2.729225e+00 3.435385e+00 1.079917e+00 1.950846e-01 2.746101e-01 1.638689e-01 3.047857e-01 5.836192e-01 9.276422e-01 5.994979e-01 8.823596e-01 4.087409e-01 3.753624e-01 4.994911e-01 8.189033e-01 1.974816e-01
<GCONST> 1.149996e+02
<STATE> 4
<MEAN> 39
 9.112466e+00 -1.296873e+01 -5.078176e+00 -8.235465e+00 -1.631333e+01 1.084042e+01 -1.086205e+01 -5.174260e+00 -5.872835e+00 -6.959754e+00 1.608792e+00 -8.211470e+00 6.785522e+01 2.719966e-01 7.275610e-01 -5.174893e-01 1.935485e+00 5.457675e-01 -1.529911e+00 9.659602e-01 -9.674709e-01 2.750666e-01 2.288738e-01 -7.877979e-01 1.048635e+00 -1.056824e+00 -3.829761e-01 -9.954224e-02 8.049926e-02 1.837815e-01 4.521745e-01 -5.567558e-01 9.390107e-03 4.387430e-01 2.742809e-01 -3.925264e-02 -1.263853e-01 -4.430505e-02 1.741435e-01
<VARIANCE> 39
 5.592716e+00 1.752594e+01 1.061282e+02 1.054969e+02 1.978697e+01 8.844353e+01 1.776700e+01 1.767288e+01 9.065474e+00 1.000325e+02 2.326251e+01 4.747368e+01 1.286008e+01 3.650500e-01 1.277833e+00 9.922086e-01 3.824024e+00 2.528200e+00 5.011639e+00 1.462204e+00 3.290071e+00 1.319749e+00 1.899320e+00 1.912875e+00 1.169693e+00 4.926226e-01 2.415113e-01 1.777422e-01 2.576326e-01 4.782934e-01 5.747110e-01 2.399824e-01 2.055836e-01 4.125318e-01 1.418118e-01 3.720356e-01 2.131400e-01 3.676735e-01 1.017255e-01
<GCONST> 1.034066e+02
<TRANSP> 5
 0.000000e+00 1.000000e+00 0.000000e+00 0.000000e+00 0.000000e+00
 0.000000e+00 9.751499e-01 2.485009e-02 0.000000e+00 0.000000e+00
 0.000000e+00 0.000000e+00 8.537743e-01 1.462257e-01 0.000000e+00
 0.000000e+00 0.000000e+00 0.000000e+00 8.327566e-01 1.672434e-01
 0.000000e+00 0.000000e+00 0.000000e+00 0.000000e+00 0.000000e+00
<ENDHMM>
~h "iu"
<BEGINHMM>
<NUMSTATES> 5
<STATE> 2
<MEAN> 39
 4.404511e+00 -1.312991e+01 -3.255834e+00 -2.100589e+01 -1.253615e+01 1.042305e+01 -1.878716e+01 -7.008394e+00 -2.562047e+00 -2.253394e+00 1.038856e+01 -1.091874e+01 7.861351e+01 5.703376e-01 4.687665e-01 -2.060910e-01 -3.572167e+00 -1.069080e+00 4.072129e+00 1.709005e+00 -1.002939e+00 -1.742731e-01 -1.420603e-01 -5.606182e-01 1.511091e+00 -3.012210e-01 -1.233716e-01 4.363848e-01 -1.455036e-01 4.568307e-01 1.289745e-01 -7.263162e-01 1.625247e-01 6.346573e-01 4.606523e-01 -1.096172e+00 -8.447755e-01 8.759055e-01 -3.564807e-01
<VARIANCE> 39
 3.687659e+00 1.662712e+01 7.050100e+00 4.433900e+01 3.812788e+01 7.243539e+01 4.195122e+01 3.154478e+01 1.841049e+01 3.269165e+01 4.982180e+01 4.796488e+01 3.634416e+00 2.128217e-01 4.899765e-01 3.590467e-01 2.894666e+00 1.390967e+00 3.429881e+00 2.329029e+00 5.443910e+00 1.975004e+00 7.628268e+00 3.813371e+00 4.523861e+00 7.131896e-01 7.100556e-02 7.852764e-02 1.063958e-01 2.768737e-01 2.779871e-01 7.713934e-01 5.889915e-01 6.820234e-01 3.328736e-01 1.024148e+00 6.811789e-01 6.835936e-01 8.831513e-02
<GCONST> 1.037886e+02
<STATE> 3
<MEAN> 39
 6.240849e+00 -7.589671e+00 -4.259975e+00 -2.996327e+01 -1.852212e+01 1.819067e+01 -1.274340e+01 -3.814095e+00 3.926590e+00 -1.439165e+01 3.561539e+00 -6.388071e-02 7.582298e+01 1.152964e-01 1.078468e+00 -4.320624e-01 1.884238e-01 -1.139489e+00 5.219894e-01 4.056613e-01 1.162588e+00 1.523451e+00 -2.544046e+00 -8.362159e-01 5.202382e-01 -6.957533e-01 -4.972173e-02 -1.998361e-01 3.925655e-02 6.618655e-01 6.741072e-02 -3.910564e-01 -2.670049e-01 -1.419989e-02 -1.043378e-01 3.221821e-01 4.405952e-01 -6.670578e-01 2.232115e-02
<VARIANCE> 39
 3.440132e+00 1.595056e+01 6.616579e+00 1.535745e+01 4.650292e+01 2.706489e+01 3.758294e+01 1.534917e+01 5.342380e+01 8.017003e+01 9.620771e+00 4.538108e+01 4.602999e+00 1.570564e-01 2.720866e-01 2.293781e-01 2.328442e+00 4.993162e-01 5.874486e-01 8.605967e-01 1.108809e+00 2.089498e+00 4.364179e+00 1.523033e+00 2.457677e+00 1.856694e-01 5.490739e-02 9.559223e-02 4.450624e-02 1.376144e-01 1.169910e-01 2.467748e-01 2.116708e-01 1.863506e-01 2.247792e-01 3.022657e-01 1.960767e-01 1.726065e-01 1.986768e-02
<GCONST> 7.944334e+01
<STATE> 4
<MEAN> 39
 6.122482e+00 -3.481213e+00 -5.373088e+00 -2.417791e+01 -2.447501e+01 1.837674e+01 -1.604214e+01 3.063848e+00 9.285436e+00 -2.420991e+01 9.994808e+00 -7.936907e+00 7.326409e+01 -3.369655e-03 1.568163e-01 1.338004e-02 8.897941e-01 -2.234529e-02 -7.477119e-01 1.404206e-01 3.418602e-01 1.336823e-02 4.225484e-02 1.107854e+00 -1.685907e+00 -5.828738e-01 2.606432e-02 -4.218011e-02 4.670142e-02 -4.806581e-02 1.972654e-01 -1.618282e-01 1.010263e-01 -1.555178e-01 -1.040383e-01 2.522108e-01 3.299999e-02 -2.295948e-02 -9.203131e-02
<VARIANCE> 39
 3.476327e+00 8.835165e+00 4.764186e+00 2.132697e+01 1.546936e+01 1.592536e+01 1.672716e+01 9.357192e+00 2.814782e+01 3.449744e+01 2.963014e+01 5.314198e+01 7.569184e+00 1.988459e-01 1.823523e-01 2.341223e-01 5.568259e-01 4.936505e-01 7.156165e-01 5.514370e-01 5.340587e-01 6.046847e-01 8.629150e-01 5.363786e-01 9.377012e-01 1.743965e-01 3.155383e-02 3.653018e-02 4.792314e-02 6.917121e-02 1.209205e-01 1.601049e-01 8.723098e-02 6.843920e-02 1.338354e-01 1.601748e-01 1.418107e-01 1.184029e-01 2.857335e-02
<GCONST> 6.282017e+01
<TRANSP> 5
 0.000000e+00 1.000000e+00 0.000000e+00 0.000000e+00 0.000000e+00
 0.000000e+00 7.541905e-01 2.458095e-01 0.000000e+00 0.000000e+00
 0.000000e+00 0.000000e+00 7.443084e-01 2.556916e-01 0.000000e+00
 0.000000e+00 0.000000e+00 0.000000e+00 8.457276e-01 1.542725e-01
 0.000000e+00 0.000000e+00 0.000000e+00 0.000000e+00 0.000000e+00
<ENDHMM>
~h "sh"
<BEGINHMM>
<NUMSTATES> 5
<STATE> 2
<MEAN> 39
 -1.110820e+01 -1.026288e+01 1.345653e+00 2.497404e+00 -8.552096e+00 -1.294530e+01 -2.099036e+00 3.802444e+00 -5.780437e+00 -1.160116e+01 -2.606056e+00 -7.083449e+00 7.410091e+01 -6.849723e-01 -2.064757e-01 -4.007215e-01 -1.254601e+00 5.197619e-01 7.021818e-04 -6.955199e-02 8.871641e-01 6.449211e-01 -1.753766e-01 7.727444e-02 -2.203125e-01 9.953799e-01 6.559454e-02 -1.085587e-01 -7.558426e-02 -1.959990e-01 9.353406e-02 4.169932e-01 -1.610286e-01 -3.943473e-01 1.796431e-01 2.333936e-01 -2.080577e-01 4.950930e-03 5.157508e-02
<VARIANCE> 39
 1.580295e+02 3.351988e+01 2.932489e+01 5.183070e+01 3.317803e+01 1.919853e+01 4.358050e+01 2.868301e+01 2.782840e+01 2.901583e+01 2.991068e+01 2.387715e+01 2.343510e+01 1.961309e+01 4.414518e+00 4.272363e+00 3.576663e+00 4.684626e+00 4.858596e+00 6.358054e+00 4.389963e+00 4.006696e+00 4.654544e+00 4.401583e+00 2.255035e+00 1.484123e+00 2.674644e+00 7.268345e-01 6.075870e-01 5.143772e-01 8.815516e-01 4.601060e-01 1.002614e+00 7.179115e-01 5.887880e-01 8.615648e-01 6.224368e-01 4.430830e-01 2.231644e-01
<GCONST> 1.316469e+02
<STATE> 3
<MEAN> 39
 -2.275150e+00 -1.637868e+01 -9.113569e+00 -1.035736e+01 -2.532260e+00 6.342936e+00 -1.686077e+01 1.858194e+00 1.073349e+01 -1.744239e+01 -6.282345e+00 -1.445013e+01 7.692702e+01 8.582485e-02 2.082618e-01 -1.509580e-01 6.775321e-01 4.695868e-01 5.321673e-01 -2.910636e-02 -2.007855e-02 3.116692e-01 -1.873001e-01 -1.742446e-01 2.236802e-01 -1.304036e+00 3.959073e-02 1.432161e-02 3.362252e-02 1.396612e-01 -7.032645e-02 -2.079067e-01 9.914090e-02 1.162062e-01 -1.676145e-01 2.802094e-02 7.857522e-02 8.051959e-02 -1.499032e-01
<VARIANCE> 39
 1.628405e+01 1.928579e+01 1.360980e+01 4.360874e+01 1.533687e+01 2.496479e+01 3.848162e+01 2.260261e+01 1.704272e+01 3.971859e+01 4.672137e+01 4.844525e+01 1.061120e+02 1.244065e+00 1.695254e+00 1.343197e+00 1.741505e+00 2.045026e+00 2.832448e+00 3.336736e+00 2.637274e+00 1.503334e+00 2.713935e+00 4.738051e+00 4.800029e+00 1.943378e+00 2.401321e-01 3.298139e-01 2.462123e-01 2.794442e-01 3.318710e-01 3.049134e-01 4.295794e-01 3.320590e-01 2.872989e-01 4.081925e-01 8.691461e-01 6.592748e-01 2.119731e-01
<GCONST> 1.124557e+02
<STATE> 4
<MEAN> 39
 -4.043852e+00 -6.519647e+00 -1.024640e+01 2.400237e-01 -3.055347e-01 1.429149e+00 -6.689987e+00 2.814287e+00 3.146258e+00 -8.429692e+00 -9.764679e+00 -4.824502e+00 4.942816e+01 -3.897507e-01 7.322679e-01 1.892027e-01 -2.435133e-01 -2.908443e-01 -4.542964e-01 2.659880e-01 -5.374469e-01 -1.013038e+00 8.468504e-01 2.009995e-01 2.346237e-01 -8.642843e-01 5.729739e-04 5.962532e-02 1.609734e-01 -1.279392e-01 -1.656067e-01 -3.400995e-02 -1.651604e-01 -1.103752e-01 -5.594449e-02 -8.844041e-02 2.104441e-01 -1.398515e-01 1.058128e-01
<VARIANCE> 39
 2.747406e+01 6.003487e+01 4.571715e+01 2.116977e+01 4.095376e+01 3.509523e+01 2.774164e+01 3.165541e+01 4.619030e+01 3.578439e+01 3.123377e+01 1.379047e+01 5.207685e+01 1.586833e+00 2.322277e+00 2.750724e+00 2.142557e+00 2.604403e+00 2.549634e+00 3.120222e+00 2.135464e+00 2.380153e+00 1.631614e+00 2.464129e+00 1.815059e+00 7.732522e-01 2.312835e-01 4.017561e-01 4.654788e-01 4.505408e-01 4.071471e-01 5.087909e-01 6.232252e-01 4.462276e-01 4.331135e-01 2.786372e-01 4.503048e-01 3.334332e-01 9.022919e-02
<GCONST> 1.136945e+02
<TRANSP> 5
 0.000000e+00 1.000000e+00 0.000000e+00 0.000000e+00 0.000000e+00
 0.000000e+00 9.373747e-01 6.262537e-02 0.000000e+00 0.000000e+00
 0.000000e+00 0.000000e+00 9.457453e-01 5.425477e-02 0.000000e+00
 0.000000e+00 0.000000e+00 0.000000e+00 8.970468e-01 1.029532e-01
 0.000000e+00 0.000000e+00 0.000000e+00 0.000000e+00 0.000000e+00
<ENDHMM>
~h "si"
<BEGINHMM>
<NUMSTATES> 5
<STATE> 2
<MEAN> 39
 -1.391456e+01 -8.936813e-01 -6.832667e+00 -7.879052e+00 -4.472276e-01 -6.695372e+00 -7.236715e+00 -9.218946e+00 -2.479327e-01 -5.041351e+00 5.461299e-02 -4.300981e+00 6.702251e+01 -7.873662e-02 -2.566561e-01 1.678498e-01 -3.034184e-01 -1.021345e-01 1.843644e-01 -4.103228e-01 -2.465574e-02 2.305140e-01 3.339679e-03 2.319965e-01 -2.603460e-01 5.552881e-01 6.596250e-02 -7.925470e-02 -1.694880e-02 1.246453e-02 -7.296776e-02 9.592467e-02 -9.135812e-02 9.471451e-02 3.656453e-02 -3.062776e-02 -1.504311e-02 -4.930589e-02 -7.151527e-03
<VARIANCE> 39
 1.547176e+02 2.902608e+01 3.577000e+01 6.982706e+01 2.146209e+01 3.318663e+01 1.303427e+02 8.767007e+01 3.588002e+01 1.753081e+01 2.192628e+01 2.597917e+01 4.598364e+01 1.032236e+01 3.279147e+00 2.032972e+00 4.351307e+00 2.520606e+00 2.861997e+00 7.869810e+00 6.193052e+00 3.053116e+00 1.852834e+00 2.120059e+00 2.172092e+00 2.366449e+00 1.040456e+00 5.884154e-01 3.579578e-01 6.918086e-01 4.219519e-01 5.452011e-01 1.054122e+00 9.334154e-01 5.502020e-01 3.877831e-01 3.875407e-01 4.359536e-01 2.964976e-01
<GCONST> 1.282147e+02
<STATE> 3
<MEAN> 39
 1.928293e+00 -1.335808e+01 3.308319e+00 -9.067186e+00 -1.518719e+01 -1.121574e-01 -1.956633e+01 1.982683e+00 -8.558429e-01 -1.048709e+01 3.231338e+00 -1.690518e+01 7.351408e+01 1.799765e-01 -6.077906e-01 -8.381140e-02 3.233772e-01 -2.518322e-01 7.472902e-01 4.492351e-01 2.256621e-01 -2.360950e-01 -3.679103e-01 -2.842535e-01 -2.482405e-01 -2.274604e-01 -3.124083e-02 1.401949e-01 1.323941e-02 -5.892390e-02 2.381255e-01 1.064482e-01 1.935238e-01 -3.860512e-01 -1.457309e-01 1.037804e-01 -2.002808e-03 2.172553e-01 -2.135172e-01
<VARIANCE> 39
 1.455810e+01 1.874863e+01 4.485882e+01 4.707594e+01 4.769551e+01 4.170179e+01 3.096947e+01 1.100484e+02 7.924758e+01 4.279699e+01 2.925179e+01 3.772025e+01 3.397741e+01 1.447870e+00 1.205616e+00 3.647418e+00 5.218097e+00 4.023814e+00 4.304580e+00 1.806776e+00 7.809218e+00 5.161871e+00 2.371859e+00 2.124521e+00 4.601845e+00 2.696076e+00 2.967814e-01 2.966088e-01 3.679803e-01 6.687911e-01 4.883662e-01 5.096682e-01 5.274985e-01 9.705670e-01 6.754900e-01 3.345888e-01 3.895029e-01 5.927349e-01 4.010659e-01
<GCONST> 1.243517e+02
<STATE> 4
<MEAN> 39
 5.425841e+00 -1.279841e+01 -1.608020e+00 -1.125888e+01 -9.569715e+00 1.037810e+01 -1.293877e+01 -7.715095e+00 -2.069602e+00 -1.150433e+01 -1.398605e+00 -9.076694e+00 6.853425e+01 4.976299e-01 1.122659e+00 -5.169075e-01 3.924447e-01 2.726149e-01 4.088153e-01 5.391619e-01 -1.019620e+00 -6.442424e-01 -1.769122e-01 -2.209057e-01 1.053329e+00 -1.336359e+00 -2.309563e-01 8.287381e-02 -1.742923e-01 2.809426e-01 -2.164662e-02 -6.708439e-01 -8.222404e-02 6.414546e-01 2.129763e-01 -1.344023e-01 -1.218972e-01 -6.955545e-02 1.130648e-01
<VARIANCE> 39
 9.404628e+00 3.119126e+01 9.292623e+01 1.661394e+02 2.902807e+01 1.082358e+02 3.130930e+01 2.432262e+01 2.432223e+01 4.199996e+01 4.163845e+01 9.295452e+01 3.481662e+01 3.880315e-01 7.103912e-01 8.060382e-01 3.914405e+00 1.923735e+00 3.144582e+00 1.377172e+00 3.761737e+00 2.206450e+00 1.068722e+00 1.705895e+00 1.879511e+00 4.126441e-01 7.599259e-02 1.686158e-01 1.565932e-01 3.741829e-01 6.621288e-01 2.713229e-01 3.714051e-01 4.543543e-01 3.215353e-01 2.191009e-01 2.632925e-01 3.378902e-01 1.032495e-01
<GCONST> 1.068410e+02
<TRANSP> 5
 0.000000e+00 1.000000e+00 0.000000e+00 0.000000e+00 0.000000e+00
 0.000000e+00 9.733707e-01 2.662928e-02 0.000000e+00 0.000000e+00
 0.000000e+00 0.000000e+00 9.347190e-01 6.528097e-02 0.000000e+00
 0.000000e+00 0.000000e+00 0.000000e+00 8.355596e-01 1.644404e-01
 0.000000e+00 0.000000e+00 0.000000e+00 0.000000e+00 0.000000e+00
<ENDHMM>
~h "sp"
<BEGINHMM>
<NUMSTATES> 3
<STATE> 2
~s "silst"
<TRANSP> 3
 0.000000e+00 2.223140e-01 7.776860e-01
 0.000000e+00 9.111806e-01 8.881942e-02
 0.000000e+00 0.000000e+00 0.000000e+00
<ENDHMM>
~h "wu"
<BEGINHMM>
<NUMSTATES> 5
<STATE> 2
<MEAN> 39
 1.873815e-02 2.200268e+00 -2.569680e+00 -9.878003e+00 -1.226120e+01 -3.536878e+00 -9.608236e+00 -5.680867e+00 -8.985959e-01 -9.258065e+00 -1.177020e+00 -4.763415e+00 6.226959e+01 2.294504e-01 -2.270055e-01 1.144594e-01 -1.698999e-01 -2.409064e-01 -7.657835e-02 -7.968833e-02 -1.886907e-01 1.986010e-01 -1.025077e-02 2.151081e-01 -1.375547e-01 8.843142e-01 5.451430e-02 -8.530214e-02 3.964514e-03 -3.392197e-02 -6.843570e-02 1.017367e-01 -8.163016e-02 -1.720720e-02 6.427262e-02 -3.683287e-02 6.006476e-02 -9.423481e-02 9.304762e-02
<VARIANCE> 39
 1.735022e+02 5.565142e+01 3.589591e+01 8.147677e+01 7.838026e+01 3.817806e+01 3.759469e+01 2.669036e+01 2.847261e+01 4.501791e+01 2.724845e+01 1.495804e+01 1.034727e+02 9.448205e+00 3.684458e+00 3.511722e+00 6.592377e+00 6.280671e+00 3.552471e+00 3.163860e+00 2.701889e+00 3.397317e+00 4.179379e+00 3.315830e+00 1.680265e+00 4.358416e+00 1.051994e+00 5.518363e-01 6.423295e-01 1.139446e+00 1.194151e+00 6.256077e-01 6.021863e-01 5.143534e-01 5.594749e-01 7.706693e-01 6.277927e-01 3.738460e-01 4.646810e-01
<GCONST> 1.339631e+02
<STATE> 3
<MEAN> 39
 4.579838e+00 -1.118622e+01 2.093068e+00 2.404187e-01 -1.690838e+01 6.736411e-01 -1.602754e+01 -7.877288e+00 7.038731e-01 -1.326261e+01 8.668841e-01 -8.845309e+00 7.268924e+01 8.797453e-02 -1.860444e-01 1.749561e-01 3.453733e-01 -7.259584e-02 -8.833914e-02 -4.709780e-01 4.603962e-01 -4.132879e-04 -4.437636e-01 -7.304724e-02 1.135093e-01 3.018959e-01 -1.745579e-01 3.357773e-02 -1.458017e-01 -9.347484e-02 1.073948e-01 -1.104130e-01 1.540621e-01 2.372769e-02 -1.340002e-01 1.141615e-01 -9.839871e-02 7.520432e-02 -1.083974e-01
<VARIANCE> 39
 2.195059e+01 1.287107e+01 3.728979e+01 6.785102e+01 5.328702e+01 3.198056e+01 5.546927e+01 9.378202e+01 8.210747e+01 4.491385e+01 5.775984e+01 7.134409e+01 5.541229e+01 2.335295e+00 1.459271e+00 2.600737e+00 4.341161e+00 4.992669e+00 3.354660e+00 5.086758e+00 6.515537e+00 5.448051e+00 3.415284e+00 6.065179e+00 4.446864e+00 4.452869e+00 4.887939e-01 1.702542e-01 3.634714e-01 5.491946e-01 9.060115e-01 6.034883e-01 9.509741e-01 9.171913e-01 8.410885e-01 5.918567e-01 9.390405e-01 5.744379e-01 4.689436e-01
<GCONST> 1.324768e+02
<STATE> 4
<MEAN> 39
 -2.663139e-01 -1.229129e+01 -5.769091e+00 -1.949157e+01 -1.107811e+01 5.820410e+00 -1.057636e+01 -3.103069e+00 4.238430e-02 -7.180665e+00 6.051493e-01 -1.090316e+01 8.012468e+01 3.393141e-01 1.489411e-01 -6.144882e-01 -1.110920e+00 7.045854e-01 1.628815e+00 8.083192e-01 -7.608194e-01 -4.888682e-01 3.838615e-01 -5.265142e-01 3.507816e-01 -5.138377e-01 1.712343e-02 3.155403e-02 1.436241e-01 2.185032e-01 2.855089e-02 1.018741e-02 -1.846660e-01 9.260806e-02 7.077162e-02 -1.790833e-01 6.801359e-02 1.758883e-01 -1.798930e-01
<VARIANCE> 39
 2.073668e+01 3.607718e+01 1.967418e+01 7.538387e+01 3.941471e+01 9.469800e+01 9.237700e+01 1.025692e+02 3.357730e+01 5.031377e+01 7.892599e+01 9.000710e+01 4.519799e+01 7.012231e-01 1.402174e+00 1.475012e+00 4.844159e+00 4.795556e+00 6.246554e+00 5.766938e+00 6.299169e+00 2.994883e+00 6.605078e+00 4.865322e+00 4.656165e+00 1.605767e+00 2.303132e-01 3.338167e-01 1.652291e-01 3.944414e-01 6.014575e-01 1.103136e+00 9.830434e-01 1.282867e+00 6.349097e-01 9.954739e-01 9.633623e-01 9.635462e-01 3.048536e-01
<GCONST> 1.314144e+02
<TRANSP> 5
 0.000000e+00 1.000000e+00 0.000000e+00 0.000000e+00 0.000000e+00
 0.000000e+00 9.668077e-01 3.319233e-02 0.000000e+00 0.000000e+00
 0.000000e+00 0.000000e+00 9.446346e-01 5.536538e-02 0.000000e+00
 0.000000e+00 0.000000e+00 0.000000e+00 8.560191e-01 1.439809e-01
 0.000000e+00 0.000000e+00 0.000000e+00 0.000000e+00 0.000000e+00
<ENDHMM>
~h "yi"
<BEGINHMM>
<NUMSTATES> 5
<STATE> 2
<MEAN> 39
 -1.226410e+01 7.455076e+00 1.983461e+01 -8.426600e+00 -1.641100e+01 -3.645330e+00 -5.767972e+00 -1.442785e+01 -5.454016e+00 -1.674846e+01 5.452118e+00 -8.256966e+00 6.679108e+01 -7.907937e-02 9.445887e-02 9.654579e-01 -3.657656e-01 -4.456811e-01 -2.003129e-01 2.231854e-01 -6.765253e-01 -1.349126e-01 -3.029241e-01 1.283071e-01 -1.763062e-02 1.393944e+00 -2.703399e-02 -1.480753e-01 -3.396827e-01 5.549984e-02 1.823420e-01 -3.339919e-02 7.619972e-02 1.593385e-01 2.241059e-03 2.798167e-01 -1.285463e-01 9.293808e-02 -1.819107e-01
<VARIANCE> 39
 1.174822e+01 1.339110e+01 6.204078e+01 1.093362e+01 3.056947e+01 1.629516e+01 1.181195e+01 3.097195e+01 1.629032e+01 2.510043e+01 2.523213e+01 1.022875e+01 7.217750e+01 1.233337e+00 2.019238e+00 7.303498e+00 1.355081e+00 4.864994e+00 9.396906e-01 9.189376e-01 4.058745e+00 1.633361e+00 4.312164e+00 2.215795e+00 8.155773e-01 5.152466e+00 2.130908e-01 2.615044e-01 1.145139e+00 2.546505e-01 6.367943e-01 1.689079e-01 1.782101e-01 6.132331e-01 3.090904e-01 5.530357e-01 2.838992e-01 1.323577e-01 6.701153e-01
<GCONST> 1.074269e+02
<STATE> 3
<MEAN> 39
 -1.372090e+01 -2.145962e+00 7.722641e+00 -9.011828e+00 -9.997424e+00 -5.884424e+00 -3.725867e+00 -9.466124e+00 -5.273779e+00 -6.939327e+00 2.927562e+00 -6.315448e+00 6.974207e+01 2.351724e-01 -1.092302e+00 -1.417062e+00 2.957186e-01 -3.816239e-01 -1.397320e-01 -2.854461e-01 1.327906e+00 4.926674e-01 2.597514e-01 4.600626e-02 -6.626239e-02 3.208122e-01 1.833016e-01 -6.933284e-02 -1.309747e-02 -6.846790e-03 -1.616667e-01 2.209559e-02 -2.064509e-01 8.778341e-02 1.739482e-01 -1.392888e-01 -5.712997e-02 -1.826360e-01 1.660739e-01
<VARIANCE> 39
 1.805708e+02 5.942698e+01 3.989968e+01 7.605191e+01 1.381326e+02 1.959174e+01 3.401286e+01 6.278849e+01 1.342073e+01 3.394645e+01 2.791852e+01 3.523704e+01 3.085088e+01 9.986264e+00 1.590591e+00 3.446972e+00 5.209071e+00 8.127628e+00 2.013474e+00 3.329996e+00 3.566144e+00 1.597397e+00 3.054934e+00 2.052298e+00 1.910989e+00 3.265282e+00 1.091515e+00 3.250096e-01 6.281797e-01 7.254159e-01 1.224993e+00 3.996173e-01 6.985476e-01 5.462017e-01 3.912686e-01 4.153115e-01 4.895925e-01 2.772481e-01 3.654037e-01
<GCONST> 1.277247e+02
<STATE> 4
<MEAN> 39
 1.151079e+00 -1.374899e+01 -7.194901e+00 -1.567528e+01 -1.462151e+01 5.413488e+00 -8.640452e+00 -3.528126e+00 4.493587e+00 -9.278872e+00 1.671976e+00 -1.552260e+01 7.778405e+01 8.816255e-01 -3.837102e-01 -8.332107e-01 -1.671714e-01 9.993703e-01 1.324347e+00 -6.523687e-02 -6.937395e-01 2.245056e-01 2.618080e-02 -2.811760e-01 -3.058606e-01 -5.167492e-01 -3.099239e-01 1.857659e-01 2.472962e-01 1.427714e-01 2.904688e-01 -1.376422e-01 1.878040e-01 -1.297670e-01 -2.221519e-01 1.186222e-01 9.270234e-02 3.546528e-01 -2.248765e-01
<VARIANCE> 39
 3.736521e+01 2.842063e+01 3.281384e+01 5.082197e+01 3.985300e+01 8.792393e+01 4.785718e+01 8.732364e+01 2.097398e+01 4.708495e+01 7.020364e+01 2.263092e+01 3.758727e+01 2.399758e+00 1.885477e+00 3.262166e+00 6.638193e+00 4.442001e+00 8.213874e+00 3.015582e+00 3.577730e+00 3.143853e+00 4.470007e+00 7.974876e+00 3.935977e+00 3.679148e+00 8.033354e-01 2.859985e-01 3.561533e-01 9.280804e-01 1.021462e+00 1.316165e+00 4.689358e-01 9.442531e-01 4.709397e-01 8.377484e-01 1.444496e+00 3.802487e-01 5.390983e-01
<GCONST> 1.331650e+02
<TRANSP> 5
 0.000000e+00 1.000000e+00 0.000000e+00 0.000000e+00 0.000000e+00
 0.000000e+00 9.454100e-01 5.459000e-02 0.000000e+00 0.000000e+00
 0.000000e+00 0.000000e+00 9.215751e-01 7.842491e-02 0.000000e+00
 0.000000e+00 0.000000e+00 0.000000e+00 8.918916e-01 1.081084e-01
 0.000000e+00 0.000000e+00 0.000000e+00 0.000000e+00 0.000000e+00
<ENDHMM>
~h "zh"
<BEGINHMM>
<NUMSTATES> 5
<STATE> 2
<MEAN> 39
 -8.550420e+00 -3.669348e+00 -9.119205e+00 -8.776345e+00 -1.108240e+01 5.796566e-01 -4.168617e+00 -5.074939e-01 -3.806919e+00 -7.278710e+00 -4.090063e+00 -3.823691e+00 4.405254e+01 -1.269758e+00 -1.095103e+00 -7.797617e-01 1.155888e-01 -2.325577e-01 -7.893343e-01 7.607795e-03 -1.592448e-01 -2.887460e-01 3.240455e-01 -3.546354e-01 1.721535e-01 -7.769446e-01 2.783157e-01 2.865526e-01 4.157894e-01 2.882049e-01 2.858183e-01 2.496952e-01 -2.444591e-01 -1.625962e-01 3.164531e-02 -6.132056e-03 1.659572e-01 -1.784862e-01 1.678069e-01
<VARIANCE> 39
 1.014599e+01 2.083166e+01 1.879299e+01 3.813476e+01 1.414291e+01 1.809332e+01 1.899912e+01 2.713838e+01 3.042139e+01 2.148260e+01 3.418688e+01 4.102001e+01 3.634416e+00 1.098518e+00 1.189842e+00 1.397323e+00 1.352264e+00 1.115274e+00 2.176870e+00 2.221282e+00 2.812762e+00 3.358791e+00 1.538734e+00 2.701379e+00 2.735967e+00 3.365642e-01 6.820447e-02 1.174909e-01 2.277934e-01 2.945249e-01 2.814815e-01 4.574139e-01 3.730131e-01 5.047664e-01 6.630774e-01 3.137255e-01 6.362936e-01 5.713233e-01 2.406469e-02
<GCONST> 9.903439e+01
<STATE> 3
<MEAN> 39
 -6.362502e+00 6.053839e-01 -5.148092e+00 -4.949420e+00 -1.189319e+01 -1.392638e+00 -7.286933e+00 -3.642856e+00 -2.844983e+00 -3.948865e+00 -4.987819e+00 -2.677239e+00 4.367018e+01 -4.633973e-01 -2.553736e-01 8.167823e-02 4.774738e-01 2.368499e-01 1.055117e-01 -1.636490e-01 -3.292465e-01 -9.810463e-02 1.570852e-01 -2.785723e-02 3.217025e-03 -3.246094e-01 5.109553e-02 5.721213e-02 8.154292e-02 7.635258e-02 1.406024e-01 1.125070e-01 -1.003090e-01 -1.435782e-01 -9.129567e-02 -6.817157e-02 1.007108e-01 7.934573e-02 3.063377e-02
<VARIANCE> 39
 2.053533e+01 2.020275e+01 3.066013e+01 2.008880e+01 1.358881e+01 1.408796e+01 1.684717e+01 2.336641e+01 2.019906e+01 1.921863e+01 1.509616e+01 2.199150e+01 5.874760e+00 8.472676e-01 7.052765e-01 7.731711e-01 1.029376e+00 1.082910e+00 1.464400e+00 1.004845e+00 1.544994e+00 2.059083e+00 2.154909e+00 1.367029e+00 1.015752e+00 2.636032e-01 1.095444e-01 1.308319e-01 1.614170e-01 1.629340e-01 1.768232e-01 2.290015e-01 2.480601e-01 3.665463e-01 4.566137e-01 4.303009e-01 2.284293e-01 2.291391e-01 2.698085e-02
<GCONST> 8.786077e+01
<STATE> 4
<MEAN> 39
 -1.173587e+01 -4.040718e+00 -9.122835e+00 -5.192138e+00 -8.390864e+00 -1.933522e-01 -5.902504e+00 -3.409711e+00 -5.457637e+00 -6.156313e+00 -5.550895e+00 -5.294393e+00 4.106399e+01 -6.622177e-01 -2.643009e-01 2.625282e-01 1.059946e+00 7.631689e-01 -4.297036e-01 -1.078992e+00 -1.445365e+00 -6.841731e-01 1.395140e-01 3.251966e-01 7.090797e-01 -4.474480e-01 2.031790e-01 1.714439e-01 -4.297286e-02 -2.421259e-01 -2.736678e-01 -1.960943e-01 5.410760e-02 3.153221e-01 1.817975e-01 4.993399e-02 6.066223e-02 3.355725e-02 1.068832e-01
<VARIANCE> 39
 2.454394e+00 5.156058e+00 8.580388e+00 1.046960e+01 9.273435e+00 1.398925e+01 1.340544e+01 1.609999e+01 9.383822e+00 1.468917e+01 2.007299e+01 1.692117e+01 3.634416e+00 2.471381e-01 4.093421e-01 7.960683e-01 1.672325e+00 1.161433e+00 1.038502e+00 1.476154e+00 1.361953e+00 1.214875e+00 1.664911e+00 1.365740e+00 1.183690e+00 1.143524e-01 6.082126e-02 7.167026e-02 1.472447e-01 2.186307e-01 2.738406e-01 1.830135e-01 2.330008e-01 3.027857e-01 2.614306e-01 2.646410e-01 2.675831e-01 2.135713e-01 2.518330e-02
<GCONST> 7.516382e+01
<TRANSP> 5
 0.000000e+00 1.000000e+00 0.000000e+00 0.000000e+00 0.000000e+00
 0.000000e+00 7.312538e-01 2.687462e-01 0.000000e+00 0.000000e+00
 0.000000e+00 0.000000e+00 7.421602e-01 2.578398e-01 0.000000e+00
 0.000000e+00 0.000000e+00 0.000000e+00 6.156694e-01 3.843305e-01
 0.000000e+00 0.000000e+00 0.000000e+00 0.000000e+00 0.000000e+00
<ENDHMM>
~h "eng"
<BEGINHMM>
<NUMSTATES> 5
<STATE> 2
<MEAN> 39
 2.424178e+00 -5.440894e+00 -1.041325e+01 -1.676705e+01 -1.173610e+01 1.523338e+01 -1.970205e+01 -3.071435e+00 3.228720e+00 -2.409127e+01 1.879847e+01 -1.358063e+01 7.666631e+01 3.001319e-01 5.423149e-02 1.132601e-01 8.129835e-01 -1.542339e-01 -4.467794e-01 5.980152e-01 1.173585e-02 -4.011533e-01 -3.856804e-01 5.333832e-02 -3.645083e-01 -8.060637e-01 6.751951e-03 -1.196549e-02 7.912740e-02 7.295702e-04 4.720733e-02 -1.129517e-01 7.200481e-02 7.280816e-03 -7.637627e-02 3.087252e-01 -2.876707e-01 3.544538e-02 -8.679050e-02
<VARIANCE> 39
 7.272258e+00 9.341152e+00 1.967264e+01 3.922056e+01 1.356354e+01 2.920609e+01 3.470600e+01 3.396302e+01 2.393662e+01 5.230988e+01 5.326678e+01 1.722140e+01 1.747871e+01 2.095274e-01 4.483533e-01 5.306140e-01 5.138506e-01 5.936773e-01 8.168356e-01 8.028560e-01 6.396061e-01 6.444458e-01 2.404706e+00 1.681600e+00 6.239236e-01 3.532591e-01 3.520063e-02 7.163252e-02 8.324083e-02 6.737265e-02 9.087076e-02 1.668617e-01 1.570010e-01 1.210348e-01 1.288099e-01 1.805072e-01 1.516085e-01 1.199960e-01 3.633989e-02
<GCONST> 7.640231e+01
<STATE> 3
<MEAN> 39
 7.415940e+00 -6.875604e+00 -2.141024e+00 -7.169705e+00 -1.209466e+01 7.790259e+00 -1.218707e+01 -8.167021e+00 -4.348081e+00 -1.213568e+01 3.157766e+00 -1.185885e+01 6.405289e+01 -1.728273e-01 8.910034e-01 2.035565e-01 1.058098e+00 1.039239e+00 -9.885937e-01 7.244636e-01 7.917862e-02 -7.962837e-01 1.325908e+00 -2.510493e+00 9.122871e-01 -1.707572e+00 -3.507897e-01 1.410484e-01 -2.496468e-01 1.813905e-01 9.414542e-02 -2.307995e-01 1.070697e-01 2.443860e-01 8.203507e-02 -1.718892e-01 4.442090e-02 1.203965e-01 1.786655e-02
<VARIANCE> 39
 8.818186e+00 5.786003e+01 3.481585e+01 4.675858e+01 4.056869e+01 2.702087e+01 2.239215e+01 6.648744e+01 2.232102e+01 7.261964e+01 8.612811e+01 2.584460e+01 3.708839e+01 1.165632e+00 2.715120e+00 2.088916e+00 1.568339e+00 2.328267e+00 1.763410e+00 1.710438e+00 2.371279e+00 2.052310e+00 2.900545e+00 3.043473e+00 1.839846e+00 2.331064e+00 1.366611e-01 4.265223e-01 2.750696e-01 2.920176e-01 4.000144e-01 3.417898e-01 3.587310e-01 5.891771e-01 3.417444e-01 4.992620e-01 6.466681e-01 3.708903e-01 1.200045e-01
<GCONST> 1.136043e+02
<STATE> 4
<MEAN> 39
 -2.413206e+00 -2.404641e+00 -6.807020e+00 -3.443361e+00 -5.442564e+00 1.980136e+00 -7.387191e+00 -5.962892e+00 -7.099151e+00 -5.574204e+00 -4.513387e+00 -6.272485e+00 4.967624e+01 -1.007268e+00 -2.568722e-01 -5.465130e-01 3.568188e-01 -1.003933e-01 -1.036994e+00 3.844011e-01 5.980282e-01 6.729737e-02 -3.284840e-02 -2.490352e-01 4.685366e-01 -5.501283e-01 -3.271661e-02 -6.470190e-03 1.438891e-01 -1.796885e-01 -9.581379e-02 -7.284433e-02 7.201004e-03 1.381488e-01 1.831868e-02 -2.457433e-01 2.654070e-01 -6.029992e-02 2.950168e-01
<VARIANCE> 39
 6.109499e+01 5.123524e+01 4.000473e+01 4.062002e+01 4.656417e+01 2.831006e+01 2.009121e+01 3.300134e+01 2.178439e+01 2.566474e+01 2.497194e+01 1.877674e+01 8.016335e+01 3.294678e+00 2.749732e+00 2.714399e+00 2.991602e+00 2.746141e+00 3.607718e+00 2.441100e+00 4.982333e+00 2.248312e+00 4.257856e+00 2.200918e+00 1.890187e+00 2.484559e+00 5.324255e-01 5.491466e-01 4.927159e-01 4.923404e-01 6.325799e-01 6.032707e-01 4.835814e-01 6.908201e-01 4.840471e-01 5.108677e-01 5.295073e-01 3.590550e-01 3.526592e-01
<GCONST> 1.225399e+02
<TRANSP> 5
 0.000000e+00 1.000000e+00 0.000000e+00 0.000000e+00 0.000000e+00
 0.000000e+00 8.761295e-01 1.238705e-01 0.000000e+00 0.000000e+00
 0.000000e+00 0.000000e+00 7.787303e-01 2.212697e-01 0.000000e+00
 0.000000e+00 0.000000e+00 0.000000e+00 8.348644e-01 1.651357e-01
 0.000000e+00 0.000000e+00 0.000000e+00 0.000000e+00 0.000000e+00
<ENDHMM>
~h "ong"
<BEGINHMM>
<NUMSTATES> 5
<STATE> 2
<MEAN> 39
 -1.358013e+01 -4.433177e+00 -1.047317e+01 -4.507397e+00 -8.893779e+00 -3.482190e+00 -8.254513e+00 -4.417658e+00 -6.354530e+00 -4.667968e+00 -4.643324e+00 -4.649084e+00 3.924203e+01 -3.297880e-02 7.955606e-02 4.670544e-02 1.892616e-01 2.463700e-02 -1.875512e-02 -1.286772e-02 4.753069e-02 3.743004e-02 1.445048e-01 1.022429e-01 1.088994e-01 -1.109451e-01 5.850349e-02 5.767005e-02 4.168269e-02 5.334025e-03 1.819970e-02 6.194881e-02 6.068231e-02 5.927875e-02 3.819199e-02 1.174812e-04 1.529747e-03 7.654056e-04 2.830698e-02
<VARIANCE> 39
 1.736270e+00 3.313418e+00 5.309842e+00 5.839016e+00 8.159325e+00 1.011790e+01 9.856100e+00 1.012212e+01 1.063302e+01 1.359724e+01 1.089924e+01 1.159886e+01 3.634416e+00 1.690859e-01 3.360395e-01 5.854852e-01 6.179360e-01 9.887503e-01 1.163373e+00 1.099421e+00 1.167547e+00 1.145978e+00 1.578546e+00 1.243619e+00 1.238589e+00 4.502966e-02 3.161709e-02 6.450042e-02 1.217221e-01 1.326218e-01 2.012590e-01 2.306441e-01 2.312016e-01 2.600797e-01 2.103886e-01 3.055170e-01 2.602886e-01 2.664105e-01 8.032893e-03
<GCONST> 6.497056e+01
<STATE> 3
<MEAN> 39
 -1.067937e+01 1.173079e+00 -6.481601e+00 9.860739e-01 -6.225052e+00 -1.066410e+00 -7.647897e+00 -3.715616e+00 -5.220671e+00 -2.791577e+00 -2.660325e+00 -2.712528e+00 3.874322e+01 -1.937306e-02 7.420851e-02 -2.507355e-02 6.049458e-02 -1.760949e-02 3.386369e-02 5.904797e-04 5.987072e-02 3.996434e-02 2.131490e-02 7.273192e-02 3.537912e-02 -1.046668e-01 -3.524338e-02 -5.629641e-02 -6.725202e-02 -6.321746e-02 -4.302299e-02 -1.519333e-02 -1.236658e-02 -2.120766e-02 -1.611072e-02 -2.413253e-02 -3.286012e-03 -1.265932e-02 -1.313266e-02
<VARIANCE> 39
 4.104056e+00 9.359889e+00 5.458920e+00 8.236392e+00 1.020674e+01 1.054168e+01 1.269721e+01 1.360785e+01 1.124007e+01 1.402616e+01 1.062599e+01 1.206038e+01 4.068954e+00 2.976398e-01 5.336900e-01 5.991340e-01 8.301924e-01 1.012121e+00 1.080323e+00 1.330104e+00 1.419057e+00 1.277307e+00 1.303357e+00 1.074010e+00 1.308048e+00 6.681215e-02 5.033368e-02 8.990684e-02 1.132330e-01 1.634350e-01 2.092273e-01 2.278045e-01 2.735488e-01 2.819861e-01 2.708766e-01 2.493483e-01 2.036901e-01 2.888808e-01 1.021392e-02
<GCONST> 7.150365e+01
<STATE> 4
<MEAN> 39
 -1.368076e+01 -2.001449e+00 -9.785583e+00 -8.842947e-01 -8.913021e+00 5.697116e-01 -7.683758e+00 -3.571825e+00 -4.716660e+00 -3.044155e+00 -2.364058e+00 -2.329398e+00 3.622196e+01 -5.649752e-02 -1.277297e-02 -1.112465e-01 -5.458314e-02 -8.289905e-02 2.762778e-03 -3.910488e-02 -1.341083e-02 -1.072655e-02 2.930152e-02 2.284297e-02 -1.043204e-02 -8.517314e-02 2.776454e-03 1.754822e-03 5.628273e-03 -2.139533e-03 -1.075676e-03 -1.183604e-02 -1.480784e-02 -1.289610e-02 -1.173439e-02 -1.551367e-02 -4.275566e-02 -2.327270e-02 3.555382e-03
<VARIANCE> 39
 2.404804e+00 6.300713e+00 7.844730e+00 8.784447e+00 1.424615e+01 1.410278e+01 1.151138e+01 1.829192e+01 1.413952e+01 1.403956e+01 1.333092e+01 1.186388e+01 3.634416e+00 1.446795e-01 2.871450e-01 4.576034e-01 6.958975e-01 8.683572e-01 1.068716e+00 1.285597e+00 1.458033e+00 1.337600e+00 1.556006e+00 1.393065e+00 1.106112e+00 4.255940e-02 2.810202e-02 5.622238e-02 8.625977e-02 1.355881e-01 1.748272e-01 2.236210e-01 2.726693e-01 2.919410e-01 2.632726e-01 3.308223e-01 3.013399e-01 2.366285e-01 7.126253e-03
<GCONST> 6.846570e+01
<TRANSP> 5
