~o
<STREAMINFO> 1 39
<VECSIZE> 39<NULLD><MFCC_D_A_0><DIAGC>
~s "silst"
<MEAN> 39
 -1.258510e+01 -3.455011e+00 -1.034533e+01 -1.900115e+00 -8.112561e+00 -2.261777e+00 -8.078941e+00 -2.743953e+00 -4.578494e+00 -3.816127e+00 -4.092945e+00 -3.750869e+00 3.861185e+01 -4.433543e-02 1.822331e-02 -8.136808e-03 1.494590e-02 -3.221568e-02 -9.613845e-03 1.655523e-02 4.737992e-03 1.561854e-02 6.074388e-02 7.105339e-02 5.020170e-02 -5.873665e-02 1.203752e-02 1.207298e-02 1.149604e-03 -6.406244e-03 5.872891e-03 1.328023e-03 -2.377763e-02 -1.442859e-02 -1.783032e-02 -1.944120e-02 1.571780e-03 3.167736e-03 9.285971e-03
<VARIANCE> 39
 2.797213e+00 1.442468e+01 1.030177e+01 1.220404e+01 1.154463e+01 1.560085e+01 1.330057e+01 1.500703e+01 1.535050e+01 1.565022e+01 1.337343e+01 1.131824e+01 4.816111e+00 1.718166e-01 3.610005e-01 5.596496e-01 7.383601e-01 9.219759e-01 1.094515e+00 1.150388e+00 1.346007e+00 1.566708e+00 1.526737e+00 1.386752e+00 1.195094e+00 8.904752e-02 3.398065e-02 6.569189e-02 1.069393e-01 1.483978e-01 1.840612e-01 2.216581e-01 2.348657e-01 2.814183e-01 3.271677e-01 3.183514e-01 2.929087e-01 2.483759e-01 1.498059e-02
<GCONST> 7.326561e+01
~h "a"
<BEGINHMM>
<NUMSTATES> 5
<STATE> 2
<MEAN> 39
 -4.772242e+00 -1.690262e+01 -1.433648e+01 -1.934223e+01 -5.123580e-01 1.791433e+01 -1.256373e+01 -1.012741e+01 2.325387e+00 -8.324244e+00 -6.165641e+00 -3.237108e+00 8.543739e+01 4.497665e-01 -2.210516e-01 4.064158e-01 8.192043e-02 -3.981957e-02 1.464083e-01 -1.453026e+00 1.167846e+00 -2.773202e-01 -2.660812e-01 8.682960e-01 -7.700421e-01 -3.580568e-01 2.442772e-01 -4.115637e-03 2.647762e-01 5.021309e-02 -1.820339e-01 -2.930249e-01 -1.330583e-01 3.320979e-01 -8.119778e-02 9.843080e-02 1.665395e-01 -2.885525e-01 -2.265443e-01
<VARIANCE> 39
 1.900307e+01 1.216328e+01 7.982109e+00 8.783382e+00 1.259581e+01 3.425462e+01 9.127765e+01 6.862387e+01 1.579694e+01 1.893988e+01 5.408703e+01 4.423143e+01 9.618179e+00 1.381828e+00 7.166322e-01 9.603393e-01 5.648152e-01 1.279719e+00 2.013254e+00 3.088397e+00 5.314152e+00 1.219717e+00 1.403959e+00 2.233121e+00 3.815752e+00 5.839261e-01 1.469482e-01 1.387103e-01 1.585805e-01 1.706238e-01 1.739834e-01 3.196301e-01 4.839233e-01 5.592456e-01 2.411443e-01 2.388773e-01 4.359320e-01 3.910428e-01 8.146912e-02
<GCONST> 9.836005e+01
<STATE> 3
<MEAN> 39
 4.929123e+00 -1.869273e+01 7.174978e+00 -9.650249e+00 -8.984138e-01 6.832647e+00 -3.241587e+01 -1.055332e+00 -9.864806e+00 -6.191849e+00 6.649330e+00 -1.493557e+01 7.264836e+01 1.508546e-01 2.818584e-01 1.154284e+00 8.387907e-01 -1.661737e-02 -1.586445e+00 -1.909944e-02 -2.460190e-01 -1.134707e-01 -1.277962e-01 3.429016e-01 -3.783158e-01 -5.112283e-01 -2.514309e-01 1.354161e-01 -5.624626e-01 -2.561465e-01 -2.932123e-02 1.565982e-01 3.133841e-01 5.339328e-02 5.971193e-01 -4.115525e-01 -1.234069e-01 8.656467e-02 3.198150e-01
<VARIANCE> 39
 3.229196e+00 5.655812e+00 8.749669e+01 4.659296e+01 2.191994e+01 5.559952e+01 2.590174e+01 4.668994e+01 6.384435e+01 3.467767e+01 1.804354e+01 9.483105e+00 1.612189e+01 8.870502e-01 9.080601e-01 1.138481e+01 5.664585e+00 3.238502e+00 3.353258e+00 2.572473e+00 7.080837e+00 1.583543e+01 8.750184e+00 1.739481e+00 1.476324e+00 2.920431e+00 7.779966e-02 1.482665e-01 9.707870e-01 7.076836e-01 5.820195e-01 4.408154e-01 4.476651e-01 1.605957e+00 1.528279e+00 8.653015e-01 3.950415e-01 3.770662e-01 1.835122e-01
<GCONST> 1.190591e+02
<STATE> 4
<MEAN> 39
 -2.338586e-01 -1.334449e+01 -4.317484e+00 -1.425782e+01 -5.375163e+00 1.888595e+00 -1.779798e+01 4.630670e+00 2.561684e+00 -1.040750e+01 2.111211e+00 -1.447265e+01 7.594144e+01 -2.561300e-01 8.528140e-01 -8.984159e-01 2.479754e-01 -8.628713e-02 -5.551419e-01 7.336978e-01 3.664124e-01 1.457438e+00 -7.119271e-01 -6.071583e-01 3.153375e-01 -4.455346e-01 -8.576293e-02 -1.469872e-01 2.925129e-01 4.425835e-01 2.776733e-01 1.938576e-01 7.506331e-03 -6.343708e-01 -5.557411e-01 3.945021e-01 -3.402264e-01 3.732817e-01 -3.659186e-01
<VARIANCE> 39
 7.146939e+01 2.828118e+01 2.040751e+01 1.645922e+01 3.854889e+01 5.446363e+01 1.263578e+02 5.190820e+01 8.585360e+01 1.591662e+02 7.406255e+01 5.215760e+01 2.641213e+01 4.398694e+00 2.300221e+00 5.913637e+00 3.480203e+00 2.827212e+00 5.694260e+00 4.201671e+00 6.935259e+00 7.455815e+00 6.074751e+00 3.225950e+00 3.861211e+00 5.891958e+00 6.571125e-01 4.063488e-01 1.009042e+00 4.745487e-01 5.178227e-01 1.153823e+00 8.136409e-01 9.755427e-01 1.451878e+00 1.365068e+00 6.346277e-01 8.072436e-01 3.318379e-01
<GCONST> 1.383068e+02
<TRANSP> 5
 0.000000e+00 1.000000e+00 0.000000e+00 0.000000e+00 0.000000e+00
 0.000000e+00 9.116981e-01 8.830193e-02 0.000000e+00 0.000000e+00
 0.000000e+00 0.000000e+00 8.731867e-01 1.268133e-01 0.000000e+00
 0.000000e+00 0.000000e+00 0.000000e+00 8.098756e-01 1.901244e-01
 0.000000e+00 0.000000e+00 0.000000e+00 0.000000e+00 0.000000e+00
<ENDHMM>
~h "b"
<BEGINHMM>
<NUMSTATES> 5
<STATE> 2
<MEAN> 39
 2.480813e+00 -6.886627e+00 2.796056e+00 6.658944e-01 -8.693057e+00 -4.258316e+00 -1.478284e+01 -4.859442e+00 -4.743646e+00 -1.088227e+01 -3.295534e+00 -1.481436e+01 6.114784e+01 -3.122125e-01 1.680331e-01 -3.375986e-01 -7.043399e-01 1.925610e-01 4.764275e-01 1.134897e+00 -2.349355e-01 -9.201322e-02 4.204954e-01 -1.334034e-02 9.550242e-01 1.202209e+00 -1.651202e-01 -1.065834e-01 8.979833e-03 -4.048064e-01 -2.208582e-01 1.167867e-01 -1.704544e-02 -2.285545e-01 3.170304e-01 -2.577298e-01 3.530255e-01 1.081844e-01 6.376484e-01
<VARIANCE> 39
 3.888898e+01 2.606987e+01 5.450163e+01 4.742694e+01 3.486768e+01 4.017842e+01 5.317879e+01 1.634331e+01 3.352570e+01 4.050486e+01 4.098856e+01 5.727265e+01 1.128512e+02 2.751266e+00 3.160819e+00 3.656711e+00 5.196637e+00 5.359344e+00 5.740072e+00 2.526341e+00 3.012017e+00 6.072342e+00 2.735916e+00 7.108458e+00 2.819746e+00 2.220907e+01 3.872573e-01 3.725387e-01 1.179762e+00 5.891167e-01 1.226467e+00 9.495593e-01 5.942999e-01 5.941464e-01 9.689339e-01 7.449350e-01 1.217063e+00 5.995628e-01 2.624054e+00
<GCONST> 1.367763e+02
<STATE> 3
<MEAN> 39
 -4.911623e+00 -7.503110e+00 9.602425e+00 -1.113185e+01 -1.834047e+01 -5.658956e+00 -1.001147e+01 -1.481938e+01 -3.829000e+00 -1.319691e+01 8.616632e+00 -7.035335e+00 8.032838e+01 -1.192975e+00 8.465315e-01 3.311820e+00 -1.665748e+00 -2.943203e+00 -3.064877e-01 -1.549957e+00 -2.795383e+00 -3.335339e-01 -2.118731e+00 2.210045e+00 2.856838e-02 1.268965e+00 -7.067282e-02 6.072804e-01 -4.800208e-01 7.650617e-01 1.144478e+00 2.056256e-01 -9.855443e-02 5.994441e-01 1.445001e-02 1.615760e-01 -1.101428e+00 -2.102056e-01 -1.625698e+00
<VARIANCE> 39
 8.661031e+00 1.671428e+01 1.098408e+02 2.599129e+01 5.907387e+01 6.543290e+01 3.998345e+01 2.930015e+01 2.411735e+01 3.262305e+01 4.858022e+01 1.383306e+01 1.634043e+01 9.176691e-01 1.901334e+00 6.489051e+00 2.620051e+00 9.110210e+00 2.547407e+00 4.942807e+00 3.277233e+00 1.529156e+00 2.533092e+00 8.559791e+00 2.622486e+00 1.166921e+01 1.546665e-01 3.935971e-01 1.376266e+00 3.863243e-01 1.098247e+00 7.605093e-01 1.760431e+00 6.252123e-01 3.944440e-01 7.308889e-01 6.531692e-01 5.548728e-01 1.909662e+00
<GCONST> 1.270219e+02
<STATE> 4
<MEAN> 39
 -9.752757e+00 -8.163919e-01 1.742059e+01 -1.172264e+01 -1.913407e+01 -3.168464e+00 -1.249365e+01 -1.762352e+01 -5.135966e+00 -1.747551e+01 8.053894e+00 -1.030153e+01 7.743233e+01 5.819743e-02 -2.118155e-02 1.523092e-01 1.057703e-01 1.127542e-02 3.976776e-01 2.781074e-01 1.946750e-01 -2.545875e-01 2.494524e-01 -3.679785e-01 -2.052542e-01 -2.636542e-01 1.527496e-01 -1.525006e-01 -1.407271e-01 1.454333e-01 1.288738e-02 -1.435940e-01 1.504231e-01 1.958769e-01 -7.688592e-02 2.019506e-01 -2.881634e-02 6.347401e-02 -9.200954e-02
<VARIANCE> 39
 3.896053e+00 1.012413e+01 3.235492e+01 5.880296e+00 1.246022e+01 2.205299e+01 8.716599e+00 4.813738e+00 7.152597e+00 8.852072e+00 1.358852e+01 9.035868e+00 5.466519e+00 5.937374e-01 7.494356e-01 3.042066e-01 3.157652e-01 8.247972e-01 5.943524e-01 6.717694e-01 5.087836e-01 5.844922e-01 8.646577e-01 7.701139e-01 8.988784e-01 1.971401e-01 5.045700e-02 6.894285e-02 1.789152e-01 1.104231e-01 2.001998e-01 1.739906e-01 1.744602e-01 1.519345e-01 1.104158e-01 1.259165e-01 1.699207e-01 1.406827e-01 9.374085e-02
<GCONST> 6.604774e+01
<TRANSP> 5
 0.000000e+00 1.000000e+00 0.000000e+00 0.000000e+00 0.000000e+00
 0.000000e+00 9.086226e-01 9.137742e-02 0.000000e+00 0.000000e+00
 0.000000e+00 0.000000e+00 6.759974e-01 3.240025e-01 0.000000e+00
 0.000000e+00 0.000000e+00 0.000000e+00 9.033262e-01 9.667381e-02
 0.000000e+00 0.000000e+00 0.000000e+00 0.000000e+00 0.000000e+00
<ENDHMM>
~h "d"
<BEGINHMM>
<NUMSTATES> 5
<STATE> 2
<MEAN> 39
 -9.632255e+00 -2.517584e+00 -4.363202e+00 -3.682196e+00 -7.283650e+00 -7.068942e+00 -5.533801e+00 -3.045420e+00 -2.932460e+00 -5.217290e+00 -2.724045e+00 -3.163995e+00 5.191666e+01 -1.303828e-02 -3.275834e-01 1.089711e-02 -8.104812e-01 8.838527e-01 -6.980916e-01 9.411354e-02 5.263561e-01 9.633211e-01 5.388574e-01 -4.615128e-01 1.530153e-01 2.613425e+00 3.192809e-01 -2.337602e-01 -2.457491e-02 -4.285295e-01 -2.701702e-01 2.770350e-01 -4.432536e-01 -1.671608e-02 3.250316e-01 -1.227433e-02 4.478711e-02 -2.258530e-01 8.224097e-01
<VARIANCE> 39
 5.841934e+01 5.628265e+01 6.640868e+01 5.330703e+01 7.027795e+01 5.603017e+01 3.971176e+01 3.052064e+01 3.484118e+01 3.171690e+01 2.158518e+01 1.917514e+01 1.962284e+02 7.564024e+00 5.026076e+00 5.526057e+00 5.612708e+00 6.835276e+00 7.313559e+00 6.149854e+00 3.209451e+00 4.514270e+00 2.787971e+00 3.409750e+00 2.418014e+00 2.199186e+01 1.398732e+00 8.977100e-01 9.906634e-01 8.181929e-01 1.518699e+00 1.769799e+00 1.222072e+00 7.381896e-01 7.941408e-01 5.247373e-01 5.923926e-01 6.448856e-01 2.355971e+00
<GCONST> 1.432605e+02
<STATE> 3
<MEAN> 39
 -5.123528e+00 -1.161280e+01 -9.853934e+00 -1.975791e+01 -9.073268e+00 5.059242e-01 -6.298718e+00 -2.812574e+00 5.686862e+00 -2.338551e+00 -5.556126e+00 -9.180874e+00 8.592426e+01 9.127216e-01 -6.094907e-01 -9.034871e-01 -1.723040e+00 6.093109e-02 2.695915e+00 -7.272420e-01 -5.480522e-01 2.362446e-01 2.114958e-01 1.788723e-01 -8.499668e-01 1.243266e+00 -1.505899e-01 1.838537e-01 1.299383e-01 2.538807e-01 -1.889727e-02 3.351522e-01 1.309948e-01 -3.094251e-01 -5.254256e-01 -1.724837e-01 3.975538e-01 9.993339e-02 -9.452102e-01
<VARIANCE> 39
 1.034332e+01 1.191761e+01 2.320150e+01 2.148721e+01 1.484149e+01 7.678289e+01 1.248561e+02 3.197149e+01 6.534139e+01 2.972595e+01 2.860527e+01 2.249879e+01 1.739242e+01 2.947477e+00 1.969665e+00 2.089321e+00 2.093649e+00 5.012963e+00 4.866023e+00 7.865357e+00 3.957107e+00 7.097916e+00 4.087122e+00 5.206964e+00 4.339500e+00 7.301553e+00 5.777097e-01 2.640266e-01 3.797644e-01 3.640989e-01 6.619462e-01 1.145037e+00 1.182455e+00 9.378811e-01 1.064920e+00 5.861972e-01 5.761787e-01 8.079928e-01 8.665999e-01
<GCONST> 1.278572e+02
<STATE> 4
<MEAN> 39
 -8.469294e-01 -9.904301e+00 -9.169599e+00 -2.495992e+01 -8.413846e+00 1.166114e+01 -1.658503e+01 -4.383486e+00 5.203525e+00 -6.219297e+00 4.857078e+00 -1.126443e+01 8.278095e+01 5.822697e-01 3.412628e-01 -2.791257e-01 -2.571151e-01 1.149590e-01 2.077551e+00 -7.831045e-01 -1.383756e-01 -7.334226e-01 -1.336794e+00 1.541119e+00 8.477446e-02 -7.072055e-01 -1.289396e-01 1.574620e-01 6.398619e-02 4.116813e-01 6.816678e-02 -4.929791e-01 1.196722e-01 8.473665e-02 -9.963688e-02 -1.498518e-01 -6.175754e-02 2.365987e-01 -1.466963e-01
<VARIANCE> 39
 1.481481e+01 1.504698e+01 9.705090e+00 1.812380e+01 1.282241e+01 5.496385e+01 6.467436e+01 1.318994e+01 5.018256e+01 4.998126e+01 5.354622e+01 1.668325e+01 1.818401e+01 1.245073e+00 4.475215e-01 1.252723e+00 1.334708e+00 1.196689e+00 2.847780e+00 4.272484e+00 2.695102e+00 2.831026e+00 5.855521e+00 2.680967e+00 1.731151e+00 1.157514e+00 1.798682e-01 1.198139e-01 1.031480e-01 1.668974e-01 2.256788e-01 3.230249e-01 6.056979e-01 2.350804e-01 5.253447e-01 7.762981e-01 4.176665e-01 3.878309e-01 1.244126e-01
<GCONST> 1.039031e+02
<TRANSP> 5
 0.000000e+00 1.000000e+00 0.000000e+00 0.000000e+00 0.000000e+00
 0.000000e+00 8.450769e-01 1.549230e-01 0.000000e+00 0.000000e+00
 0.000000e+00 0.000000e+00 8.226219e-01 1.773781e-01 0.000000e+00
 0.000000e+00 0.000000e+00 0.000000e+00 7.932690e-01 2.067310e-01
 0.000000e+00 0.000000e+00 0.000000e+00 0.000000e+00 0.000000e+00
<ENDHMM>
~h "f"
<BEGINHMM>
<NUMSTATES> 5
<STATE> 2
<MEAN> 39
 -9.928306e+00 -8.370133e+00 -4.418469e+00 -4.864931e+00 -4.750687e+00 -5.061194e+00 -6.022616e+00 -4.677362e+00 -8.186977e-01 -8.818995e+00 -2.213722e+00 -4.220591e+00 6.682636e+01 1.385713e+00 -4.846106e-01 -4.875146e-01 -1.524861e+00 -1.650277e-01 1.139948e+00 -7.946839e-01 -8.560871e-02 2.464558e-01 2.320120e-01 8.314707e-01 -3.002084e-01 1.230921e+00 4.375290e-01 -1.379534e-01 1.437953e-02 -4.202538e-01 -3.350829e-01 4.372260e-01 -2.881677e-01 -5.516030e-02 -5.425836e-02 -3.801328e-02 1.716799e-01 -2.424344e-01 3.938794e-01
<VARIANCE> 39
 1.466481e+02 2.496131e+01 3.344935e+01 6.611879e+01 3.987730e+01 3.728407e+01 7.493367e+01 3.085913e+01 2.606012e+01 4.546215e+01 2.975384e+01 2.689905e+01 4.152201e+01 1.516542e+01 2.804720e+00 2.652536e+00 6.832286e+00 4.273688e+00 7.261546e+00 4.833107e+00 3.502257e+00 2.870583e+00 3.495187e+00 5.151236e+00 3.488839e+00 6.680028e+00 1.855670e+00 5.402997e-01 4.590065e-01 9.285689e-01 8.108094e-01 9.426860e-01 7.289670e-01 6.013035e-01 5.012791e-01 6.562186e-01 7.502859e-01 4.925006e-01 6.135144e-01
<GCONST> 1.355886e+02
<STATE> 3
<MEAN> 39
 4.403028e+00 -1.140580e+01 -6.132287e+00 -1.826759e+01 -1.271748e+01 9.885351e+00 -1.539579e+01 -7.023526e+00 -4.105256e+00 -5.988972e+00 7.248560e+00 -9.650640e+00 7.737409e+01 5.200797e-01 -4.082330e-01 3.672167e-01 -1.542352e-01 -1.469940e+00 2.092424e+00 4.527414e-01 -1.222219e+00 -3.411131e-01 5.169300e-01 -1.028248e+00 2.404459e-01 3.249078e-01 -7.063707e-01 1.419527e-01 1.798239e-01 8.150287e-01 3.635777e-01 -6.748672e-01 4.684666e-01 -1.528670e-01 2.973949e-01 -2.988707e-01 -6.724204e-01 6.094525e-01 -6.499026e-01
<VARIANCE> 39
 1.438609e+01 2.537850e+01 2.015566e+01 7.406834e+01 3.505367e+01 5.282141e+01 6.510479e+01 4.877836e+01 4.376016e+01 5.031543e+01 7.672324e+01 3.119839e+01 2.432997e+01 2.208650e+00 1.535290e+00 3.044587e+00 1.333186e+01 2.472065e+00 7.886793e+00 5.117290e+00 4.644615e+00 3.656759e+00 7.835318e+00 6.399971e+00 3.960923e+00 3.870341e+00 1.075495e+00 2.949893e-01 3.901041e-01 1.748857e+00 4.328120e-01 9.396648e-01 9.705559e-01 1.056350e+00 6.134430e-01 1.483285e+00 1.084714e+00 6.445103e-01 4.026769e-01
<GCONST> 1.343796e+02
<STATE> 4
<MEAN> 39
 5.047087e+00 -1.449281e+01 -4.241039e+00 -1.865309e+01 -1.376727e+01 1.685792e+01 -1.496894e+01 -8.301667e+00 5.462216e-02 -9.974834e+00 6.822270e-01 -5.837401e+00 7.604066e+01 1.558891e-03 3.279911e-02 1.974574e-02 3.383092e-01 5.037357e-02 4.248767e-01 -3.153265e-01 2.536255e-01 7.481760e-01 -1.197944e+00 -5.963693e-01 4.972776e-01 -2.301609e-01 -8.753145e-02 1.594075e-01 -1.644095e-01 1.498920e-01 1.723191e-01 -3.139248e-01 -1.571933e-01 2.750438e-01 -1.414101e-01 4.720491e-02 3.748735e-01 -2.655005e-01 -6.298300e-02
<VARIANCE> 39
 2.214568e+01 4.920600e+01 4.701426e+01 1.197276e+02 6.753837e+01 9.777274e+01 5.991238e+01 5.911363e+01 4.130399e+01 6.121705e+01 4.561515e+01 4.208038e+01 4.004310e+01 7.264856e-01 8.374900e-01 1.023528e+00 8.832942e-01 1.641575e+00 2.330584e+00 1.500236e+00 3.105085e+00 1.730120e+00 3.930010e+00 1.722103e+00 1.885572e+00 4.775781e-01 6.497137e-02 9.295113e-02 2.291512e-01 3.484158e-01 1.591767e-01 3.890263e-01 2.365374e-01 2.051929e-01 2.173530e-01 3.640754e-01 2.906647e-01 3.087874e-01 1.998715e-01
<GCONST> 1.079958e+02
<TRANSP> 5
 0.000000e+00 1.000000e+00 0.000000e+00 0.000000e+00 0.000000e+00
 0.000000e+00 8.805780e-01 1.194219e-01 0.000000e+00 0.000000e+00
 0.000000e+00 0.000000e+00 7.483374e-01 2.516625e-01 0.000000e+00
 0.000000e+00 0.000000e+00 0.000000e+00 6.628966e-01 3.371034e-01
 0.000000e+00 0.000000e+00 0.000000e+00 0.000000e+00 0.000000e+00
<ENDHMM>
~h "g"
<BEGINHMM>
<NUMSTATES> 5
<STATE> 2
<MEAN> 39
 -1.370402e+01 -4.082747e+00 -1.244212e+01 -3.749805e+00 -9.490801e+00 -3.823098e+00 -8.723487e+00 -4.100338e+00 -6.697861e+00 -4.515926e+00 -4.382150e+00 -4.299927e+00 3.777102e+01 -9.794980e-02 1.366963e-02 -1.746745e-02 3.479389e-02 -7.782920e-02 -1.225849e-02 -4.184293e-02 -1.587692e-01 -1.527392e-01 -9.133239e-02 -1.383103e-01 -1.626403e-01 -6.961562e-02 2.789219e-02 4.083350e-02 3.374426e-02 3.009839e-02 8.914842e-02 7.787679e-02 6.029388e-03 6.020343e-02 1.134089e-01 3.325051e-02 6.969172e-02 5.667653e-02 3.768926e-02
<VARIANCE> 39
 1.820048e+00 4.250427e+00 5.667265e+00 5.823149e+00 6.592421e+00 1.110096e+01 1.101898e+01 1.051697e+01 1.427142e+01 1.280134e+01 1.264282e+01 1.361371e+01 3.634416e+00 1.642722e-01 2.860792e-01 5.287756e-01 6.106647e-01 7.349912e-01 1.167878e+00 1.493507e+00 1.512981e+00 1.940433e+00 1.158750e+00 1.700170e+00 1.470683e+00 7.776262e-02 4.083243e-02 6.240416e-02 1.064054e-01 1.205945e-01 1.433800e-01 2.340541e-01 3.144030e-01 2.588270e-01 3.674887e-01 2.340417e-01 2.949361e-01 3.165776e-01 1.808259e-02
<GCONST> 6.848997e+01
<STATE> 3
<MEAN> 39
 -1.407425e+01 -3.461420e+00 -1.169522e+01 -3.370216e+00 -8.907628e+00 -2.651803e+00 -9.222404e+00 -4.532887e+00 -6.286761e+00 -4.681240e+00 -4.132952e+00 -3.848159e+00 3.770679e+01 1.714080e-01 6.045035e-01 2.768874e-01 3.979335e-01 7.991821e-01 4.733178e-01 3.975227e-01 2.362818e-01 4.680735e-01 -8.406981e-02 6.984813e-01 2.243705e-01 3.922772e-01 4.711606e-01 5.010183e-01 1.455945e-01 -1.099875e-01 3.461238e-01 5.562453e-02 3.207283e-01 2.764525e-01 3.851306e-02 2.599320e-01 1.280833e-01 1.092429e-01 4.415519e-01
<VARIANCE> 39
 3.107906e+00 7.849150e+00 8.928864e+00 9.840788e+00 7.931201e+00 8.981030e+00 1.284100e+01 1.725671e+01 2.353695e+01 1.399273e+01 1.827530e+01 1.166273e+01 3.763003e+00 1.088359e+00 1.106005e+00 1.289972e+00 1.487502e+00 1.733172e+00 2.512196e+00 3.411842e+00 3.062441e+00 2.517344e+00 2.017392e+00 2.647671e+00 1.554837e+00 3.669218e-01 3.027359e-01 3.250168e-01 3.938355e-01 5.990557e-01 3.644808e-01 3.700267e-01 5.358905e-01 4.358415e-01 5.974414e-01 3.835809e-01 3.820367e-01 3.474479e-01 1.318074e-01
<GCONST> 9.545071e+01
<STATE> 4
<MEAN> 39
 -1.093988e+01 -2.505868e+00 -9.762233e+00 -2.377557e+00 -6.253168e+00 -1.031860e+00 -7.960642e+00 -1.931194e+00 -3.639946e+00 -4.035343e+00 -2.239942e+00 -3.582610e+00 4.132235e+01 1.978146e-02 -4.210598e-02 1.809199e-01 1.204146e-02 -1.276054e-01 -1.367130e-01 -2.714727e-02 5.474275e-02 1.169593e-01 2.140822e-01 -7.567000e-02 9.563792e-02 -9.850834e-02 5.346582e-02 -9.853898e-02 -2.524198e-01 -3.775451e-01 4.972896e-02 -1.280556e-01 8.082161e-03 4.678431e-02 -1.713141e-01 1.235584e-01 -1.578698e-01 -1.583951e-02 1.460662e-01
<VARIANCE> 39
 2.988946e+01 6.515507e+01 3.631386e+01 2.572662e+01 2.462757e+01 3.321395e+01 3.789776e+01 4.299309e+01 3.515294e+01 2.344063e+01 3.347840e+01 1.490013e+01 1.921642e+01 4.026307e+00 4.383297e+00 3.334074e+00 1.935651e+00 2.912638e+00 3.398004e+00 3.041109e+00 3.105204e+00 2.083304e+00 2.055742e+00 2.697998e+00 1.459412e+00 1.315189e+00 9.745674e-01 8.075267e-01 7.353320e-01 7.552801e-01 8.197138e-01 7.671576e-01 7.578406e-01 7.408560e-01 5.749586e-01 5.936428e-01 5.833307e-01 2.942744e-01 5.929499e-01
<GCONST> 1.232196e+02
<TRANSP> 5
 0.000000e+00 1.000000e+00 0.000000e+00 0.000000e+00 0.000000e+00
 0.000000e+00 8.323675e-01 1.676325e-01 0.000000e+00 0.000000e+00
 0.000000e+00 0.000000e+00 3.433789e-01 6.566212e-01 0.000000e+00
 0.000000e+00 0.000000e+00 0.000000e+00 8.033621e-01 1.966379e-01
 0.000000e+00 0.000000e+00 0.000000e+00 0.000000e+00 0.000000e+00
<ENDHMM>
~h "i"
<BEGINHMM>
<NUMSTATES> 5
<STATE> 2
<MEAN> 39
 2.132745e+00 -1.056197e+01 -3.665013e+00 -1.223209e+01 -1.118395e+01 1.347894e+00 -1.292709e+01 -4.994264e-02 -1.004575e+00 -9.233200e+00 3.623392e+00 -9.421340e+00 6.969466e+01 -7.466885e-01 8.524321e-01 -5.587482e-01 1.252668e+00 1.545829e+00 -7.859328e-01 2.037763e+00 2.135116e-01 -1.512571e-01 1.033243e+00 -1.711568e+00 8.444642e-01 -1.880979e+00 -5.313386e-01 1.330623e-01 -1.094246e-01 2.423743e-01 2.881036e-01 1.206277e-01 1.802396e-01 -2.657399e-01 7.474791e-02 -1.239358e-01 -2.617900e-01 1.874943e-01 -2.392656e-01
<VARIANCE> 39
 4.170021e+01 3.663027e+01 1.637349e+02 1.283167e+02 9.151328e+01 1.918972e+02 1.308609e+02 1.133439e+02 7.043375e+01 5.207057e+01 4.483458e+01 3.182858e+01 7.985725e+01 3.578282e+00 2.795465e+00 3.566623e+00 5.093919e+00 4.159718e+00 7.244211e+00 6.633743e+00 4.935054e+00 2.428092e+00 3.724162e+00 4.839450e+00 3.180559e+00 3.935629e+00 5.947126e-01 3.749802e-01 4.594456e-01 6.646895e-01 7.843562e-01 1.154619e+00 1.184273e+00 7.363478e-01 4.893904e-01 7.339307e-01 7.509564e-01 5.407565e-01 4.180400e-01
<GCONST> 1.408727e+02
<STATE> 3
<MEAN> 39
 -4.795204e+00 -4.301905e+00 -3.121574e+00 -2.173641e+00 -2.871110e+00 -3.640061e+00 -5.897352e+00 1.061453e+00 -1.509436e+00 -7.790544e+00 -3.053444e+00 -3.429141e+00 5.941651e+01 -2.554089e+00 8.610691e-02 -1.323407e+00 1.006600e+00 9.770440e-01 1.718941e-01 6.481180e-01 -6.971224e-01 4.594900e-02 5.195881e-01 -1.437352e+00 5.190435e-01 -2.421146e+00 1.070822e-01 -6.168054e-01 -2.902038e-01 -7.828799e-01 -7.931401e-01 1.360332e-01 -1.081858e+00 -3.657037e-01 -8.173434e-02 -2.318344e-01 5.166847e-01 -5.720071e-01 3.045600e-01
<VARIANCE> 39
 6.773454e+01 2.979730e+01 1.066731e+02 8.006640e+01 4.906525e+01 1.140761e+02 6.487096e+01 6.087560e+01 5.249911e+01 1.979884e+01 2.093019e+01 2.211344e+01 7.007729e+01 2.693448e+00 1.790423e+00 2.898819e+00 3.672977e+00 3.543387e+00 4.834544e+00 5.118707e+00 4.071978e+00 2.834407e+00 3.002661e+00 2.749820e+00 2.665266e+00 1.830559e+00 3.531485e-01 3.260717e-01 4.170066e-01 4.587344e-01 5.324745e-01 9.221379e-01 6.482215e-01 6.567115e-01 3.820680e-01 3.735097e-01 4.869427e-01 3.774191e-01 2.741828e-01
<GCONST> 1.268231e+02
<STATE> 4
<MEAN> 39
 -1.429395e+01 -6.346203e+00 -3.660932e+00 -4.400741e+00 -6.516197e+00 -3.888590e+00 -7.705412e+00 -5.380387e+00 -5.288071e+00 -7.984856e+00 -3.999599e+00 -5.652938e+00 5.609529e+01 -1.217761e+00 -9.071941e-01 -1.707602e+00 -3.788573e-01 3.183528e-02 -3.070641e-01 -4.198574e-01 -5.183947e-01 -2.876821e-02 2.201192e-01 -4.022102e-01 -2.635843e-01 -1.120314e+00 3.302717e-01 -9.605437e-02 1.092355e-01 -2.607143e-01 4.733212e-02 -5.107380e-03 1.806462e-01 2.425518e-01 1.073980e-01 9.169885e-02 2.239155e-01 7.969192e-02 4.839388e-01
<VARIANCE> 39
 8.335005e+01 2.164560e+01 7.565617e+01 4.314320e+01 3.273236e+01 9.574821e+01 4.234461e+01 3.368407e+01 3.157733e+01 1.906961e+01 1.901638e+01 2.301193e+01 6.866824e+01 8.172910e-01 1.084150e+00 1.615353e+00 2.191946e+00 2.726645e+00 2.695668e+00 2.979241e+00 2.516082e+00 1.863325e+00 1.880823e+00 1.911645e+00 1.535063e+00 1.117817e+00 3.508435e-01 2.012640e-01 3.023905e-01 3.511370e-01 5.406858e-01 6.377391e-01 5.600102e-01 3.923680e-01 4.124934e-01 4.156954e-01 4.306038e-01 3.748181e-01 2.301826e-01
<GCONST> 1.143549e+02
<TRANSP> 5
 0.000000e+00 1.000000e+00 0.000000e+00 0.000000e+00 0.000000e+00
 0.000000e+00 7.232236e-01 2.767764e-01 0.000000e+00 0.000000e+00
 0.000000e+00 0.000000e+00 5.315591e-01 4.684409e-01 0.000000e+00
 0.000000e+00 0.000000e+00 0.000000e+00 6.102024e-01 3.897976e-01
 0.000000e+00 0.000000e+00 0.000000e+00 0.000000e+00 0.000000e+00
<ENDHMM>
~h "j"
<BEGINHMM>
<NUMSTATES> 5
<STATE> 2
<MEAN> 39
 -3.035417e+00 -2.312640e+00 -9.832259e-01 -1.810871e+01 -1.143876e+01 -1.073257e+00 -8.125761e+00 -8.133419e+00 -1.618207e+00 -1.107235e+01 7.694430e+00 -8.909238e+00 7.311371e+01 4.183035e-01 2.013975e-01 -6.369996e-02 2.263556e-01 -3.249650e-01 -3.190537e-03 1.134412e-01 -1.860576e-01 1.218819e-01 -1.367727e-01 2.205515e-01 -5.699919e-02 5.905978e-01 1.443035e-02 -4.378577e-02 -5.850909e-02 2.806294e-01 8.916856e-02 -5.298762e-02 2.886901e-02 -4.568139e-02 -6.502068e-02 9.119616e-02 -1.297005e-01 -4.515295e-03 -2.608997e-01
<VARIANCE> 39
 1.566529e+02 2.658144e+01 1.682387e+01 1.033035e+02 6.389108e+01 5.543257e+01 4.698883e+01 4.534956e+01 2.714643e+01 3.628110e+01 8.239770e+01 5.551374e+01 3.802829e+01 9.678931e+00 1.374005e+00 2.047895e+00 1.176088e+01 3.351183e+00 5.060437e+00 6.620881e+00 4.081888e+00 4.076358e+00 3.926520e+00 9.570261e+00 8.065850e+00 6.133000e+00 1.190211e+00 1.999551e-01 3.404536e-01 1.437925e+00 5.849730e-01 7.871060e-01 1.550410e+00 8.283309e-01 8.938200e-01 7.551897e-01 1.711513e+00 1.644570e+00 4.930288e-01
<GCONST> 1.403569e+02
<STATE> 3
<MEAN> 39
 -1.079642e+01 -6.819937e+00 -7.758390e+00 -7.082770e+00 -6.688037e+00 -1.266732e+00 -9.256968e+00 -6.069301e+00 -2.867623e+00 -3.946007e+00 4.139769e-02 -6.588995e+00 6.923257e+01 9.936872e-01 -1.058312e+00 7.327712e-02 -5.683588e-01 -4.617991e-01 6.883557e-01 -1.642384e+00 1.691564e-01 8.318974e-01 3.443536e-01 2.631218e-01 -1.063519e+00 1.072607e+00 4.435066e-01 7.123845e-02 5.947413e-02 -1.004320e-01 -3.269366e-01 1.142043e-01 -7.510447e-02 7.413284e-02 2.291403e-01 -4.301646e-01 -1.186840e-03 -7.023204e-02 1.448051e-01
<VARIANCE> 39
 7.793444e+01 2.198059e+01 1.639693e+01 3.502552e+01 2.627464e+01 3.835620e+01 5.355349e+01 9.620355e+00 2.703917e+01 8.076498e+00 1.923695e+01 3.712447e+01 3.953420e+01 8.174916e+00 1.739472e+00 1.960594e+00 3.605186e+00 3.548097e+00 4.086791e+00 5.767369e+00 1.282734e+00 4.326632e+00 2.634694e+00 3.372909e+00 3.338409e+00 2.629633e+00 1.377080e+00 3.069609e-01 3.566103e-01 1.369125e+00 2.988795e-01 9.012393e-01 1.104792e+00 1.808923e-01 6.354136e-01 3.409084e-01 5.582865e-01 8.702034e-01 3.166813e-01
<GCONST> 1.214770e+02
<STATE> 4
<MEAN> 39
 3.373387e+00 -1.044142e+01 9.403098e-01 -9.989980e-01 -1.472564e+01 -8.859973e-01 -1.570873e+01 -6.757567e+00 -3.320834e-01 -1.280134e+01 1.712041e-01 -4.655642e+00 7.414887e+01 -4.604439e-02 -5.864634e-02 -2.686635e-02 -1.752643e-01 1.006421e-01 6.737996e-02 -1.157096e-01 4.283859e-02 -4.838296e-02 -2.249179e-01 2.297590e-01 2.043520e-01 6.036939e-02 4.202029e-02 3.697211e-02 -2.483861e-02 -2.027787e-01 -4.921522e-02 1.879633e-01 -1.944746e-02 -4.289681e-02 -3.991767e-02 9.362161e-02 1.497162e-01 -5.420036e-02 -3.513387e-02
<VARIANCE> 39
 2.236644e+01 2.896759e+01 3.040551e+01 1.027994e+02 6.352189e+01 3.759340e+01 6.374688e+01 9.022798e+01 6.346391e+01 5.415854e+01 7.079530e+01 7.066476e+01 7.041989e+01 1.890084e+00 1.636503e+00 2.507640e+00 4.570386e+00 7.371851e+00 5.086551e+00 6.348449e+00 7.745351e+00 5.188062e+00 5.740757e+00 7.854318e+00 4.109456e+00 4.100532e+00 3.445376e-01 2.233184e-01 3.624495e-01 3.459988e-01 1.307952e+00 8.087658e-01 1.030748e+00 1.100824e+00 8.791292e-01 7.627324e-01 1.238625e+00 5.048113e-01 5.172433e-01
<GCONST> 1.369287e+02
<TRANSP> 5
 0.000000e+00 1.000000e+00 0.000000e+00 0.000000e+00 0.000000e+00
 0.000000e+00 9.608697e-01 3.913032e-02 0.000000e+00 0.000000e+00
 0.000000e+00 0.000000e+00 8.848459e-01 1.151541e-01 0.000000e+00
 0.000000e+00 0.000000e+00 0.000000e+00 9.601683e-01 3.983168e-02
 0.000000e+00 0.000000e+00 0.000000e+00 0.000000e+00 0.000000e+00
<ENDHMM>
~h "k"
<BEGINHMM>
<NUMSTATES> 5
<STATE> 2
<MEAN> 39
 -4.897876e+00 -9.301304e+00 -8.058611e+00 -5.505777e+00 -4.163415e+00 4.230242e+00 -1.170903e+01 -5.796248e+00 -4.207708e+00 -1.243798e+00 -6.505979e+00 -8.795808e+00 4.916235e+01 -1.366918e+00 -2.068833e-03 -1.361847e+00 2.260035e-01 1.322687e-01 1.980282e+00 6.000304e-01 -1.849269e+00 5.961968e-01 -1.131616e+00 -1.624017e-01 -3.182094e-01 -2.129780e+00 -8.753319e-02 -5.839203e-01 -9.912850e-02 -2.911692e-01 3.610421e-01 -1.212945e+00 2.706540e-01 7.479553e-01 -7.894217e-02 3.039762e-01 -1.258044e-01 1.740687e-01 1.201427e+00
<VARIANCE> 39
 6.080141e+01 2.367130e+01 1.905698e+01 9.798629e+00 2.654097e+01 5.404662e+01 1.241127e+01 1.817457e+01 2.114322e+01 1.983585e+01 2.168447e+01 3.162333e+01 9.326952e+01 1.452586e+00 7.162398e-01 2.014835e+00 1.028231e+00 1.301089e+00 5.520565e+00 1.880696e+00 4.530453e+00 2.629301e+00 3.988182e+00 1.234610e+00 1.187835e+00 4.235505e+00 2.429125e-01 2.048666e-01 3.493730e-01 3.755659e-01 6.009124e-01 2.014932e+00 4.263854e-01 5.714049e-01 5.834568e-01 5.734234e-01 3.147988e-01 4.566683e-01 3.188227e-01
<GCONST> 1.125995e+02
<STATE> 3
<MEAN> 39
 -1.023985e+01 -5.447879e+00 -8.545760e+00 -1.855831e+00 -5.036031e+00 -2.890391e+00 -1.134802e+01 -2.614628e+00 -2.378528e+00 -3.720026e+00 -5.465987e+00 -4.894609e+00 4.330510e+01 -9.657459e-02 -2.921502e-02 1.985513e-03 1.327349e-01 2.873777e-01 -3.270067e-01 2.253457e-01 -7.194893e-02 4.262552e-02 3.784626e-02 -1.006130e-02 1.332649e-01 9.113086e-02 -2.520745e-02 -3.619800e-01 -6.977648e-02 -1.554322e-01 2.837324e-01 -7.853076e-01 3.016333e-01 1.643649e-01 1.726563e-02 7.834694e-02 -4.010249e-02 2.710899e-01 6.065230e-01
<VARIANCE> 39
 3.494403e+01 6.797885e+01 3.055844e+01 3.936129e+01 3.712628e+01 4.747109e+01 3.063858e+01 3.843291e+01 2.707449e+01 3.575830e+01 2.551524e+01 2.529562e+01 2.951922e+01 3.538488e+00 4.479925e+00 3.849684e+00 3.466058e+00 5.640782e+00 3.987692e+00 3.453533e+00 3.375406e+00 3.285290e+00 2.520853e+00 2.707980e+00 2.085759e+00 2.204226e+00 5.595489e-01 9.681261e-01 5.964198e-01 5.031577e-01 1.449449e+00 2.356856e+00 7.911699e-01 7.903000e-01 6.831420e-01 5.987136e-01 6.305546e-01 5.826288e-01 1.521483e+00
<GCONST> 1.308443e+02
<STATE> 4
<MEAN> 39
 -1.060413e+01 -6.889050e+00 -1.166181e+01 -5.571387e+00 -6.477432e+00 1.185451e+00 -9.976810e+00 -6.137672e+00 -4.990607e+00 -3.007275e+00 -5.419842e+00 -7.314865e+00 4.224823e+01 -4.724497e-01 -3.486114e+00 -7.048606e-01 -7.076957e-01 3.988618e+00 -6.822456e+00 3.201986e+00 1.105558e+00 9.460208e-01 5.167176e-01 -6.661988e-01 2.533300e+00 5.518570e+00 2.305594e-01 -4.447320e-01 4.192477e-01 -5.639350e-02 1.013776e+00 -1.720310e+00 9.441607e-01 3.367795e-01 3.979491e-01 2.078899e-02 -1.148372e-01 5.026001e-01 2.101120e+00
<VARIANCE> 39
 2.321863e+01 2.457581e+01 1.154816e+01 1.412375e+01 1.852779e+01 4.149342e+01 1.743933e+01 1.817047e+01 1.607650e+01 1.625597e+01 2.009214e+01 2.857231e+01 4.402893e+01 2.922092e+00 2.689870e+00 1.398896e+00 2.615606e+00 3.656676e+00 8.426953e+00 2.632992e+00 2.629557e+00 2.131824e+00 2.469724e+00 2.443719e+00 2.672728e+00 6.061021e+00 1.512661e-01 4.361701e-01 3.282645e-01 4.005625e-01 5.642650e-01 1.022846e+00 2.696222e-01 3.706567e-01 4.376888e-01 5.293132e-01 3.430893e-01 4.622019e-01 3.239918e-01
<GCONST> 1.132555e+02
<TRANSP> 5
 0.000000e+00 1.000000e+00 0.000000e+00 0.000000e+00 0.000000e+00
 0.000000e+00 3.842620e-01 6.157380e-01 0.000000e+00 0.000000e+00
 0.000000e+00 0.000000e+00 7.103684e-01 2.896315e-01 0.000000e+00
 0.000000e+00 0.000000e+00 0.000000e+00 4.209419e-01 5.790581e-01
 0.000000e+00 0.000000e+00 0.000000e+00 0.000000e+00 0.000000e+00
<ENDHMM>
~h "l"
<BEGINHMM>
<NUMSTATES> 5
<STATE> 2
<MEAN> 39
 -1.450023e+00 -8.377551e+00 9.889638e+00 -3.721768e-01 -1.786234e+01 -3.450171e+00 -1.612380e+01 -3.264500e+00 -6.217604e-01 -1.406907e+01 -4.817440e-02 -5.057824e+00 6.258624e+01 5.761371e-01 -5.032127e-01 7.828609e-01 4.740636e-02 -2.103572e+00 -1.378019e+00 -4.609364e-01 -3.095585e-01 2.967530e-01 -9.410889e-01 1.770322e+00 -4.904193e-01 3.317419e+00 -1.340318e-01 -7.091150e-02 -4.987843e-01 -5.739421e-02 1.032620e-01 -2.064520e-01 1.689036e-01 -5.487675e-02 5.120469e-02 2.016743e-02 1.194658e-01 -9.398463e-02 5.693905e-02
<VARIANCE> 39
 3.912751e+01 5.141054e+01 1.048192e+02 1.162739e+01 9.263076e+01 4.287129e+01 5.488407e+01 2.837938e+01 5.149913e+01 6.248037e+01 9.000389e+01 2.046870e+01 1.749061e+02 4.693502e+00 5.893024e+00 2.178495e+01 1.250446e+00 4.135463e+00 5.411989e+00 9.880641e+00 2.520251e+00 3.715820e+00 1.016282e+01 8.613790e+00 2.488061e+00 4.953960e+00 7.085112e-01 1.338849e+00 3.133909e+00 2.617331e-01 1.186879e+00 9.687367e-01 1.836740e+00 5.295866e-01 6.836884e-01 2.321078e+00 1.723423e+00 4.824866e-01 1.123842e+00
<GCONST> 1.442858e+02
<STATE> 3
<MEAN> 39
 7.576475e-01 -5.922454e+00 -5.430830e+00 -1.609888e+01 -1.909322e+01 -1.168822e+00 -1.265552e+01 -1.091114e+01 1.663580e+00 -1.144619e+01 1.533490e+01 -1.084159e+01 7.934203e+01 3.065900e-01 5.294915e-01 -5.193118e-01 -1.029332e+00 1.038206e+00 1.165148e+00 1.113109e-01 -1.839130e-01 -1.309272e-01 1.439455e-01 -3.910551e-01 -9.633443e-02 -5.454354e-01 -1.523715e-01 -6.224516e-02 2.528709e-01 2.687536e-01 1.372612e-01 -5.143834e-02 1.756797e-02 1.527169e-01 -1.599718e-01 1.594078e-01 -3.325212e-01 1.544324e-01 -1.788365e-01
<VARIANCE> 39
 1.018062e+01 1.429870e+01 1.334030e+01 1.297773e+02 2.206854e+01 1.248494e+02 2.756869e+01 3.713193e+01 3.739595e+01 4.878682e+01 3.991838e+01 4.925588e+01 1.599986e+01 8.316491e-01 4.898939e-01 1.840489e+00 8.426764e+00 3.357527e+00 8.170373e+00 3.198817e+00 4.612774e+00 4.663011e+00 6.586193e+00 4.617589e+00 6.893150e+00 1.082751e+00 2.717217e-01 9.626271e-02 1.908156e-01 1.051058e+00 5.920210e-01 1.620790e+00 7.365149e-01 7.719382e-01 7.558212e-01 1.372021e+00 1.007544e+00 1.544988e+00 5.634435e-02
<GCONST> 1.233901e+02
<STATE> 4
<MEAN> 39
 -2.801198e+00 -7.951307e+00 -1.229304e+00 -3.572162e+00 -8.983031e+00 -3.660975e+00 -1.231810e+01 -4.277721e+00 -5.054979e-01 -8.822086e+00 -3.329706e+00 -4.516231e+00 6.818642e+01 4.487289e-02 -3.656894e-01 8.123103e-02 1.832868e-01 7.552981e-02 -2.359020e-01 -4.383335e-01 2.587428e-01 5.256847e-02 2.484092e-01 -2.558657e-02 2.383021e-02 2.071469e-01 1.018801e-01 -2.440511e-02 -7.009982e-03 -2.571677e-01 -1.606891e-01 2.265957e-01 -5.530634e-03 -1.239339e-01 -3.365350e-02 1.014364e-02 2.042423e-01 -1.182780e-01 9.743974e-02
<VARIANCE> 39
 1.182792e+02 2.263649e+01 3.597368e+01 7.771310e+01 4.747366e+01 3.202168e+01 5.890153e+01 4.234241e+01 3.335292e+01 4.559745e+01 5.472687e+01 6.155833e+01 5.622872e+01 6.671231e+00 2.132434e+00 2.512465e+00 5.380754e+00 4.008166e+00 4.573288e+00 4.585969e+00 3.931189e+00 3.082155e+00 3.463046e+00 7.694755e+00 6.155373e+00 5.560348e+00 7.945749e-01 3.488842e-01 3.598143e-01 6.480454e-01 7.262057e-01 8.841672e-01 9.767047e-01 6.834848e-01 4.352961e-01 5.130313e-01 9.572467e-01 8.388464e-01 7.401717e-01
<GCONST> 1.355281e+02
<TRANSP> 5
 0.000000e+00 1.000000e+00 0.000000e+00 0.000000e+00 0.000000e+00
 0.000000e+00 9.015455e-01 9.845452e-02 0.000000e+00 0.000000e+00
 0.000000e+00 0.000000e+00 9.349576e-01 6.504244e-02 0.000000e+00
 0.000000e+00 0.000000e+00 0.000000e+00 9.679840e-01 3.201595e-02
 0.000000e+00 0.000000e+00 0.000000e+00 0.000000e+00 0.000000e+00
<ENDHMM>
~h "m"
<BEGINHMM>
<NUMSTATES> 5
<STATE> 2
<MEAN> 39
 2.060917e-01 -1.184848e+01 -4.689160e+00 -1.064880e+01 -4.481842e+00 -1.814207e+00 -2.414028e+01 8.854809e+00 1.082864e+01 -2.053017e+01 4.772165e-01 -1.417879e+01 7.824524e+01 1.324525e-01 9.232137e-02 6.070048e-02 2.117357e-01 8.909798e-02 -2.726615e-01 2.649645e-01 -8.081473e-02 -1.490538e-01 1.778518e-01 -3.795746e-02 1.334410e-01 -3.674082e-01 6.249833e-02 5.408062e-05 4.202052e-02 -2.532600e-02 1.563236e-02 2.386583e-02 2.539598e-02 -5.142416e-02 -5.826356e-02 -6.442899e-03 1.440095e-01 -4.563877e-02 -1.040330e-01
<VARIANCE> 39
 4.367064e+00 9.443859e+00 7.243032e+00 1.168918e+01 9.356878e+00 3.229763e+01 1.215276e+01 1.436617e+01 2.011071e+01 1.796827e+01 1.767913e+01 7.655884e+00 8.912944e+00 2.720807e-01 2.512177e-01 2.763407e-01 3.789835e-01 4.477206e-01 8.592552e-01 4.957661e-01 5.336620e-01 4.693685e-01 5.439379e-01 1.143205e+00 6.407600e-01 2.207648e-01 5.803500e-02 4.836717e-02 5.917230e-02 4.528634e-02 6.995799e-02 7.507516e-02 8.817368e-02 7.080694e-02 1.189039e-01 9.566078e-02 1.350813e-01 8.486625e-02 4.096410e-02
<GCONST> 5.901948e+01
<STATE> 3
<MEAN> 39
 3.445485e+00 -1.775960e+01 -8.546214e+00 -2.143772e+01 -5.630543e+00 1.979457e+01 -1.632792e+01 7.719073e-01 3.211722e-03 -1.168293e+01 9.838832e-01 -1.135506e+01 6.908940e+01 4.193951e-01 5.383463e-01 -4.951501e-01 -6.214272e-01 3.742483e-01 6.407177e-01 8.202957e-01 -4.198245e-01 -5.162323e-01 -3.959816e-01 5.254861e-01 1.003140e+00 -1.447700e+00 -1.647938e-01 2.026578e-01 1.412327e-02 3.007855e-01 -5.579691e-02 -4.658768e-01 2.653182e-01 1.624835e-01 1.251144e-02 1.847215e-02 -3.053241e-01 6.000578e-02 -1.973031e-01
<VARIANCE> 39
 7.989216e+00 3.147999e+01 2.103434e+01 5.998497e+01 1.829355e+01 1.610489e+02 3.358326e+01 2.689182e+01 3.953885e+01 3.942599e+01 2.262369e+01 2.957081e+01 2.911932e+01 7.251142e-01 8.904231e-01 8.488104e-01 1.699588e+00 1.146116e+00 2.932596e+00 2.027882e+00 1.704727e+00 1.020270e+00 1.830138e+00 1.782804e+00 1.058049e+00 8.133239e-01 1.756073e-01 1.951134e-01 1.670882e-01 3.302548e-01 2.456193e-01 4.440478e-01 3.954679e-01 2.586173e-01 1.927075e-01 4.240512e-01 3.751876e-01 2.175807e-01 2.281932e-01
<GCONST> 1.025477e+02
<STATE> 4
<MEAN> 39
 3.679270e+00 -1.189868e+01 -4.937023e+00 -1.149206e+01 -3.128933e+00 1.889812e+00 -1.585629e+01 4.031372e+00 5.207421e+00 -1.769265e+01 2.054247e+00 -1.140126e+01 6.776237e+01 2.776176e-01 1.288221e+00 -1.764234e-02 1.102689e+00 4.640831e-01 -6.909716e-01 1.528167e+00 -2.595938e-01 -1.134625e+00 9.599696e-01 -1.309280e+00 1.048032e+00 -2.669061e+00 -1.987894e-01 5.580370e-01 1.617464e-02 6.202447e-01 -7.766187e-02 -1.224753e-01 5.445286e-02 1.015970e-04 -2.785911e-01 4.515097e-01 -6.264493e-01 2.457169e-01 -5.079507e-01
<VARIANCE> 39
 5.071009e+00 1.736508e+01 3.646672e+01 1.092382e+02 2.708489e+01 2.423408e+02 3.765205e+01 3.933563e+01 5.800603e+01 4.347861e+01 2.041493e+01 2.703751e+01 2.046096e+01 1.775374e+00 1.193067e+00 1.617773e+00 1.494440e+00 1.229151e+00 1.841228e+00 1.667028e+00 2.207757e+00 1.713859e+00 1.130450e+00 1.384637e+00 1.024355e+00 8.862039e-01 1.764257e-01 2.722791e-01 1.989785e-01 2.844085e-01 2.359237e-01 3.943355e-01 3.195892e-01 3.318131e-01 3.014691e-01 2.228293e-01 2.997308e-01 2.629752e-01 1.039965e-01
<GCONST> 1.043122e+02
<TRANSP> 5
 0.000000e+00 1.000000e+00 0.000000e+00 0.000000e+00 0.000000e+00
 0.000000e+00 9.078683e-01 9.213170e-02 0.000000e+00 0.000000e+00
 0.000000e+00 0.000000e+00 6.976169e-01 3.023831e-01 0.000000e+00
 0.000000e+00 0.000000e+00 0.000000e+00 5.061301e-01 4.938698e-01
 0.000000e+00 0.000000e+00 0.000000e+00 0.000000e+00 0.000000e+00
<ENDHMM>
~h "q"
<BEGINHMM>
<NUMSTATES> 5
<STATE> 2
<MEAN> 39
 -8.601698e+00 -3.380700e+00 1.787514e+00 -7.110333e+00 -9.986343e+00 -6.864985e+00 -3.022551e+00 -5.358137e+00 -4.892882e+00 -7.573205e+00 -7.171402e-01 -6.446615e+00 6.014705e+01 -2.171509e+00 -1.012293e-01 -6.119363e-01 -8.833611e-01 1.781626e+00 -3.112150e-01 8.772035e-01 3.857088e-01 5.769959e-02 9.938625e-01 -7.507094e-01 5.363058e-01 -2.667837e-01 -3.980038e-01 2.129177e-02 -1.577284e-01 -2.964441e-01 2.027795e-03 9.061823e-02 -8.010498e-02 6.398735e-02 2.486414e-01 1.888456e-01 1.593532e-01 9.935632e-03 5.719646e-01
<VARIANCE> 39
 7.478439e+01 3.929054e+01 4.900672e+01 3.092817e+01 7.815340e+01 2.725803e+01 3.804905e+01 2.940553e+01 2.257870e+01 4.395036e+01 3.190782e+01 1.891730e+01 1.151019e+02 7.660587e+00 5.428652e+00 3.270662e+00 6.101233e+00 7.717661e+00 3.470841e+00 4.948014e+00 4.007550e+00 3.243887e+00 3.102182e+00 3.070181e+00 2.223568e+00 1.367008e+01 7.501690e-01 1.277059e+00 6.510388e-01 9.644409e-01 1.671357e+00 8.006687e-01 1.073902e+00 9.306039e-01 8.763685e-01 5.533832e-01 4.818165e-01 4.617719e-01 1.286748e+00
<GCONST> 1.373686e+02
<STATE> 3
<MEAN> 39
 -2.732108e+01 -2.268195e+00 -6.700093e-01 -1.802285e+01 -2.529739e-01 -2.633634e+00 -1.996412e+00 -3.813936e+00 -1.044521e+00 -1.823069e-01 -1.738791e-01 -2.732893e+00 7.153533e+01 3.993154e-01 3.253383e-01 8.837441e-01 -3.197458e-03 -3.374429e-01 5.404124e-01 -2.915239e-01 -3.912466e-01 -1.489843e-01 -2.822863e-01 2.921195e-01 -4.826704e-02 6.619043e-01 5.893335e-01 1.765860e-02 3.174963e-01 3.185717e-01 -3.626430e-01 -9.525478e-02 -1.589500e-01 -1.787446e-01 -2.420230e-01 -3.562589e-01 2.911822e-02 -1.265467e-01 -2.053995e-01
<VARIANCE> 39
 2.284499e+01 1.251160e+01 1.657415e+01 1.642290e+01 1.493867e+01 2.280761e+01 1.748468e+01 1.707440e+01 1.745269e+01 1.539304e+01 1.692282e+01 1.344580e+01 2.686440e+01 3.980201e+00 1.980705e+00 2.864107e+00 2.679330e+00 1.952443e+00 2.202322e+00 1.861635e+00 2.594492e+00 3.124633e+00 2.485961e+00 1.874467e+00 1.558751e+00 1.784782e+00 4.292731e-01 3.972546e-01 4.006228e-01 3.977334e-01 4.741411e-01 4.199658e-01 3.583112e-01 4.624707e-01 4.131297e-01 3.912125e-01 3.983746e-01 3.034155e-01 2.358583e-01
<GCONST> 1.072212e+02
<STATE> 4
<MEAN> 39
 -9.076303e+00 -1.063451e+00 1.564680e+01 -9.801110e+00 -1.587758e+01 -3.168166e+00 -9.738810e+00 -1.074110e+01 -7.920048e+00 -1.321033e+01 4.822880e+00 -7.197938e+00 7.280024e+01 8.428117e-01 -3.985671e-01 3.016737e-01 4.294473e-01 -9.403397e-01 -1.907437e-01 -2.124969e-01 2.090985e-01 -9.530779e-02 -3.513179e-01 3.152398e-01 -2.846535e-01 7.429613e-02 -2.117236e-01 -9.728678e-02 -3.225362e-01 -8.153366e-02 1.833368e-01 -1.306814e-03 1.718129e-01 2.236052e-01 1.647191e-01 2.222888e-01 -1.172696e-01 6.736047e-02 -2.185057e-02
<VARIANCE> 39
 7.351201e+01 2.679643e+01 4.616565e+01 2.339331e+01 5.772416e+01 1.292983e+01 1.685056e+01 2.045555e+01 1.580220e+01 3.549746e+01 2.032587e+01 1.671845e+01 1.683872e+01 4.106365e+00 1.334511e+00 3.814101e+00 2.077780e+00 4.974640e+00 1.642940e+00 2.488181e+00 2.051376e+00 1.829569e+00 4.276802e+00 1.516841e+00 1.110766e+00 1.248395e+00 4.764387e-01 2.966115e-01 4.057283e-01 3.446212e-01 6.747492e-01 3.225696e-01 3.402357e-01 2.931355e-01 3.449935e-01 4.829409e-01 3.023084e-01 2.218877e-01 1.819170e-01
<GCONST> 1.100376e+02
<TRANSP> 5
 0.000000e+00 1.000000e+00 0.000000e+00 0.000000e+00 0.000000e+00
 0.000000e+00 8.794469e-01 1.205532e-01 0.000000e+00 0.000000e+00
 0.000000e+00 0.000000e+00 9.224966e-01 7.750350e-02 0.000000e+00
 0.000000e+00 0.000000e+00 0.000000e+00 9.416201e-01 5.837994e-02
 0.000000e+00 0.000000e+00 0.000000e+00 0.000000e+00 0.000000e+00
<ENDHMM>
~h "s"
<BEGINHMM>
<NUMSTATES> 5
<STATE> 2
<MEAN> 39
 -1.317389e+01 -1.314415e+00 -8.614463e+00 -4.686396e+00 -4.316030e+00 -7.506389e+00 -1.858580e+00 -5.332066e+00 -1.255447e+00 -7.655324e+00 -1.404441e+00 -3.554466e+00 6.368165e+01 -1.202388e-01 -8.646643e-01 -5.035889e-02 -6.491720e-01 -4.233660e-01 4.361092e-01 -3.975807e-01 3.694039e-02 8.391944e-01 -2.284791e-01 1.320140e-01 -5.850004e-01 1.512614e+00 1.028771e-01 -2.385829e-01 -3.124753e-02 -3.113220e-02 7.214930e-02 2.954772e-01 -1.880473e-01 1.684581e-01 2.102121e-01 -1.251928e-01 -1.251852e-01 -1.004978e-01 7.250260e-02
<VARIANCE> 39
 1.960883e+02 4.808687e+01 1.340348e+01 2.566484e+01 2.710573e+01 3.677262e+01 4.751756e+01 1.978189e+01 4.002295e+01 2.149854e+01 2.726236e+01 2.335727e+01 4.481548e+01 2.002160e+01 5.090299e+00 1.742688e+00 3.768805e+00 2.400245e+00 5.681342e+00 6.181181e+00 2.722613e+00 4.945226e+00 2.960881e+00 3.419663e+00 2.987298e+00 3.995541e+00 2.378888e+00 8.933416e-01 3.888644e-01 6.269816e-01 5.341714e-01 9.725249e-01 7.435107e-01 4.102443e-01 8.038507e-01 4.689431e-01 5.263692e-01 6.182615e-01 5.504792e-01
<GCONST> 1.305764e+02
<STATE> 3
<MEAN> 39
 -5.009560e+00 -1.116611e+01 -1.157209e+00 -1.194385e+01 -8.266586e+00 -2.317047e+00 -1.013431e+01 1.635089e+00 4.121313e+00 -1.510770e+01 1.356081e+00 -9.750074e+00 7.703886e+01 -3.367202e-02 -1.636024e-01 8.679283e-02 -6.882104e-02 -1.356621e-01 2.131867e-02 -3.891230e-02 2.450886e-01 -1.612165e-01 1.883914e-01 -1.342331e-02 -3.191498e-02 1.544479e-01 -1.125614e-01 1.260616e-01 -9.640816e-02 4.266926e-02 1.010579e-01 -2.621821e-02 1.048544e-01 -1.050943e-01 -9.191912e-02 1.533887e-01 8.680280e-03 4.208129e-03 -1.452971e-01
<VARIANCE> 39
 8.650706e+01 8.561051e+01 4.372408e+01 1.786263e+01 5.458587e+01 5.654888e+01 1.169503e+02 2.896266e+01 7.646130e+01 9.847704e+01 3.016709e+01 3.939656e+01 2.885670e+01 6.642872e+00 4.944273e+00 3.161289e+00 1.920797e+00 5.078333e+00 3.106947e+00 4.338130e+00 2.095414e+00 4.108766e+00 5.488264e+00 3.328992e+00 2.634619e+00 2.159252e+00 1.188598e+00 6.437261e-01 4.837404e-01 5.231103e-01 8.272964e-01 4.972601e-01 6.780953e-01 4.161727e-01 7.604590e-01 7.232987e-01 5.233776e-01 4.577774e-01 3.929972e-01
<GCONST> 1.323423e+02
<STATE> 4
<MEAN> 39
 4.281799e+00 -1.436347e+01 -9.855774e+00 -1.822393e+01 -9.828658e+00 1.027856e+01 -1.091373e+01 -1.222901e+00 3.001992e+00 -3.542135e+00 -1.465899e+00 -1.617326e+01 7.459216e+01 6.934294e-01 5.849317e-01 -7.360852e-01 -2.293084e-01 9.186097e-01 2.512618e+00 8.939886e-01 -1.060938e+00 -1.113084e+00 4.563699e-01 2.367847e-01 7.382492e-01 -1.831297e+00 -2.976877e-01 2.590750e-01 4.224924e-01 4.866346e-01 -3.390083e-01 -3.699096e-01 9.161520e-02 5.694811e-02 -3.313790e-01 -2.617002e-01 2.050289e-01 5.775467e-01 -1.686766e-01
<VARIANCE> 39
 2.117621e+01 1.860276e+01 1.048744e+01 1.625939e+01 2.173348e+01 6.361638e+01 3.081860e+01 2.408249e+01 5.470705e+01 3.362020e+01 5.341391e+01 4.044986e+01 5.218660e+01 1.257356e+00 1.865346e+00 2.375668e+00 2.972990e+00 3.764095e+00 4.130333e+00 1.758074e+00 2.185337e+00 3.565144e+00 3.337576e+00 4.501531e+00 7.537544e+00 2.266759e+00 1.154298e-01 5.963522e-01 4.055775e-01 3.454071e-01 4.918891e-01 6.741815e-01 5.551227e-01 4.644319e-01 1.120187e+00 5.512397e-01 1.045307e+00 1.334573e+00 6.814827e-01
<GCONST> 1.218665e+02
<TRANSP> 5
 0.000000e+00 1.000000e+00 0.000000e+00 0.000000e+00 0.000000e+00
 0.000000e+00 9.425101e-01 5.748985e-02 0.000000e+00 0.000000e+00
 0.000000e+00 0.000000e+00 9.352024e-01 6.479752e-02 0.000000e+00
 0.000000e+00 0.000000e+00 0.000000e+00 7.434614e-01 2.565385e-01
 0.000000e+00 0.000000e+00 0.000000e+00 0.000000e+00 0.000000e+00
<ENDHMM>
~h "u"
<BEGINHMM>
<NUMSTATES> 5
<STATE> 2
<MEAN> 39
 -1.412300e+01 -3.644686e+00 -1.125706e+01 -3.287888e+00 -9.002646e+00 -3.485259e+00 -8.733727e+00 -3.894968e+00 -5.251549e+00 -3.581038e+00 -3.740428e+00 -4.224760e+00 3.742010e+01 1.900600e+00 8.581746e-01 -1.674899e+00 -3.101576e+00 2.204052e+00 -4.240056e-01 1.097832e+00 1.214924e+00 -1.240322e+00 1.739313e+00 -4.928454e-01 3.781908e-01 2.770117e+00 1.422108e+00 6.414429e-01 -6.533886e-01 -1.809948e+00 9.820669e-01 3.365134e-02 7.652909e-01 3.957498e-01 -9.071103e-01 7.319916e-01 -1.661512e-01 1.660898e-01 2.152090e+00
<VARIANCE> 39
 1.188112e+00 4.075788e+00 5.870078e+00 5.172668e+00 1.073048e+01 1.146479e+01 1.080139e+01 1.153675e+01 1.478286e+01 1.591194e+01 1.618390e+01 1.271878e+01 3.634416e+00 3.009816e+00 1.680415e+00 3.005682e+00 6.923798e+00 4.722682e+00 2.209637e+00 3.515531e+00 2.560383e+00 4.308272e+00 3.928139e+00 1.751695e+00 1.892029e+00 4.832219e+00 1.064921e-01 1.605631e-01 2.222141e-01 3.781889e-01 6.017388e-01 3.876389e-01 4.345193e-01 4.058233e-01 5.645314e-01 4.557890e-01 5.094460e-01 3.686312e-01 2.505170e-01
<GCONST> 9.903443e+01
<STATE> 3
<MEAN> 39
 -7.479638e+00 3.047437e-01 -9.994082e+00 -4.044209e+00 -6.298531e+00 -2.221330e+00 -6.283418e+00 -1.907223e+00 -4.609644e+00 -1.177051e+00 -3.142120e+00 -2.210608e+00 4.201747e+01 2.635393e+00 1.213025e+00 -2.894570e+00 -5.319699e+00 3.059740e+00 -5.746741e-01 2.038335e+00 1.615225e+00 -2.551094e+00 2.438033e+00 -1.025147e+00 5.383340e-01 4.728863e+00 5.555496e-01 -2.340288e-01 2.408831e-01 -6.619675e-01 -5.983077e-01 3.073429e-01 -2.090797e-01 -6.379662e-01 -2.010387e-01 -4.089788e-01 6.115452e-01 -3.720851e-01 1.378797e+00
<VARIANCE> 39
 6.624528e+01 3.101871e+01 2.340783e+01 2.439402e+01 3.426598e+01 1.406328e+01 2.094945e+01 1.671848e+01 1.709544e+01 1.763780e+01 1.188696e+01 1.256085e+01 3.196214e+01 1.104352e+01 4.132047e+00 5.754615e+00 1.556710e+01 7.887625e+00 3.938697e+00 4.845433e+00 4.063518e+00 6.891364e+00 6.009333e+00 2.974720e+00 2.566786e+00 1.445033e+01 1.853463e+00 4.514016e-01 5.653483e-01 6.938133e-01 1.380434e+00 4.642467e-01 5.676904e-01 6.595343e-01 5.100931e-01 5.111857e-01 6.287341e-01 4.084742e-01 1.869559e+00
<GCONST> 1.304081e+02
<STATE> 4
<MEAN> 39
 2.017458e+00 -3.799496e+00 -1.479815e+01 -2.490948e+01 -7.638161e+00 -6.945200e-02 -4.717898e+00 -4.319233e+00 -9.328357e+00 1.022043e+00 3.949243e+00 -6.188131e+00 7.331341e+01 7.831152e-01 -1.904686e+00 1.006572e+00 -1.058928e+00 -1.789117e+00 1.568895e+00 -3.687645e-01 -1.374809e+00 1.909442e+00 -4.873529e-01 1.941331e+00 -1.517141e+00 5.400696e+00 -8.574439e-01 -3.700462e-01 2.159129e-01 9.528012e-01 6.396303e-02 2.429238e-01 -1.940608e-01 -8.585229e-02 8.056878e-01 -2.058039e-01 -6.064063e-01 -2.281746e-01 -9.310063e-01
<VARIANCE> 39
 1.874837e+01 4.904073e+01 5.980533e+01 3.072175e+01 1.163950e+02 6.210929e+01 5.417661e+01 6.458543e+01 7.277800e+01 5.825702e+01 1.216826e+02 4.565284e+01 1.160429e+02 9.402752e+00 4.322077e+00 5.175641e+00 9.971538e+00 1.352534e+01 4.919912e+00 6.939446e+00 6.406648e+00 9.903730e+00 7.821571e+00 1.764736e+01 3.900464e+00 7.623609e+00 8.582630e-01 1.215735e+00 1.892453e+00 1.733863e+00 4.965297e+00 1.230551e+00 1.817569e+00 1.883999e+00 2.042074e+00 2.200596e+00 4.928296e+00 9.455001e-01 6.096424e-01
<GCONST> 1.578638e+02
<TRANSP> 5
 0.000000e+00 1.000000e+00 0.000000e+00 0.000000e+00 0.000000e+00
 0.000000e+00 3.971870e-01 6.028130e-01 0.000000e+00 0.000000e+00
 0.000000e+00 0.000000e+00 3.639091e-01 6.360909e-01 0.000000e+00
 0.000000e+00 0.000000e+00 0.000000e+00 8.458507e-01 1.541492e-01
 0.000000e+00 0.000000e+00 0.000000e+00 0.000000e+00 0.000000e+00
<ENDHMM>
~h "x"
<BEGINHMM>
<NUMSTATES> 5
<STATE> 2
<MEAN> 39
 -9.060072e-01 -1.321642e+01 -8.358672e+00 5.700356e-02 -3.303981e+00 -1.828132e+00 -1.695970e+00 -4.964706e+00 2.011683e+00 -1.809900e+00 -4.661370e-01 -6.724730e+00 6.992223e+01 -4.849930e+00 -1.130378e+00 1.208859e+00 2.094149e+00 4.037329e+00 -4.036865e+00 5.992301e-01 1.363250e+00 1.764909e+00 -2.100829e-01 -9.226879e-01 7.265059e-01 7.318467e-01 -7.122263e-01 -2.581353e-01 1.868434e-02 -6.290945e-01 -1.759783e-01 3.132977e-01 -2.820558e-01 -6.349094e-03 1.576575e-01 -1.937622e-01 7.059121e-02 -3.034056e-01 1.256792e-01
<VARIANCE> 39
 9.727297e+01 8.263024e+00 2.578620e+01 3.278649e+01 1.022934e+02 8.095271e+01 2.056523e+01 2.629077e+01 2.949314e+01 2.235121e+01 1.532612e+01 2.003871e+01 1.547976e+01 5.909450e+00 9.330477e-01 2.191873e+00 4.599780e+00 5.920943e+00 4.484233e+00 2.585699e+00 2.402575e+00 2.509017e+00 2.585844e+00 1.794638e+00 2.701478e+00 8.464479e-01 1.590155e+00 1.200069e-01 6.716905e-01 5.175965e-01 2.478687e+00 1.153832e+00 4.160921e-01 5.876544e-01 6.978061e-01 5.209557e-01 3.131414e-01 4.554383e-01 2.071096e-01
<GCONST> 1.201796e+02
<STATE> 3
<MEAN> 39
 -2.082505e+01 -1.761376e+01 -2.734060e+00 6.751467e+00 4.949637e+00 -1.750571e+01 -4.647666e+00 -1.715053e-01 7.311386e+00 -5.169446e+00 -3.063241e+00 -3.635817e+00 7.108018e+01 1.003808e+00 5.204498e-01 1.280349e-01 -1.014488e-03 -3.223056e-01 -9.396099e-01 -1.060706e+00 -2.514126e-01 -1.194216e-01 -5.560123e-01 -1.278393e-01 3.602348e-01 5.833996e-02 5.203785e-01 1.309173e-01 -8.922166e-02 -1.054267e-01 -9.556007e-02 7.408714e-02 -1.338116e-01 -9.352548e-02 -9.067593e-02 -1.052333e-01 7.028899e-03 2.992096e-02 2.022165e-02
<VARIANCE> 39
 6.103795e+01 2.602564e+01 1.635472e+01 1.543512e+01 1.842876e+01 2.472883e+01 3.522190e+01 2.148045e+01 1.394896e+01 1.787696e+01 1.306910e+01 1.114418e+01 1.075851e+01 9.814507e+00 2.655159e+00 1.608160e+00 1.918844e+00 1.692683e+00 1.804911e+00 3.108310e+00 2.155635e+00 1.619704e+00 2.109966e+00 1.472610e+00 1.127912e+00 9.846870e-01 9.597374e-01 4.707732e-01 2.747442e-01 2.952985e-01 4.136484e-01 3.683519e-01 4.274405e-01 3.361915e-01 3.545271e-01 3.709128e-01 2.907495e-01 2.193041e-01 1.949949e-01
<GCONST> 1.057887e+02
<STATE> 4
<MEAN> 39
 5.812903e+00 -1.242872e+01 -6.623360e+00 2.969749e+00 -2.277692e+00 -2.224451e+01 -2.752767e+01 4.113603e-01 8.111243e+00 -1.587582e+01 8.093755e-01 -2.003099e+00 7.293790e+01 5.674912e-01 -2.794894e-01 -5.927079e-01 -3.666312e-02 -3.247381e-01 5.845131e-01 -9.486001e-01 1.036453e+00 2.655741e-01 -3.831272e-01 8.256464e-01 -4.164158e-01 -2.346683e-01 -1.880332e-01 3.935089e-02 3.616349e-02 4.409288e-02 8.055188e-02 5.254513e-02 2.938951e-01 6.967846e-02 -1.424252e-02 1.860269e-01 -4.700232e-02 -2.974546e-02 -1.665359e-01
<VARIANCE> 39
 1.486846e+01 1.047722e+01 1.854545e+01 8.686341e+00 2.678064e+01 4.330729e+01 9.078643e+01 7.022025e+01 2.091336e+01 2.854903e+01 5.780795e+01 2.147585e+01 6.756101e+00 3.798536e-01 4.298087e-01 6.363997e-01 6.232736e-01 1.670736e+00 2.034808e+00 3.994420e+00 2.097243e+00 1.218589e+00 2.436620e+00 2.247692e+00 1.588777e+00 3.588482e-01 2.358385e-01 1.234482e-01 1.323886e-01 1.536985e-01 3.043647e-01 3.216158e-01 7.944990e-01 3.171020e-01 2.387205e-01 5.206246e-01 5.233833e-01 2.982434e-01 8.249817e-02
<GCONST> 9.742744e+01
<TRANSP> 5
 0.000000e+00 1.000000e+00 0.000000e+00 0.000000e+00 0.000000e+00
 0.000000e+00 7.993351e-01 2.006649e-01 0.000000e+00 0.000000e+00
 0.000000e+00 0.000000e+00 9.358482e-01 6.415179e-02 0.000000e+00
 0.000000e+00 0.000000e+00 0.000000e+00 9.475502e-01 5.244979e-02
 0.000000e+00 0.000000e+00 0.000000e+00 0.000000e+00 0.000000e+00
<ENDHMM>
~h "ai"
<BEGINHMM>
<NUMSTATES> 5
<STATE> 2
<MEAN> 39
 -1.069893e+01 -1.788852e+01 -9.586810e+00 -6.732530e+00 7.721727e+00 -1.948550e+01 4.068433e+00 -2.324042e+00 -4.169942e-01 -2.295775e+00 -5.878353e+00 -2.088683e-01 6.714683e+01 7.396493e-01 -7.316232e-01 8.971968e-01 1.438722e-01 3.919464e-01 4.556258e-01 1.820079e+00 2.263918e-01 2.464791e-01 -1.109883e+00 5.954605e-01 -4.231924e-01 3.691111e+00 4.131332e-01 5.098094e-01 3.129229e-02 1.154563e-01 -1.181520e+00 2.008441e+00 -7.708944e-01 -1.776402e-01 -3.836721e-01 -4.306117e-01 1.836751e-01 -7.409288e-01 -6.791738e-01
<VARIANCE> 39
 1.033742e+01 2.575235e+01 2.890754e+01 2.700123e+01 2.263529e+01 8.359348e+01 2.981919e+01 2.490117e+01 2.034027e+01 3.180988e+01 2.892122e+01 1.909756e+01 2.730254e+01 2.785079e+00 4.044136e+00 3.236519e+00 2.456259e+00 8.592212e+00 3.551837e+01 4.678462e+00 3.098629e+00 3.369434e+00 3.581188e+00 3.074773e+00 5.594821e+00 8.171045e+00 5.756687e-01 7.487445e-01 8.229184e-01 5.566626e-01 6.082032e-01 4.520039e+00 6.198827e-01 5.379390e-01 5.526292e-01 6.412085e-01 7.806958e-01 8.955794e-01 1.172109e+00
<GCONST> 1.315504e+02
<STATE> 3
<MEAN> 39
 -6.958318e+00 -1.535289e+01 -1.093294e+01 -1.005166e+01 -7.154134e+00 -4.962865e+00 4.127858e+00 9.239649e-01 -1.022670e+00 -1.238427e+01 -8.273714e+00 -3.123600e+00 8.505117e+01 -5.410482e-02 2.876568e-01 9.257267e-02 -5.767743e-01 -1.763686e+00 1.754200e-01 -1.654712e-01 6.094006e-01 3.005819e-01 -5.731748e-01 1.241454e-02 -8.315039e-02 1.192447e+00 -9.546995e-02 1.879837e-03 1.461282e-01 -2.630296e-02 1.360781e-02 -2.743084e-01 -8.523281e-02 -1.092552e-02 1.095269e-01 1.639274e-01 1.864936e-01 -1.331479e-02 -2.349977e-01
<VARIANCE> 39
 1.254583e+01 9.020090e+00 1.190087e+01 1.566301e+01 4.543726e+01 1.940481e+01 2.597928e+01 2.490937e+01 1.521282e+01 1.563653e+01 2.354388e+01 2.201221e+01 2.978711e+01 1.536166e+00 7.671911e-01 2.114631e+00 1.136414e+00 1.916706e+00 2.810510e+00 2.413036e+00 2.057179e+00 1.169453e+00 1.663861e+00 3.506234e+00 2.969473e+00 2.761118e+00 3.569756e-01 1.445917e-01 2.797397e-01 2.565114e-01 3.534937e-01 5.375367e-01 5.069966e-01 4.560671e-01 2.180685e-01 2.721055e-01 5.183671e-01 6.234376e-01 2.679845e-01
<GCONST> 1.043618e+02
<STATE> 4
<MEAN> 39
 -5.335926e+00 -1.248323e+01 2.193670e-01 -1.136484e+01 -2.133987e+01 -7.765399e+00 -4.454921e+00 9.896789e-01 2.435637e+00 -1.303946e+01 4.467671e+00 -1.024009e+01 8.353767e+01 1.100072e-01 9.657255e-01 1.287512e+00 7.547722e-01 5.691761e-01 -3.648607e-01 -1.248626e+00 -1.108847e+00 -3.469295e-01 2.534617e-01 7.170224e-01 -2.710669e-01 -1.480077e+00 -2.281393e-01 2.315824e-01 -1.898080e-01 2.297400e-01 5.684454e-01 5.600457e-02 3.878562e-01 -4.846029e-02 -1.954916e-01 2.480364e-03 -5.369766e-01 3.763785e-01 -3.726220e-01
<VARIANCE> 39
 1.118101e+01 2.330314e+01 2.257722e+01 1.365277e+01 4.790780e+01 2.480360e+01 3.503691e+01 4.054111e+01 1.081579e+01 2.149901e+01 4.256039e+01 2.169944e+01 2.322578e+01 1.278549e+00 1.651424e+00 1.246064e+00 1.463470e+00 5.320234e+00 1.654685e+00 4.167499e+00 2.111480e+00 1.788370e+00 2.350821e+00 6.378713e+00 3.186257e+00 1.831129e+00 2.179405e-01 2.178435e-01 1.527266e-01 1.819310e-01 4.777820e-01 3.167391e-01 8.005205e-01 4.316172e-01 2.814584e-01 4.695804e-01 6.728597e-01 3.932187e-01 1.768329e-01
<GCONST> 1.088156e+02
<TRANSP> 5
 0.000000e+00 1.000000e+00 0.000000e+00 0.000000e+00 0.000000e+00
 0.000000e+00 8.051261e-01 1.948738e-01 0.000000e+00 0.000000e+00
 0.000000e+00 0.000000e+00 9.207970e-01 7.920303e-02 0.000000e+00
 0.000000e+00 0.000000e+00 0.000000e+00 8.807326e-01 1.192674e-01
 0.000000e+00 0.000000e+00 0.000000e+00 0.000000e+00 0.000000e+00
<ENDHMM>
~h "an"
<BEGINHMM>
<NUMSTATES> 5
<STATE> 2
<MEAN> 39
 -3.944731e+00 -1.378433e+01 -1.180829e+01 -1.760616e+01 -3.979238e+00 6.531888e+00 -1.211708e+01 -6.473613e+00 9.737935e+00 -7.590986e+00 -7.249198e+00 -1.302858e+01 8.421535e+01 -2.106484e-01 -7.659635e-02 1.225084e-01 9.363493e-01 4.477510e-01 -4.389862e-01 -1.183319e+00 4.600406e-01 1.295568e+00 -1.775645e+00 -9.084333e-01 -2.071616e-01 1.682018e-03 2.012423e-01 1.453959e-01 1.285396e-01 1.116401e-01 -3.559793e-01 -3.111185e-01 -8.104700e-02 1.111835e-01 -1.000533e-01 -3.520112e-01 5.779855e-01 6.060505e-02 -1.851745e-01
<VARIANCE> 39
 1.425384e+01 1.055412e+01 4.469753e+00 3.050336e+01 1.719979e+01 3.389080e+01 4.221224e+01 2.054444e+01 3.432006e+01 6.622428e+01 7.046488e+01 2.813311e+01 6.966550e+01 5.826991e-01 6.969053e-01 5.201881e-01 1.015754e+00 3.176781e+00 3.311812e+00 1.284034e+00 2.018511e+00 1.916957e+00 3.004126e+00 7.016649e+00 1.909284e+00 2.670075e-01 8.206986e-02 1.026546e-01 7.560051e-02 1.505724e-01 2.801796e-01 3.648328e-01 3.453552e-01 3.340994e-01 2.933386e-01 3.770007e-01 5.531924e-01 4.029358e-01 7.179281e-02
<GCONST> 9.906643e+01
<STATE> 3
<MEAN> 39
 -1.082846e+00 -1.251853e+01 -7.798018e+00 -9.213506e+00 -8.452559e+00 -1.950627e+00 -1.799446e+01 -1.442738e+00 1.538325e+01 -2.384716e+01 4.340021e-01 -1.510831e+01 7.832256e+01 1.103212e+00 4.331227e-01 1.710573e+00 1.465431e+00 -8.541741e-01 -1.467763e+00 1.591319e-01 -7.314628e-01 -1.503547e+00 -8.454742e-02 1.227562e+00 -1.071702e-01 -1.832846e+00 1.286482e-01 2.973040e-02 4.138529e-01 1.791383e-01 1.973176e-01 2.028351e-02 2.226793e-01 -4.266365e-01 -9.898005e-01 1.045767e+00 -5.401303e-01 1.613511e-01 -3.157631e-01
<VARIANCE> 39
 1.510236e+01 2.126152e+01 1.141329e+01 1.774987e+01 1.258620e+01 5.255746e+01 3.745790e+01 1.867456e+01 5.578688e+01 5.254560e+01 4.405687e+01 5.858097e+01 9.170224e+01 7.123013e-01 8.840291e-01 2.231786e+00 1.946872e+00 1.086191e+00 1.711758e+00 1.896243e+00 2.471686e+00 7.694350e+00 8.723453e+00 4.688172e+00 3.664897e+00 1.407264e+00 1.248156e-01 1.653397e-01 2.527170e-01 3.137800e-01 1.653777e-01 4.546603e-01 2.701374e-01 3.530954e-01 8.208287e-01 8.396226e-01 5.108930e-01 4.292594e-01 1.499586e-01
<GCONST> 1.115864e+02
<STATE> 4
<MEAN> 39
 1.766536e+00 -7.332840e+00 3.149878e+00 -3.930583e+00 -1.407931e+01 -5.745190e+00 -1.273692e+01 -6.830345e+00 -2.003757e+00 -1.325615e+01 -3.732288e-01 -8.285468e+00 6.780463e+01 -2.091843e-01 1.634611e-01 2.269098e-01 -2.813753e-01 -3.061688e-01 1.722312e-02 3.079132e-01 2.477051e-01 -4.765424e-01 7.127916e-01 4.250687e-04 9.822398e-02 9.723016e-02 -1.681609e-01 -2.058748e-02 -3.121901e-01 -1.661276e-01 1.971868e-01 5.311899e-02 5.195075e-02 1.688008e-01 3.420517e-01 -6.390261e-02 -1.458910e-01 -3.129170e-02 2.319564e-01
<VARIANCE> 39
 5.415860e+01 4.651975e+01 2.721623e+01 4.217955e+01 8.360234e+01 4.454283e+01 4.196140e+01 8.905258e+01 2.328165e+01 2.976708e+01 5.891688e+01 4.441135e+01 1.219732e+02 3.903135e+00 2.997541e+00 4.093796e+00 3.950941e+00 9.786078e+00 4.032187e+00 2.852218e+00 4.988852e+00 5.894237e+00 3.204063e+00 5.494247e+00 2.455797e+00 8.143845e+00 6.157395e-01 4.127841e-01 4.534736e-01 6.632389e-01 2.060233e+00 6.216046e-01 5.570945e-01 7.823073e-01 4.442254e-01 5.356676e-01 1.043551e+00 3.838277e-01 1.078327e+00
<GCONST> 1.359996e+02
<TRANSP> 5
 0.000000e+00 1.000000e+00 0.000000e+00 0.000000e+00 0.000000e+00
 0.000000e+00 8.501847e-01 1.498153e-01 0.000000e+00 0.000000e+00
 0.000000e+00 0.000000e+00 7.430556e-01 2.569444e-01 0.000000e+00
 0.000000e+00 0.000000e+00 0.000000e+00 8.700878e-01 1.299122e-01
 0.000000e+00 0.000000e+00 0.000000e+00 0.000000e+00 0.000000e+00
<ENDHMM>
~h "ao"
<BEGINHMM>
<NUMSTATES> 5
<STATE> 2
<MEAN> 39
 -5.822366e+00 -9.677171e+00 -2.006437e+01 -1.444463e+01 -3.143095e+00 1.052510e+01 -2.816005e+00 -2.364667e+00 -4.588710e+00 -8.663210e+00 -5.053350e+00 -4.391629e+00 4.822599e+01 -8.309858e-01 5.371448e-01 2.239549e-01 5.863508e-01 -5.590328e-01 -1.194811e+00 2.079702e-01 -1.926029e-02 -2.615871e-01 1.061339e-01 -3.327072e-01 -9.125827e-02 -1.021685e+00 3.483864e-02 1.327314e-01 4.783529e-01 2.516584e-01 -3.243554e-02 -2.000728e-01 -1.867036e-01 4.835238e-02 6.884317e-02 8.404775e-02 9.042472e-02 -3.720260e-03 9.231959e-02
<VARIANCE> 39
 1.817112e+01 1.477785e+01 2.873548e+01 5.559937e+01 1.778891e+01 1.139608e+02 6.963895e+01 2.113671e+01 2.588906e+01 2.218130e+01 1.786150e+01 1.289207e+01 2.341993e+01 1.142908e+00 1.435646e+00 3.834340e+00 2.794576e+00 1.848405e+00 3.277691e+00 3.891344e+00 2.017303e+00 1.973093e+00 2.150527e+00 1.924817e+00 1.350344e+00 6.012173e-01 1.774113e-01 1.748555e-01 2.823229e-01 3.546751e-01 2.931023e-01 5.067038e-01 6.861092e-01 3.671296e-01 4.152649e-01 5.028043e-01 4.032925e-01 2.578866e-01 1.300413e-01
<GCONST> 1.081919e+02
<STATE> 3
<MEAN> 39
 -1.146036e+01 -7.130759e+00 -1.265896e+01 -2.740405e+00 -5.832401e+00 -7.209379e+00 -1.202563e+01 -2.110665e+00 -1.954023e+00 -5.194811e+00 -6.815619e+00 -4.163709e+00 4.269273e+01 -6.866837e-01 3.168275e-01 5.637292e-01 4.169888e-02 -2.396763e-01 3.525415e-01 4.564144e-01 -2.754297e-01 -4.350451e-01 3.396126e-01 2.569064e-01 -4.349348e-02 -6.127161e-01 2.173961e-01 1.236135e-01 8.662184e-02 7.631365e-02 1.622584e-01 2.406589e-01 2.397317e-01 1.053982e-01 -1.703715e-02 -6.623571e-03 1.525177e-01 1.046342e-01 1.579847e-01
<VARIANCE> 39
 1.000079e+01 9.004550e+00 1.032018e+01 2.302470e+01 1.213721e+01 5.087757e+01 4.702376e+01 1.666393e+01 2.660569e+01 1.512181e+01 1.881741e+01 1.264998e+01 1.701846e+01 6.191822e-01 8.044205e-01 1.344036e+00 1.788620e+00 1.469587e+00 2.947496e+00 2.408848e+00 1.592042e+00 2.209381e+00 1.942710e+00 1.794970e+00 1.141703e+00 2.118314e-01 5.809681e-02 1.166548e-01 2.136153e-01 2.728336e-01 3.281259e-01 3.777707e-01 3.495310e-01 2.931039e-01 3.769927e-01 3.831083e-01 3.749259e-01 2.193520e-01 3.353960e-02
<GCONST> 9.262350e+01
<STATE> 4
<MEAN> 39
 -7.213615e+00 3.944487e+00 -4.152271e+00 7.596024e-01 -5.706186e+00 -1.449698e+00 -7.731149e+00 -3.346373e+00 -4.780593e+00 -3.278248e+00 -3.214400e+00 -2.997574e+00 4.190544e+01 8.055747e-03 2.151972e-01 2.015093e-01 2.063939e-01 5.688760e-02 2.494081e-02 4.195007e-02 -2.714983e-02 -3.492664e-02 1.118879e-01 1.139423e-01 6.260606e-02 -5.002254e-02 -1.713833e-02 -7.484502e-02 -7.735582e-02 -6.905241e-02 -1.665204e-02 -1.628560e-02 -8.285626e-03 -8.939059e-03 -2.018711e-02 -3.276177e-02 -1.310412e-02 -6.035474e-03 2.875843e-02
<VARIANCE> 39
 2.646656e+01 3.654735e+01 2.567639e+01 2.568493e+01 2.040974e+01 2.168098e+01 1.909561e+01 1.645619e+01 1.613784e+01 1.321588e+01 1.310737e+01 1.216131e+01 1.200282e+01 1.693614e+00 2.185580e+00 2.089493e+00 1.833347e+00 1.978527e+00 2.197203e+00 1.882056e+00 1.835175e+00 1.690725e+00 1.488768e+00 1.377425e+00 1.275785e+00 4.393839e-01 2.606573e-01 3.554237e-01 4.172517e-01 3.717295e-01 4.200630e-01 4.514726e-01 3.579586e-01 3.761648e-01 3.420782e-01 2.855509e-01 2.684740e-01 2.649044e-01 1.082046e-01
<GCONST> 1.007268e+02
<TRANSP> 5
 0.000000e+00 1.000000e+00 0.000000e+00 0.000000e+00 0.000000e+00
 0.000000e+00 7.386144e-01 2.613857e-01 0.000000e+00 0.000000e+00
 0.000000e+00 0.000000e+00 7.904311e-01 2.095690e-01 0.000000e+00
 0.000000e+00 0.000000e+00 0.000000e+00 8.862027e-01 1.137974e-01
 0.000000e+00 0.000000e+00 0.000000e+00 0.000000e+00 0.000000e+00
<ENDHMM>
~h "en"
<BEGINHMM>
<NUMSTATES> 5
<STATE> 2
<MEAN> 39
 6.354971e+00 -3.162623e+00 -5.847107e+00 -2.073203e+01 -1.882817e+01 1.155563e+01 -1.382777e+01 3.696805e+00 8.518742e+00 -2.283066e+01 1.027273e+01 -1.084707e+01 7.033294e+01 1.867542e-01 8.548121e-01 1.472645e-01 9.057671e-01 6.969082e-01 -8.687785e-01 4.136360e-01 1.378917e-01 -5.675665e-01 8.172653e-01 -2.109965e-01 -6.987422e-01 -1.624256e+00 -1.609649e-01 1.183615e-01 4.596151e-02 1.723208e-01 1.673124e-01 -1.996601e-02 1.186644e-01 -1.449454e-01 -2.181727e-01 3.106802e-01 -3.633809e-01 2.116087e-01 -1.985663e-01
<VARIANCE> 39
 3.944624e+00 7.858419e+00 7.365368e+00 4.617945e+01 5.917389e+01 7.497280e+01 1.628963e+01 2.253591e+01 1.783231e+01 3.588007e+01 4.136926e+01 5.330438e+01 3.146861e+01 3.034582e-01 1.646215e+00 3.612549e-01 8.531024e-01 9.202809e-01 8.274305e-01 1.011767e+00 1.036333e+00 1.612434e+00 2.498637e+00 4.581479e+00 2.749264e+00 1.632650e+00 1.158375e-01 1.166447e-01 7.680627e-02 2.162358e-01 1.076357e-01 1.788272e-01 1.643752e-01 1.897358e-01 2.114516e-01 2.089861e-01 5.409219e-01 2.436005e-01 5.043133e-02
<GCONST> 9.122010e+01
<STATE> 3
<MEAN> 39
 3.822616e+00 3.031858e+00 -2.053109e+00 -3.653419e+00 -4.023150e+00 -2.892278e-02 -1.049940e+01 3.448172e+00 9.755068e-01 -1.111705e+01 -4.581972e+00 -8.635998e+00 5.332079e+01 -1.846169e+00 5.519811e-01 -3.684521e-01 2.107114e+00 8.012667e-01 -1.319683e-01 1.206883e+00 -7.325387e-01 -1.135691e+00 1.778827e+00 -2.344301e+00 1.576185e+00 -3.004492e+00 -5.269424e-01 -9.388192e-01 -5.532865e-01 -6.051267e-01 -4.141131e-01 -1.372769e-01 -1.880800e-01 -8.345670e-02 3.758934e-01 -2.696993e-01 6.387537e-01 -2.227839e-01 3.976576e-01
<VARIANCE> 39
 1.159526e+01 2.204321e+01 1.302107e+01 9.840005e+01 4.184771e+01 5.224179e+01 2.475383e+01 2.656102e+01 1.991729e+01 2.629440e+01 4.305972e+01 3.161146e+01 1.696653e+01 1.236366e+00 3.249867e+00 2.197326e+00 3.202749e+00 2.167287e+00 1.805208e+00 2.191186e+00 2.319761e+00 2.881239e+00 1.579082e+00 4.137516e+00 1.938454e+00 8.445409e-01 1.884520e-01 1.854744e-01 2.383677e-01 7.303378e-01 3.816934e-01 2.906178e-01 3.971524e-01 3.628776e-01 4.065099e-01 2.798322e-01 4.301386e-01 3.901958e-01 7.830704e-02
<GCONST> 1.088797e+02
<STATE> 4
<MEAN> 39
 -3.773415e+00 2.504174e-01 -6.237210e+00 -1.375167e+00 -5.844928e+00 -3.335740e+00 -8.400383e+00 -9.181963e-01 -2.183827e+00 -5.862919e+00 -6.701721e+00 -4.048210e+00 4.622856e+01 -6.837049e-01 -1.555824e-01 -3.506095e-01 -4.997096e-01 -5.265201e-01 -1.533017e-02 3.065552e-01 -4.313008e-01 -4.261438e-01 2.242511e-01 2.400403e-01 1.146768e-01 -5.359101e-01 2.180730e-01 8.992384e-02 1.262514e-01 -5.448914e-02 -2.803775e-02 1.092248e-02 -2.372826e-02 2.693970e-02 -3.163383e-02 -1.138307e-01 1.251841e-01 -5.677214e-02 2.098144e-01
<VARIANCE> 39
 5.084267e+01 3.900199e+01 2.013117e+01 2.354489e+01 2.469491e+01 2.194365e+01 2.315201e+01 2.240038e+01 2.701054e+01 1.667037e+01 2.494438e+01 1.788323e+01 1.521268e+01 2.479114e+00 1.887826e+00 2.088544e+00 1.981667e+00 1.677142e+00 2.116199e+00 1.758046e+00 1.939001e+00 2.267152e+00 1.693578e+00 2.338572e+00 1.691297e+00 8.653086e-01 2.212318e-01 2.423104e-01 3.244856e-01 3.887451e-01 3.122727e-01 3.499796e-01 3.498487e-01 3.926676e-01 5.223472e-01 3.813735e-01 4.707372e-01 3.504138e-01 9.636086e-02
<GCONST> 1.059916e+02
<TRANSP> 5
 0.000000e+00 1.000000e+00 0.000000e+00 0.000000e+00 0.000000e+00
 0.000000e+00 8.205976e-01 1.794024e-01 0.000000e+00 0.000000e+00
 0.000000e+00 0.000000e+00 7.430029e-01 2.569971e-01 0.000000e+00
 0.000000e+00 0.000000e+00 0.000000e+00 8.685821e-01 1.314179e-01
 0.000000e+00 0.000000e+00 0.000000e+00 0.000000e+00 0.000000e+00
<ENDHMM>
~h "er"
<BEGINHMM>
<NUMSTATES> 5
<STATE> 2
<MEAN> 39
 -5.751169e+00 -1.417941e+01 -1.000914e+01 -1.207313e+01 -3.330362e+00 2.187991e-01 -1.138066e+01 3.807621e+00 -3.001147e+00 -6.941046e+00 1.234862e+00 -8.007408e+00 7.288732e+01 3.946912e-01 -3.363594e-01 2.408506e-01 -1.699838e-01 -1.548744e-01 7.524230e-02 -2.189487e-01 3.207536e-01 2.205194e-01 -7.583376e-02 9.592263e-02 -3.262345e-01 9.460402e-01 8.629182e-03 -3.748001e-02 -1.046741e-02 -3.288645e-02 -5.401910e-02 6.661876e-02 -1.043509e-02 2.734115e-02 5.815596e-03 -1.163423e-02 1.584163e-02 -4.914235e-02 1.460193e-02
<VARIANCE> 39
 1.293013e+02 5.236961e+01 7.363356e+01 3.923100e+01 5.210668e+01 7.131850e+01 1.069840e+02 8.883418e+01 5.634448e+01 3.613473e+01 3.866529e+01 5.203382e+01 1.806003e+02 1.027134e+01 4.299750e+00 3.492761e+00 2.951294e+00 6.085486e+00 5.705219e+00 1.069200e+01 7.866730e+00 3.396357e+00 3.235435e+00 4.028909e+00 6.024800e+00 9.496907e+00 1.435743e+00 6.809917e-01 5.427317e-01 4.709987e-01 1.053457e+00 1.115358e+00 1.803078e+00 1.343499e+00 5.471320e-01 6.082719e-01 7.595980e-01 1.092351e+00 1.014989e+00
<GCONST> 1.465930e+02
<STATE> 3
<MEAN> 39
 3.030225e+00 -2.028278e+01 -2.823751e+00 -1.507675e+01 -1.737925e+01 1.081007e+01 -1.701759e+01 7.180608e+00 -1.006635e+00 -8.816295e+00 3.002528e+00 -1.780067e+01 7.789848e+01 5.490603e-01 4.102530e-02 -7.968341e-01 -4.650183e-01 9.989958e-02 2.421998e+00 5.492114e-01 -1.060581e+00 -9.545129e-01 1.491645e-01 4.105129e-01 4.143952e-01 -8.216943e-01 -5.929606e-03 3.581316e-01 8.436733e-02 2.166895e-01 2.630872e-01 -4.612272e-01 2.563714e-01 -3.397003e-01 -2.895908e-02 3.031753e-02 -7.464624e-02 5.904132e-01 -4.165519e-01
<VARIANCE> 39
 1.158606e+01 1.451602e+01 4.481450e+01 4.804525e+01 3.880231e+01 8.643764e+01 2.302767e+01 7.845384e+01 2.492874e+01 6.973305e+01 2.986059e+01 2.366186e+01 6.446437e+00 9.861332e-01 1.145775e+00 1.451259e+00 2.461657e+00 2.822492e+00 6.887107e+00 2.396288e+00 4.594043e+00 2.304751e+00 2.105096e+00 2.715933e+00 3.657795e+00 1.144665e+00 2.119263e-01 2.773368e-01 1.706327e-01 3.150478e-01 5.889971e-01 9.425147e-01 6.124575e-01 8.923839e-01 4.112586e-01 3.747830e-01 5.052475e-01 8.214846e-01 2.048421e-01
<GCONST> 1.154657e+02
<STATE> 4
<MEAN> 39
 9.024218e+00 -1.302990e+01 -4.820955e+00 -8.652933e+00 -1.633745e+01 1.118678e+01 -1.111021e+01 -4.912534e+00 -5.961841e+00 -7.199465e+00 1.772053e+00 -8.252059e+00 6.800813e+01 3.193084e-01 7.886264e-01 -5.438501e-01 1.870397e+00 4.682981e-01 -1.398604e+00 9.518278e-01 -1.028209e+00 2.059633e-01 2.192653e-01 -7.766210e-01 1.016744e+00 -1.081125e+00 -3.420843e-01 -9.927513e-02 4.122878e-02 2.252250e-01 4.125789e-01 -5.657537e-01 9.076107e-03 4.098333e-01 2.758171e-01 -1.302362e-02 -1.317944e-01 -5.240951e-02 1.656152e-01
<VARIANCE> 39
 5.553944e+00 1.788159e+01 1.027788e+02 1.082036e+02 2.042000e+01 9.209004e+01 1.686650e+01 1.709135e+01 9.310032e+00 9.870666e+01 2.444615e+01 4.795117e+01 1.390829e+01 3.230998e-01 1.217625e+00 9.687666e-01 3.720776e+00 2.380243e+00 4.669819e+00 1.427101e+00 3.056539e+00 1.214606e+00 1.906016e+00 1.928410e+00 1.108501e+00 4.908659e-01 2.026923e-01 1.790090e-01 2.080082e-01 4.399057e-01 5.395259e-01 2.451401e-01 2.052194e-01 4.130266e-01 1.471121e-01 3.712400e-01 2.096464e-01 3.670859e-01 1.020424e-01
<GCONST> 1.024828e+02
<TRANSP> 5
 0.000000e+00 1.000000e+00 0.000000e+00 0.000000e+00 0.000000e+00
 0.000000e+00 9.751258e-01 2.487415e-02 0.000000e+00 0.000000e+00
 0.000000e+00 0.000000e+00 8.526703e-01 1.473297e-01 0.000000e+00
 0.000000e+00 0.000000e+00 0.000000e+00 8.312976e-01 1.687024e-01
 0.000000e+00 0.000000e+00 0.000000e+00 0.000000e+00 0.000000e+00
<ENDHMM>
~h "iu"
<BEGINHMM>
<NUMSTATES> 5
<STATE> 2
<MEAN> 39
 4.347643e+00 -1.323058e+01 -3.192751e+00 -2.044862e+01 -1.245535e+01 9.630606e+00 -1.912814e+01 -6.559042e+00 -2.581002e+00 -2.168454e+00 1.037589e+01 -1.128580e+01 7.861811e+01 5.849475e-01 3.945098e-01 -2.109242e-01 -3.602913e+00 -1.077715e+00 4.172715e+00 1.663040e+00 -1.089225e+00 -3.085763e-01 5.084237e-02 -4.115606e-01 1.304985e+00 -2.372496e-01 -1.431992e-01 4.582165e-01 -1.579239e-01 4.004134e-01 1.455573e-01 -6.254199e-01 2.355839e-01 5.692027e-01 4.503851e-01 -1.064985e+00 -8.718794e-01 9.191176e-01 -3.999698e-01
<VARIANCE> 39
 3.625021e+00 1.659406e+01 6.835115e+00 4.710476e+01 3.637959e+01 7.692278e+01 4.356172e+01 3.478352e+01 1.782471e+01 3.225611e+01 5.276494e+01 4.806135e+01 3.634416e+00 2.602100e-01 5.994530e-01 3.941931e-01 2.773004e+00 1.507114e+00 3.496706e+00 2.376510e+00 5.143998e+00 2.225715e+00 7.657961e+00 4.005833e+00 5.036350e+00 7.584748e-01 7.937428e-02 8.730864e-02 1.071171e-01 3.133734e-01 2.723508e-01 9.401679e-01 6.590513e-01 7.536749e-01 3.209552e-01 1.010070e+00 6.824166e-01 6.812558e-01 1.199490e-01
<GCONST> 1.058108e+02
<STATE> 3
<MEAN> 39
 6.253347e+00 -7.658321e+00 -4.227243e+00 -2.996515e+01 -1.847052e+01 1.819727e+01 -1.279272e+01 -3.856958e+00 3.811399e+00 -1.427688e+01 3.631648e+00 -1.088883e-01 7.585056e+01 1.216018e-01 1.077603e+00 -4.291990e-01 1.533811e-01 -1.148096e+00 5.479832e-01 4.126061e-01 1.179485e+00 1.515664e+00 -2.568693e+00 -8.634736e-01 5.572046e-01 -6.973073e-01 -5.089239e-02 -1.951156e-01 3.817094e-02 6.683410e-01 6.730813e-02 -4.019062e-01 -2.660664e-01 -1.323008e-02 -9.489556e-02 3.116671e-01 4.405757e-01 -6.669356e-01 2.068122e-02
<VARIANCE> 39
 3.435374e+00 1.595328e+01 6.612259e+00 1.533135e+01 4.607649e+01 2.728818e+01 3.816202e+01 1.519830e+01 5.310085e+01 7.983565e+01 9.955715e+00 4.509425e+01 4.681164e+00 1.591980e-01 2.709760e-01 2.317069e-01 2.406453e+00 4.980969e-01 6.494709e-01 8.710693e-01 1.165100e+00 2.096387e+00 4.356285e+00 1.533944e+00 2.497297e+00 1.838150e-01 5.464818e-02 9.738621e-02 4.425379e-02 1.371183e-01 1.163254e-01 2.522366e-01 2.124854e-01 1.860315e-01 2.289758e-01 3.061990e-01 1.960595e-01 1.722182e-01 1.984579e-02
<GCONST> 7.975616e+01
<STATE> 4
<MEAN> 39
 6.120944e+00 -3.564772e+00 -5.396669e+00 -2.440944e+01 -2.441299e+01 1.855146e+01 -1.612708e+01 3.019057e+00 9.366747e+00 -2.419046e+01 9.601779e+00 -7.347569e+00 7.343936e+01 -2.693518e-02 1.596792e-01 -4.053195e-03 9.249448e-01 -6.017587e-02 -7.406411e-01 1.110179e-01 4.046040e-01 1.514350e-02 9.095423e-03 1.108708e+00 -1.682249e+00 -5.319634e-01 2.323197e-02 -5.780438e-02 5.417431e-02 -3.875080e-02 1.791165e-01 -1.701278e-01 1.118498e-01 -1.519003e-01 -1.237677e-01 2.622882e-01 5.034081e-02 -4.333991e-02 -8.000588e-02
<VARIANCE> 39
 3.515903e+00 9.103885e+00 4.679435e+00 1.972129e+01 1.588489e+01 1.557991e+01 1.702687e+01 9.243126e+00 2.923647e+01 3.605392e+01 2.856225e+01 4.904681e+01 7.110479e+00 1.923173e-01 1.793171e-01 2.207389e-01 5.566881e-01 4.677822e-01 7.495834e-01 5.344895e-01 4.829618e-01 6.152328e-01 8.940697e-01 5.509648e-01 9.264784e-01 1.325821e-01 3.171882e-02 3.210530e-02 4.595494e-02 7.106367e-02 1.179723e-01 1.638665e-01 8.795448e-02 6.696158e-02 1.239374e-01 1.665409e-01 1.380343e-01 1.177892e-01 2.704207e-02
<GCONST> 6.194386e+01
<TRANSP> 5
 0.000000e+00 1.000000e+00 0.000000e+00 0.000000e+00 0.000000e+00
 0.000000e+00 7.644013e-01 2.355987e-01 0.000000e+00 0.000000e+00
 0.000000e+00 0.000000e+00 7.454776e-01 2.545224e-01 0.000000e+00
 0.000000e+00 0.000000e+00 0.000000e+00 8.378047e-01 1.621954e-01
 0.000000e+00 0.000000e+00 0.000000e+00 0.000000e+00 0.000000e+00
<ENDHMM>
~h "sh"
<BEGINHMM>
<NUMSTATES> 5
<STATE> 2
<MEAN> 39
 -1.131130e+01 -1.019808e+01 1.411741e+00 2.475690e+00 -8.463422e+00 -1.304609e+01 -2.003224e+00 3.901394e+00 -5.824044e+00 -1.162844e+01 -2.502608e+00 -7.060249e+00 7.411414e+01 -6.739671e-01 -2.221582e-01 -3.898588e-01 -1.277065e+00 5.092430e-01 2.510450e-02 -9.664381e-02 8.549876e-01 6.459750e-01 -1.433269e-01 7.982723e-02 -2.219430e-01 9.971514e-01 7.740137e-02 -1.206631e-01 -8.504982e-02 -1.886385e-01 8.632806e-02 4.226457e-01 -1.693981e-01 -3.968689e-01 1.890649e-01 2.350765e-01 -2.205307e-01 2.504078e-03 5.323042e-02
<VARIANCE> 39
 1.560015e+02 3.341607e+01 2.914729e+01 5.132980e+01 3.259328e+01 1.842850e+01 4.304974e+01 2.732351e+01 2.758176e+01 2.912789e+01 2.890459e+01 2.385543e+01 2.320382e+01 1.982637e+01 4.421067e+00 4.300107e+00 3.543344e+00 4.710183e+00 4.747677e+00 6.350264e+00 4.200187e+00 4.011954e+00 4.559143e+00 4.393185e+00 2.263390e+00 1.498731e+00 2.692404e+00 7.193180e-01 6.041263e-01 5.066233e-01 8.833584e-01 4.601814e-01 1.003468e+00 7.199829e-01 5.842456e-01 8.677838e-01 6.062362e-01 4.438472e-01 2.241456e-01
<GCONST> 1.313445e+02
<STATE> 3
<MEAN> 39
 -2.315148e+00 -1.645270e+01 -9.036591e+00 -1.063962e+01 -2.638696e+00 6.335559e+00 -1.701992e+01 1.772999e+00 1.063831e+01 -1.743830e+01 -6.168762e+00 -1.460678e+01 7.737479e+01 8.174914e-02 2.162027e-01 -1.288071e-01 6.622092e-01 4.642518e-01 5.601742e-01 -6.139914e-02 -3.879650e-02 3.335169e-01 -2.290957e-01 -1.418657e-01 1.689412e-01 -1.291047e+00 3.864368e-02 9.440027e-03 3.245183e-02 1.536296e-01 -7.079113e-02 -2.069244e-01 1.007482e-01 1.222030e-01 -1.516500e-01 2.396367e-02 7.375761e-02 9.157087e-02 -1.565297e-01
<VARIANCE> 39
 1.635766e+01 1.907738e+01 1.314095e+01 4.069901e+01 1.503438e+01 2.521422e+01 3.760505e+01 2.245558e+01 1.643989e+01 3.998336e+01 4.660938e+01 4.800673e+01 1.000347e+02 1.248931e+00 1.700593e+00 1.295155e+00 1.730088e+00 2.063081e+00 2.859188e+00 3.308880e+00 2.647062e+00 1.494868e+00 2.655571e+00 4.745080e+00 4.712259e+00 1.983285e+00 2.440371e-01 3.325461e-01 2.449519e-01 2.639898e-01 3.347164e-01 3.031659e-01 4.318729e-01 3.320799e-01 2.692859e-01 4.063523e-01 8.702904e-01 6.641585e-01 2.135568e-01
<GCONST> 1.120768e+02
<STATE> 4
<MEAN> 39
 -3.305378e+00 -8.144339e+00 -1.120571e+01 3.435113e-01 4.696872e-01 1.750739e+00 -7.249045e+00 3.677875e+00 4.794092e+00 -9.818466e+00 -1.074351e+01 -5.169014e+00 5.098263e+01 -4.140832e-01 8.164603e-01 1.427782e-01 -2.149848e-01 -2.505483e-01 -5.311576e-01 3.547989e-01 -5.454443e-01 -1.107734e+00 9.987661e-01 9.604963e-02 3.801160e-01 -1.030714e+00 5.782527e-03 9.999101e-02 1.928351e-01 -1.687339e-01 -1.849872e-01 -3.863258e-02 -1.682700e-01 -1.369038e-01 -1.027125e-01 -7.506716e-02 2.558722e-01 -1.714519e-01 1.199120e-01
<VARIANCE> 39
 2.360494e+01 5.211916e+01 4.252532e+01 2.177630e+01 4.028732e+01 3.791805e+01 2.876724e+01 3.067831e+01 4.614124e+01 3.447084e+01 2.735590e+01 1.500997e+01 4.972506e+01 1.454442e+00 2.122510e+00 2.976663e+00 2.335709e+00 2.653390e+00 2.380558e+00 3.318288e+00 2.290233e+00 2.497949e+00 1.642138e+00 2.900573e+00 2.284023e+00 6.817710e-01 1.876297e-01 3.635848e-01 4.764161e-01 4.606315e-01 3.665383e-01 4.677074e-01 6.246084e-01 4.652033e-01 5.162435e-01 2.917749e-01 5.040495e-01 3.611158e-01 8.621186e-02
<GCONST> 1.136415e+02
<TRANSP> 5
 0.000000e+00 1.000000e+00 0.000000e+00 0.000000e+00 0.000000e+00
 0.000000e+00 9.366419e-01 6.335804e-02 0.000000e+00 0.000000e+00
 0.000000e+00 0.000000e+00 9.445671e-01 5.543289e-02 0.000000e+00
 0.000000e+00 0.000000e+00 0.000000e+00 8.857724e-01 1.142276e-01
 0.000000e+00 0.000000e+00 0.000000e+00 0.000000e+00 0.000000e+00
<ENDHMM>
~h "si"
<BEGINHMM>
<NUMSTATES> 5
<STATE> 2
<MEAN> 39
 -1.404155e+01 -8.419457e-01 -6.875647e+00 -7.813274e+00 -3.961911e-01 -6.751806e+00 -7.115437e+00 -9.253119e+00 -3.037619e-01 -5.048371e+00 2.895209e-02 -4.247056e+00 6.697810e+01 -9.483163e-02 -2.398083e-01 1.713879e-01 -3.008483e-01 -8.711594e-02 1.772051e-01 -3.905609e-01 -4.810272e-02 2.287090e-01 1.347646e-02 2.309806e-01 -2.562158e-01 5.397856e-01 7.506577e-02 -8.181159e-02 -1.478980e-02 3.766735e-03 -7.443929e-02 9.842528e-02 -1.023845e-01 9.832552e-02 4.385998e-02 -2.649974e-02 -1.304467e-02 -5.008861e-02 -1.409999e-03
<VARIANCE> 39
 1.538437e+02 2.838188e+01 3.576414e+01 6.959044e+01 2.114560e+01 3.296440e+01 1.292680e+02 8.781827e+01 3.569529e+01 1.762597e+01 2.176618e+01 2.536674e+01 4.514574e+01 1.036721e+01 3.251709e+00 2.041518e+00 4.370656e+00 2.501693e+00 2.871246e+00 7.876681e+00 6.154126e+00 3.041950e+00 1.842171e+00 2.125084e+00 2.159635e+00 2.337109e+00 1.029096e+00 5.843657e-01 3.557580e-01 6.787117e-01 4.223550e-01 5.446325e-01 1.038422e+00 9.377857e-01 5.457599e-01 3.870977e-01 3.867116e-01 4.331622e-01 2.904636e-01
<GCONST> 1.279825e+02
<STATE> 3
<MEAN> 39
 1.934186e+00 -1.327384e+01 3.273460e+00 -9.185415e+00 -1.507455e+01 -1.830288e-01 -1.965026e+01 1.854969e+00 -7.641590e-01 -1.038769e+01 3.294703e+00 -1.682778e+01 7.357848e+01 1.936887e-01 -6.462799e-01 -8.365146e-02 3.160976e-01 -2.966672e-01 7.423125e-01 3.986725e-01 2.936328e-01 -2.145413e-01 -3.860684e-01 -2.887438e-01 -2.734779e-01 -1.742123e-01 -5.011807e-02 1.442478e-01 1.066280e-02 -3.636128e-02 2.388958e-01 1.082596e-01 2.128042e-01 -3.898652e-01 -1.533523e-01 9.750059e-02 -1.033433e-02 2.150988e-01 -2.254993e-01
<VARIANCE> 39
 1.457754e+01 1.890669e+01 4.436603e+01 4.757963e+01 4.851304e+01 4.015647e+01 3.122806e+01 1.105989e+02 7.915567e+01 4.283270e+01 2.894036e+01 3.758097e+01 3.372762e+01 1.463504e+00 1.286784e+00 3.616242e+00 5.179934e+00 4.032762e+00 4.238050e+00 2.001866e+00 7.847641e+00 5.177058e+00 2.379637e+00 2.093313e+00 4.594851e+00 2.816431e+00 3.369935e-01 3.016497e-01 3.725350e-01 7.080032e-01 4.878500e-01 5.080773e-01 5.631456e-01 9.579883e-01 6.779895e-01 3.378336e-01 3.908291e-01 5.932544e-01 4.083479e-01
<GCONST> 1.248161e+02
<STATE> 4
<MEAN> 39
 5.372788e+00 -1.285885e+01 -1.629684e+00 -1.128210e+01 -9.556629e+00 1.042286e+01 -1.303688e+01 -7.608484e+00 -1.940277e+00 -1.154994e+01 -1.452669e+00 -9.186729e+00 6.856358e+01 5.132855e-01 1.111999e+00 -5.172809e-01 3.537089e-01 2.815450e-01 4.675738e-01 5.165542e-01 -1.045977e+00 -6.470055e-01 -1.758429e-01 -1.939130e-01 1.043828e+00 -1.342999e+00 -2.227118e-01 9.163780e-02 -1.734560e-01 2.816387e-01 -3.016099e-02 -6.712670e-01 -7.271867e-02 6.408166e-01 1.959833e-01 -1.370534e-01 -1.146272e-01 -6.389464e-02 1.058009e-01
<VARIANCE> 39
 9.577767e+00 3.136487e+01 9.262978e+01 1.654757e+02 2.878621e+01 1.081397e+02 3.073472e+01 2.524061e+01 2.528428e+01 4.121849e+01 4.142449e+01 9.434116e+01 3.500727e+01 3.940023e-01 7.201958e-01 8.091602e-01 3.879311e+00 1.927700e+00 3.118409e+00 1.380722e+00 3.779723e+00 2.193604e+00 1.073542e+00 1.744599e+00 1.864276e+00 4.140484e-01 7.043052e-02 1.751284e-01 1.560387e-01 3.719664e-01 6.494846e-01 2.704815e-01 3.740742e-01 4.528684e-01 3.346021e-01 2.187916e-01 2.640334e-01 3.419246e-01 1.045828e-01
<GCONST> 1.069431e+02
<TRANSP> 5
 0.000000e+00 1.000000e+00 0.000000e+00 0.000000e+00 0.000000e+00
 0.000000e+00 9.731578e-01 2.684224e-02 0.000000e+00 0.000000e+00
 0.000000e+00 0.000000e+00 9.354725e-01 6.452738e-02 0.000000e+00
 0.000000e+00 0.000000e+00 0.000000e+00 8.366020e-01 1.633980e-01
 0.000000e+00 0.000000e+00 0.000000e+00 0.000000e+00 0.000000e+00
<ENDHMM>
~h "sp"
<BEGINHMM>
<NUMSTATES> 3
<STATE> 2
~s "silst"
<TRANSP> 3
 0.000000e+00 2.238578e-01 7.761422e-01
 0.000000e+00 9.175556e-01 8.244433e-02
 0.000000e+00 0.000000e+00 0.000000e+00
<ENDHMM>
~h "wu"
<BEGINHMM>
<NUMSTATES> 5
<STATE> 2
<MEAN> 39
 1.558331e-02 2.132417e+00 -2.569885e+00 -9.887780e+00 -1.228368e+01 -3.515398e+00 -9.630179e+00 -5.685323e+00 -9.287299e-01 -9.220263e+00 -1.152652e+00 -4.778247e+00 6.228227e+01 2.499193e-01 -2.312748e-01 1.211201e-01 -1.709372e-01 -2.525927e-01 -5.760097e-02 -9.863098e-02 -1.799839e-01 2.050061e-01 -1.752840e-02 2.270437e-01 -1.532726e-01 8.929868e-01 4.784083e-02 -8.457820e-02 7.079805e-04 -3.210866e-02 -6.500530e-02 1.025572e-01 -7.906379e-02 -1.466550e-02 6.762402e-02 -3.798380e-02 5.784402e-02 -9.818359e-02 9.408952e-02
<VARIANCE> 39
 1.728591e+02 5.584842e+01 3.616296e+01 8.110684e+01 7.853053e+01 3.835944e+01 3.759326e+01 2.694098e+01 2.854590e+01 4.493317e+01 2.745063e+01 1.495959e+01 1.045063e+02 9.485231e+00 3.676710e+00 3.513196e+00 6.568756e+00 6.314930e+00 3.617489e+00 3.286215e+00 2.729912e+00 3.406928e+00 4.165876e+00 3.355497e+00 1.730461e+00 4.380576e+00 1.057627e+00 5.518376e-01 6.446359e-01 1.133755e+00 1.191023e+00 6.242830e-01 6.010869e-01 5.146538e-01 5.607901e-01 7.685637e-01 6.259733e-01 3.775062e-01 4.634328e-01
<GCONST> 1.341180e+02
<STATE> 3
<MEAN> 39
 4.503975e+00 -1.148281e+01 2.298059e+00 8.596219e-02 -1.752856e+01 8.624887e-01 -1.569166e+01 -7.640438e+00 6.030966e-01 -1.324902e+01 1.122405e+00 -9.292711e+00 7.301188e+01 9.622956e-02 -1.174309e-01 2.602534e-01 4.354013e-01 -2.126509e-02 -7.282600e-02 -3.576068e-01 3.512135e-01 -3.859759e-02 -5.218184e-01 -3.017547e-01 1.698899e-01 1.621752e-01 -1.694722e-01 5.308898e-02 -1.687613e-01 -6.130227e-02 1.651785e-01 -1.444146e-01 1.472545e-01 1.647902e-02 -1.066128e-01 8.773836e-02 -1.403077e-01 9.306594e-02 -1.444501e-01
<VARIANCE> 39
 2.215420e+01 1.205767e+01 3.662116e+01 6.830762e+01 4.746134e+01 3.091042e+01 5.265579e+01 1.002174e+02 8.423776e+01 4.515301e+01 5.477137e+01 7.179468e+01 5.318665e+01 2.178561e+00 1.362954e+00 2.297206e+00 4.210335e+00 4.596656e+00 3.228090e+00 4.695226e+00 6.265688e+00 5.494637e+00 3.256233e+00 5.002449e+00 4.439015e+00 4.103338e+00 4.831371e-01 1.461333e-01 3.270859e-01 5.467521e-01 8.084351e-01 5.666631e-01 9.181705e-01 8.947605e-01 8.170049e-01 5.573860e-01 8.225957e-01 5.652772e-01 4.218918e-01
<GCONST> 1.305145e+02
<STATE> 4
<MEAN> 39
 -1.820113e-01 -1.196768e+01 -5.820128e+00 -1.936880e+01 -1.061896e+01 5.833759e+00 -1.024790e+01 -3.907493e+00 1.600302e-01 -7.091902e+00 -6.934017e-02 -1.072322e+01 7.983475e+01 3.110251e-01 1.776441e-01 -7.077637e-01 -1.098890e+00 8.195702e-01 1.595962e+00 8.449596e-01 -7.977622e-01 -4.507787e-01 3.585792e-01 -5.619779e-01 3.940843e-01 -5.546549e-01 -6.583354e-03 -9.116381e-04 1.280991e-01 2.127784e-01 7.926194e-03 -2.993577e-02 -2.105958e-01 1.675910e-01 4.951037e-02 -1.980263e-01 1.609343e-01 2.040084e-01 -1.338297e-01
<VARIANCE> 39
 2.218101e+01 3.685027e+01 1.986422e+01 8.284469e+01 3.402647e+01 9.771215e+01 8.034431e+01 9.860252e+01 3.436132e+01 5.009855e+01 8.186967e+01 9.024229e+01 5.444912e+01 7.391976e-01 1.375277e+00 1.585941e+00 4.808757e+00 4.430865e+00 6.332103e+00 5.865502e+00 6.398578e+00 2.784504e+00 6.129043e+00 4.643754e+00 4.584315e+00 1.494966e+00 2.272455e-01 3.606253e-01 1.644117e-01 3.923228e-01 5.966037e-01 1.049088e+00 9.979709e-01 1.230485e+00 6.441945e-01 9.617761e-01 1.021817e+00 9.567118e-01 3.474909e-01
<GCONST> 1.314722e+02
<TRANSP> 5
 0.000000e+00 1.000000e+00 0.000000e+00 0.000000e+00 0.000000e+00
 0.000000e+00 9.670753e-01 3.292466e-02 0.000000e+00 0.000000e+00
 0.000000e+00 0.000000e+00 9.419739e-01 5.802606e-02 0.000000e+00
 0.000000e+00 0.000000e+00 0.000000e+00 8.538257e-01 1.461742e-01
 0.000000e+00 0.000000e+00 0.000000e+00 0.000000e+00 0.000000e+00
<ENDHMM>
~h "yi"
<BEGINHMM>
<NUMSTATES> 5
<STATE> 2
<MEAN> 39
 -1.226569e+01 7.455167e+00 1.983629e+01 -8.431543e+00 -1.640709e+01 -3.646087e+00 -5.765851e+00 -1.443061e+01 -5.457444e+00 -1.674430e+01 5.448142e+00 -8.254784e+00 6.679762e+01 -7.971563e-02 9.392339e-02 9.627810e-01 -3.656794e-01 -4.439047e-01 -2.002532e-01 2.235763e-01 -6.763210e-01 -1.343296e-01 -3.001428e-01 1.275421e-01 -1.672152e-02 1.392467e+00 -2.716165e-02 -1.483233e-01 -3.399105e-01 5.594175e-02 1.824178e-01 -3.370558e-02 7.618366e-02 1.597411e-01 2.833008e-03 2.797924e-01 -1.283538e-01 9.278525e-02 -1.822225e-01
<VARIANCE> 39
 1.174954e+01 1.339797e+01 6.194125e+01 1.094810e+01 3.060403e+01 1.628314e+01 1.181249e+01 3.095387e+01 1.629308e+01 2.511318e+01 2.523869e+01 1.022910e+01 7.207254e+01 1.234884e+00 2.020259e+00 7.301031e+00 1.354131e+00 4.869566e+00 9.396378e-01 9.204001e-01 4.056959e+00 1.632659e+00 4.312744e+00 2.214635e+00 8.153584e-01 5.149349e+00 2.131673e-01 2.614733e-01 1.144115e+00 2.552631e-01 6.362006e-01 1.687362e-01 1.781922e-01 6.126050e-01 3.094639e-01 5.526765e-01 2.837901e-01 1.323408e-01 6.691497e-01
<GCONST> 1.074250e+02
<STATE> 3
<MEAN> 39
 -1.416285e+01 -2.194708e+00 7.140420e+00 -8.706781e+00 -9.828882e+00 -6.249932e+00 -3.785223e+00 -9.230578e+00 -5.076937e+00 -7.016766e+00 2.760876e+00 -6.052516e+00 6.944599e+01 4.702837e-01 -1.083560e+00 -1.424234e+00 1.727591e-01 -3.814061e-01 -8.716095e-02 -3.761740e-01 1.303227e+00 6.379827e-01 2.395312e-01 4.526065e-02 -1.911424e-01 4.809223e-01 2.437070e-01 -8.754691e-02 -3.358101e-03 -2.462640e-02 -1.612511e-01 8.034628e-02 -2.496670e-01 7.503750e-02 2.174594e-01 -1.566059e-01 -5.088424e-02 -2.267228e-01 2.026996e-01
<VARIANCE> 39
 1.766300e+02 5.658978e+01 4.373497e+01 7.410484e+01 1.314460e+02 2.105448e+01 3.318604e+01 6.075116e+01 1.418071e+01 3.237292e+01 2.810530e+01 3.511743e+01 3.257745e+01 1.088484e+01 1.572653e+00 3.337275e+00 5.292499e+00 7.759053e+00 2.117086e+00 3.767577e+00 3.416890e+00 2.092441e+00 2.917994e+00 2.114431e+00 2.344221e+00 3.658334e+00 1.195016e+00 3.178916e-01 6.188141e-01 7.250599e-01 1.205438e+00 4.403976e-01 7.605743e-01 5.294480e-01 4.219811e-01 4.143376e-01 5.084980e-01 3.161355e-01 3.886947e-01
<GCONST> 1.289566e+02
<STATE> 4
<MEAN> 39
 1.074770e+00 -1.319243e+01 -6.530408e+00 -1.427839e+01 -1.493192e+01 4.470764e+00 -1.033978e+01 -3.442681e+00 6.302624e+00 -1.129576e+01 2.111228e+00 -1.519094e+01 7.855270e+01 9.012626e-01 -4.126277e-01 -5.034439e-01 7.212110e-02 7.259926e-01 1.144130e+00 -3.883342e-02 -6.160086e-01 1.198338e-01 -2.560070e-01 -2.560109e-01 -1.393556e-01 -4.332920e-01 -3.541626e-01 1.826323e-01 2.603763e-01 2.045420e-01 2.869279e-01 -1.904443e-01 2.603652e-01 -1.755378e-01 -3.396184e-01 1.507547e-01 4.012716e-02 4.364038e-01 -3.308673e-01
<VARIANCE> 39
 2.113579e+01 2.577987e+01 3.093337e+01 5.605672e+01 3.494539e+01 7.870908e+01 5.542785e+01 7.382523e+01 3.071528e+01 6.550297e+01 6.156592e+01 2.008686e+01 2.817609e+01 2.573670e+00 1.791793e+00 3.337726e+00 6.033865e+00 4.480081e+00 7.771240e+00 3.676462e+00 3.167696e+00 3.940408e+00 4.674362e+00 7.175699e+00 4.293382e+00 3.876664e+00 7.845739e-01 2.873070e-01 3.037968e-01 8.058683e-01 8.824567e-01 1.171990e+00 5.340914e-01 9.106537e-01 4.413328e-01 7.833707e-01 1.280891e+00 3.823243e-01 4.615061e-01
<GCONST> 1.318367e+02
<TRANSP> 5
 0.000000e+00 1.000000e+00 0.000000e+00 0.000000e+00 0.000000e+00
 0.000000e+00 9.454517e-01 5.454827e-02 0.000000e+00 0.000000e+00
 0.000000e+00 0.000000e+00 9.261724e-01 7.382751e-02 0.000000e+00
 0.000000e+00 0.000000e+00 0.000000e+00 9.083397e-01 9.166032e-02
 0.000000e+00 0.000000e+00 0.000000e+00 0.000000e+00 0.000000e+00
<ENDHMM>
~h "zh"
<BEGINHMM>
<NUMSTATES> 5
<STATE> 2
<MEAN> 39
 -8.374882e+00 -3.418917e+00 -9.062506e+00 -8.785205e+00 -1.099432e+01 6.571906e-01 -4.032058e+00 -2.965903e-01 -3.618630e+00 -7.186387e+00 -4.236574e+00 -4.038720e+00 4.410412e+01 -1.312577e+00 -1.142531e+00 -8.327244e-01 8.406668e-02 -2.658350e-01 -8.258886e-01 -8.253478e-04 -1.419654e-01 -2.642602e-01 3.398850e-01 -3.301083e-01 1.800231e-01 -7.977842e-01 2.711056e-01 2.721308e-01 4.033729e-01 2.686956e-01 2.794133e-01 2.409358e-01 -2.694370e-01 -1.849192e-01 2.089347e-02 -8.115362e-03 1.786519e-01 -1.666032e-01 1.668192e-01
<VARIANCE> 39
 1.052831e+01 2.131387e+01 1.810763e+01 3.631151e+01 1.426838e+01 1.819304e+01 1.941504e+01 2.680928e+01 2.960310e+01 2.163392e+01 3.328143e+01 4.015539e+01 3.634416e+00 1.108947e+00 1.225386e+00 1.467433e+00 1.410408e+00 1.132703e+00 2.156940e+00 2.204426e+00 2.816142e+00 3.320526e+00 1.509304e+00 2.641608e+00 2.682108e+00 3.346702e-01 6.821629e-02 1.168132e-01 2.232179e-01 2.908134e-01 2.740052e-01 4.513301e-01 3.917606e-01 5.003051e-01 6.511845e-01 3.069780e-01 6.156518e-01 5.551778e-01 2.348943e-02
<GCONST> 9.885023e+01
<STATE> 3
<MEAN> 39
 -6.299755e+00 6.452097e-01 -4.960534e+00 -4.611865e+00 -1.185463e+01 -1.366219e+00 -7.383524e+00 -3.863854e+00 -2.979250e+00 -3.845635e+00 -4.692029e+00 -2.380861e+00 4.367334e+01 -4.497069e-01 -2.393673e-01 7.271775e-02 4.139029e-01 2.294231e-01 1.725239e-01 -1.377312e-01 -3.319069e-01 -1.027304e-01 1.410647e-01 -6.146782e-02 -1.592244e-02 -3.155183e-01 4.535405e-02 4.996767e-02 7.280719e-02 6.744195e-02 1.351599e-01 9.743143e-02 -9.083637e-02 -1.267574e-01 -9.299909e-02 -6.515577e-02 8.812869e-02 6.959027e-02 2.658280e-02
<VARIANCE> 39
 2.111551e+01 2.133391e+01 2.972628e+01 2.098061e+01 1.371834e+01 1.463797e+01 1.578777e+01 2.213046e+01 2.060403e+01 1.907762e+01 1.468243e+01 2.064708e+01 5.943674e+00 8.250076e-01 6.995708e-01 7.815820e-01 1.108478e+00 1.057577e+00 1.504289e+00 9.439326e-01 1.514494e+00 2.006616e+00 2.072582e+00 1.347339e+00 1.016707e+00 2.550386e-01 1.096513e-01 1.320983e-01 1.670782e-01 1.731109e-01 1.785138e-01 2.315246e-01 2.357365e-01 3.580221e-01 4.580405e-01 4.293017e-01 2.310887e-01 2.331741e-01 2.678979e-02
<GCONST> 8.775127e+01
<STATE> 4
<MEAN> 39
 -1.182580e+01 -4.119554e+00 -9.494863e+00 -5.383184e+00 -8.242987e+00 -6.317862e-01 -6.078521e+00 -3.243465e+00 -5.378414e+00 -6.226407e+00 -5.799840e+00 -5.609196e+00 4.100807e+01 -6.532196e-01 -2.434150e-01 2.401325e-01 1.013023e+00 6.722535e-01 -5.112386e-01 -9.736461e-01 -1.241517e+00 -5.418876e-01 3.143626e-01 3.545831e-01 6.844443e-01 -4.524458e-01 2.012874e-01 1.828465e-01 -3.785623e-02 -2.433799e-01 -2.734186e-01 -1.487658e-01 5.412183e-02 2.892247e-01 1.746839e-01 3.853233e-02 8.011342e-02 2.543298e-02 1.056193e-01
<VARIANCE> 39
 2.445663e+00 4.491616e+00 6.542923e+00 7.949834e+00 8.619473e+00 1.301838e+01 1.418613e+01 1.614106e+01 1.008823e+01 1.495205e+01 1.890840e+01 1.555294e+01 3.634416e+00 2.406693e-01 3.826415e-01 7.244533e-01 1.403365e+00 1.244743e+00 8.821753e-01 1.561506e+00 1.613152e+00 1.295403e+00 1.817937e+00 1.354146e+00 1.154136e+00 1.128368e-01 5.944629e-02 6.681088e-02 1.299787e-01 2.014019e-01 2.505980e-01 1.765513e-01 2.572791e-01 3.332596e-01 2.433776e-01 2.614355e-01 2.584413e-01 2.036974e-01 2.360229e-02
<GCONST> 7.374878e+01
<TRANSP> 5
 0.000000e+00 1.000000e+00 0.000000e+00 0.000000e+00 0.000000e+00
 0.000000e+00 7.449402e-01 2.550598e-01 0.000000e+00 0.000000e+00
 0.000000e+00 0.000000e+00 7.465425e-01 2.534575e-01 0.000000e+00
 0.000000e+00 0.000000e+00 0.000000e+00 6.702119e-01 3.297881e-01
 0.000000e+00 0.000000e+00 0.000000e+00 0.000000e+00 0.000000e+00
<ENDHMM>
~h "eng"
<BEGINHMM>
<NUMSTATES> 5
<STATE> 2
<MEAN> 39
 2.328466e+00 -5.473453e+00 -1.046724e+01 -1.711563e+01 -1.165006e+01 1.541545e+01 -1.994096e+01 -3.069868e+00 3.377964e+00 -2.392523e+01 1.878659e+01 -1.340470e+01 7.699174e+01 2.869805e-01 6.397694e-02 5.952556e-02 8.293341e-01 -1.791249e-01 -4.056342e-01 5.819579e-01 1.255401e-02 -3.729327e-01 -5.071062e-01 1.502235e-01 -3.684224e-01 -7.598059e-01 4.329881e-03 -2.187878e-02 8.164555e-02 6.311924e-03 3.862623e-02 -1.162694e-01 7.363732e-02 1.623243e-03 -6.914895e-02 3.056815e-01 -2.678257e-01 1.491614e-02 -7.957263e-02
<VARIANCE> 39
 7.126036e+00 9.152559e+00 1.962721e+01 3.857127e+01 1.335306e+01 2.906536e+01 3.372178e+01 3.296143e+01 2.397373e+01 5.479413e+01 5.304797e+01 1.677275e+01 1.620681e+01 1.948003e-01 4.113783e-01 4.663059e-01 4.721900e-01 5.541824e-01 8.560082e-01 8.037730e-01 6.291544e-01 6.130821e-01 2.468623e+00 1.688725e+00 6.070117e-01 2.933818e-01 3.211708e-02 6.481954e-02 7.760650e-02 6.081720e-02 8.614688e-02 1.691984e-01 1.428211e-01 1.093635e-01 1.184652e-01 1.785153e-01 1.388204e-01 1.073986e-01 3.086556e-02
<GCONST> 7.450591e+01
<STATE> 3
<MEAN> 39
 7.611760e+00 -7.665653e+00 -2.151615e+00 -7.045229e+00 -1.290787e+01 7.781678e+00 -1.231953e+01 -8.759713e+00 -3.969447e+00 -1.220546e+01 3.533863e+00 -1.205692e+01 6.492951e+01 -5.708531e-02 7.903464e-01 1.807347e-01 1.027618e+00 9.202701e-01 -9.682605e-01 6.573559e-01 1.693667e-01 -7.728891e-01 1.167904e+00 -2.382545e+00 7.928810e-01 -1.569978e+00 -3.338021e-01 1.956808e-01 -2.132961e-01 1.752158e-01 1.361313e-01 -2.548104e-01 1.153014e-01 2.921689e-01 3.423994e-02 -1.809766e-01 -2.135331e-02 1.436496e-01 1.660045e-03
<VARIANCE> 39
 8.096888e+00 5.266477e+01 3.632073e+01 4.770930e+01 3.583709e+01 2.821157e+01 2.359288e+01 7.232842e+01 2.305666e+01 8.120155e+01 9.875940e+01 2.613348e+01 3.112376e+01 9.852520e-01 2.603613e+00 2.177012e+00 1.590008e+00 2.139245e+00 1.754912e+00 1.640660e+00 2.407235e+00 2.021074e+00 2.950168e+00 3.017332e+00 1.825986e+00 2.295591e+00 1.310089e-01 3.514499e-01 2.489143e-01 2.678433e-01 3.319137e-01 3.180374e-01 3.667519e-01 6.007889e-01 3.441500e-01 5.146162e-01 6.201863e-01 3.491764e-01 1.078333e-01
<GCONST> 1.125476e+02
<STATE> 4
<MEAN> 39
 -2.429143e+00 -2.116598e+00 -6.847646e+00 -3.504373e+00 -5.232183e+00 2.083348e+00 -7.508474e+00 -5.611937e+00 -7.069846e+00 -5.928757e+00 -4.421748e+00 -6.394440e+00 4.972063e+01 -1.050825e+00 -2.084473e-01 -4.956627e-01 3.482300e-01 -2.542222e-02 -1.039060e+00 4.366846e-01 5.666738e-01 4.253960e-02 3.865409e-02 -2.833911e-01 4.971744e-01 -6.321913e-01 -3.539246e-02 -2.989926e-02 1.303780e-01 -2.002808e-01 -1.090018e-01 -5.411233e-02 9.340032e-03 9.784294e-02 2.651461e-02 -2.124054e-01 2.870934e-01 -5.876964e-02 2.919573e-01
<VARIANCE> 39
 5.857833e+01 5.016248e+01 3.855035e+01 4.196245e+01 4.558601e+01 2.924137e+01 2.103028e+01 2.867226e+01 2.186772e+01 2.674960e+01 2.535898e+01 1.991107e+01 8.016657e+01 3.264484e+00 2.837182e+00 2.668810e+00 2.907194e+00 2.910553e+00 3.606981e+00 2.494733e+00 5.103936e+00 2.255455e+00 4.517725e+00 2.328693e+00 1.900062e+00 2.605318e+00 5.335804e-01 5.778316e-01 5.185974e-01 5.053190e-01 6.605287e-01 5.962061e-01 4.813199e-01 6.434429e-01 4.834810e-01 4.948822e-01 5.518426e-01 3.683593e-01 3.566668e-01
<GCONST> 1.228908e+02
<TRANSP> 5
 0.000000e+00 1.000000e+00 0.000000e+00 0.000000e+00 0.000000e+00
 0.000000e+00 8.740973e-01 1.259028e-01 0.000000e+00 0.000000e+00
 0.000000e+00 0.000000e+00 7.950742e-01 2.049258e-01 0.000000e+00
 0.000000e+00 0.000000e+00 0.000000e+00 8.385967e-01 1.614033e-01
 0.000000e+00 0.000000e+00 0.000000e+00 0.000000e+00 0.000000e+00
<ENDHMM>
~h "ong"
<BEGINHMM>
<NUMSTATES> 5
<STATE> 2
<MEAN> 39
 -1.380546e+01 -4.326426e+00 -1.075854e+01 -4.461622e+00 -9.125639e+00 -3.660504e+00 -8.463978e+00 -4.408821e+00 -6.446837e+00 -4.573803e+00 -4.649635e+00 -4.644202e+00 3.878316e+01 -1.933945e-02 6.768590e-02 1.001365e-02 1.455307e-01 1.114219e-02 3.695823e-03 4.961622e-03 4.261468e-02 2.036717e-02 1.152748e-01 7.952707e-02 7.792978e-02 -1.050771e-01 4.454017e-02 4.571839e-02 3.802178e-02 1.412437e-02 3.459019e-02 6.807341e-02 5.055753e-02 3.978796e-02 3.662540e-02 -3.010789e-03 -9.838164e-03 -9.945689e-03 2.087675e-02
<VARIANCE> 39
 1.514530e+00 3.044432e+00 5.168406e+00 5.572627e+00 7.858702e+00 9.715003e+00 9.497759e+00 1.054886e+01 1.070296e+01 1.322293e+01 1.097062e+01 1.079628e+01 3.634416e+00 1.401955e-01 3.049027e-01 5.278606e-01 6.043795e-01 9.464177e-01 1.078927e+00 1.047989e+00 1.207163e+00 1.159468e+00 1.523875e+00 1.287702e+00 1.199098e+00 3.513173e-02 2.850134e-02 6.109849e-02 1.124266e-01 1.221320e-01 1.944941e-01 2.275700e-01 2.215477e-01 2.642334e-01 2.184135e-01 3.041804e-01 2.656373e-01 2.621130e-01 7.399921e-03
<GCONST> 6.326261e+01
<STATE> 3
<MEAN> 39
 -1.070496e+01 1.091711e+00 -6.507482e+00 9.696830e-01 -6.223201e+00 -1.060398e+00 -7.630690e+00 -3.708110e+00 -5.212506e+00 -2.767540e+00 -2.654194e+00 -2.700642e+00 3.875286e+01 -7.288446e-03 9.639937e-02 -3.404176e-03 6.927026e-02 2.122203e-03 6.487106e-02 7.685560e-03 6.803604e-02 5.156333e-02 7.600715e-03 5.319880e-02 3.362358e-02 -9.841421e-02 -3.541034e-02 -5.651928e-02 -6.778614e-02 -6.241477e-02 -4.714456e-02 -2.123049e-02 -1.710897e-02 -1.915171e-02 -1.536088e-02 -2.591839e-02 -6.544411e-03 -1.129134e-02 -1.274213e-02
<VARIANCE> 39
 4.037673e+00 9.870188e+00 5.531027e+00 8.212404e+00 1.024512e+01 1.061027e+01 1.269885e+01 1.347741e+01 1.120722e+01 1.414487e+01 1.103653e+01 1.240516e+01 4.158886e+00 3.024305e-01 5.480433e-01 6.143061e-01 8.403067e-01 1.014516e+00 1.105928e+00 1.330853e+00 1.420601e+00 1.300419e+00 1.310384e+00 1.059204e+00 1.313048e+00 6.822102e-02 5.072765e-02 9.007721e-02 1.115161e-01 1.622623e-01 2.090750e-01 2.290845e-01 2.737737e-01 2.810698e-01 2.711064e-01 2.510960e-01 2.052976e-01 2.941968e-01 1.024690e-02
<GCONST> 7.181277e+01
<STATE> 4
<MEAN> 39
 -1.370855e+01 -1.662531e+00 -9.803103e+00 -6.308377e-01 -8.655603e+00 7.895015e-01 -7.583466e+00 -3.537335e+00 -4.713717e+00 -3.072260e+00 -2.522568e+00 -2.449640e+00 3.597761e+01 -6.030603e-02 -2.059505e-02 -1.050434e-01 -4.792327e-02 -8.503135e-02 4.681387e-03 -3.584846e-02 -1.100080e-02 -8.905942e-03 2.076162e-02 2.704639e-02 -1.051293e-02 -8.289009e-02 4.118355e-03 1.480063e-03 7.123201e-03 -4.831189e-03 -1.199413e-02 -2.563659e-02 -1.979201e-02 -1.510959e-02 -1.491190e-02 -1.172122e-02 -3.436102e-02 -1.793409e-02 3.532075e-03
<VARIANCE> 39
 2.369380e+00 6.420426e+00 7.697468e+00 8.592982e+00 1.407009e+01 1.288233e+01 1.168504e+01 1.815633e+01 1.368419e+01 1.354284e+01 1.339584e+01 1.183813e+01 3.634416e+00 1.485961e-01 2.966087e-01 4.640142e-01 7.192668e-01 8.728533e-01 1.048063e+00 1.297592e+00 1.436941e+00 1.320853e+00 1.491864e+00 1.351429e+00 1.096604e+00 4.331121e-02 2.854651e-02 5.720660e-02 8.747502e-02 1.405922e-01 1.801043e-01 2.181047e-01 2.689543e-01 2.809806e-01 2.674436e-01 3.222478e-01 2.891743e-01 2.284003e-01 7.344401e-03
<GCONST> 6.825656e+01
<TRANSP> 5
