~h "sil"
<BEGINHMM>
<NUMSTATES> 5
<STATE> 2
<MEAN> 39
 -7.685329e+00 -6.064180e+00 -7.152547e+00 -6.307857e+00 -8.144504e+00 -1.100376e+00 -1.009650e+01 -3.161884e+00 -2.040631e+00 -7.504019e+00 -1.756705e+00 -6.116684e+00 5.588039e+01 2.817962e-03 4.981637e-03 4.548633e-03 2.702527e-03 2.655869e-03 -1.117672e-03 1.608044e-03 -3.151441e-03 -3.712254e-03 -1.791283e-03 1.229354e-03 1.825009e-03 2.279447e-03 -1.567647e-04 1.019357e-04 4.115858e-04 4.298519e-04 4.558307e-04 4.934241e-04 7.134664e-04 4.210645e-05 1.306027e-03 7.725984e-04 6.409848e-05 2.180072e-04 3.076123e-05
<VARIANCE> 39
 8.208594e+01 5.293768e+01 6.391951e+01 7.540031e+01 4.923005e+01 8.213964e+01 6.779455e+01 4.465966e+01 5.228432e+01 5.634802e+01 4.882239e+01 3.657957e+01 3.634417e+02 2.940478e+00 1.617222e+00 2.109190e+00 2.693671e+00 2.944042e+00 3.395159e+00 2.999779e+00 2.803180e+00 2.794289e+00 2.821964e+00 3.087791e+00 2.200109e+00 3.351369e+00 4.135351e-01 2.700506e-01 3.264397e-01 4.158920e-01 5.331165e-01 5.542809e-01 5.216286e-01 4.910770e-01 4.786579e-01 4.816228e-01 5.339736e-01 3.985440e-01 3.592102e-01
<GCONST> 1.283362e+02
<STATE> 3
<MEAN> 39
 -7.685329e+00 -6.064180e+00 -7.152547e+00 -6.307857e+00 -8.144504e+00 -1.100376e+00 -1.009650e+01 -3.161884e+00 -2.040631e+00 -7.504019e+00 -1.756705e+00 -6.116684e+00 5.588039e+01 2.817962e-03 4.981637e-03 4.548633e-03 2.702527e-03 2.655869e-03 -1.117672e-03 1.608044e-03 -3.151441e-03 -3.712254e-03 -1.791283e-03 1.229354e-03 1.825009e-03 2.279447e-03 -1.567647e-04 1.019357e-04 4.115858e-04 4.298519e-04 4.558307e-04 4.934241e-04 7.134664e-04 4.210645e-05 1.306027e-03 7.725984e-04 6.409848e-05 2.180072e-04 3.076123e-05
<VARIANCE> 39
 8.208594e+01 5.293768e+01 6.391951e+01 7.540031e+01 4.923005e+01 8.213964e+01 6.779455e+01 4.465966e+01 5.228432e+01 5.634802e+01 4.882239e+01 3.657957e+01 3.634417e+02 2.940478e+00 1.617222e+00 2.109190e+00 2.693671e+00 2.944042e+00 3.395159e+00 2.999779e+00 2.803180e+00 2.794289e+00 2.821964e+00 3.087791e+00 2.200109e+00 3.351369e+00 4.135351e-01 2.700506e-01 3.264397e-01 4.158920e-01 5.331165e-01 5.542809e-01 5.216286e-01 4.910770e-01 4.786579e-01 4.816228e-01 5.339736e-01 3.985440e-01 3.592102e-01
<GCONST> 1.283362e+02
<STATE> 4
<MEAN> 39
 -7.685329e+00 -6.064180e+00 -7.152547e+00 -6.307857e+00 -8.144504e+00 -1.100376e+00 -1.009650e+01 -3.161884e+00 -2.040631e+00 -7.504019e+00 -1.756705e+00 -6.116684e+00 5.588039e+01 2.817962e-03 4.981637e-03 4.548633e-03 2.702527e-03 2.655869e-03 -1.117672e-03 1.608044e-03 -3.151441e-03 -3.712254e-03 -1.791283e-03 1.229354e-03 1.825009e-03 2.279447e-03 -1.567647e-04 1.019357e-04 4.115858e-04 4.298519e-04 4.558307e-04 4.934241e-04 7.134664e-04 4.210645e-05 1.306027e-03 7.725984e-04 6.409848e-05 2.180072e-04 3.076123e-05
<VARIANCE> 39
 8.208594e+01 5.293768e+01 6.391951e+01 7.540031e+01 4.923005e+01 8.213964e+01 6.779455e+01 4.465966e+01 5.228432e+01 5.634802e+01 4.882239e+01 3.657957e+01 3.634417e+02 2.940478e+00 1.617222e+00 2.109190e+00 2.693671e+00 2.944042e+00 3.395159e+00 2.999779e+00 2.803180e+00 2.794289e+00 2.821964e+00 3.087791e+00 2.200109e+00 3.351369e+00 4.135351e-01 2.700506e-01 3.264397e-01 4.158920e-01 5.331165e-01 5.542809e-01 5.216286e-01 4.910770e-01 4.786579e-01 4.816228e-01 5.339736e-01 3.985440e-01 3.592102e-01
<GCONST> 1.283362e+02
<TRANSP> 5
 0.000000e+00 1.000000e+00 0.000000e+00 0.000000e+00 0.000000e+00
 0.000000e+00 6.000000e-01 4.000000e-01 0.000000e+00 0.000000e+00
 0.000000e+00 0.000000e+00 6.000000e-01 4.000000e-01 0.000000e+00
 0.000000e+00 0.000000e+00 0.000000e+00 7.000000e-01 3.000000e-01
 0.000000e+00 0.000000e+00 0.000000e+00 0.000000e+00 0.000000e+00
<ENDHMM>
~h "yi"
<BEGINHMM>
<NUMSTATES> 5
<STATE> 2
<MEAN> 39
 -7.685329e+00 -6.064180e+00 -7.152547e+00 -6.307857e+00 -8.144504e+00 -1.100376e+00 -1.009650e+01 -3.161884e+00 -2.040631e+00 -7.504019e+00 -1.756705e+00 -6.116684e+00 5.588039e+01 2.817962e-03 4.981637e-03 4.548633e-03 2.702527e-03 2.655869e-03 -1.117672e-03 1.608044e-03 -3.151441e-03 -3.712254e-03 -1.791283e-03 1.229354e-03 1.825009e-03 2.279447e-03 -1.567647e-04 1.019357e-04 4.115858e-04 4.298519e-04 4.558307e-04 4.934241e-04 7.134664e-04 4.210645e-05 1.306027e-03 7.725984e-04 6.409848e-05 2.180072e-04 3.076123e-05
<VARIANCE> 39
 8.208594e+01 5.293768e+01 6.391951e+01 7.540031e+01 4.923005e+01 8.213964e+01 6.779455e+01 4.465966e+01 5.228432e+01 5.634802e+01 4.882239e+01 3.657957e+01 3.634417e+02 2.940478e+00 1.617222e+00 2.109190e+00 2.693671e+00 2.944042e+00 3.395159e+00 2.999779e+00 2.803180e+00 2.794289e+00 2.821964e+00 3.087791e+00 2.200109e+00 3.351369e+00 4.135351e-01 2.700506e-01 3.264397e-01 4.158920e-01 5.331165e-01 5.542809e-01 5.216286e-01 4.910770e-01 4.786579e-01 4.816228e-01 5.339736e-01 3.985440e-01 3.592102e-01
<GCONST> 1.283362e+02
<STATE> 3
<MEAN> 39
 -7.685329e+00 -6.064180e+00 -7.152547e+00 -6.307857e+00 -8.144504e+00 -1.100376e+00 -1.009650e+01 -3.161884e+00 -2.040631e+00 -7.504019e+00 -1.756705e+00 -6.116684e+00 5.588039e+01 2.817962e-03 4.981637e-03 4.548633e-03 2.702527e-03 2.655869e-03 -1.117672e-03 1.608044e-03 -3.151441e-03 -3.712254e-03 -1.791283e-03 1.229354e-03 1.825009e-03 2.279447e-03 -1.567647e-04 1.019357e-04 4.115858e-04 4.298519e-04 4.558307e-04 4.934241e-04 7.134664e-04 4.210645e-05 1.306027e-03 7.725984e-04 6.409848e-05 2.180072e-04 3.076123e-05
<VARIANCE> 39
 8.208594e+01 5.293768e+01 6.391951e+01 7.540031e+01 4.923005e+01 8.213964e+01 6.779455e+01 4.465966e+01 5.228432e+01 5.634802e+01 4.882239e+01 3.657957e+01 3.634417e+02 2.940478e+00 1.617222e+00 2.109190e+00 2.693671e+00 2.944042e+00 3.395159e+00 2.999779e+00 2.803180e+00 2.794289e+00 2.821964e+00 3.087791e+00 2.200109e+00 3.351369e+00 4.135351e-01 2.700506e-01 3.264397e-01 4.158920e-01 5.331165e-01 5.542809e-01 5.216286e-01 4.910770e-01 4.786579e-01 4.816228e-01 5.339736e-01 3.985440e-01 3.592102e-01
<GCONST> 1.283362e+02
<STATE> 4
<MEAN> 39
 -7.685329e+00 -6.064180e+00 -7.152547e+00 -6.307857e+00 -8.144504e+00 -1.100376e+00 -1.009650e+01 -3.161884e+00 -2.040631e+00 -7.504019e+00 -1.756705e+00 -6.116684e+00 5.588039e+01 2.817962e-03 4.981637e-03 4.548633e-03 2.702527e-03 2.655869e-03 -1.117672e-03 1.608044e-03 -3.151441e-03 -3.712254e-03 -1.791283e-03 1.229354e-03 1.825009e-03 2.279447e-03 -1.567647e-04 1.019357e-04 4.115858e-04 4.298519e-04 4.558307e-04 4.934241e-04 7.134664e-04 4.210645e-05 1.306027e-03 7.725984e-04 6.409848e-05 2.180072e-04 3.076123e-05
<VARIANCE> 39
 8.208594e+01 5.293768e+01 6.391951e+01 7.540031e+01 4.923005e+01 8.213964e+01 6.779455e+01 4.465966e+01 5.228432e+01 5.634802e+01 4.882239e+01 3.657957e+01 3.634417e+02 2.940478e+00 1.617222e+00 2.109190e+00 2.693671e+00 2.944042e+00 3.395159e+00 2.999779e+00 2.803180e+00 2.794289e+00 2.821964e+00 3.087791e+00 2.200109e+00 3.351369e+00 4.135351e-01 2.700506e-01 3.264397e-01 4.158920e-01 5.331165e-01 5.542809e-01 5.216286e-01 4.910770e-01 4.786579e-01 4.816228e-01 5.339736e-01 3.985440e-01 3.592102e-01
<GCONST> 1.283362e+02
<TRANSP> 5
 0.000000e+00 1.000000e+00 0.000000e+00 0.000000e+00 0.000000e+00
 0.000000e+00 6.000000e-01 4.000000e-01 0.000000e+00 0.000000e+00
 0.000000e+00 0.000000e+00 6.000000e-01 4.000000e-01 0.000000e+00
 0.000000e+00 0.000000e+00 0.000000e+00 7.000000e-01 3.000000e-01
 0.000000e+00 0.000000e+00 0.000000e+00 0.000000e+00 0.000000e+00
<ENDHMM>
~h "q"
<BEGINHMM>
<NUMSTATES> 5
<STATE> 2
<MEAN> 39
 -7.685329e+00 -6.064180e+00 -7.152547e+00 -6.307857e+00 -8.144504e+00 -1.100376e+00 -1.009650e+01 -3.161884e+00 -2.040631e+00 -7.504019e+00 -1.756705e+00 -6.116684e+00 5.588039e+01 2.817962e-03 4.981637e-03 4.548633e-03 2.702527e-03 2.655869e-03 -1.117672e-03 1.608044e-03 -3.151441e-03 -3.712254e-03 -1.791283e-03 1.229354e-03 1.825009e-03 2.279447e-03 -1.567647e-04 1.019357e-04 4.115858e-04 4.298519e-04 4.558307e-04 4.934241e-04 7.134664e-04 4.210645e-05 1.306027e-03 7.725984e-04 6.409848e-05 2.180072e-04 3.076123e-05
<VARIANCE> 39
 8.208594e+01 5.293768e+01 6.391951e+01 7.540031e+01 4.923005e+01 8.213964e+01 6.779455e+01 4.465966e+01 5.228432e+01 5.634802e+01 4.882239e+01 3.657957e+01 3.634417e+02 2.940478e+00 1.617222e+00 2.109190e+00 2.693671e+00 2.944042e+00 3.395159e+00 2.999779e+00 2.803180e+00 2.794289e+00 2.821964e+00 3.087791e+00 2.200109e+00 3.351369e+00 4.135351e-01 2.700506e-01 3.264397e-01 4.158920e-01 5.331165e-01 5.542809e-01 5.216286e-01 4.910770e-01 4.786579e-01 4.816228e-01 5.339736e-01 3.985440e-01 3.592102e-01
<GCONST> 1.283362e+02
<STATE> 3
<MEAN> 39
 -7.685329e+00 -6.064180e+00 -7.152547e+00 -6.307857e+00 -8.144504e+00 -1.100376e+00 -1.009650e+01 -3.161884e+00 -2.040631e+00 -7.504019e+00 -1.756705e+00 -6.116684e+00 5.588039e+01 2.817962e-03 4.981637e-03 4.548633e-03 2.702527e-03 2.655869e-03 -1.117672e-03 1.608044e-03 -3.151441e-03 -3.712254e-03 -1.791283e-03 1.229354e-03 1.825009e-03 2.279447e-03 -1.567647e-04 1.019357e-04 4.115858e-04 4.298519e-04 4.558307e-04 4.934241e-04 7.134664e-04 4.210645e-05 1.306027e-03 7.725984e-04 6.409848e-05 2.180072e-04 3.076123e-05
<VARIANCE> 39
 8.208594e+01 5.293768e+01 6.391951e+01 7.540031e+01 4.923005e+01 8.213964e+01 6.779455e+01 4.465966e+01 5.228432e+01 5.634802e+01 4.882239e+01 3.657957e+01 3.634417e+02 2.940478e+00 1.617222e+00 2.109190e+00 2.693671e+00 2.944042e+00 3.395159e+00 2.999779e+00 2.803180e+00 2.794289e+00 2.821964e+00 3.087791e+00 2.200109e+00 3.351369e+00 4.135351e-01 2.700506e-01 3.264397e-01 4.158920e-01 5.331165e-01 5.542809e-01 5.216286e-01 4.910770e-01 4.786579e-01 4.816228e-01 5.339736e-01 3.985440e-01 3.592102e-01
<GCONST> 1.283362e+02
<STATE> 4
<MEAN> 39
 -7.685329e+00 -6.064180e+00 -7.152547e+00 -6.307857e+00 -8.144504e+00 -1.100376e+00 -1.009650e+01 -3.161884e+00 -2.040631e+00 -7.504019e+00 -1.756705e+00 -6.116684e+00 5.588039e+01 2.817962e-03 4.981637e-03 4.548633e-03 2.702527e-03 2.655869e-03 -1.117672e-03 1.608044e-03 -3.151441e-03 -3.712254e-03 -1.791283e-03 1.229354e-03 1.825009e-03 2.279447e-03 -1.567647e-04 1.019357e-04 4.115858e-04 4.298519e-04 4.558307e-04 4.934241e-04 7.134664e-04 4.210645e-05 1.306027e-03 7.725984e-04 6.409848e-05 2.180072e-04 3.076123e-05
<VARIANCE> 39
 8.208594e+01 5.293768e+01 6.391951e+01 7.540031e+01 4.923005e+01 8.213964e+01 6.779455e+01 4.465966e+01 5.228432e+01 5.634802e+01 4.882239e+01 3.657957e+01 3.634417e+02 2.940478e+00 1.617222e+00 2.109190e+00 2.693671e+00 2.944042e+00 3.395159e+00 2.999779e+00 2.803180e+00 2.794289e+00 2.821964e+00 3.087791e+00 2.200109e+00 3.351369e+00 4.135351e-01 2.700506e-01 3.264397e-01 4.158920e-01 5.331165e-01 5.542809e-01 5.216286e-01 4.910770e-01 4.786579e-01 4.816228e-01 5.339736e-01 3.985440e-01 3.592102e-01
<GCONST> 1.283362e+02
<TRANSP> 5
 0.000000e+00 1.000000e+00 0.000000e+00 0.000000e+00 0.000000e+00
 0.000000e+00 6.000000e-01 4.000000e-01 0.000000e+00 0.000000e+00
 0.000000e+00 0.000000e+00 6.000000e-01 4.000000e-01 0.000000e+00
 0.000000e+00 0.000000e+00 0.000000e+00 7.000000e-01 3.000000e-01
 0.000000e+00 0.000000e+00 0.000000e+00 0.000000e+00 0.000000e+00
<ENDHMM>
~h "i"
<BEGINHMM>
<NUMSTATES> 5
<STATE> 2
<MEAN> 39
 -7.685329e+00 -6.064180e+00 -7.152547e+00 -6.307857e+00 -8.144504e+00 -1.100376e+00 -1.009650e+01 -3.161884e+00 -2.040631e+00 -7.504019e+00 -1.756705e+00 -6.116684e+00 5.588039e+01 2.817962e-03 4.981637e-03 4.548633e-03 2.702527e-03 2.655869e-03 -1.117672e-03 1.608044e-03 -3.151441e-03 -3.712254e-03 -1.791283e-03 1.229354e-03 1.825009e-03 2.279447e-03 -1.567647e-04 1.019357e-04 4.115858e-04 4.298519e-04 4.558307e-04 4.934241e-04 7.134664e-04 4.210645e-05 1.306027e-03 7.725984e-04 6.409848e-05 2.180072e-04 3.076123e-05
<VARIANCE> 39
 8.208594e+01 5.293768e+01 6.391951e+01 7.540031e+01 4.923005e+01 8.213964e+01 6.779455e+01 4.465966e+01 5.228432e+01 5.634802e+01 4.882239e+01 3.657957e+01 3.634417e+02 2.940478e+00 1.617222e+00 2.109190e+00 2.693671e+00 2.944042e+00 3.395159e+00 2.999779e+00 2.803180e+00 2.794289e+00 2.821964e+00 3.087791e+00 2.200109e+00 3.351369e+00 4.135351e-01 2.700506e-01 3.264397e-01 4.158920e-01 5.331165e-01 5.542809e-01 5.216286e-01 4.910770e-01 4.786579e-01 4.816228e-01 5.339736e-01 3.985440e-01 3.592102e-01
<GCONST> 1.283362e+02
<STATE> 3
<MEAN> 39
 -7.685329e+00 -6.064180e+00 -7.152547e+00 -6.307857e+00 -8.144504e+00 -1.100376e+00 -1.009650e+01 -3.161884e+00 -2.040631e+00 -7.504019e+00 -1.756705e+00 -6.116684e+00 5.588039e+01 2.817962e-03 4.981637e-03 4.548633e-03 2.702527e-03 2.655869e-03 -1.117672e-03 1.608044e-03 -3.151441e-03 -3.712254e-03 -1.791283e-03 1.229354e-03 1.825009e-03 2.279447e-03 -1.567647e-04 1.019357e-04 4.115858e-04 4.298519e-04 4.558307e-04 4.934241e-04 7.134664e-04 4.210645e-05 1.306027e-03 7.725984e-04 6.409848e-05 2.180072e-04 3.076123e-05
<VARIANCE> 39
 8.208594e+01 5.293768e+01 6.391951e+01 7.540031e+01 4.923005e+01 8.213964e+01 6.779455e+01 4.465966e+01 5.228432e+01 5.634802e+01 4.882239e+01 3.657957e+01 3.634417e+02 2.940478e+00 1.617222e+00 2.109190e+00 2.693671e+00 2.944042e+00 3.395159e+00 2.999779e+00 2.803180e+00 2.794289e+00 2.821964e+00 3.087791e+00 2.200109e+00 3.351369e+00 4.135351e-01 2.700506e-01 3.264397e-01 4.158920e-01 5.331165e-01 5.542809e-01 5.216286e-01 4.910770e-01 4.786579e-01 4.816228e-01 5.339736e-01 3.985440e-01 3.592102e-01
<GCONST> 1.283362e+02
<STATE> 4
<MEAN> 39
 -7.685329e+00 -6.064180e+00 -7.152547e+00 -6.307857e+00 -8.144504e+00 -1.100376e+00 -1.009650e+01 -3.161884e+00 -2.040631e+00 -7.504019e+00 -1.756705e+00 -6.116684e+00 5.588039e+01 2.817962e-03 4.981637e-03 4.548633e-03 2.702527e-03 2.655869e-03 -1.117672e-03 1.608044e-03 -3.151441e-03 -3.712254e-03 -1.791283e-03 1.229354e-03 1.825009e-03 2.279447e-03 -1.567647e-04 1.019357e-04 4.115858e-04 4.298519e-04 4.558307e-04 4.934241e-04 7.134664e-04 4.210645e-05 1.306027e-03 7.725984e-04 6.409848e-05 2.180072e-04 3.076123e-05
<VARIANCE> 39
 8.208594e+01 5.293768e+01 6.391951e+01 7.540031e+01 4.923005e+01 8.213964e+01 6.779455e+01 4.465966e+01 5.228432e+01 5.634802e+01 4.882239e+01 3.657957e+01 3.634417e+02 2.940478e+00 1.617222e+00 2.109190e+00 2.693671e+00 2.944042e+00 3.395159e+00 2.999779e+00 2.803180e+00 2.794289e+00 2.821964e+00 3.087791e+00 2.200109e+00 3.351369e+00 4.135351e-01 2.700506e-01 3.264397e-01 4.158920e-01 5.331165e-01 5.542809e-01 5.216286e-01 4.910770e-01 4.786579e-01 4.816228e-01 5.339736e-01 3.985440e-01 3.592102e-01
<GCONST> 1.283362e+02
<TRANSP> 5
 0.000000e+00 1.000000e+00 0.000000e+00 0.000000e+00 0.000000e+00
 0.000000e+00 6.000000e-01 4.000000e-01 0.000000e+00 0.000000e+00
 0.000000e+00 0.000000e+00 6.000000e-01 4.000000e-01 0.000000e+00
 0.000000e+00 0.000000e+00 0.000000e+00 7.000000e-01 3.000000e-01
 0.000000e+00 0.000000e+00 0.000000e+00 0.000000e+00 0.000000e+00
<ENDHMM>
~h "s"
<BEGINHMM>
<NUMSTATES> 5
<STATE> 2
<MEAN> 39
 -7.685329e+00 -6.064180e+00 -7.152547e+00 -6.307857e+00 -8.144504e+00 -1.100376e+00 -1.009650e+01 -3.161884e+00 -2.040631e+00 -7.504019e+00 -1.756705e+00 -6.116684e+00 5.588039e+01 2.817962e-03 4.981637e-03 4.548633e-03 2.702527e-03 2.655869e-03 -1.117672e-03 1.608044e-03 -3.151441e-03 -3.712254e-03 -1.791283e-03 1.229354e-03 1.825009e-03 2.279447e-03 -1.567647e-04 1.019357e-04 4.115858e-04 4.298519e-04 4.558307e-04 4.934241e-04 7.134664e-04 4.210645e-05 1.306027e-03 7.725984e-04 6.409848e-05 2.180072e-04 3.076123e-05
<VARIANCE> 39
 8.208594e+01 5.293768e+01 6.391951e+01 7.540031e+01 4.923005e+01 8.213964e+01 6.779455e+01 4.465966e+01 5.228432e+01 5.634802e+01 4.882239e+01 3.657957e+01 3.634417e+02 2.940478e+00 1.617222e+00 2.109190e+00 2.693671e+00 2.944042e+00 3.395159e+00 2.999779e+00 2.803180e+00 2.794289e+00 2.821964e+00 3.087791e+00 2.200109e+00 3.351369e+00 4.135351e-01 2.700506e-01 3.264397e-01 4.158920e-01 5.331165e-01 5.542809e-01 5.216286e-01 4.910770e-01 4.786579e-01 4.816228e-01 5.339736e-01 3.985440e-01 3.592102e-01
<GCONST> 1.283362e+02
<STATE> 3
<MEAN> 39
 -7.685329e+00 -6.064180e+00 -7.152547e+00 -6.307857e+00 -8.144504e+00 -1.100376e+00 -1.009650e+01 -3.161884e+00 -2.040631e+00 -7.504019e+00 -1.756705e+00 -6.116684e+00 5.588039e+01 2.817962e-03 4.981637e-03 4.548633e-03 2.702527e-03 2.655869e-03 -1.117672e-03 1.608044e-03 -3.151441e-03 -3.712254e-03 -1.791283e-03 1.229354e-03 1.825009e-03 2.279447e-03 -1.567647e-04 1.019357e-04 4.115858e-04 4.298519e-04 4.558307e-04 4.934241e-04 7.134664e-04 4.210645e-05 1.306027e-03 7.725984e-04 6.409848e-05 2.180072e-04 3.076123e-05
<VARIANCE> 39
 8.208594e+01 5.293768e+01 6.391951e+01 7.540031e+01 4.923005e+01 8.213964e+01 6.779455e+01 4.465966e+01 5.228432e+01 5.634802e+01 4.882239e+01 3.657957e+01 3.634417e+02 2.940478e+00 1.617222e+00 2.109190e+00 2.693671e+00 2.944042e+00 3.395159e+00 2.999779e+00 2.803180e+00 2.794289e+00 2.821964e+00 3.087791e+00 2.200109e+00 3.351369e+00 4.135351e-01 2.700506e-01 3.264397e-01 4.158920e-01 5.331165e-01 5.542809e-01 5.216286e-01 4.910770e-01 4.786579e-01 4.816228e-01 5.339736e-01 3.985440e-01 3.592102e-01
<GCONST> 1.283362e+02
<STATE> 4
<MEAN> 39
 -7.685329e+00 -6.064180e+00 -7.152547e+00 -6.307857e+00 -8.144504e+00 -1.100376e+00 -1.009650e+01 -3.161884e+00 -2.040631e+00 -7.504019e+00 -1.756705e+00 -6.116684e+00 5.588039e+01 2.817962e-03 4.981637e-03 4.548633e-03 2.702527e-03 2.655869e-03 -1.117672e-03 1.608044e-03 -3.151441e-03 -3.712254e-03 -1.791283e-03 1.229354e-03 1.825009e-03 2.279447e-03 -1.567647e-04 1.019357e-04 4.115858e-04 4.298519e-04 4.558307e-04 4.934241e-04 7.134664e-04 4.210645e-05 1.306027e-03 7.725984e-04 6.409848e-05 2.180072e-04 3.076123e-05
<VARIANCE> 39
 8.208594e+01 5.293768e+01 6.391951e+01 7.540031e+01 4.923005e+01 8.213964e+01 6.779455e+01 4.465966e+01 5.228432e+01 5.634802e+01 4.882239e+01 3.657957e+01 3.634417e+02 2.940478e+00 1.617222e+00 2.109190e+00 2.693671e+00 2.944042e+00 3.395159e+00 2.999779e+00 2.803180e+00 2.794289e+00 2.821964e+00 3.087791e+00 2.200109e+00 3.351369e+00 4.135351e-01 2.700506e-01 3.264397e-01 4.158920e-01 5.331165e-01 5.542809e-01 5.216286e-01 4.910770e-01 4.786579e-01 4.816228e-01 5.339736e-01 3.985440e-01 3.592102e-01
<GCONST> 1.283362e+02
<TRANSP> 5
 0.000000e+00 1.000000e+00 0.000000e+00 0.000000e+00 0.000000e+00
 0.000000e+00 6.000000e-01 4.000000e-01 0.000000e+00 0.000000e+00
 0.000000e+00 0.000000e+00 6.000000e-01 4.000000e-01 0.000000e+00
 0.000000e+00 0.000000e+00 0.000000e+00 7.000000e-01 3.000000e-01
 0.000000e+00 0.000000e+00 0.000000e+00 0.000000e+00 0.000000e+00
<ENDHMM>
~h "an"
<BEGINHMM>
<NUMSTATES> 5
<STATE> 2
<MEAN> 39
 -7.685329e+00 -6.064180e+00 -7.152547e+00 -6.307857e+00 -8.144504e+00 -1.100376e+00 -1.009650e+01 -3.161884e+00 -2.040631e+00 -7.504019e+00 -1.756705e+00 -6.116684e+00 5.588039e+01 2.817962e-03 4.981637e-03 4.548633e-03 2.702527e-03 2.655869e-03 -1.117672e-03 1.608044e-03 -3.151441e-03 -3.712254e-03 -1.791283e-03 1.229354e-03 1.825009e-03 2.279447e-03 -1.567647e-04 1.019357e-04 4.115858e-04 4.298519e-04 4.558307e-04 4.934241e-04 7.134664e-04 4.210645e-05 1.306027e-03 7.725984e-04 6.409848e-05 2.180072e-04 3.076123e-05
<VARIANCE> 39
 8.208594e+01 5.293768e+01 6.391951e+01 7.540031e+01 4.923005e+01 8.213964e+01 6.779455e+01 4.465966e+01 5.228432e+01 5.634802e+01 4.882239e+01 3.657957e+01 3.634417e+02 2.940478e+00 1.617222e+00 2.109190e+00 2.693671e+00 2.944042e+00 3.395159e+00 2.999779e+00 2.803180e+00 2.794289e+00 2.821964e+00 3.087791e+00 2.200109e+00 3.351369e+00 4.135351e-01 2.700506e-01 3.264397e-01 4.158920e-01 5.331165e-01 5.542809e-01 5.216286e-01 4.910770e-01 4.786579e-01 4.816228e-01 5.339736e-01 3.985440e-01 3.592102e-01
<GCONST> 1.283362e+02
<STATE> 3
<MEAN> 39
 -7.685329e+00 -6.064180e+00 -7.152547e+00 -6.307857e+00 -8.144504e+00 -1.100376e+00 -1.009650e+01 -3.161884e+00 -2.040631e+00 -7.504019e+00 -1.756705e+00 -6.116684e+00 5.588039e+01 2.817962e-03 4.981637e-03 4.548633e-03 2.702527e-03 2.655869e-03 -1.117672e-03 1.608044e-03 -3.151441e-03 -3.712254e-03 -1.791283e-03 1.229354e-03 1.825009e-03 2.279447e-03 -1.567647e-04 1.019357e-04 4.115858e-04 4.298519e-04 4.558307e-04 4.934241e-04 7.134664e-04 4.210645e-05 1.306027e-03 7.725984e-04 6.409848e-05 2.180072e-04 3.076123e-05
<VARIANCE> 39
 8.208594e+01 5.293768e+01 6.391951e+01 7.540031e+01 4.923005e+01 8.213964e+01 6.779455e+01 4.465966e+01 5.228432e+01 5.634802e+01 4.882239e+01 3.657957e+01 3.634417e+02 2.940478e+00 1.617222e+00 2.109190e+00 2.693671e+00 2.944042e+00 3.395159e+00 2.999779e+00 2.803180e+00 2.794289e+00 2.821964e+00 3.087791e+00 2.200109e+00 3.351369e+00 4.135351e-01 2.700506e-01 3.264397e-01 4.158920e-01 5.331165e-01 5.542809e-01 5.216286e-01 4.910770e-01 4.786579e-01 4.816228e-01 5.339736e-01 3.985440e-01 3.592102e-01
<GCONST> 1.283362e+02
<STATE> 4
<MEAN> 39
 -7.685329e+00 -6.064180e+00 -7.152547e+00 -6.307857e+00 -8.144504e+00 -1.100376e+00 -1.009650e+01 -3.161884e+00 -2.040631e+00 -7.504019e+00 -1.756705e+00 -6.116684e+00 5.588039e+01 2.817962e-03 4.981637e-03 4.548633e-03 2.702527e-03 2.655869e-03 -1.117672e-03 1.608044e-03 -3.151441e-03 -3.712254e-03 -1.791283e-03 1.229354e-03 1.825009e-03 2.279447e-03 -1.567647e-04 1.019357e-04 4.115858e-04 4.298519e-04 4.558307e-04 4.934241e-04 7.134664e-04 4.210645e-05 1.306027e-03 7.725984e-04 6.409848e-05 2.180072e-04 3.076123e-05
<VARIANCE> 39
 8.208594e+01 5.293768e+01 6.391951e+01 7.540031e+01 4.923005e+01 8.213964e+01 6.779455e+01 4.465966e+01 5.228432e+01 5.634802e+01 4.882239e+01 3.657957e+01 3.634417e+02 2.940478e+00 1.617222e+00 2.109190e+00 2.693671e+00 2.944042e+00 3.395159e+00 2.999779e+00 2.803180e+00 2.794289e+00 2.821964e+00 3.087791e+00 2.200109e+00 3.351369e+00 4.135351e-01 2.700506e-01 3.264397e-01 4.158920e-01 5.331165e-01 5.542809e-01 5.216286e-01 4.910770e-01 4.786579e-01 4.816228e-01 5.339736e-01 3.985440e-01 3.592102e-01
<GCONST> 1.283362e+02
<TRANSP> 5
 0.000000e+00 1.000000e+00 0.000000e+00 0.000000e+00 0.000000e+00
 0.000000e+00 6.000000e-01 4.000000e-01 0.000000e+00 0.000000e+00
 0.000000e+00 0.000000e+00 6.000000e-01 4.000000e-01 0.000000e+00
 0.000000e+00 0.000000e+00 0.000000e+00 7.000000e-01 3.000000e-01
 0.000000e+00 0.000000e+00 0.000000e+00 0.000000e+00 0.000000e+00
<ENDHMM>
~h "j"
<BEGINHMM>
<NUMSTATES> 5
<STATE> 2
<MEAN> 39
 -7.685329e+00 -6.064180e+00 -7.152547e+00 -6.307857e+00 -8.144504e+00 -1.100376e+00 -1.009650e+01 -3.161884e+00 -2.040631e+00 -7.504019e+00 -1.756705e+00 -6.116684e+00 5.588039e+01 2.817962e-03 4.981637e-03 4.548633e-03 2.702527e-03 2.655869e-03 -1.117672e-03 1.608044e-03 -3.151441e-03 -3.712254e-03 -1.791283e-03 1.229354e-03 1.825009e-03 2.279447e-03 -1.567647e-04 1.019357e-04 4.115858e-04 4.298519e-04 4.558307e-04 4.934241e-04 7.134664e-04 4.210645e-05 1.306027e-03 7.725984e-04 6.409848e-05 2.180072e-04 3.076123e-05
<VARIANCE> 39
 8.208594e+01 5.293768e+01 6.391951e+01 7.540031e+01 4.923005e+01 8.213964e+01 6.779455e+01 4.465966e+01 5.228432e+01 5.634802e+01 4.882239e+01 3.657957e+01 3.634417e+02 2.940478e+00 1.617222e+00 2.109190e+00 2.693671e+00 2.944042e+00 3.395159e+00 2.999779e+00 2.803180e+00 2.794289e+00 2.821964e+00 3.087791e+00 2.200109e+00 3.351369e+00 4.135351e-01 2.700506e-01 3.264397e-01 4.158920e-01 5.331165e-01 5.542809e-01 5.216286e-01 4.910770e-01 4.786579e-01 4.816228e-01 5.339736e-01 3.985440e-01 3.592102e-01
<GCONST> 1.283362e+02
<STATE> 3
<MEAN> 39
 -7.685329e+00 -6.064180e+00 -7.152547e+00 -6.307857e+00 -8.144504e+00 -1.100376e+00 -1.009650e+01 -3.161884e+00 -2.040631e+00 -7.504019e+00 -1.756705e+00 -6.116684e+00 5.588039e+01 2.817962e-03 4.981637e-03 4.548633e-03 2.702527e-03 2.655869e-03 -1.117672e-03 1.608044e-03 -3.151441e-03 -3.712254e-03 -1.791283e-03 1.229354e-03 1.825009e-03 2.279447e-03 -1.567647e-04 1.019357e-04 4.115858e-04 4.298519e-04 4.558307e-04 4.934241e-04 7.134664e-04 4.210645e-05 1.306027e-03 7.725984e-04 6.409848e-05 2.180072e-04 3.076123e-05
<VARIANCE> 39
 8.208594e+01 5.293768e+01 6.391951e+01 7.540031e+01 4.923005e+01 8.213964e+01 6.779455e+01 4.465966e+01 5.228432e+01 5.634802e+01 4.882239e+01 3.657957e+01 3.634417e+02 2.940478e+00 1.617222e+00 2.109190e+00 2.693671e+00 2.944042e+00 3.395159e+00 2.999779e+00 2.803180e+00 2.794289e+00 2.821964e+00 3.087791e+00 2.200109e+00 3.351369e+00 4.135351e-01 2.700506e-01 3.264397e-01 4.158920e-01 5.331165e-01 5.542809e-01 5.216286e-01 4.910770e-01 4.786579e-01 4.816228e-01 5.339736e-01 3.985440e-01 3.592102e-01
<GCONST> 1.283362e+02
<STATE> 4
<MEAN> 39
 -7.685329e+00 -6.064180e+00 -7.152547e+00 -6.307857e+00 -8.144504e+00 -1.100376e+00 -1.009650e+01 -3.161884e+00 -2.040631e+00 -7.504019e+00 -1.756705e+00 -6.116684e+00 5.588039e+01 2.817962e-03 4.981637e-03 4.548633e-03 2.702527e-03 2.655869e-03 -1.117672e-03 1.608044e-03 -3.151441e-03 -3.712254e-03 -1.791283e-03 1.229354e-03 1.825009e-03 2.279447e-03 -1.567647e-04 1.019357e-04 4.115858e-04 4.298519e-04 4.558307e-04 4.934241e-04 7.134664e-04 4.210645e-05 1.306027e-03 7.725984e-04 6.409848e-05 2.180072e-04 3.076123e-05
<VARIANCE> 39
 8.208594e+01 5.293768e+01 6.391951e+01 7.540031e+01 4.923005e+01 8.213964e+01 6.779455e+01 4.465966e+01 5.228432e+01 5.634802e+01 4.882239e+01 3.657957e+01 3.634417e+02 2.940478e+00 1.617222e+00 2.109190e+00 2.693671e+00 2.944042e+00 3.395159e+00 2.999779e+00 2.803180e+00 2.794289e+00 2.821964e+00 3.087791e+00 2.200109e+00 3.351369e+00 4.135351e-01 2.700506e-01 3.264397e-01 4.158920e-01 5.331165e-01 5.542809e-01 5.216286e-01 4.910770e-01 4.786579e-01 4.816228e-01 5.339736e-01 3.985440e-01 3.592102e-01
<GCONST> 1.283362e+02
<TRANSP> 5
 0.000000e+00 1.000000e+00 0.000000e+00 0.000000e+00 0.000000e+00
 0.000000e+00 6.000000e-01 4.000000e-01 0.000000e+00 0.000000e+00
 0.000000e+00 0.000000e+00 6.000000e-01 4.000000e-01 0.000000e+00
 0.000000e+00 0.000000e+00 0.000000e+00 7.000000e-01 3.000000e-01
 0.000000e+00 0.000000e+00 0.000000e+00 0.000000e+00 0.000000e+00
<ENDHMM>
~h "iu"
<BEGINHMM>
<NUMSTATES> 5
<STATE> 2
<MEAN> 39
 -7.685329e+00 -6.064180e+00 -7.152547e+00 -6.307857e+00 -8.144504e+00 -1.100376e+00 -1.009650e+01 -3.161884e+00 -2.040631e+00 -7.504019e+00 -1.756705e+00 -6.116684e+00 5.588039e+01 2.817962e-03 4.981637e-03 4.548633e-03 2.702527e-03 2.655869e-03 -1.117672e-03 1.608044e-03 -3.151441e-03 -3.712254e-03 -1.791283e-03 1.229354e-03 1.825009e-03 2.279447e-03 -1.567647e-04 1.019357e-04 4.115858e-04 4.298519e-04 4.558307e-04 4.934241e-04 7.134664e-04 4.210645e-05 1.306027e-03 7.725984e-04 6.409848e-05 2.180072e-04 3.076123e-05
<VARIANCE> 39
 8.208594e+01 5.293768e+01 6.391951e+01 7.540031e+01 4.923005e+01 8.213964e+01 6.779455e+01 4.465966e+01 5.228432e+01 5.634802e+01 4.882239e+01 3.657957e+01 3.634417e+02 2.940478e+00 1.617222e+00 2.109190e+00 2.693671e+00 2.944042e+00 3.395159e+00 2.999779e+00 2.803180e+00 2.794289e+00 2.821964e+00 3.087791e+00 2.200109e+00 3.351369e+00 4.135351e-01 2.700506e-01 3.264397e-01 4.158920e-01 5.331165e-01 5.542809e-01 5.216286e-01 4.910770e-01 4.786579e-01 4.816228e-01 5.339736e-01 3.985440e-01 3.592102e-01
<GCONST> 1.283362e+02
<STATE> 3
<MEAN> 39
 -7.685329e+00 -6.064180e+00 -7.152547e+00 -6.307857e+00 -8.144504e+00 -1.100376e+00 -1.009650e+01 -3.161884e+00 -2.040631e+00 -7.504019e+00 -1.756705e+00 -6.116684e+00 5.588039e+01 2.817962e-03 4.981637e-03 4.548633e-03 2.702527e-03 2.655869e-03 -1.117672e-03 1.608044e-03 -3.151441e-03 -3.712254e-03 -1.791283e-03 1.229354e-03 1.825009e-03 2.279447e-03 -1.567647e-04 1.019357e-04 4.115858e-04 4.298519e-04 4.558307e-04 4.934241e-04 7.134664e-04 4.210645e-05 1.306027e-03 7.725984e-04 6.409848e-05 2.180072e-04 3.076123e-05
<VARIANCE> 39
 8.208594e+01 5.293768e+01 6.391951e+01 7.540031e+01 4.923005e+01 8.213964e+01 6.779455e+01 4.465966e+01 5.228432e+01 5.634802e+01 4.882239e+01 3.657957e+01 3.634417e+02 2.940478e+00 1.617222e+00 2.109190e+00 2.693671e+00 2.944042e+00 3.395159e+00 2.999779e+00 2.803180e+00 2.794289e+00 2.821964e+00 3.087791e+00 2.200109e+00 3.351369e+00 4.135351e-01 2.700506e-01 3.264397e-01 4.158920e-01 5.331165e-01 5.542809e-01 5.216286e-01 4.910770e-01 4.786579e-01 4.816228e-01 5.339736e-01 3.985440e-01 3.592102e-01
<GCONST> 1.283362e+02
<STATE> 4
<MEAN> 39
 -7.685329e+00 -6.064180e+00 -7.152547e+00 -6.307857e+00 -8.144504e+00 -1.100376e+00 -1.009650e+01 -3.161884e+00 -2.040631e+00 -7.504019e+00 -1.756705e+00 -6.116684e+00 5.588039e+01 2.817962e-03 4.981637e-03 4.548633e-03 2.702527e-03 2.655869e-03 -1.117672e-03 1.608044e-03 -3.151441e-03 -3.712254e-03 -1.791283e-03 1.229354e-03 1.825009e-03 2.279447e-03 -1.567647e-04 1.019357e-04 4.115858e-04 4.298519e-04 4.558307e-04 4.934241e-04 7.134664e-04 4.210645e-05 1.306027e-03 7.725984e-04 6.409848e-05 2.180072e-04 3.076123e-05
<VARIANCE> 39
 8.208594e+01 5.293768e+01 6.391951e+01 7.540031e+01 4.923005e+01 8.213964e+01 6.779455e+01 4.465966e+01 5.228432e+01 5.634802e+01 4.882239e+01 3.657957e+01 3.634417e+02 2.940478e+00 1.617222e+00 2.109190e+00 2.693671e+00 2.944042e+00 3.395159e+00 2.999779e+00 2.803180e+00 2.794289e+00 2.821964e+00 3.087791e+00 2.200109e+00 3.351369e+00 4.135351e-01 2.700506e-01 3.264397e-01 4.158920e-01 5.331165e-01 5.542809e-01 5.216286e-01 4.910770e-01 4.786579e-01 4.816228e-01 5.339736e-01 3.985440e-01 3.592102e-01
<GCONST> 1.283362e+02
<TRANSP> 5
 0.000000e+00 1.000000e+00 0.000000e+00 0.000000e+00 0.000000e+00
 0.000000e+00 6.000000e-01 4.000000e-01 0.000000e+00 0.000000e+00
 0.000000e+00 0.000000e+00 6.000000e-01 4.000000e-01 0.000000e+00
 0.000000e+00 0.000000e+00 0.000000e+00 7.000000e-01 3.000000e-01
 0.000000e+00 0.000000e+00 0.000000e+00 0.000000e+00 0.000000e+00
<ENDHMM>
~h "er"
<BEGINHMM>
<NUMSTATES> 5
<STATE> 2
<MEAN> 39
 -7.685329e+00 -6.064180e+00 -7.152547e+00 -6.307857e+00 -8.144504e+00 -1.100376e+00 -1.009650e+01 -3.161884e+00 -2.040631e+00 -7.504019e+00 -1.756705e+00 -6.116684e+00 5.588039e+01 2.817962e-03 4.981637e-03 4.548633e-03 2.702527e-03 2.655869e-03 -1.117672e-03 1.608044e-03 -3.151441e-03 -3.712254e-03 -1.791283e-03 1.229354e-03 1.825009e-03 2.279447e-03 -1.567647e-04 1.019357e-04 4.115858e-04 4.298519e-04 4.558307e-04 4.934241e-04 7.134664e-04 4.210645e-05 1.306027e-03 7.725984e-04 6.409848e-05 2.180072e-04 3.076123e-05
<VARIANCE> 39
 8.208594e+01 5.293768e+01 6.391951e+01 7.540031e+01 4.923005e+01 8.213964e+01 6.779455e+01 4.465966e+01 5.228432e+01 5.634802e+01 4.882239e+01 3.657957e+01 3.634417e+02 2.940478e+00 1.617222e+00 2.109190e+00 2.693671e+00 2.944042e+00 3.395159e+00 2.999779e+00 2.803180e+00 2.794289e+00 2.821964e+00 3.087791e+00 2.200109e+00 3.351369e+00 4.135351e-01 2.700506e-01 3.264397e-01 4.158920e-01 5.331165e-01 5.542809e-01 5.216286e-01 4.910770e-01 4.786579e-01 4.816228e-01 5.339736e-01 3.985440e-01 3.592102e-01
<GCONST> 1.283362e+02
<STATE> 3
<MEAN> 39
 -7.685329e+00 -6.064180e+00 -7.152547e+00 -6.307857e+00 -8.144504e+00 -1.100376e+00 -1.009650e+01 -3.161884e+00 -2.040631e+00 -7.504019e+00 -1.756705e+00 -6.116684e+00 5.588039e+01 2.817962e-03 4.981637e-03 4.548633e-03 2.702527e-03 2.655869e-03 -1.117672e-03 1.608044e-03 -3.151441e-03 -3.712254e-03 -1.791283e-03 1.229354e-03 1.825009e-03 2.279447e-03 -1.567647e-04 1.019357e-04 4.115858e-04 4.298519e-04 4.558307e-04 4.934241e-04 7.134664e-04 4.210645e-05 1.306027e-03 7.725984e-04 6.409848e-05 2.180072e-04 3.076123e-05
<VARIANCE> 39
 8.208594e+01 5.293768e+01 6.391951e+01 7.540031e+01 4.923005e+01 8.213964e+01 6.779455e+01 4.465966e+01 5.228432e+01 5.634802e+01 4.882239e+01 3.657957e+01 3.634417e+02 2.940478e+00 1.617222e+00 2.109190e+00 2.693671e+00 2.944042e+00 3.395159e+00 2.999779e+00 2.803180e+00 2.794289e+00 2.821964e+00 3.087791e+00 2.200109e+00 3.351369e+00 4.135351e-01 2.700506e-01 3.264397e-01 4.158920e-01 5.331165e-01 5.542809e-01 5.216286e-01 4.910770e-01 4.786579e-01 4.816228e-01 5.339736e-01 3.985440e-01 3.592102e-01
<GCONST> 1.283362e+02
<STATE> 4
<MEAN> 39
 -7.685329e+00 -6.064180e+00 -7.152547e+00 -6.307857e+00 -8.144504e+00 -1.100376e+00 -1.009650e+01 -3.161884e+00 -2.040631e+00 -7.504019e+00 -1.756705e+00 -6.116684e+00 5.588039e+01 2.817962e-03 4.981637e-03 4.548633e-03 2.702527e-03 2.655869e-03 -1.117672e-03 1.608044e-03 -3.151441e-03 -3.712254e-03 -1.791283e-03 1.229354e-03 1.825009e-03 2.279447e-03 -1.567647e-04 1.019357e-04 4.115858e-04 4.298519e-04 4.558307e-04 4.934241e-04 7.134664e-04 4.210645e-05 1.306027e-03 7.725984e-04 6.409848e-05 2.180072e-04 3.076123e-05
<VARIANCE> 39
 8.208594e+01 5.293768e+01 6.391951e+01 7.540031e+01 4.923005e+01 8.213964e+01 6.779455e+01 4.465966e+01 5.228432e+01 5.634802e+01 4.882239e+01 3.657957e+01 3.634417e+02 2.940478e+00 1.617222e+00 2.109190e+00 2.693671e+00 2.944042e+00 3.395159e+00 2.999779e+00 2.803180e+00 2.794289e+00 2.821964e+00 3.087791e+00 2.200109e+00 3.351369e+00 4.135351e-01 2.700506e-01 3.264397e-01 4.158920e-01 5.331165e-01 5.542809e-01 5.216286e-01 4.910770e-01 4.786579e-01 4.816228e-01 5.339736e-01 3.985440e-01 3.592102e-01
<GCONST> 1.283362e+02
<TRANSP> 5
 0.000000e+00 1.000000e+00 0.000000e+00 0.000000e+00 0.000000e+00
 0.000000e+00 6.000000e-01 4.000000e-01 0.000000e+00 0.000000e+00
 0.000000e+00 0.000000e+00 6.000000e-01 4.000000e-01 0.000000e+00
 0.000000e+00 0.000000e+00 0.000000e+00 7.000000e-01 3.000000e-01
 0.000000e+00 0.000000e+00 0.000000e+00 0.000000e+00 0.000000e+00
<ENDHMM>
~h "wu"
<BEGINHMM>
<NUMSTATES> 5
<STATE> 2
<MEAN> 39
 -7.685329e+00 -6.064180e+00 -7.152547e+00 -6.307857e+00 -8.144504e+00 -1.100376e+00 -1.009650e+01 -3.161884e+00 -2.040631e+00 -7.504019e+00 -1.756705e+00 -6.116684e+00 5.588039e+01 2.817962e-03 4.981637e-03 4.548633e-03 2.702527e-03 2.655869e-03 -1.117672e-03 1.608044e-03 -3.151441e-03 -3.712254e-03 -1.791283e-03 1.229354e-03 1.825009e-03 2.279447e-03 -1.567647e-04 1.019357e-04 4.115858e-04 4.298519e-04 4.558307e-04 4.934241e-04 7.134664e-04 4.210645e-05 1.306027e-03 7.725984e-04 6.409848e-05 2.180072e-04 3.076123e-05
<VARIANCE> 39
 8.208594e+01 5.293768e+01 6.391951e+01 7.540031e+01 4.923005e+01 8.213964e+01 6.779455e+01 4.465966e+01 5.228432e+01 5.634802e+01 4.882239e+01 3.657957e+01 3.634417e+02 2.940478e+00 1.617222e+00 2.109190e+00 2.693671e+00 2.944042e+00 3.395159e+00 2.999779e+00 2.803180e+00 2.794289e+00 2.821964e+00 3.087791e+00 2.200109e+00 3.351369e+00 4.135351e-01 2.700506e-01 3.264397e-01 4.158920e-01 5.331165e-01 5.542809e-01 5.216286e-01 4.910770e-01 4.786579e-01 4.816228e-01 5.339736e-01 3.985440e-01 3.592102e-01
<GCONST> 1.283362e+02
<STATE> 3
<MEAN> 39
 -7.685329e+00 -6.064180e+00 -7.152547e+00 -6.307857e+00 -8.144504e+00 -1.100376e+00 -1.009650e+01 -3.161884e+00 -2.040631e+00 -7.504019e+00 -1.756705e+00 -6.116684e+00 5.588039e+01 2.817962e-03 4.981637e-03 4.548633e-03 2.702527e-03 2.655869e-03 -1.117672e-03 1.608044e-03 -3.151441e-03 -3.712254e-03 -1.791283e-03 1.229354e-03 1.825009e-03 2.279447e-03 -1.567647e-04 1.019357e-04 4.115858e-04 4.298519e-04 4.558307e-04 4.934241e-04 7.134664e-04 4.210645e-05 1.306027e-03 7.725984e-04 6.409848e-05 2.180072e-04 3.076123e-05
<VARIANCE> 39
 8.208594e+01 5.293768e+01 6.391951e+01 7.540031e+01 4.923005e+01 8.213964e+01 6.779455e+01 4.465966e+01 5.228432e+01 5.634802e+01 4.882239e+01 3.657957e+01 3.634417e+02 2.940478e+00 1.617222e+00 2.109190e+00 2.693671e+00 2.944042e+00 3.395159e+00 2.999779e+00 2.803180e+00 2.794289e+00 2.821964e+00 3.087791e+00 2.200109e+00 3.351369e+00 4.135351e-01 2.700506e-01 3.264397e-01 4.158920e-01 5.331165e-01 5.542809e-01 5.216286e-01 4.910770e-01 4.786579e-01 4.816228e-01 5.339736e-01 3.985440e-01 3.592102e-01
<GCONST> 1.283362e+02
<STATE> 4
<MEAN> 39
 -7.685329e+00 -6.064180e+00 -7.152547e+00 -6.307857e+00 -8.144504e+00 -1.100376e+00 -1.009650e+01 -3.161884e+00 -2.040631e+00 -7.504019e+00 -1.756705e+00 -6.116684e+00 5.588039e+01 2.817962e-03 4.981637e-03 4.548633e-03 2.702527e-03 2.655869e-03 -1.117672e-03 1.608044e-03 -3.151441e-03 -3.712254e-03 -1.791283e-03 1.229354e-03 1.825009e-03 2.279447e-03 -1.567647e-04 1.019357e-04 4.115858e-04 4.298519e-04 4.558307e-04 4.934241e-04 7.134664e-04 4.210645e-05 1.306027e-03 7.725984e-04 6.409848e-05 2.180072e-04 3.076123e-05
<VARIANCE> 39
 8.208594e+01 5.293768e+01 6.391951e+01 7.540031e+01 4.923005e+01 8.213964e+01 6.779455e+01 4.465966e+01 5.228432e+01 5.634802e+01 4.882239e+01 3.657957e+01 3.634417e+02 2.940478e+00 1.617222e+00 2.109190e+00 2.693671e+00 2.944042e+00 3.395159e+00 2.999779e+00 2.803180e+00 2.794289e+00 2.821964e+00 3.087791e+00 2.200109e+00 3.351369e+00 4.135351e-01 2.700506e-01 3.264397e-01 4.158920e-01 5.331165e-01 5.542809e-01 5.216286e-01 4.910770e-01 4.786579e-01 4.816228e-01 5.339736e-01 3.985440e-01 3.592102e-01
<GCONST> 1.283362e+02
<TRANSP> 5
 0.000000e+00 1.000000e+00 0.000000e+00 0.000000e+00 0.000000e+00
 0.000000e+00 6.000000e-01 4.000000e-01 0.000000e+00 0.000000e+00
 0.000000e+00 0.000000e+00 6.000000e-01 4.000000e-01 0.000000e+00
 0.000000e+00 0.000000e+00 0.000000e+00 7.000000e-01 3.000000e-01
 0.000000e+00 0.000000e+00 0.000000e+00 0.000000e+00 0.000000e+00
<ENDHMM>
~h "b"
<BEGINHMM>
<NUMSTATES> 5
<STATE> 2
<MEAN> 39
 -7.685329e+00 -6.064180e+00 -7.152547e+00 -6.307857e+00 -8.144504e+00 -1.100376e+00 -1.009650e+01 -3.161884e+00 -2.040631e+00 -7.504019e+00 -1.756705e+00 -6.116684e+00 5.588039e+01 2.817962e-03 4.981637e-03 4.548633e-03 2.702527e-03 2.655869e-03 -1.117672e-03 1.608044e-03 -3.151441e-03 -3.712254e-03 -1.791283e-03 1.229354e-03 1.825009e-03 2.279447e-03 -1.567647e-04 1.019357e-04 4.115858e-04 4.298519e-04 4.558307e-04 4.934241e-04 7.134664e-04 4.210645e-05 1.306027e-03 7.725984e-04 6.409848e-05 2.180072e-04 3.076123e-05
<VARIANCE> 39
 8.208594e+01 5.293768e+01 6.391951e+01 7.540031e+01 4.923005e+01 8.213964e+01 6.779455e+01 4.465966e+01 5.228432e+01 5.634802e+01 4.882239e+01 3.657957e+01 3.634417e+02 2.940478e+00 1.617222e+00 2.109190e+00 2.693671e+00 2.944042e+00 3.395159e+00 2.999779e+00 2.803180e+00 2.794289e+00 2.821964e+00 3.087791e+00 2.200109e+00 3.351369e+00 4.135351e-01 2.700506e-01 3.264397e-01 4.158920e-01 5.331165e-01 5.542809e-01 5.216286e-01 4.910770e-01 4.786579e-01 4.816228e-01 5.339736e-01 3.985440e-01 3.592102e-01
<GCONST> 1.283362e+02
<STATE> 3
<MEAN> 39
 -7.685329e+00 -6.064180e+00 -7.152547e+00 -6.307857e+00 -8.144504e+00 -1.100376e+00 -1.009650e+01 -3.161884e+00 -2.040631e+00 -7.504019e+00 -1.756705e+00 -6.116684e+00 5.588039e+01 2.817962e-03 4.981637e-03 4.548633e-03 2.702527e-03 2.655869e-03 -1.117672e-03 1.608044e-03 -3.151441e-03 -3.712254e-03 -1.791283e-03 1.229354e-03 1.825009e-03 2.279447e-03 -1.567647e-04 1.019357e-04 4.115858e-04 4.298519e-04 4.558307e-04 4.934241e-04 7.134664e-04 4.210645e-05 1.306027e-03 7.725984e-04 6.409848e-05 2.180072e-04 3.076123e-05
<VARIANCE> 39
 8.208594e+01 5.293768e+01 6.391951e+01 7.540031e+01 4.923005e+01 8.213964e+01 6.779455e+01 4.465966e+01 5.228432e+01 5.634802e+01 4.882239e+01 3.657957e+01 3.634417e+02 2.940478e+00 1.617222e+00 2.109190e+00 2.693671e+00 2.944042e+00 3.395159e+00 2.999779e+00 2.803180e+00 2.794289e+00 2.821964e+00 3.087791e+00 2.200109e+00 3.351369e+00 4.135351e-01 2.700506e-01 3.264397e-01 4.158920e-01 5.331165e-01 5.542809e-01 5.216286e-01 4.910770e-01 4.786579e-01 4.816228e-01 5.339736e-01 3.985440e-01 3.592102e-01
<GCONST> 1.283362e+02
<STATE> 4
<MEAN> 39
 -7.685329e+00 -6.064180e+00 -7.152547e+00 -6.307857e+00 -8.144504e+00 -1.100376e+00 -1.009650e+01 -3.161884e+00 -2.040631e+00 -7.504019e+00 -1.756705e+00 -6.116684e+00 5.588039e+01 2.817962e-03 4.981637e-03 4.548633e-03 2.702527e-03 2.655869e-03 -1.117672e-03 1.608044e-03 -3.151441e-03 -3.712254e-03 -1.791283e-03 1.229354e-03 1.825009e-03 2.279447e-03 -1.567647e-04 1.019357e-04 4.115858e-04 4.298519e-04 4.558307e-04 4.934241e-04 7.134664e-04 4.210645e-05 1.306027e-03 7.725984e-04 6.409848e-05 2.180072e-04 3.076123e-05
<VARIANCE> 39
 8.208594e+01 5.293768e+01 6.391951e+01 7.540031e+01 4.923005e+01 8.213964e+01 6.779455e+01 4.465966e+01 5.228432e+01 5.634802e+01 4.882239e+01 3.657957e+01 3.634417e+02 2.940478e+00 1.617222e+00 2.109190e+00 2.693671e+00 2.944042e+00 3.395159e+00 2.999779e+00 2.803180e+00 2.794289e+00 2.821964e+00 3.087791e+00 2.200109e+00 3.351369e+00 4.135351e-01 2.700506e-01 3.264397e-01 4.158920e-01 5.331165e-01 5.542809e-01 5.216286e-01 4.910770e-01 4.786579e-01 4.816228e-01 5.339736e-01 3.985440e-01 3.592102e-01
<GCONST> 1.283362e+02
<TRANSP> 5
 0.000000e+00 1.000000e+00 0.000000e+00 0.000000e+00 0.000000e+00
 0.000000e+00 6.000000e-01 4.000000e-01 0.000000e+00 0.000000e+00
 0.000000e+00 0.000000e+00 6.000000e-01 4.000000e-01 0.000000e+00
 0.000000e+00 0.000000e+00 0.000000e+00 7.000000e-01 3.000000e-01
 0.000000e+00 0.000000e+00 0.000000e+00 0.000000e+00 0.000000e+00
<ENDHMM>
~h "a"
<BEGINHMM>
<NUMSTATES> 5
<STATE> 2
<MEAN> 39
 -7.685329e+00 -6.064180e+00 -7.152547e+00 -6.307857e+00 -8.144504e+00 -1.100376e+00 -1.009650e+01 -3.161884e+00 -2.040631e+00 -7.504019e+00 -1.756705e+00 -6.116684e+00 5.588039e+01 2.817962e-03 4.981637e-03 4.548633e-03 2.702527e-03 2.655869e-03 -1.117672e-03 1.608044e-03 -3.151441e-03 -3.712254e-03 -1.791283e-03 1.229354e-03 1.825009e-03 2.279447e-03 -1.567647e-04 1.019357e-04 4.115858e-04 4.298519e-04 4.558307e-04 4.934241e-04 7.134664e-04 4.210645e-05 1.306027e-03 7.725984e-04 6.409848e-05 2.180072e-04 3.076123e-05
<VARIANCE> 39
 8.208594e+01 5.293768e+01 6.391951e+01 7.540031e+01 4.923005e+01 8.213964e+01 6.779455e+01 4.465966e+01 5.228432e+01 5.634802e+01 4.882239e+01 3.657957e+01 3.634417e+02 2.940478e+00 1.617222e+00 2.109190e+00 2.693671e+00 2.944042e+00 3.395159e+00 2.999779e+00 2.803180e+00 2.794289e+00 2.821964e+00 3.087791e+00 2.200109e+00 3.351369e+00 4.135351e-01 2.700506e-01 3.264397e-01 4.158920e-01 5.331165e-01 5.542809e-01 5.216286e-01 4.910770e-01 4.786579e-01 4.816228e-01 5.339736e-01 3.985440e-01 3.592102e-01
<GCONST> 1.283362e+02
<STATE> 3
<MEAN> 39
 -7.685329e+00 -6.064180e+00 -7.152547e+00 -6.307857e+00 -8.144504e+00 -1.100376e+00 -1.009650e+01 -3.161884e+00 -2.040631e+00 -7.504019e+00 -1.756705e+00 -6.116684e+00 5.588039e+01 2.817962e-03 4.981637e-03 4.548633e-03 2.702527e-03 2.655869e-03 -1.117672e-03 1.608044e-03 -3.151441e-03 -3.712254e-03 -1.791283e-03 1.229354e-03 1.825009e-03 2.279447e-03 -1.567647e-04 1.019357e-04 4.115858e-04 4.298519e-04 4.558307e-04 4.934241e-04 7.134664e-04 4.210645e-05 1.306027e-03 7.725984e-04 6.409848e-05 2.180072e-04 3.076123e-05
<VARIANCE> 39
 8.208594e+01 5.293768e+01 6.391951e+01 7.540031e+01 4.923005e+01 8.213964e+01 6.779455e+01 4.465966e+01 5.228432e+01 5.634802e+01 4.882239e+01 3.657957e+01 3.634417e+02 2.940478e+00 1.617222e+00 2.109190e+00 2.693671e+00 2.944042e+00 3.395159e+00 2.999779e+00 2.803180e+00 2.794289e+00 2.821964e+00 3.087791e+00 2.200109e+00 3.351369e+00 4.135351e-01 2.700506e-01 3.264397e-01 4.158920e-01 5.331165e-01 5.542809e-01 5.216286e-01 4.910770e-01 4.786579e-01 4.816228e-01 5.339736e-01 3.985440e-01 3.592102e-01
<GCONST> 1.283362e+02
<STATE> 4
<MEAN> 39
 -7.685329e+00 -6.064180e+00 -7.152547e+00 -6.307857e+00 -8.144504e+00 -1.100376e+00 -1.009650e+01 -3.161884e+00 -2.040631e+00 -7.504019e+00 -1.756705e+00 -6.116684e+00 5.588039e+01 2.817962e-03 4.981637e-03 4.548633e-03 2.702527e-03 2.655869e-03 -1.117672e-03 1.608044e-03 -3.151441e-03 -3.712254e-03 -1.791283e-03 1.229354e-03 1.825009e-03 2.279447e-03 -1.567647e-04 1.019357e-04 4.115858e-04 4.298519e-04 4.558307e-04 4.934241e-04 7.134664e-04 4.210645e-05 1.306027e-03 7.725984e-04 6.409848e-05 2.180072e-04 3.076123e-05
<VARIANCE> 39
 8.208594e+01 5.293768e+01 6.391951e+01 7.540031e+01 4.923005e+01 8.213964e+01 6.779455e+01 4.465966e+01 5.228432e+01 5.634802e+01 4.882239e+01 3.657957e+01 3.634417e+02 2.940478e+00 1.617222e+00 2.109190e+00 2.693671e+00 2.944042e+00 3.395159e+00 2.999779e+00 2.803180e+00 2.794289e+00 2.821964e+00 3.087791e+00 2.200109e+00 3.351369e+00 4.135351e-01 2.700506e-01 3.264397e-01 4.158920e-01 5.331165e-01 5.542809e-01 5.216286e-01 4.910770e-01 4.786579e-01 4.816228e-01 5.339736e-01 3.985440e-01 3.592102e-01
<GCONST> 1.283362e+02
<TRANSP> 5
 0.000000e+00 1.000000e+00 0.000000e+00 0.000000e+00 0.000000e+00
 0.000000e+00 6.000000e-01 4.000000e-01 0.000000e+00 0.000000e+00
 0.000000e+00 0.000000e+00 6.000000e-01 4.000000e-01 0.000000e+00
 0.000000e+00 0.000000e+00 0.000000e+00 7.000000e-01 3.000000e-01
 0.000000e+00 0.000000e+00 0.000000e+00 0.000000e+00 0.000000e+00
<ENDHMM>
~h "a"
<BEGINHMM>
<NUMSTATES> 5
<STATE> 2
<MEAN> 39
 -7.685329e+00 -6.064180e+00 -7.152547e+00 -6.307857e+00 -8.144504e+00 -1.100376e+00 -1.009650e+01 -3.161884e+00 -2.040631e+00 -7.504019e+00 -1.756705e+00 -6.116684e+00 5.588039e+01 2.817962e-03 4.981637e-03 4.548633e-03 2.702527e-03 2.655869e-03 -1.117672e-03 1.608044e-03 -3.151441e-03 -3.712254e-03 -1.791283e-03 1.229354e-03 1.825009e-03 2.279447e-03 -1.567647e-04 1.019357e-04 4.115858e-04 4.298519e-04 4.558307e-04 4.934241e-04 7.134664e-04 4.210645e-05 1.306027e-03 7.725984e-04 6.409848e-05 2.180072e-04 3.076123e-05
<VARIANCE> 39
 8.208594e+01 5.293768e+01 6.391951e+01 7.540031e+01 4.923005e+01 8.213964e+01 6.779455e+01 4.465966e+01 5.228432e+01 5.634802e+01 4.882239e+01 3.657957e+01 3.634417e+02 2.940478e+00 1.617222e+00 2.109190e+00 2.693671e+00 2.944042e+00 3.395159e+00 2.999779e+00 2.803180e+00 2.794289e+00 2.821964e+00 3.087791e+00 2.200109e+00 3.351369e+00 4.135351e-01 2.700506e-01 3.264397e-01 4.158920e-01 5.331165e-01 5.542809e-01 5.216286e-01 4.910770e-01 4.786579e-01 4.816228e-01 5.339736e-01 3.985440e-01 3.592102e-01
<GCONST> 1.283362e+02
<STATE> 3
<MEAN> 39
 -7.685329e+00 -6.064180e+00 -7.152547e+00 -6.307857e+00 -8.144504e+00 -1.100376e+00 -1.009650e+01 -3.161884e+00 -2.040631e+00 -7.504019e+00 -1.756705e+00 -6.116684e+00 5.588039e+01 2.817962e-03 4.981637e-03 4.548633e-03 2.702527e-03 2.655869e-03 -1.117672e-03 1.608044e-03 -3.151441e-03 -3.712254e-03 -1.791283e-03 1.229354e-03 1.825009e-03 2.279447e-03 -1.567647e-04 1.019357e-04 4.115858e-04 4.298519e-04 4.558307e-04 4.934241e-04 7.134664e-04 4.210645e-05 1.306027e-03 7.725984e-04 6.409848e-05 2.180072e-04 3.076123e-05
<VARIANCE> 39
 8.208594e+01 5.293768e+01 6.391951e+01 7.540031e+01 4.923005e+01 8.213964e+01 6.779455e+01 4.465966e+01 5.228432e+01 5.634802e+01 4.882239e+01 3.657957e+01 3.634417e+02 2.940478e+00 1.617222e+00 2.109190e+00 2.693671e+00 2.944042e+00 3.395159e+00 2.999779e+00 2.803180e+00 2.794289e+00 2.821964e+00 3.087791e+00 2.200109e+00 3.351369e+00 4.135351e-01 2.700506e-01 3.264397e-01 4.158920e-01 5.331165e-01 5.542809e-01 5.216286e-01 4.910770e-01 4.786579e-01 4.816228e-01 5.339736e-01 3.985440e-01 3.592102e-01
<GCONST> 1.283362e+02
<STATE> 4
<MEAN> 39
 -7.685329e+00 -6.064180e+00 -7.152547e+00 -6.307857e+00 -8.144504e+00 -1.100376e+00 -1.009650e+01 -3.161884e+00 -2.040631e+00 -7.504019e+00 -1.756705e+00 -6.116684e+00 5.588039e+01 2.817962e-03 4.981637e-03 4.548633e-03 2.702527e-03 2.655869e-03 -1.117672e-03 1.608044e-03 -3.151441e-03 -3.712254e-03 -1.791283e-03 1.229354e-03 1.825009e-03 2.279447e-03 -1.567647e-04 1.019357e-04 4.115858e-04 4.298519e-04 4.558307e-04 4.934241e-04 7.134664e-04 4.210645e-05 1.306027e-03 7.725984e-04 6.409848e-05 2.180072e-04 3.076123e-05
<VARIANCE> 39
 8.208594e+01 5.293768e+01 6.391951e+01 7.540031e+01 4.923005e+01 8.213964e+01 6.779455e+01 4.465966e+01 5.228432e+01 5.634802e+01 4.882239e+01 3.657957e+01 3.634417e+02 2.940478e+00 1.617222e+00 2.109190e+00 2.693671e+00 2.944042e+00 3.395159e+00 2.999779e+00 2.803180e+00 2.794289e+00 2.821964e+00 3.087791e+00 2.200109e+00 3.351369e+00 4.135351e-01 2.700506e-01 3.264397e-01 4.158920e-01 5.331165e-01 5.542809e-01 5.216286e-01 4.910770e-01 4.786579e-01 4.816228e-01 5.339736e-01 3.985440e-01 3.592102e-01
<GCONST> 1.283362e+02
<TRANSP> 5
 0.000000e+00 1.000000e+00 0.000000e+00 0.000000e+00 0.000000e+00
 0.000000e+00 6.000000e-01 4.000000e-01 0.000000e+00 0.000000e+00
 0.000000e+00 0.000000e+00 6.000000e-01 4.000000e-01 0.000000e+00
 0.000000e+00 0.000000e+00 0.000000e+00 7.000000e-01 3.000000e-01
 0.000000e+00 0.000000e+00 0.000000e+00 0.000000e+00 0.000000e+00
<ENDHMM>
~h "l"
<BEGINHMM>
<NUMSTATES> 5
<STATE> 2
<MEAN> 39
 -7.685329e+00 -6.064180e+00 -7.152547e+00 -6.307857e+00 -8.144504e+00 -1.100376e+00 -1.009650e+01 -3.161884e+00 -2.040631e+00 -7.504019e+00 -1.756705e+00 -6.116684e+00 5.588039e+01 2.817962e-03 4.981637e-03 4.548633e-03 2.702527e-03 2.655869e-03 -1.117672e-03 1.608044e-03 -3.151441e-03 -3.712254e-03 -1.791283e-03 1.229354e-03 1.825009e-03 2.279447e-03 -1.567647e-04 1.019357e-04 4.115858e-04 4.298519e-04 4.558307e-04 4.934241e-04 7.134664e-04 4.210645e-05 1.306027e-03 7.725984e-04 6.409848e-05 2.180072e-04 3.076123e-05
<VARIANCE> 39
 8.208594e+01 5.293768e+01 6.391951e+01 7.540031e+01 4.923005e+01 8.213964e+01 6.779455e+01 4.465966e+01 5.228432e+01 5.634802e+01 4.882239e+01 3.657957e+01 3.634417e+02 2.940478e+00 1.617222e+00 2.109190e+00 2.693671e+00 2.944042e+00 3.395159e+00 2.999779e+00 2.803180e+00 2.794289e+00 2.821964e+00 3.087791e+00 2.200109e+00 3.351369e+00 4.135351e-01 2.700506e-01 3.264397e-01 4.158920e-01 5.331165e-01 5.542809e-01 5.216286e-01 4.910770e-01 4.786579e-01 4.816228e-01 5.339736e-01 3.985440e-01 3.592102e-01
<GCONST> 1.283362e+02
<STATE> 3
<MEAN> 39
 -7.685329e+00 -6.064180e+00 -7.152547e+00 -6.307857e+00 -8.144504e+00 -1.100376e+00 -1.009650e+01 -3.161884e+00 -2.040631e+00 -7.504019e+00 -1.756705e+00 -6.116684e+00 5.588039e+01 2.817962e-03 4.981637e-03 4.548633e-03 2.702527e-03 2.655869e-03 -1.117672e-03 1.608044e-03 -3.151441e-03 -3.712254e-03 -1.791283e-03 1.229354e-03 1.825009e-03 2.279447e-03 -1.567647e-04 1.019357e-04 4.115858e-04 4.298519e-04 4.558307e-04 4.934241e-04 7.134664e-04 4.210645e-05 1.306027e-03 7.725984e-04 6.409848e-05 2.180072e-04 3.076123e-05
<VARIANCE> 39
 8.208594e+01 5.293768e+01 6.391951e+01 7.540031e+01 4.923005e+01 8.213964e+01 6.779455e+01 4.465966e+01 5.228432e+01 5.634802e+01 4.882239e+01 3.657957e+01 3.634417e+02 2.940478e+00 1.617222e+00 2.109190e+00 2.693671e+00 2.944042e+00 3.395159e+00 2.999779e+00 2.803180e+00 2.794289e+00 2.821964e+00 3.087791e+00 2.200109e+00 3.351369e+00 4.135351e-01 2.700506e-01 3.264397e-01 4.158920e-01 5.331165e-01 5.542809e-01 5.216286e-01 4.910770e-01 4.786579e-01 4.816228e-01 5.339736e-01 3.985440e-01 3.592102e-01
<GCONST> 1.283362e+02
<STATE> 4
<MEAN> 39
 -7.685329e+00 -6.064180e+00 -7.152547e+00 -6.307857e+00 -8.144504e+00 -1.100376e+00 -1.009650e+01 -3.161884e+00 -2.040631e+00 -7.504019e+00 -1.756705e+00 -6.116684e+00 5.588039e+01 2.817962e-03 4.981637e-03 4.548633e-03 2.702527e-03 2.655869e-03 -1.117672e-03 1.608044e-03 -3.151441e-03 -3.712254e-03 -1.791283e-03 1.229354e-03 1.825009e-03 2.279447e-03 -1.567647e-04 1.019357e-04 4.115858e-04 4.298519e-04 4.558307e-04 4.934241e-04 7.134664e-04 4.210645e-05 1.306027e-03 7.725984e-04 6.409848e-05 2.180072e-04 3.076123e-05
<VARIANCE> 39
 8.208594e+01 5.293768e+01 6.391951e+01 7.540031e+01 4.923005e+01 8.213964e+01 6.779455e+01 4.465966e+01 5.228432e+01 5.634802e+01 4.882239e+01 3.657957e+01 3.634417e+02 2.940478e+00 1.617222e+00 2.109190e+00 2.693671e+00 2.944042e+00 3.395159e+00 2.999779e+00 2.803180e+00 2.794289e+00 2.821964e+00 3.087791e+00 2.200109e+00 3.351369e+00 4.135351e-01 2.700506e-01 3.264397e-01 4.158920e-01 5.331165e-01 5.542809e-01 5.216286e-01 4.910770e-01 4.786579e-01 4.816228e-01 5.339736e-01 3.985440e-01 3.592102e-01
<GCONST> 1.283362e+02
<TRANSP> 5
 0.000000e+00 1.000000e+00 0.000000e+00 0.000000e+00 0.000000e+00
 0.000000e+00 6.000000e-01 4.000000e-01 0.000000e+00 0.000000e+00
 0.000000e+00 0.000000e+00 6.000000e-01 4.000000e-01 0.000000e+00
 0.000000e+00 0.000000e+00 0.000000e+00 7.000000e-01 3.000000e-01
 0.000000e+00 0.000000e+00 0.000000e+00 0.000000e+00 0.000000e+00
<ENDHMM>
~h "g"
<BEGINHMM>
<NUMSTATES> 5
<STATE> 2
<MEAN> 39
 -7.685329e+00 -6.064180e+00 -7.152547e+00 -6.307857e+00 -8.144504e+00 -1.100376e+00 -1.009650e+01 -3.161884e+00 -2.040631e+00 -7.504019e+00 -1.756705e+00 -6.116684e+00 5.588039e+01 2.817962e-03 4.981637e-03 4.548633e-03 2.702527e-03 2.655869e-03 -1.117672e-03 1.608044e-03 -3.151441e-03 -3.712254e-03 -1.791283e-03 1.229354e-03 1.825009e-03 2.279447e-03 -1.567647e-04 1.019357e-04 4.115858e-04 4.298519e-04 4.558307e-04 4.934241e-04 7.134664e-04 4.210645e-05 1.306027e-03 7.725984e-04 6.409848e-05 2.180072e-04 3.076123e-05
<VARIANCE> 39
 8.208594e+01 5.293768e+01 6.391951e+01 7.540031e+01 4.923005e+01 8.213964e+01 6.779455e+01 4.465966e+01 5.228432e+01 5.634802e+01 4.882239e+01 3.657957e+01 3.634417e+02 2.940478e+00 1.617222e+00 2.109190e+00 2.693671e+00 2.944042e+00 3.395159e+00 2.999779e+00 2.803180e+00 2.794289e+00 2.821964e+00 3.087791e+00 2.200109e+00 3.351369e+00 4.135351e-01 2.700506e-01 3.264397e-01 4.158920e-01 5.331165e-01 5.542809e-01 5.216286e-01 4.910770e-01 4.786579e-01 4.816228e-01 5.339736e-01 3.985440e-01 3.592102e-01
<GCONST> 1.283362e+02
<STATE> 3
<MEAN> 39
 -7.685329e+00 -6.064180e+00 -7.152547e+00 -6.307857e+00 -8.144504e+00 -1.100376e+00 -1.009650e+01 -3.161884e+00 -2.040631e+00 -7.504019e+00 -1.756705e+00 -6.116684e+00 5.588039e+01 2.817962e-03 4.981637e-03 4.548633e-03 2.702527e-03 2.655869e-03 -1.117672e-03 1.608044e-03 -3.151441e-03 -3.712254e-03 -1.791283e-03 1.229354e-03 1.825009e-03 2.279447e-03 -1.567647e-04 1.019357e-04 4.115858e-04 4.298519e-04 4.558307e-04 4.934241e-04 7.134664e-04 4.210645e-05 1.306027e-03 7.725984e-04 6.409848e-05 2.180072e-04 3.076123e-05
<VARIANCE> 39
 8.208594e+01 5.293768e+01 6.391951e+01 7.540031e+01 4.923005e+01 8.213964e+01 6.779455e+01 4.465966e+01 5.228432e+01 5.634802e+01 4.882239e+01 3.657957e+01 3.634417e+02 2.940478e+00 1.617222e+00 2.109190e+00 2.693671e+00 2.944042e+00 3.395159e+00 2.999779e+00 2.803180e+00 2.794289e+00 2.821964e+00 3.087791e+00 2.200109e+00 3.351369e+00 4.135351e-01 2.700506e-01 3.264397e-01 4.158920e-01 5.331165e-01 5.542809e-01 5.216286e-01 4.910770e-01 4.786579e-01 4.816228e-01 5.339736e-01 3.985440e-01 3.592102e-01
<GCONST> 1.283362e+02
<STATE> 4
<MEAN> 39
 -7.685329e+00 -6.064180e+00 -7.152547e+00 -6.307857e+00 -8.144504e+00 -1.100376e+00 -1.009650e+01 -3.161884e+00 -2.040631e+00 -7.504019e+00 -1.756705e+00 -6.116684e+00 5.588039e+01 2.817962e-03 4.981637e-03 4.548633e-03 2.702527e-03 2.655869e-03 -1.117672e-03 1.608044e-03 -3.151441e-03 -3.712254e-03 -1.791283e-03 1.229354e-03 1.825009e-03 2.279447e-03 -1.567647e-04 1.019357e-04 4.115858e-04 4.298519e-04 4.558307e-04 4.934241e-04 7.134664e-04 4.210645e-05 1.306027e-03 7.725984e-04 6.409848e-05 2.180072e-04 3.076123e-05
<VARIANCE> 39
 8.208594e+01 5.293768e+01 6.391951e+01 7.540031e+01 4.923005e+01 8.213964e+01 6.779455e+01 4.465966e+01 5.228432e+01 5.634802e+01 4.882239e+01 3.657957e+01 3.634417e+02 2.940478e+00 1.617222e+00 2.109190e+00 2.693671e+00 2.944042e+00 3.395159e+00 2.999779e+00 2.803180e+00 2.794289e+00 2.821964e+00 3.087791e+00 2.200109e+00 3.351369e+00 4.135351e-01 2.700506e-01 3.264397e-01 4.158920e-01 5.331165e-01 5.542809e-01 5.216286e-01 4.910770e-01 4.786579e-01 4.816228e-01 5.339736e-01 3.985440e-01 3.592102e-01
<GCONST> 1.283362e+02
<TRANSP> 5
 0.000000e+00 1.000000e+00 0.000000e+00 0.000000e+00 0.000000e+00
 0.000000e+00 6.000000e-01 4.000000e-01 0.000000e+00 0.000000e+00
 0.000000e+00 0.000000e+00 6.000000e-01 4.000000e-01 0.000000e+00
 0.000000e+00 0.000000e+00 0.000000e+00 7.000000e-01 3.000000e-01
 0.000000e+00 0.000000e+00 0.000000e+00 0.000000e+00 0.000000e+00
<ENDHMM>
~h "u"
<BEGINHMM>
<NUMSTATES> 5
<STATE> 2
<MEAN> 39
 -7.685329e+00 -6.064180e+00 -7.152547e+00 -6.307857e+00 -8.144504e+00 -1.100376e+00 -1.009650e+01 -3.161884e+00 -2.040631e+00 -7.504019e+00 -1.756705e+00 -6.116684e+00 5.588039e+01 2.817962e-03 4.981637e-03 4.548633e-03 2.702527e-03 2.655869e-03 -1.117672e-03 1.608044e-03 -3.151441e-03 -3.712254e-03 -1.791283e-03 1.229354e-03 1.825009e-03 2.279447e-03 -1.567647e-04 1.019357e-04 4.115858e-04 4.298519e-04 4.558307e-04 4.934241e-04 7.134664e-04 4.210645e-05 1.306027e-03 7.725984e-04 6.409848e-05 2.180072e-04 3.076123e-05
<VARIANCE> 39
 8.208594e+01 5.293768e+01 6.391951e+01 7.540031e+01 4.923005e+01 8.213964e+01 6.779455e+01 4.465966e+01 5.228432e+01 5.634802e+01 4.882239e+01 3.657957e+01 3.634417e+02 2.940478e+00 1.617222e+00 2.109190e+00 2.693671e+00 2.944042e+00 3.395159e+00 2.999779e+00 2.803180e+00 2.794289e+00 2.821964e+00 3.087791e+00 2.200109e+00 3.351369e+00 4.135351e-01 2.700506e-01 3.264397e-01 4.158920e-01 5.331165e-01 5.542809e-01 5.216286e-01 4.910770e-01 4.786579e-01 4.816228e-01 5.339736e-01 3.985440e-01 3.592102e-01
<GCONST> 1.283362e+02
<STATE> 3
<MEAN> 39
 -7.685329e+00 -6.064180e+00 -7.152547e+00 -6.307857e+00 -8.144504e+00 -1.100376e+00 -1.009650e+01 -3.161884e+00 -2.040631e+00 -7.504019e+00 -1.756705e+00 -6.116684e+00 5.588039e+01 2.817962e-03 4.981637e-03 4.548633e-03 2.702527e-03 2.655869e-03 -1.117672e-03 1.608044e-03 -3.151441e-03 -3.712254e-03 -1.791283e-03 1.229354e-03 1.825009e-03 2.279447e-03 -1.567647e-04 1.019357e-04 4.115858e-04 4.298519e-04 4.558307e-04 4.934241e-04 7.134664e-04 4.210645e-05 1.306027e-03 7.725984e-04 6.409848e-05 2.180072e-04 3.076123e-05
<VARIANCE> 39
 8.208594e+01 5.293768e+01 6.391951e+01 7.540031e+01 4.923005e+01 8.213964e+01 6.779455e+01 4.465966e+01 5.228432e+01 5.634802e+01 4.882239e+01 3.657957e+01 3.634417e+02 2.940478e+00 1.617222e+00 2.109190e+00 2.693671e+00 2.944042e+00 3.395159e+00 2.999779e+00 2.803180e+00 2.794289e+00 2.821964e+00 3.087791e+00 2.200109e+00 3.351369e+00 4.135351e-01 2.700506e-01 3.264397e-01 4.158920e-01 5.331165e-01 5.542809e-01 5.216286e-01 4.910770e-01 4.786579e-01 4.816228e-01 5.339736e-01 3.985440e-01 3.592102e-01
<GCONST> 1.283362e+02
<STATE> 4
<MEAN> 39
 -7.685329e+00 -6.064180e+00 -7.152547e+00 -6.307857e+00 -8.144504e+00 -1.100376e+00 -1.009650e+01 -3.161884e+00 -2.040631e+00 -7.504019e+00 -1.756705e+00 -6.116684e+00 5.588039e+01 2.817962e-03 4.981637e-03 4.548633e-03 2.702527e-03 2.655869e-03 -1.117672e-03 1.608044e-03 -3.151441e-03 -3.712254e-03 -1.791283e-03 1.229354e-03 1.825009e-03 2.279447e-03 -1.567647e-04 1.019357e-04 4.115858e-04 4.298519e-04 4.558307e-04 4.934241e-04 7.134664e-04 4.210645e-05 1.306027e-03 7.725984e-04 6.409848e-05 2.180072e-04 3.076123e-05
<VARIANCE> 39
 8.208594e+01 5.293768e+01 6.391951e+01 7.540031e+01 4.923005e+01 8.213964e+01 6.779455e+01 4.465966e+01 5.228432e+01 5.634802e+01 4.882239e+01 3.657957e+01 3.634417e+02 2.940478e+00 1.617222e+00 2.109190e+00 2.693671e+00 2.944042e+00 3.395159e+00 2.999779e+00 2.803180e+00 2.794289e+00 2.821964e+00 3.087791e+00 2.200109e+00 3.351369e+00 4.135351e-01 2.700506e-01 3.264397e-01 4.158920e-01 5.331165e-01 5.542809e-01 5.216286e-01 4.910770e-01 4.786579e-01 4.816228e-01 5.339736e-01 3.985440e-01 3.592102e-01
<GCONST> 1.283362e+02
<TRANSP> 5
 0.000000e+00 1.000000e+00 0.000000e+00 0.000000e+00 0.000000e+00
 0.000000e+00 6.000000e-01 4.000000e-01 0.000000e+00 0.000000e+00
 0.000000e+00 0.000000e+00 6.000000e-01 4.000000e-01 0.000000e+00
 0.000000e+00 0.000000e+00 0.000000e+00 7.000000e-01 3.000000e-01
 0.000000e+00 0.000000e+00 0.000000e+00 0.000000e+00 0.000000e+00
<ENDHMM>
~h "d"
<BEGINHMM>
<NUMSTATES> 5
<STATE> 2
<MEAN> 39
 -7.685329e+00 -6.064180e+00 -7.152547e+00 -6.307857e+00 -8.144504e+00 -1.100376e+00 -1.009650e+01 -3.161884e+00 -2.040631e+00 -7.504019e+00 -1.756705e+00 -6.116684e+00 5.588039e+01 2.817962e-03 4.981637e-03 4.548633e-03 2.702527e-03 2.655869e-03 -1.117672e-03 1.608044e-03 -3.151441e-03 -3.712254e-03 -1.791283e-03 1.229354e-03 1.825009e-03 2.279447e-03 -1.567647e-04 1.019357e-04 4.115858e-04 4.298519e-04 4.558307e-04 4.934241e-04 7.134664e-04 4.210645e-05 1.306027e-03 7.725984e-04 6.409848e-05 2.180072e-04 3.076123e-05
<VARIANCE> 39
 8.208594e+01 5.293768e+01 6.391951e+01 7.540031e+01 4.923005e+01 8.213964e+01 6.779455e+01 4.465966e+01 5.228432e+01 5.634802e+01 4.882239e+01 3.657957e+01 3.634417e+02 2.940478e+00 1.617222e+00 2.109190e+00 2.693671e+00 2.944042e+00 3.395159e+00 2.999779e+00 2.803180e+00 2.794289e+00 2.821964e+00 3.087791e+00 2.200109e+00 3.351369e+00 4.135351e-01 2.700506e-01 3.264397e-01 4.158920e-01 5.331165e-01 5.542809e-01 5.216286e-01 4.910770e-01 4.786579e-01 4.816228e-01 5.339736e-01 3.985440e-01 3.592102e-01
<GCONST> 1.283362e+02
<STATE> 3
<MEAN> 39
 -7.685329e+00 -6.064180e+00 -7.152547e+00 -6.307857e+00 -8.144504e+00 -1.100376e+00 -1.009650e+01 -3.161884e+00 -2.040631e+00 -7.504019e+00 -1.756705e+00 -6.116684e+00 5.588039e+01 2.817962e-03 4.981637e-03 4.548633e-03 2.702527e-03 2.655869e-03 -1.117672e-03 1.608044e-03 -3.151441e-03 -3.712254e-03 -1.791283e-03 1.229354e-03 1.825009e-03 2.279447e-03 -1.567647e-04 1.019357e-04 4.115858e-04 4.298519e-04 4.558307e-04 4.934241e-04 7.134664e-04 4.210645e-05 1.306027e-03 7.725984e-04 6.409848e-05 2.180072e-04 3.076123e-05
<VARIANCE> 39
 8.208594e+01 5.293768e+01 6.391951e+01 7.540031e+01 4.923005e+01 8.213964e+01 6.779455e+01 4.465966e+01 5.228432e+01 5.634802e+01 4.882239e+01 3.657957e+01 3.634417e+02 2.940478e+00 1.617222e+00 2.109190e+00 2.693671e+00 2.944042e+00 3.395159e+00 2.999779e+00 2.803180e+00 2.794289e+00 2.821964e+00 3.087791e+00 2.200109e+00 3.351369e+00 4.135351e-01 2.700506e-01 3.264397e-01 4.158920e-01 5.331165e-01 5.542809e-01 5.216286e-01 4.910770e-01 4.786579e-01 4.816228e-01 5.339736e-01 3.985440e-01 3.592102e-01
<GCONST> 1.283362e+02
<STATE> 4
<MEAN> 39
 -7.685329e+00 -6.064180e+00 -7.152547e+00 -6.307857e+00 -8.144504e+00 -1.100376e+00 -1.009650e+01 -3.161884e+00 -2.040631e+00 -7.504019e+00 -1.756705e+00 -6.116684e+00 5.588039e+01 2.817962e-03 4.981637e-03 4.548633e-03 2.702527e-03 2.655869e-03 -1.117672e-03 1.608044e-03 -3.151441e-03 -3.712254e-03 -1.791283e-03 1.229354e-03 1.825009e-03 2.279447e-03 -1.567647e-04 1.019357e-04 4.115858e-04 4.298519e-04 4.558307e-04 4.934241e-04 7.134664e-04 4.210645e-05 1.306027e-03 7.725984e-04 6.409848e-05 2.180072e-04 3.076123e-05
<VARIANCE> 39
 8.208594e+01 5.293768e+01 6.391951e+01 7.540031e+01 4.923005e+01 8.213964e+01 6.779455e+01 4.465966e+01 5.228432e+01 5.634802e+01 4.882239e+01 3.657957e+01 3.634417e+02 2.940478e+00 1.617222e+00 2.109190e+00 2.693671e+00 2.944042e+00 3.395159e+00 2.999779e+00 2.803180e+00 2.794289e+00 2.821964e+00 3.087791e+00 2.200109e+00 3.351369e+00 4.135351e-01 2.700506e-01 3.264397e-01 4.158920e-01 5.331165e-01 5.542809e-01 5.216286e-01 4.910770e-01 4.786579e-01 4.816228e-01 5.339736e-01 3.985440e-01 3.592102e-01
<GCONST> 1.283362e+02
<TRANSP> 5
 0.000000e+00 1.000000e+00 0.000000e+00 0.000000e+00 0.000000e+00
 0.000000e+00 6.000000e-01 4.000000e-01 0.000000e+00 0.000000e+00
 0.000000e+00 0.000000e+00 6.000000e-01 4.000000e-01 0.000000e+00
 0.000000e+00 0.000000e+00 0.000000e+00 7.000000e-01 3.000000e-01
 0.000000e+00 0.000000e+00 0.000000e+00 0.000000e+00 0.000000e+00
<ENDHMM>
~h "ao"
<BEGINHMM>
<NUMSTATES> 5
<STATE> 2
<MEAN> 39
 -7.685329e+00 -6.064180e+00 -7.152547e+00 -6.307857e+00 -8.144504e+00 -1.100376e+00 -1.009650e+01 -3.161884e+00 -2.040631e+00 -7.504019e+00 -1.756705e+00 -6.116684e+00 5.588039e+01 2.817962e-03 4.981637e-03 4.548633e-03 2.702527e-03 2.655869e-03 -1.117672e-03 1.608044e-03 -3.151441e-03 -3.712254e-03 -1.791283e-03 1.229354e-03 1.825009e-03 2.279447e-03 -1.567647e-04 1.019357e-04 4.115858e-04 4.298519e-04 4.558307e-04 4.934241e-04 7.134664e-04 4.210645e-05 1.306027e-03 7.725984e-04 6.409848e-05 2.180072e-04 3.076123e-05
<VARIANCE> 39
 8.208594e+01 5.293768e+01 6.391951e+01 7.540031e+01 4.923005e+01 8.213964e+01 6.779455e+01 4.465966e+01 5.228432e+01 5.634802e+01 4.882239e+01 3.657957e+01 3.634417e+02 2.940478e+00 1.617222e+00 2.109190e+00 2.693671e+00 2.944042e+00 3.395159e+00 2.999779e+00 2.803180e+00 2.794289e+00 2.821964e+00 3.087791e+00 2.200109e+00 3.351369e+00 4.135351e-01 2.700506e-01 3.264397e-01 4.158920e-01 5.331165e-01 5.542809e-01 5.216286e-01 4.910770e-01 4.786579e-01 4.816228e-01 5.339736e-01 3.985440e-01 3.592102e-01
<GCONST> 1.283362e+02
<STATE> 3
<MEAN> 39
 -7.685329e+00 -6.064180e+00 -7.152547e+00 -6.307857e+00 -8.144504e+00 -1.100376e+00 -1.009650e+01 -3.161884e+00 -2.040631e+00 -7.504019e+00 -1.756705e+00 -6.116684e+00 5.588039e+01 2.817962e-03 4.981637e-03 4.548633e-03 2.702527e-03 2.655869e-03 -1.117672e-03 1.608044e-03 -3.151441e-03 -3.712254e-03 -1.791283e-03 1.229354e-03 1.825009e-03 2.279447e-03 -1.567647e-04 1.019357e-04 4.115858e-04 4.298519e-04 4.558307e-04 4.934241e-04 7.134664e-04 4.210645e-05 1.306027e-03 7.725984e-04 6.409848e-05 2.180072e-04 3.076123e-05
<VARIANCE> 39
 8.208594e+01 5.293768e+01 6.391951e+01 7.540031e+01 4.923005e+01 8.213964e+01 6.779455e+01 4.465966e+01 5.228432e+01 5.634802e+01 4.882239e+01 3.657957e+01 3.634417e+02 2.940478e+00 1.617222e+00 2.109190e+00 2.693671e+00 2.944042e+00 3.395159e+00 2.999779e+00 2.803180e+00 2.794289e+00 2.821964e+00 3.087791e+00 2.200109e+00 3.351369e+00 4.135351e-01 2.700506e-01 3.264397e-01 4.158920e-01 5.331165e-01 5.542809e-01 5.216286e-01 4.910770e-01 4.786579e-01 4.816228e-01 5.339736e-01 3.985440e-01 3.592102e-01
<GCONST> 1.283362e+02
<STATE> 4
<MEAN> 39
 -7.685329e+00 -6.064180e+00 -7.152547e+00 -6.307857e+00 -8.144504e+00 -1.100376e+00 -1.009650e+01 -3.161884e+00 -2.040631e+00 -7.504019e+00 -1.756705e+00 -6.116684e+00 5.588039e+01 2.817962e-03 4.981637e-03 4.548633e-03 2.702527e-03 2.655869e-03 -1.117672e-03 1.608044e-03 -3.151441e-03 -3.712254e-03 -1.791283e-03 1.229354e-03 1.825009e-03 2.279447e-03 -1.567647e-04 1.019357e-04 4.115858e-04 4.298519e-04 4.558307e-04 4.934241e-04 7.134664e-04 4.210645e-05 1.306027e-03 7.725984e-04 6.409848e-05 2.180072e-04 3.076123e-05
<VARIANCE> 39
 8.208594e+01 5.293768e+01 6.391951e+01 7.540031e+01 4.923005e+01 8.213964e+01 6.779455e+01 4.465966e+01 5.228432e+01 5.634802e+01 4.882239e+01 3.657957e+01 3.634417e+02 2.940478e+00 1.617222e+00 2.109190e+00 2.693671e+00 2.944042e+00 3.395159e+00 2.999779e+00 2.803180e+00 2.794289e+00 2.821964e+00 3.087791e+00 2.200109e+00 3.351369e+00 4.135351e-01 2.700506e-01 3.264397e-01 4.158920e-01 5.331165e-01 5.542809e-01 5.216286e-01 4.910770e-01 4.786579e-01 4.816228e-01 5.339736e-01 3.985440e-01 3.592102e-01
<GCONST> 1.283362e+02
<TRANSP> 5
 0.000000e+00 1.000000e+00 0.000000e+00 0.000000e+00 0.000000e+00
 0.000000e+00 6.000000e-01 4.000000e-01 0.000000e+00 0.000000e+00
 0.000000e+00 0.000000e+00 6.000000e-01 4.000000e-01 0.000000e+00
 0.000000e+00 0.000000e+00 0.000000e+00 7.000000e-01 3.000000e-01
 0.000000e+00 0.000000e+00 0.000000e+00 0.000000e+00 0.000000e+00
<ENDHMM>
~h "f"
<BEGINHMM>
<NUMSTATES> 5
<STATE> 2
<MEAN> 39
 -7.685329e+00 -6.064180e+00 -7.152547e+00 -6.307857e+00 -8.144504e+00 -1.100376e+00 -1.009650e+01 -3.161884e+00 -2.040631e+00 -7.504019e+00 -1.756705e+00 -6.116684e+00 5.588039e+01 2.817962e-03 4.981637e-03 4.548633e-03 2.702527e-03 2.655869e-03 -1.117672e-03 1.608044e-03 -3.151441e-03 -3.712254e-03 -1.791283e-03 1.229354e-03 1.825009e-03 2.279447e-03 -1.567647e-04 1.019357e-04 4.115858e-04 4.298519e-04 4.558307e-04 4.934241e-04 7.134664e-04 4.210645e-05 1.306027e-03 7.725984e-04 6.409848e-05 2.180072e-04 3.076123e-05
<VARIANCE> 39
 8.208594e+01 5.293768e+01 6.391951e+01 7.540031e+01 4.923005e+01 8.213964e+01 6.779455e+01 4.465966e+01 5.228432e+01 5.634802e+01 4.882239e+01 3.657957e+01 3.634417e+02 2.940478e+00 1.617222e+00 2.109190e+00 2.693671e+00 2.944042e+00 3.395159e+00 2.999779e+00 2.803180e+00 2.794289e+00 2.821964e+00 3.087791e+00 2.200109e+00 3.351369e+00 4.135351e-01 2.700506e-01 3.264397e-01 4.158920e-01 5.331165e-01 5.542809e-01 5.216286e-01 4.910770e-01 4.786579e-01 4.816228e-01 5.339736e-01 3.985440e-01 3.592102e-01
<GCONST> 1.283362e+02
<STATE> 3
<MEAN> 39
 -7.685329e+00 -6.064180e+00 -7.152547e+00 -6.307857e+00 -8.144504e+00 -1.100376e+00 -1.009650e+01 -3.161884e+00 -2.040631e+00 -7.504019e+00 -1.756705e+00 -6.116684e+00 5.588039e+01 2.817962e-03 4.981637e-03 4.548633e-03 2.702527e-03 2.655869e-03 -1.117672e-03 1.608044e-03 -3.151441e-03 -3.712254e-03 -1.791283e-03 1.229354e-03 1.825009e-03 2.279447e-03 -1.567647e-04 1.019357e-04 4.115858e-04 4.298519e-04 4.558307e-04 4.934241e-04 7.134664e-04 4.210645e-05 1.306027e-03 7.725984e-04 6.409848e-05 2.180072e-04 3.076123e-05
<VARIANCE> 39
 8.208594e+01 5.293768e+01 6.391951e+01 7.540031e+01 4.923005e+01 8.213964e+01 6.779455e+01 4.465966e+01 5.228432e+01 5.634802e+01 4.882239e+01 3.657957e+01 3.634417e+02 2.940478e+00 1.617222e+00 2.109190e+00 2.693671e+00 2.944042e+00 3.395159e+00 2.999779e+00 2.803180e+00 2.794289e+00 2.821964e+00 3.087791e+00 2.200109e+00 3.351369e+00 4.135351e-01 2.700506e-01 3.264397e-01 4.158920e-01 5.331165e-01 5.542809e-01 5.216286e-01 4.910770e-01 4.786579e-01 4.816228e-01 5.339736e-01 3.985440e-01 3.592102e-01
<GCONST> 1.283362e+02
<STATE> 4
<MEAN> 39
 -7.685329e+00 -6.064180e+00 -7.152547e+00 -6.307857e+00 -8.144504e+00 -1.100376e+00 -1.009650e+01 -3.161884e+00 -2.040631e+00 -7.504019e+00 -1.756705e+00 -6.116684e+00 5.588039e+01 2.817962e-03 4.981637e-03 4.548633e-03 2.702527e-03 2.655869e-03 -1.117672e-03 1.608044e-03 -3.151441e-03 -3.712254e-03 -1.791283e-03 1.229354e-03 1.825009e-03 2.279447e-03 -1.567647e-04 1.019357e-04 4.115858e-04 4.298519e-04 4.558307e-04 4.934241e-04 7.134664e-04 4.210645e-05 1.306027e-03 7.725984e-04 6.409848e-05 2.180072e-04 3.076123e-05
<VARIANCE> 39
 8.208594e+01 5.293768e+01 6.391951e+01 7.540031e+01 4.923005e+01 8.213964e+01 6.779455e+01 4.465966e+01 5.228432e+01 5.634802e+01 4.882239e+01 3.657957e+01 3.634417e+02 2.940478e+00 1.617222e+00 2.109190e+00 2.693671e+00 2.944042e+00 3.395159e+00 2.999779e+00 2.803180e+00 2.794289e+00 2.821964e+00 3.087791e+00 2.200109e+00 3.351369e+00 4.135351e-01 2.700506e-01 3.264397e-01 4.158920e-01 5.331165e-01 5.542809e-01 5.216286e-01 4.910770e-01 4.786579e-01 4.816228e-01 5.339736e-01 3.985440e-01 3.592102e-01
<GCONST> 1.283362e+02
<TRANSP> 5
 0.000000e+00 1.000000e+00 0.000000e+00 0.000000e+00 0.000000e+00
 0.000000e+00 6.000000e-01 4.000000e-01 0.000000e+00 0.000000e+00
 0.000000e+00 0.000000e+00 6.000000e-01 4.000000e-01 0.000000e+00
 0.000000e+00 0.000000e+00 0.000000e+00 7.000000e-01 3.000000e-01
 0.000000e+00 0.000000e+00 0.000000e+00 0.000000e+00 0.000000e+00
<ENDHMM>
~h "en"
<BEGINHMM>
<NUMSTATES> 5
<STATE> 2
<MEAN> 39
 -7.685329e+00 -6.064180e+00 -7.152547e+00 -6.307857e+00 -8.144504e+00 -1.100376e+00 -1.009650e+01 -3.161884e+00 -2.040631e+00 -7.504019e+00 -1.756705e+00 -6.116684e+00 5.588039e+01 2.817962e-03 4.981637e-03 4.548633e-03 2.702527e-03 2.655869e-03 -1.117672e-03 1.608044e-03 -3.151441e-03 -3.712254e-03 -1.791283e-03 1.229354e-03 1.825009e-03 2.279447e-03 -1.567647e-04 1.019357e-04 4.115858e-04 4.298519e-04 4.558307e-04 4.934241e-04 7.134664e-04 4.210645e-05 1.306027e-03 7.725984e-04 6.409848e-05 2.180072e-04 3.076123e-05
<VARIANCE> 39
 8.208594e+01 5.293768e+01 6.391951e+01 7.540031e+01 4.923005e+01 8.213964e+01 6.779455e+01 4.465966e+01 5.228432e+01 5.634802e+01 4.882239e+01 3.657957e+01 3.634417e+02 2.940478e+00 1.617222e+00 2.109190e+00 2.693671e+00 2.944042e+00 3.395159e+00 2.999779e+00 2.803180e+00 2.794289e+00 2.821964e+00 3.087791e+00 2.200109e+00 3.351369e+00 4.135351e-01 2.700506e-01 3.264397e-01 4.158920e-01 5.331165e-01 5.542809e-01 5.216286e-01 4.910770e-01 4.786579e-01 4.816228e-01 5.339736e-01 3.985440e-01 3.592102e-01
<GCONST> 1.283362e+02
<STATE> 3
<MEAN> 39
 -7.685329e+00 -6.064180e+00 -7.152547e+00 -6.307857e+00 -8.144504e+00 -1.100376e+00 -1.009650e+01 -3.161884e+00 -2.040631e+00 -7.504019e+00 -1.756705e+00 -6.116684e+00 5.588039e+01 2.817962e-03 4.981637e-03 4.548633e-03 2.702527e-03 2.655869e-03 -1.117672e-03 1.608044e-03 -3.151441e-03 -3.712254e-03 -1.791283e-03 1.229354e-03 1.825009e-03 2.279447e-03 -1.567647e-04 1.019357e-04 4.115858e-04 4.298519e-04 4.558307e-04 4.934241e-04 7.134664e-04 4.210645e-05 1.306027e-03 7.725984e-04 6.409848e-05 2.180072e-04 3.076123e-05
<VARIANCE> 39
 8.208594e+01 5.293768e+01 6.391951e+01 7.540031e+01 4.923005e+01 8.213964e+01 6.779455e+01 4.465966e+01 5.228432e+01 5.634802e+01 4.882239e+01 3.657957e+01 3.634417e+02 2.940478e+00 1.617222e+00 2.109190e+00 2.693671e+00 2.944042e+00 3.395159e+00 2.999779e+00 2.803180e+00 2.794289e+00 2.821964e+00 3.087791e+00 2.200109e+00 3.351369e+00 4.135351e-01 2.700506e-01 3.264397e-01 4.158920e-01 5.331165e-01 5.542809e-01 5.216286e-01 4.910770e-01 4.786579e-01 4.816228e-01 5.339736e-01 3.985440e-01 3.592102e-01
<GCONST> 1.283362e+02
<STATE> 4
<MEAN> 39
 -7.685329e+00 -6.064180e+00 -7.152547e+00 -6.307857e+00 -8.144504e+00 -1.100376e+00 -1.009650e+01 -3.161884e+00 -2.040631e+00 -7.504019e+00 -1.756705e+00 -6.116684e+00 5.588039e+01 2.817962e-03 4.981637e-03 4.548633e-03 2.702527e-03 2.655869e-03 -1.117672e-03 1.608044e-03 -3.151441e-03 -3.712254e-03 -1.791283e-03 1.229354e-03 1.825009e-03 2.279447e-03 -1.567647e-04 1.019357e-04 4.115858e-04 4.298519e-04 4.558307e-04 4.934241e-04 7.134664e-04 4.210645e-05 1.306027e-03 7.725984e-04 6.409848e-05 2.180072e-04 3.076123e-05
<VARIANCE> 39
 8.208594e+01 5.293768e+01 6.391951e+01 7.540031e+01 4.923005e+01 8.213964e+01 6.779455e+01 4.465966e+01 5.228432e+01 5.634802e+01 4.882239e+01 3.657957e+01 3.634417e+02 2.940478e+00 1.617222e+00 2.109190e+00 2.693671e+00 2.944042e+00 3.395159e+00 2.999779e+00 2.803180e+00 2.794289e+00 2.821964e+00 3.087791e+00 2.200109e+00 3.351369e+00 4.135351e-01 2.700506e-01 3.264397e-01 4.158920e-01 5.331165e-01 5.542809e-01 5.216286e-01 4.910770e-01 4.786579e-01 4.816228e-01 5.339736e-01 3.985440e-01 3.592102e-01
<GCONST> 1.283362e+02
<TRANSP> 5
 0.000000e+00 1.000000e+00 0.000000e+00 0.000000e+00 0.000000e+00
 0.000000e+00 6.000000e-01 4.000000e-01 0.000000e+00 0.000000e+00
 0.000000e+00 0.000000e+00 6.000000e-01 4.000000e-01 0.000000e+00
 0.000000e+00 0.000000e+00 0.000000e+00 7.000000e-01 3.000000e-01
 0.000000e+00 0.000000e+00 0.000000e+00 0.000000e+00 0.000000e+00
<ENDHMM>
~h "zh"
<BEGINHMM>
<NUMSTATES> 5
<STATE> 2
<MEAN> 39
 -7.685329e+00 -6.064180e+00 -7.152547e+00 -6.307857e+00 -8.144504e+00 -1.100376e+00 -1.009650e+01 -3.161884e+00 -2.040631e+00 -7.504019e+00 -1.756705e+00 -6.116684e+00 5.588039e+01 2.817962e-03 4.981637e-03 4.548633e-03 2.702527e-03 2.655869e-03 -1.117672e-03 1.608044e-03 -3.151441e-03 -3.712254e-03 -1.791283e-03 1.229354e-03 1.825009e-03 2.279447e-03 -1.567647e-04 1.019357e-04 4.115858e-04 4.298519e-04 4.558307e-04 4.934241e-04 7.134664e-04 4.210645e-05 1.306027e-03 7.725984e-04 6.409848e-05 2.180072e-04 3.076123e-05
<VARIANCE> 39
 8.208594e+01 5.293768e+01 6.391951e+01 7.540031e+01 4.923005e+01 8.213964e+01 6.779455e+01 4.465966e+01 5.228432e+01 5.634802e+01 4.882239e+01 3.657957e+01 3.634417e+02 2.940478e+00 1.617222e+00 2.109190e+00 2.693671e+00 2.944042e+00 3.395159e+00 2.999779e+00 2.803180e+00 2.794289e+00 2.821964e+00 3.087791e+00 2.200109e+00 3.351369e+00 4.135351e-01 2.700506e-01 3.264397e-01 4.158920e-01 5.331165e-01 5.542809e-01 5.216286e-01 4.910770e-01 4.786579e-01 4.816228e-01 5.339736e-01 3.985440e-01 3.592102e-01
<GCONST> 1.283362e+02
<STATE> 3
<MEAN> 39
 -7.685329e+00 -6.064180e+00 -7.152547e+00 -6.307857e+00 -8.144504e+00 -1.100376e+00 -1.009650e+01 -3.161884e+00 -2.040631e+00 -7.504019e+00 -1.756705e+00 -6.116684e+00 5.588039e+01 2.817962e-03 4.981637e-03 4.548633e-03 2.702527e-03 2.655869e-03 -1.117672e-03 1.608044e-03 -3.151441e-03 -3.712254e-03 -1.791283e-03 1.229354e-03 1.825009e-03 2.279447e-03 -1.567647e-04 1.019357e-04 4.115858e-04 4.298519e-04 4.558307e-04 4.934241e-04 7.134664e-04 4.210645e-05 1.306027e-03 7.725984e-04 6.409848e-05 2.180072e-04 3.076123e-05
<VARIANCE> 39
 8.208594e+01 5.293768e+01 6.391951e+01 7.540031e+01 4.923005e+01 8.213964e+01 6.779455e+01 4.465966e+01 5.228432e+01 5.634802e+01 4.882239e+01 3.657957e+01 3.634417e+02 2.940478e+00 1.617222e+00 2.109190e+00 2.693671e+00 2.944042e+00 3.395159e+00 2.999779e+00 2.803180e+00 2.794289e+00 2.821964e+00 3.087791e+00 2.200109e+00 3.351369e+00 4.135351e-01 2.700506e-01 3.264397e-01 4.158920e-01 5.331165e-01 5.542809e-01 5.216286e-01 4.910770e-01 4.786579e-01 4.816228e-01 5.339736e-01 3.985440e-01 3.592102e-01
<GCONST> 1.283362e+02
<STATE> 4
<MEAN> 39
 -7.685329e+00 -6.064180e+00 -7.152547e+00 -6.307857e+00 -8.144504e+00 -1.100376e+00 -1.009650e+01 -3.161884e+00 -2.040631e+00 -7.504019e+00 -1.756705e+00 -6.116684e+00 5.588039e+01 2.817962e-03 4.981637e-03 4.548633e-03 2.702527e-03 2.655869e-03 -1.117672e-03 1.608044e-03 -3.151441e-03 -3.712254e-03 -1.791283e-03 1.229354e-03 1.825009e-03 2.279447e-03 -1.567647e-04 1.019357e-04 4.115858e-04 4.298519e-04 4.558307e-04 4.934241e-04 7.134664e-04 4.210645e-05 1.306027e-03 7.725984e-04 6.409848e-05 2.180072e-04 3.076123e-05
<VARIANCE> 39
 8.208594e+01 5.293768e+01 6.391951e+01 7.540031e+01 4.923005e+01 8.213964e+01 6.779455e+01 4.465966e+01 5.228432e+01 5.634802e+01 4.882239e+01 3.657957e+01 3.634417e+02 2.940478e+00 1.617222e+00 2.109190e+00 2.693671e+00 2.944042e+00 3.395159e+00 2.999779e+00 2.803180e+00 2.794289e+00 2.821964e+00 3.087791e+00 2.200109e+00 3.351369e+00 4.135351e-01 2.700506e-01 3.264397e-01 4.158920e-01 5.331165e-01 5.542809e-01 5.216286e-01 4.910770e-01 4.786579e-01 4.816228e-01 5.339736e-01 3.985440e-01 3.592102e-01
<GCONST> 1.283362e+02
<TRANSP> 5
 0.000000e+00 1.000000e+00 0.000000e+00 0.000000e+00 0.000000e+00
 0.000000e+00 6.000000e-01 4.000000e-01 0.000000e+00 0.000000e+00
 0.000000e+00 0.000000e+00 6.000000e-01 4.000000e-01 0.000000e+00
 0.000000e+00 0.000000e+00 0.000000e+00 7.000000e-01 3.000000e-01
 0.000000e+00 0.000000e+00 0.000000e+00 0.000000e+00 0.000000e+00
<ENDHMM>
~h "ong"
<BEGINHMM>
<NUMSTATES> 5
<STATE> 2
<MEAN> 39
 -7.685329e+00 -6.064180e+00 -7.152547e+00 -6.307857e+00 -8.144504e+00 -1.100376e+00 -1.009650e+01 -3.161884e+00 -2.040631e+00 -7.504019e+00 -1.756705e+00 -6.116684e+00 5.588039e+01 2.817962e-03 4.981637e-03 4.548633e-03 2.702527e-03 2.655869e-03 -1.117672e-03 1.608044e-03 -3.151441e-03 -3.712254e-03 -1.791283e-03 1.229354e-03 1.825009e-03 2.279447e-03 -1.567647e-04 1.019357e-04 4.115858e-04 4.298519e-04 4.558307e-04 4.934241e-04 7.134664e-04 4.210645e-05 1.306027e-03 7.725984e-04 6.409848e-05 2.180072e-04 3.076123e-05
<VARIANCE> 39
 8.208594e+01 5.293768e+01 6.391951e+01 7.540031e+01 4.923005e+01 8.213964e+01 6.779455e+01 4.465966e+01 5.228432e+01 5.634802e+01 4.882239e+01 3.657957e+01 3.634417e+02 2.940478e+00 1.617222e+00 2.109190e+00 2.693671e+00 2.944042e+00 3.395159e+00 2.999779e+00 2.803180e+00 2.794289e+00 2.821964e+00 3.087791e+00 2.200109e+00 3.351369e+00 4.135351e-01 2.700506e-01 3.264397e-01 4.158920e-01 5.331165e-01 5.542809e-01 5.216286e-01 4.910770e-01 4.786579e-01 4.816228e-01 5.339736e-01 3.985440e-01 3.592102e-01
<GCONST> 1.283362e+02
<STATE> 3
<MEAN> 39
 -7.685329e+00 -6.064180e+00 -7.152547e+00 -6.307857e+00 -8.144504e+00 -1.100376e+00 -1.009650e+01 -3.161884e+00 -2.040631e+00 -7.504019e+00 -1.756705e+00 -6.116684e+00 5.588039e+01 2.817962e-03 4.981637e-03 4.548633e-03 2.702527e-03 2.655869e-03 -1.117672e-03 1.608044e-03 -3.151441e-03 -3.712254e-03 -1.791283e-03 1.229354e-03 1.825009e-03 2.279447e-03 -1.567647e-04 1.019357e-04 4.115858e-04 4.298519e-04 4.558307e-04 4.934241e-04 7.134664e-04 4.210645e-05 1.306027e-03 7.725984e-04 6.409848e-05 2.180072e-04 3.076123e-05
<VARIANCE> 39
 8.208594e+01 5.293768e+01 6.391951e+01 7.540031e+01 4.923005e+01 8.213964e+01 6.779455e+01 4.465966e+01 5.228432e+01 5.634802e+01 4.882239e+01 3.657957e+01 3.634417e+02 2.940478e+00 1.617222e+00 2.109190e+00 2.693671e+00 2.944042e+00 3.395159e+00 2.999779e+00 2.803180e+00 2.794289e+00 2.821964e+00 3.087791e+00 2.200109e+00 3.351369e+00 4.135351e-01 2.700506e-01 3.264397e-01 4.158920e-01 5.331165e-01 5.542809e-01 5.216286e-01 4.910770e-01 4.786579e-01 4.816228e-01 5.339736e-01 3.985440e-01 3.592102e-01
<GCONST> 1.283362e+02
<STATE> 4
<MEAN> 39
 -7.685329e+00 -6.064180e+00 -7.152547e+00 -6.307857e+00 -8.144504e+00 -1.100376e+00 -1.009650e+01 -3.161884e+00 -2.040631e+00 -7.504019e+00 -1.756705e+00 -6.116684e+00 5.588039e+01 2.817962e-03 4.981637e-03 4.548633e-03 2.702527e-03 2.655869e-03 -1.117672e-03 1.608044e-03 -3.151441e-03 -3.712254e-03 -1.791283e-03 1.229354e-03 1.825009e-03 2.279447e-03 -1.567647e-04 1.019357e-04 4.115858e-04 4.298519e-04 4.558307e-04 4.934241e-04 7.134664e-04 4.210645e-05 1.306027e-03 7.725984e-04 6.409848e-05 2.180072e-04 3.076123e-05
<VARIANCE> 39
 8.208594e+01 5.293768e+01 6.391951e+01 7.540031e+01 4.923005e+01 8.213964e+01 6.779455e+01 4.465966e+01 5.228432e+01 5.634802e+01 4.882239e+01 3.657957e+01 3.634417e+02 2.940478e+00 1.617222e+00 2.109190e+00 2.693671e+00 2.944042e+00 3.395159e+00 2.999779e+00 2.803180e+00 2.794289e+00 2.821964e+00 3.087791e+00 2.200109e+00 3.351369e+00 4.135351e-01 2.700506e-01 3.264397e-01 4.158920e-01 5.331165e-01 5.542809e-01 5.216286e-01 4.910770e-01 4.786579e-01 4.816228e-01 5.339736e-01 3.985440e-01 3.592102e-01
<GCONST> 1.283362e+02
<TRANSP> 5
 0.000000e+00 1.000000e+00 0.000000e+00 0.000000e+00 0.000000e+00
 0.000000e+00 6.000000e-01 4.000000e-01 0.000000e+00 0.000000e+00
 0.000000e+00 0.000000e+00 6.000000e-01 4.000000e-01 0.000000e+00
 0.000000e+00 0.000000e+00 0.000000e+00 7.000000e-01 3.000000e-01
 0.000000e+00 0.000000e+00 0.000000e+00 0.000000e+00 0.000000e+00
<ENDHMM>
~h "si"
<BEGINHMM>
<NUMSTATES> 5
<STATE> 2
<MEAN> 39
 -7.685329e+00 -6.064180e+00 -7.152547e+00 -6.307857e+00 -8.144504e+00 -1.100376e+00 -1.009650e+01 -3.161884e+00 -2.040631e+00 -7.504019e+00 -1.756705e+00 -6.116684e+00 5.588039e+01 2.817962e-03 4.981637e-03 4.548633e-03 2.702527e-03 2.655869e-03 -1.117672e-03 1.608044e-03 -3.151441e-03 -3.712254e-03 -1.791283e-03 1.229354e-03 1.825009e-03 2.279447e-03 -1.567647e-04 1.019357e-04 4.115858e-04 4.298519e-04 4.558307e-04 4.934241e-04 7.134664e-04 4.210645e-05 1.306027e-03 7.725984e-04 6.409848e-05 2.180072e-04 3.076123e-05
<VARIANCE> 39
 8.208594e+01 5.293768e+01 6.391951e+01 7.540031e+01 4.923005e+01 8.213964e+01 6.779455e+01 4.465966e+01 5.228432e+01 5.634802e+01 4.882239e+01 3.657957e+01 3.634417e+02 2.940478e+00 1.617222e+00 2.109190e+00 2.693671e+00 2.944042e+00 3.395159e+00 2.999779e+00 2.803180e+00 2.794289e+00 2.821964e+00 3.087791e+00 2.200109e+00 3.351369e+00 4.135351e-01 2.700506e-01 3.264397e-01 4.158920e-01 5.331165e-01 5.542809e-01 5.216286e-01 4.910770e-01 4.786579e-01 4.816228e-01 5.339736e-01 3.985440e-01 3.592102e-01
<GCONST> 1.283362e+02
<STATE> 3
<MEAN> 39
 -7.685329e+00 -6.064180e+00 -7.152547e+00 -6.307857e+00 -8.144504e+00 -1.100376e+00 -1.009650e+01 -3.161884e+00 -2.040631e+00 -7.504019e+00 -1.756705e+00 -6.116684e+00 5.588039e+01 2.817962e-03 4.981637e-03 4.548633e-03 2.702527e-03 2.655869e-03 -1.117672e-03 1.608044e-03 -3.151441e-03 -3.712254e-03 -1.791283e-03 1.229354e-03 1.825009e-03 2.279447e-03 -1.567647e-04 1.019357e-04 4.115858e-04 4.298519e-04 4.558307e-04 4.934241e-04 7.134664e-04 4.210645e-05 1.306027e-03 7.725984e-04 6.409848e-05 2.180072e-04 3.076123e-05
<VARIANCE> 39
 8.208594e+01 5.293768e+01 6.391951e+01 7.540031e+01 4.923005e+01 8.213964e+01 6.779455e+01 4.465966e+01 5.228432e+01 5.634802e+01 4.882239e+01 3.657957e+01 3.634417e+02 2.940478e+00 1.617222e+00 2.109190e+00 2.693671e+00 2.944042e+00 3.395159e+00 2.999779e+00 2.803180e+00 2.794289e+00 2.821964e+00 3.087791e+00 2.200109e+00 3.351369e+00 4.135351e-01 2.700506e-01 3.264397e-01 4.158920e-01 5.331165e-01 5.542809e-01 5.216286e-01 4.910770e-01 4.786579e-01 4.816228e-01 5.339736e-01 3.985440e-01 3.592102e-01
<GCONST> 1.283362e+02
<STATE> 4
<MEAN> 39
 -7.685329e+00 -6.064180e+00 -7.152547e+00 -6.307857e+00 -8.144504e+00 -1.100376e+00 -1.009650e+01 -3.161884e+00 -2.040631e+00 -7.504019e+00 -1.756705e+00 -6.116684e+00 5.588039e+01 2.817962e-03 4.981637e-03 4.548633e-03 2.702527e-03 2.655869e-03 -1.117672e-03 1.608044e-03 -3.151441e-03 -3.712254e-03 -1.791283e-03 1.229354e-03 1.825009e-03 2.279447e-03 -1.567647e-04 1.019357e-04 4.115858e-04 4.298519e-04 4.558307e-04 4.934241e-04 7.134664e-04 4.210645e-05 1.306027e-03 7.725984e-04 6.409848e-05 2.180072e-04 3.076123e-05
<VARIANCE> 39
 8.208594e+01 5.293768e+01 6.391951e+01 7.540031e+01 4.923005e+01 8.213964e+01 6.779455e+01 4.465966e+01 5.228432e+01 5.634802e+01 4.882239e+01 3.657957e+01 3.634417e+02 2.940478e+00 1.617222e+00 2.109190e+00 2.693671e+00 2.944042e+00 3.395159e+00 2.999779e+00 2.803180e+00 2.794289e+00 2.821964e+00 3.087791e+00 2.200109e+00 3.351369e+00 4.135351e-01 2.700506e-01 3.264397e-01 4.158920e-01 5.331165e-01 5.542809e-01 5.216286e-01 4.910770e-01 4.786579e-01 4.816228e-01 5.339736e-01 3.985440e-01 3.592102e-01
<GCONST> 1.283362e+02
<TRANSP> 5
 0.000000e+00 1.000000e+00 0.000000e+00 0.000000e+00 0.000000e+00
 0.000000e+00 6.000000e-01 4.000000e-01 0.000000e+00 0.000000e+00
 0.000000e+00 0.000000e+00 6.000000e-01 4.000000e-01 0.000000e+00
 0.000000e+00 0.000000e+00 0.000000e+00 7.000000e-01 3.000000e-01
 0.000000e+00 0.000000e+00 0.000000e+00 0.000000e+00 0.000000e+00
<ENDHMM>
~h "x"
<BEGINHMM>
<NUMSTATES> 5
<STATE> 2
<MEAN> 39
 -7.685329e+00 -6.064180e+00 -7.152547e+00 -6.307857e+00 -8.144504e+00 -1.100376e+00 -1.009650e+01 -3.161884e+00 -2.040631e+00 -7.504019e+00 -1.756705e+00 -6.116684e+00 5.588039e+01 2.817962e-03 4.981637e-03 4.548633e-03 2.702527e-03 2.655869e-03 -1.117672e-03 1.608044e-03 -3.151441e-03 -3.712254e-03 -1.791283e-03 1.229354e-03 1.825009e-03 2.279447e-03 -1.567647e-04 1.019357e-04 4.115858e-04 4.298519e-04 4.558307e-04 4.934241e-04 7.134664e-04 4.210645e-05 1.306027e-03 7.725984e-04 6.409848e-05 2.180072e-04 3.076123e-05
<VARIANCE> 39
 8.208594e+01 5.293768e+01 6.391951e+01 7.540031e+01 4.923005e+01 8.213964e+01 6.779455e+01 4.465966e+01 5.228432e+01 5.634802e+01 4.882239e+01 3.657957e+01 3.634417e+02 2.940478e+00 1.617222e+00 2.109190e+00 2.693671e+00 2.944042e+00 3.395159e+00 2.999779e+00 2.803180e+00 2.794289e+00 2.821964e+00 3.087791e+00 2.200109e+00 3.351369e+00 4.135351e-01 2.700506e-01 3.264397e-01 4.158920e-01 5.331165e-01 5.542809e-01 5.216286e-01 4.910770e-01 4.786579e-01 4.816228e-01 5.339736e-01 3.985440e-01 3.592102e-01
<GCONST> 1.283362e+02
<STATE> 3
<MEAN> 39
 -7.685329e+00 -6.064180e+00 -7.152547e+00 -6.307857e+00 -8.144504e+00 -1.100376e+00 -1.009650e+01 -3.161884e+00 -2.040631e+00 -7.504019e+00 -1.756705e+00 -6.116684e+00 5.588039e+01 2.817962e-03 4.981637e-03 4.548633e-03 2.702527e-03 2.655869e-03 -1.117672e-03 1.608044e-03 -3.151441e-03 -3.712254e-03 -1.791283e-03 1.229354e-03 1.825009e-03 2.279447e-03 -1.567647e-04 1.019357e-04 4.115858e-04 4.298519e-04 4.558307e-04 4.934241e-04 7.134664e-04 4.210645e-05 1.306027e-03 7.725984e-04 6.409848e-05 2.180072e-04 3.076123e-05
<VARIANCE> 39
 8.208594e+01 5.293768e+01 6.391951e+01 7.540031e+01 4.923005e+01 8.213964e+01 6.779455e+01 4.465966e+01 5.228432e+01 5.634802e+01 4.882239e+01 3.657957e+01 3.634417e+02 2.940478e+00 1.617222e+00 2.109190e+00 2.693671e+00 2.944042e+00 3.395159e+00 2.999779e+00 2.803180e+00 2.794289e+00 2.821964e+00 3.087791e+00 2.200109e+00 3.351369e+00 4.135351e-01 2.700506e-01 3.264397e-01 4.158920e-01 5.331165e-01 5.542809e-01 5.216286e-01 4.910770e-01 4.786579e-01 4.816228e-01 5.339736e-01 3.985440e-01 3.592102e-01
<GCONST> 1.283362e+02
<STATE> 4
<MEAN> 39
 -7.685329e+00 -6.064180e+00 -7.152547e+00 -6.307857e+00 -8.144504e+00 -1.100376e+00 -1.009650e+01 -3.161884e+00 -2.040631e+00 -7.504019e+00 -1.756705e+00 -6.116684e+00 5.588039e+01 2.817962e-03 4.981637e-03 4.548633e-03 2.702527e-03 2.655869e-03 -1.117672e-03 1.608044e-03 -3.151441e-03 -3.712254e-03 -1.791283e-03 1.229354e-03 1.825009e-03 2.279447e-03 -1.567647e-04 1.019357e-04 4.115858e-04 4.298519e-04 4.558307e-04 4.934241e-04 7.134664e-04 4.210645e-05 1.306027e-03 7.725984e-04 6.409848e-05 2.180072e-04 3.076123e-05
<VARIANCE> 39
 8.208594e+01 5.293768e+01 6.391951e+01 7.540031e+01 4.923005e+01 8.213964e+01 6.779455e+01 4.465966e+01 5.228432e+01 5.634802e+01 4.882239e+01 3.657957e+01 3.634417e+02 2.940478e+00 1.617222e+00 2.109190e+00 2.693671e+00 2.944042e+00 3.395159e+00 2.999779e+00 2.803180e+00 2.794289e+00 2.821964e+00 3.087791e+00 2.200109e+00 3.351369e+00 4.135351e-01 2.700506e-01 3.264397e-01 4.158920e-01 5.331165e-01 5.542809e-01 5.216286e-01 4.910770e-01 4.786579e-01 4.816228e-01 5.339736e-01 3.985440e-01 3.592102e-01
<GCONST> 1.283362e+02
<TRANSP> 5
 0.000000e+00 1.000000e+00 0.000000e+00 0.000000e+00 0.000000e+00
 0.000000e+00 6.000000e-01 4.000000e-01 0.000000e+00 0.000000e+00
 0.000000e+00 0.000000e+00 6.000000e-01 4.000000e-01 0.000000e+00
 0.000000e+00 0.000000e+00 0.000000e+00 7.000000e-01 3.000000e-01
 0.000000e+00 0.000000e+00 0.000000e+00 0.000000e+00 0.000000e+00
<ENDHMM>
~h "shi"
<BEGINHMM>
<NUMSTATES> 5
<STATE> 2
<MEAN> 39
 -7.685329e+00 -6.064180e+00 -7.152547e+00 -6.307857e+00 -8.144504e+00 -1.100376e+00 -1.009650e+01 -3.161884e+00 -2.040631e+00 -7.504019e+00 -1.756705e+00 -6.116684e+00 5.588039e+01 2.817962e-03 4.981637e-03 4.548633e-03 2.702527e-03 2.655869e-03 -1.117672e-03 1.608044e-03 -3.151441e-03 -3.712254e-03 -1.791283e-03 1.229354e-03 1.825009e-03 2.279447e-03 -1.567647e-04 1.019357e-04 4.115858e-04 4.298519e-04 4.558307e-04 4.934241e-04 7.134664e-04 4.210645e-05 1.306027e-03 7.725984e-04 6.409848e-05 2.180072e-04 3.076123e-05
<VARIANCE> 39
 8.208594e+01 5.293768e+01 6.391951e+01 7.540031e+01 4.923005e+01 8.213964e+01 6.779455e+01 4.465966e+01 5.228432e+01 5.634802e+01 4.882239e+01 3.657957e+01 3.634417e+02 2.940478e+00 1.617222e+00 2.109190e+00 2.693671e+00 2.944042e+00 3.395159e+00 2.999779e+00 2.803180e+00 2.794289e+00 2.821964e+00 3.087791e+00 2.200109e+00 3.351369e+00 4.135351e-01 2.700506e-01 3.264397e-01 4.158920e-01 5.331165e-01 5.542809e-01 5.216286e-01 4.910770e-01 4.786579e-01 4.816228e-01 5.339736e-01 3.985440e-01 3.592102e-01
<GCONST> 1.283362e+02
<STATE> 3
<MEAN> 39
 -7.685329e+00 -6.064180e+00 -7.152547e+00 -6.307857e+00 -8.144504e+00 -1.100376e+00 -1.009650e+01 -3.161884e+00 -2.040631e+00 -7.504019e+00 -1.756705e+00 -6.116684e+00 5.588039e+01 2.817962e-03 4.981637e-03 4.548633e-03 2.702527e-03 2.655869e-03 -1.117672e-03 1.608044e-03 -3.151441e-03 -3.712254e-03 -1.791283e-03 1.229354e-03 1.825009e-03 2.279447e-03 -1.567647e-04 1.019357e-04 4.115858e-04 4.298519e-04 4.558307e-04 4.934241e-04 7.134664e-04 4.210645e-05 1.306027e-03 7.725984e-04 6.409848e-05 2.180072e-04 3.076123e-05
<VARIANCE> 39
 8.208594e+01 5.293768e+01 6.391951e+01 7.540031e+01 4.923005e+01 8.213964e+01 6.779455e+01 4.465966e+01 5.228432e+01 5.634802e+01 4.882239e+01 3.657957e+01 3.634417e+02 2.940478e+00 1.617222e+00 2.109190e+00 2.693671e+00 2.944042e+00 3.395159e+00 2.999779e+00 2.803180e+00 2.794289e+00 2.821964e+00 3.087791e+00 2.200109e+00 3.351369e+00 4.135351e-01 2.700506e-01 3.264397e-01 4.158920e-01 5.331165e-01 5.542809e-01 5.216286e-01 4.910770e-01 4.786579e-01 4.816228e-01 5.339736e-01 3.985440e-01 3.592102e-01
<GCONST> 1.283362e+02
<STATE> 4
<MEAN> 39
 -7.685329e+00 -6.064180e+00 -7.152547e+00 -6.307857e+00 -8.144504e+00 -1.100376e+00 -1.009650e+01 -3.161884e+00 -2.040631e+00 -7.504019e+00 -1.756705e+00 -6.116684e+00 5.588039e+01 2.817962e-03 4.981637e-03 4.548633e-03 2.702527e-03 2.655869e-03 -1.117672e-03 1.608044e-03 -3.151441e-03 -3.712254e-03 -1.791283e-03 1.229354e-03 1.825009e-03 2.279447e-03 -1.567647e-04 1.019357e-04 4.115858e-04 4.298519e-04 4.558307e-04 4.934241e-04 7.134664e-04 4.210645e-05 1.306027e-03 7.725984e-04 6.409848e-05 2.180072e-04 3.076123e-05
<VARIANCE> 39
 8.208594e+01 5.293768e+01 6.391951e+01 7.540031e+01 4.923005e+01 8.213964e+01 6.779455e+01 4.465966e+01 5.228432e+01 5.634802e+01 4.882239e+01 3.657957e+01 3.634417e+02 2.940478e+00 1.617222e+00 2.109190e+00 2.693671e+00 2.944042e+00 3.395159e+00 2.999779e+00 2.803180e+00 2.794289e+00 2.821964e+00 3.087791e+00 2.200109e+00 3.351369e+00 4.135351e-01 2.700506e-01 3.264397e-01 4.158920e-01 5.331165e-01 5.542809e-01 5.216286e-01 4.910770e-01 4.786579e-01 4.816228e-01 5.339736e-01 3.985440e-01 3.592102e-01
<GCONST> 1.283362e+02
<TRANSP> 5
 0.000000e+00 1.000000e+00 0.000000e+00 0.000000e+00 0.000000e+00
 0.000000e+00 6.000000e-01 4.000000e-01 0.000000e+00 0.000000e+00
 0.000000e+00 0.000000e+00 6.000000e-01 4.000000e-01 0.000000e+00
 0.000000e+00 0.000000e+00 0.000000e+00 7.000000e-01 3.000000e-01
 0.000000e+00 0.000000e+00 0.000000e+00 0.000000e+00 0.000000e+00
<ENDHMM>
~h "k"
<BEGINHMM>
<NUMSTATES> 5
<STATE> 2
<MEAN> 39
 -7.685329e+00 -6.064180e+00 -7.152547e+00 -6.307857e+00 -8.144504e+00 -1.100376e+00 -1.009650e+01 -3.161884e+00 -2.040631e+00 -7.504019e+00 -1.756705e+00 -6.116684e+00 5.588039e+01 2.817962e-03 4.981637e-03 4.548633e-03 2.702527e-03 2.655869e-03 -1.117672e-03 1.608044e-03 -3.151441e-03 -3.712254e-03 -1.791283e-03 1.229354e-03 1.825009e-03 2.279447e-03 -1.567647e-04 1.019357e-04 4.115858e-04 4.298519e-04 4.558307e-04 4.934241e-04 7.134664e-04 4.210645e-05 1.306027e-03 7.725984e-04 6.409848e-05 2.180072e-04 3.076123e-05
<VARIANCE> 39
 8.208594e+01 5.293768e+01 6.391951e+01 7.540031e+01 4.923005e+01 8.213964e+01 6.779455e+01 4.465966e+01 5.228432e+01 5.634802e+01 4.882239e+01 3.657957e+01 3.634417e+02 2.940478e+00 1.617222e+00 2.109190e+00 2.693671e+00 2.944042e+00 3.395159e+00 2.999779e+00 2.803180e+00 2.794289e+00 2.821964e+00 3.087791e+00 2.200109e+00 3.351369e+00 4.135351e-01 2.700506e-01 3.264397e-01 4.158920e-01 5.331165e-01 5.542809e-01 5.216286e-01 4.910770e-01 4.786579e-01 4.816228e-01 5.339736e-01 3.985440e-01 3.592102e-01
<GCONST> 1.283362e+02
<STATE> 3
<MEAN> 39
 -7.685329e+00 -6.064180e+00 -7.152547e+00 -6.307857e+00 -8.144504e+00 -1.100376e+00 -1.009650e+01 -3.161884e+00 -2.040631e+00 -7.504019e+00 -1.756705e+00 -6.116684e+00 5.588039e+01 2.817962e-03 4.981637e-03 4.548633e-03 2.702527e-03 2.655869e-03 -1.117672e-03 1.608044e-03 -3.151441e-03 -3.712254e-03 -1.791283e-03 1.229354e-03 1.825009e-03 2.279447e-03 -1.567647e-04 1.019357e-04 4.115858e-04 4.298519e-04 4.558307e-04 4.934241e-04 7.134664e-04 4.210645e-05 1.306027e-03 7.725984e-04 6.409848e-05 2.180072e-04 3.076123e-05
<VARIANCE> 39
 8.208594e+01 5.293768e+01 6.391951e+01 7.540031e+01 4.923005e+01 8.213964e+01 6.779455e+01 4.465966e+01 5.228432e+01 5.634802e+01 4.882239e+01 3.657957e+01 3.634417e+02 2.940478e+00 1.617222e+00 2.109190e+00 2.693671e+00 2.944042e+00 3.395159e+00 2.999779e+00 2.803180e+00 2.794289e+00 2.821964e+00 3.087791e+00 2.200109e+00 3.351369e+00 4.135351e-01 2.700506e-01 3.264397e-01 4.158920e-01 5.331165e-01 5.542809e-01 5.216286e-01 4.910770e-01 4.786579e-01 4.816228e-01 5.339736e-01 3.985440e-01 3.592102e-01
<GCONST> 1.283362e+02
<STATE> 4
<MEAN> 39
 -7.685329e+00 -6.064180e+00 -7.152547e+00 -6.307857e+00 -8.144504e+00 -1.100376e+00 -1.009650e+01 -3.161884e+00 -2.040631e+00 -7.504019e+00 -1.756705e+00 -6.116684e+00 5.588039e+01 2.817962e-03 4.981637e-03 4.548633e-03 2.702527e-03 2.655869e-03 -1.117672e-03 1.608044e-03 -3.151441e-03 -3.712254e-03 -1.791283e-03 1.229354e-03 1.825009e-03 2.279447e-03 -1.567647e-04 1.019357e-04 4.115858e-04 4.298519e-04 4.558307e-04 4.934241e-04 7.134664e-04 4.210645e-05 1.306027e-03 7.725984e-04 6.409848e-05 2.180072e-04 3.076123e-05
<VARIANCE> 39
 8.208594e+01 5.293768e+01 6.391951e+01 7.540031e+01 4.923005e+01 8.213964e+01 6.779455e+01 4.465966e+01 5.228432e+01 5.634802e+01 4.882239e+01 3.657957e+01 3.634417e+02 2.940478e+00 1.617222e+00 2.109190e+00 2.693671e+00 2.944042e+00 3.395159e+00 2.999779e+00 2.803180e+00 2.794289e+00 2.821964e+00 3.087791e+00 2.200109e+00 3.351369e+00 4.135351e-01 2.700506e-01 3.264397e-01 4.158920e-01 5.331165e-01 5.542809e-01 5.216286e-01 4.910770e-01 4.786579e-01 4.816228e-01 5.339736e-01 3.985440e-01 3.592102e-01
<GCONST> 1.283362e+02
<TRANSP> 5
 0.000000e+00 1.000000e+00 0.000000e+00 0.000000e+00 0.000000e+00
 0.000000e+00 6.000000e-01 4.000000e-01 0.000000e+00 0.000000e+00
 0.000000e+00 0.000000e+00 6.000000e-01 4.000000e-01 0.000000e+00
 0.000000e+00 0.000000e+00 0.000000e+00 7.000000e-01 3.000000e-01
 0.000000e+00 0.000000e+00 0.000000e+00 0.000000e+00 0.000000e+00
<ENDHMM>
~h "ai"
<BEGINHMM>
<NUMSTATES> 5
<STATE> 2
<MEAN> 39
 -7.685329e+00 -6.064180e+00 -7.152547e+00 -6.307857e+00 -8.144504e+00 -1.100376e+00 -1.009650e+01 -3.161884e+00 -2.040631e+00 -7.504019e+00 -1.756705e+00 -6.116684e+00 5.588039e+01 2.817962e-03 4.981637e-03 4.548633e-03 2.702527e-03 2.655869e-03 -1.117672e-03 1.608044e-03 -3.151441e-03 -3.712254e-03 -1.791283e-03 1.229354e-03 1.825009e-03 2.279447e-03 -1.567647e-04 1.019357e-04 4.115858e-04 4.298519e-04 4.558307e-04 4.934241e-04 7.134664e-04 4.210645e-05 1.306027e-03 7.725984e-04 6.409848e-05 2.180072e-04 3.076123e-05
<VARIANCE> 39
 8.208594e+01 5.293768e+01 6.391951e+01 7.540031e+01 4.923005e+01 8.213964e+01 6.779455e+01 4.465966e+01 5.228432e+01 5.634802e+01 4.882239e+01 3.657957e+01 3.634417e+02 2.940478e+00 1.617222e+00 2.109190e+00 2.693671e+00 2.944042e+00 3.395159e+00 2.999779e+00 2.803180e+00 2.794289e+00 2.821964e+00 3.087791e+00 2.200109e+00 3.351369e+00 4.135351e-01 2.700506e-01 3.264397e-01 4.158920e-01 5.331165e-01 5.542809e-01 5.216286e-01 4.910770e-01 4.786579e-01 4.816228e-01 5.339736e-01 3.985440e-01 3.592102e-01
<GCONST> 1.283362e+02
<STATE> 3
<MEAN> 39
 -7.685329e+00 -6.064180e+00 -7.152547e+00 -6.307857e+00 -8.144504e+00 -1.100376e+00 -1.009650e+01 -3.161884e+00 -2.040631e+00 -7.504019e+00 -1.756705e+00 -6.116684e+00 5.588039e+01 2.817962e-03 4.981637e-03 4.548633e-03 2.702527e-03 2.655869e-03 -1.117672e-03 1.608044e-03 -3.151441e-03 -3.712254e-03 -1.791283e-03 1.229354e-03 1.825009e-03 2.279447e-03 -1.567647e-04 1.019357e-04 4.115858e-04 4.298519e-04 4.558307e-04 4.934241e-04 7.134664e-04 4.210645e-05 1.306027e-03 7.725984e-04 6.409848e-05 2.180072e-04 3.076123e-05
<VARIANCE> 39
 8.208594e+01 5.293768e+01 6.391951e+01 7.540031e+01 4.923005e+01 8.213964e+01 6.779455e+01 4.465966e+01 5.228432e+01 5.634802e+01 4.882239e+01 3.657957e+01 3.634417e+02 2.940478e+00 1.617222e+00 2.109190e+00 2.693671e+00 2.944042e+00 3.395159e+00 2.999779e+00 2.803180e+00 2.794289e+00 2.821964e+00 3.087791e+00 2.200109e+00 3.351369e+00 4.135351e-01 2.700506e-01 3.264397e-01 4.158920e-01 5.331165e-01 5.542809e-01 5.216286e-01 4.910770e-01 4.786579e-01 4.816228e-01 5.339736e-01 3.985440e-01 3.592102e-01
<GCONST> 1.283362e+02
<STATE> 4
<MEAN> 39
 -7.685329e+00 -6.064180e+00 -7.152547e+00 -6.307857e+00 -8.144504e+00 -1.100376e+00 -1.009650e+01 -3.161884e+00 -2.040631e+00 -7.504019e+00 -1.756705e+00 -6.116684e+00 5.588039e+01 2.817962e-03 4.981637e-03 4.548633e-03 2.702527e-03 2.655869e-03 -1.117672e-03 1.608044e-03 -3.151441e-03 -3.712254e-03 -1.791283e-03 1.229354e-03 1.825009e-03 2.279447e-03 -1.567647e-04 1.019357e-04 4.115858e-04 4.298519e-04 4.558307e-04 4.934241e-04 7.134664e-04 4.210645e-05 1.306027e-03 7.725984e-04 6.409848e-05 2.180072e-04 3.076123e-05
<VARIANCE> 39
 8.208594e+01 5.293768e+01 6.391951e+01 7.540031e+01 4.923005e+01 8.213964e+01 6.779455e+01 4.465966e+01 5.228432e+01 5.634802e+01 4.882239e+01 3.657957e+01 3.634417e+02 2.940478e+00 1.617222e+00 2.109190e+00 2.693671e+00 2.944042e+00 3.395159e+00 2.999779e+00 2.803180e+00 2.794289e+00 2.821964e+00 3.087791e+00 2.200109e+00 3.351369e+00 4.135351e-01 2.700506e-01 3.264397e-01 4.158920e-01 5.331165e-01 5.542809e-01 5.216286e-01 4.910770e-01 4.786579e-01 4.816228e-01 5.339736e-01 3.985440e-01 3.592102e-01
<GCONST> 1.283362e+02
<TRANSP> 5
 0.000000e+00 1.000000e+00 0.000000e+00 0.000000e+00 0.000000e+00
 0.000000e+00 6.000000e-01 4.000000e-01 0.000000e+00 0.000000e+00
 0.000000e+00 0.000000e+00 6.000000e-01 4.000000e-01 0.000000e+00
 0.000000e+00 0.000000e+00 0.000000e+00 7.000000e-01 3.000000e-01
 0.000000e+00 0.000000e+00 0.000000e+00 0.000000e+00 0.000000e+00
<ENDHMM>
~h "eng"
<BEGINHMM>
<NUMSTATES> 5
<STATE> 2
<MEAN> 39
 -7.685329e+00 -6.064180e+00 -7.152547e+00 -6.307857e+00 -8.144504e+00 -1.100376e+00 -1.009650e+01 -3.161884e+00 -2.040631e+00 -7.504019e+00 -1.756705e+00 -6.116684e+00 5.588039e+01 2.817962e-03 4.981637e-03 4.548633e-03 2.702527e-03 2.655869e-03 -1.117672e-03 1.608044e-03 -3.151441e-03 -3.712254e-03 -1.791283e-03 1.229354e-03 1.825009e-03 2.279447e-03 -1.567647e-04 1.019357e-04 4.115858e-04 4.298519e-04 4.558307e-04 4.934241e-04 7.134664e-04 4.210645e-05 1.306027e-03 7.725984e-04 6.409848e-05 2.180072e-04 3.076123e-05
<VARIANCE> 39
 8.208594e+01 5.293768e+01 6.391951e+01 7.540031e+01 4.923005e+01 8.213964e+01 6.779455e+01 4.465966e+01 5.228432e+01 5.634802e+01 4.882239e+01 3.657957e+01 3.634417e+02 2.940478e+00 1.617222e+00 2.109190e+00 2.693671e+00 2.944042e+00 3.395159e+00 2.999779e+00 2.803180e+00 2.794289e+00 2.821964e+00 3.087791e+00 2.200109e+00 3.351369e+00 4.135351e-01 2.700506e-01 3.264397e-01 4.158920e-01 5.331165e-01 5.542809e-01 5.216286e-01 4.910770e-01 4.786579e-01 4.816228e-01 5.339736e-01 3.985440e-01 3.592102e-01
<GCONST> 1.283362e+02
<STATE> 3
<MEAN> 39
