~o
<STREAMINFO> 1 39
<VECSIZE> 39<NULLD><MFCC_D_A_0><DIAGC>
~s "silst"
<MEAN> 39
 -1.318879e+01 -2.693296e+00 -1.096420e+01 -1.773277e+00 -8.233051e+00 -1.944303e+00 -8.047457e+00 -2.602211e+00 -4.479649e+00 -3.267300e+00 -3.606260e+00 -3.589656e+00 3.736934e+01 -2.510881e-02 -1.131849e-02 1.387819e-02 -1.148949e-02 -3.346309e-02 -1.903417e-02 1.312325e-02 3.075097e-02 3.901840e-02 5.075717e-02 5.572030e-02 2.853583e-02 -4.825195e-03 2.576657e-02 1.764541e-02 2.333918e-02 8.332731e-03 2.142600e-02 1.063305e-02 -1.509265e-02 -2.326332e-02 -3.518101e-02 -4.536644e-02 -2.775393e-02 -2.025273e-02 2.226964e-02
<VARIANCE> 39
 2.809994e+00 1.103580e+01 9.329270e+00 1.233683e+01 1.084114e+01 1.408277e+01 1.281143e+01 1.448636e+01 1.443182e+01 1.410520e+01 1.225870e+01 1.169565e+01 5.235564e+00 2.319122e-01 4.413462e-01 6.942425e-01 9.127344e-01 1.117972e+00 1.147323e+00 1.255704e+00 1.415260e+00 1.563856e+00 1.453002e+00 1.354882e+00 1.309776e+00 1.138004e-01 4.692157e-02 8.177369e-02 1.352428e-01 1.849490e-01 2.252607e-01 2.341267e-01 2.531570e-01 2.844903e-01 3.253607e-01 3.065802e-01 2.878134e-01 2.721991e-01 2.032347e-02
<GCONST> 7.578308e+01
~h "a"
<BEGINHMM>
<NUMSTATES> 5
<STATE> 2
<MEAN> 39
 -4.254857e+00 -1.698121e+01 -1.393335e+01 -1.928759e+01 -6.841477e-01 1.751800e+01 -1.355261e+01 -8.738486e+00 2.192923e+00 -8.355926e+00 -5.788549e+00 -4.118307e+00 8.504787e+01 5.304716e-01 -1.665893e-01 5.370728e-01 1.418316e-01 -7.834321e-02 -6.507400e-02 -1.340962e+00 1.093308e+00 -3.863342e-01 -7.640955e-02 8.613291e-01 -7.829492e-01 -4.737505e-01 1.824163e-01 2.674541e-02 3.167078e-01 1.368214e-01 -1.220171e-01 -3.578030e-01 -3.743047e-02 1.528893e-01 -1.548201e-01 1.518986e-01 1.190146e-01 -1.940220e-01 -2.393375e-01
<VARIANCE> 39
 2.247148e+01 1.233922e+01 1.060610e+01 9.179704e+00 1.310255e+01 3.312331e+01 1.049699e+02 8.991697e+01 1.887934e+01 2.178954e+01 5.950978e+01 5.301023e+01 1.172492e+01 1.508741e+00 7.838905e-01 1.445460e+00 7.411880e-01 1.488165e+00 2.796858e+00 3.465084e+00 5.953233e+00 1.460805e+00 1.647379e+00 2.469724e+00 3.840389e+00 8.324533e-01 1.782020e-01 1.619618e-01 1.994467e-01 2.397985e-01 2.229704e-01 3.630649e-01 5.657574e-01 9.689630e-01 3.396522e-01 2.751041e-01 4.589476e-01 4.722110e-01 8.449638e-02
<GCONST> 1.052070e+02
<STATE> 3
<MEAN> 39
 4.755155e+00 -1.803223e+01 7.572187e+00 -9.150746e+00 -1.106943e+00 5.069860e+00 -3.204762e+01 -1.304873e+00 -8.666067e+00 -7.365272e+00 7.405621e+00 -1.555479e+01 7.259763e+01 -1.576306e-01 4.142579e-01 3.546390e-01 4.792787e-01 -1.526615e-02 -1.314539e+00 2.354776e-01 3.737330e-03 6.992979e-01 -6.977175e-01 1.466368e-01 -3.158328e-01 -4.987428e-02 -2.165800e-01 8.288020e-02 -5.211422e-01 -2.422500e-01 -1.030516e-03 2.068861e-01 1.821608e-01 1.966457e-01 5.116938e-01 -3.196930e-01 -2.020438e-01 1.241670e-01 2.910980e-01
<VARIANCE> 39
 3.821862e+00 7.932291e+00 7.278418e+01 3.558175e+01 2.270239e+01 3.094418e+01 2.621163e+01 4.037257e+01 9.577037e+01 6.159486e+01 2.363552e+01 1.232628e+01 1.447291e+01 7.313501e-01 1.007673e+00 1.453272e+01 6.247563e+00 3.103147e+00 3.451483e+00 2.273055e+00 7.668581e+00 1.934851e+01 1.041907e+01 1.565721e+00 1.458452e+00 3.295341e+00 8.012854e-02 1.781684e-01 1.051352e+00 6.885849e-01 5.870386e-01 3.199417e-01 3.984822e-01 1.100832e+00 1.791240e+00 1.126606e+00 5.037961e-01 4.079746e-01 2.117018e-01
<GCONST> 1.207528e+02
<STATE> 4
<MEAN> 39
 -3.803552e-01 -1.267560e+01 -4.628925e+00 -1.320928e+01 -5.334722e+00 1.473342e+00 -1.450447e+01 3.104534e+00 1.033161e+00 -7.229141e+00 -4.873759e-01 -1.265661e+01 7.376833e+01 -2.837759e-01 6.706150e-01 -3.044814e-01 8.650932e-01 1.930826e-01 -1.581281e-01 7.145359e-01 -6.580306e-01 6.161667e-01 -2.452418e-01 -6.016080e-01 5.785464e-01 -1.283218e+00 -1.723954e-01 -1.784074e-01 6.045981e-02 2.159180e-01 1.786843e-01 3.378407e-01 4.565874e-02 -5.123651e-01 -3.546515e-01 1.370566e-01 -1.529333e-01 1.906742e-01 -2.357160e-01
<VARIANCE> 39
 8.548008e+01 2.931884e+01 2.442071e+01 2.427973e+01 5.013172e+01 6.062941e+01 1.167254e+02 7.698170e+01 7.540351e+01 1.383602e+02 5.423288e+01 5.256590e+01 4.541322e+01 5.303232e+00 2.646030e+00 2.695062e+00 3.080021e+00 3.147217e+00 7.728361e+00 4.839152e+00 7.191042e+00 2.751236e+00 3.562445e+00 3.263000e+00 4.031578e+00 5.905486e+00 7.904713e-01 4.549618e-01 1.012310e+00 5.710467e-01 6.662111e-01 1.288932e+00 9.199887e-01 1.345511e+00 1.284215e+00 1.225940e+00 4.834979e-01 8.725487e-01 4.807393e-01
<GCONST> 1.395181e+02
<TRANSP> 5
 0.000000e+00 1.000000e+00 0.000000e+00 0.000000e+00 0.000000e+00
 0.000000e+00 9.166569e-01 8.334317e-02 0.000000e+00 0.000000e+00
 0.000000e+00 0.000000e+00 8.757235e-01 1.242765e-01 0.000000e+00
 0.000000e+00 0.000000e+00 0.000000e+00 7.765805e-01 2.234195e-01
 0.000000e+00 0.000000e+00 0.000000e+00 0.000000e+00 0.000000e+00
<ENDHMM>
~h "b"
<BEGINHMM>
<NUMSTATES> 5
<STATE> 2
<MEAN> 39
 2.548340e+00 -7.305542e+00 3.302920e+00 5.835238e-01 -8.812403e+00 -4.854076e+00 -1.480997e+01 -5.057203e+00 -4.720111e+00 -1.099174e+01 -2.931345e+00 -1.494451e+01 6.274479e+01 -2.986834e-01 1.736177e-01 8.076870e-02 -6.302463e-01 -1.312876e-01 2.799873e-01 1.020768e+00 -4.108402e-01 -3.751573e-01 4.154287e-01 1.801358e-01 8.819086e-01 1.195640e+00 -1.613249e-01 -4.323402e-02 -4.433334e-03 -3.900028e-01 -2.342647e-01 1.668996e-01 -9.103195e-02 -2.104312e-01 3.430861e-01 -3.358269e-01 3.061529e-01 7.725221e-02 4.816024e-01
<VARIANCE> 39
 3.561354e+01 2.660860e+01 4.905576e+01 4.263311e+01 3.443811e+01 3.542057e+01 5.943357e+01 1.726798e+01 3.201851e+01 3.755220e+01 4.089127e+01 5.951622e+01 1.216285e+02 2.647418e+00 2.990953e+00 5.159599e+00 5.873038e+00 6.848679e+00 5.637027e+00 2.909517e+00 3.566937e+00 7.258524e+00 3.305273e+00 8.250525e+00 2.891571e+00 2.262435e+01 3.337423e-01 4.266669e-01 1.241346e+00 5.956818e-01 1.187079e+00 9.238868e-01 7.696857e-01 5.950711e-01 9.231986e-01 7.827491e-01 1.197600e+00 6.068432e-01 2.835286e+00
<GCONST> 1.383081e+02
<STATE> 3
<MEAN> 39
 -5.280141e+00 -6.611665e+00 1.193374e+01 -1.174713e+01 -2.024029e+01 -5.251413e+00 -1.165017e+01 -1.652946e+01 -3.580411e+00 -1.459312e+01 1.040942e+01 -7.453884e+00 7.939390e+01 -1.236988e+00 1.106717e+00 2.776619e+00 -1.407707e+00 -2.060910e+00 2.711302e-02 -1.484022e+00 -2.350556e+00 -2.094869e-01 -1.952650e+00 1.475530e+00 -1.425560e-01 4.646610e-01 -1.489368e-01 4.460974e-01 -8.742112e-01 7.512646e-01 1.393287e+00 1.354975e-01 3.031486e-01 8.151794e-01 -2.658071e-02 4.240170e-01 -1.287522e+00 -5.735552e-02 -1.317363e+00
<VARIANCE> 39
 9.283674e+00 1.698521e+01 9.681529e+01 2.447003e+01 4.092586e+01 6.668505e+01 2.770968e+01 1.639943e+01 2.182402e+01 2.634696e+01 3.483067e+01 1.452118e+01 7.789702e+00 8.092771e-01 1.687325e+00 7.177944e+00 1.844186e+00 8.335505e+00 3.125140e+00 4.499177e+00 3.362692e+00 1.569021e+00 2.640563e+00 6.345412e+00 1.999195e+00 7.441320e+00 1.741015e-01 3.690379e-01 7.652312e-01 3.875876e-01 6.430411e-01 6.169572e-01 1.073934e+00 3.675617e-01 3.475847e-01 4.195882e-01 4.467447e-01 5.488700e-01 1.884124e+00
<GCONST> 1.195005e+02
<STATE> 4
<MEAN> 39
 -9.213345e+00 -1.302676e+00 1.752859e+01 -1.139217e+01 -1.956733e+01 -3.132096e+00 -1.195926e+01 -1.713431e+01 -5.672256e+00 -1.676045e+01 7.966700e+00 -1.061259e+01 7.694728e+01 1.275346e-01 -1.404763e-01 -1.011822e-01 3.134594e-01 1.596958e-01 8.933431e-02 5.317274e-01 4.823558e-01 -3.772440e-01 4.619188e-01 -4.397633e-01 -3.131582e-02 -3.877228e-01 2.548515e-02 -6.907463e-02 -1.876173e-01 1.774070e-01 1.491857e-01 -1.600706e-01 1.516263e-01 2.389061e-01 -1.252317e-02 1.285389e-01 -9.250945e-02 1.719568e-01 -1.490601e-01
<VARIANCE> 39
 6.667191e+00 1.283292e+01 2.992880e+01 7.922244e+00 1.374386e+01 2.049241e+01 1.146133e+01 6.743782e+00 9.746037e+00 1.336923e+01 1.320881e+01 8.597325e+00 6.787376e+00 6.942613e-01 8.657753e-01 9.068052e-01 7.595053e-01 1.221273e+00 1.437975e+00 1.196246e+00 1.189991e+00 6.951064e-01 1.151419e+00 8.857884e-01 1.281715e+00 3.651703e-01 1.837732e-01 1.391247e-01 2.007259e-01 1.377184e-01 3.649235e-01 1.984112e-01 1.748948e-01 1.912773e-01 1.647817e-01 1.819330e-01 2.020098e-01 2.275018e-01 1.305144e-01
<GCONST> 8.013012e+01
<TRANSP> 5
 0.000000e+00 1.000000e+00 0.000000e+00 0.000000e+00 0.000000e+00
 0.000000e+00 9.138784e-01 8.612154e-02 0.000000e+00 0.000000e+00
 0.000000e+00 0.000000e+00 6.380069e-01 3.619931e-01 0.000000e+00
 0.000000e+00 0.000000e+00 0.000000e+00 9.129127e-01 8.708727e-02
 0.000000e+00 0.000000e+00 0.000000e+00 0.000000e+00 0.000000e+00
<ENDHMM>
~h "d"
<BEGINHMM>
<NUMSTATES> 5
<STATE> 2
<MEAN> 39
 -8.895769e+00 -2.264505e+00 -5.940937e+00 -3.827719e+00 -7.972606e+00 -5.446851e+00 -5.866711e+00 -3.267566e+00 -2.611193e+00 -4.853863e+00 -3.982640e+00 -4.134614e+00 5.011227e+01 -6.231238e-01 -2.735225e-01 -2.920103e-01 -4.807059e-01 1.058277e+00 -2.429000e-01 5.938897e-01 1.082510e-02 8.176562e-02 6.411254e-01 -3.727674e-01 1.673477e-01 1.014646e+00 9.351633e-02 -1.538908e-01 1.871415e-01 -3.103812e-01 -1.271547e-01 -6.270182e-02 -1.761311e-01 -2.982776e-02 1.225695e-01 -1.695065e-02 2.458712e-01 2.777001e-02 9.357994e-01
<VARIANCE> 39
 5.717210e+01 6.674431e+01 6.572496e+01 6.779062e+01 5.006903e+01 5.381148e+01 3.631755e+01 3.090698e+01 4.826952e+01 3.034814e+01 2.491264e+01 2.042809e+01 2.347186e+02 5.928826e+00 4.991964e+00 5.188278e+00 4.581212e+00 6.334566e+00 8.954849e+00 4.588607e+00 3.794967e+00 2.835751e+00 3.096420e+00 2.580389e+00 2.172222e+00 1.036991e+01 1.252171e+00 9.862050e-01 1.029688e+00 9.011831e-01 1.339319e+00 1.370620e+00 1.067485e+00 6.964543e-01 8.955286e-01 4.971732e-01 6.736017e-01 3.998539e-01 2.225813e+00
<GCONST> 1.410415e+02
<STATE> 3
<MEAN> 39
 -7.321071e+00 -9.790635e+00 -8.926266e+00 -1.812016e+01 -6.733297e+00 -8.981495e-01 -5.085387e+00 -4.132154e+00 2.680964e+00 -1.455447e+00 -4.303391e+00 -7.153602e+00 8.117030e+01 1.403198e+00 -5.114501e-01 -1.758311e-01 -1.918577e+00 -4.162244e-01 1.521248e+00 -1.125697e+00 1.296800e-01 8.791931e-01 -1.201335e-01 6.750884e-01 -6.048951e-01 2.946705e+00 2.778429e-01 -1.701330e-02 -1.441213e-02 7.319108e-02 -2.868175e-01 5.924305e-01 -3.572291e-01 3.742293e-03 -3.909212e-02 -3.104204e-01 1.853284e-01 -2.388041e-01 -7.159664e-01
<VARIANCE> 39
 2.411934e+01 1.616648e+01 3.268857e+01 5.252869e+01 2.615538e+01 9.558901e+01 1.184826e+02 2.510749e+01 6.790173e+01 2.500956e+01 2.227629e+01 3.259747e+01 1.322144e+02 3.746490e+00 2.424023e+00 2.612467e+00 2.863829e+00 3.897064e+00 7.232831e+00 8.565305e+00 3.309597e+00 9.155914e+00 3.311476e+00 3.035985e+00 4.476425e+00 1.957538e+01 7.749473e-01 2.845780e-01 4.830649e-01 5.037304e-01 9.068278e-01 1.448876e+00 1.359209e+00 7.125167e-01 1.175536e+00 5.331826e-01 5.442657e-01 9.096220e-01 1.413709e+00
<GCONST> 1.362125e+02
<STATE> 4
<MEAN> 39
 4.830739e-01 -9.654164e+00 -8.644720e+00 -2.468878e+01 -8.982364e+00 1.311147e+01 -1.872211e+01 -3.060526e+00 5.061342e+00 -8.305292e+00 6.546671e+00 -1.135783e+01 8.120432e+01 5.812058e-01 2.660863e-01 -2.123058e-01 6.390244e-02 1.422761e-01 1.662813e+00 -7.808925e-01 -8.560938e-02 -4.686725e-01 -1.346418e+00 1.302065e+00 -3.784727e-02 -7.297404e-01 -3.278394e-01 2.005027e-01 -3.435064e-03 4.516807e-01 2.094957e-01 -5.513562e-01 4.540295e-01 -1.364287e-01 -1.724173e-01 -1.341674e-02 -1.422551e-01 2.762398e-01 -2.107112e-01
<VARIANCE> 39
 1.354075e+01 1.563502e+01 9.596230e+00 1.925318e+01 1.257106e+01 6.061919e+01 5.053156e+01 1.885390e+01 4.855586e+01 6.495082e+01 6.126664e+01 1.424900e+01 2.200006e+01 1.120838e+00 9.352040e-01 1.439313e+00 2.069474e+00 1.414781e+00 5.011986e+00 3.544990e+00 2.091407e+00 2.273294e+00 6.224670e+00 3.368417e+00 1.637315e+00 1.637502e+00 3.555166e-01 1.803910e-01 1.287118e-01 2.353909e-01 3.222826e-01 4.483757e-01 7.855650e-01 4.405614e-01 5.616984e-01 8.145454e-01 3.328005e-01 4.206435e-01 3.028418e-01
<GCONST> 1.104356e+02
<TRANSP> 5
 0.000000e+00 1.000000e+00 0.000000e+00 0.000000e+00 0.000000e+00
 0.000000e+00 8.129255e-01 1.870745e-01 0.000000e+00 0.000000e+00
 0.000000e+00 0.000000e+00 8.327119e-01 1.672881e-01 0.000000e+00
 0.000000e+00 0.000000e+00 0.000000e+00 8.399637e-01 1.600363e-01
 0.000000e+00 0.000000e+00 0.000000e+00 0.000000e+00 0.000000e+00
<ENDHMM>
~h "f"
<BEGINHMM>
<NUMSTATES> 5
<STATE> 2
<MEAN> 39
 -6.902773e+00 -9.832074e+00 -5.009549e+00 -7.645000e+00 -5.266843e+00 -2.644339e+00 -8.350661e+00 -5.419337e+00 -4.060597e-01 -9.021259e+00 -4.041275e-01 -4.960596e+00 6.928183e+01 2.280488e+00 -5.763321e-01 -3.659964e-01 -2.021114e+00 -4.263246e-01 1.888178e+00 -1.136375e+00 -1.442949e-01 2.286877e-01 1.376218e-01 8.673807e-01 -6.560336e-01 1.948551e+00 1.212818e-01 1.456245e-02 1.282108e-02 -1.369707e-01 -2.189186e-01 3.643042e-01 -1.071844e-01 -1.059563e-01 -1.268341e-01 -4.290680e-02 -3.187411e-02 -7.736942e-02 1.286343e-01
<VARIANCE> 39
 1.588680e+02 2.687307e+01 3.643384e+01 1.043849e+02 4.462104e+01 6.485351e+01 8.598072e+01 2.913100e+01 3.273792e+01 5.611414e+01 4.553377e+01 3.597279e+01 6.283578e+01 1.345102e+01 2.773889e+00 2.849434e+00 7.157203e+00 4.563340e+00 8.516706e+00 4.914493e+00 3.695532e+00 3.502101e+00 4.599967e+00 5.772113e+00 3.536611e+00 5.738307e+00 2.691676e+00 5.219375e-01 4.889835e-01 1.623933e+00 8.118520e-01 1.251921e+00 9.678129e-01 6.554771e-01 5.372122e-01 7.878670e-01 9.009402e-01 6.929697e-01 9.487410e-01
<GCONST> 1.421577e+02
<STATE> 3
<MEAN> 39
 4.348205e+00 -1.032666e+01 -5.979793e+00 -1.876863e+01 -1.414572e+01 1.154897e+01 -1.461840e+01 -7.916585e+00 -4.076515e+00 -6.316679e+00 6.968911e+00 -8.544113e+00 7.704773e+01 1.163112e-01 -2.297547e-02 5.354772e-01 7.259795e-01 -1.321138e+00 1.390578e+00 9.360887e-01 -1.131075e+00 7.621594e-02 -6.477275e-02 -1.667225e+00 8.891877e-01 -4.749323e-01 -3.182910e-01 5.217905e-02 2.334087e-01 6.288763e-01 2.856867e-01 -7.338322e-01 1.878565e-01 9.466242e-03 3.930787e-01 -3.528090e-01 -4.692792e-01 4.444627e-01 -4.603835e-01
<VARIANCE> 39
 1.560935e+01 2.422915e+01 2.022764e+01 7.069421e+01 3.672556e+01 4.271923e+01 4.825930e+01 4.678137e+01 4.913858e+01 5.368993e+01 7.647035e+01 4.110530e+01 2.804158e+01 1.177529e+00 1.243986e+00 2.751594e+00 1.157897e+01 2.410910e+00 6.266574e+00 3.375637e+00 5.085124e+00 3.940934e+00 8.391159e+00 3.545673e+00 3.325288e+00 1.563388e+00 4.595050e-01 2.303596e-01 3.530285e-01 1.342625e+00 3.775296e-01 6.141443e-01 9.000545e-01 1.029184e+00 5.719125e-01 1.450875e+00 1.203256e+00 7.237993e-01 3.539673e-01
<GCONST> 1.291430e+02
<STATE> 4
<MEAN> 39
 4.924080e+00 -1.520032e+01 -4.704520e+00 -1.791905e+01 -1.320658e+01 1.757947e+01 -1.606355e+01 -7.856220e+00 2.336123e-01 -1.078727e+01 5.320709e-01 -6.591440e+00 7.590169e+01 -4.353911e-02 3.060136e-02 2.565971e-02 5.007715e-01 1.312104e-01 1.904443e-01 -4.737982e-01 2.723618e-01 4.029434e-01 -7.598340e-01 -3.597757e-01 2.692623e-01 -2.084490e-01 -3.974781e-02 1.321842e-01 -1.332276e-01 5.097046e-02 1.556547e-01 -2.926312e-01 -8.102747e-02 2.345720e-01 -1.450094e-01 1.101114e-01 2.559130e-01 -2.146042e-01 -4.149844e-02
<VARIANCE> 39
 2.364443e+01 5.102641e+01 4.852609e+01 1.119015e+02 7.047343e+01 1.064201e+02 5.961296e+01 6.993478e+01 3.574747e+01 5.835865e+01 4.536857e+01 3.760086e+01 4.382670e+01 5.702744e-01 8.072098e-01 8.860774e-01 6.635919e-01 1.159481e+00 1.783476e+00 1.263353e+00 2.601210e+00 1.317425e+00 2.902033e+00 1.702216e+00 1.838536e+00 4.972486e-01 8.475970e-02 8.746064e-02 2.158955e-01 2.447927e-01 1.541784e-01 2.697729e-01 1.935232e-01 1.897943e-01 1.915322e-01 3.225437e-01 3.484450e-01 2.431800e-01 1.400614e-01
<GCONST> 1.043415e+02
<TRANSP> 5
 0.000000e+00 1.000000e+00 0.000000e+00 0.000000e+00 0.000000e+00
 0.000000e+00 8.669070e-01 1.330930e-01 0.000000e+00 0.000000e+00
 0.000000e+00 0.000000e+00 6.950122e-01 3.049878e-01 0.000000e+00
 0.000000e+00 0.000000e+00 0.000000e+00 7.013022e-01 2.986977e-01
 0.000000e+00 0.000000e+00 0.000000e+00 0.000000e+00 0.000000e+00
<ENDHMM>
~h "g"
<BEGINHMM>
<NUMSTATES> 5
<STATE> 2
<MEAN> 39
 -1.406256e+01 -3.848523e+00 -1.218287e+01 -3.609850e+00 -9.578848e+00 -3.285876e+00 -8.107230e+00 -4.398579e+00 -6.867465e+00 -3.926350e+00 -4.372826e+00 -4.699718e+00 3.743181e+01 -7.706636e-02 -8.407424e-02 -1.141751e-01 1.022416e-01 -8.901227e-02 1.174301e-03 -1.660444e-01 -2.099856e-01 -1.236917e-01 -1.618844e-01 3.228068e-02 -8.806954e-02 -2.981577e-03 8.792238e-02 1.534247e-01 1.482724e-01 6.946157e-02 1.700418e-01 1.171187e-01 -2.495224e-03 1.511637e-01 2.698909e-01 3.638050e-02 2.286607e-01 1.419899e-01 1.138060e-01
<VARIANCE> 39
 2.690377e+00 6.027752e+00 7.619968e+00 7.147980e+00 7.189503e+00 1.023935e+01 1.090344e+01 9.104944e+00 1.629546e+01 1.241517e+01 1.339686e+01 1.616290e+01 3.634416e+00 2.406613e-01 3.205127e-01 6.714028e-01 7.236080e-01 1.079734e+00 1.354333e+00 2.067865e+00 2.205458e+00 2.367858e+00 1.376807e+00 2.575258e+00 1.501614e+00 1.279678e-01 7.441466e-02 1.212210e-01 1.476721e-01 1.620851e-01 1.719844e-01 2.374159e-01 4.185771e-01 3.051628e-01 3.775568e-01 2.323640e-01 2.970941e-01 2.921362e-01 3.179200e-02
<GCONST> 7.640427e+01
<STATE> 3
<MEAN> 39
 -1.405617e+01 -2.933843e+00 -1.137236e+01 -3.201828e+00 -9.248198e+00 -2.133259e+00 -8.238220e+00 -4.183586e+00 -5.486518e+00 -5.163789e+00 -4.123875e+00 -3.734844e+00 3.762888e+01 5.660310e-02 2.674768e-01 1.384155e-01 1.591650e-01 4.002060e-01 2.830614e-01 1.141889e-01 2.346883e-01 2.171328e-01 -6.417229e-02 4.431888e-01 4.050592e-02 1.927034e-01 3.014069e-01 2.698804e-01 -6.887955e-03 -1.851054e-01 2.771402e-01 -2.254682e-02 1.815699e-01 1.995374e-01 -1.840331e-02 2.664791e-01 4.787920e-02 7.859880e-02 3.112476e-01
<VARIANCE> 39
 5.761084e+00 9.759460e+00 1.075356e+01 1.069211e+01 9.592864e+00 1.224816e+01 1.406944e+01 2.123927e+01 3.187279e+01 1.424795e+01 1.841870e+01 1.223313e+01 5.052730e+00 1.094174e+00 1.130436e+00 1.254994e+00 1.151594e+00 1.410926e+00 2.015786e+00 2.334872e+00 3.125471e+00 4.068182e+00 1.718554e+00 2.750122e+00 1.476468e+00 4.737769e-01 3.334631e-01 3.448262e-01 3.574566e-01 4.880170e-01 4.101456e-01 3.519053e-01 5.467752e-01 5.182045e-01 9.595085e-01 3.665919e-01 3.960627e-01 3.506598e-01 1.962698e-01
<GCONST> 9.853297e+01
<STATE> 4
<MEAN> 39
 -1.252194e+01 -5.103516e+00 -1.165027e+01 -3.820179e+00 -6.761623e+00 -9.617151e-01 -8.966144e+00 -1.675331e+00 -4.116019e+00 -4.396276e+00 -1.462320e+00 -3.701153e+00 4.090751e+01 1.194768e-01 2.487685e-01 2.815290e-01 2.293490e-01 8.390623e-02 -4.192140e-02 -5.151103e-02 2.710528e-02 1.872240e-01 2.478909e-01 -5.085345e-02 1.491239e-01 -2.395525e-02 2.633466e-01 1.130569e-01 -1.478556e-01 -3.752392e-01 1.465033e-01 -1.004413e-01 1.566854e-01 9.705455e-02 -1.554186e-01 2.018997e-01 -2.028300e-01 1.073301e-02 2.874177e-01
<VARIANCE> 39
 1.307101e+01 5.406838e+01 2.954395e+01 2.299168e+01 1.949589e+01 3.115829e+01 3.566446e+01 5.098835e+01 4.184531e+01 2.544487e+01 4.066605e+01 1.406701e+01 2.286544e+01 1.280525e+00 1.925870e+00 2.359262e+00 1.608869e+00 2.507832e+00 3.457565e+00 2.641943e+00 2.776650e+00 2.187086e+00 1.901802e+00 2.874767e+00 1.479779e+00 8.564101e-01 5.221848e-01 4.480354e-01 7.010257e-01 8.543692e-01 7.915871e-01 7.210457e-01 7.011735e-01 7.385023e-01 6.271667e-01 6.276149e-01 5.929633e-01 3.003029e-01 5.879015e-01
<GCONST> 1.178575e+02
<TRANSP> 5
 0.000000e+00 1.000000e+00 0.000000e+00 0.000000e+00 0.000000e+00
 0.000000e+00 4.316573e-01 5.683427e-01 0.000000e+00 0.000000e+00
 0.000000e+00 0.000000e+00 4.369947e-01 5.630053e-01 0.000000e+00
 0.000000e+00 0.000000e+00 0.000000e+00 7.099917e-01 2.900083e-01
 0.000000e+00 0.000000e+00 0.000000e+00 0.000000e+00 0.000000e+00
<ENDHMM>
~h "i"
<BEGINHMM>
<NUMSTATES> 5
<STATE> 2
<MEAN> 39
 -4.798182e-01 -8.815358e+00 -4.894316e+00 -1.074842e+01 -7.532423e+00 1.074017e+00 -8.035963e+00 -5.024738e-01 -1.069561e+00 -8.141401e+00 -6.910729e-01 -7.136362e+00 6.613966e+01 -1.499488e+00 7.667259e-01 -8.552148e-01 1.366642e+00 1.760254e+00 -1.961355e-01 1.649339e+00 -2.867712e-01 1.240168e-01 5.520916e-01 -1.534760e+00 7.849547e-01 -2.095818e+00 -2.852157e-01 -1.882402e-01 -1.131400e-01 -1.099760e-01 -2.546058e-01 3.190897e-01 -4.593980e-01 -3.102916e-01 -2.219538e-02 -2.029923e-01 2.462173e-01 -1.666078e-01 1.367543e-02
<VARIANCE> 39
 5.012328e+01 5.117564e+01 1.303433e+02 1.374136e+02 7.019225e+01 1.841943e+02 8.030007e+01 8.572051e+01 6.080025e+01 3.738613e+01 3.731727e+01 4.089030e+01 1.106856e+02 4.575670e+00 2.504080e+00 3.877852e+00 5.579176e+00 3.773129e+00 8.451156e+00 6.831573e+00 4.866609e+00 2.867924e+00 3.446378e+00 5.066689e+00 3.725635e+00 3.467776e+00 5.530329e-01 4.585187e-01 4.221855e-01 8.790135e-01 5.874423e-01 1.162841e+00 1.133196e+00 7.267494e-01 4.872965e-01 6.503060e-01 6.583549e-01 5.914494e-01 4.191170e-01
<GCONST> 1.404411e+02
<STATE> 3
<MEAN> 39
 -6.074497e+00 -6.061685e+00 -6.428880e+00 -4.365633e+00 -2.628098e+00 5.374659e-01 -5.761023e+00 -3.556448e-01 -1.653368e+00 -7.932564e+00 -2.708479e+00 -4.241794e+00 5.803362e+01 -2.019682e+00 -2.632341e-01 -1.467013e+00 5.941717e-01 2.474298e-01 1.168800e-01 -4.146555e-02 -1.152462e+00 -3.043932e-01 4.025944e-01 -9.446218e-01 -2.438696e-02 -2.051758e+00 2.771956e-01 -4.505333e-01 -1.701147e-01 -7.635214e-01 -6.868774e-01 -1.005081e-01 -7.152768e-01 -2.063796e-01 -1.561582e-01 -8.365755e-02 3.995475e-01 -3.625419e-01 3.229510e-01
<VARIANCE> 39
 7.183578e+01 3.379236e+01 1.047481e+02 9.119270e+01 4.534027e+01 1.399663e+02 5.679026e+01 5.440092e+01 4.314619e+01 1.813784e+01 2.009558e+01 3.089042e+01 7.707858e+01 2.663365e+00 1.194650e+00 1.704392e+00 3.912651e+00 2.354663e+00 3.685200e+00 3.797855e+00 2.745569e+00 1.912145e+00 3.132948e+00 2.085805e+00 2.139830e+00 1.331970e+00 3.875956e-01 3.510808e-01 4.616219e-01 4.421845e-01 7.729096e-01 8.419113e-01 8.258782e-01 5.741382e-01 4.554717e-01 3.652928e-01 4.730895e-01 4.568431e-01 2.855933e-01
<GCONST> 1.246608e+02
<STATE> 4
<MEAN> 39
 -1.423025e+01 -6.610659e+00 -4.556070e+00 -4.531950e+00 -6.137865e+00 -3.219151e+00 -7.301177e+00 -5.578204e+00 -5.254975e+00 -7.758457e+00 -4.145017e+00 -5.452170e+00 5.569136e+01 -1.109962e+00 -8.478423e-01 -1.557683e+00 -3.958962e-01 1.298530e-01 -2.625333e-01 -1.523143e-01 -4.157314e-01 -4.808576e-02 3.202972e-01 -3.422539e-01 -1.084538e-01 -9.887888e-01 3.381424e-01 -9.074830e-02 9.755666e-02 -2.562839e-01 1.902858e-02 -4.633595e-02 1.655436e-01 2.946147e-01 1.392555e-01 5.983494e-02 2.100931e-01 6.554982e-02 4.611465e-01
<VARIANCE> 39
 9.281741e+01 2.187473e+01 8.812069e+01 4.757915e+01 3.454530e+01 1.080183e+02 4.407005e+01 3.095693e+01 2.880401e+01 1.958320e+01 1.825073e+01 2.396086e+01 6.377599e+01 9.681159e-01 1.237448e+00 1.731480e+00 1.904308e+00 2.764523e+00 2.897932e+00 2.903277e+00 2.700649e+00 1.982282e+00 2.139253e+00 1.980118e+00 1.529487e+00 1.237166e+00 4.777974e-01 2.143872e-01 2.834026e-01 3.460480e-01 5.389635e-01 5.702938e-01 6.007915e-01 3.699512e-01 3.854044e-01 4.491295e-01 4.212716e-01 3.677677e-01 1.876738e-01
<GCONST> 1.153520e+02
<TRANSP> 5
 0.000000e+00 1.000000e+00 0.000000e+00 0.000000e+00 0.000000e+00
 0.000000e+00 6.912748e-01 3.087252e-01 0.000000e+00 0.000000e+00
 0.000000e+00 0.000000e+00 3.059944e-01 6.940056e-01 0.000000e+00
 0.000000e+00 0.000000e+00 0.000000e+00 6.058464e-01 3.941536e-01
 0.000000e+00 0.000000e+00 0.000000e+00 0.000000e+00 0.000000e+00
<ENDHMM>
~h "j"
<BEGINHMM>
<NUMSTATES> 5
<STATE> 2
<MEAN> 39
 -2.043128e+00 -3.531575e+00 -5.676729e-01 -1.577758e+01 -1.200180e+01 -8.751573e-01 -8.230016e+00 -8.537476e+00 -2.538680e+00 -1.065121e+01 7.486546e+00 -9.483280e+00 7.295258e+01 2.184296e-01 4.417880e-02 -2.560914e-03 2.983720e-01 -2.753909e-01 -6.516491e-02 5.724423e-02 -7.884578e-02 7.483285e-02 -1.282187e-01 1.785297e-01 3.308177e-03 5.564687e-01 2.890299e-02 -3.157420e-02 -7.666752e-02 1.506493e-01 1.498319e-02 -1.838789e-02 2.676973e-02 -3.661934e-03 -3.281622e-02 2.469928e-02 -9.993503e-02 -1.761890e-02 -2.104949e-01
<VARIANCE> 39
 1.500376e+02 3.820354e+01 1.819424e+01 1.307053e+02 6.212056e+01 5.250930e+01 4.886371e+01 5.831321e+01 3.685524e+01 3.570507e+01 7.979568e+01 5.394628e+01 3.846900e+01 8.976880e+00 1.569949e+00 2.038462e+00 1.101160e+01 4.033399e+00 4.824841e+00 7.110376e+00 6.401349e+00 4.947989e+00 4.139647e+00 9.544261e+00 7.334816e+00 5.549255e+00 1.111876e+00 1.938615e-01 3.398615e-01 1.475774e+00 6.609438e-01 8.020534e-01 1.577124e+00 1.067259e+00 9.551433e-01 7.939954e-01 1.728421e+00 1.504576e+00 4.869367e-01
<GCONST> 1.424956e+02
<STATE> 3
<MEAN> 39
 -8.816235e+00 -9.730489e+00 -6.910297e+00 -8.183445e+00 -9.457766e+00 -2.047035e-01 -1.090553e+01 -3.682913e+00 -8.161444e-01 -5.777956e+00 1.275227e-01 -8.678363e+00 7.290549e+01 1.015391e+00 -8.857094e-01 -2.243427e-01 -6.761082e-01 -2.224752e-01 8.923152e-01 -1.458572e+00 1.827340e-01 1.084170e+00 5.859293e-02 -9.477956e-02 -9.624417e-01 9.921491e-01 2.845634e-01 1.096162e-01 8.730560e-02 1.577023e-02 -1.002421e-01 1.124212e-01 -6.577463e-02 4.350460e-02 4.688466e-02 -2.372249e-01 5.933293e-02 6.262167e-02 1.155495e-02
<VARIANCE> 39
 7.139560e+01 3.757742e+01 2.196143e+01 2.525296e+01 5.244336e+01 3.812138e+01 6.195998e+01 3.471355e+01 4.073947e+01 2.245090e+01 3.216725e+01 4.148719e+01 6.955303e+01 5.517027e+00 1.397312e+00 2.276141e+00 3.526327e+00 4.472907e+00 6.063202e+00 5.085432e+00 1.752161e+00 3.223235e+00 2.444360e+00 5.279849e+00 3.423686e+00 2.280454e+00 1.165594e+00 2.506153e-01 4.082051e-01 8.409768e-01 5.446157e-01 1.052754e+00 1.119929e+00 2.887189e-01 7.429516e-01 3.946861e-01 1.018427e+00 8.949382e-01 3.510427e-01
<GCONST> 1.284655e+02
<STATE> 4
<MEAN> 39
 3.534724e+00 -9.113457e+00 9.540761e-01 -3.125908e-01 -1.386085e+01 -1.391567e+00 -1.697895e+01 -7.265034e+00 4.947906e-01 -1.338985e+01 -5.810729e-01 -2.199102e+00 7.326102e+01 1.519095e-01 1.288075e-01 3.954039e-02 -3.742254e-01 3.416602e-03 1.825923e-01 -1.097988e-02 -1.501605e-01 -2.617104e-01 -9.131660e-02 5.337507e-01 2.329108e-01 -9.324706e-02 5.560699e-02 1.463276e-02 -2.346273e-02 -1.847678e-01 -3.181935e-02 1.803315e-01 3.736990e-03 -8.791243e-02 -2.314720e-02 1.006076e-01 9.576105e-02 -5.845243e-02 -1.602289e-02
<VARIANCE> 39
 1.874319e+01 2.514947e+01 3.089105e+01 1.180305e+02 6.596490e+01 4.428974e+01 5.713056e+01 6.456401e+01 4.690624e+01 6.046258e+01 7.124478e+01 5.681958e+01 7.243383e+01 1.971124e+00 1.610407e+00 2.423461e+00 4.719687e+00 7.076230e+00 5.170302e+00 6.020736e+00 5.371941e+00 4.391049e+00 6.293776e+00 6.805797e+00 4.482882e+00 4.548210e+00 3.480735e-01 2.481066e-01 3.341450e-01 3.460222e-01 1.339809e+00 7.348210e-01 8.854180e-01 8.130397e-01 7.463617e-01 7.663625e-01 1.025237e+00 5.427516e-01 5.625635e-01
<GCONST> 1.350150e+02
<TRANSP> 5
 0.000000e+00 1.000000e+00 0.000000e+00 0.000000e+00 0.000000e+00
 0.000000e+00 9.658082e-01 3.419179e-02 0.000000e+00 0.000000e+00
 0.000000e+00 0.000000e+00 9.053367e-01 9.466326e-02 0.000000e+00
 0.000000e+00 0.000000e+00 0.000000e+00 9.499534e-01 5.004655e-02
 0.000000e+00 0.000000e+00 0.000000e+00 0.000000e+00 0.000000e+00
<ENDHMM>
~h "k"
<BEGINHMM>
<NUMSTATES> 5
<STATE> 2
<MEAN> 39
 -8.931118e+00 -7.482805e+00 -9.898236e+00 -5.227425e+00 -5.428616e+00 2.074839e+00 -1.045029e+01 -5.070086e+00 -4.680746e+00 -2.492861e+00 -6.190635e+00 -7.169993e+00 4.449973e+01 -8.272115e-01 -1.448979e-01 -9.293275e-01 2.903879e-02 -1.408122e-01 1.184359e+00 1.899056e-01 -7.711269e-01 1.712911e-01 -5.028154e-01 -4.316641e-02 -5.528562e-01 -1.081295e+00 6.498607e-02 -4.904620e-01 5.461358e-02 -1.343524e-01 5.141599e-01 -1.361283e+00 3.424123e-01 6.594979e-01 2.189951e-02 3.968657e-01 -9.285064e-02 3.001124e-01 1.125254e+00
<VARIANCE> 39
 4.505069e+01 2.741340e+01 1.211716e+01 1.068786e+01 2.524546e+01 7.280385e+01 1.166918e+01 1.776615e+01 1.968358e+01 1.926528e+01 2.095864e+01 3.918780e+01 7.133315e+01 1.681669e+00 4.878494e-01 2.193528e+00 1.118094e+00 1.211172e+00 3.829245e+00 1.433238e+00 2.199259e+00 1.712308e+00 3.374602e+00 1.226901e+00 1.104603e+00 2.312555e+00 2.258821e-01 2.666173e-01 2.436583e-01 4.135037e-01 5.965028e-01 1.790005e+00 3.812731e-01 5.660203e-01 5.020201e-01 5.724357e-01 3.554544e-01 4.709035e-01 4.589714e-01
<GCONST> 1.093190e+02
<STATE> 3
<MEAN> 39
 -1.128208e+01 -7.048714e+00 -9.308255e+00 -2.770263e+00 -5.594578e+00 -2.195393e+00 -1.115571e+01 -2.884666e+00 -2.534258e+00 -4.105256e+00 -4.862124e+00 -5.117713e+00 4.305466e+01 -1.408927e-01 -1.357129e-01 -1.403989e-01 1.259931e-01 3.471345e-01 -2.628908e-01 2.200955e-01 -3.126261e-02 4.920903e-02 2.813559e-02 -7.516290e-02 1.343978e-01 3.326316e-02 5.965987e-02 -3.247422e-01 -9.834614e-03 -1.061205e-01 3.693251e-01 -9.171940e-01 2.891742e-01 2.425231e-01 4.844715e-02 1.177712e-01 -9.167835e-02 2.904581e-01 7.383781e-01
<VARIANCE> 39
 2.381503e+01 4.589870e+01 2.349827e+01 3.546100e+01 3.186154e+01 4.963361e+01 2.953507e+01 3.758062e+01 2.867461e+01 3.500757e+01 2.210870e+01 2.471167e+01 3.170339e+01 1.711479e+00 2.506716e+00 2.896363e+00 2.900869e+00 5.065204e+00 3.372998e+00 3.037672e+00 2.909560e+00 3.260220e+00 2.450385e+00 2.058001e+00 2.043079e+00 1.667349e+00 2.738581e-01 6.645340e-01 4.137487e-01 4.677457e-01 1.349173e+00 2.418476e+00 7.899706e-01 7.249634e-01 6.758148e-01 5.786723e-01 4.416013e-01 6.124720e-01 1.409662e+00
<GCONST> 1.244523e+02
<STATE> 4
<MEAN> 39
 -8.983324e+00 -4.748962e+00 -9.913499e+00 -3.620262e+00 -5.340147e+00 -4.099424e-01 -1.054125e+01 -5.074824e+00 -4.147049e+00 -2.663044e+00 -6.136336e+00 -6.533080e+00 4.309380e+01 -3.621612e-01 -2.495973e+00 -3.940489e-01 -4.900084e-01 2.967002e+00 -5.238857e+00 2.458443e+00 7.164242e-01 7.060523e-01 4.171662e-01 -4.200743e-01 1.915178e+00 4.171921e+00 5.067138e-02 -4.778734e-01 2.296070e-01 -1.330338e-01 7.236118e-01 -1.389537e+00 7.909283e-01 2.280164e-01 2.564242e-01 -3.391601e-03 -3.638869e-02 4.213380e-01 1.591838e+00
<VARIANCE> 39
 3.828029e+01 6.139339e+01 2.947278e+01 3.181853e+01 3.055644e+01 4.849710e+01 2.252786e+01 2.805924e+01 1.825978e+01 2.069318e+01 2.476222e+01 3.077227e+01 4.043779e+01 5.391453e+00 8.351288e+00 3.402935e+00 3.649122e+00 7.774697e+00 1.554584e+01 4.942439e+00 3.774055e+00 2.633929e+00 2.534355e+00 3.461608e+00 3.649009e+00 1.118348e+01 6.386794e-01 9.182808e-01 7.075990e-01 4.698104e-01 1.072918e+00 1.705886e+00 4.646269e-01 6.004714e-01 5.461835e-01 5.641930e-01 6.571612e-01 4.610460e-01 1.471039e+00
<GCONST> 1.329071e+02
<TRANSP> 5
 0.000000e+00 1.000000e+00 0.000000e+00 0.000000e+00 0.000000e+00
 0.000000e+00 2.308705e-01 7.691295e-01 0.000000e+00 0.000000e+00
 0.000000e+00 0.000000e+00 6.572893e-01 3.427106e-01 0.000000e+00
 0.000000e+00 0.000000e+00 0.000000e+00 5.690747e-01 4.309253e-01
 0.000000e+00 0.000000e+00 0.000000e+00 0.000000e+00 0.000000e+00
<ENDHMM>
~h "l"
<BEGINHMM>
<NUMSTATES> 5
<STATE> 2
<MEAN> 39
 -1.128604e+00 -8.596584e+00 9.940999e+00 -3.112866e-01 -1.860577e+01 -4.141726e+00 -1.609759e+01 -3.414049e+00 -4.567730e-01 -1.437467e+01 9.251337e-01 -5.216156e+00 6.405310e+01 5.378541e-01 -5.353683e-01 5.781395e-01 5.035989e-03 -1.962955e+00 -1.434528e+00 -4.677249e-01 -3.070240e-01 3.694625e-01 -9.569069e-01 1.686398e+00 -5.362418e-01 3.249759e+00 -1.448325e-01 -6.467566e-02 -4.989198e-01 -7.129797e-02 1.848621e-01 -1.297652e-01 1.327869e-01 -4.946500e-02 6.407596e-02 1.087153e-01 5.110408e-02 -1.224921e-01 -1.746038e-02
<VARIANCE> 39
 3.421565e+01 4.975610e+01 9.917451e+01 1.120284e+01 9.026058e+01 4.993070e+01 5.311753e+01 2.804931e+01 4.908834e+01 5.974759e+01 9.636215e+01 2.102998e+01 1.690461e+02 4.511714e+00 5.575340e+00 2.172466e+01 1.104577e+00 4.713724e+00 5.270009e+00 9.720067e+00 2.432497e+00 3.738846e+00 9.858829e+00 8.680261e+00 2.478298e+00 5.007920e+00 6.628063e-01 1.264292e+00 3.018072e+00 2.449566e-01 1.131355e+00 1.085598e+00 1.846388e+00 5.183292e-01 6.865363e-01 2.265414e+00 1.799989e+00 4.894032e-01 1.062461e+00
<GCONST> 1.437015e+02
<STATE> 3
<MEAN> 39
 9.161181e-01 -5.660783e+00 -5.696097e+00 -1.648446e+01 -1.829948e+01 -5.810275e-01 -1.286534e+01 -1.092082e+01 1.502196e+00 -1.120614e+01 1.508670e+01 -1.102684e+01 7.901484e+01 1.748457e-01 4.972283e-01 -3.479761e-01 -8.495344e-01 1.076615e+00 1.087834e+00 1.560110e-01 -3.828849e-02 -2.005133e-01 2.557856e-01 -6.291047e-01 6.774512e-02 -6.042641e-01 -2.097056e-01 -5.953951e-02 2.521292e-01 2.642718e-01 8.014879e-02 -9.312549e-02 1.196876e-01 1.360717e-01 -1.758484e-01 1.285045e-01 -2.870970e-01 2.064764e-01 -1.529896e-01
<VARIANCE> 39
 1.031721e+01 1.400026e+01 1.133954e+01 1.245095e+02 2.733003e+01 1.173815e+02 2.788339e+01 3.672152e+01 3.858104e+01 4.941217e+01 4.277880e+01 5.013690e+01 1.897639e+01 1.221349e+00 5.275443e-01 2.002165e+00 9.594554e+00 3.427487e+00 8.528603e+00 3.218319e+00 5.241620e+00 4.410774e+00 6.821852e+00 6.064645e+00 7.203319e+00 1.066633e+00 3.116724e-01 9.417109e-02 2.037437e-01 1.083462e+00 5.866823e-01 1.528887e+00 7.544004e-01 7.748927e-01 7.239354e-01 1.348917e+00 9.773251e-01 1.551762e+00 4.985619e-02
<GCONST> 1.247462e+02
<STATE> 4
<MEAN> 39
 -2.733280e+00 -8.214228e+00 -1.145078e+00 -3.583172e+00 -9.099796e+00 -3.728818e+00 -1.259782e+01 -4.095537e+00 -5.001442e-01 -8.659681e+00 -3.196080e+00 -4.500555e+00 6.835989e+01 1.188191e-01 -3.725981e-01 4.729627e-02 -1.757560e-02 -3.372732e-02 -3.379435e-02 -3.945148e-01 1.098744e-01 -1.074083e-02 2.986938e-01 1.464411e-01 -9.705736e-02 2.569888e-01 1.201197e-01 -2.346141e-03 -2.968445e-02 -2.612690e-01 -1.365314e-01 2.446399e-01 5.787745e-03 -1.343761e-01 -2.760551e-02 -5.567140e-03 1.612506e-01 -1.112657e-01 6.931639e-02
<VARIANCE> 39
 1.183368e+02 2.306667e+01 3.523034e+01 7.560582e+01 4.667933e+01 3.080135e+01 6.318396e+01 4.259053e+01 3.317640e+01 4.610055e+01 5.827187e+01 6.116513e+01 5.800268e+01 6.490695e+00 2.131756e+00 2.396291e+00 5.436933e+00 3.971969e+00 5.215419e+00 4.801123e+00 3.938776e+00 3.209599e+00 3.741903e+00 6.875827e+00 6.048015e+00 5.514808e+00 7.585019e-01 3.640327e-01 3.456894e-01 6.272967e-01 7.255551e-01 9.044053e-01 9.734256e-01 6.912260e-01 4.386320e-01 5.134287e-01 1.046167e+00 8.470931e-01 7.713469e-01
<GCONST> 1.357988e+02
<TRANSP> 5
 0.000000e+00 1.000000e+00 0.000000e+00 0.000000e+00 0.000000e+00
 0.000000e+00 9.037392e-01 9.626079e-02 0.000000e+00 0.000000e+00
 0.000000e+00 0.000000e+00 9.355377e-01 6.446233e-02 0.000000e+00
 0.000000e+00 0.000000e+00 0.000000e+00 9.680902e-01 3.190980e-02
 0.000000e+00 0.000000e+00 0.000000e+00 0.000000e+00 0.000000e+00
<ENDHMM>
~h "m"
<BEGINHMM>
<NUMSTATES> 5
<STATE> 2
<MEAN> 39
 2.520243e-01 -1.176764e+01 -4.749588e+00 -1.070077e+01 -4.385353e+00 -1.747453e+00 -2.405128e+01 8.686346e+00 1.077208e+01 -2.050820e+01 6.541911e-01 -1.414706e+01 7.804198e+01 1.371256e-01 9.674619e-02 7.940246e-02 2.036231e-01 8.368586e-02 -3.115107e-01 3.097589e-01 -4.934450e-02 -1.653710e-01 1.456707e-01 -4.236990e-02 1.734562e-01 -3.843950e-01 6.584324e-02 1.471255e-03 5.033566e-02 -9.327447e-03 2.441107e-02 1.425077e-02 2.290437e-02 -4.062467e-02 -6.279867e-02 2.545889e-03 1.123338e-01 -4.449417e-02 -1.128303e-01
<VARIANCE> 39
 4.457880e+00 8.762966e+00 7.589249e+00 1.305889e+01 9.085712e+00 3.671817e+01 1.284459e+01 1.550876e+01 2.184282e+01 1.877695e+01 1.722602e+01 8.090334e+00 1.076502e+01 2.784048e-01 2.471164e-01 2.487680e-01 3.982253e-01 3.836129e-01 6.648156e-01 4.874851e-01 4.607998e-01 4.991005e-01 4.737308e-01 1.222202e+00 6.610119e-01 2.413650e-01 6.038024e-02 5.422921e-02 6.697982e-02 4.847219e-02 6.107498e-02 8.107629e-02 8.213208e-02 7.625707e-02 1.271291e-01 9.221536e-02 1.283207e-01 8.226258e-02 4.751954e-02
<GCONST> 5.957105e+01
<STATE> 3
<MEAN> 39
 3.612125e+00 -1.668348e+01 -8.146988e+00 -2.049016e+01 -4.943070e+00 1.686941e+01 -1.608550e+01 1.236624e+00 6.482354e-01 -1.322041e+01 1.794853e+00 -1.045110e+01 6.839623e+01 3.288146e-01 6.715232e-01 -4.672495e-01 -1.569413e-01 4.125914e-01 6.468470e-02 1.059649e+00 -1.670609e-01 -4.303782e-01 -3.520295e-01 5.032030e-02 9.812635e-01 -1.629432e+00 -1.787146e-01 2.797618e-01 -3.129870e-02 4.138295e-01 1.126885e-02 -3.744236e-01 2.060739e-01 8.838783e-02 -3.021191e-02 1.921172e-01 -4.648622e-01 1.469544e-02 -3.215871e-01
<VARIANCE> 39
 6.453990e+00 2.720033e+01 2.185258e+01 8.069763e+01 2.029491e+01 2.247416e+02 3.517363e+01 3.119919e+01 4.755165e+01 4.422011e+01 1.763313e+01 2.547381e+01 2.386681e+01 8.934979e-01 8.898481e-01 9.944937e-01 1.695121e+00 9.854981e-01 1.971526e+00 2.055761e+00 1.460449e+00 1.055884e+00 1.548703e+00 1.578773e+00 9.870704e-01 9.502088e-01 1.715129e-01 2.511692e-01 1.638806e-01 2.957065e-01 1.758547e-01 4.129080e-01 3.771015e-01 2.350774e-01 2.142985e-01 2.894768e-01 2.566139e-01 1.895019e-01 2.015772e-01
<GCONST> 1.009953e+02
<STATE> 4
<MEAN> 39
 3.615181e+00 -1.180392e+01 -8.045621e+00 -1.450086e+01 -3.236197e+00 8.162004e+00 -1.323097e+01 1.687401e+00 2.174184e+00 -1.525943e+01 5.377911e-01 -9.226269e+00 6.441988e+01 -2.785467e-02 1.300116e+00 -7.644326e-02 1.155100e+00 3.897119e-01 -7.528962e-01 1.398135e+00 -2.599562e-01 -9.472958e-01 7.037747e-01 -1.253209e+00 8.740228e-01 -2.419276e+00 -2.330680e-01 3.434855e-01 -3.546933e-02 4.688659e-01 -9.618860e-02 -8.983582e-02 3.290889e-02 3.560133e-02 -1.997928e-01 3.477972e-01 -4.300085e-01 1.303108e-01 -3.115278e-01
<VARIANCE> 39
 8.953589e+00 1.735638e+01 6.370363e+01 1.265173e+02 2.712208e+01 2.818016e+02 4.361436e+01 4.074442e+01 5.877793e+01 5.047245e+01 2.030435e+01 3.050078e+01 3.540346e+01 2.142831e+00 1.377385e+00 2.043642e+00 2.003118e+00 1.418302e+00 2.267843e+00 1.879095e+00 2.205473e+00 1.628475e+00 1.511131e+00 1.480320e+00 9.282755e-01 1.755356e+00 3.063864e-01 3.925439e-01 2.879773e-01 5.163868e-01 2.935209e-01 4.857124e-01 4.633837e-01 4.193261e-01 3.204682e-01 3.384780e-01 3.666162e-01 2.885085e-01 3.078337e-01
<GCONST> 1.137395e+02
<TRANSP> 5
 0.000000e+00 1.000000e+00 0.000000e+00 0.000000e+00 0.000000e+00
 0.000000e+00 9.106961e-01 8.930387e-02 0.000000e+00 0.000000e+00
 0.000000e+00 0.000000e+00 6.686764e-01 3.313236e-01 0.000000e+00
 0.000000e+00 0.000000e+00 0.000000e+00 4.145590e-01 5.854411e-01
 0.000000e+00 0.000000e+00 0.000000e+00 0.000000e+00 0.000000e+00
<ENDHMM>
~h "q"
<BEGINHMM>
<NUMSTATES> 5
<STATE> 2
<MEAN> 39
 -8.133280e+00 -3.711044e+00 2.618900e+00 -7.412166e+00 -1.168811e+01 -7.066516e+00 -3.658870e+00 -5.944199e+00 -4.616616e+00 -8.413822e+00 3.693638e-01 -6.910877e+00 6.148578e+01 -1.981522e+00 -5.140281e-02 -4.789513e-01 -6.900719e-01 1.893220e+00 -2.529557e-01 7.654022e-01 2.659185e-01 -1.554702e-01 7.238845e-01 -8.115504e-01 5.469862e-01 -5.832950e-01 -4.375903e-01 3.686570e-02 -2.199887e-01 -2.836152e-01 9.118106e-02 5.869613e-02 9.639896e-02 1.617461e-01 2.487197e-01 2.514772e-01 2.092556e-02 6.654914e-02 5.172155e-01
<VARIANCE> 39
 6.047661e+01 3.953215e+01 4.846003e+01 2.928069e+01 9.025052e+01 2.590020e+01 4.283699e+01 3.159883e+01 2.216924e+01 4.718873e+01 4.110423e+01 2.070006e+01 1.431267e+02 7.383478e+00 5.629569e+00 3.631167e+00 6.179672e+00 7.672243e+00 3.184036e+00 5.091899e+00 4.235003e+00 3.805317e+00 3.503882e+00 3.068583e+00 2.243009e+00 1.330425e+01 6.586342e-01 1.248564e+00 6.112339e-01 9.013754e-01 1.641229e+00 6.924044e-01 1.419886e+00 1.049310e+00 8.584478e-01 5.943120e-01 6.242989e-01 4.738834e-01 1.364267e+00
<GCONST> 1.387113e+02
<STATE> 3
<MEAN> 39
 -2.725743e+01 -2.287798e+00 -8.293439e-01 -1.796293e+01 -2.996601e-01 -2.899398e+00 -1.946355e+00 -3.726581e+00 -1.094967e+00 -2.464358e-01 -2.822672e-01 -2.766423e+00 7.131601e+01 2.045609e-01 3.547996e-01 8.229110e-01 -8.846420e-02 -2.278949e-01 5.382489e-01 -2.712321e-01 -3.488546e-01 -9.817722e-02 -1.908118e-01 2.858445e-01 -9.750985e-03 7.505283e-01 6.000822e-01 1.030422e-02 3.239234e-01 3.330888e-01 -3.723662e-01 -5.955186e-02 -1.588397e-01 -1.749499e-01 -2.285958e-01 -3.526757e-01 3.878074e-02 -1.251335e-01 -2.126193e-01
<VARIANCE> 39
 2.256007e+01 1.293474e+01 1.606392e+01 1.654669e+01 1.520445e+01 2.413084e+01 1.729212e+01 1.646200e+01 1.740696e+01 1.564638e+01 1.707245e+01 1.366849e+01 2.831264e+01 4.529119e+00 1.997920e+00 2.759716e+00 2.703961e+00 2.145731e+00 2.171339e+00 1.849416e+00 2.545105e+00 2.976323e+00 2.491187e+00 1.881240e+00 1.599810e+00 2.047531e+00 4.263511e-01 4.243698e-01 4.050101e-01 4.161670e-01 4.899127e-01 4.581359e-01 3.577367e-01 4.568501e-01 4.290415e-01 3.990115e-01 4.015707e-01 3.046913e-01 2.466654e-01
<GCONST> 1.079565e+02
<STATE> 4
<MEAN> 39
 -8.550430e+00 -1.924511e+00 1.520750e+01 -9.574349e+00 -1.659702e+01 -3.169189e+00 -9.806364e+00 -9.691015e+00 -7.694067e+00 -1.305167e+01 5.137323e+00 -7.642639e+00 7.304473e+01 7.106197e-01 -3.717797e-01 1.227723e-01 3.986923e-01 -8.222113e-01 -2.142691e-01 -9.331603e-02 3.798912e-01 -1.812788e-02 -2.750083e-01 9.900984e-02 -1.842518e-01 1.057184e-01 -2.149073e-01 -7.782723e-02 -3.368759e-01 -6.985379e-02 2.670782e-01 1.539306e-02 1.575637e-01 1.723095e-01 1.703251e-01 2.080634e-01 -1.753044e-01 6.532875e-02 -7.061503e-02
<VARIANCE> 39
 7.235278e+01 3.749694e+01 4.805995e+01 2.364825e+01 6.557606e+01 1.407398e+01 1.939065e+01 3.565014e+01 1.811696e+01 3.418187e+01 2.257618e+01 2.029690e+01 1.955605e+01 4.329890e+00 1.539856e+00 4.226897e+00 2.403505e+00 5.617329e+00 1.946315e+00 2.902665e+00 2.586502e+00 2.038008e+00 4.257649e+00 2.110304e+00 1.418092e+00 1.715763e+00 5.064788e-01 2.934487e-01 4.056365e-01 3.762783e-01 8.101369e-01 3.500561e-01 3.823554e-01 3.701090e-01 3.402596e-01 4.948183e-01 3.589546e-01 2.402966e-01 2.231513e-01
<GCONST> 1.152005e+02
<TRANSP> 5
 0.000000e+00 1.000000e+00 0.000000e+00 0.000000e+00 0.000000e+00
 0.000000e+00 8.768390e-01 1.231610e-01 0.000000e+00 0.000000e+00
 0.000000e+00 0.000000e+00 9.240905e-01 7.590947e-02 0.000000e+00
 0.000000e+00 0.000000e+00 0.000000e+00 9.476398e-01 5.236015e-02
 0.000000e+00 0.000000e+00 0.000000e+00 0.000000e+00 0.000000e+00
<ENDHMM>
~h "s"
<BEGINHMM>
<NUMSTATES> 5
<STATE> 2
<MEAN> 39
 -9.883323e+00 -6.754092e+00 -8.601360e+00 -8.013335e+00 -5.292778e+00 -3.714621e+00 -5.824679e+00 -3.687123e+00 3.554489e+00 -1.087477e+01 -2.925409e+00 -4.938141e+00 7.101998e+01 8.627248e-02 -9.249526e-01 7.363317e-02 -3.146656e-01 -1.706009e-01 6.436257e-01 -6.615648e-01 1.933783e-01 7.678203e-01 -6.323773e-01 1.954024e-01 -4.595224e-01 1.188084e+00 1.747796e-02 -4.169566e-02 5.255485e-02 8.410324e-02 1.472324e-03 7.771087e-02 -9.340790e-02 7.324908e-02 4.659436e-02 -7.869177e-02 4.597074e-02 -6.692317e-02 -1.136554e-01
<VARIANCE> 39
 1.534036e+02 8.323104e+01 2.267382e+01 3.759630e+01 2.227278e+01 6.284901e+01 8.555384e+01 2.349661e+01 8.276359e+01 5.012916e+01 4.149018e+01 3.357928e+01 1.037469e+02 1.488488e+01 3.969534e+00 1.859717e+00 3.125528e+00 2.288515e+00 4.097363e+00 4.828063e+00 2.287266e+00 4.388419e+00 3.214159e+00 3.960297e+00 3.649068e+00 3.639922e+00 1.978913e+00 7.925937e-01 3.915587e-01 5.591404e-01 4.378978e-01 8.621933e-01 6.891043e-01 3.795509e-01 8.777739e-01 4.578756e-01 5.520688e-01 6.964412e-01 5.243593e-01
<GCONST> 1.341334e+02
<STATE> 3
<MEAN> 39
 -9.027632e-01 -1.509380e+01 2.109191e+00 -9.789708e+00 -1.187973e+01 -1.426157e+00 -1.651378e+01 4.655503e+00 2.647966e+00 -1.595705e+01 4.405409e+00 -1.461412e+01 7.635676e+01 4.503562e-02 6.654566e-02 5.785864e-02 -1.991482e-01 -5.791026e-02 1.156626e-01 1.904879e-01 1.742459e-01 -5.066814e-01 6.560770e-01 -1.570505e-01 -2.422754e-01 -2.212581e-01 6.529510e-03 5.931013e-02 -1.049967e-01 -8.972529e-02 1.693921e-01 1.632012e-01 4.467423e-02 -1.152699e-01 -7.218175e-02 1.957867e-01 -1.120665e-01 7.059896e-02 -8.562347e-02
<VARIANCE> 39
 6.249544e+01 5.078314e+01 4.571842e+01 2.746088e+01 7.068407e+01 4.880323e+01 1.070489e+02 3.464434e+01 7.374967e+01 7.824170e+01 2.671801e+01 4.155097e+01 3.190183e+01 4.252415e+00 2.587749e+00 3.722485e+00 2.322233e+00 6.668616e+00 4.396697e+00 4.448605e+00 2.567039e+00 5.129026e+00 5.626190e+00 3.498375e+00 2.626861e+00 2.908936e+00 5.305846e-01 3.525361e-01 3.756535e-01 4.085238e-01 9.259921e-01 4.681678e-01 6.368399e-01 4.692189e-01 8.453372e-01 8.890453e-01 5.220834e-01 4.152379e-01 3.896059e-01
<GCONST> 1.310405e+02
<STATE> 4
<MEAN> 39
 1.679079e+00 -1.227189e+01 -6.841426e+00 -1.810931e+01 -6.969163e+00 1.331828e+01 -1.007703e+01 -6.695922e-01 -1.622362e+00 -3.431243e+00 -7.423058e-01 -1.413372e+01 7.027480e+01 2.889210e-01 4.288548e-01 -5.107743e-01 -1.422897e-01 4.844688e-01 1.936747e+00 5.036995e-01 -1.031976e+00 -8.650473e-01 4.085936e-01 5.104133e-01 1.193288e+00 -1.657699e+00 -1.654787e-02 -1.448581e-01 1.055803e-01 4.424236e-01 -6.325030e-01 -5.807421e-01 1.184294e-01 1.799493e-01 1.556270e-01 -4.628195e-01 2.078861e-01 1.869370e-01 2.638268e-01
<VARIANCE> 39
 1.243431e+02 7.607907e+01 2.453200e+01 2.250163e+01 3.261032e+01 1.062506e+02 8.405178e+01 2.924774e+01 1.075651e+01 2.634985e+01 2.871152e+01 2.984130e+01 3.046243e+01 2.641429e+00 2.222879e+00 1.597995e+00 3.614038e+00 3.806716e+00 3.697031e+00 2.049203e+00 1.931733e+00 2.474372e+00 3.653331e+00 3.025793e+00 1.604155e+00 1.669281e+00 4.454412e-01 4.704725e-01 4.186884e-01 3.694361e-01 4.790575e-01 5.800515e-01 6.672495e-01 2.531514e-01 3.712969e-01 8.885758e-01 8.462315e-01 6.197170e-01 2.348794e-01
<GCONST> 1.210665e+02
<TRANSP> 5
 0.000000e+00 1.000000e+00 0.000000e+00 0.000000e+00 0.000000e+00
 0.000000e+00 9.559023e-01 4.409764e-02 0.000000e+00 0.000000e+00
 0.000000e+00 0.000000e+00 9.550903e-01 4.490969e-02 0.000000e+00
 0.000000e+00 0.000000e+00 0.000000e+00 7.550845e-01 2.449155e-01
 0.000000e+00 0.000000e+00 0.000000e+00 0.000000e+00 0.000000e+00
<ENDHMM>
~h "u"
<BEGINHMM>
<NUMSTATES> 5
<STATE> 2
<MEAN> 39
 -1.345499e+01 -1.869129e+00 -1.027817e+01 -1.784210e+00 -6.759084e+00 -1.996323e+00 -7.007893e+00 -3.654997e+00 -4.865882e+00 -4.175094e+00 -3.656154e+00 -3.447749e+00 3.800963e+01 1.601050e+00 7.473798e-01 -8.925620e-01 -1.983994e+00 1.157568e+00 -4.615872e-01 8.303893e-01 9.331724e-01 -6.900571e-01 1.231884e+00 -3.976322e-01 2.706169e-01 1.902260e+00 9.883816e-01 3.387808e-01 -5.361788e-01 -1.419307e+00 5.278947e-01 -1.384843e-01 4.339082e-01 2.608421e-01 -7.274641e-01 4.927690e-01 -1.891839e-01 1.070895e-01 1.422487e+00
<VARIANCE> 39
 7.440009e+00 1.456761e+01 1.582339e+01 1.228700e+01 2.698817e+01 3.033454e+01 3.236268e+01 1.983246e+01 1.659999e+01 1.922635e+01 1.452719e+01 1.374082e+01 3.634416e+00 4.436511e+00 4.127917e+00 4.779993e+00 7.487796e+00 6.534772e+00 3.498060e+00 5.948670e+00 4.287911e+00 3.913035e+00 4.218331e+00 1.877435e+00 1.723232e+00 4.512587e+00 7.469985e-01 4.414285e-01 5.248647e-01 1.020418e+00 1.176877e+00 7.659966e-01 1.141376e+00 7.343518e-01 6.561757e-01 5.599993e-01 4.738188e-01 3.393080e-01 1.191108e+00
<GCONST> 1.208277e+02
<STATE> 3
<MEAN> 39
 -7.956090e+00 6.119106e-01 -8.149024e+00 -2.168158e+00 -7.062602e+00 -2.413736e+00 -7.354775e+00 -2.547760e+00 -3.738515e+00 -2.173256e+00 -3.639866e+00 -3.189140e+00 4.167212e+01 1.237384e+00 3.796324e-01 -1.746996e+00 -3.165709e+00 1.818258e+00 -3.862671e-01 1.228045e+00 9.274818e-01 -1.421707e+00 1.431820e+00 -5.412001e-01 3.306755e-01 2.526163e+00 3.047756e-01 -1.781328e-01 -1.481359e-01 -6.569096e-01 -1.230252e-01 1.345642e-01 -4.779015e-02 -2.543525e-01 -2.725313e-01 -1.025135e-01 2.719051e-01 -1.754093e-01 9.283232e-01
<VARIANCE> 39
 5.936323e+01 4.307877e+01 2.602156e+01 1.927050e+01 2.569811e+01 1.572012e+01 1.904097e+01 1.692519e+01 1.832264e+01 1.428459e+01 1.380775e+01 1.440145e+01 2.171655e+01 1.181845e+01 6.395759e+00 6.840391e+00 1.480157e+01 8.022428e+00 3.128580e+00 4.315354e+00 3.706419e+00 6.096177e+00 5.424797e+00 2.810127e+00 2.192840e+00 1.427352e+01 2.159566e+00 1.095975e+00 6.674346e-01 6.860775e-01 1.144391e+00 4.626091e-01 5.095783e-01 6.415714e-01 5.002614e-01 5.825894e-01 6.342922e-01 3.813291e-01 2.023603e+00
<GCONST> 1.307486e+02
<STATE> 4
<MEAN> 39
 2.096615e+00 -3.381885e+00 -1.496110e+01 -2.485475e+01 -7.281257e+00 -3.814903e-01 -4.657253e+00 -4.044836e+00 -9.789987e+00 1.096945e+00 3.652877e+00 -5.901865e+00 7.253761e+01 9.224238e-01 -1.868461e+00 1.015330e+00 -1.179266e+00 -1.910926e+00 1.525484e+00 -3.914253e-01 -1.401868e+00 1.814548e+00 -4.908464e-01 2.159774e+00 -1.488389e+00 5.619810e+00 -9.031451e-01 -4.231618e-01 2.421779e-01 9.872668e-01 -9.373434e-03 2.497357e-01 -1.886915e-01 -1.033696e-01 8.636451e-01 -2.007513e-01 -5.421777e-01 -2.488788e-01 -8.998619e-01
<VARIANCE> 39
 1.879580e+01 4.819711e+01 6.128905e+01 3.218113e+01 1.204759e+02 6.210609e+01 5.486701e+01 6.642397e+01 6.986745e+01 5.977796e+01 1.249273e+02 4.510903e+01 1.200247e+02 9.736915e+00 4.638656e+00 5.430130e+00 1.069570e+01 1.348612e+01 5.103675e+00 7.086950e+00 6.573917e+00 1.060530e+01 8.104185e+00 1.677475e+01 3.984989e+00 7.031913e+00 8.186277e-01 1.203737e+00 1.962053e+00 1.754327e+00 5.138979e+00 1.268705e+00 1.858552e+00 1.966441e+00 2.013864e+00 2.268025e+00 5.100536e+00 9.625539e-01 6.789964e-01
<GCONST> 1.586231e+02
<TRANSP> 5
 0.000000e+00 1.000000e+00 0.000000e+00 0.000000e+00 0.000000e+00
 0.000000e+00 4.533102e-01 5.466898e-01 0.000000e+00 0.000000e+00
 0.000000e+00 0.000000e+00 6.747449e-01 3.252551e-01 0.000000e+00
 0.000000e+00 0.000000e+00 0.000000e+00 8.407346e-01 1.592654e-01
 0.000000e+00 0.000000e+00 0.000000e+00 0.000000e+00 0.000000e+00
<ENDHMM>
~h "x"
<BEGINHMM>
<NUMSTATES> 5
<STATE> 2
<MEAN> 39
 -8.253914e+00 -1.540160e+01 -7.027356e+00 1.595798e+00 1.468510e+00 -7.086291e+00 -1.592935e+00 -2.785428e+00 4.417996e+00 -2.186049e+00 -1.595103e+00 -6.352531e+00 7.104026e+01 -4.812672e+00 -1.309848e+00 9.152533e-01 1.326607e+00 2.974328e+00 -3.211604e+00 1.511015e-01 1.228823e+00 1.582564e+00 -3.690988e-01 -7.021322e-01 4.782544e-01 6.195883e-01 2.808739e-02 -6.664743e-02 -1.499834e-01 -4.346286e-01 -6.510395e-01 5.549204e-01 -2.233559e-01 -1.695853e-01 -1.066210e-01 -1.311892e-01 1.027197e-01 -1.709621e-01 -6.074686e-02
<VARIANCE> 39
 1.283687e+02 1.414266e+01 1.698212e+01 2.064076e+01 6.255447e+01 5.520480e+01 1.744544e+01 1.809881e+01 3.104810e+01 1.926639e+01 1.511625e+01 1.547550e+01 1.110228e+01 4.566789e+00 8.259129e-01 2.215912e+00 3.085251e+00 8.101336e+00 4.818247e+00 2.418959e+00 1.972881e+00 2.454985e+00 2.286386e+00 1.780352e+00 2.141743e+00 7.086055e-01 1.885844e+00 2.117083e-01 4.780014e-01 5.158554e-01 1.343606e+00 7.460622e-01 4.094338e-01 3.871360e-01 6.911277e-01 4.703114e-01 3.327791e-01 4.462711e-01 1.901046e-01
<GCONST> 1.155461e+02
<STATE> 3
<MEAN> 39
 -2.031051e+01 -1.714231e+01 -2.322574e+00 7.080917e+00 4.744457e+00 -1.830337e+01 -5.395648e+00 -3.090118e-01 7.091634e+00 -5.681753e+00 -3.045233e+00 -3.183254e+00 7.099700e+01 1.502584e+00 7.285763e-01 1.528519e-01 -7.921404e-02 -3.482726e-01 -8.508014e-01 -1.140724e+00 -3.890560e-01 -1.913497e-01 -6.229204e-01 -1.057699e-01 3.575599e-01 7.242711e-02 3.683816e-01 7.543200e-02 -7.022132e-02 -9.711441e-02 -1.667024e-02 3.572090e-02 -1.210715e-01 -7.064260e-02 -2.372418e-02 -7.616914e-02 -5.510045e-03 -1.451567e-03 4.981746e-02
<VARIANCE> 39
 7.811053e+01 2.919619e+01 1.540158e+01 1.497929e+01 1.940335e+01 2.455439e+01 4.056778e+01 2.337742e+01 1.365511e+01 1.821832e+01 1.354245e+01 9.692616e+00 1.132372e+01 8.518287e+00 2.358268e+00 1.717933e+00 1.969374e+00 1.760412e+00 1.711649e+00 3.254293e+00 2.055902e+00 1.576136e+00 2.130938e+00 1.454615e+00 1.062730e+00 1.061554e+00 1.071829e+00 5.117007e-01 2.780633e-01 3.009972e-01 3.595168e-01 3.373624e-01 4.609277e-01 3.427091e-01 3.210689e-01 3.701615e-01 2.809642e-01 2.082627e-01 1.978229e-01
<GCONST> 1.059968e+02
<STATE> 4
<MEAN> 39
 6.352512e+00 -1.263349e+01 -7.502742e+00 2.883236e+00 -2.511930e+00 -2.139145e+01 -2.825068e+01 1.939133e+00 8.404109e+00 -1.610285e+01 1.808042e+00 -2.681337e+00 7.238740e+01 4.269791e-01 -6.017807e-02 -5.054807e-01 -8.049153e-03 -1.625662e-01 5.477894e-01 -4.063292e-01 9.809376e-01 1.823950e-01 -7.922518e-02 4.548385e-01 -3.390256e-01 -5.400551e-01 -2.029546e-01 1.066425e-01 8.222239e-02 6.860138e-02 7.284917e-02 6.387794e-02 3.330516e-01 -2.015207e-02 -4.122418e-02 1.937373e-01 -1.549831e-01 3.460093e-02 -2.134423e-01
<VARIANCE> 39
 1.511329e+01 1.066838e+01 2.400554e+01 8.757630e+00 2.563327e+01 4.687743e+01 8.782807e+01 8.365907e+01 2.074172e+01 2.808831e+01 6.242127e+01 2.596859e+01 9.919737e+00 5.275704e-01 9.924012e-01 7.249406e-01 6.762434e-01 1.904842e+00 2.023103e+00 6.535983e+00 2.121139e+00 1.298013e+00 3.149339e+00 3.840171e+00 1.768227e+00 1.258077e+00 2.050192e-01 1.472773e-01 1.623350e-01 1.598733e-01 3.024434e-01 3.225121e-01 8.112962e-01 3.658741e-01 2.441588e-01 5.258328e-01 6.406950e-01 3.495240e-01 1.125185e-01
<GCONST> 1.038988e+02
<TRANSP> 5
 0.000000e+00 1.000000e+00 0.000000e+00 0.000000e+00 0.000000e+00
 0.000000e+00 8.270820e-01 1.729181e-01 0.000000e+00 0.000000e+00
 0.000000e+00 0.000000e+00 9.298185e-01 7.018155e-02 0.000000e+00
 0.000000e+00 0.000000e+00 0.000000e+00 9.514757e-01 4.852425e-02
 0.000000e+00 0.000000e+00 0.000000e+00 0.000000e+00 0.000000e+00
<ENDHMM>
~h "ai"
<BEGINHMM>
<NUMSTATES> 5
<STATE> 2
<MEAN> 39
 -1.122444e+01 -1.803979e+01 -1.101234e+01 -7.013125e+00 8.456162e+00 -2.366341e+01 2.725797e+00 -2.197964e+00 -2.892920e-01 -7.466737e-01 -7.468198e+00 1.022309e+00 6.592873e+01 4.242820e-01 -7.362807e-01 1.273016e+00 1.137483e-02 1.229555e+00 -1.461054e+00 2.389818e+00 6.184331e-01 7.894304e-01 -8.369066e-01 5.332568e-01 1.223566e-01 4.585693e+00 4.804034e-01 7.226841e-01 3.287486e-01 2.459746e-01 -1.424176e+00 3.043272e+00 -7.424358e-01 -2.447855e-01 -4.580866e-01 -5.800614e-01 4.924414e-01 -1.075288e+00 -1.050297e+00
<VARIANCE> 39
 7.664109e+00 2.169122e+01 2.536670e+01 3.180088e+01 2.263339e+01 4.628448e+01 2.419092e+01 2.685955e+01 2.052077e+01 2.856693e+01 2.399369e+01 1.667183e+01 2.949144e+01 2.718898e+00 4.782060e+00 2.696103e+00 2.612528e+00 9.027615e+00 3.724285e+01 3.713744e+00 2.364766e+00 3.070194e+00 3.640299e+00 3.366127e+00 6.029005e+00 8.680050e+00 6.403050e-01 6.132520e-01 6.501918e-01 5.454668e-01 5.431248e-01 2.031362e+00 6.482593e-01 5.742767e-01 5.725279e-01 6.151674e-01 5.614482e-01 6.901003e-01 9.904189e-01
<GCONST> 1.278941e+02
<STATE> 3
<MEAN> 39
 -7.123199e+00 -1.585155e+01 -1.073006e+01 -9.282263e+00 -4.437127e+00 -5.327364e+00 4.455217e+00 2.046123e-02 -1.257048e+00 -1.143374e+01 -7.786103e+00 -2.978163e+00 8.288682e+01 8.299763e-02 1.805628e-01 -9.484841e-02 -4.944553e-01 -1.676289e+00 7.608140e-01 3.418109e-02 4.887941e-01 1.219682e-01 -8.012017e-01 -1.456305e-01 -1.295627e-01 1.399377e+00 -8.132049e-02 1.299512e-02 5.179943e-02 -5.438472e-02 -8.247907e-02 -3.242180e-01 -1.327240e-01 2.111095e-02 8.125329e-02 1.298248e-01 7.514147e-02 1.208974e-02 -1.942251e-01
<VARIANCE> 39
 1.386194e+01 1.183753e+01 1.530626e+01 1.744359e+01 4.916169e+01 2.382257e+01 2.688737e+01 2.462283e+01 1.502004e+01 2.121844e+01 2.809962e+01 2.199757e+01 5.279750e+01 1.987361e+00 1.085764e+00 2.071084e+00 1.398136e+00 1.978773e+00 5.421866e+00 2.679075e+00 2.536698e+00 1.457804e+00 1.906239e+00 3.115488e+00 3.190330e+00 2.607074e+00 4.029677e-01 2.223835e-01 4.026692e-01 3.006823e-01 4.089811e-01 7.681363e-01 5.886315e-01 4.722238e-01 2.718770e-01 3.217671e-01 6.098658e-01 6.589623e-01 3.481463e-01
<GCONST> 1.111169e+02
<STATE> 4
<MEAN> 39
 -8.174032e+00 -1.066175e+01 -1.604011e+00 -9.179562e+00 -1.681481e+01 -7.573406e+00 -2.251677e+00 1.139847e+00 1.560969e+00 -1.161242e+01 7.870150e-01 -8.260340e+00 7.882228e+01 -3.335667e-01 5.197106e-01 7.311407e-01 4.435438e-01 7.397982e-02 -1.823419e-01 -7.882808e-01 -7.287498e-01 -1.300481e-01 3.096647e-01 7.131850e-01 -2.123275e-01 -1.302708e+00 -3.453838e-02 1.372034e-02 -1.003022e-01 4.503219e-02 3.031282e-01 1.272792e-02 4.614114e-02 -1.159358e-01 -1.038457e-01 -1.513120e-04 -1.615919e-01 1.546443e-01 -8.545033e-02
<VARIANCE> 39
 3.587219e+01 3.135084e+01 2.798042e+01 2.733910e+01 7.551659e+01 2.175770e+01 3.679596e+01 3.123287e+01 1.530529e+01 2.424245e+01 5.071796e+01 2.392717e+01 9.641843e+01 2.307703e+00 2.042130e+00 2.165269e+00 1.723612e+00 4.693625e+00 1.822667e+00 4.309702e+00 2.163175e+00 1.432834e+00 1.876477e+00 5.161611e+00 2.968911e+00 2.008415e+00 3.335376e-01 3.439455e-01 1.789803e-01 2.936725e-01 6.546914e-01 3.451090e-01 7.250546e-01 3.370930e-01 2.734237e-01 3.737359e-01 7.133845e-01 4.564248e-01 2.884825e-01
<GCONST> 1.163881e+02
<TRANSP> 5
 0.000000e+00 1.000000e+00 0.000000e+00 0.000000e+00 0.000000e+00
 0.000000e+00 7.191063e-01 2.808937e-01 0.000000e+00 0.000000e+00
 0.000000e+00 0.000000e+00 9.217060e-01 7.829409e-02 0.000000e+00
 0.000000e+00 0.000000e+00 0.000000e+00 9.239159e-01 7.608411e-02
 0.000000e+00 0.000000e+00 0.000000e+00 0.000000e+00 0.000000e+00
<ENDHMM>
~h "an"
<BEGINHMM>
<NUMSTATES> 5
<STATE> 2
<MEAN> 39
 -3.802110e+00 -1.352929e+01 -1.166117e+01 -1.778731e+01 -4.404993e+00 6.399979e+00 -1.198905e+01 -6.700008e+00 9.549696e+00 -7.493780e+00 -6.060531e+00 -1.380714e+01 8.392658e+01 -1.961820e-01 -8.594868e-02 9.187455e-02 9.336110e-01 4.719509e-01 -4.955153e-01 -1.066348e+00 4.679682e-01 1.359275e+00 -1.768960e+00 -9.857363e-01 -2.449078e-01 -1.621157e-02 1.924909e-01 1.761442e-01 1.227653e-01 9.468514e-02 -2.964239e-01 -2.952537e-01 -6.807882e-02 8.105949e-02 -1.553669e-01 -3.359212e-01 4.801691e-01 1.213964e-01 -1.950552e-01
<VARIANCE> 39
 1.746882e+01 1.097099e+01 4.516977e+00 3.122995e+01 1.816369e+01 3.799632e+01 4.404390e+01 1.930665e+01 4.028730e+01 7.605640e+01 7.597030e+01 2.315236e+01 7.208814e+01 7.278650e-01 8.069581e-01 5.696491e-01 1.182090e+00 3.389143e+00 3.674312e+00 1.530065e+00 2.092415e+00 1.990899e+00 3.429554e+00 7.257259e+00 1.964449e+00 3.819861e-01 1.013004e-01 1.132575e-01 8.683943e-02 1.514784e-01 3.470894e-01 3.835426e-01 3.640296e-01 3.352293e-01 3.088818e-01 4.429493e-01 6.995801e-01 3.639533e-01 1.046863e-01
<GCONST> 1.027837e+02
<STATE> 3
<MEAN> 39
 -1.281383e+00 -1.140220e+01 -7.982949e+00 -9.293348e+00 -8.455126e+00 -2.385178e+00 -1.637129e+01 -1.956410e+00 1.392816e+01 -2.237507e+01 2.502203e-02 -1.412262e+01 7.721292e+01 1.086595e+00 5.736956e-01 1.537549e+00 1.354975e+00 -7.624809e-01 -1.319468e+00 3.756360e-01 -9.078036e-01 -1.527068e+00 -3.659248e-02 1.016092e+00 3.915054e-01 -1.781730e+00 1.035419e-01 2.699439e-02 4.623965e-01 1.520241e-01 1.743975e-01 8.311702e-02 2.150683e-01 -4.405946e-01 -9.516058e-01 1.022193e+00 -5.175972e-01 1.078857e-01 -2.767625e-01
<VARIANCE> 39
 2.331970e+01 1.992116e+01 9.644587e+00 2.664538e+01 1.562500e+01 7.343670e+01 4.325985e+01 1.597839e+01 7.966711e+01 8.302567e+01 4.337424e+01 6.504171e+01 1.131483e+02 1.110417e+00 1.364021e+00 2.392665e+00 2.883206e+00 1.759379e+00 3.057273e+00 2.341909e+00 2.440706e+00 6.467940e+00 8.256972e+00 5.712448e+00 4.192729e+00 1.765306e+00 2.491342e-01 2.087127e-01 3.117199e-01 3.836507e-01 3.009630e-01 5.454752e-01 3.103811e-01 4.021737e-01 1.001537e+00 1.054867e+00 6.886657e-01 5.439615e-01 3.026063e-01
<GCONST> 1.208260e+02
<STATE> 4
<MEAN> 39
 1.326455e+00 -5.905088e+00 1.936147e+00 -4.231731e+00 -1.449423e+01 -6.466152e+00 -1.109861e+01 -8.774989e+00 -9.821249e-01 -1.295253e+01 -1.236021e+00 -6.725616e+00 6.861334e+01 -2.576807e-01 1.080306e-01 5.446758e-02 -3.295250e-01 -3.129635e-02 -6.426129e-03 3.160748e-01 2.235919e-01 -3.214039e-01 8.784158e-01 -1.403363e-01 -1.565562e-02 1.657257e-01 -1.902966e-01 -5.400470e-02 -2.622315e-01 -1.730297e-01 2.198342e-01 7.396233e-02 5.416200e-02 1.198105e-01 2.572976e-01 -2.346105e-02 -1.470477e-01 -9.479702e-02 2.470235e-01
<VARIANCE> 39
 5.359656e+01 3.434209e+01 2.869795e+01 5.043259e+01 8.060484e+01 5.317266e+01 3.059965e+01 6.264625e+01 3.754902e+01 3.058885e+01 5.443166e+01 2.543778e+01 1.328386e+02 4.515266e+00 3.066033e+00 4.940820e+00 4.188440e+00 1.091448e+01 4.122721e+00 2.414843e+00 5.339573e+00 6.192597e+00 2.935699e+00 7.078102e+00 2.175914e+00 8.915102e+00 6.660592e-01 4.307076e-01 4.629580e-01 6.934097e-01 2.141035e+00 6.579154e-01 5.188366e-01 9.568138e-01 5.183035e-01 4.593755e-01 1.121762e+00 3.717990e-01 1.172514e+00
<GCONST> 1.365132e+02
<TRANSP> 5
 0.000000e+00 1.000000e+00 0.000000e+00 0.000000e+00 0.000000e+00
 0.000000e+00 8.514423e-01 1.485578e-01 0.000000e+00 0.000000e+00
 0.000000e+00 0.000000e+00 6.904587e-01 3.095414e-01 0.000000e+00
 0.000000e+00 0.000000e+00 0.000000e+00 8.538334e-01 1.461665e-01
 0.000000e+00 0.000000e+00 0.000000e+00 0.000000e+00 0.000000e+00
<ENDHMM>
~h "ao"
<BEGINHMM>
<NUMSTATES> 5
<STATE> 2
<MEAN> 39
 -6.280618e+00 -8.973840e+00 -1.942463e+01 -1.126188e+01 -3.423380e+00 5.804626e+00 -4.398995e+00 -1.896912e+00 -3.828865e+00 -7.973128e+00 -5.550859e+00 -4.098850e+00 4.751505e+01 -1.124763e+00 3.339612e-01 4.048182e-01 3.247842e-01 -9.373482e-01 -1.288513e+00 8.168668e-04 -1.522047e-01 -3.928877e-01 9.694572e-02 -3.224866e-01 -1.968912e-01 -1.087418e+00 4.637855e-02 1.409800e-01 5.407530e-01 3.020454e-01 5.879574e-02 -1.328423e-01 -1.881449e-01 1.004844e-01 1.353805e-01 5.832147e-02 8.773325e-02 -3.102261e-02 1.205893e-01
<VARIANCE> 39
 1.460070e+01 1.115281e+01 3.179314e+01 6.573754e+01 1.419235e+01 1.833705e+02 1.031390e+02 2.108554e+01 3.362828e+01 2.042576e+01 1.498285e+01 1.290954e+01 1.708088e+01 1.001270e+00 1.546961e+00 3.325365e+00 2.456153e+00 1.607098e+00 2.841331e+00 3.363050e+00 2.168451e+00 1.730265e+00 1.643903e+00 1.847368e+00 1.333639e+00 3.088400e-01 1.270008e-01 1.523462e-01 2.250701e-01 2.302537e-01 3.422617e-01 5.866180e-01 7.144719e-01 3.189169e-01 3.845669e-01 4.556472e-01 4.106276e-01 2.544583e-01 7.281212e-02
<GCONST> 1.048042e+02
<STATE> 3
<MEAN> 39
 -1.124979e+01 -7.675969e+00 -1.327868e+01 -3.545180e+00 -5.507357e+00 -6.191930e+00 -1.108269e+01 -1.781590e+00 -1.881625e+00 -5.605359e+00 -7.320410e+00 -4.657763e+00 4.370446e+01 -8.563402e-01 3.647032e-01 7.691348e-01 4.113266e-01 -1.204281e-01 2.167061e-02 2.038760e-01 -3.195984e-01 -3.111956e-01 4.690268e-01 2.027661e-01 -4.298985e-02 -7.507256e-01 2.423832e-01 1.335012e-01 4.395502e-02 -4.538059e-03 1.410449e-01 2.640909e-01 2.411240e-01 5.115234e-02 -6.831870e-02 -5.224915e-03 2.214375e-01 1.472327e-01 1.834043e-01
<VARIANCE> 39
 1.090111e+01 9.294105e+00 1.215716e+01 3.388934e+01 1.358133e+01 6.869376e+01 6.295319e+01 1.686515e+01 2.959208e+01 1.710937e+01 1.939652e+01 1.364686e+01 2.174139e+01 4.778700e-01 9.527377e-01 1.867665e+00 2.081938e+00 1.533904e+00 4.289868e+00 3.303985e+00 1.695525e+00 2.587721e+00 2.174711e+00 1.869901e+00 1.082373e+00 1.502451e-01 6.422210e-02 1.184008e-01 2.142803e-01 2.641698e-01 3.350514e-01 3.853861e-01 3.649942e-01 3.155812e-01 3.963622e-01 4.184822e-01 3.409261e-01 2.230754e-01 3.840781e-02
<GCONST> 9.613169e+01
<STATE> 4
<MEAN> 39
 -7.626190e+00 3.266174e+00 -4.713625e+00 3.640527e-01 -5.878788e+00 -1.810855e+00 -7.862387e+00 -3.359184e+00 -4.636115e+00 -3.249394e+00 -3.365601e+00 -3.121613e+00 4.176179e+01 -2.791501e-02 1.714013e-01 1.537578e-01 1.616058e-01 1.410235e-02 3.413213e-02 6.471067e-02 -2.728058e-02 -4.669442e-02 8.662580e-02 1.103068e-01 4.487392e-02 -8.518033e-02 -3.187931e-03 -5.778557e-02 -5.951448e-02 -4.798480e-02 -4.865986e-03 6.660933e-03 2.837941e-03 9.891145e-03 -1.339350e-02 -3.447178e-02 -1.703463e-02 -4.477807e-03 2.879631e-02
<VARIANCE> 39
 3.040233e+01 3.973209e+01 2.576229e+01 2.543939e+01 1.959246e+01 2.150936e+01 1.903769e+01 1.676809e+01 1.632601e+01 1.322396e+01 1.289330e+01 1.204162e+01 1.238460e+01 1.468791e+00 1.906071e+00 1.919479e+00 1.739391e+00 1.831644e+00 2.064643e+00 1.778196e+00 1.786551e+00 1.728346e+00 1.411593e+00 1.398568e+00 1.270051e+00 3.819669e-01 2.327776e-01 3.180986e-01 3.793944e-01 3.530322e-01 3.861204e-01 4.160423e-01 3.464423e-01 3.686736e-01 3.405910e-01 2.777487e-01 2.822903e-01 2.655070e-01 8.704707e-02
<GCONST> 9.933982e+01
<TRANSP> 5
 0.000000e+00 1.000000e+00 0.000000e+00 0.000000e+00 0.000000e+00
 0.000000e+00 6.878957e-01 3.121043e-01 0.000000e+00 0.000000e+00
 0.000000e+00 0.000000e+00 7.004289e-01 2.995711e-01 0.000000e+00
 0.000000e+00 0.000000e+00 0.000000e+00 9.018419e-01 9.815806e-02
 0.000000e+00 0.000000e+00 0.000000e+00 0.000000e+00 0.000000e+00
<ENDHMM>
~h "en"
<BEGINHMM>
<NUMSTATES> 5
<STATE> 2
<MEAN> 39
 6.328383e+00 -3.068181e+00 -5.630675e+00 -1.992957e+01 -1.801531e+01 1.040772e+01 -1.368322e+01 3.834043e+00 8.415490e+00 -2.249440e+01 1.010311e+01 -1.134287e+01 6.967848e+01 1.680226e-01 9.501991e-01 1.990471e-01 9.990111e-01 7.571755e-01 -8.998249e-01 4.916041e-01 8.032650e-02 -7.168986e-01 1.009377e+00 -4.202890e-01 -5.627665e-01 -1.759148e+00 -1.745558e-01 1.076005e-01 4.104406e-02 1.908354e-01 1.453984e-01 1.863091e-02 1.173456e-01 -1.433429e-01 -1.936156e-01 2.709166e-01 -3.693470e-01 2.322735e-01 -2.025248e-01
<VARIANCE> 39
 4.446545e+00 1.046537e+01 8.417308e+00 4.832076e+01 6.646569e+01 7.312286e+01 1.626177e+01 2.281343e+01 1.872058e+01 4.047008e+01 4.003521e+01 4.592765e+01 3.455518e+01 4.039004e-01 1.812737e+00 4.235100e-01 9.361920e-01 9.165406e-01 8.341662e-01 1.048219e+00 1.061719e+00 1.693764e+00 2.389919e+00 5.337976e+00 3.119673e+00 1.759247e+00 1.272226e-01 1.426643e-01 8.334939e-02 2.289660e-01 1.153309e-01 1.634409e-01 1.666151e-01 1.972823e-01 2.086175e-01 2.169185e-01 5.213352e-01 2.424026e-01 5.084250e-02
<GCONST> 9.350002e+01
<STATE> 3
<MEAN> 39
 2.610236e+00 2.573833e+00 -2.411276e+00 -2.221594e+00 -3.202974e+00 -7.074050e-01 -1.016273e+01 3.355052e+00 8.678219e-01 -1.038424e+01 -5.813445e+00 -7.872680e+00 5.225450e+01 -2.005313e+00 1.474196e-01 -6.790246e-01 1.530466e+00 4.356079e-01 -1.916149e-01 1.061437e+00 -7.483566e-01 -9.569311e-01 1.513881e+00 -1.869614e+00 1.343643e+00 -2.747514e+00 -4.091317e-01 -8.406248e-01 -5.012552e-01 -6.958875e-01 -4.381443e-01 -1.336264e-01 -2.144701e-01 -8.206348e-02 3.325769e-01 -2.847118e-01 6.562040e-01 -2.671090e-01 4.201609e-01
<VARIANCE> 39
 1.923902e+01 2.266755e+01 1.383202e+01 8.534885e+01 3.669012e+01 4.931269e+01 2.737408e+01 2.638729e+01 2.033860e+01 2.755971e+01 3.226011e+01 2.990388e+01 1.753953e+01 1.300695e+00 3.355878e+00 2.319983e+00 4.935788e+00 2.498415e+00 1.987586e+00 2.345802e+00 2.354323e+00 2.775782e+00 1.867305e+00 4.647661e+00 2.279418e+00 1.066590e+00 2.695367e-01 2.600571e-01 2.557201e-01 6.645908e-01 3.746274e-01 2.831087e-01 4.092592e-01 3.769345e-01 4.628689e-01 3.093587e-01 4.366024e-01 3.948261e-01 7.553928e-02
<GCONST> 1.114427e+02
<STATE> 4
<MEAN> 39
 -4.944836e+00 -3.199655e-01 -6.698407e+00 -1.914614e+00 -6.489875e+00 -3.148328e+00 -8.059693e+00 -1.567846e+00 -2.862785e+00 -5.666619e+00 -6.447528e+00 -3.865134e+00 4.538763e+01 -4.981252e-01 -8.171760e-02 -2.504227e-01 -4.127992e-01 -4.621900e-01 -1.338149e-02 2.900383e-01 -3.661313e-01 -4.402857e-01 2.089175e-01 3.021739e-01 1.341484e-01 -4.143964e-01 2.124676e-01 1.126082e-01 1.396655e-01 1.520497e-02 3.869485e-02 9.065623e-03 -2.251456e-02 4.198831e-02 7.744391e-03 -6.503793e-02 9.064202e-02 -3.526798e-02 1.967497e-01
<VARIANCE> 39
 5.211363e+01 3.772700e+01 1.974164e+01 2.075982e+01 2.102887e+01 2.001453e+01 2.130715e+01 2.107793e+01 2.495191e+01 1.627563e+01 2.344142e+01 1.694878e+01 1.637646e+01 1.952051e+00 1.666285e+00 1.818507e+00 1.691802e+00 1.573768e+00 2.031814e+00 1.682459e+00 1.881036e+00 2.412877e+00 1.633299e+00 2.133319e+00 1.559357e+00 7.080618e-01 2.046185e-01 2.184165e-01 3.114857e-01 2.788530e-01 2.880685e-01 3.506643e-01 3.196407e-01 3.712356e-01 5.211213e-01 3.647034e-01 4.168153e-01 3.125906e-01 1.053610e-01
<GCONST> 1.031353e+02
<TRANSP> 5
 0.000000e+00 1.000000e+00 0.000000e+00 0.000000e+00 0.000000e+00
 0.000000e+00 8.143520e-01 1.856480e-01 0.000000e+00 0.000000e+00
 0.000000e+00 0.000000e+00 7.712248e-01 2.287752e-01 0.000000e+00
 0.000000e+00 0.000000e+00 0.000000e+00 8.789356e-01 1.210645e-01
 0.000000e+00 0.000000e+00 0.000000e+00 0.000000e+00 0.000000e+00
<ENDHMM>
~h "er"
<BEGINHMM>
<NUMSTATES> 5
<STATE> 2
<MEAN> 39
 -5.612624e+00 -1.433025e+01 -9.856983e+00 -1.211655e+01 -3.508527e+00 2.714937e-01 -1.148609e+01 3.989118e+00 -2.952101e+00 -7.045043e+00 1.284932e+00 -8.182416e+00 7.320747e+01 3.779369e-01 -3.416960e-01 2.301919e-01 -1.773684e-01 -1.726053e-01 9.991304e-02 -2.125057e-01 3.363569e-01 2.347049e-01 -7.834075e-02 9.376321e-02 -3.405263e-01 9.467393e-01 -4.157947e-03 -2.519763e-02 -1.259128e-02 -3.124296e-02 -4.530615e-02 5.915756e-02 -9.164547e-03 1.453983e-02 1.653712e-03 -6.539406e-03 1.526469e-02 -3.683237e-02 -7.050328e-03
<VARIANCE> 39
 1.288260e+02 5.206204e+01 7.596465e+01 3.878326e+01 5.590321e+01 7.109230e+01 1.074844e+02 8.943632e+01 5.616726e+01 3.671042e+01 3.876200e+01 5.291909e+01 1.722469e+02 1.022674e+01 4.289584e+00 3.529957e+00 2.960824e+00 6.119829e+00 5.800665e+00 1.066821e+01 7.915957e+00 3.362264e+00 3.239641e+00 4.038983e+00 6.093136e+00 9.456714e+00 1.428023e+00 6.810325e-01 5.440095e-01 4.740092e-01 1.065782e+00 1.105423e+00 1.806835e+00 1.352625e+00 5.470058e-01 6.074892e-01 7.618380e-01 1.098094e+00 1.003239e+00
<GCONST> 1.467104e+02
<STATE> 3
<MEAN> 39
 3.471682e+00 -2.048541e+01 -3.568565e+00 -1.619385e+01 -1.658494e+01 1.274917e+01 -1.667612e+01 6.012955e+00 -1.297163e+00 -8.250303e+00 3.218174e+00 -1.732656e+01 7.734132e+01 6.190177e-01 1.820627e-01 -7.637247e-01 -4.152156e-01 1.190275e-01 2.306789e+00 5.865266e-01 -1.089537e+00 -1.055195e+00 1.174377e-01 4.836735e-01 6.724564e-01 -9.844338e-01 -1.431260e-03 3.269559e-01 9.246074e-02 2.614765e-01 1.646920e-01 -5.396729e-01 2.138165e-01 -2.366483e-01 2.943112e-02 -8.145370e-03 -1.126189e-01 5.257436e-01 -3.421856e-01
<VARIANCE> 39
 1.207865e+01 1.692413e+01 3.902293e+01 5.397136e+01 4.055794e+01 9.876475e+01 2.278203e+01 7.755836e+01 2.515946e+01 6.708871e+01 2.860446e+01 2.468817e+01 9.368209e+00 7.856662e-01 1.146621e+00 1.213618e+00 2.393903e+00 2.299656e+00 6.694806e+00 2.253386e+00 3.827172e+00 2.041465e+00 2.016001e+00 2.579165e+00 2.891587e+00 8.977425e-01 1.572806e-01 2.526193e-01 1.414674e-01 2.855153e-01 5.141867e-01 8.353274e-01 5.245886e-01 8.883327e-01 3.748413e-01 3.632249e-01 4.622508e-01 7.810795e-01 1.826244e-01
<GCONST> 1.130614e+02
<STATE> 4
<MEAN> 39
 9.125433e+00 -1.307240e+01 -5.865746e+00 -7.581324e+00 -1.623800e+01 1.085531e+01 -1.033045e+01 -5.114148e+00 -5.697796e+00 -6.527287e+00 1.510665e+00 -8.110909e+00 6.761301e+01 4.518442e-02 6.714958e-01 -4.048287e-01 1.971302e+00 8.093786e-01 -1.886034e+00 1.071234e+00 -8.838589e-01 4.086138e-01 1.806748e-01 -8.900326e-01 1.153879e+00 -9.896982e-01 -4.591967e-01 -1.095252e-01 1.579664e-01 6.835152e-02 5.130270e-01 -5.272973e-01 1.502886e-03 3.962316e-01 2.925059e-01 -7.079983e-02 -1.152946e-01 -4.288171e-02 2.092861e-01
<VARIANCE> 39
 5.622094e+00 1.419709e+01 1.060012e+02 1.127820e+02 2.068366e+01 9.079473e+01 2.031102e+01 1.709286e+01 9.298487e+00 9.537642e+01 2.077352e+01 4.161275e+01 1.144133e+01 9.651417e-01 1.287102e+00 1.299514e+00 3.577127e+00 4.150688e+00 5.553309e+00 1.555365e+00 3.385151e+00 1.377151e+00 1.894274e+00 1.719860e+00 1.255267e+00 5.573962e-01 3.804109e-01 1.633563e-01 2.959632e-01 5.822230e-01 5.759656e-01 2.548958e-01 2.128116e-01 3.854710e-01 1.561813e-01 3.858353e-01 2.205761e-01 3.343768e-01 1.159125e-01
<GCONST> 1.059898e+02
<TRANSP> 5
 0.000000e+00 1.000000e+00 0.000000e+00 0.000000e+00 0.000000e+00
 0.000000e+00 9.752300e-01 2.477000e-02 0.000000e+00 0.000000e+00
 0.000000e+00 0.000000e+00 8.549675e-01 1.450324e-01 0.000000e+00
 0.000000e+00 0.000000e+00 0.000000e+00 8.389602e-01 1.610397e-01
 0.000000e+00 0.000000e+00 0.000000e+00 0.000000e+00 0.000000e+00
<ENDHMM>
~h "iu"
<BEGINHMM>
<NUMSTATES> 5
<STATE> 2
<MEAN> 39
 4.587749e+00 -1.257595e+01 -3.465156e+00 -2.257646e+01 -1.318601e+01 1.177114e+01 -1.783567e+01 -7.653875e+00 -2.337765e+00 -2.219823e+00 9.714019e+00 -9.870630e+00 7.857665e+01 4.997564e-01 6.472172e-01 -2.915526e-01 -3.383076e+00 -1.023040e+00 3.764081e+00 1.608506e+00 -5.723615e-01 1.422074e-01 -9.053815e-01 -1.018864e+00 1.936450e+00 -4.080236e-01 -1.234667e-01 3.956578e-01 -9.844296e-02 5.926690e-01 7.621478e-02 -8.892055e-01 -5.149499e-03 7.547803e-01 4.865456e-01 -1.121452e+00 -6.632473e-01 7.370180e-01 -2.933657e-01
<VARIANCE> 39
 3.239435e+00 1.456740e+01 7.283823e+00 3.507416e+01 4.237362e+01 5.568710e+01 3.782436e+01 2.902689e+01 1.949964e+01 3.326612e+01 4.383452e+01 5.522207e+01 3.634416e+00 1.552635e-01 4.073899e-01 3.006402e-01 2.882939e+00 1.003366e+00 3.419967e+00 1.853289e+00 5.524029e+00 1.839961e+00 6.001207e+00 3.354103e+00 3.489415e+00 4.815833e-01 6.476793e-02 7.954723e-02 1.019236e-01 2.263300e-01 1.853588e-01 5.038924e-01 4.695460e-01 5.446885e-01 3.192950e-01 1.041211e+00 5.803748e-01 8.044661e-01 6.201551e-02
<GCONST> 9.877015e+01
<STATE> 3
<MEAN> 39
 6.284224e+00 -7.672362e+00 -4.247199e+00 -2.992265e+01 -1.822085e+01 1.831131e+01 -1.279760e+01 -3.481237e+00 3.633079e+00 -1.429873e+01 3.322252e+00 -3.864989e-01 7.569344e+01 1.189098e-01 1.052872e+00 -4.098817e-01 3.339579e-01 -1.131753e+00 4.612122e-01 3.750510e-01 1.070959e+00 1.497748e+00 -2.455774e+00 -7.160465e-01 4.437223e-01 -7.190770e-01 -5.440470e-02 -2.151106e-01 2.841084e-02 6.519650e-01 7.274268e-02 -3.690141e-01 -2.360511e-01 -6.108521e-02 -1.272140e-01 3.680992e-01 4.625805e-01 -6.608349e-01 3.623781e-02
<VARIANCE> 39
 3.590094e+00 1.672275e+01 6.465495e+00 1.708631e+01 5.069920e+01 2.933492e+01 3.669130e+01 1.496766e+01 5.382399e+01 7.831843e+01 9.988718e+00 5.008136e+01 4.567745e+00 1.839277e-01 3.359001e-01 2.658869e-01 2.040772e+00 5.131511e-01 4.610527e-01 8.680852e-01 1.009165e+00 2.175944e+00 4.529324e+00 1.300975e+00 2.245414e+00 1.997349e-01 5.770744e-02 9.937748e-02 4.074251e-02 1.154176e-01 1.403958e-01 2.565679e-01 2.257737e-01 1.663295e-01 2.185384e-01 2.752287e-01 2.068772e-01 1.809189e-01 1.905926e-02
<GCONST> 7.976764e+01
<STATE> 4
<MEAN> 39
 6.231946e+00 -3.345358e+00 -5.300289e+00 -2.366630e+01 -2.437258e+01 1.749913e+01 -1.560325e+01 3.001169e+00 9.451135e+00 -2.394770e+01 1.088567e+01 -9.090472e+00 7.268444e+01 5.565885e-02 1.742758e-01 3.247552e-03 7.837090e-01 1.351631e-01 -7.726060e-01 1.835343e-01 1.977002e-01 5.819727e-02 1.411661e-01 1.042328e+00 -1.598174e+00 -7.128900e-01 1.706981e-02 1.033127e-02 3.683764e-02 -7.120962e-02 2.250186e-01 -1.315665e-01 7.015768e-02 -1.294435e-01 -8.838291e-02 2.428317e-01 -1.782180e-02 4.100850e-02 -1.187397e-01
<VARIANCE> 39
 3.420866e+00 8.306415e+00 4.323056e+00 2.380907e+01 1.376452e+01 1.937344e+01 1.770461e+01 1.049284e+01 2.604204e+01 3.197222e+01 3.212335e+01 5.920735e+01 9.531258e+00 2.382869e-01 2.006482e-01 2.385678e-01 5.838835e-01 6.484834e-01 6.428213e-01 5.160260e-01 6.632472e-01 6.182806e-01 8.430573e-01 5.374388e-01 1.007239e+00 2.878773e-01 3.793442e-02 5.205673e-02 5.036266e-02 6.714386e-02 1.267122e-01 1.622386e-01 9.610933e-02 7.876237e-02 1.542383e-01 1.511816e-01 1.533368e-01 1.379288e-01 3.396082e-02
<GCONST> 6.584705e+01
<TRANSP> 5
 0.000000e+00 1.000000e+00 0.000000e+00 0.000000e+00 0.000000e+00
 0.000000e+00 7.358578e-01 2.641422e-01 0.000000e+00 0.000000e+00
 0.000000e+00 0.000000e+00 7.262400e-01 2.737601e-01 0.000000e+00
 0.000000e+00 0.000000e+00 0.000000e+00 8.692800e-01 1.307200e-01
 0.000000e+00 0.000000e+00 0.000000e+00 0.000000e+00 0.000000e+00
<ENDHMM>
~h "sh"
<BEGINHMM>
<NUMSTATES> 5
<STATE> 2
<MEAN> 39
 -1.036990e+01 -1.054564e+01 8.813906e-01 2.184896e+00 -8.734394e+00 -1.246852e+01 -2.450858e+00 3.463701e+00 -5.405053e+00 -1.141278e+01 -3.120633e+00 -7.187835e+00 7.432120e+01 -7.442464e-01 -1.567956e-01 -4.624925e-01 -1.193755e+00 6.053483e-01 1.900814e-03 -9.922624e-03 9.004209e-01 6.532253e-01 -2.413831e-01 -8.416064e-03 -1.861741e-01 9.919071e-01 2.074714e-02 -7.420692e-02 -2.506927e-02 -1.956291e-01 1.096797e-01 3.824326e-01 -1.416441e-01 -3.809207e-01 1.298059e-01 2.090534e-01 -1.486657e-01 1.457868e-02 2.880427e-02
<VARIANCE> 39
 1.614842e+02 3.356959e+01 3.259729e+01 5.894267e+01 3.476943e+01 2.261447e+01 4.418687e+01 3.321789e+01 3.139186e+01 2.879329e+01 3.398893e+01 2.355729e+01 2.743949e+01 1.859940e+01 4.307467e+00 4.130916e+00 3.704040e+00 4.713845e+00 5.366356e+00 6.237704e+00 5.131143e+00 3.969085e+00 4.884864e+00 4.580742e+00 2.232966e+00 1.413357e+00 2.584001e+00 7.288036e-01 6.336786e-01 5.358524e-01 8.612099e-01 4.676450e-01 9.917770e-01 7.119933e-01 6.174949e-01 8.337761e-01 6.758735e-01 4.392903e-01 2.307006e-01
<GCONST> 1.329935e+02
<STATE> 3
<MEAN> 39
 -2.220766e+00 -1.620077e+01 -9.252299e+00 -9.530667e+00 -2.269326e+00 6.358790e+00 -1.655532e+01 2.143180e+00 1.080121e+01 -1.741872e+01 -6.618711e+00 -1.407346e+01 7.556583e+01 1.238142e-01 1.905371e-01 -1.772948e-01 7.267165e-01 4.135017e-01 3.619531e-01 5.485243e-02 5.705190e-02 1.476566e-01 -1.391681e-01 -1.575278e-01 2.663081e-01 -1.371701e+00 5.436122e-02 3.841052e-02 2.561446e-02 9.507323e-02 -7.671526e-02 -2.213665e-01 8.997522e-02 9.493898e-02 -1.774021e-01 2.585554e-02 9.266171e-02 4.626808e-02 -1.156410e-01
<VARIANCE> 39
 1.661887e+01 1.982326e+01 1.526676e+01 5.038408e+01 1.676461e+01 2.254599e+01 3.978475e+01 2.444120e+01 1.798675e+01 3.895863e+01 4.832824e+01 5.216041e+01 1.244805e+02 1.171944e+00 1.625428e+00 1.399569e+00 1.623878e+00 1.898946e+00 2.777707e+00 3.419300e+00 2.429348e+00 1.797749e+00 2.830665e+00 4.477712e+00 4.892577e+00 1.735581e+00 2.226846e-01 3.287021e-01 2.348277e-01 3.092731e-01 3.327469e-01 3.140637e-01 4.243474e-01 3.641608e-01 3.205619e-01 4.225677e-01 8.561350e-01 6.794768e-01 2.059901e-01
<GCONST> 1.131701e+02
<STATE> 4
<MEAN> 39
 -5.207496e+00 -5.074369e+00 -9.582453e+00 -9.303269e-01 -9.795371e-01 -2.712053e-01 -6.280988e+00 1.269756e+00 1.067617e+00 -7.521120e+00 -8.340226e+00 -4.455575e+00 4.952951e+01 -4.693496e-01 7.761286e-01 4.135746e-01 -2.787807e-01 -4.552850e-01 -4.186006e-01 1.640295e-01 -5.916870e-01 -8.525859e-01 7.459968e-01 4.792165e-01 1.303946e-01 -6.532337e-01 -1.385787e-02 2.646014e-03 1.262861e-01 -6.268957e-02 -1.295218e-01 1.401020e-02 -1.164187e-01 -2.597606e-02 5.377744e-02 -6.997693e-02 1.410863e-01 -8.772308e-02 9.124633e-02
<VARIANCE> 39
 5.535978e+01 5.605967e+01 4.266384e+01 2.585475e+01 4.097053e+01 4.365593e+01 2.685850e+01 3.253820e+01 3.688596e+01 2.944089e+01 3.459803e+01 1.520082e+01 5.579403e+01 2.307903e+00 2.868874e+00 2.397854e+00 2.057233e+00 2.305533e+00 2.886241e+00 2.860679e+00 2.256987e+00 2.455772e+00 1.620551e+00 2.084813e+00 1.679113e+00 9.071222e-01 3.049920e-01 4.576276e-01 4.538131e-01 4.586836e-01 4.554245e-01 5.881188e-01 6.057079e-01 4.254470e-01 4.097396e-01 2.696948e-01 3.808096e-01 3.216446e-01 1.158223e-01
<GCONST> 1.153757e+02
<TRANSP> 5
 0.000000e+00 1.000000e+00 0.000000e+00 0.000000e+00 0.000000e+00
 0.000000e+00 9.408908e-01 5.910913e-02 0.000000e+00 0.000000e+00
 0.000000e+00 0.000000e+00 9.498893e-01 5.011069e-02 0.000000e+00
 0.000000e+00 0.000000e+00 0.000000e+00 9.078187e-01 9.218132e-02
 0.000000e+00 0.000000e+00 0.000000e+00 0.000000e+00 0.000000e+00
<ENDHMM>
~h "si"
<BEGINHMM>
<NUMSTATES> 5
<STATE> 2
<MEAN> 39
 -1.356491e+01 -1.025646e+00 -6.665946e+00 -8.140928e+00 -5.598875e-01 -6.458355e+00 -7.770104e+00 -9.134031e+00 1.417026e-04 -5.027938e+00 1.989259e-01 -4.494529e+00 6.733807e+01 -1.721339e-02 -2.962275e-01 1.890389e-01 -2.585199e-01 -1.615002e-01 2.512008e-01 -4.433075e-01 1.117371e-02 1.754235e-01 -1.716690e-02 2.364915e-01 -2.923003e-01 5.379552e-01 6.284136e-02 -8.291918e-02 -1.164224e-02 3.101803e-02 -7.300128e-02 8.239686e-02 -6.524145e-02 5.932317e-02 3.720950e-03 -2.919299e-02 -1.833999e-02 -5.763515e-02 -2.952577e-02
<VARIANCE> 39
 1.567104e+02 3.002822e+01 3.582771e+01 7.127583e+01 2.168398e+01 3.347515e+01 1.371144e+02 8.720796e+01 3.666831e+01 1.718851e+01 2.257108e+01 2.708871e+01 4.556873e+01 1.018554e+01 3.271642e+00 2.071266e+00 4.430131e+00 2.542931e+00 2.666727e+00 7.814867e+00 6.204604e+00 3.235667e+00 1.849548e+00 2.110075e+00 2.277537e+00 2.422812e+00 1.039078e+00 5.873017e-01 3.763265e-01 7.005543e-01 4.153747e-01 5.464488e-01 1.084406e+00 9.532585e-01 5.794933e-01 3.855896e-01 3.875943e-01 4.452105e-01 3.105420e-01
<GCONST> 1.286971e+02
<STATE> 3
<MEAN> 39
 1.994732e+00 -1.380919e+01 3.438048e+00 -8.614725e+00 -1.564605e+01 2.623854e-01 -1.901795e+01 2.426310e+00 -1.274666e+00 -1.076693e+01 3.014220e+00 -1.734183e+01 7.330025e+01 1.347106e-01 -5.123141e-01 -1.522751e-01 2.114630e-01 -8.546041e-02 7.353163e-01 5.665638e-01 5.308530e-02 -1.643074e-01 -3.479666e-01 -2.972037e-01 -1.006852e-01 -2.577303e-01 -2.051033e-02 1.444139e-01 -9.967620e-03 -1.106630e-01 2.247559e-01 9.772190e-02 1.408686e-01 -3.216040e-01 -1.026559e-01 8.505625e-02 1.942794e-02 2.713153e-01 -1.735785e-01
<VARIANCE> 39
 1.505657e+01 1.783577e+01 4.699964e+01 4.430805e+01 4.446861e+01 4.984509e+01 2.909215e+01 1.091522e+02 7.823485e+01 4.325036e+01 2.982284e+01 3.647268e+01 3.472655e+01 1.445361e+00 1.078123e+00 3.533725e+00 5.269738e+00 3.999699e+00 4.476167e+00 1.426953e+00 7.707498e+00 4.899763e+00 2.439267e+00 2.184178e+00 4.601717e+00 2.574134e+00 2.531055e-01 3.056920e-01 3.239461e-01 6.237115e-01 4.920744e-01 5.105807e-01 4.631324e-01 9.720094e-01 6.219062e-01 3.512709e-01 3.945007e-01 5.705459e-01 3.815941e-01
<GCONST> 1.234155e+02
<STATE> 4
<MEAN> 39
 5.660209e+00 -1.256337e+01 -1.527993e+00 -1.106657e+01 -9.675735e+00 1.001320e+01 -1.266020e+01 -7.944261e+00 -2.495397e+00 -1.146170e+01 -1.328245e+00 -8.678110e+00 6.830421e+01 4.412232e-01 1.152256e+00 -5.269491e-01 5.649716e-01 2.271360e-01 2.249625e-01 5.602260e-01 -9.637803e-01 -6.037765e-01 -1.929629e-01 -3.175887e-01 1.037499e+00 -1.315353e+00 -2.634216e-01 5.821044e-02 -1.722857e-01 2.659912e-01 2.697461e-02 -6.506790e-01 -1.099578e-01 6.253184e-01 2.649469e-01 -1.185369e-01 -1.347065e-01 -1.011534e-01 1.411238e-01
<VARIANCE> 39
 8.159305e+00 2.947736e+01 9.467475e+01 1.674500e+02 2.936951e+01 1.054410e+02 3.264380e+01 2.238942e+01 2.229075e+01 4.389239e+01 4.243174e+01 8.775158e+01 3.367678e+01 3.749257e-01 6.543849e-01 8.137994e-01 3.835495e+00 1.873282e+00 3.460001e+00 1.386559e+00 3.768928e+00 2.248833e+00 1.058644e+00 1.598538e+00 1.840575e+00 4.247582e-01 9.669471e-02 1.675321e-01 1.606960e-01 3.859813e-01 6.871396e-01 2.712361e-01 3.470005e-01 4.588267e-01 3.084693e-01 2.123147e-01 2.612676e-01 3.015814e-01 9.754026e-02
<GCONST> 1.064200e+02
<TRANSP> 5
 0.000000e+00 1.000000e+00 0.000000e+00 0.000000e+00 0.000000e+00
 0.000000e+00 9.738997e-01 2.610033e-02 0.000000e+00 0.000000e+00
 0.000000e+00 0.000000e+00 9.315797e-01 6.842034e-02 0.000000e+00
 0.000000e+00 0.000000e+00 0.000000e+00 8.333736e-01 1.666263e-01
 0.000000e+00 0.000000e+00 0.000000e+00 0.000000e+00 0.000000e+00
<ENDHMM>
~h "sp"
<BEGINHMM>
<NUMSTATES> 3
<STATE> 2
~s "silst"
<TRANSP> 3
 0.000000e+00 2.103263e-01 7.896737e-01
 0.000000e+00 8.809707e-01 1.190293e-01
 0.000000e+00 0.000000e+00 0.000000e+00
<ENDHMM>
~h "wu"
<BEGINHMM>
<NUMSTATES> 5
<STATE> 2
<MEAN> 39
 4.651665e-01 2.716204e+00 -2.414953e+00 -9.878311e+00 -1.262119e+01 -3.464378e+00 -9.566112e+00 -5.532056e+00 -7.015609e-01 -9.519009e+00 -1.112476e+00 -4.710090e+00 6.193343e+01 1.897576e-01 -2.759641e-01 4.043270e-02 -1.902730e-01 -2.409718e-01 -1.188271e-01 -3.398129e-02 -2.167003e-01 1.952984e-01 -3.637207e-02 1.984311e-01 -1.312115e-01 8.858720e-01 3.825745e-02 -1.096347e-01 -8.783426e-03 -3.036269e-02 -4.383009e-02 9.701237e-02 -7.535403e-02 -2.186801e-02 4.769657e-02 -2.756503e-02 6.686033e-02 -8.378229e-02 8.133309e-02
<VARIANCE> 39
 1.770861e+02 5.641438e+01 3.525414e+01 8.470512e+01 7.773076e+01 3.792659e+01 3.865885e+01 2.555494e+01 2.764828e+01 4.478961e+01 2.580530e+01 1.507614e+01 8.927121e+01 9.550883e+00 3.740201e+00 3.404978e+00 6.714274e+00 6.298423e+00 3.484979e+00 3.002232e+00 2.488506e+00 3.163646e+00 4.322128e+00 2.959079e+00 1.666220e+00 4.490309e+00 1.061198e+00 5.642683e-01 6.344638e-01 1.137822e+00 1.211223e+00 6.365834e-01 6.019564e-01 4.584593e-01 5.171372e-01 7.931339e-01 5.621693e-01 3.617181e-01 4.761079e-01
<GCONST> 1.332553e+02
<STATE> 3
<MEAN> 39
 3.717828e+00 -1.029975e+01 1.447591e+00 -8.716894e-01 -1.563616e+01 -7.613379e-01 -1.542935e+01 -8.021281e+00 6.773411e-01 -1.282600e+01 3.622445e-01 -8.415055e+00 7.315036e+01 5.261237e-02 -3.010330e-01 1.153168e-01 1.169842e-01 -6.158206e-02 7.956432e-02 -6.298168e-01 5.075353e-01 4.225239e-03 -1.733094e-01 1.584339e-01 -1.099777e-01 5.042025e-01 -1.643884e-01 2.696983e-02 -9.407973e-02 -1.190289e-01 2.004706e-02 -5.298506e-03 1.681231e-01 -3.726711e-02 -1.274431e-01 1.438493e-01 -5.345711e-02 4.387704e-02 -8.847392e-02
<VARIANCE> 39
 3.694095e+01 1.655252e+01 3.856884e+01 8.293005e+01 6.308848e+01 3.971597e+01 5.863354e+01 8.737894e+01 8.090624e+01 4.791862e+01 6.350095e+01 6.314217e+01 5.951974e+01 2.950458e+00 1.416171e+00 3.070691e+00 4.974028e+00 5.860476e+00 4.036216e+00 5.444679e+00 7.198009e+00 5.748983e+00 4.172171e+00 7.500286e+00 4.462948e+00 4.586879e+00 5.366679e-01 2.038484e-01 4.171709e-01 6.196873e-01 9.679206e-01 7.467211e-01 1.024708e+00 1.119111e+00 9.186689e-01 6.300434e-01 1.187259e+00 5.816906e-01 4.942592e-01
<GCONST> 1.370014e+02
<STATE> 4
<MEAN> 39
 8.756453e-01 -1.258788e+01 -4.311841e+00 -1.634781e+01 -1.259363e+01 6.609882e+00 -1.238752e+01 -3.171720e+00 -6.622627e-01 -7.868267e+00 1.588391e+00 -1.062081e+01 7.847816e+01 3.296043e-01 2.226581e-01 -3.021367e-01 -6.460282e-01 4.958009e-01 1.134852e+00 8.422485e-01 -6.164411e-01 -3.480837e-01 1.060049e-01 -5.805944e-01 6.241179e-01 -5.773091e-01 -1.120960e-02 6.471993e-02 5.002366e-02 2.315920e-01 1.380615e-01 -1.085024e-01 -1.569569e-01 1.411537e-01 1.288703e-01 -2.247591e-01 -5.074552e-02 1.585750e-01 -1.874079e-01
<VARIANCE> 39
 2.061592e+01 3.219953e+01 3.189719e+01 1.132791e+02 5.012343e+01 6.072898e+01 1.022213e+02 9.769807e+01 3.029215e+01 4.854408e+01 6.522308e+01 9.544966e+01 4.786657e+01 7.719423e-01 1.372246e+00 1.226687e+00 5.690142e+00 3.832294e+00 6.697660e+00 4.699707e+00 5.174391e+00 3.396774e+00 5.975234e+00 3.554664e+00 4.161346e+00 1.407527e+00 3.058760e-01 2.417501e-01 1.927958e-01 3.520817e-01 6.716654e-01 8.541157e-01 8.389280e-01 9.779072e-01 5.365499e-01 8.204279e-01 7.343754e-01 9.258412e-01 2.531086e-01
<GCONST> 1.293509e+02
<TRANSP> 5
 0.000000e+00 1.000000e+00 0.000000e+00 0.000000e+00 0.000000e+00
 0.000000e+00 9.640968e-01 3.590314e-02 0.000000e+00 0.000000e+00
 0.000000e+00 0.000000e+00 9.478968e-01 5.210318e-02 0.000000e+00
 0.000000e+00 0.000000e+00 0.000000e+00 8.777833e-01 1.222167e-01
 0.000000e+00 0.000000e+00 0.000000e+00 0.000000e+00 0.000000e+00
<ENDHMM>
~h "yi"
<BEGINHMM>
<NUMSTATES> 5
<STATE> 2
<MEAN> 39
 -1.226258e+01 7.447284e+00 1.985065e+01 -8.427691e+00 -1.644646e+01 -3.636092e+00 -5.776658e+00 -1.444965e+01 -5.451982e+00 -1.677431e+01 5.459003e+00 -8.269575e+00 6.679723e+01 -7.210279e-02 8.877411e-02 9.670645e-01 -3.650433e-01 -4.542410e-01 -2.010808e-01 2.245989e-01 -6.765438e-01 -1.358275e-01 -3.032196e-01 1.305094e-01 -1.990924e-02 1.393037e+00 -2.304012e-02 -1.469987e-01 -3.424992e-01 5.630400e-02 1.826597e-01 -3.463846e-02 7.620563e-02 1.587178e-01 5.723881e-04 2.824692e-01 -1.287739e-01 9.241364e-02 -1.827745e-01
<VARIANCE> 39
 1.165955e+01 1.342814e+01 6.193961e+01 1.101365e+01 3.028587e+01 1.629308e+01 1.180166e+01 3.083933e+01 1.621339e+01 2.489117e+01 2.524337e+01 1.020764e+01 7.226036e+01 1.234648e+00 2.020848e+00 7.233324e+00 1.352972e+00 4.834711e+00 9.380853e-01 9.168392e-01 4.061984e+00 1.633920e+00 4.273658e+00 2.216436e+00 8.181554e-01 5.145940e+00 2.127517e-01 2.607132e-01 1.143233e+00 2.577771e-01 6.378828e-01 1.694143e-01 1.785905e-01 6.159394e-01 3.088470e-01 5.515583e-01 2.850273e-01 1.330811e-01 6.714233e-01
<GCONST> 1.073994e+02
<STATE> 3
<MEAN> 39
 -1.368823e+01 -1.968266e+00 7.973941e+00 -8.676749e+00 -1.010037e+01 -5.765143e+00 -3.963236e+00 -9.559205e+00 -5.447305e+00 -7.171685e+00 2.827423e+00 -6.692716e+00 6.946556e+01 -1.678430e-01 -1.042634e+00 -1.460889e+00 1.234798e-01 -2.032732e-01 -8.125659e-02 -1.584083e-01 1.311446e+00 4.676051e-01 3.537066e-01 5.580110e-02 5.846387e-02 1.872788e-01 2.004675e-01 -6.005660e-02 3.603560e-02 -1.036474e-02 -1.465544e-01 1.668734e-02 -1.597112e-01 7.409133e-02 1.575891e-01 -1.599267e-01 -1.641743e-02 -1.278610e-01 1.489919e-01
<VARIANCE> 39
 1.833506e+02 6.230315e+01 3.961115e+01 7.553138e+01 1.451502e+02 1.683714e+01 3.515521e+01 6.665127e+01 1.336745e+01 3.445777e+01 2.912994e+01 3.416257e+01 3.134486e+01 7.640706e+00 1.630815e+00 3.324679e+00 4.703537e+00 7.781822e+00 1.749362e+00 3.117649e+00 3.623965e+00 1.501157e+00 2.958337e+00 2.195762e+00 1.579104e+00 2.952572e+00 1.001539e+00 3.253999e-01 5.542427e-01 6.553338e-01 1.242582e+00 3.040375e-01 6.686105e-01 5.577836e-01 3.880429e-01 3.856328e-01 4.669262e-01 2.342831e-01 3.659192e-01
<GCONST> 1.259790e+02
<STATE> 4
<MEAN> 39
 2.383816e-01 -1.346258e+01 -7.232048e+00 -1.620905e+01 -1.401835e+01 5.259404e+00 -6.721217e+00 -4.075143e+00 3.217896e+00 -7.748576e+00 1.559925e+00 -1.426668e+01 7.727737e+01 1.164412e+00 -3.500717e-01 -9.376998e-01 1.135087e-01 1.013972e+00 9.949142e-01 -1.431217e-01 -4.899342e-01 2.360167e-01 1.641208e-01 -3.643383e-01 -3.589404e-01 -3.877518e-01 -2.824317e-01 1.317105e-01 1.674145e-01 6.561826e-02 2.989776e-01 -8.756229e-02 3.559361e-02 -5.442197e-02 -7.052624e-02 1.295570e-01 4.824801e-02 1.581227e-01 -1.014773e-01
<VARIANCE> 39
 6.777908e+01 3.153589e+01 3.691709e+01 4.832997e+01 3.743911e+01 9.826010e+01 4.289416e+01 8.796860e+01 1.555974e+01 3.413467e+01 6.931435e+01 4.177098e+01 3.970567e+01 4.326402e+00 1.824839e+00 3.218268e+00 8.514021e+00 5.473161e+00 9.460434e+00 2.540636e+00 4.299548e+00 2.535425e+00 4.457576e+00 7.968770e+00 3.729073e+00 3.700178e+00 1.022547e+00 3.048944e-01 5.159261e-01 1.096062e+00 1.067934e+00 1.392112e+00 5.253353e-01 9.927688e-01 5.313954e-01 8.460464e-01 1.508503e+00 5.227411e-01 5.672278e-01
<GCONST> 1.364505e+02
<TRANSP> 5
 0.000000e+00 1.000000e+00 0.000000e+00 0.000000e+00 0.000000e+00
 0.000000e+00 9.452705e-01 5.472949e-02 0.000000e+00 0.000000e+00
 0.000000e+00 0.000000e+00 9.188429e-01 8.115719e-02 0.000000e+00
 0.000000e+00 0.000000e+00 0.000000e+00 8.913422e-01 1.086578e-01
 0.000000e+00 0.000000e+00 0.000000e+00 0.000000e+00 0.000000e+00
<ENDHMM>
~h "zh"
<BEGINHMM>
<NUMSTATES> 5
<STATE> 2
<MEAN> 39
 -8.538381e+00 -3.906387e+00 -8.649106e+00 -8.305050e+00 -1.114111e+01 2.277673e-01 -4.781886e+00 -1.054987e+00 -4.154782e+00 -7.470528e+00 -3.082413e+00 -2.715867e+00 4.418718e+01 -1.206148e+00 -1.057327e+00 -7.445798e-01 1.256503e-01 -1.787844e-01 -7.188655e-01 1.034131e-01 -1.185173e-01 -2.670963e-01 3.315074e-01 -3.903435e-01 1.112715e-01 -7.272481e-01 2.705577e-01 2.900340e-01 4.413787e-01 3.223522e-01 3.069414e-01 3.122740e-01 -1.956813e-01 -1.257677e-01 7.233280e-02 1.735421e-02 1.094049e-01 -2.046522e-01 1.599204e-01
<VARIANCE> 39
 1.146598e+01 2.347817e+01 1.954278e+01 4.261468e+01 1.274771e+01 1.891339e+01 1.770849e+01 2.878805e+01 3.195056e+01 1.938196e+01 3.348695e+01 4.274627e+01 3.634416e+00 1.195613e+00 1.310957e+00 1.432801e+00 1.378509e+00 1.131889e+00 2.347435e+00 1.976215e+00 2.748704e+00 3.538431e+00 1.545310e+00 2.919102e+00 2.776458e+00 3.579841e-01 7.575217e-02 1.322452e-01 2.564062e-01 3.279933e-01 2.865614e-01 4.649943e-01 3.405333e-01 5.324908e-01 6.754115e-01 2.994160e-01 7.221270e-01 6.495944e-01 2.673870e-02
<GCONST> 1.004867e+02
<STATE> 3
<MEAN> 39
 -6.602425e+00 1.281449e-01 -6.921975e+00 -6.756617e+00 -1.191669e+01 -1.180149e+00 -6.016973e+00 -2.155842e+00 -2.462848e+00 -4.450350e+00 -5.838399e+00 -3.926223e+00 4.372923e+01 -5.641513e-01 -3.387253e-01 1.011858e-01 5.896419e-01 2.593011e-01 -5.008401e-02 -2.581674e-01 -4.106252e-01 -1.804916e-01 2.658940e-01 4.896935e-03 4.262098e-02 -3.904147e-01 9.352607e-02 1.077693e-01 1.410258e-01 1.325376e-01 1.778741e-01 7.461487e-02 -1.995098e-01 -2.404703e-01 -1.269577e-01 -8.154874e-02 1.664522e-01 7.341565e-02 5.730454e-02
<VARIANCE> 39
 2.330800e+01 2.130613e+01 3.416578e+01 1.895294e+01 1.414685e+01 1.489784e+01 2.068214e+01 2.571431e+01 1.978041e+01 2.000991e+01 1.602405e+01 2.415495e+01 5.887619e+00 9.030102e-01 7.223119e-01 7.481686e-01 1.031029e+00 1.173540e+00 1.312606e+00 1.158603e+00 1.767012e+00 2.048863e+00 2.016007e+00 1.593871e+00 1.172444e+00 2.874902e-01 1.137262e-01 1.301696e-01 1.627105e-01 1.644695e-01 1.962225e-01 2.455431e-01 2.819749e-01 3.674437e-01 4.442551e-01 3.988060e-01 2.582016e-01 2.495009e-01 2.902735e-02
<GCONST> 8.981026e+01
<STATE> 4
<MEAN> 39
 -1.055317e+01 -2.299957e+00 -7.338059e+00 -4.047151e+00 -8.737054e+00 -8.355144e-02 -7.361881e+00 -4.608157e+00 -5.055290e+00 -4.974408e+00 -4.973786e+00 -4.397496e+00 4.117744e+01 -5.413305e-01 -2.090432e-01 2.656802e-01 9.841604e-01 6.620046e-01 -1.928084e-01 -7.027797e-01 -1.058031e+00 -5.220640e-01 2.083465e-03 1.600358e-01 4.490498e-01 -3.596802e-01 1.523656e-01 1.156573e-01 -1.853102e-02 -1.505378e-01 -1.732590e-01 -9.751154e-02 7.467142e-02 2.388820e-01 1.402473e-01 3.005046e-02 1.021739e-02 3.344565e-02 8.169700e-02
<VARIANCE> 39
 5.888238e+00 1.110284e+01 2.003637e+01 1.655799e+01 1.527790e+01 1.360355e+01 1.495539e+01 1.651075e+01 1.000526e+01 1.947865e+01 1.656036e+01 1.650306e+01 3.634416e+00 3.675611e-01 5.131975e-01 9.210806e-01 1.638976e+00 1.024328e+00 9.931746e-01 1.878589e+00 1.732929e+00 1.640996e+00 1.957172e+00 1.303635e+00 1.131661e+00 1.345170e-01 8.264530e-02 1.080094e-01 1.835927e-01 1.819469e-01 2.551260e-01 2.049009e-01 2.167535e-01 2.587515e-01 3.191794e-01 3.221806e-01 2.743690e-01 2.026072e-01 2.708471e-02
<GCONST> 8.144894e+01
<TRANSP> 5
 0.000000e+00 1.000000e+00 0.000000e+00 0.000000e+00 0.000000e+00
 0.000000e+00 6.575866e-01 3.424134e-01 0.000000e+00 0.000000e+00
 0.000000e+00 0.000000e+00 7.433233e-01 2.566767e-01 0.000000e+00
 0.000000e+00 0.000000e+00 0.000000e+00 5.929613e-01 4.070387e-01
 0.000000e+00 0.000000e+00 0.000000e+00 0.000000e+00 0.000000e+00
<ENDHMM>
~h "eng"
<BEGINHMM>
<NUMSTATES> 5
<STATE> 2
<MEAN> 39
 2.984896e+00 -5.392988e+00 -9.899095e+00 -1.512260e+01 -1.212452e+01 1.411807e+01 -1.848820e+01 -3.145054e+00 2.226599e+00 -2.412321e+01 1.842968e+01 -1.426194e+01 7.511421e+01 3.545209e-01 5.097227e-03 3.263758e-01 7.578667e-01 -4.775660e-02 -5.950992e-01 6.743242e-01 -4.549609e-02 -5.165100e-01 2.217532e-01 -5.448086e-01 -2.449811e-01 -9.915578e-01 -1.087097e-02 3.487588e-02 6.149608e-02 -2.226767e-02 9.279096e-02 -6.079054e-02 4.603910e-02 1.300919e-02 -7.040862e-02 2.638095e-01 -3.228322e-01 1.078399e-01 -1.104167e-01
<VARIANCE> 39
 8.055204e+00 1.102359e+01 2.337235e+01 3.984522e+01 1.516938e+01 2.821189e+01 3.622978e+01 3.723882e+01 2.527329e+01 5.338474e+01 5.946798e+01 1.717172e+01 2.317334e+01 2.749768e-01 6.990907e-01 7.945164e-01 6.533931e-01 8.079808e-01 7.923288e-01 9.374314e-01 7.188975e-01 7.924915e-01 1.782532e+00 1.980943e+00 8.660388e-01 6.328617e-01 5.042321e-02 1.140232e-01 1.119994e-01 1.039000e-01 1.230304e-01 1.627916e-01 1.792470e-01 1.542641e-01 1.541585e-01 2.101283e-01 2.280362e-01 1.672902e-01 5.228452e-02
<GCONST> 8.406969e+01
<STATE> 3
<MEAN> 39
 6.823627e+00 -5.420727e+00 -2.275516e+00 -7.604048e+00 -1.045824e+01 7.355909e+00 -1.186030e+01 -6.957845e+00 -5.194694e+00 -1.170340e+01 1.389013e+00 -1.092506e+01 6.230622e+01 -4.761528e-01 9.400964e-01 2.163184e-01 1.196709e+00 1.217998e+00 -1.135439e+00 8.753361e-01 -1.482314e-01 -8.101568e-01 1.684468e+00 -2.689432e+00 1.221219e+00 -1.944527e+00 -3.621834e-01 3.264869e-02 -3.577057e-01 1.833473e-01 1.027810e-02 -1.994512e-01 8.657821e-02 1.228095e-01 1.504512e-01 -1.462575e-01 3.169064e-01 -2.916695e-02 7.969586e-02
<VARIANCE> 39
 1.416923e+01 6.235132e+01 3.293507e+01 4.577815e+01 5.014281e+01 2.709998e+01 1.896277e+01 6.027941e+01 2.110971e+01 5.680413e+01 5.094524e+01 2.190711e+01 4.878830e+01 1.506575e+00 2.783813e+00 2.090386e+00 1.728165e+00 2.932551e+00 2.100204e+00 1.751867e+00 2.819005e+00 2.570715e+00 3.214827e+00 3.502538e+00 2.057887e+00 2.423706e+00 2.079633e-01 4.993419e-01 2.956274e-01 3.751839e-01 5.792269e-01 4.560661e-01 3.518566e-01 5.919212e-01 4.378765e-01 4.901879e-01 5.742782e-01 3.804945e-01 1.521393e-01
<GCONST> 1.168285e+02
<STATE> 4
<MEAN> 39
 -1.902619e+00 -3.037240e+00 -5.984319e+00 -3.451403e+00 -6.021968e+00 1.915098e+00 -7.257624e+00 -7.020833e+00 -7.298359e+00 -4.702794e+00 -4.407826e+00 -6.015449e+00 5.020975e+01 -8.280004e-01 -1.018312e-01 -5.103820e-01 4.091038e-01 -7.257572e-02 -9.518331e-01 3.384917e-01 4.625120e-01 7.783800e-02 1.218271e-02 -3.205523e-01 3.540142e-01 -5.138324e-01 -3.990358e-02 1.619831e-04 9.082100e-02 -1.038870e-01 -1.021563e-01 -7.599018e-02 -2.262577e-02 2.162797e-01 3.984478e-02 -2.996617e-01 2.248558e-01 -5.982332e-02 2.824281e-01
<VARIANCE> 39
 6.893143e+01 5.421805e+01 4.867926e+01 3.228364e+01 4.604886e+01 2.763729e+01 1.886621e+01 4.116862e+01 2.074880e+01 2.627773e+01 2.201485e+01 1.738784e+01 8.329809e+01 3.255111e+00 2.930960e+00 2.596276e+00 2.870924e+00 2.731907e+00 3.340503e+00 2.270138e+00 3.990868e+00 2.058464e+00 3.262389e+00 2.081959e+00 1.689374e+00 2.411777e+00 5.159016e-01 5.165619e-01 4.503385e-01 4.355575e-01 5.685860e-01 6.012377e-01 4.724976e-01 7.150791e-01 4.354302e-01 5.174001e-01 4.802308e-01 3.317060e-01 3.200884e-01
<GCONST> 1.208836e+02
<TRANSP> 5
 0.000000e+00 1.000000e+00 0.000000e+00 0.000000e+00 0.000000e+00
 0.000000e+00 8.768103e-01 1.231897e-01 0.000000e+00 0.000000e+00
 0.000000e+00 0.000000e+00 6.712793e-01 3.287207e-01 0.000000e+00
 0.000000e+00 0.000000e+00 0.000000e+00 8.510320e-01 1.489680e-01
 0.000000e+00 0.000000e+00 0.000000e+00 0.000000e+00 0.000000e+00
<ENDHMM>
~h "ong"
<BEGINHMM>
<NUMSTATES> 5
<STATE> 2
<MEAN> 39
 -1.258415e+01 -4.470237e+00 -9.376668e+00 -3.446149e+00 -8.097387e+00 -2.920736e+00 -7.768859e+00 -4.235820e+00 -6.219501e+00 -5.113622e+00 -4.553946e+00 -3.921279e+00 4.034462e+01 -7.237120e-02 1.137155e-01 6.351256e-02 2.515081e-01 1.172093e-01 -2.760325e-02 -5.250517e-02 -2.186747e-02 -4.353204e-02 2.067662e-01 1.590992e-01 1.905176e-01 -1.512145e-01 8.481046e-02 8.874117e-02 2.817410e-02 -6.230427e-02 -3.887637e-02 5.020130e-02 9.762968e-02 1.304250e-01 6.247630e-02 6.830037e-03 1.460759e-02 -1.941129e-02 4.018407e-02
<VARIANCE> 39
 2.588558e+00 4.536270e+00 6.971416e+00 1.152435e+01 9.211034e+00 1.198295e+01 1.080015e+01 1.069987e+01 9.992244e+00 1.351770e+01 1.320119e+01 1.608188e+01 3.634416e+00 2.756760e-01 4.957300e-01 6.826899e-01 8.377194e-01 1.050178e+00 1.277774e+00 1.228825e+00 1.374612e+00 1.075247e+00 1.415218e+00 1.157332e+00 1.359265e+00 6.876557e-02 4.376012e-02 8.324505e-02 1.323743e-01 1.888158e-01 2.040902e-01 2.148481e-01 2.344303e-01 2.979061e-01 1.969270e-01 2.705769e-01 2.282269e-01 2.931704e-01 9.594526e-03
<GCONST> 7.062393e+01
<STATE> 3
<MEAN> 39
 -1.068789e+01 1.278269e+00 -6.560511e+00 5.618987e-01 -6.393118e+00 -1.137392e+00 -7.715804e+00 -3.790560e+00 -5.174282e+00 -2.570677e+00 -2.629567e+00 -2.925108e+00 3.872495e+01 -4.329488e-02 4.934880e-02 -3.799835e-02 3.389797e-02 -6.917742e-02 -1.736663e-02 -1.153222e-02 6.430347e-02 9.129228e-02 8.660119e-03 5.615039e-02 1.716259e-02 -1.163754e-01 -2.873039e-02 -5.057886e-02 -5.509452e-02 -3.916232e-02 -2.164320e-02 4.955832e-03 1.815740e-03 -1.020627e-02 1.228941e-03 -3.005901e-02 -1.959720e-02 -1.459445e-02 -9.199277e-03
<VARIANCE> 39
 4.086530e+00 8.993761e+00 5.551466e+00 8.895049e+00 1.017822e+01 1.061255e+01 1.218261e+01 1.300047e+01 1.107856e+01 1.282572e+01 1.102368e+01 1.130576e+01 3.634416e+00 2.647793e-01 4.458930e-01 5.237495e-01 7.674294e-01 1.054940e+00 1.152034e+00 1.335638e+00 1.420807e+00 1.293402e+00 1.283762e+00 1.083524e+00 1.176231e+00 6.550478e-02 4.552304e-02 7.604076e-02 1.010148e-01 1.536958e-01 2.172906e-01 2.493338e-01 2.690854e-01 2.804225e-01 2.779953e-01 2.454198e-01 2.007876e-01 2.592572e-01 1.084613e-02
<GCONST> 7.031690e+01
<STATE> 4
<MEAN> 39
 -1.374816e+01 -2.252953e+00 -9.932967e+00 -1.392501e+00 -8.804842e+00 -2.041890e-01 -7.760695e+00 -3.716552e+00 -5.173919e+00 -3.389007e+00 -2.942443e+00 -2.969690e+00 3.658562e+01 -3.734011e-02 1.698638e-02 -6.630249e-02 4.625628e-03 -4.222660e-02 3.931666e-02 -2.041704e-02 -1.133371e-02 -1.778758e-02 3.429842e-02 3.456964e-02 -1.130379e-04 -8.333719e-02 3.969928e-03 4.424480e-04 4.292053e-03 -3.172015e-03 -3.330897e-03 -1.382560e-02 -2.175452e-02 -1.383768e-02 -1.117208e-02 -7.946659e-03 -1.643667e-02 -6.155288e-03 2.861905e-03
<VARIANCE> 39
 2.093916e+00 7.092935e+00 7.444981e+00 1.073126e+01 1.238541e+01 1.565460e+01 1.149185e+01 1.615407e+01 1.421264e+01 1.389713e+01 1.340364e+01 1.257820e+01 3.634416e+00 1.335349e-01 2.917706e-01 4.564690e-01 6.671745e-01 8.407037e-01 1.052048e+00 1.239172e+00 1.352321e+00 1.320151e+00 1.502433e+00 1.351272e+00 1.182685e+00 3.868456e-02 2.573228e-02 5.760866e-02 8.852239e-02 1.313179e-01 1.778229e-01 2.231211e-01 2.639959e-01 2.704245e-01 2.588722e-01 3.198612e-01 2.951407e-01 2.490180e-01 6.691744e-03
<GCONST> 6.786759e+01
<TRANSP> 5
