~o
<STREAMINFO> 1 39
<VECSIZE> 39<NULLD><MFCC_D_A_0><DIAGC>
~h "a"
<BEGINHMM>
<NUMSTATES> 5
<STATE> 2
<MEAN> 39
 -7.236514e-01 -1.749114e+01 -5.764095e+00 -1.537714e+01 -1.362344e+00 1.304790e+01 -2.077942e+01 -4.433400e+00 -1.765155e+00 -8.379566e+00 -2.692033e-01 -8.634973e+00 7.904028e+01 3.100727e-01 -2.973574e-02 5.574089e-01 2.958959e-01 1.216090e-01 -2.936106e-01 -6.667896e-01 1.064921e-01 -3.591781e-01 2.585160e-02 3.338382e-01 -3.045612e-01 -2.299899e-01 -2.193990e-02 7.493152e-02 -2.794230e-02 1.345259e-02 -5.639853e-02 -1.181617e-01 7.857239e-02 8.646991e-02 8.514448e-02 -4.913444e-02 8.551348e-03 -3.740476e-02 -5.964461e-02
<VARIANCE> 39
 4.451957e+01 1.521625e+01 1.275832e+02 4.789492e+01 1.950107e+01 9.827341e+01 1.670108e+02 8.711626e+01 7.631313e+01 3.379993e+01 6.957985e+01 6.032702e+01 5.291260e+01 1.841103e+00 1.254768e+00 5.261784e+00 3.323476e+00 2.033957e+00 5.038594e+00 3.037290e+00 6.578423e+00 5.888310e+00 3.632197e+00 2.124087e+00 2.964702e+00 2.436332e+00 3.483207e-01 2.420238e-01 6.804482e-01 5.341931e-01 3.761997e-01 5.242128e-01 5.042169e-01 1.081474e+00 9.174978e-01 6.170486e-01 3.979084e-01 5.118305e-01 3.519157e-01
<GCONST> 1.301172e+02
<STATE> 3
<MEAN> 39
 1.155433e+00 -1.675396e+01 -1.353077e+00 -1.268304e+01 -1.464998e+00 7.875190e+00 -2.446149e+01 -1.703795e+00 -2.166201e+00 -9.508312e+00 2.087702e+00 -1.235069e+01 7.689213e+01 -5.538104e-02 4.000657e-01 -4.576044e-01 -5.637001e-02 -3.231799e-01 -5.221953e-01 1.063029e-01 9.595677e-01 1.010002e+00 -7.824127e-01 -1.444008e-03 -4.359256e-01 4.062625e-03 -7.197653e-02 5.698152e-02 -9.409259e-02 3.478045e-02 -1.967933e-03 -6.906515e-02 1.145958e-01 5.903733e-02 6.777723e-02 1.271660e-02 -1.514998e-01 1.071067e-01 -2.407694e-02
<VARIANCE> 39
 2.660067e+01 1.852999e+01 1.336470e+02 3.932737e+01 2.055051e+01 6.899612e+01 1.237543e+02 7.577078e+01 1.148664e+02 7.654290e+01 7.489293e+01 5.496116e+01 4.749528e+01 1.578258e+00 1.499368e+00 8.846994e+00 3.660053e+00 2.243806e+00 3.427211e+00 3.285755e+00 6.092609e+00 1.257932e+01 7.653855e+00 2.841893e+00 2.957523e+00 3.152093e+00 2.232246e-01 2.599420e-01 1.050795e+00 5.771576e-01 4.102364e-01 4.690725e-01 4.554613e-01 9.671540e-01 1.598063e+00 1.092902e+00 5.160869e-01 4.982572e-01 2.940354e-01
<GCONST> 1.334928e+02
<STATE> 4
<MEAN> 39
 -5.352898e-01 -1.340298e+01 -5.489309e+00 -1.292628e+01 -4.019210e+00 4.099814e+00 -1.655690e+01 1.780720e+00 1.185670e+00 -8.210615e+00 -1.790223e+00 -1.175197e+01 7.468040e+01 -1.157748e-01 4.475051e-01 -2.568769e-01 5.717089e-01 -1.418402e-01 -3.632106e-01 4.619136e-01 8.381038e-03 3.764600e-01 -1.368626e-01 -4.645431e-01 1.970242e-01 -9.475262e-01 -8.761261e-02 -1.028577e-01 5.124234e-02 9.456143e-02 8.452804e-02 7.561451e-02 3.065230e-02 -2.481010e-01 -1.737642e-01 8.252674e-02 -3.254329e-02 9.874717e-02 -1.304645e-01
<VARIANCE> 39
 6.097544e+01 3.272854e+01 3.765673e+01 3.050610e+01 3.225576e+01 7.129524e+01 1.081395e+02 7.993708e+01 7.797118e+01 1.186081e+02 5.818135e+01 5.094332e+01 7.491825e+01 4.110075e+00 2.235824e+00 3.741613e+00 3.076390e+00 2.164215e+00 5.416213e+00 4.079194e+00 7.345251e+00 4.932592e+00 4.601863e+00 2.965620e+00 3.903068e+00 5.001630e+00 5.782452e-01 4.033305e-01 7.183138e-01 5.503938e-01 4.358783e-01 9.843771e-01 6.411940e-01 1.171141e+00 9.326264e-01 8.584978e-01 4.864331e-01 6.816502e-01 4.220866e-01
<GCONST> 1.365690e+02
<TRANSP> 5
 0.000000e+00 1.000000e+00 0.000000e+00 0.000000e+00 0.000000e+00
 0.000000e+00 8.901748e-01 1.098252e-01 0.000000e+00 0.000000e+00
 0.000000e+00 0.000000e+00 8.075339e-01 1.924661e-01 0.000000e+00
 0.000000e+00 0.000000e+00 0.000000e+00 8.095834e-01 1.904166e-01
 0.000000e+00 0.000000e+00 0.000000e+00 0.000000e+00 0.000000e+00
<ENDHMM>
~h "b"
<BEGINHMM>
<NUMSTATES> 5
<STATE> 2
<MEAN> 39
 6.503921e-01 -7.455378e+00 4.803464e+00 -2.457901e+00 -1.087996e+01 -4.533715e+00 -1.591394e+01 -6.696323e+00 -2.073526e+00 -1.383513e+01 2.187045e-01 -1.445234e+01 6.727708e+01 -1.754171e-01 2.852005e-01 8.715822e-01 -1.155053e-01 -4.511940e-01 -2.109534e-01 3.953949e-01 -6.152747e-01 -7.797139e-01 3.788750e-01 4.921815e-01 3.476861e-01 2.038621e-01 -9.936573e-02 1.934769e-02 -1.115377e-02 -1.639275e-01 -1.994736e-02 8.736464e-02 1.474821e-02 -8.611669e-02 4.753712e-02 -6.398709e-03 -2.627303e-02 4.374034e-02 1.948339e-01
<VARIANCE> 39
 4.213431e+01 3.054328e+01 7.415434e+01 5.395776e+01 4.854313e+01 2.608129e+01 5.172025e+01 3.396842e+01 8.824949e+01 5.128185e+01 6.038069e+01 5.780223e+01 1.403924e+02 2.512851e+00 2.247818e+00 7.086998e+00 5.465390e+00 6.779277e+00 3.828834e+00 3.695392e+00 3.417946e+00 8.214818e+00 5.224057e+00 7.659739e+00 3.451925e+00 1.652497e+01 2.522887e-01 3.853296e-01 1.164274e+00 6.241218e-01 1.235543e+00 6.652223e-01 7.555330e-01 5.968161e-01 1.180149e+00 1.095838e+00 1.347588e+00 5.498107e-01 2.365337e+00
<GCONST> 1.414612e+02
<STATE> 3
<MEAN> 39
 -7.126539e+00 -3.584523e+00 1.165777e+01 -1.069714e+01 -1.636234e+01 -4.019361e+00 -1.246310e+01 -1.385837e+01 -4.060779e+00 -1.414076e+01 6.210430e+00 -9.244425e+00 7.352200e+01 -1.994568e-01 1.674298e-01 2.388355e-01 -6.821208e-01 -1.594122e-01 5.933462e-01 -1.064207e-01 -4.462547e-01 1.342609e-01 -1.651308e-01 1.184331e-01 -2.400286e-01 6.137512e-01 1.020540e-02 8.852564e-03 -2.580230e-01 1.814323e-01 2.367367e-01 1.194759e-01 1.157987e-01 1.956156e-01 -6.452348e-02 1.363481e-01 -2.932438e-01 4.692871e-02 -2.996516e-01
<VARIANCE> 39
 2.872997e+01 2.520857e+01 1.078760e+02 3.187979e+01 4.868127e+01 4.506248e+01 2.603562e+01 3.885688e+01 3.887132e+01 3.816578e+01 4.563216e+01 2.959454e+01 1.160811e+02 2.253988e+00 1.898736e+00 4.298087e+00 2.926479e+00 4.569882e+00 3.701088e+00 3.415990e+00 2.823987e+00 2.619150e+00 2.637220e+00 3.709846e+00 3.475444e+00 1.007420e+01 3.306909e-01 2.574117e-01 6.641493e-01 3.993098e-01 9.747428e-01 5.288599e-01 7.156629e-01 4.360383e-01 4.057410e-01 4.424601e-01 7.092179e-01 7.541944e-01 1.463265e+00
<GCONST> 1.285819e+02
<STATE> 4
<MEAN> 39
 -6.371015e+00 -5.348272e+00 9.510713e+00 -1.140692e+01 -1.595679e+01 5.974194e-01 -1.195649e+01 -1.182950e+01 -3.677833e+00 -1.468602e+01 7.126121e+00 -1.045939e+01 7.547977e+01 -7.966444e-02 -1.453107e-01 -5.111848e-01 4.238665e-01 5.006387e-01 2.310243e-02 4.725302e-01 6.835583e-01 -2.639932e-01 3.703784e-01 -5.381597e-01 3.326983e-01 -5.915471e-01 -1.273597e-01 3.184918e-03 -1.227467e-01 6.883094e-02 1.093196e-01 -4.991816e-02 1.170079e-02 5.084237e-02 2.408732e-02 2.167763e-02 -9.822178e-02 1.040263e-01 -1.487027e-01
<VARIANCE> 39
 4.227417e+01 5.170797e+01 1.545071e+02 4.074868e+01 5.128556e+01 1.066941e+02 5.744588e+01 6.936098e+01 4.286468e+01 4.566840e+01 4.015423e+01 2.614075e+01 2.869769e+01 2.419580e+00 1.174773e+00 2.757596e+00 2.109910e+00 3.568871e+00 3.128126e+00 2.683639e+00 3.985642e+00 1.877040e+00 2.085781e+00 2.492202e+00 2.998728e+00 1.721443e+00 4.225937e-01 2.134450e-01 2.806807e-01 3.347522e-01 5.614753e-01 4.638383e-01 4.320197e-01 7.099540e-01 3.441490e-01 3.299362e-01 3.801527e-01 5.638304e-01 2.143649e-01
<GCONST> 1.218586e+02
<TRANSP> 5
 0.000000e+00 1.000000e+00 0.000000e+00 0.000000e+00 0.000000e+00
 0.000000e+00 9.345234e-01 6.547654e-02 0.000000e+00 0.000000e+00
 0.000000e+00 0.000000e+00 8.169451e-01 1.830550e-01 0.000000e+00
 0.000000e+00 0.000000e+00 0.000000e+00 9.252364e-01 7.476358e-02
 0.000000e+00 0.000000e+00 0.000000e+00 0.000000e+00 0.000000e+00
<ENDHMM>
~h "d"
<BEGINHMM>
<NUMSTATES> 5
<STATE> 2
<MEAN> 39
 -7.138233e+00 -5.774033e+00 -7.631011e+00 -1.145725e+01 -9.190267e+00 -3.576224e-01 -8.745929e+00 -4.287991e+00 4.396896e-01 -4.802526e+00 -1.221969e+00 -7.344207e+00 6.536502e+01 1.188834e-01 4.140026e-02 -3.440879e-01 -4.715980e-01 6.854620e-01 7.749177e-01 4.088515e-01 -1.997280e-01 -2.312062e-01 2.267673e-01 1.665779e-01 7.617930e-02 5.987740e-01 7.937301e-02 6.793369e-02 1.703309e-01 -2.632473e-02 -2.729494e-02 -1.289019e-01 3.375019e-02 5.378397e-02 -2.655766e-02 -1.667641e-01 1.561073e-01 5.596528e-02 2.133072e-01
<VARIANCE> 39
 3.663003e+01 4.179046e+01 4.562146e+01 1.118649e+02 3.510605e+01 6.920956e+01 6.783965e+01 2.447744e+01 6.862054e+01 7.112559e+01 7.167042e+01 2.787326e+01 4.847888e+02 2.870493e+00 2.413691e+00 2.807316e+00 3.044718e+00 3.177213e+00 4.899359e+00 4.549043e+00 2.946905e+00 4.442292e+00 3.971807e+00 3.787381e+00 2.257171e+00 6.578539e+00 5.633455e-01 4.497685e-01 4.872443e-01 4.860220e-01 6.647801e-01 7.273625e-01 8.418709e-01 5.899895e-01 7.421122e-01 5.816224e-01 6.205347e-01 4.375507e-01 1.275837e+00
<GCONST> 1.352173e+02
<STATE> 3
<MEAN> 39
 -6.290502e+00 -6.731496e+00 -8.871978e+00 -1.461266e+01 -7.791371e+00 2.475066e+00 -8.246264e+00 -4.661181e+00 5.044909e-01 -5.022744e+00 -1.595868e-01 -7.540537e+00 6.971513e+01 3.800760e-01 7.644203e-02 -6.812327e-02 -6.656054e-01 3.972990e-01 5.616856e-01 7.901932e-02 4.881938e-02 -5.769837e-02 -3.877200e-01 5.888333e-01 4.585815e-02 1.043164e+00 1.337856e-01 4.779970e-03 1.137805e-01 7.827527e-03 -1.155901e-01 -3.634234e-02 -1.550223e-01 8.822724e-02 5.747166e-02 -1.599763e-01 8.450815e-02 -5.989053e-02 6.340323e-02
<VARIANCE> 39
 4.393134e+01 3.696497e+01 3.268359e+01 1.160516e+02 2.807790e+01 9.245367e+01 9.957876e+01 2.401397e+01 6.593623e+01 7.203951e+01 7.532780e+01 2.882653e+01 4.142024e+02 4.007492e+00 2.463330e+00 2.478577e+00 3.201267e+00 3.420493e+00 6.052682e+00 5.314641e+00 2.909863e+00 4.995321e+00 4.427290e+00 3.392256e+00 2.364191e+00 1.156966e+01 6.523433e-01 3.479401e-01 3.885033e-01 4.657366e-01 6.677448e-01 9.156032e-01 8.678499e-01 5.603994e-01 7.949991e-01 5.892295e-01 5.084184e-01 4.818179e-01 1.376077e+00
<GCONST> 1.366327e+02
<STATE> 4
<MEAN> 39
 -3.006185e+00 -7.130250e+00 -9.052073e+00 -1.591297e+01 -7.129011e+00 7.133899e+00 -1.198481e+01 -3.594178e+00 1.092973e-01 -9.939827e+00 3.837167e+00 -8.896730e+00 7.090089e+01 2.383290e-01 -7.626484e-02 -8.103801e-03 6.813908e-02 3.773171e-02 2.473822e-01 -1.255933e-01 1.494030e-02 5.542022e-02 -3.326685e-01 1.078686e-01 -8.689420e-02 2.310962e-01 -4.663222e-02 -2.166771e-02 -1.079271e-02 6.447162e-02 -5.510153e-03 -1.246225e-02 2.737085e-02 -4.272086e-02 -7.714958e-03 3.053853e-02 -6.703696e-02 4.905198e-03 -7.572652e-02
<VARIANCE> 39
 6.087457e+01 3.453029e+01 2.703744e+01 9.011572e+01 3.407704e+01 1.320161e+02 1.014335e+02 3.159175e+01 4.967698e+01 1.050321e+02 1.286838e+02 3.487817e+01 2.262858e+02 4.704424e+00 2.295474e+00 2.361247e+00 4.441404e+00 3.030892e+00 7.610910e+00 5.088440e+00 2.903017e+00 3.268774e+00 3.943835e+00 3.644983e+00 2.264357e+00 1.081028e+01 7.893144e-01 3.767339e-01 4.237681e-01 6.398507e-01 5.862210e-01 1.218187e+00 9.143577e-01 5.424801e-01 5.696272e-01 5.611331e-01 4.831929e-01 4.200694e-01 1.138263e+00
<GCONST> 1.374478e+02
<TRANSP> 5
 0.000000e+00 1.000000e+00 0.000000e+00 0.000000e+00 0.000000e+00
 0.000000e+00 7.229608e-01 2.770392e-01 0.000000e+00 0.000000e+00
 0.000000e+00 0.000000e+00 7.106361e-01 2.893638e-01 0.000000e+00
 0.000000e+00 0.000000e+00 0.000000e+00 9.459853e-01 5.401468e-02
 0.000000e+00 0.000000e+00 0.000000e+00 0.000000e+00 0.000000e+00
<ENDHMM>
~h "f"
<BEGINHMM>
<NUMSTATES> 5
<STATE> 2
<MEAN> 39
 -2.165622e+00 -1.115494e+01 -4.307994e+00 -1.084982e+01 -7.341438e+00 3.123446e+00 -1.303831e+01 -4.903999e+00 -4.304959e-01 -1.065621e+01 1.256892e+00 -6.739290e+00 7.317834e+01 1.530301e+00 -2.896069e-01 1.030710e-01 -8.436499e-01 -3.615581e-01 1.105547e+00 -1.003618e+00 1.052424e-01 7.989655e-02 -6.106505e-02 6.304593e-01 -5.087317e-01 7.169421e-01 -2.292192e-02 1.854072e-02 5.600401e-02 6.264777e-02 -9.938563e-02 3.480612e-02 -6.274697e-03 -3.867029e-02 -6.148820e-02 -1.313953e-02 -7.474153e-02 1.645926e-02 -5.264892e-02
<VARIANCE> 39
 1.194908e+02 3.590572e+01 5.846147e+01 1.304280e+02 5.674348e+01 1.310718e+02 9.644231e+01 5.959019e+01 4.832238e+01 6.256858e+01 6.801477e+01 5.387704e+01 8.297888e+01 9.948605e+00 2.272266e+00 3.354236e+00 8.434799e+00 3.898701e+00 8.224602e+00 5.758011e+00 5.158160e+00 4.095027e+00 5.098677e+00 5.913354e+00 4.093884e+00 5.436282e+00 1.708473e+00 3.711103e-01 4.654275e-01 1.287391e+00 6.726388e-01 1.149125e+00 1.000620e+00 8.888053e-01 6.089658e-01 8.579449e-01 1.006693e+00 6.869592e-01 6.473130e-01
<GCONST> 1.456332e+02
<STATE> 3
<MEAN> 39
 1.963571e+00 -1.328013e+01 -3.702656e+00 -1.545634e+01 -9.023568e+00 9.533876e+00 -1.707109e+01 -3.751050e+00 -3.941183e-01 -1.095933e+01 4.054309e+00 -1.003477e+01 7.619202e+01 2.503566e-01 1.669341e-02 3.868158e-01 4.178772e-01 -1.019337e-01 1.953221e-01 -2.937988e-01 -9.580335e-02 1.664439e-01 -2.871822e-01 -2.674839e-01 3.462081e-02 -3.419376e-01 -1.722176e-01 6.909715e-02 -2.319185e-02 1.740930e-01 9.456468e-02 -2.441911e-01 1.056279e-01 -1.268611e-03 3.287233e-02 1.267474e-02 -1.440418e-01 1.338495e-01 -1.200753e-01
<VARIANCE> 39
 4.349204e+01 5.052831e+01 6.694943e+01 9.524172e+01 6.855779e+01 1.219162e+02 1.024894e+02 6.921698e+01 7.502014e+01 6.999977e+01 6.446632e+01 5.280819e+01 5.992307e+01 3.003084e+00 1.547060e+00 4.464964e+00 5.953447e+00 2.851745e+00 5.400749e+00 3.965063e+00 5.053372e+00 6.138347e+00 6.008045e+00 4.928482e+00 3.126060e+00 2.820790e+00 5.919681e-01 2.560147e-01 5.047448e-01 8.123141e-01 4.127734e-01 5.740374e-01 6.187590e-01 8.149130e-01 8.061430e-01 8.584713e-01 8.195938e-01 5.365395e-01 3.136264e-01
<GCONST> 1.374983e+02
<STATE> 4
<MEAN> 39
 1.082786e+00 -1.292112e+01 -4.453117e+00 -1.245724e+01 -7.208946e+00 6.852000e+00 -1.806381e+01 -1.556420e+00 5.052450e+00 -1.521452e+01 1.930954e+00 -1.226153e+01 7.529914e+01 -8.961000e-02 2.391641e-01 1.671780e-01 6.378351e-01 1.650012e-01 -3.552250e-01 1.223122e-02 1.663110e-01 -1.396179e-01 1.162960e-01 -3.594553e-01 1.940202e-01 -6.240214e-01 -3.391104e-02 3.125311e-02 -5.562940e-02 -7.347274e-04 2.165443e-02 -7.974866e-02 3.072454e-02 7.185319e-02 -6.152979e-02 5.354013e-02 1.613908e-02 -4.255528e-03 -2.866335e-02
<VARIANCE> 39
 4.460762e+01 4.373151e+01 4.630341e+01 7.208200e+01 6.855652e+01 1.014563e+02 7.912861e+01 7.214983e+01 9.502984e+01 8.145183e+01 4.962524e+01 5.641145e+01 6.957925e+01 1.810146e+00 1.277810e+00 1.876024e+00 1.903265e+00 1.529616e+00 2.005892e+00 2.191278e+00 2.356263e+00 2.911377e+00 3.304700e+00 3.148679e+00 2.472463e+00 1.353501e+00 2.730431e-01 2.332081e-01 3.099791e-01 3.678024e-01 2.560986e-01 2.655133e-01 2.950204e-01 3.734182e-01 4.235860e-01 4.438865e-01 4.630938e-01 3.814821e-01 1.327413e-01
<GCONST> 1.202464e+02
<TRANSP> 5
 0.000000e+00 1.000000e+00 0.000000e+00 0.000000e+00 0.000000e+00
 0.000000e+00 8.542548e-01 1.457452e-01 0.000000e+00 0.000000e+00
 0.000000e+00 0.000000e+00 6.786241e-01 3.213758e-01 0.000000e+00
 0.000000e+00 0.000000e+00 0.000000e+00 8.049557e-01 1.950442e-01
 0.000000e+00 0.000000e+00 0.000000e+00 0.000000e+00 0.000000e+00
<ENDHMM>
~h "g"
<BEGINHMM>
<NUMSTATES> 5
<STATE> 2
<MEAN> 39
 -1.399414e+01 -3.756824e+00 -1.198810e+01 -3.641067e+00 -9.421842e+00 -2.994990e+00 -8.219126e+00 -3.841016e+00 -6.414906e+00 -4.106343e+00 -4.062586e+00 -4.407970e+00 3.774487e+01 1.229306e-02 1.229677e-02 2.502719e-02 1.283377e-01 1.272624e-01 1.294843e-01 -1.456010e-01 1.955841e-02 1.755664e-02 -1.988578e-01 2.142908e-01 5.008525e-02 9.219454e-02 9.143100e-02 1.940609e-01 1.467673e-01 8.760273e-02 1.458286e-01 9.016210e-02 -1.120803e-02 6.497954e-02 2.069448e-01 6.138271e-02 1.876278e-01 1.222295e-01 1.113610e-01
<VARIANCE> 39
 3.915509e+00 9.373147e+00 1.079920e+01 1.090573e+01 8.737520e+00 1.051034e+01 1.270524e+01 1.476434e+01 2.455818e+01 1.496304e+01 2.203340e+01 1.675713e+01 4.971601e+00 3.628699e-01 5.281856e-01 7.592042e-01 7.905275e-01 1.212263e+00 1.523495e+00 2.308473e+00 3.261530e+00 2.449120e+00 1.431061e+00 3.152593e+00 1.404297e+00 2.015047e-01 1.317132e-01 1.967595e-01 1.976124e-01 2.271776e-01 2.305443e-01 2.904342e-01 4.852819e-01 3.249370e-01 5.466194e-01 2.640988e-01 3.491359e-01 3.307738e-01 6.148021e-02
<GCONST> 8.664412e+01
<STATE> 3
<MEAN> 39
 -1.387159e+01 -3.313819e+00 -1.128095e+01 -3.160758e+00 -9.165919e+00 -2.154927e+00 -8.097043e+00 -3.463600e+00 -5.262557e+00 -5.394317e+00 -3.960022e+00 -3.791085e+00 3.790203e+01 2.942242e-02 1.285650e-01 1.128754e-01 1.509864e-01 2.887024e-01 1.433588e-01 -1.070382e-01 1.355767e-01 1.009522e-01 -6.392507e-02 3.056874e-01 6.898919e-02 1.558148e-01 2.846804e-01 2.462569e-01 -1.428149e-02 -1.672469e-01 2.414107e-01 6.883785e-03 1.676044e-01 1.339063e-01 -5.336553e-03 2.797661e-01 -2.584216e-03 8.218846e-02 2.630199e-01
<VARIANCE> 39
 7.454614e+00 1.411223e+01 9.744875e+00 9.287622e+00 9.785123e+00 1.170058e+01 1.404250e+01 2.736329e+01 3.278039e+01 1.349409e+01 2.251233e+01 1.251525e+01 7.666602e+00 1.043108e+00 1.255777e+00 1.335463e+00 1.171820e+00 1.314175e+00 2.024573e+00 2.227594e+00 2.779519e+00 3.891992e+00 1.713955e+00 2.054879e+00 1.438662e+00 4.853594e-01 3.378274e-01 3.238904e-01 3.309464e-01 4.319220e-01 3.721129e-01 3.364423e-01 4.960294e-01 5.408134e-01 9.088390e-01 3.284318e-01 4.443356e-01 3.479481e-01 1.870651e-01
<GCONST> 9.877488e+01
<STATE> 4
<MEAN> 39
 -1.246816e+01 -5.455985e+00 -1.135227e+01 -4.150059e+00 -7.168756e+00 -1.590769e+00 -9.248538e+00 -1.201322e+00 -3.711687e+00 -4.623229e+00 -2.047804e+00 -3.700520e+00 4.096386e+01 8.466367e-02 3.398801e-01 1.523419e-01 1.876943e-01 1.041000e-01 -4.247084e-02 -6.611883e-02 -1.185828e-01 2.275608e-01 2.268923e-01 -4.672888e-02 1.480706e-01 -3.945798e-03 2.937590e-01 1.349099e-01 -1.417996e-01 -3.492496e-01 1.968557e-01 -4.135726e-02 1.654924e-01 1.317087e-01 -1.444041e-01 2.207028e-01 -1.143103e-01 2.612318e-02 3.218418e-01
<VARIANCE> 39
 1.609263e+01 5.191097e+01 2.402988e+01 2.193406e+01 1.705996e+01 2.637254e+01 3.276097e+01 4.511905e+01 4.246952e+01 2.493055e+01 4.030493e+01 1.146234e+01 2.561935e+01 1.882074e+00 2.148956e+00 2.014735e+00 1.704527e+00 2.315808e+00 2.837995e+00 2.215126e+00 2.427989e+00 2.236827e+00 1.724470e+00 2.757951e+00 1.461644e+00 9.385542e-01 5.684783e-01 4.389789e-01 5.469870e-01 7.982482e-01 6.642717e-01 5.356730e-01 5.701648e-01 6.760884e-01 5.396733e-01 5.849150e-01 5.529581e-01 2.833756e-01 5.338976e-01
<GCONST> 1.154634e+02
<TRANSP> 5
 0.000000e+00 1.000000e+00 0.000000e+00 0.000000e+00 0.000000e+00
 0.000000e+00 1.303540e-01 8.696460e-01 0.000000e+00 0.000000e+00
 0.000000e+00 0.000000e+00 3.805994e-01 6.194006e-01 0.000000e+00
 0.000000e+00 0.000000e+00 0.000000e+00 6.532877e-01 3.467122e-01
 0.000000e+00 0.000000e+00 0.000000e+00 0.000000e+00 0.000000e+00
<ENDHMM>
~h "i"
<BEGINHMM>
<NUMSTATES> 5
<STATE> 2
<MEAN> 39
 -4.035380e+00 -8.699586e+00 -7.393652e+00 -9.310459e+00 -6.332303e+00 3.837262e+00 -7.670609e+00 -2.311723e+00 -1.423807e+00 -8.914232e+00 -1.835566e+00 -6.342347e+00 6.225900e+01 -1.303426e+00 2.143967e-01 -6.558306e-01 3.571784e-01 4.080382e-01 -1.662819e-01 3.162816e-01 -6.913456e-01 -2.221451e-01 9.237018e-02 -6.949454e-01 4.464558e-01 -1.422236e+00 3.063894e-02 -1.099211e-01 5.168433e-02 -1.137852e-01 -3.026914e-01 -1.637425e-01 -3.149041e-01 -8.532649e-02 -1.133809e-01 -3.529418e-02 2.182355e-01 -1.309833e-01 6.458667e-02
<VARIANCE> 39
 6.993093e+01 4.362144e+01 1.090087e+02 1.297415e+02 5.291632e+01 1.708152e+02 7.889980e+01 5.542965e+01 4.902453e+01 3.462037e+01 3.353207e+01 3.327303e+01 1.708452e+02 3.772422e+00 1.806203e+00 3.394135e+00 3.373428e+00 2.990271e+00 4.840230e+00 4.424850e+00 3.062982e+00 2.328679e+00 3.327847e+00 3.576176e+00 2.286235e+00 2.348303e+00 4.012058e-01 3.068669e-01 4.307000e-01 6.922293e-01 5.727174e-01 7.975010e-01 9.293862e-01 5.233840e-01 4.075538e-01 5.453552e-01 5.482448e-01 4.641718e-01 3.692065e-01
<GCONST> 1.323051e+02
<STATE> 3
<MEAN> 39
 -6.223379e+00 -8.123627e+00 -7.839986e+00 -8.037148e+00 -6.243883e+00 2.322061e+00 -7.865226e+00 -3.394799e+00 -2.333035e+00 -8.660151e+00 -2.677746e+00 -5.381758e+00 5.975610e+01 -1.076615e+00 -3.339533e-02 -5.062022e-01 3.150006e-01 -8.226614e-04 -4.145352e-01 -6.210358e-02 -5.883299e-01 -3.572578e-01 2.483551e-01 -4.941467e-01 2.355306e-01 -1.197887e+00 1.135900e-01 -1.325819e-01 5.479497e-02 -7.221308e-02 -1.484619e-01 -8.898601e-02 -1.075704e-01 1.068633e-01 -1.507902e-02 2.712175e-02 1.680661e-01 -1.226945e-01 1.393179e-01
<VARIANCE> 39
 8.802978e+01 3.984121e+01 1.026276e+02 1.078693e+02 4.990816e+01 1.640519e+02 7.448519e+01 5.172211e+01 4.370187e+01 2.808532e+01 3.080935e+01 2.669667e+01 1.687254e+02 2.423429e+00 1.592526e+00 2.961855e+00 3.120531e+00 2.617383e+00 3.835565e+00 3.383288e+00 2.721091e+00 1.965845e+00 2.714440e+00 2.434468e+00 1.880229e+00 1.435477e+00 3.441643e-01 2.644456e-01 3.732847e-01 6.047270e-01 4.710017e-01 7.162683e-01 7.737888e-01 4.688802e-01 3.780332e-01 4.716179e-01 4.447790e-01 3.713019e-01 2.854994e-01
<GCONST> 1.262653e+02
<STATE> 4
<MEAN> 39
 -7.606586e+00 -8.016443e+00 -6.761617e+00 -6.523940e+00 -7.086269e+00 1.407140e+00 -7.921885e+00 -4.286598e+00 -3.989985e+00 -8.840684e+00 -2.890984e+00 -4.887711e+00 5.870556e+01 -8.499805e-01 -1.245757e-01 -3.306117e-01 3.167983e-01 1.459597e-01 -4.500215e-01 1.084680e-01 -8.333032e-02 -1.310376e-01 2.775293e-01 -3.202228e-01 9.745310e-02 -8.395010e-01 1.751840e-01 -3.562691e-02 5.256207e-02 -9.925891e-02 2.050650e-02 4.286653e-03 -4.802211e-02 1.389429e-01 1.244735e-01 3.276415e-02 1.333446e-01 -7.340533e-02 2.013378e-01
<VARIANCE> 39
 1.210727e+02 3.631870e+01 9.233174e+01 7.755911e+01 4.164075e+01 1.491017e+02 6.714730e+01 4.137159e+01 3.790356e+01 3.069253e+01 3.163060e+01 2.278731e+01 1.721069e+02 1.649086e+00 1.961457e+00 2.707393e+00 2.591209e+00 2.335241e+00 3.079975e+00 2.580787e+00 2.473248e+00 1.802711e+00 2.025208e+00 2.100047e+00 1.687463e+00 1.275360e+00 4.108995e-01 2.650545e-01 3.087534e-01 3.893963e-01 4.055052e-01 5.168831e-01 5.332204e-01 4.283168e-01 3.456957e-01 4.018311e-01 3.972671e-01 3.241225e-01 1.833988e-01
<GCONST> 1.210505e+02
<TRANSP> 5
 0.000000e+00 1.000000e+00 0.000000e+00 0.000000e+00 0.000000e+00
 0.000000e+00 4.276841e-01 5.723159e-01 0.000000e+00 0.000000e+00
 0.000000e+00 0.000000e+00 4.148632e-01 5.851368e-01 0.000000e+00
 0.000000e+00 0.000000e+00 0.000000e+00 6.132268e-01 3.867732e-01
 0.000000e+00 0.000000e+00 0.000000e+00 0.000000e+00 0.000000e+00
<ENDHMM>
~h "j"
<BEGINHMM>
<NUMSTATES> 5
<STATE> 2
<MEAN> 39
 -1.054137e+00 -4.824911e+00 -1.513381e+00 -1.236528e+01 -1.174651e+01 -1.191859e+00 -9.938642e+00 -8.120821e+00 -2.556649e+00 -1.072733e+01 5.651864e+00 -8.784963e+00 7.268805e+01 3.963453e-01 -1.911923e-01 -9.904224e-02 -1.457691e-01 -2.139659e-01 1.906785e-01 -2.233997e-01 3.946377e-02 5.869555e-02 -8.177435e-02 1.512114e-01 -1.366323e-01 3.129178e-01 -4.851510e-02 -3.802088e-03 -7.529448e-03 -2.326232e-02 -3.318451e-03 8.740890e-02 4.342887e-02 2.037308e-02 -6.186943e-03 2.904982e-02 -7.070746e-02 3.247863e-02 -4.772403e-03
<VARIANCE> 39
 1.030694e+02 4.083157e+01 2.955208e+01 1.381820e+02 6.258944e+01 4.936397e+01 6.026419e+01 5.664542e+01 3.800047e+01 3.992673e+01 9.405334e+01 6.330193e+01 5.303035e+01 7.346038e+00 1.780627e+00 2.250233e+00 9.357183e+00 4.020942e+00 4.377648e+00 7.434395e+00 5.572030e+00 4.782178e+00 4.261741e+00 9.425879e+00 7.530052e+00 3.106508e+00 8.465043e-01 2.334020e-01 3.957590e-01 1.133650e+00 6.838854e-01 7.367116e-01 1.522211e+00 8.857152e-01 9.087371e-01 7.590386e-01 1.711167e+00 1.427427e+00 3.354042e-01
<GCONST> 1.417355e+02
<STATE> 3
<MEAN> 39
 -1.892441e+00 -8.954351e+00 -3.449221e+00 -1.014635e+01 -1.224680e+01 3.859072e-01 -1.250415e+01 -5.370588e+00 -4.613311e-01 -9.452048e+00 1.595263e+00 -7.258121e+00 7.456152e+01 3.008628e-01 -2.782158e-01 -1.715480e-01 -2.227999e-01 -1.332448e-02 7.571479e-01 -4.296715e-01 1.402148e-01 3.280230e-01 1.396052e-01 -1.611269e-01 -4.876282e-03 3.092236e-01 2.507604e-02 3.034045e-02 1.138053e-02 7.077207e-02 -2.745948e-02 6.855071e-02 -3.943145e-04 3.751527e-02 -3.212487e-02 -1.249192e-01 1.654371e-02 6.723029e-02 -1.036747e-01
<VARIANCE> 39
 7.374306e+01 5.533070e+01 3.109889e+01 1.186728e+02 5.320087e+01 5.929054e+01 6.673124e+01 5.066308e+01 4.418066e+01 5.833691e+01 5.885056e+01 5.524304e+01 6.847320e+01 5.820344e+00 1.446227e+00 2.100512e+00 6.703875e+00 5.254541e+00 6.458748e+00 5.944792e+00 3.269667e+00 4.788914e+00 5.158178e+00 6.512124e+00 4.458841e+00 3.356770e+00 8.716549e-01 2.007946e-01 3.566993e-01 7.532755e-01 7.187890e-01 9.921292e-01 9.097829e-01 5.495268e-01 7.900252e-01 8.499932e-01 1.252590e+00 7.474934e-01 3.780434e-01
<GCONST> 1.380830e+02
<STATE> 4
<MEAN> 39
 4.010295e+00 -9.591198e+00 -4.524252e-01 -3.308297e+00 -1.483961e+01 1.909527e+00 -1.748635e+01 -7.621224e+00 1.356893e+00 -1.191807e+01 2.071262e+00 -3.534927e+00 7.328136e+01 2.150950e-01 2.041513e-01 -6.882338e-02 -7.125607e-01 -1.823170e-01 8.408162e-01 -9.736192e-02 5.218302e-02 -3.497509e-02 -3.625975e-01 2.225787e-01 3.161393e-01 -1.540715e-01 8.389121e-05 3.368740e-02 -1.859067e-02 -6.564426e-02 -1.354665e-02 4.703820e-02 -8.374762e-03 3.083891e-02 9.417465e-03 -4.955579e-02 -1.208257e-02 1.855724e-02 -5.037889e-02
<VARIANCE> 39
 1.816882e+01 2.905223e+01 3.104874e+01 1.840739e+02 6.480296e+01 8.244818e+01 6.017065e+01 6.414571e+01 4.158115e+01 6.275436e+01 8.497372e+01 5.420681e+01 6.754702e+01 1.755313e+00 1.483130e+00 1.864542e+00 5.763704e+00 6.888742e+00 6.895211e+00 5.610176e+00 5.354660e+00 3.571013e+00 5.247265e+00 6.099261e+00 4.344097e+00 3.622739e+00 3.314330e-01 2.111842e-01 2.569149e-01 4.295322e-01 1.222497e+00 8.998374e-01 8.733153e-01 8.434234e-01 6.017824e-01 7.279990e-01 9.132443e-01 5.794272e-01 4.471571e-01
<GCONST> 1.347026e+02
<TRANSP> 5
 0.000000e+00 1.000000e+00 0.000000e+00 0.000000e+00 0.000000e+00
 0.000000e+00 9.707908e-01 2.920924e-02 0.000000e+00 0.000000e+00
 0.000000e+00 0.000000e+00 8.790733e-01 1.209267e-01 0.000000e+00
 0.000000e+00 0.000000e+00 0.000000e+00 9.384056e-01 6.159442e-02
 0.000000e+00 0.000000e+00 0.000000e+00 0.000000e+00 0.000000e+00
<ENDHMM>
~h "k"
<BEGINHMM>
<NUMSTATES> 5
<STATE> 2
<MEAN> 39
 -1.189347e+01 -6.170123e+00 -1.108515e+01 -5.168881e+00 -6.160581e+00 -3.006866e-01 -9.133086e+00 -3.873076e+00 -5.151923e+00 -4.256886e+00 -5.731547e+00 -4.321077e+00 4.435141e+01 -2.424877e-01 -1.861797e-02 -2.223943e-01 1.520689e-02 6.683736e-02 3.052639e-01 -2.291514e-02 -2.176289e-01 1.722315e-01 -2.611402e-02 5.788882e-02 -2.339121e-01 -2.831719e-01 5.341217e-02 -2.352597e-01 2.987683e-02 -6.613448e-02 2.311485e-01 -5.407163e-01 1.366858e-01 2.523500e-01 3.592756e-02 1.234331e-01 -4.379174e-02 8.033813e-02 4.540904e-01
<VARIANCE> 39
 2.370426e+01 3.188877e+01 1.573854e+01 3.401145e+01 3.196582e+01 6.133477e+01 1.897200e+01 3.007436e+01 2.101145e+01 2.157876e+01 2.263465e+01 2.876890e+01 2.052173e+02 1.174680e+00 1.000598e+00 2.086788e+00 2.313494e+00 2.793936e+00 2.966633e+00 2.259977e+00 2.199249e+00 1.760013e+00 2.319824e+00 1.743462e+00 1.974899e+00 1.137733e+00 2.048188e-01 3.511431e-01 3.465148e-01 4.991589e-01 8.464067e-01 1.367303e+00 5.735644e-01 5.214974e-01 3.917420e-01 4.503009e-01 4.099073e-01 5.735826e-01 6.320080e-01
<GCONST> 1.155725e+02
<STATE> 3
<MEAN> 39
 -1.036780e+01 -8.591796e+00 -9.957893e+00 -5.078876e+00 -5.439614e+00 -5.057776e-01 -1.127230e+01 -3.202748e+00 -2.543413e+00 -4.313848e+00 -5.299489e+00 -5.159722e+00 4.774723e+01 -5.952645e-02 -2.616303e-01 2.955902e-03 1.822219e-01 6.500815e-01 -5.200747e-01 3.170543e-01 2.125037e-01 1.409007e-01 1.510040e-01 -1.322128e-02 6.825110e-02 3.001434e-01 8.869245e-02 -3.046837e-01 3.722559e-02 -3.758484e-02 3.941854e-01 -8.893910e-01 2.954737e-01 2.398308e-01 9.644893e-02 9.755604e-02 -1.155941e-01 2.526221e-01 7.078413e-01
<VARIANCE> 39
 2.102308e+01 4.198032e+01 2.454321e+01 4.961737e+01 3.361214e+01 6.125506e+01 2.581246e+01 4.202811e+01 2.295864e+01 3.170591e+01 2.301663e+01 2.420364e+01 2.099473e+02 1.552006e+00 2.376569e+00 2.711515e+00 2.425037e+00 4.431856e+00 4.604818e+00 2.558578e+00 2.560802e+00 2.180451e+00 2.553508e+00 1.933938e+00 2.260421e+00 2.550935e+00 2.035433e-01 5.559552e-01 3.610648e-01 4.160164e-01 1.105878e+00 2.056591e+00 6.179468e-01 5.411146e-01 5.272403e-01 5.137155e-01 3.259636e-01 5.797009e-01 1.282100e+00
<GCONST> 1.235842e+02
<STATE> 4
<MEAN> 39
 -9.134837e+00 -8.967871e+00 -1.025030e+01 -6.184579e+00 -3.572299e+00 -9.269428e-01 -6.593881e+00 -3.697683e+00 -2.783835e+00 -4.328160e+00 -6.402615e+00 -5.007492e+00 5.892442e+01 -4.440197e-02 -1.048755e+00 -6.853408e-02 -8.729852e-02 1.115867e+00 -2.443482e+00 1.016817e+00 5.291996e-01 2.507585e-01 1.525862e-01 -1.955330e-01 6.569476e-01 1.649207e+00 8.312112e-02 -2.086272e-01 1.041680e-01 -8.859855e-02 2.920688e-01 -7.052663e-01 3.260842e-01 1.653081e-01 8.656818e-02 3.542686e-02 -7.906810e-02 2.066984e-01 7.049242e-01
<VARIANCE> 39
 3.603653e+01 4.611863e+01 1.797044e+01 3.679627e+01 4.022402e+01 7.165849e+01 5.890873e+01 3.263464e+01 2.256510e+01 3.280040e+01 2.112918e+01 3.729833e+01 4.267619e+02 2.993868e+00 5.063772e+00 2.237890e+00 2.662848e+00 7.401303e+00 1.541987e+01 5.316619e+00 2.961810e+00 3.112779e+00 2.274778e+00 2.210330e+00 4.802134e+00 1.203580e+01 2.902366e-01 5.237046e-01 3.417821e-01 3.797031e-01 9.673306e-01 2.438482e+00 7.364606e-01 4.996518e-01 6.495062e-01 4.439168e-01 4.121071e-01 6.728300e-01 1.673515e+00
<GCONST> 1.331736e+02
<TRANSP> 5
 0.000000e+00 1.000000e+00 0.000000e+00 0.000000e+00 0.000000e+00
 0.000000e+00 6.005447e-01 3.994553e-01 0.000000e+00 0.000000e+00
 0.000000e+00 0.000000e+00 5.784116e-01 4.215884e-01 0.000000e+00
 0.000000e+00 0.000000e+00 0.000000e+00 6.198307e-01 3.801693e-01
 0.000000e+00 0.000000e+00 0.000000e+00 0.000000e+00 0.000000e+00
<ENDHMM>
~h "l"
<BEGINHMM>
<NUMSTATES> 5
<STATE> 2
<MEAN> 39
 -2.839277e-01 -7.693417e+00 9.841080e-01 -7.252055e+00 -1.565636e+01 -2.357171e+00 -1.529431e+01 -6.174639e+00 1.813619e+00 -1.272631e+01 7.680439e+00 -8.401303e+00 7.216975e+01 2.910952e-01 -1.709926e-01 -1.758836e-01 -4.469254e-01 -3.316085e-01 -1.034405e-01 -2.600327e-01 -3.410339e-01 2.372682e-01 -9.329905e-02 6.052983e-01 -2.844983e-01 1.277816e+00 -7.407619e-02 -3.102320e-02 -1.130558e-01 -4.689863e-02 4.669752e-02 4.711425e-02 8.994105e-02 -1.573114e-02 -3.107124e-02 3.920234e-02 -2.711936e-02 8.124378e-03 -7.248760e-02
<VARIANCE> 39
 2.759096e+01 2.905633e+01 1.247915e+02 9.025175e+01 7.370610e+01 8.835109e+01 4.474471e+01 3.850779e+01 5.247947e+01 7.035655e+01 1.237602e+02 4.077338e+01 1.411460e+02 2.586433e+00 2.942291e+00 1.100905e+01 4.181381e+00 5.166840e+00 7.340746e+00 6.387259e+00 2.833979e+00 4.994672e+00 8.544473e+00 7.511314e+00 4.482055e+00 6.029443e+00 4.244232e-01 5.566289e-01 1.592510e+00 5.142841e-01 7.796879e-01 1.140587e+00 1.246319e+00 5.645498e-01 8.547454e-01 1.685254e+00 1.230029e+00 9.335747e-01 6.111344e-01
<GCONST> 1.449733e+02
<STATE> 3
<MEAN> 39
 -2.895880e+00 -6.647666e+00 -3.953323e+00 -1.125505e+01 -1.327792e+01 -2.414490e+00 -1.225281e+01 -8.006716e+00 6.631730e-01 -8.566335e+00 1.002308e+01 -9.949722e+00 7.584232e+01 -4.026579e-01 9.613781e-02 -1.037560e-01 -6.056365e-01 5.991140e-01 4.902720e-01 2.994150e-01 1.638536e-01 7.599082e-02 2.989478e-01 -6.038533e-01 2.962367e-01 -1.529367e-01 -1.825990e-02 -1.253492e-02 1.291527e-01 -4.008270e-02 -5.921773e-02 5.199693e-02 2.683575e-02 5.474453e-02 -4.396860e-02 -8.061808e-02 -1.506876e-01 1.068392e-01 -9.843674e-02
<VARIANCE> 39
 6.684830e+01 1.658128e+01 3.457002e+01 9.730577e+01 7.861572e+01 7.652661e+01 4.152465e+01 5.113118e+01 4.220809e+01 4.668354e+01 1.147310e+02 5.401529e+01 4.584533e+01 4.495694e+00 1.016477e+00 3.493783e+00 8.054681e+00 3.333338e+00 7.991397e+00 4.484045e+00 4.712090e+00 3.922969e+00 5.370283e+00 7.995871e+00 6.748715e+00 2.590857e+00 5.196865e-01 1.640755e-01 4.864783e-01 9.361027e-01 5.492851e-01 1.237312e+00 1.007784e+00 7.549176e-01 6.418436e-01 1.021004e+00 1.404268e+00 1.339114e+00 3.177366e-01
<GCONST> 1.376467e+02
<STATE> 4
<MEAN> 39
 -8.865918e-01 -8.066275e+00 -1.508252e+00 -7.083254e+00 -1.118215e+01 -1.588680e+00 -1.313420e+01 -5.257947e+00 -4.750775e-01 -9.285276e+00 -5.077715e-01 -5.073548e+00 6.991810e+01 2.617533e-01 -1.746918e-01 2.268893e-02 -2.329854e-01 -1.168716e-02 2.707737e-01 -1.411774e-01 5.661580e-02 -1.274785e-01 1.572824e-01 -5.795605e-02 -1.057797e-02 3.948592e-02 2.335062e-02 8.465166e-03 -1.649251e-02 -5.860892e-02 -3.070811e-02 7.466123e-02 3.020684e-02 -2.914792e-02 1.568004e-02 -2.482142e-02 1.464380e-02 -7.780290e-03 1.198011e-02
<VARIANCE> 39
 9.984497e+01 2.447296e+01 3.183166e+01 1.397511e+02 5.248925e+01 5.597594e+01 5.833535e+01 4.429108e+01 3.287307e+01 5.427486e+01 9.396995e+01 6.284097e+01 6.392726e+01 5.014500e+00 2.015341e+00 1.962451e+00 6.913399e+00 4.136759e+00 6.684040e+00 4.639628e+00 4.331600e+00 3.024606e+00 4.435140e+00 6.656044e+00 6.050580e+00 4.899720e+00 6.962505e-01 3.387483e-01 2.867843e-01 7.414180e-01 7.266428e-01 1.008543e+00 8.670834e-01 7.369208e-01 4.678077e-01 7.908255e-01 1.022363e+00 1.000436e+00 6.443076e-01
<GCONST> 1.380086e+02
<TRANSP> 5
 0.000000e+00 1.000000e+00 0.000000e+00 0.000000e+00 0.000000e+00
 0.000000e+00 9.525325e-01 4.746756e-02 0.000000e+00 0.000000e+00
 0.000000e+00 0.000000e+00 8.730426e-01 1.269574e-01 0.000000e+00
 0.000000e+00 0.000000e+00 0.000000e+00 9.711025e-01 2.889752e-02
 0.000000e+00 0.000000e+00 0.000000e+00 0.000000e+00 0.000000e+00
<ENDHMM>
~h "m"
<BEGINHMM>
<NUMSTATES> 5
<STATE> 2
<MEAN> 39
 5.110688e-01 -1.295358e+01 -5.834974e+00 -1.257865e+01 -4.459477e+00 2.442513e+00 -2.198037e+01 7.816701e+00 7.385963e+00 -1.760147e+01 -7.934582e-01 -1.330302e+01 7.494404e+01 1.437766e-01 2.665916e-01 -2.151533e-01 1.432354e-01 2.677551e-01 -6.902893e-02 3.824479e-01 -2.176449e-01 -3.345574e-01 3.140909e-01 -1.492328e-01 2.983321e-01 -7.585556e-01 5.547789e-03 4.352615e-02 2.990266e-02 2.224154e-02 -3.866439e-02 -2.322641e-02 5.468165e-02 -3.542928e-02 -2.167885e-02 -1.897434e-02 1.051389e-01 -1.071281e-02 -7.095817e-02
<VARIANCE> 39
 7.413315e+00 2.435833e+01 2.148439e+01 3.791563e+01 1.873076e+01 1.131468e+02 3.870403e+01 2.897862e+01 4.331392e+01 3.845473e+01 2.169203e+01 1.770816e+01 6.360652e+01 6.028850e-01 7.578087e-01 8.355152e-01 1.317940e+00 9.529288e-01 1.870502e+00 1.164198e+00 1.021200e+00 8.299612e-01 9.972866e-01 1.645998e+00 1.017783e+00 1.014819e+00 1.008942e-01 1.354996e-01 1.210231e-01 2.115735e-01 1.249658e-01 1.970463e-01 1.804567e-01 1.575326e-01 1.727136e-01 1.828826e-01 2.478358e-01 1.548745e-01 9.664208e-02
<GCONST> 9.191090e+01
<STATE> 3
<MEAN> 39
 1.106717e+00 -1.053193e+01 -8.079036e+00 -1.103468e+01 -3.093176e+00 2.610464e+00 -1.700388e+01 5.375558e+00 4.144696e+00 -1.506544e+01 -1.503539e+00 -1.088208e+01 6.704510e+01 -1.653519e-01 4.722899e-01 -2.718039e-01 5.317761e-01 1.197880e-01 -2.984038e-01 8.754767e-01 -4.143510e-01 -2.970787e-01 2.761286e-01 -1.572488e-01 3.580737e-01 -1.297115e+00 -5.610628e-02 2.152171e-03 7.147900e-02 3.458879e-02 -4.584649e-02 -2.063009e-02 3.759484e-02 -2.459164e-02 1.750103e-02 -1.646232e-02 -1.300411e-02 7.105573e-03 -3.282865e-02
<VARIANCE> 39
 1.527359e+01 3.010296e+01 5.092447e+01 7.120815e+01 1.937129e+01 1.670543e+02 6.938083e+01 4.424544e+01 5.337625e+01 4.418707e+01 2.894581e+01 2.635399e+01 1.315749e+02 1.132904e+00 1.326924e+00 1.670248e+00 1.956934e+00 9.813143e-01 1.420074e+00 1.568144e+00 1.373054e+00 1.294717e+00 1.512270e+00 1.817286e+00 1.146835e+00 1.389962e+00 1.577109e-01 2.433853e-01 2.585677e-01 3.675239e-01 1.612488e-01 2.426858e-01 2.626570e-01 2.355089e-01 2.429255e-01 2.349120e-01 2.525575e-01 1.731207e-01 1.430632e-01
<GCONST> 1.062488e+02
<STATE> 4
<MEAN> 39
 -3.521653e+00 -7.114559e+00 -9.859584e+00 -7.229766e+00 -3.249919e+00 1.210349e+00 -1.010666e+01 1.513960e+00 4.263154e-01 -1.051437e+01 -4.232535e+00 -7.077033e+00 5.495564e+01 -4.123244e-01 4.495573e-01 -2.413844e-02 3.025266e-01 -1.256390e-01 -9.628249e-02 8.723418e-01 -4.722474e-01 -3.311996e-01 2.045587e-01 3.096412e-02 3.704383e-01 -9.323198e-01 4.984065e-02 5.138268e-02 1.233888e-01 -4.120901e-03 -2.544381e-02 -2.411265e-02 -4.572861e-02 4.200545e-02 -1.238348e-02 -4.251482e-02 2.003535e-02 2.301174e-02 7.053304e-02
<VARIANCE> 39
 6.019219e+01 3.813647e+01 6.100925e+01 7.954392e+01 2.021841e+01 1.407918e+02 7.525549e+01 4.067253e+01 4.765978e+01 4.641025e+01 3.551206e+01 3.233762e+01 1.589704e+02 1.783931e+00 1.945950e+00 2.315009e+00 2.250466e+00 1.452491e+00 2.216744e+00 2.052261e+00 2.200161e+00 1.811209e+00 1.939836e+00 1.668410e+00 1.216963e+00 1.632039e+00 2.405119e-01 3.408387e-01 3.556653e-01 3.912085e-01 2.633028e-01 3.737689e-01 3.518931e-01 3.906232e-01 3.596630e-01 3.714179e-01 2.624876e-01 2.160137e-01 1.536434e-01
<GCONST> 1.161939e+02
<TRANSP> 5
 0.000000e+00 1.000000e+00 0.000000e+00 0.000000e+00 0.000000e+00
 0.000000e+00 8.871293e-01 1.128707e-01 0.000000e+00 0.000000e+00
 0.000000e+00 0.000000e+00 7.109554e-01 2.890446e-01 0.000000e+00
 0.000000e+00 0.000000e+00 0.000000e+00 7.051004e-01 2.948996e-01
 0.000000e+00 0.000000e+00 0.000000e+00 0.000000e+00 0.000000e+00
<ENDHMM>
~h "q"
<BEGINHMM>
<NUMSTATES> 5
<STATE> 2
<MEAN> 39
 -1.310896e+01 -4.052841e+00 -4.010800e-01 -1.009014e+01 -8.774880e+00 -5.754705e+00 -3.564055e+00 -4.837824e+00 -3.026179e+00 -5.488847e+00 6.092840e-01 -6.078852e+00 6.502770e+01 -1.377357e+00 6.240343e-02 4.284121e-01 -6.094477e-01 8.408448e-01 2.840967e-02 -6.081494e-02 -1.723090e-01 -5.405639e-02 2.550125e-01 8.418599e-02 1.937467e-01 2.556020e-01 -3.036279e-03 3.685454e-02 -5.420160e-02 -7.251939e-04 9.015200e-02 4.512572e-02 1.048692e-01 9.061890e-02 -2.799979e-02 1.407685e-02 -1.195554e-01 9.108790e-02 8.596124e-02
<VARIANCE> 39
 1.421250e+02 3.970581e+01 4.261779e+01 4.321014e+01 1.381978e+02 2.860959e+01 3.311605e+01 2.557213e+01 2.632385e+01 4.411552e+01 3.925304e+01 2.257592e+01 2.033023e+02 6.288271e+00 4.980991e+00 3.401393e+00 4.656319e+00 5.875634e+00 3.175290e+00 5.173232e+00 3.641598e+00 2.959582e+00 2.770249e+00 3.337980e+00 1.830732e+00 9.694048e+00 7.348785e-01 1.043249e+00 5.671703e-01 9.506058e-01 1.214649e+00 6.690288e-01 9.702557e-01 6.790426e-01 6.430102e-01 5.386264e-01 5.744950e-01 3.785525e-01 1.138731e+00
<GCONST> 1.363068e+02
<STATE> 3
<MEAN> 39
 -1.932100e+01 -3.721100e+00 1.522568e+00 -1.365745e+01 -7.166139e+00 -5.523871e+00 -2.377011e+00 -4.790555e+00 -2.314869e+00 -5.071541e+00 7.333157e-01 -5.402401e+00 6.955532e+01 -7.466374e-01 3.103282e-01 4.208125e-02 -4.428791e-01 7.548243e-01 2.907159e-01 1.598766e-02 -2.396183e-02 -5.160872e-02 3.581335e-01 -1.970604e-01 3.186601e-01 8.345582e-02 1.293781e-01 -1.536313e-02 2.500178e-03 3.367861e-02 -8.764657e-02 1.975223e-02 3.877864e-03 2.027935e-03 -1.591630e-04 -4.591691e-02 -8.340097e-03 -3.299750e-04 2.127885e-02
<VARIANCE> 39
 1.100879e+02 2.061742e+01 3.384415e+01 3.507029e+01 1.154559e+02 2.561583e+01 3.150028e+01 2.516551e+01 2.277679e+01 5.248925e+01 3.161710e+01 2.432593e+01 7.663686e+01 5.664072e+00 2.767540e+00 3.222938e+00 3.221965e+00 5.658769e+00 2.639618e+00 4.345984e+00 3.489961e+00 3.200149e+00 3.318534e+00 2.948963e+00 1.970670e+00 6.763779e+00 7.565541e-01 6.419711e-01 4.784180e-01 5.388777e-01 1.108012e+00 5.384783e-01 9.113558e-01 7.218308e-01 6.963310e-01 5.715239e-01 5.390961e-01 4.226184e-01 7.262322e-01
<GCONST> 1.300381e+02
<STATE> 4
<MEAN> 39
 -1.267471e+01 -2.982110e+00 9.061090e+00 -1.125464e+01 -1.204857e+01 -3.010501e+00 -7.042625e+00 -7.444028e+00 -5.195136e+00 -9.173874e+00 2.729505e+00 -6.545521e+00 7.210555e+01 5.086637e-01 -2.141278e-01 7.560218e-03 2.461902e-01 -2.611860e-01 9.564802e-02 -1.568540e-01 9.014073e-02 2.553043e-02 -1.576360e-01 -7.680295e-02 -1.772406e-01 -1.764962e-02 -2.542211e-02 -2.955748e-02 -7.661190e-02 7.816412e-03 4.332760e-02 1.753570e-02 -5.273167e-03 5.658857e-04 2.682788e-02 -4.039287e-03 -3.722493e-02 -1.332308e-02 -3.562835e-02
<VARIANCE> 39
 1.198917e+02 3.971069e+01 1.054117e+02 4.790797e+01 9.224536e+01 3.174135e+01 3.440365e+01 3.737658e+01 3.350404e+01 5.713218e+01 3.215940e+01 2.701590e+01 3.966082e+01 5.339211e+00 1.933507e+00 4.518512e+00 3.125259e+00 5.906382e+00 3.025985e+00 3.252583e+00 3.043015e+00 2.659082e+00 3.847579e+00 2.675801e+00 2.002241e+00 2.841740e+00 7.278317e-01 3.530969e-01 4.979524e-01 4.737843e-01 9.183547e-01 4.982319e-01 6.034009e-01 5.130211e-01 4.639955e-01 5.742393e-01 4.540065e-01 3.648408e-01 3.257549e-01
<GCONST> 1.280249e+02
<TRANSP> 5
 0.000000e+00 1.000000e+00 0.000000e+00 0.000000e+00 0.000000e+00
 0.000000e+00 8.679816e-01 1.320184e-01 0.000000e+00 0.000000e+00
 0.000000e+00 0.000000e+00 8.577108e-01 1.422892e-01 0.000000e+00
 0.000000e+00 0.000000e+00 0.000000e+00 9.693416e-01 3.065840e-02
 0.000000e+00 0.000000e+00 0.000000e+00 0.000000e+00 0.000000e+00
<ENDHMM>
~h "s"
<BEGINHMM>
<NUMSTATES> 5
<STATE> 2
<MEAN> 39
 -4.747653e+00 -1.074703e+01 -6.316956e+00 -8.540944e+00 -5.812994e+00 -1.404194e+00 -1.167587e+01 -5.288721e-01 5.394279e+00 -1.420852e+01 -1.494446e+00 -9.031740e+00 7.260544e+01 2.032181e-01 -2.797087e-01 3.299639e-01 -6.549708e-02 -2.092239e-01 2.606693e-02 -2.405648e-01 1.543352e-01 1.285042e-01 -2.023231e-01 1.902383e-01 -2.607694e-01 3.780007e-01 -4.542819e-02 1.673340e-02 1.363443e-02 1.546266e-02 7.591889e-03 1.284048e-02 2.917627e-02 1.154885e-02 -4.038099e-02 2.657316e-02 1.964935e-02 -3.700880e-03 -6.045142e-02
<VARIANCE> 39
 1.154790e+02 9.403445e+01 5.065453e+01 3.299092e+01 3.874987e+01 7.039102e+01 1.172277e+02 3.148273e+01 7.783751e+01 7.070889e+01 5.177401e+01 5.992767e+01 9.434459e+01 9.413909e+00 4.383669e+00 2.552497e+00 2.861571e+00 2.978352e+00 4.637398e+00 4.446797e+00 2.055004e+00 5.332535e+00 4.243902e+00 3.426365e+00 3.380956e+00 3.656049e+00 1.308833e+00 7.031415e-01 4.105556e-01 5.076736e-01 5.335078e-01 6.844208e-01 6.069561e-01 3.511538e-01 8.538926e-01 5.709913e-01 5.363576e-01 5.479991e-01 3.829776e-01
<GCONST> 1.360210e+02
<STATE> 3
<MEAN> 39
 -2.399368e+00 -1.293596e+01 -3.384256e-01 -1.090549e+01 -1.027761e+01 -5.408611e-01 -1.278089e+01 3.169396e+00 2.372736e+00 -1.378497e+01 1.701534e+00 -1.234857e+01 7.579130e+01 1.790200e-02 1.118439e-01 -7.044838e-02 -3.631205e-01 2.677169e-01 6.041993e-01 9.484172e-02 -3.577971e-02 -5.171288e-01 5.457902e-01 -1.372603e-01 4.545761e-02 -3.201663e-01 -5.347256e-03 1.815230e-02 -6.181931e-02 -3.572017e-02 6.541803e-02 6.946168e-02 2.050809e-02 -7.142179e-02 6.339038e-03 -5.408742e-03 3.344024e-02 7.180272e-02 -8.540428e-02
<VARIANCE> 39
 7.710909e+01 7.403785e+01 6.228238e+01 3.042576e+01 7.097982e+01 8.790129e+01 1.171940e+02 3.763727e+01 5.511158e+01 8.088074e+01 4.544070e+01 4.960089e+01 4.285515e+01 5.178137e+00 3.547928e+00 3.268021e+00 1.928131e+00 5.850969e+00 4.996213e+00 4.636208e+00 2.486149e+00 4.720781e+00 5.702223e+00 3.707134e+00 2.671114e+00 3.098259e+00 6.749578e-01 5.030933e-01 4.299832e-01 3.347972e-01 8.697927e-01 5.420706e-01 7.153084e-01 3.832078e-01 7.978378e-01 9.089144e-01 6.172940e-01 4.520511e-01 3.854626e-01
<GCONST> 1.345574e+02
<STATE> 4
<MEAN> 39
 -1.397357e+00 -1.244486e+01 -3.116384e+00 -1.580385e+01 -6.331784e+00 8.613676e+00 -1.199639e+01 1.275313e+00 -2.274075e+00 -1.026355e+01 1.314837e+00 -9.819525e+00 7.031206e+01 -3.160820e-01 2.330751e-01 -4.683467e-01 -3.147316e-01 3.021588e-01 3.612513e-01 5.548386e-01 -4.487498e-01 -2.785355e-01 3.188945e-01 2.167767e-01 7.007884e-01 -1.018037e+00 -1.827756e-02 -7.270340e-02 -2.932783e-02 1.542248e-01 -2.612791e-01 -2.529687e-01 7.292919e-02 4.518852e-02 1.697957e-01 -9.635257e-02 -6.345587e-02 -2.726720e-02 8.346881e-02
<VARIANCE> 39
 1.144250e+02 8.932441e+01 5.785801e+01 5.842853e+01 4.539591e+01 2.625732e+02 9.936437e+01 3.346341e+01 2.921949e+01 5.717400e+01 2.775738e+01 4.189031e+01 4.717355e+01 3.414562e+00 3.140181e+00 1.857250e+00 2.490730e+00 4.027955e+00 4.700106e+00 3.104264e+00 1.844242e+00 1.926819e+00 4.035458e+00 3.479257e+00 1.676481e+00 2.205576e+00 6.590390e-01 4.951853e-01 3.569892e-01 4.781677e-01 6.474613e-01 7.333605e-01 4.881967e-01 3.270232e-01 3.606459e-01 6.672783e-01 6.104956e-01 2.763781e-01 3.495337e-01
<GCONST> 1.283367e+02
<TRANSP> 5
 0.000000e+00 1.000000e+00 0.000000e+00 0.000000e+00 0.000000e+00
 0.000000e+00 9.669133e-01 3.308674e-02 0.000000e+00 0.000000e+00
 0.000000e+00 0.000000e+00 8.509099e-01 1.490900e-01 0.000000e+00
 0.000000e+00 0.000000e+00 0.000000e+00 8.566908e-01 1.433092e-01
 0.000000e+00 0.000000e+00 0.000000e+00 0.000000e+00 0.000000e+00
<ENDHMM>
~h "u"
<BEGINHMM>
<NUMSTATES> 5
<STATE> 2
<MEAN> 39
 -1.238802e+01 -1.735265e+00 -1.042190e+01 -1.851771e+00 -7.007133e+00 -1.755106e+00 -8.483049e+00 -3.842762e+00 -4.555275e+00 -2.987649e+00 -2.812082e+00 -3.792249e+00 3.920396e+01 1.170602e+00 7.239087e-01 -7.518083e-03 -8.850347e-01 7.229213e-01 -1.516779e-01 7.238064e-01 6.531034e-01 -7.199228e-02 9.793032e-01 -8.278448e-02 2.326583e-01 1.044789e+00 6.022298e-01 1.927626e-01 -3.592901e-01 -9.736574e-01 3.711744e-01 -9.620725e-02 3.746680e-01 2.163888e-01 -5.063964e-01 3.213593e-01 -2.648311e-01 4.658266e-02 8.519702e-01
<VARIANCE> 39
 1.848959e+01 2.339486e+01 2.669230e+01 1.491879e+01 2.463060e+01 3.411898e+01 2.750953e+01 2.282673e+01 1.946384e+01 1.854146e+01 1.828577e+01 1.657363e+01 9.425781e+00 4.701929e+00 4.180407e+00 4.589806e+00 5.479397e+00 4.894252e+00 3.931280e+00 4.429831e+00 3.125568e+00 3.053483e+00 3.799292e+00 1.945423e+00 1.850298e+00 3.386708e+00 1.010307e+00 6.003658e-01 7.869171e-01 1.284315e+00 1.210649e+00 8.075046e-01 9.250027e-01 6.374769e-01 7.246699e-01 6.496114e-01 4.708996e-01 3.437360e-01 1.326132e+00
<GCONST> 1.241638e+02
<STATE> 3
<MEAN> 39
 -8.888433e+00 3.872828e-01 -8.639016e+00 -1.766429e+00 -7.174894e+00 -1.731431e+00 -7.352051e+00 -3.506801e+00 -4.398557e+00 -2.907322e+00 -3.345368e+00 -3.326468e+00 4.081472e+01 8.175383e-01 1.591468e-01 -1.133041e+00 -2.195424e+00 1.185691e+00 -3.293849e-01 9.028613e-01 6.984134e-01 -8.928919e-01 1.015329e+00 -5.492404e-01 2.093892e-01 1.565781e+00 2.926486e-01 -7.279547e-02 -3.613656e-01 -8.504828e-01 1.571762e-01 2.485710e-04 8.396044e-02 -6.407246e-02 -4.373376e-01 8.276425e-02 1.528466e-02 -6.462578e-02 8.177997e-01
<VARIANCE> 39
 5.841757e+01 4.150999e+01 2.913626e+01 1.963484e+01 2.449390e+01 2.320664e+01 2.293289e+01 1.966867e+01 1.810287e+01 1.699701e+01 1.517910e+01 1.431134e+01 2.109717e+01 1.047789e+01 5.645372e+00 5.598072e+00 1.099831e+01 7.326149e+00 2.801471e+00 4.433191e+00 3.850812e+00 4.284460e+00 5.088938e+00 2.797811e+00 1.916199e+00 1.015590e+01 2.139236e+00 1.162027e+00 7.040948e-01 8.946773e-01 1.078948e+00 7.029096e-01 6.802292e-01 5.845518e-01 6.043829e-01 6.331552e-01 6.220367e-01 3.510764e-01 1.898975e+00
<GCONST> 1.309812e+02
<STATE> 4
<MEAN> 39
 -1.738560e+00 -6.861175e+00 -1.258518e+01 -1.935111e+01 -6.607874e+00 6.717589e-01 -6.732502e+00 -5.376326e+00 -1.246162e+00 -2.428311e+00 -1.447695e+00 -8.425933e+00 7.482272e+01 6.326126e-01 -8.725282e-01 3.471566e-01 -6.076137e-01 -3.880023e-01 5.608524e-01 -4.188690e-01 -5.432424e-01 1.128271e+00 -6.924549e-01 3.566090e-01 -7.718437e-01 3.011698e+00 -2.503590e-01 -1.472158e-01 1.841342e-01 4.446411e-01 -1.288067e-01 2.972377e-02 -1.627930e-01 -9.223294e-02 2.458232e-01 -2.101260e-01 -4.793545e-02 -5.202711e-02 -3.840451e-01
<VARIANCE> 39
 3.377701e+01 5.230472e+01 4.585548e+01 8.113006e+01 7.172922e+01 5.278727e+01 4.871041e+01 4.628254e+01 1.371750e+02 9.156213e+01 1.098625e+02 4.334977e+01 2.356817e+02 6.371710e+00 3.968708e+00 4.990936e+00 1.028493e+01 1.181265e+01 5.644547e+00 5.249703e+00 5.731940e+00 9.290313e+00 7.930710e+00 1.562642e+01 3.588789e+00 1.339742e+01 9.894636e-01 7.681273e-01 1.075199e+00 1.377528e+00 2.852687e+00 9.161499e-01 1.180544e+00 1.295133e+00 1.650880e+00 1.651736e+00 3.132954e+00 6.891866e-01 1.103649e+00
<GCONST> 1.557742e+02
<TRANSP> 5
 0.000000e+00 1.000000e+00 0.000000e+00 0.000000e+00 0.000000e+00
 0.000000e+00 4.175057e-01 5.824943e-01 0.000000e+00 0.000000e+00
 0.000000e+00 0.000000e+00 5.955196e-01 4.044804e-01 0.000000e+00
 0.000000e+00 0.000000e+00 0.000000e+00 9.228363e-01 7.716367e-02
 0.000000e+00 0.000000e+00 0.000000e+00 0.000000e+00 0.000000e+00
<ENDHMM>
~h "x"
<BEGINHMM>
<NUMSTATES> 5
<STATE> 2
<MEAN> 39
 -1.469165e+01 -1.662083e+01 -4.827744e+00 4.309103e+00 3.739950e+00 -1.302689e+01 -4.101263e+00 -1.465040e+00 6.437982e+00 -4.452508e+00 -2.038057e+00 -4.615928e+00 7.087936e+01 -1.783769e+00 -2.986612e-01 5.867895e-01 7.248949e-01 1.168984e+00 -1.817111e+00 -4.060096e-01 5.236780e-01 6.227413e-01 -3.668550e-01 -3.384642e-01 3.769817e-01 2.287735e-01 2.863640e-01 6.325935e-02 -1.160892e-01 -2.601405e-01 -3.351101e-01 2.807377e-01 -1.454367e-01 -1.079009e-01 -1.002027e-01 -4.019979e-02 4.083945e-02 -9.804839e-02 -2.027099e-02
<VARIANCE> 39
 1.443387e+02 2.320980e+01 2.080545e+01 2.344485e+01 4.382072e+01 6.890620e+01 5.572717e+01 2.653718e+01 2.243238e+01 2.785372e+01 1.875391e+01 1.562028e+01 9.694523e+00 1.431813e+01 2.581375e+00 2.004427e+00 2.938753e+00 6.793807e+00 4.518537e+00 3.148785e+00 2.746923e+00 2.825288e+00 2.580509e+00 1.976339e+00 1.785724e+00 9.575229e-01 1.309168e+00 3.691018e-01 3.882508e-01 3.969227e-01 9.614500e-01 5.934007e-01 4.852826e-01 4.186450e-01 4.822601e-01 5.003212e-01 3.572378e-01 3.739745e-01 1.793935e-01
<GCONST> 1.199486e+02
<STATE> 3
<MEAN> 39
 -1.546343e+01 -1.594990e+01 -3.014649e+00 6.015752e+00 4.079907e+00 -1.895708e+01 -8.779119e+00 -5.458373e-01 7.266353e+00 -7.047515e+00 -2.635504e+00 -3.003194e+00 7.112392e+01 1.152670e+00 4.871177e-01 8.774500e-03 -5.846341e-02 -2.706777e-01 -7.497850e-01 -1.001337e+00 -1.886652e-01 -1.056374e-01 -5.385126e-01 -1.378475e-01 2.638105e-01 3.764102e-02 2.438829e-01 3.914819e-02 -5.086727e-02 -5.130890e-02 -6.551635e-02 9.052911e-02 -2.055905e-02 -5.262676e-02 -6.048708e-02 -2.324199e-02 1.223620e-02 -1.317786e-03 -1.575539e-02
<VARIANCE> 39
 1.519356e+02 3.140348e+01 1.805888e+01 1.764128e+01 2.278643e+01 3.621640e+01 9.928505e+01 3.458647e+01 1.513456e+01 3.414523e+01 2.236094e+01 1.530944e+01 1.296035e+01 9.280156e+00 2.534376e+00 1.582902e+00 1.899664e+00 2.091274e+00 2.080805e+00 4.177177e+00 2.371085e+00 1.662503e+00 2.531886e+00 2.114163e+00 1.448587e+00 1.194000e+00 1.136465e+00 4.562652e-01 2.886793e-01 3.301703e-01 4.473917e-01 3.576473e-01 6.329212e-01 3.734105e-01 3.445141e-01 4.750031e-01 3.733070e-01 2.700225e-01 2.030694e-01
<GCONST> 1.141888e+02
<STATE> 4
<MEAN> 39
 2.865501e+00 -1.238894e+01 -7.469464e+00 3.736795e+00 -1.689302e+00 -1.979989e+01 -2.407590e+01 2.845600e+00 7.930706e+00 -1.396009e+01 6.592389e-01 -3.028312e+00 7.015842e+01 3.006710e-01 2.016709e-01 -3.184539e-01 3.375365e-02 -8.571552e-02 3.932266e-01 -1.505115e-01 4.677329e-01 1.239729e-02 5.622058e-02 3.769785e-02 -6.684375e-02 -7.631812e-01 -1.435499e-01 1.684010e-02 2.116361e-02 1.482463e-03 7.383412e-03 3.177995e-02 9.356693e-02 -7.616715e-02 -3.744010e-02 8.597316e-02 -5.877034e-02 2.572740e-02 -1.149788e-01
<VARIANCE> 39
 1.016959e+02 2.043943e+01 2.894670e+01 1.311072e+01 2.706758e+01 4.885071e+01 1.415466e+02 7.950574e+01 2.094781e+01 3.910158e+01 5.714825e+01 2.319987e+01 4.777357e+01 2.734687e+00 1.604490e+00 1.140290e+00 1.077698e+00 1.991909e+00 2.166278e+00 7.527061e+00 2.966229e+00 1.444673e+00 3.151523e+00 4.417118e+00 1.916359e+00 2.086953e+00 3.467216e-01 2.666726e-01 2.013915e-01 2.290574e-01 3.452322e-01 3.515901e-01 9.462799e-01 3.810979e-01 2.524116e-01 4.770692e-01 6.123779e-01 3.361706e-01 1.607825e-01
<GCONST> 1.160648e+02
<TRANSP> 5
 0.000000e+00 1.000000e+00 0.000000e+00 0.000000e+00 0.000000e+00
 0.000000e+00 8.974437e-01 1.025564e-01 0.000000e+00 0.000000e+00
 0.000000e+00 0.000000e+00 8.731860e-01 1.268140e-01 0.000000e+00
 0.000000e+00 0.000000e+00 0.000000e+00 9.606065e-01 3.939350e-02
 0.000000e+00 0.000000e+00 0.000000e+00 0.000000e+00 0.000000e+00
<ENDHMM>
~h "ai"
<BEGINHMM>
<NUMSTATES> 5
<STATE> 2
<MEAN> 39
 -8.405084e+00 -1.429782e+01 -1.032281e+01 -7.201257e+00 5.178099e-01 -9.102485e+00 -1.129953e+00 -2.096394e+00 -1.807622e+00 -4.822077e+00 -7.411092e+00 -3.130279e+00 6.827267e+01 1.734507e-01 -7.359515e-01 1.047221e-01 -2.814780e-01 6.522201e-01 -1.743577e+00 1.266503e+00 5.465291e-01 4.459574e-01 -3.339730e-01 -2.769563e-01 5.486329e-01 2.840137e+00 6.246685e-02 1.938555e-01 1.331562e-01 1.286482e-02 -3.213806e-01 5.284923e-01 -8.909789e-02 -5.599796e-02 -2.065974e-02 -1.387164e-01 1.569467e-01 -1.882478e-01 -9.979746e-02
<VARIANCE> 39
 3.081755e+01 4.813861e+01 2.174475e+01 2.993536e+01 5.938745e+01 1.362498e+02 5.815816e+01 3.251775e+01 1.871688e+01 4.306530e+01 2.584747e+01 3.633549e+01 2.580287e+02 2.868280e+00 4.610275e+00 2.587955e+00 2.685451e+00 8.584288e+00 2.401660e+01 5.259619e+00 2.958898e+00 2.661962e+00 2.511003e+00 2.941248e+00 4.812390e+00 1.231357e+01 5.414596e-01 5.950029e-01 5.201375e-01 4.531234e-01 9.409674e-01 3.936801e+00 7.336971e-01 5.679583e-01 4.557440e-01 5.110891e-01 6.381886e-01 9.341597e-01 1.388669e+00
<GCONST> 1.369566e+02
<STATE> 3
<MEAN> 39
 -7.599985e+00 -1.516658e+01 -1.037504e+01 -8.498897e+00 -2.554925e+00 -8.253468e+00 2.732443e+00 -7.076856e-01 -1.215288e+00 -8.503716e+00 -7.458604e+00 -2.755658e+00 7.759711e+01 5.957694e-02 -6.042333e-02 1.396978e-01 -3.173932e-01 -9.478623e-01 3.766363e-01 4.635032e-01 4.019092e-01 2.038301e-01 -7.164724e-01 9.662917e-02 -6.675199e-02 1.700118e+00 1.952049e-02 1.028951e-01 6.853755e-02 1.080295e-02 -2.693064e-01 2.737349e-01 -1.991941e-01 -4.267314e-02 -3.816065e-02 -1.539984e-02 1.243593e-01 -1.505347e-01 -2.699881e-01
<VARIANCE> 39
 2.046012e+01 2.934461e+01 2.076688e+01 2.415547e+01 7.391985e+01 8.850941e+01 4.104843e+01 3.069197e+01 1.686254e+01 4.184140e+01 2.739307e+01 2.611061e+01 1.520543e+02 2.374413e+00 2.366281e+00 2.678756e+00 1.829805e+00 4.673931e+00 1.249966e+01 3.591829e+00 2.753263e+00 1.795434e+00 2.374205e+00 3.393558e+00 3.593471e+00 6.061019e+00 5.373806e-01 4.564502e-01 4.910309e-01 3.771459e-01 8.537426e-01 3.169380e+00 6.857238e-01 5.301588e-01 3.749731e-01 4.818668e-01 6.431121e-01 8.198393e-01 8.263893e-01
<GCONST> 1.281510e+02
<STATE> 4
<MEAN> 39
 -8.451248e+00 -1.180891e+01 -4.737794e+00 -9.523632e+00 -1.229265e+01 -6.463611e+00 -6.025963e-01 2.194500e-02 9.459535e-01 -1.047079e+01 -2.495578e+00 -5.671381e+00 7.757188e+01 2.771109e-02 2.245945e-01 3.434039e-01 -1.202973e-01 -3.464647e-01 3.151966e-01 -5.650333e-01 -3.970056e-01 1.444787e-01 1.108378e-01 4.383109e-01 -2.547567e-01 -6.544179e-02 2.905502e-02 6.337387e-03 -3.236662e-02 -4.036155e-02 7.795901e-02 4.835559e-02 -1.060864e-01 -7.533724e-02 -1.039769e-02 4.195739e-03 5.442936e-03 7.134458e-03 -1.974075e-02
<VARIANCE> 39
 3.718002e+01 3.347213e+01 4.535828e+01 3.238699e+01 9.482092e+01 4.767918e+01 5.372681e+01 3.787148e+01 1.801891e+01 3.273188e+01 5.503278e+01 2.885435e+01 1.362106e+02 3.353132e+00 2.172104e+00 2.637389e+00 2.525019e+00 5.507690e+00 4.075918e+00 4.859107e+00 2.400414e+00 1.877112e+00 2.545853e+00 5.067453e+00 3.556897e+00 6.803502e+00 6.021727e-01 3.707759e-01 3.164372e-01 4.039182e-01 8.491452e-01 7.542376e-01 8.589787e-01 3.915169e-01 3.801322e-01 4.702630e-01 7.462640e-01 6.498000e-01 7.332728e-01
<GCONST> 1.287699e+02
<TRANSP> 5
 0.000000e+00 1.000000e+00 0.000000e+00 0.000000e+00 0.000000e+00
 0.000000e+00 7.505324e-01 2.494676e-01 0.000000e+00 0.000000e+00
 0.000000e+00 0.000000e+00 9.114891e-01 8.851092e-02 0.000000e+00
 0.000000e+00 0.000000e+00 0.000000e+00 9.350212e-01 6.497876e-02
 0.000000e+00 0.000000e+00 0.000000e+00 0.000000e+00 0.000000e+00
<ENDHMM>
~h "an"
<BEGINHMM>
<NUMSTATES> 5
<STATE> 2
<MEAN> 39
 -3.147293e+00 -1.023199e+01 -7.126034e+00 -1.219509e+01 -6.949922e+00 9.830201e-01 -1.056118e+01 -6.054540e+00 4.724893e+00 -9.097979e+00 -3.646230e+00 -1.005600e+01 7.541499e+01 2.473627e-01 -2.135218e-01 2.106265e-01 4.557397e-01 1.165372e-01 -1.566357e-01 -6.695160e-01 -1.765673e-02 3.929276e-01 -6.983315e-01 -6.336482e-01 -1.116556e-01 -6.968021e-02 2.285990e-02 9.535781e-02 4.328614e-02 -1.764861e-02 -3.921457e-02 -7.039481e-02 -5.846582e-02 2.638358e-02 -8.567981e-02 -7.999341e-02 7.986198e-02 4.178149e-02 -4.373554e-03
<VARIANCE> 39
 6.329267e+01 3.849824e+01 4.715808e+01 8.584566e+01 3.775837e+01 7.905645e+01 4.152091e+01 4.155917e+01 7.628367e+01 7.755840e+01 7.160052e+01 3.965218e+01 1.924146e+02 5.209549e+00 2.086849e+00 2.832422e+00 3.403115e+00 4.433880e+00 3.651224e+00 3.505181e+00 3.213125e+00 5.876849e+00 4.414623e+00 6.090914e+00 2.373530e+00 3.842995e+00 6.730639e-01 3.521726e-01 4.744069e-01 5.517479e-01 8.290523e-01 6.151479e-01 6.541734e-01 5.698839e-01 7.930461e-01 7.420748e-01 1.090505e+00 4.455079e-01 5.990524e-01
<GCONST> 1.360594e+02
<STATE> 3
<MEAN> 39
 -2.208948e+00 -9.533613e+00 -5.136148e+00 -9.963120e+00 -7.745846e+00 -1.059187e+00 -1.230740e+01 -6.407115e+00 5.050997e+00 -1.197394e+01 -3.882772e+00 -9.906961e+00 7.470914e+01 3.274825e-02 -5.449433e-02 3.056929e-01 1.516030e-01 -2.489434e-01 -2.715145e-01 -3.660717e-01 7.347760e-02 2.214517e-01 -4.880331e-01 1.576945e-01 -1.021324e-01 8.054572e-02 2.396808e-02 2.271616e-02 6.307112e-02 -5.241869e-02 -1.083006e-01 2.302415e-02 4.171040e-02 -1.417459e-02 -8.605050e-02 7.756147e-03 1.834896e-01 -1.649953e-02 2.603417e-02
<VARIANCE> 39
 5.409234e+01 4.712958e+01 5.843938e+01 7.906733e+01 5.730528e+01 7.922117e+01 4.171455e+01 4.784832e+01 8.971394e+01 7.549261e+01 6.437965e+01 4.373847e+01 1.689072e+02 4.838791e+00 2.830445e+00 3.258290e+00 4.796023e+00 7.001423e+00 4.664656e+00 3.753041e+00 3.799449e+00 5.713066e+00 5.249879e+00 6.162392e+00 2.805292e+00 6.711420e+00 6.540702e-01 4.401595e-01 4.701881e-01 6.577944e-01 1.287083e+00 6.694038e-01 6.736841e-01 6.788252e-01 8.383387e-01 7.975034e-01 9.884372e-01 4.986969e-01 8.686959e-01
<GCONST> 1.409352e+02
<STATE> 4
<MEAN> 39
 -4.099026e-01 -9.143731e+00 -1.842205e+00 -8.120412e+00 -1.235226e+01 -2.986980e+00 -1.255046e+01 -5.763712e+00 3.133632e+00 -1.264574e+01 -1.446006e+00 -9.750654e+00 7.400353e+01 -1.098258e-01 -4.147083e-02 -1.510842e-01 -1.948224e-01 -3.161854e-02 5.847500e-02 1.388634e-01 1.869858e-01 7.707741e-02 2.528899e-01 -2.149153e-02 -3.572530e-02 1.755494e-01 -2.311173e-02 -6.125415e-03 -3.865750e-02 -5.842697e-02 9.564889e-02 6.979927e-02 5.332924e-02 -3.454222e-02 -3.391124e-02 6.869081e-02 -8.971130e-03 -3.510801e-03 1.256938e-02
<VARIANCE> 39
 4.999853e+01 4.029210e+01 6.180304e+01 7.135607e+01 8.293813e+01 8.416093e+01 4.741967e+01 6.400745e+01 8.142700e+01 6.202478e+01 6.459798e+01 4.387814e+01 1.303990e+02 3.442801e+00 2.240482e+00 3.570210e+00 4.411539e+00 8.791946e+00 5.486844e+00 2.912022e+00 4.694024e+00 4.799365e+00 4.221290e+00 6.584599e+00 2.571664e+00 6.877658e+00 5.221416e-01 3.272726e-01 4.725277e-01 6.249971e-01 1.614235e+00 6.883343e-01 5.180388e-01 8.077341e-01 6.979868e-01 6.136441e-01 1.081300e+00 4.438756e-01 9.076433e-01
<GCONST> 1.395195e+02
<TRANSP> 5
 0.000000e+00 1.000000e+00 0.000000e+00 0.000000e+00 0.000000e+00
 0.000000e+00 6.273305e-01 3.726695e-01 0.000000e+00 0.000000e+00
 0.000000e+00 0.000000e+00 6.957201e-01 3.042798e-01 0.000000e+00
 0.000000e+00 0.000000e+00 0.000000e+00 8.904251e-01 1.095749e-01
 0.000000e+00 0.000000e+00 0.000000e+00 0.000000e+00 0.000000e+00
<ENDHMM>
~h "ao"
<BEGINHMM>
<NUMSTATES> 5
<STATE> 2
<MEAN> 39
 -7.811486e+00 -6.614461e+00 -1.331273e+01 -6.536566e+00 -4.504024e+00 -3.312329e-01 -7.637797e+00 -2.253894e+00 -2.464978e+00 -6.263208e+00 -5.548964e+00 -4.015389e+00 4.944816e+01 -1.065489e+00 1.013409e-01 2.528971e-01 1.086892e-01 -5.465661e-01 -7.560422e-01 -1.624563e-01 -4.023790e-01 -3.251149e-01 3.876286e-01 -8.032291e-02 -1.603074e-01 -9.205307e-01 1.936540e-01 1.884986e-02 1.448908e-01 3.355005e-02 1.626875e-01 1.816027e-01 -2.192981e-02 1.371758e-01 5.095301e-02 -3.367691e-02 1.678446e-01 -3.323119e-02 1.576825e-01
<VARIANCE> 39
 2.104388e+01 3.536288e+01 4.792239e+01 7.241214e+01 1.747392e+01 1.611131e+02 9.514204e+01 2.634511e+01 3.616066e+01 2.144532e+01 1.759526e+01 1.382964e+01 1.435663e+02 1.344969e+00 1.395879e+00 2.641224e+00 2.442085e+00 1.613252e+00 3.407375e+00 2.999178e+00 2.031013e+00 2.062243e+00 1.498257e+00 1.977657e+00 1.150575e+00 4.615445e-01 1.330417e-01 2.066801e-01 2.867383e-01 2.771163e-01 3.750144e-01 5.379599e-01 5.050307e-01 3.389676e-01 3.883685e-01 3.685586e-01 3.872154e-01 2.306295e-01 5.814921e-02
<GCONST> 1.098115e+02
<STATE> 3
<MEAN> 39
 -8.995559e+00 -5.572808e+00 -1.201769e+01 -5.781577e+00 -5.066591e+00 -1.480397e+00 -7.781243e+00 -2.634410e+00 -3.188083e+00 -5.800015e+00 -5.468908e+00 -4.187693e+00 4.778464e+01 -7.964808e-01 1.746207e-01 4.622142e-01 2.879066e-01 -1.799390e-01 -4.374975e-01 -1.904372e-01 -1.373938e-01 -1.685545e-01 3.605965e-01 1.327252e-01 -1.198710e-01 -6.847126e-01 1.519422e-01 2.352243e-02 7.859975e-02 4.849184e-02 1.530524e-01 1.959017e-01 5.183809e-02 1.011597e-01 8.870270e-03 -5.897321e-02 8.841265e-02 1.948648e-02 1.243591e-01
<VARIANCE> 39
 2.360150e+01 4.120259e+01 4.383859e+01 5.582848e+01 1.570000e+01 1.163223e+02 7.504787e+01 2.384251e+01 3.398232e+01 1.867579e+01 1.883080e+01 1.343981e+01 1.333026e+02 1.363321e+00 1.333097e+00 1.912519e+00 2.083658e+00 1.736514e+00 3.617327e+00 2.542139e+00 1.867036e+00 2.096573e+00 1.652865e+00 1.629124e+00 1.078943e+00 4.106135e-01 1.369949e-01 1.970128e-01 3.009284e-01 2.881181e-01 3.266053e-01 4.961629e-01 4.276495e-01 3.619397e-01 3.803951e-01 3.071567e-01 3.380005e-01 2.387273e-01 6.040147e-02
<GCONST> 1.073166e+02
<STATE> 4
<MEAN> 39
 -8.375004e+00 1.230253e+00 -5.932599e+00 -5.047045e-01 -5.479534e+00 -1.721623e+00 -7.889688e+00 -3.302509e+00 -4.188070e+00 -3.463966e+00 -3.653538e+00 -3.661184e+00 4.241473e+01 -1.630617e-01 1.399883e-01 2.086092e-01 1.848296e-01 4.183649e-02 3.167957e-02 2.825535e-02 1.476880e-02 -3.940524e-02 9.939060e-02 1.013491e-01 -7.809159e-03 -1.773297e-01 3.980202e-02 -1.837733e-02 -2.312760e-02 -2.897457e-02 6.786467e-04 3.271699e-02 2.393769e-02 9.094785e-03 -7.296922e-03 -2.966584e-02 2.872246e-03 1.530481e-02 3.318170e-02
<VARIANCE> 39
 3.050034e+01 5.548420e+01 3.569947e+01 3.372545e+01 1.691137e+01 3.097968e+01 2.484433e+01 1.711157e+01 1.769730e+01 1.398066e+01 1.540564e+01 1.196647e+01 3.307238e+01 1.402931e+00 1.739612e+00 1.705389e+00 1.754258e+00 1.679361e+00 2.133915e+00 1.824715e+00 1.896431e+00 1.821375e+00 1.415503e+00 1.395378e+00 1.176221e+00 3.810456e-01 2.204501e-01 2.953961e-01 3.163173e-01 3.351089e-01 3.288682e-01 3.630587e-01 3.334026e-01 3.948536e-01 3.513997e-01 2.796468e-01 2.894027e-01 2.518729e-01 6.935125e-02
<GCONST> 1.009922e+02
<TRANSP> 5
 0.000000e+00 1.000000e+00 0.000000e+00 0.000000e+00 0.000000e+00
 0.000000e+00 4.159840e-01 5.840160e-01 0.000000e+00 0.000000e+00
 0.000000e+00 0.000000e+00 4.378397e-01 5.621604e-01 0.000000e+00
 0.000000e+00 0.000000e+00 0.000000e+00 8.829011e-01 1.170989e-01
 0.000000e+00 0.000000e+00 0.000000e+00 0.000000e+00 0.000000e+00
<ENDHMM>
~h "en"
<BEGINHMM>
<NUMSTATES> 5
<STATE> 2
<MEAN> 39
 3.831821e+00 -2.714097e+00 -4.456979e+00 -1.255538e+01 -1.180988e+01 3.577909e+00 -1.281740e+01 2.344502e+00 6.804857e+00 -1.808370e+01 4.576050e+00 -9.573699e+00 6.520226e+01 -2.356011e-01 7.007890e-01 3.699478e-02 9.384821e-01 4.806108e-01 -4.810730e-01 6.628117e-01 -2.713616e-01 -7.108269e-01 9.354007e-01 -6.734597e-01 2.062449e-01 -1.737802e+00 -1.883304e-01 -5.182940e-02 -6.925268e-02 3.242997e-02 1.877160e-02 -7.837084e-03 -3.558264e-03 -3.371098e-02 -8.687842e-02 1.405144e-01 -1.241106e-01 7.395284e-02 -7.663645e-02
<VARIANCE> 39
 2.661612e+01 3.103912e+01 1.670415e+01 1.166582e+02 9.718750e+01 1.061978e+02 2.683356e+01 3.130668e+01 3.809348e+01 6.306475e+01 7.795728e+01 5.200346e+01 1.085545e+02 1.943850e+00 2.135921e+00 1.052150e+00 2.397241e+00 1.545278e+00 1.422387e+00 1.630723e+00 1.807234e+00 2.261945e+00 2.813278e+00 5.267516e+00 3.137134e+00 2.606622e+00 2.638431e-01 4.282364e-01 2.040142e-01 4.638739e-01 2.349499e-01 2.249794e-01 2.662895e-01 2.708336e-01 3.664385e-01 3.558007e-01 6.939423e-01 3.575000e-01 1.867435e-01
<GCONST> 1.173368e+02
<STATE> 3
<MEAN> 39
 -1.998324e-01 8.329720e-01 -4.548098e+00 -4.534087e+00 -6.007751e+00 -9.906844e-01 -8.851175e+00 8.473005e-01 1.078309e+00 -1.000859e+01 -3.099223e+00 -7.152071e+00 5.296606e+01 -1.635855e+00 3.020942e-02 -5.277685e-01 6.812162e-01 2.170786e-01 -3.149057e-01 6.684801e-01 -4.661628e-01 -8.624816e-01 1.047177e+00 -1.135716e+00 7.513179e-01 -1.818822e+00 -1.673858e-01 -3.490675e-01 -1.762903e-01 -2.646280e-01 -1.976438e-01 -1.607665e-02 -1.385922e-01 1.136995e-02 8.857705e-02 -1.624532e-01 2.849627e-01 -1.154921e-01 1.872174e-01
<VARIANCE> 39
 6.096099e+01 3.074600e+01 2.105556e+01 9.130865e+01 4.357860e+01 5.404706e+01 3.037016e+01 2.836401e+01 3.119779e+01 3.691723e+01 6.510724e+01 3.605293e+01 6.890909e+01 2.845904e+00 3.441007e+00 2.102127e+00 4.028896e+00 2.547618e+00 2.069645e+00 2.200287e+00 2.140253e+00 2.724315e+00 2.167936e+00 4.969426e+00 2.411407e+00 2.408566e+00 3.920994e-01 5.555701e-01 3.469298e-01 7.460001e-01 4.453057e-01 3.426147e-01 4.020798e-01 3.923766e-01 5.454477e-01 3.589751e-01 7.360216e-01 4.237021e-01 2.039069e-01
<GCONST> 1.221207e+02
<STATE> 4
<MEAN> 39
 -6.481324e+00 -3.309555e-01 -6.632930e+00 -2.265794e+00 -6.955662e+00 -3.119370e+00 -7.245254e+00 -2.222356e+00 -3.658395e+00 -5.717936e+00 -5.156227e+00 -3.663193e+00 4.628987e+01 -6.293935e-01 -1.927813e-01 -3.103474e-01 -2.592689e-01 -2.671204e-01 1.269446e-02 2.018782e-01 -2.614894e-01 -4.320460e-01 2.775586e-01 1.870122e-01 1.229937e-01 -4.408281e-01 1.988414e-01 4.274402e-02 7.347533e-02 -3.980274e-02 1.792579e-02 9.735619e-03 -6.677525e-02 1.710070e-02 6.176380e-02 -6.660498e-02 7.507878e-02 -7.995164e-02 1.868444e-01
<VARIANCE> 39
 7.798511e+01 3.371330e+01 2.115450e+01 2.966861e+01 2.278873e+01 2.147593e+01 2.278559e+01 2.247890e+01 2.251033e+01 1.740053e+01 2.389856e+01 1.741350e+01 4.169302e+01 2.032861e+00 1.574250e+00 1.534618e+00 1.681255e+00 1.654450e+00 1.925376e+00 1.614829e+00 1.689359e+00 2.322034e+00 1.570266e+00 2.131109e+00 1.664556e+00 8.636267e-01 2.268852e-01 2.324034e-01 2.742618e-01 3.276492e-01 3.569416e-01 3.405886e-01 3.369094e-01 3.426763e-01 4.951577e-01 3.274475e-01 4.164644e-01 3.215912e-01 1.087926e-01
<GCONST> 1.051775e+02
<TRANSP> 5
 0.000000e+00 1.000000e+00 0.000000e+00 0.000000e+00 0.000000e+00
 0.000000e+00 8.128362e-01 1.871638e-01 0.000000e+00 0.000000e+00
 0.000000e+00 0.000000e+00 6.212201e-01 3.787799e-01 0.000000e+00
 0.000000e+00 0.000000e+00 0.000000e+00 8.745447e-01 1.254552e-01
 0.000000e+00 0.000000e+00 0.000000e+00 0.000000e+00 0.000000e+00
<ENDHMM>
~h "er"
<BEGINHMM>
<NUMSTATES> 5
<STATE> 2
<MEAN> 39
 -4.550035e+00 -1.500844e+01 -9.083052e+00 -1.288629e+01 -4.647754e+00 1.331105e+00 -1.226033e+01 4.841882e+00 -2.348282e+00 -7.242035e+00 1.552575e+00 -9.024585e+00 7.374885e+01 3.196797e-01 -2.044672e-01 1.245261e-01 -2.181107e-01 -1.711855e-01 2.702346e-01 -1.405779e-01 1.801753e-01 1.597042e-01 -4.107577e-02 9.390870e-02 -2.159345e-01 5.726027e-01 -2.068764e-02 2.699072e-02 1.611209e-03 7.795915e-03 -2.053953e-02 4.401710e-03 1.577786e-02 -2.985404e-02 -6.371418e-03 3.594924e-04 -9.635495e-03 3.660347e-02 -6.609382e-02
<VARIANCE> 39
 1.308577e+02 5.116332e+01 7.649413e+01 4.053609e+01 7.507282e+01 9.130859e+01 1.048684e+02 9.232372e+01 5.151405e+01 4.095519e+01 3.665167e+01 5.918875e+01 1.303757e+02 9.657460e+00 3.992001e+00 3.496970e+00 3.098948e+00 6.201484e+00 6.697079e+00 1.083717e+01 8.310551e+00 3.309389e+00 3.205988e+00 3.953120e+00 5.688619e+00 8.078876e+00 1.303183e+00 6.323234e-01 5.213741e-01 5.001892e-01 1.095832e+00 1.135788e+00 1.861926e+00 1.381022e+00 5.269692e-01 5.823163e-01 7.373461e-01 1.064533e+00 8.227736e-01
<GCONST> 1.465764e+02
<STATE> 3
<MEAN> 39
 2.531995e+00 -1.662220e+01 -7.058265e+00 -1.584991e+01 -1.331244e+01 1.261269e+01 -1.268531e+01 1.443215e+00 -2.208241e+00 -5.738855e+00 2.824885e+00 -1.258462e+01 7.250983e+01 5.546409e-01 3.369575e-01 -4.536362e-01 5.797853e-01 1.525326e-01 3.870380e-01 6.473079e-01 -7.333090e-01 -3.734974e-01 1.117016e-01 -4.006545e-02 6.750882e-01 -7.642893e-01 -1.454804e-01 9.137270e-02 1.056660e-01 2.287235e-01 2.630509e-01 -4.641990e-01 1.337568e-01 -5.516628e-03 1.070370e-01 3.411240e-03 -1.339967e-01 1.580770e-01 -1.025098e-01
<VARIANCE> 39
 9.023718e+01 3.621924e+01 4.375744e+01 6.684921e+01 7.348988e+01 1.444841e+02 4.138489e+01 6.661842e+01 2.494420e+01 5.377143e+01 2.568447e+01 4.498553e+01 4.194726e+01 3.311350e+00 2.325645e+00 1.653989e+00 4.922276e+00 4.381658e+00 9.096708e+00 3.259207e+00 3.783781e+00 2.315423e+00 2.110312e+00 2.305038e+00 3.331853e+00 2.118995e+00 5.874561e-01 4.004175e-01 2.764537e-01 5.696632e-01 6.502730e-01 8.820739e-01 6.081634e-01 7.232744e-01 3.491554e-01 4.197421e-01 3.455039e-01 6.134033e-01 3.851317e-01
<GCONST> 1.285457e+02
<STATE> 4
<MEAN> 39
 6.791596e+00 -1.528067e+01 -1.038473e+01 -1.372871e+01 -1.242788e+01 1.611549e+01 -9.660695e+00 -2.218641e+00 -3.503097e+00 -5.624899e+00 1.876108e+00 -9.159473e+00 6.726752e+01 -5.236384e-01 6.017108e-01 -1.025582e-01 1.549700e+00 1.218360e+00 -1.736207e+00 1.181410e+00 -3.327798e-01 2.257065e-01 1.079046e-01 -6.116000e-01 9.644901e-01 -1.053530e+00 -4.681153e-01 -1.333673e-01 1.488873e-01 5.924077e-03 2.907149e-01 -3.256629e-01 1.543144e-02 1.258952e-01 1.932095e-01 -4.850931e-02 -7.998869e-02 -9.419824e-02 1.210087e-01
<VARIANCE> 39
 2.177253e+01 3.024319e+01 3.809708e+01 1.247182e+02 5.645647e+01 1.309649e+02 3.635886e+01 4.106485e+01 1.433708e+01 6.139410e+01 1.782716e+01 2.293465e+01 4.070112e+01 3.920698e+00 1.426590e+00 1.870657e+00 3.732830e+00 5.488582e+00 6.495036e+00 1.703223e+00 3.438775e+00 2.271086e+00 1.938229e+00 1.505224e+00 1.381932e+00 1.669722e+00 6.334461e-01 2.366087e-01 2.735045e-01 5.888209e-01 6.504339e-01 5.392010e-01 3.053933e-01 5.557400e-01 2.433928e-01 3.913594e-01 2.452801e-01 3.086748e-01 3.283385e-01
<GCONST> 1.184925e+02
<TRANSP> 5
 0.000000e+00 1.000000e+00 0.000000e+00 0.000000e+00 0.000000e+00
 0.000000e+00 9.740511e-01 2.594891e-02 0.000000e+00 0.000000e+00
 0.000000e+00 0.000000e+00 8.104721e-01 1.895279e-01 0.000000e+00
 0.000000e+00 0.000000e+00 0.000000e+00 8.268417e-01 1.731583e-01
 0.000000e+00 0.000000e+00 0.000000e+00 0.000000e+00 0.000000e+00
<ENDHMM>
~h "iu"
<BEGINHMM>
<NUMSTATES> 5
<STATE> 2
<MEAN> 39
 5.073080e+00 -1.125028e+01 -4.282619e+00 -2.608503e+01 -1.476809e+01 1.569109e+01 -1.600036e+01 -4.387681e+00 -7.427188e-01 -7.582654e+00 6.163172e+00 -6.505623e+00 7.734154e+01 3.944657e-01 8.244490e-01 -4.077209e-01 -1.865806e+00 -9.415342e-01 2.070694e+00 1.045173e+00 3.182603e-01 7.503603e-01 -2.077236e+00 -7.226959e-01 1.275278e+00 -6.723993e-01 -8.852698e-02 1.608727e-01 2.400881e-02 7.108215e-01 2.971711e-02 -8.347952e-01 -4.091346e-02 3.110842e-01 2.780367e-01 -4.227842e-01 -7.683789e-02 7.723322e-02 -1.897155e-01
<VARIANCE> 39
 4.724884e+00 2.909957e+01 9.943806e+00 3.372745e+01 5.951177e+01 7.126833e+01 3.507986e+01 3.422747e+01 2.725006e+01 7.436286e+01 3.104625e+01 8.044321e+01 8.449417e+00 2.418993e-01 5.640362e-01 3.181880e-01 4.038716e+00 1.043152e+00 4.236960e+00 2.209375e+00 3.791002e+00 3.334729e+00 5.191308e+00 3.487854e+00 4.383204e+00 6.119016e-01 6.945721e-02 1.411052e-01 7.491764e-02 2.494085e-01 1.579505e-01 4.945937e-01 4.873180e-01 5.416117e-01 3.407735e-01 1.002218e+00 5.108075e-01 1.040012e+00 1.060867e-01
<GCONST> 1.059509e+02
<STATE> 3
<MEAN> 39
 5.778389e+00 -9.344279e+00 -5.032653e+00 -2.827075e+01 -1.673447e+01 1.827569e+01 -1.415439e+01 -2.842313e+00 1.451774e+00 -1.262607e+01 4.549689e+00 -4.132350e+00 7.557955e+01 2.415292e-01 8.031392e-01 -2.496845e-01 -1.324281e-01 -8.587154e-01 5.549414e-01 6.549941e-01 7.429287e-01 1.004273e+00 -2.069947e+00 -5.331177e-01 6.273964e-01 -9.114333e-01 -1.058548e-01 -6.447631e-02 4.623115e-02 6.742243e-01 1.270284e-01 -5.824726e-01 -1.076934e-01 4.977556e-02 4.077615e-03 2.130894e-01 1.789616e-01 -3.648600e-01 -4.603059e-02
<VARIANCE> 39
 4.328842e+00 3.210156e+01 8.943782e+00 2.066632e+01 6.804389e+01 4.389203e+01 3.492316e+01 3.012988e+01 4.135537e+01 8.556437e+01 2.049012e+01 6.968922e+01 1.210179e+01 2.832335e-01 5.230640e-01 2.435483e-01 3.699244e+00 8.914744e-01 2.224505e+00 9.585664e-01 1.888373e+00 2.464835e+00 4.317422e+00 1.934028e+00 3.474451e+00 6.334480e-01 8.284943e-02 1.081362e-01 5.268738e-02 2.809351e-01 2.206103e-01 3.409608e-01 2.884654e-01 2.592605e-01 2.683460e-01 5.334260e-01 3.528083e-01 4.511677e-01 5.508296e-02
<GCONST> 9.700858e+01
<STATE> 4
<MEAN> 39
 6.506344e+00 -3.656936e+00 -5.213820e+00 -2.410317e+01 -2.185971e+01 1.604434e+01 -1.388334e+01 1.497169e+00 8.177142e+00 -2.093246e+01 9.996470e+00 -9.271297e+00 7.131915e+01 3.566115e-02 5.379509e-01 -1.564508e-02 8.641282e-01 3.643164e-01 -7.122816e-01 2.961526e-01 2.076840e-01 1.135397e-01 1.538393e-01 3.437561e-01 -8.718224e-01 -1.048523e+00 -1.010394e-01 3.009379e-02 5.907893e-02 1.473318e-01 2.263487e-01 -1.895140e-01 4.219071e-02 -5.294565e-02 -1.117516e-01 2.516284e-01 -1.278702e-01 6.955756e-02 -1.186177e-01
<VARIANCE> 39
 3.845955e+00 1.948340e+01 4.547858e+00 3.197205e+01 3.116219e+01 2.516103e+01 2.273862e+01 1.772238e+01 4.020979e+01 6.416232e+01 4.510611e+01 7.331590e+01 2.481089e+01 3.689190e-01 6.796706e-01 3.546039e-01 1.346530e+00 1.548977e+00 1.503793e+00 7.279062e-01 8.385209e-01 1.209836e+00 2.644924e+00 2.183034e+00 2.213693e+00 7.941522e-01 1.303176e-01 1.034794e-01 7.158948e-02 2.151551e-01 1.608071e-01 2.647100e-01 1.474786e-01 1.232601e-01 2.006468e-01 2.004733e-01 3.919392e-01 2.708948e-01 6.157599e-02
<GCONST> 8.965768e+01
<TRANSP> 5
 0.000000e+00 1.000000e+00 0.000000e+00 0.000000e+00 0.000000e+00
 0.000000e+00 5.072902e-01 4.927098e-01 0.000000e+00 0.000000e+00
 0.000000e+00 0.000000e+00 5.221109e-01 4.778891e-01 0.000000e+00
 0.000000e+00 0.000000e+00 0.000000e+00 9.140539e-01 8.594611e-02
 0.000000e+00 0.000000e+00 0.000000e+00 0.000000e+00 0.000000e+00
<ENDHMM>
~h "sh"
<BEGINHMM>
<NUMSTATES> 5
<STATE> 2
<MEAN> 39
 -6.155070e+00 -1.276021e+01 -3.070069e+00 -3.133426e+00 -6.916399e+00 -4.586284e+00 -7.725247e+00 -2.616191e-01 1.293965e-01 -1.193149e+01 -4.798751e+00 -9.523981e+00 7.467368e+01 -3.129899e-01 -9.552410e-02 -2.902365e-01 -2.912092e-01 3.694148e-01 1.676523e-01 -1.479118e-01 4.130384e-01 4.544179e-01 -3.194017e-01 -1.448228e-02 -1.530242e-01 1.588599e-01 5.499084e-02 -1.283228e-02 -8.739980e-03 -2.886860e-02 -2.526152e-02 6.813876e-02 -3.857564e-02 -5.021505e-02 3.892139e-03 2.050395e-02 1.433649e-02 -2.815736e-03 -3.088669e-02
<VARIANCE> 39
 1.393962e+02 4.058532e+01 4.997118e+01 8.893819e+01 4.321836e+01 9.334132e+01 7.881641e+01 7.185641e+01 8.017992e+01 4.917381e+01 4.387956e+01 4.283566e+01 6.769984e+01 1.143504e+01 3.163383e+00 2.982324e+00 4.116463e+00 3.465839e+00 4.234076e+00 4.582044e+00 4.512149e+00 2.878272e+00 3.935832e+00 4.491814e+00 3.118108e+00 2.408952e+00 1.586554e+00 5.719283e-01 4.661587e-01 5.174261e-01 6.234566e-01 5.074678e-01 7.170353e-01 7.124075e-01 4.839882e-01 7.212064e-01 7.679469e-01 5.468903e-01 2.302261e-01
<GCONST> 1.367216e+02
<STATE> 3
<MEAN> 39
 -4.187402e+00 -1.242157e+01 -8.362812e+00 -5.143966e+00 -2.676652e+00 1.567914e+00 -1.129934e+01 1.959854e+00 6.773183e+00 -1.532830e+01 -6.134745e+00 -1.074776e+01 6.956933e+01 -4.349991e-02 3.290040e-01 -1.526940e-01 2.964861e-01 1.541083e-01 -4.204213e-02 2.304183e-01 4.885873e-03 -1.458194e-01 2.303792e-01 -1.239938e-01 3.193612e-01 -9.592903e-01 1.069332e-02 2.828649e-02 8.601194e-04 -1.769533e-02 -3.852916e-02 -4.517827e-02 2.281243e-03 -1.878341e-02 -6.565507e-02 5.920143e-02 1.406197e-02 1.884651e-02 -2.720608e-02
<VARIANCE> 39
 7.870655e+01 5.882770e+01 3.475861e+01 5.743480e+01 2.703225e+01 7.143302e+01 7.726148e+01 4.169842e+01 6.159729e+01 5.374432e+01 4.476443e+01 6.376183e+01 1.488022e+02 4.640200e+00 2.629061e+00 2.049835e+00 2.904274e+00 2.288039e+00 3.027905e+00 3.873407e+00 3.095089e+00 3.164644e+00 2.917717e+00 4.088959e+00 4.317181e+00 2.709727e+00 6.701049e-01 4.376545e-01 3.305556e-01 4.143695e-01 3.996380e-01 4.235241e-01 5.820512e-01 5.232707e-01 5.161080e-01 4.342636e-01 6.828392e-01 6.290234e-01 2.333937e-01
<GCONST> 1.292441e+02
<STATE> 4
<MEAN> 39
 -6.815772e+00 -5.510678e+00 -7.725710e+00 -3.096874e+00 -2.573611e+00 -5.979991e-01 -7.750421e+00 -9.265178e-01 1.357451e+00 -8.594432e+00 -5.718614e+00 -6.007819e+00 5.671658e+01 -2.748992e-01 4.314394e-01 1.976377e-01 -2.052296e-02 -1.918031e-01 -1.813591e-01 1.821984e-01 -2.458812e-01 -4.294032e-01 5.153400e-01 2.502137e-01 1.671122e-01 -6.137358e-01 4.430754e-02 -2.789034e-02 -3.882510e-03 -4.619738e-02 -2.200760e-02 3.636177e-03 -4.261277e-02 5.382739e-03 1.176645e-02 -2.444729e-02 3.383031e-02 -4.385848e-02 6.069683e-02
<VARIANCE> 39
 9.300080e+01 6.490405e+01 4.151798e+01 4.426316e+01 3.173075e+01 4.615567e+01 5.746132e+01 6.742095e+01 4.720644e+01 4.847860e+01 4.120378e+01 3.109289e+01 1.750222e+02 3.753272e+00 2.591046e+00 2.434638e+00 2.834487e+00 2.225956e+00 2.426530e+00 3.299286e+00 3.216292e+00 2.559563e+00 1.908476e+00 2.295247e+00 2.195712e+00 1.656284e+00 5.269141e-01 4.166869e-01 3.937556e-01 4.885135e-01 3.927269e-01 4.259302e-01 5.650099e-01 5.407545e-01 4.876967e-01 3.027874e-01 4.064081e-01 3.636193e-01 1.829982e-01
<GCONST> 1.238079e+02
<TRANSP> 5
 0.000000e+00 1.000000e+00 0.000000e+00 0.000000e+00 0.000000e+00
 0.000000e+00 9.589118e-01 4.108819e-02 0.000000e+00 0.000000e+00
 0.000000e+00 0.000000e+00 8.809534e-01 1.190466e-01 0.000000e+00
 0.000000e+00 0.000000e+00 0.000000e+00 9.284574e-01 7.154253e-02
 0.000000e+00 0.000000e+00 0.000000e+00 0.000000e+00 0.000000e+00
<ENDHMM>
~h "si"
<BEGINHMM>
<NUMSTATES> 5
<STATE> 2
<MEAN> 39
 -7.701348e+00 -4.706656e+00 -3.384324e+00 -1.085550e+01 -3.172606e+00 -3.939315e+00 -1.356547e+01 -7.613144e+00 7.238840e-01 -6.123239e+00 6.766745e-01 -8.664663e+00 7.018285e+01 5.443913e-01 -3.169153e-01 3.073818e-01 -3.908202e-01 -2.587156e-01 2.554191e-01 -2.888741e-01 1.387271e-01 -2.423405e-02 -2.318545e-02 5.297452e-02 -2.716242e-01 1.774608e-01 -1.749346e-02 -2.663339e-02 -3.227719e-02 1.141523e-02 -4.796724e-03 3.033937e-02 4.811892e-02 3.687385e-02 1.082191e-03 -2.745019e-02 9.979874e-03 1.399883e-02 -9.988627e-03
<VARIANCE> 39
 1.458658e+02 5.145049e+01 5.819348e+01 6.379678e+01 6.260944e+01 4.895914e+01 1.407160e+02 1.251511e+02 5.644128e+01 2.741519e+01 3.232747e+01 6.534624e+01 3.698819e+01 6.671678e+00 2.740090e+00 2.447002e+00 4.774966e+00 2.639588e+00 3.359824e+00 6.941687e+00 7.242609e+00 3.810558e+00 1.840314e+00 2.229142e+00 3.318280e+00 1.974163e+00 7.336091e-01 4.804565e-01 3.800578e-01 6.286246e-01 4.192509e-01 5.566359e-01 8.813368e-01 1.080639e+00 5.558065e-01 3.589545e-01 4.084947e-01 5.426726e-01 2.655945e-01
<GCONST> 1.329052e+02
<STATE> 3
<MEAN> 39
 9.608107e-01 -1.396310e+01 -9.833927e-01 -1.475414e+01 -1.307489e+01 6.136539e+00 -1.478604e+01 8.855171e-01 -1.444081e+00 -9.463288e+00 2.610746e+00 -1.540061e+01 7.263224e+01 -1.129093e-01 -4.286425e-02 -8.585001e-01 -3.854357e-01 2.532463e-01 1.376419e+00 6.424833e-01 -1.246779e-01 5.142541e-02 -4.101372e-01 -2.354983e-01 2.854694e-01 -4.372884e-01 -3.322184e-02 1.355662e-01 -5.032232e-02 1.811225e-01 3.034426e-02 -1.258559e-01 -6.323099e-02 -5.200735e-02 -6.421789e-02 -1.222538e-02 4.431042e-03 1.252987e-01 -1.392085e-01
<VARIANCE> 39
 2.662584e+01 3.560955e+01 6.310017e+01 6.997816e+01 7.614307e+01 1.212075e+02 4.421014e+01 1.257358e+02 5.268988e+01 3.552727e+01 2.522476e+01 5.312164e+01 4.112057e+01 1.845921e+00 1.565434e+00 1.817247e+00 4.577713e+00 3.841931e+00 4.310333e+00 3.374954e+00 7.177973e+00 3.328840e+00 2.843146e+00 1.788416e+00 3.363543e+00 1.934698e+00 2.493438e-01 3.028427e-01 2.219504e-01 6.873397e-01 5.590804e-01 5.074847e-01 6.775044e-01 9.438128e-01 4.496167e-01 4.664781e-01 3.130149e-01 6.205887e-01 2.161247e-01
<GCONST> 1.261024e+02
<STATE> 4
<MEAN> 39
 2.581285e+00 -1.222857e+01 -7.762295e+00 -1.928595e+01 -9.499313e+00 1.607361e+01 -1.296292e+01 -2.199476e+00 -2.668932e-01 -1.447691e+01 2.350098e+00 -9.526902e+00 6.813356e+01 -7.671858e-02 4.559693e-01 -6.207902e-01 3.169056e-01 4.005133e-01 -4.656926e-02 4.575225e-01 -2.230117e-01 -2.416017e-01 -2.518845e-01 -5.776007e-02 4.842651e-01 -1.039962e+00 -7.199903e-02 -2.573518e-02 -1.025194e-02 1.592283e-01 1.252965e-01 -3.098828e-01 2.082811e-02 6.797176e-02 7.842276e-02 8.907791e-02 -5.180502e-02 -4.050029e-02 1.134096e-02
<VARIANCE> 39
 2.828493e+01 3.479794e+01 5.154338e+01 9.156702e+01 6.307120e+01 1.159308e+02 4.940656e+01 5.767798e+01 3.146332e+01 7.054715e+01 3.154513e+01 5.371204e+01 7.252867e+01 1.195942e+00 9.076317e-01 1.010359e+00 3.502520e+00 1.918508e+00 4.156558e+00 2.430184e+00 3.827316e+00 1.776010e+00 2.040183e+00 1.891680e+00 2.015860e+00 1.223991e+00 2.712222e-01 1.644874e-01 1.322469e-01 3.586101e-01 3.446585e-01 4.844639e-01 5.315254e-01 6.224025e-01 2.949658e-01 2.607181e-01 3.212722e-01 2.460355e-01 2.153185e-01
<GCONST> 1.160922e+02
<TRANSP> 5
 0.000000e+00 1.000000e+00 0.000000e+00 0.000000e+00 0.000000e+00
 0.000000e+00 9.619914e-01 3.800857e-02 0.000000e+00 0.000000e+00
 0.000000e+00 0.000000e+00 7.964686e-01 2.035314e-01 0.000000e+00
 0.000000e+00 0.000000e+00 0.000000e+00 8.927536e-01 1.072464e-01
 0.000000e+00 0.000000e+00 0.000000e+00 0.000000e+00 0.000000e+00
<ENDHMM>
~h "wu"
<BEGINHMM>
<NUMSTATES> 5
<STATE> 2
<MEAN> 39
 1.853880e+00 3.895745e-01 -1.866619e+00 -1.005887e+01 -1.366903e+01 -1.349446e+00 -1.198244e+01 -5.344072e+00 1.026953e+00 -1.148845e+01 -1.778143e-01 -5.762532e+00 6.406632e+01 1.817233e-01 -2.358836e-01 1.535307e-01 -4.577681e-02 -2.627388e-01 -9.904036e-02 -1.569074e-01 -1.315011e-01 1.433842e-01 -1.893345e-01 7.419716e-02 -5.405198e-02 6.457305e-01 -7.101603e-02 -7.823545e-02 -4.481751e-02 3.392456e-02 3.223253e-02 1.455971e-03 1.041048e-02 -2.715047e-02 -1.632325e-02 2.237269e-02 -7.638128e-03 -1.468046e-02 -2.179838e-02
<VARIANCE> 39
 1.410598e+02 7.788712e+01 3.624680e+01 9.770819e+01 7.071476e+01 4.443456e+01 3.808409e+01 3.162352e+01 4.137572e+01 5.099962e+01 3.910203e+01 3.414343e+01 9.572339e+01 8.380216e+00 3.201901e+00 3.417697e+00 7.013817e+00 6.687326e+00 3.801806e+00 3.185634e+00 2.905839e+00 3.663332e+00 4.806344e+00 3.862661e+00 2.700541e+00 4.234292e+00 9.913566e-01 4.892381e-01 6.079524e-01 1.152785e+00 1.217087e+00 7.063408e-01 5.719122e-01 5.152754e-01 5.634086e-01 8.438298e-01 6.589620e-01 4.689371e-01 4.554406e-01
<GCONST> 1.371404e+02
<STATE> 3
<MEAN> 39
 3.247031e+00 -7.296047e+00 -2.635872e-01 -5.204019e+00 -1.469448e+01 -5.452185e-01 -1.494686e+01 -7.298098e+00 6.614068e-01 -1.189083e+01 8.483762e-01 -7.132606e+00 7.079881e+01 1.765382e-01 -2.602620e-01 9.932525e-03 -1.437867e-01 -8.892405e-02 1.687866e-01 -1.531990e-01 -1.357843e-02 -1.513785e-01 1.997507e-01 3.059084e-01 -8.358053e-02 3.440455e-01 -5.559709e-02 2.193834e-02 -1.458703e-02 -5.835781e-02 1.154576e-02 6.150067e-02 9.738072e-02 -1.521550e-02 -2.340196e-02 3.047798e-02 -2.509027e-02 3.246194e-02 -2.490541e-02
<VARIANCE> 39
 7.769001e+01 5.439421e+01 4.372926e+01 1.388658e+02 7.717796e+01 5.754329e+01 5.765739e+01 6.363405e+01 5.505911e+01 5.923101e+01 6.572563e+01 5.739626e+01 6.910559e+01 3.769683e+00 1.898323e+00 2.995790e+00 5.695539e+00 6.315195e+00 5.187551e+00 4.709309e+00 5.674417e+00 4.418051e+00 4.583657e+00 6.098047e+00 3.954163e+00 4.251378e+00 5.648304e-01 2.763164e-01 4.685436e-01 6.183547e-01 1.153000e+00 8.184555e-01 8.221337e-01 9.040304e-01 7.084768e-01 7.537810e-01 9.954632e-01 6.355913e-01 5.080911e-01
<GCONST> 1.399096e+02
<STATE> 4
<MEAN> 39
 4.377767e+00 -7.862154e+00 -2.572986e+00 -1.359009e+01 -1.645847e+01 7.242550e+00 -1.449564e+01 -4.021854e+00 1.926430e-01 -1.341702e+01 3.357945e+00 -7.068530e+00 7.269511e+01 9.715442e-03 -2.280615e-02 -1.416343e-01 -2.946290e-01 7.279189e-02 3.245900e-01 1.400022e-01 3.267968e-01 9.006488e-02 -2.696494e-01 6.166422e-02 -7.891216e-02 -1.548957e-01 -2.870764e-02 1.103993e-02 -4.475825e-03 5.985655e-02 5.773945e-02 -6.399003e-02 -3.722846e-03 2.323486e-02 9.661344e-03 6.635075e-03 1.418736e-03 -1.857076e-02 -4.882498e-02
<VARIANCE> 39
 3.474006e+01 5.962773e+01 4.219922e+01 1.848676e+02 7.037142e+01 1.176152e+02 7.810568e+01 8.630936e+01 5.902150e+01 9.177305e+01 7.175904e+01 6.056996e+01 6.286160e+01 1.633127e+00 1.421174e+00 1.683305e+00 4.934841e+00 3.815770e+00 5.185873e+00 5.122890e+00 5.460355e+00 3.744790e+00 5.569354e+00 5.072374e+00 3.385669e+00 2.255402e+00 2.621848e-01 2.077543e-01 2.659583e-01 4.264573e-01 6.207637e-01 6.850675e-01 8.830273e-01 8.136148e-01 6.030813e-01 8.289914e-01 8.314490e-01 5.179580e-01 2.359658e-01
<GCONST> 1.339452e+02
<TRANSP> 5
 0.000000e+00 1.000000e+00 0.000000e+00 0.000000e+00 0.000000e+00
 0.000000e+00 9.566538e-01 4.334626e-02 0.000000e+00 0.000000e+00
 0.000000e+00 0.000000e+00 8.946349e-01 1.053651e-01 0.000000e+00
 0.000000e+00 0.000000e+00 0.000000e+00 9.621921e-01 3.780797e-02
 0.000000e+00 0.000000e+00 0.000000e+00 0.000000e+00 0.000000e+00
<ENDHMM>
~h "yi"
<BEGINHMM>
<NUMSTATES> 5
<STATE> 2
<MEAN> 39
 -1.145834e+01 6.195268e+00 1.805684e+01 -8.082197e+00 -1.562782e+01 -3.929619e+00 -5.615107e+00 -1.399654e+01 -5.520120e+00 -1.517759e+01 5.149665e+00 -8.204863e+00 6.623804e+01 -5.012207e-02 4.772577e-02 6.993813e-01 -2.028968e-01 -3.253252e-01 -1.774240e-01 1.590972e-01 -4.902312e-01 -7.300618e-02 -2.795351e-01 1.792935e-01 -9.522258e-02 1.239920e+00 -5.347821e-02 -1.295281e-01 -2.511188e-01 3.463831e-02 1.034586e-01 -9.588491e-03 2.800599e-02 1.236354e-01 2.583108e-02 1.727108e-01 -9.877027e-02 5.292656e-02 -1.190145e-01
<VARIANCE> 39
 3.351534e+01 3.196709e+01 7.906894e+01 1.987939e+01 5.208887e+01 1.650941e+01 1.516781e+01 4.060291e+01 1.630405e+01 4.015866e+01 2.630631e+01 1.343604e+01 8.301404e+01 2.021852e+00 2.247018e+00 8.870866e+00 2.130874e+00 5.567386e+00 1.038239e+00 1.161567e+00 4.715021e+00 1.595225e+00 4.914967e+00 2.299661e+00 1.168148e+00 5.434191e+00 2.810958e-01 3.048647e-01 1.180857e+00 3.400604e-01 8.313919e-01 2.003462e-01 2.454049e-01 6.483846e-01 3.136298e-01 6.496371e-01 3.132100e-01 1.683270e-01 7.058170e-01
<GCONST> 1.167311e+02
<STATE> 3
<MEAN> 39
 -1.148290e+01 -1.712993e+00 9.988468e+00 -8.391984e+00 -1.202667e+01 -5.367431e+00 -4.848354e+00 -9.454105e+00 -5.224554e+00 -8.965538e+00 3.411141e+00 -7.870889e+00 7.089610e+01 -4.164889e-01 -9.958343e-01 -1.447882e+00 -2.017021e-01 2.331881e-01 1.025364e-01 -7.913701e-02 1.172461e+00 4.486044e-01 4.742837e-01 -3.772897e-01 1.193677e-01 1.886674e-01 -1.377438e-02 -2.714500e-02 -3.339259e-03 -8.938812e-02 -6.456000e-02 7.085116e-02 -5.900371e-02 -5.788999e-03 6.406335e-02 -8.093298e-02 -5.966714e-02 -4.442511e-02 1.817679e-02
<VARIANCE> 39
 1.510972e+02 8.214422e+01 6.425822e+01 6.234357e+01 1.405828e+02 1.582986e+01 3.179678e+01 8.025461e+01 1.861600e+01 4.437709e+01 2.854153e+01 3.298301e+01 3.359797e+01 5.735540e+00 1.677943e+00 3.253312e+00 4.113321e+00 7.216413e+00 1.927535e+00 2.720700e+00 4.120677e+00 1.891355e+00 2.952889e+00 2.808698e+00 1.597124e+00 2.819266e+00 7.648699e-01 3.107581e-01 5.277817e-01 6.153994e-01 1.224170e+00 3.737715e-01 5.808118e-01 6.636197e-01 3.925730e-01 4.439052e-01 4.964828e-01 2.216323e-01 3.481909e-01
<GCONST> 1.268894e+02
<STATE> 4
<MEAN> 39
 -6.651315e+00 -8.773003e+00 -3.562822e+00 -1.434638e+01 -1.151178e+01 1.095719e+00 -4.361197e+00 -6.189122e+00 9.315064e-01 -7.015886e+00 2.323395e+00 -1.070942e+01 7.426492e+01 7.923387e-01 -6.597665e-01 -8.395558e-01 2.548557e-01 -2.056833e-02 3.164429e-01 -1.309678e-01 1.650168e-01 3.482172e-01 -1.144893e-01 -2.877166e-02 -1.887404e-01 3.774063e-02 3.620813e-02 3.096595e-02 1.107154e-01 1.356964e-01 1.720566e-01 -7.659248e-02 -6.024206e-02 3.261117e-02 1.584662e-03 7.833602e-02 -3.823966e-02 6.774050e-03 3.639873e-02
<VARIANCE> 39
 1.892981e+02 5.014118e+01 6.735338e+01 6.936321e+01 7.755989e+01 8.929620e+01 2.609248e+01 5.903328e+01 2.803356e+01 3.458081e+01 4.910477e+01 5.582678e+01 5.627378e+01 6.479460e+00 1.791481e+00 2.967186e+00 7.337734e+00 6.879915e+00 7.263865e+00 2.765806e+00 4.456667e+00 2.009788e+00 3.520155e+00 6.089520e+00 2.954659e+00 3.306424e+00 1.249539e+00 2.914386e-01 5.320755e-01 9.894527e-01 1.175044e+00 1.054681e+00 5.451719e-01 8.839411e-01 5.077510e-01 6.665525e-01 1.110739e+00 3.931553e-01 5.271693e-01
<GCONST> 1.375692e+02
<TRANSP> 5
 0.000000e+00 1.000000e+00 0.000000e+00 0.000000e+00 0.000000e+00
 0.000000e+00 9.518284e-01 4.817158e-02 0.000000e+00 0.000000e+00
 0.000000e+00 0.000000e+00 8.479030e-01 1.520971e-01 0.000000e+00
 0.000000e+00 0.000000e+00 0.000000e+00 9.168078e-01 8.319227e-02
 0.000000e+00 0.000000e+00 0.000000e+00 0.000000e+00 0.000000e+00
<ENDHMM>
~h "zh"
<BEGINHMM>
<NUMSTATES> 5
<STATE> 2
<MEAN> 39
 -6.048463e+00 -1.392903e+00 -7.938738e+00 -6.322337e+00 -9.874572e+00 -5.080719e-01 -6.317677e+00 -2.346888e+00 -4.846440e+00 -6.283400e+00 -3.527649e+00 -2.854811e+00 4.483335e+01 -5.438862e-01 -4.002310e-01 -2.049972e-01 4.172214e-01 5.702272e-02 -4.068245e-01 5.009547e-02 -1.265977e-01 -1.683756e-01 3.129073e-01 -7.705218e-02 1.738583e-01 -3.853308e-01 1.599689e-01 1.582372e-01 2.079370e-01 1.110484e-01 1.205339e-01 1.222697e-01 -1.026086e-01 -5.419464e-02 3.367273e-02 -1.228765e-02 1.414598e-01 -6.047134e-02 9.696617e-02
<VARIANCE> 39
 3.665423e+01 3.987861e+01 1.851114e+01 3.108442e+01 1.356617e+01 2.128849e+01 1.443200e+01 2.010682e+01 2.219716e+01 1.762632e+01 2.896517e+01 3.517802e+01 5.937529e+00 1.347979e+00 1.502172e+00 1.630270e+00 1.561119e+00 1.274851e+00 2.523375e+00 1.471017e+00 2.443655e+00 2.578454e+00 1.406423e+00 2.669524e+00 2.159691e+00 4.546016e-01 1.066225e-01 2.290702e-01 3.443953e-01 3.467966e-01 2.757406e-01 4.687928e-01 2.526644e-01 4.642935e-01 5.572985e-01 2.922122e-01 6.622361e-01 5.116038e-01 4.204624e-02
<GCONST> 1.015802e+02
<STATE> 3
<MEAN> 39
 -6.432498e+00 8.633733e-03 -6.571988e+00 -6.269129e+00 -1.156928e+01 -1.403314e+00 -6.693496e+00 -2.995650e+00 -2.908154e+00 -4.393936e+00 -5.206916e+00 -3.278751e+00 4.393534e+01 -4.732001e-01 -2.226049e-01 1.769542e-01 5.319356e-01 1.705011e-01 -1.199663e-01 -2.745563e-01 -4.646375e-01 -1.686813e-01 2.984950e-01 8.032247e-02 1.861919e-01 -3.383848e-01 1.297260e-01 1.312613e-01 1.407526e-01 9.390259e-02 9.563103e-02 6.696238e-02 -1.206513e-01 -7.394754e-02 9.547805e-03 -4.453659e-02 8.322439e-02 -1.865136e-03 7.537442e-02
<VARIANCE> 39
 2.876424e+01 2.388593e+01 3.384526e+01 2.001208e+01 1.738870e+01 1.481357e+01 1.691104e+01 2.210886e+01 1.917270e+01 2.024063e+01 1.922158e+01 2.347042e+01 7.315120e+00 9.658672e-01 7.542387e-01 7.256187e-01 1.337086e+00 1.320591e+00 1.188520e+00 1.412756e+00 2.033906e+00 1.924425e+00 2.124199e+00 1.809897e+00 1.289952e+00 3.203450e-01 1.170246e-01 1.208793e-01 1.724112e-01 1.857869e-01 2.241060e-01 2.613374e-01 2.556478e-01 3.545664e-01 3.855104e-01 3.753088e-01 3.322355e-01 2.840542e-01 3.300986e-02
<GCONST> 9.190038e+01
<STATE> 4
<MEAN> 39
 -1.016723e+01 -1.521836e+00 -7.512372e+00 -3.251474e+00 -8.017588e+00 -6.727425e-01 -7.535072e+00 -4.445783e+00 -5.259791e+00 -4.243093e+00 -3.672279e+00 -4.423053e+00 4.141525e+01 -3.704296e-01 -9.700937e-02 8.249113e-02 6.116571e-01 3.791555e-01 -8.849367e-02 -3.189021e-01 -4.989376e-01 -1.720740e-01 1.492138e-01 1.272645e-01 1.129574e-01 -2.879912e-01 9.689502e-02 5.846420e-02 -1.399363e-02 -1.050184e-01 -8.192508e-02 -3.230252e-02 2.260681e-02 5.883058e-02 5.197041e-02 -1.393214e-02 -8.309698e-03 1.741179e-02 4.699270e-02
<VARIANCE> 39
 1.237726e+01 1.569065e+01 2.099754e+01 2.686423e+01 2.058029e+01 1.341017e+01 1.562834e+01 1.905291e+01 1.368497e+01 2.079696e+01 1.750048e+01 1.924518e+01 3.634416e+00 4.520984e-01 6.891691e-01 9.860630e-01 1.456996e+00 1.124936e+00 1.211138e+00 1.508231e+00 1.532608e+00 1.667899e+00 1.849432e+00 1.457824e+00 1.365466e+00 1.585266e-01 8.093424e-02 1.366350e-01 1.853533e-01 2.450201e-01 2.451307e-01 1.848829e-01 2.703339e-01 3.419593e-01 3.570861e-01 3.421307e-01 2.839749e-01 2.528076e-01 2.805929e-02
<GCONST> 8.629408e+01
<TRANSP> 5
 0.000000e+00 1.000000e+00 0.000000e+00 0.000000e+00 0.000000e+00
 0.000000e+00 7.389939e-01 2.610062e-01 0.000000e+00 0.000000e+00
 0.000000e+00 0.000000e+00 6.883199e-01 3.116801e-01 0.000000e+00
 0.000000e+00 0.000000e+00 0.000000e+00 7.331759e-01 2.668241e-01
 0.000000e+00 0.000000e+00 0.000000e+00 0.000000e+00 0.000000e+00
<ENDHMM>
~h "eng"
<BEGINHMM>
<NUMSTATES> 5
<STATE> 2
<MEAN> 39
 -2.106828e+00 -6.940171e+00 -6.225138e+00 -8.492285e+00 -9.215520e+00 2.794990e+00 -1.023680e+01 -3.917250e+00 -8.971546e-01 -1.291290e+01 5.587125e+00 -1.043059e+01 6.850029e+01 1.934318e-01 1.718177e-01 9.862712e-02 4.110668e-01 7.701717e-02 -2.153197e-01 4.769118e-01 -2.343631e-01 -3.816586e-01 2.789217e-01 -5.370843e-01 1.009009e-01 -6.640431e-01 -6.454387e-02 -1.804412e-02 -8.383056e-03 -6.164814e-02 2.122526e-02 3.692425e-02 9.277436e-03 1.226229e-02 -2.579977e-02 1.606667e-02 -5.887149e-02 6.418397e-02 2.457010e-03
<VARIANCE> 39
 1.025867e+02 3.412128e+01 3.728217e+01 6.288010e+01 5.029340e+01 1.037685e+02 6.276500e+01 4.767975e+01 3.706134e+01 9.745195e+01 1.293480e+02 4.116371e+01 1.023468e+02 7.286157e+00 3.000374e+00 1.858091e+00 4.413065e+00 3.478817e+00 4.066024e+00 3.473480e+00 2.891154e+00 2.189422e+00 2.929016e+00 4.042633e+00 2.881289e+00 4.619596e+00 9.547776e-01 5.088852e-01 2.737583e-01 6.711699e-01 5.437491e-01 5.962766e-01 6.551718e-01 4.735149e-01 3.708232e-01 4.567824e-01 5.531278e-01 4.849782e-01 3.726560e-01
<GCONST> 1.327593e+02
<STATE> 3
<MEAN> 39
 -6.756310e-01 -6.950021e+00 -5.359956e+00 -7.690191e+00 -8.945208e+00 2.433722e+00 -8.919330e+00 -5.749022e+00 -2.852522e+00 -1.082498e+01 2.481492e+00 -9.644195e+00 6.634798e+01 1.871956e-01 1.157554e-01 2.242022e-01 3.443524e-01 1.147227e-01 -2.224283e-01 3.012425e-01 -1.876019e-01 -3.904033e-01 3.995265e-01 -7.635458e-01 2.485408e-01 -4.848232e-01 -1.434874e-01 5.382052e-03 -2.194868e-03 3.795747e-02 3.201757e-02 -7.059929e-02 -5.047197e-03 3.624492e-02 1.320461e-02 1.971421e-02 -1.356356e-02 4.496530e-02 -1.644027e-02
<VARIANCE> 39
 1.174981e+02 4.380698e+01 3.730620e+01 6.992668e+01 5.152211e+01 8.027178e+01 4.796252e+01 4.870439e+01 3.954746e+01 6.537699e+01 8.347226e+01 3.938686e+01 9.996203e+01 7.475618e+00 3.124207e+00 2.376907e+00 4.865457e+00 3.803284e+00 4.150765e+00 3.419560e+00 3.679759e+00 2.830015e+00 3.727141e+00 4.955071e+00 3.014457e+00 4.834354e+00 1.069055e+00 5.323967e-01 3.987767e-01 8.456449e-01 6.144680e-01 6.439055e-01 6.113240e-01 5.893671e-01 5.077236e-01 5.791580e-01 7.323703e-01 5.573344e-01 4.330607e-01
<GCONST> 1.357043e+02
<STATE> 4
<MEAN> 39
 -2.245670e+00 -4.024598e+00 -5.321544e+00 -4.238671e+00 -7.247689e+00 7.123488e-01 -7.295255e+00 -6.281493e+00 -5.567187e+00 -6.989763e+00 -2.433076e+00 -6.510545e+00 5.647105e+01 -3.703828e-01 6.557733e-02 6.479968e-02 4.536341e-01 9.514138e-02 -5.520390e-01 1.955847e-01 1.164458e-01 1.615761e-02 2.415896e-01 -4.083993e-01 2.958243e-01 -3.705198e-01 -1.645459e-02 -4.549956e-02 -2.622613e-02 -7.720706e-02 3.669396e-03 -4.804121e-03 -7.306883e-02 8.794002e-02 6.994633e-02 -1.142329e-01 1.096659e-01 -7.327560e-02 1.495080e-01
<VARIANCE> 39
 1.002463e+02 5.504438e+01 4.752735e+01 4.341692e+01 4.986023e+01 5.336596e+01 2.949069e+01 4.378043e+01 3.089368e+01 3.750487e+01 3.605725e+01 2.889256e+01 1.726911e+02 4.682121e+00 2.767220e+00 2.602090e+00 2.808548e+00 3.256137e+00 3.199470e+00 2.649099e+00 3.247570e+00 2.491650e+00 2.845624e+00 3.038225e+00 2.083023e+00 2.782340e+00 5.896022e-01 4.692771e-01 4.526459e-01 5.419714e-01 5.816965e-01 6.080424e-01 5.104542e-01 5.754471e-01 4.674029e-01 4.541324e-01 5.074601e-01 4.400859e-01 3.345658e-01
<GCONST> 1.269049e+02
<TRANSP> 5
 0.000000e+00 1.000000e+00 0.000000e+00 0.000000e+00 0.000000e+00
 0.000000e+00 7.543344e-01 2.456657e-01 0.000000e+00 0.000000e+00
 0.000000e+00 0.000000e+00 7.109246e-01 2.890754e-01 0.000000e+00
 0.000000e+00 0.000000e+00 0.000000e+00 8.443110e-01 1.556890e-01
 0.000000e+00 0.000000e+00 0.000000e+00 0.000000e+00 0.000000e+00
<ENDHMM>
~h "ong"
<BEGINHMM>
<NUMSTATES> 5
<STATE> 2
<MEAN> 39
 -1.111584e+01 -2.853975e+00 -7.712368e+00 -2.070884e+00 -7.583168e+00 -1.681034e+00 -7.528150e+00 -4.393947e+00 -5.540976e+00 -4.335427e+00 -3.654714e+00 -3.023200e+00 4.090097e+01 -1.359355e-01 6.554957e-02 6.260580e-02 3.029874e-01 6.156598e-02 -1.774023e-01 -1.931090e-01 -1.318085e-01 6.720154e-03 2.318869e-01 1.268478e-01 2.501819e-01 -2.019446e-01 6.022223e-02 3.237151e-02 -3.735703e-02 -1.036224e-01 -6.919424e-02 2.770255e-02 5.906208e-02 1.234132e-01 2.698680e-02 -1.829189e-02 1.091608e-02 -2.717409e-02 3.914350e-02
<VARIANCE> 39
 5.460485e+00 1.256378e+01 9.771842e+00 1.360935e+01 1.107872e+01 1.469141e+01 1.171585e+01 1.260940e+01 1.154784e+01 1.612831e+01 1.532332e+01 1.858376e+01 3.634416e+00 3.373147e-01 5.038273e-01 6.007248e-01 9.441226e-01 1.040664e+00 1.502857e+00 1.355637e+00 1.574236e+00 1.388915e+00 1.557150e+00 1.251955e+00 1.526945e+00 9.369126e-02 5.627624e-02 9.058556e-02 1.214344e-01 2.040038e-01 1.998971e-01 2.586475e-01 2.574752e-01 3.023766e-01 2.702119e-01 2.931819e-01 2.314962e-01 3.170183e-01 1.482425e-02
<GCONST> 7.711909e+01
<STATE> 3
<MEAN> 39
 -1.097724e+01 -7.271748e-01 -7.569660e+00 -1.622406e+00 -7.259934e+00 -2.190122e+00 -7.793342e+00 -3.906407e+00 -5.462821e+00 -3.282493e+00 -3.553520e+00 -3.508276e+00 3.981986e+01 -5.785970e-02 5.149154e-02 -1.811486e-03 1.149502e-01 -9.398270e-03 -2.557546e-02 -4.145006e-02 4.084697e-02 9.973336e-03 9.125236e-02 1.089142e-01 8.489903e-02 -1.278670e-01 1.109640e-02 6.920742e-03 -2.443426e-02 -4.132829e-02 -3.582746e-03 4.890802e-02 4.628849e-02 4.231282e-02 1.542775e-02 -3.309710e-02 -2.835359e-03 -2.418785e-02 1.172676e-02
<VARIANCE> 39
 5.197418e+00 1.281853e+01 8.254128e+00 1.253386e+01 1.162109e+01 1.287453e+01 1.229972e+01 1.230236e+01 1.108320e+01 1.533229e+01 1.425036e+01 1.288038e+01 3.634416e+00 2.541921e-01 4.211761e-01 5.699720e-01 8.182214e-01 1.100919e+00 1.294407e+00 1.257433e+00 1.484486e+00 1.324908e+00 1.240378e+00 1.163454e+00 1.134366e+00 6.486746e-02 3.941581e-02 7.421251e-02 1.061166e-01 1.742903e-01 2.386831e-01 2.764247e-01 2.461293e-01 3.084466e-01 2.866707e-01 2.326422e-01 2.188489e-01 2.577946e-01 1.143551e-02
<GCONST> 7.302629e+01
<STATE> 4
<MEAN> 39
 -1.351236e+01 -2.086097e+00 -9.910559e+00 -1.583193e+00 -8.677317e+00 -1.111334e+00 -7.982850e+00 -3.808073e+00 -5.457408e+00 -3.667845e+00 -3.279631e+00 -3.311146e+00 3.689501e+01 -3.619866e-02 2.774156e-02 -4.248114e-02 3.411227e-02 -2.515750e-02 2.546634e-02 -1.737538e-02 4.637725e-03 -3.535601e-03 1.007258e-02 2.309128e-02 9.446090e-03 -8.714917e-02 1.990273e-03 -4.680572e-04 3.444548e-04 -2.791324e-03 -1.576947e-03 -1.074812e-03 -4.859245e-03 -4.826457e-03 -4.020997e-03 -7.387933e-03 -1.038936e-02 -5.629810e-03 2.401137e-03
<VARIANCE> 39
 2.981050e+00 8.197848e+00 8.522491e+00 1.127389e+01 1.198831e+01 1.411446e+01 1.124531e+01 1.445784e+01 1.271451e+01 1.340951e+01 1.277541e+01 1.243220e+01 3.634416e+00 1.431653e-01 3.055144e-01 4.435784e-01 6.642489e-01 8.809325e-01 1.008687e+00 1.188844e+00 1.357456e+00 1.250069e+00 1.452918e+00 1.280807e+00 1.184867e+00 4.177501e-02 2.733355e-02 5.796340e-02 8.561254e-02 1.299527e-01 1.819106e-01 2.114308e-01 2.458666e-01 2.757502e-01 2.511625e-01 3.033114e-01 2.726405e-01 2.484634e-01 7.199503e-03
<GCONST> 6.790940e+01
<TRANSP> 5
 0.000000e+00 1.000000e+00 0.000000e+00 0.000000e+00 0.000000e+00
 0.000000e+00 7.501394e-01 2.498606e-01 0.000000e+00 0.000000e+00
 0.000000e+00 0.000000e+00 8.309670e-01 1.690330e-01 0.000000e+00
 0.000000e+00 0.000000e+00 0.000000e+00 9.782936e-01 2.170639e-02
 0.000000e+00 0.000000e+00 0.000000e+00 0.000000e+00 0.000000e+00
<ENDHMM>
~h "shi"
<BEGINHMM>
<NUMSTATES> 5
<STATE> 2
<MEAN> 39
 -8.190542e+00 8.203737e-01 -5.799250e+00 2.177543e-01 -6.334826e+00 -2.833620e+00 -8.377934e+00 -2.311802e+00 -4.199770e+00 -3.734394e+00 -4.167527e+00 -2.846545e+00 4.168777e+01 -4.829620e-02 2.554977e-01 2.246295e-01 -2.577375e-02 -6.920082e-02 3.577224e-01 2.528561e-01 -1.604887e-01 -2.832558e-01 -8.981125e-03 3.261149e-02 1.985007e-02 -1.474523e-01 4.407164e-02 7.127899e-03 -2.025545e-02 -2.246428e-02 -3.141192e-02 -3.193207e-02 -2.081251e-02 1.010876e-02 1.675357e-02 1.220435e-02 2.803114e-02 1.748391e-02 2.929623e-02
<VARIANCE> 39
